%YAML:1.0
---
opencv_ml_svm:
   format: 3
   svmType: C_SVC
   kernel:
      type: LINEAR
   C: 1.
   term_criteria: { epsilon:1.1920928955078125e-07, iterations:1000 }
   var_count: 324
   class_count: 2
   class_labels: !!opencv-matrix
      rows: 2
      cols: 1
      dt: i
      data: [ 0, 1 ]
   sv_total: 1
   support_vectors:
      - [ 3.44550014e-01, -2.94996113e-01, -4.71222520e-01,
          -9.82849225e-02, 4.19747263e-01, 1.05114317e+00,
          -1.26095816e-01, 1.89778402e-01, 8.72178793e-01,
          5.68045378e-01, 1.83659196e-01, -1.14207506e+00,
          7.61190295e-01, -7.14584514e-02, 2.11068854e-01,
          -3.59482288e-01, -9.24573421e-01, 1.42920852e-01,
          -3.05071920e-01, -2.46277347e-01, -5.38318641e-02,
          -7.11113870e-01, 4.65851605e-01, -8.56710255e-01,
          -3.57324451e-01, 9.26870294e-03, 1.54219657e-01,
          -3.64578545e-01, 1.35006502e-01, -5.99418879e-01,
          6.02774084e-01, 5.28059483e-01, -6.53004467e-01,
          8.58008206e-01, -2.67773241e-01, -9.68143046e-02,
          8.46295357e-02, -8.39135721e-02, -2.59447128e-01,
          7.74709463e-01, 5.48191607e-01, 1.22077608e+00,
          -1.53040946e-01, -3.97463292e-01, 5.26055396e-01,
          4.84441727e-01, 1.01478040e+00, 4.71403867e-01, 6.14702642e-01,
          3.95633399e-01, -3.50094318e-01, 9.19112802e-01,
          -9.75384191e-02, 4.33446705e-01, -1.93053558e-01,
          -2.99292952e-01, 4.28174227e-01, -1.98124319e-01,
          2.27725640e-01, -1.01183236e+00, 5.36961138e-01,
          -2.77114362e-01, 1.03922971e-01, -2.89461344e-01,
          -5.29663861e-01, 2.64216870e-01, -4.36795503e-01,
          3.44769299e-01, -1.12109780e+00, 6.18913233e-01,
          -3.34243596e-01, 5.80034375e-01, 6.55306995e-01,
          7.03058019e-02, 1.38001561e-01, 3.37372065e-01,
          -2.92620450e-01, -1.61001179e-02, 6.35363609e-02,
          5.59836440e-02, 1.53123930e-01, 4.87900555e-01, 8.52907449e-02,
          2.34591239e-03, 2.99606800e-01, -3.08150113e-01,
          4.14985567e-01, -3.38655412e-01, 2.97864646e-01,
          4.43026513e-01, -6.35042787e-01, -8.14177632e-01,
          -2.37680003e-01, -7.56499112e-01, -3.18303257e-01,
          -6.36539012e-02, 1.36340763e-02, -7.86086857e-01,
          -6.37847483e-01, 5.51930033e-02, -6.97124660e-01,
          -2.89013267e-01, -1.19853985e+00, -5.04841506e-01,
          4.67123061e-01, 1.67101040e-01, -5.90721726e-01,
          2.13127404e-01, 3.09667766e-01, -4.77223396e-01,
          -1.20711185e-01, -6.96775392e-02, 3.34348768e-01,
          -3.49277675e-01, -1.11991763e+00, -5.58158994e-01,
          -1.68185607e-01, -5.34400940e-01, -1.06979418e+00,
          -5.44577837e-01, 4.51500356e-01, -6.12190127e-01,
          -1.03159271e-01, 6.84409201e-01, -2.02152267e-01,
          -7.20399678e-01, 1.48143840e+00, 8.03232014e-01,
          -2.22403258e-01, -5.15844584e-01, -3.95323560e-02,
          -5.70226967e-01, 3.78015749e-02, -1.98326126e-01,
          2.11639777e-01, 8.66950303e-02, 6.78589866e-02,
          -2.52059568e-03, 1.38922542e-01, -8.67310584e-01,
          -6.40793502e-01, 8.04645658e-01, -1.06691465e-01,
          -3.57495666e-01, -3.34367186e-01, -1.86365083e-01,
          9.04915988e-01, -1.85664594e-01, -4.79240954e-01,
          -4.54455137e-01, 7.56091774e-01, 8.91911685e-01,
          1.70709699e-01, -8.90324414e-01, -3.36531490e-01,
          5.05562901e-01, -2.71387070e-01, 2.01903004e-02,
          3.43296856e-01, 6.74170911e-01, 5.32268405e-01, 1.55712768e-01,
          -6.88705027e-01, 6.32688284e-01, 4.18162674e-01,
          2.13338196e-01, -3.66459072e-01, 3.44333053e-01,
          7.63063669e-01, 3.51380080e-01, -8.86791408e-01,
          -6.29208744e-01, 4.65692371e-01, 9.67478275e-01,
          -6.65509760e-01, -3.22831124e-01, 1.75621852e-01,
          3.61588567e-01, 2.71741092e-01, -9.09868300e-01,
          -3.04280877e-01, -3.57552081e-01, 9.32978868e-01,
          -5.05917311e-01, 4.96697664e-01, 4.49204594e-01,
          4.94038835e-02, -3.11997175e-01, 6.18090987e-01,
          6.99111342e-01, 4.18213494e-02, 2.28531748e-01,
          -1.45005509e-01, 7.26583779e-01, 7.91979671e-01,
          2.12970942e-01, -3.87916446e-01, 1.03204012e+00,
          -1.25777766e-01, 6.03185892e-01, 5.00556588e-01,
          -5.67503750e-01, 1.14632204e-01, 2.09131986e-01,
          -1.59484237e-01, -1.69608012e-01, -6.14269152e-02,
          7.61169374e-01, -5.53219169e-02, -7.36544430e-01,
          -4.73279208e-01, 3.29771668e-01, 5.05055964e-01,
          -8.40827465e-01, -5.57442904e-01, 7.64518678e-01,
          7.15886712e-01, 1.05969369e-01, -3.83548409e-01,
          1.19383320e-01, 2.25790292e-01, 5.74611902e-01, 1.38138905e-01,
          -1.81450188e-01, -4.72681582e-01, -3.57157469e-01,
          8.37651715e-02, -5.23330867e-01, -3.41170758e-01,
          -7.12639093e-01, 3.24246228e-01, -1.10910133e-01,
          -7.20421135e-01, -1.80991322e-01, 4.49666649e-01,
          -2.53801048e-01, -3.38743657e-01, 8.16029906e-01,
          3.22533816e-01, 1.43232912e-01, -5.61610460e-01,
          3.27662319e-01, 2.75228232e-01, -3.41676682e-01,
          2.05565959e-01, 1.75891042e-01, 1.45672351e-01,
          -6.91661835e-01, -9.56937969e-01, -7.62019813e-01,
          -5.51267445e-01, -2.65238762e-01, 2.77161062e-01,
          1.32629558e-01, -1.34126484e-01, -2.16779299e-02,
          2.80815870e-01, 2.88265198e-01, -4.08985317e-01,
          -9.03236493e-02, -4.64137435e-01, 1.78628698e-01,
          -9.08296853e-02, -1.54195935e-01, -4.60267752e-01,
          -7.69802570e-01, -3.47444117e-01, -5.22012770e-01,
          4.95386720e-01, 1.29066110e-01, 8.67460608e-01, 1.53222948e-01,
          -4.88092661e-01, 2.38573000e-01, 5.67602098e-01,
          5.02529263e-01, 2.72803344e-02, 3.28372449e-01, 5.56170940e-01,
          5.59148669e-01, 3.03563744e-01, -3.34839080e-03,
          2.06980661e-01, 4.19769317e-01, 2.09929094e-01,
          -1.84258055e-02, 6.40157461e-01, 1.45136425e-02,
          -2.01218188e-01, -2.94721037e-01, -3.39793414e-01,
          -7.02761889e-01, -1.16447794e+00, -3.23524296e-01,
          -2.97929704e-01, -3.84344935e-01, -1.28237247e-01,
          -4.06207770e-01, -1.22055376e+00, -2.96246052e-01,
          -4.42001522e-01, 1.67902499e-01, -4.68344837e-01,
          -6.01729035e-01, -1.26769364e-01, -4.22857702e-01,
          2.29875013e-01, 2.99870431e-01, 2.26950515e-02, 2.33157441e-01,
          -3.70840281e-01, 2.61637755e-02, 1.64924175e-01,
          5.32830119e-01, -5.47703207e-01, -5.06398035e-03,
          3.09467703e-01, 5.38006425e-01, 4.25740868e-01,
          -1.08325616e-01, -1.72924146e-01, -2.60570973e-01,
          6.24757707e-01, -1.77545637e-01 ]
   uncompressed_sv_total: 244
   uncompressed_support_vectors:
      - [ 6.81172088e-02, 4.05680418e-01, 4.05680418e-01, 6.71218559e-02,
          9.00292862e-03, 0., 0., 9.95808863e-04, 2.81964615e-02,
          5.20191304e-02, 1.99742690e-01, 3.14277679e-01, 4.35782820e-02,
          4.94485535e-03, 7.78125424e-04, 1.42522501e-02, 1.07721901e-02,
          6.80283178e-03, 8.26572031e-02, 4.05680418e-01, 4.05680418e-01,
          4.47897799e-02, 7.05361878e-03, 0., 0., 8.78654828e-04,
          2.02119090e-02, 6.68781698e-02, 2.43776590e-01, 3.30853343e-01,
          1.89090893e-02, 8.76619946e-03, 1.37748672e-02, 2.29710434e-02,
          1.15095163e-02, 3.16621503e-03, 1.35677293e-01, 2.56553859e-01,
          2.56553859e-01, 7.27619184e-03, 3.83618346e-04, 9.71203670e-03,
          2.56553859e-01, 2.06697524e-01, 9.81137305e-02, 1.59603000e-01,
          2.02839807e-01, 1.11465298e-01, 4.78985836e-04, 2.02161120e-03,
          6.13201270e-03, 2.56553859e-01, 2.11510226e-01, 1.27169326e-01,
          1.13942385e-01, 2.56553859e-01, 2.56553859e-01, 2.43496373e-02,
          8.95571113e-02, 2.18144700e-01, 2.56553859e-01, 1.62465364e-01,
          5.44025861e-02, 9.18442085e-02, 1.34806812e-01, 1.46207780e-01,
          1.17734879e-01, 1.70595959e-01, 2.22268924e-01, 2.48668417e-01,
          1.38852045e-01, 7.61062279e-02, 2.33509108e-01, 3.07619542e-01,
          2.10461572e-01, 3.17961606e-03, 1.12383778e-03, 0.,
          7.95600787e-02, 6.21346906e-02, 8.49952549e-02, 1.44836605e-01,
          1.92264318e-01, 1.31436065e-01, 2.80554336e-03, 4.98686694e-02,
          5.96493185e-02, 3.07619542e-01, 2.81655043e-01, 1.19070679e-01,
          1.10343114e-01, 2.45251104e-01, 3.07619542e-01, 1.78466991e-01,
          8.31914842e-02, 4.78970967e-02, 9.37827602e-02, 5.04486337e-02,
          3.60805355e-02, 8.05326179e-02, 1.65901840e-01, 2.26568386e-01,
          8.51404592e-02, 5.52311577e-02, 7.63357133e-02, 3.07619542e-01,
          3.07619542e-01, 7.24715441e-02, 4.87688407e-02, 4.04345185e-01,
          4.04345185e-01, 5.49925491e-02, 1.18671739e-02, 1.37258868e-03,
          1.65168277e-03, 4.85342258e-04, 4.99062659e-03, 4.84032109e-02,
          1.99036226e-01, 3.15605849e-01, 3.48994955e-02, 5.74879721e-02,
          8.14954862e-02, 4.55372930e-02, 1.18518230e-02, 2.15653767e-04,
          2.75638327e-02, 4.04345185e-01, 4.04345185e-01, 7.93055668e-02,
          1.21790199e-02, 1.12557802e-02, 1.29552064e-02, 3.78358294e-03,
          7.24311778e-03, 1.64626762e-02, 1.12271130e-01, 2.13694677e-01,
          7.79813305e-02, 7.35337660e-02, 2.66272128e-01, 1.75652489e-01,
          4.60495427e-02, 0., 2.28457171e-02, 6.70690313e-02,
          9.75809619e-02, 4.38354351e-02, 1.79467797e-01, 2.97461271e-01,
          1.60613060e-01, 3.97263058e-02, 1.65185414e-03, 3.59712751e-03,
          4.64576259e-02, 1.84969097e-01, 2.60408729e-01, 2.06706643e-01,
          2.97461271e-01, 1.12627268e-01, 2.50613168e-02, 2.45385105e-03,
          3.26379412e-03, 2.13999283e-02, 5.78761771e-02, 5.87990396e-02,
          1.74723923e-01, 2.97461271e-01, 2.97461271e-01, 8.26639086e-02,
          0., 5.63880103e-03, 1.90203220e-01, 2.97461271e-01,
          2.97461271e-01, 1.56701595e-01, 2.97461271e-01, 1.85172826e-01,
          4.07476053e-02, 0., 5.78476768e-03, 9.76813883e-02,
          3.10424894e-01, 3.10424894e-01, 1.07769139e-01, 8.83309469e-02,
          5.21664023e-02, 1.43901920e-02, 1.26431521e-03, 3.61071620e-03,
          3.87624316e-02, 1.15367092e-01, 1.07275866e-01, 9.19629112e-02,
          2.21087560e-01, 3.10424894e-01, 1.34586498e-01, 2.61744251e-03,
          1.49037568e-02, 3.08615237e-01, 3.10424894e-01, 3.10424894e-01,
          1.02502942e-01, 9.84208509e-02, 8.36492032e-02, 2.36409176e-02,
          0., 4.24801791e-03, 4.63168770e-02, 9.96965319e-02,
          7.64300749e-02, 1.24155238e-01, 3.06156099e-01, 3.10424894e-01,
          1.86272129e-01, 1.25350023e-03, 2.05682926e-02, 3.39116782e-01,
          3.39116782e-01, 9.40836668e-02, 3.24626379e-02, 1.58855114e-02,
          2.70310976e-02, 8.18243716e-03, 1.21030826e-02, 2.76845996e-03,
          5.96349500e-02, 1.38790995e-01, 7.39153326e-02, 5.08035235e-02,
          2.99112737e-01, 3.26292932e-01, 9.44486484e-02, 9.63356404e-04,
          6.82765394e-02, 3.39116782e-01, 3.39116782e-01, 1.41235501e-01,
          9.57798958e-02, 4.43253331e-02, 5.68557158e-02, 1.66148152e-02,
          2.10380219e-02, 5.96112432e-03, 3.26502807e-02, 1.19864225e-01,
          9.35969502e-02, 1.51828811e-01, 2.56083667e-01, 3.39116782e-01,
          1.46163374e-01, 2.08402276e-02, 3.87082022e-04, 1.40852835e-02,
          4.83539626e-02, 3.05916909e-02, 3.80430482e-02, 2.98063844e-01,
          2.98063844e-01, 1.02300979e-01, 1.78250030e-03, 3.13972728e-03,
          1.79723352e-01, 2.98063844e-01, 2.22033992e-01, 5.62459715e-02,
          2.63131797e-01, 1.60370886e-01, 4.25149873e-02, 9.16334626e-04,
          8.18806421e-03, 1.87591314e-02, 6.66482598e-02, 3.12166885e-02,
          4.67771776e-02, 2.98063844e-01, 2.98063844e-01, 2.05919176e-01,
          4.29337099e-02, 6.93231076e-03, 2.54829377e-01, 2.98063844e-01,
          1.96973220e-01, 4.38214913e-02, 1.74969867e-01, 2.57666320e-01,
          1.07943147e-01, 2.02397332e-02, 1.00407740e-02, 2.68451840e-01,
          3.40423405e-01, 3.03496599e-01, 1.16348624e-01, 4.95185144e-02,
          6.76256493e-02, 2.03577336e-02, 9.10925446e-05, 1.15967784e-02,
          3.55167501e-02, 8.74542594e-02, 5.83828315e-02, 1.11359850e-01,
          1.22958839e-01, 3.40423405e-01, 1.71220690e-01, 1.46259079e-02,
          2.16318537e-02, 3.40423405e-01, 3.40423405e-01, 2.51279026e-01,
          8.05322453e-02, 5.59250750e-02, 8.34366530e-02, 2.66210325e-02,
          8.80561245e-04, 1.85314566e-02, 6.30791336e-02, 1.14659533e-01,
          4.35495637e-02, 7.96401128e-02, 1.90290347e-01, 3.40423405e-01,
          1.38638437e-01, 1.91934872e-02 ]
      - [ 3.54732089e-02, 2.34426185e-01, 2.86926955e-01, 6.70548454e-02,
          3.86844687e-02, 1.58677742e-01, 2.86926955e-01, 9.76311043e-02,
          2.88543589e-02, 3.86645719e-02, 2.75863707e-01, 2.86926955e-01,
          2.46650130e-01, 4.32963446e-02, 5.83822541e-02, 1.10135056e-01,
          7.79917091e-02, 4.07720841e-02, 4.06490043e-02, 2.86926955e-01,
          2.86926955e-01, 4.22126986e-02, 3.46453860e-02, 1.33993402e-01,
          2.86926955e-01, 1.19648397e-01, 3.17151248e-02, 5.90139180e-02,
          2.81618267e-01, 2.86926955e-01, 1.34365886e-01, 4.16214429e-02,
          4.86856550e-02, 8.88266042e-02, 7.68796280e-02, 5.33305593e-02,
          2.25089751e-02, 9.55484509e-02, 2.97776341e-01, 2.41264373e-01,
          5.07232510e-02, 1.14810497e-01, 2.97776341e-01, 2.36191422e-01,
          3.59837338e-02, 1.00069968e-02, 1.41527234e-02, 5.37032150e-02,
          5.53593263e-02, 4.17539701e-02, 1.50283426e-01, 2.97776341e-01,
          2.97776341e-01, 4.27669920e-02, 2.41094269e-02, 9.01760682e-02,
          2.97776341e-01, 1.85257509e-01, 9.92348269e-02, 1.47183672e-01,
          1.88251749e-01, 1.45879641e-01, 2.53735967e-02, 2.77805654e-03,
          1.12047261e-02, 6.18653893e-02, 8.10452551e-02, 9.92598087e-02,
          2.11652741e-01, 2.97776341e-01, 2.97776341e-01, 7.84656927e-02,
          7.11233839e-02, 8.17706883e-02, 1.35578275e-01, 1.34982720e-01,
          6.36504889e-02, 9.40269381e-02, 2.75895983e-01, 2.75895983e-01,
          5.30901477e-02, 1.48577526e-01, 2.04120308e-01, 2.75895983e-01,
          2.75895983e-01, 1.00147568e-01, 4.09608670e-02, 4.83766161e-02,
          6.09135106e-02, 9.32431966e-02, 1.97042692e-02, 6.87623024e-02,
          2.21578002e-01, 1.58293948e-01, 7.15285391e-02, 1.28704339e-01,
          2.75895983e-01, 2.75895983e-01, 1.03051439e-01, 9.21536833e-02,
          2.34929070e-01, 2.75895983e-01, 2.75895983e-01, 9.94229764e-02,
          3.88846919e-02, 1.30541921e-01, 1.57183230e-01, 7.51268119e-02,
          3.91301587e-02, 2.79365063e-01, 2.95384824e-01, 4.73509580e-02,
          4.08944078e-02, 6.95819333e-02, 2.95384824e-01, 1.39298543e-01,
          2.86958460e-02, 4.45037745e-02, 1.91232413e-01, 2.95384824e-01,
          5.88051677e-02, 4.05958630e-02, 5.80112971e-02, 1.39816716e-01,
          8.80471468e-02, 4.57897969e-02, 3.85228470e-02, 2.64548779e-01,
          2.95384824e-01, 5.70326932e-02, 4.22483012e-02, 4.29579988e-02,
          2.95384824e-01, 2.16013253e-01, 2.69760117e-02, 1.80681180e-02,
          1.62446961e-01, 2.95384824e-01, 7.89271891e-02, 5.84607460e-02,
          6.66348115e-02, 2.95384824e-01, 1.81496322e-01, 4.26333621e-02,
          2.21333392e-02, 7.35392421e-02, 2.36736894e-01, 1.31172597e-01,
          1.56144470e-01, 2.22464293e-01, 2.51345634e-01, 9.72926766e-02,
          3.70747671e-02, 4.94280877e-03, 2.09987462e-02, 1.31364629e-01,
          1.12253256e-01, 1.57294333e-01, 2.51345634e-01, 2.51345634e-01,
          2.51345634e-01, 9.58998352e-02, 1.96616519e-02, 5.58121577e-02,
          1.82714105e-01, 2.47961774e-01, 1.47028610e-01, 1.22522488e-01,
          2.51345634e-01, 2.19659895e-01, 9.26614255e-02, 3.84910516e-02,
          7.07339495e-02, 2.51345634e-01, 1.97558656e-01, 8.35583061e-02,
          7.69630447e-02, 2.51345634e-01, 2.51345634e-01, 1.17102720e-01,
          1.44697698e-02, 4.90799770e-02, 1.74788952e-01, 8.60863701e-02,
          3.74311805e-02, 7.66207948e-02, 2.78704673e-01, 2.78704673e-01,
          9.29947421e-02, 6.18266836e-02, 2.21935853e-01, 2.78704673e-01,
          2.07372621e-01, 4.44338955e-02, 2.20394563e-02, 1.90807909e-01,
          2.08232000e-01, 4.60027307e-02, 6.26857579e-02, 9.16014239e-02,
          1.60241634e-01, 6.35171384e-02, 2.42535081e-02, 4.16273437e-02,
          2.78704673e-01, 2.78704673e-01, 1.22181639e-01, 1.24847256e-01,
          2.78704673e-01, 2.78704673e-01, 8.15866441e-02, 1.91946998e-02,
          2.94332206e-02, 2.21743733e-01, 2.71531582e-01, 1.04381450e-01,
          2.73772161e-02, 2.61020422e-01, 2.76892006e-01, 2.45790165e-02,
          1.29355276e-02, 3.77029553e-02, 2.76892006e-01, 1.71123683e-01,
          1.47472303e-02, 1.10677686e-02, 1.49108753e-01, 2.76892006e-01,
          5.71462326e-02, 3.27064693e-02, 1.28361121e-01, 2.76892006e-01,
          1.84893802e-01, 2.28678528e-02, 5.25539964e-02, 2.76892006e-01,
          2.76892006e-01, 2.01285221e-02, 6.58865599e-03, 3.05400491e-02,
          2.19195366e-01, 1.52181447e-01, 1.45772733e-02, 2.22060066e-02,
          1.86078340e-01, 2.76892006e-01, 2.89116092e-02, 1.26841133e-02,
          1.29714459e-01, 2.76892006e-01, 2.76892006e-01, 1.60166696e-02,
          1.64719634e-02, 7.32372850e-02, 2.84529388e-01, 1.98925987e-01,
          7.30462074e-02, 1.69298157e-01, 2.84529388e-01, 1.83975995e-01,
          4.71521318e-02, 4.72345948e-02, 1.18857272e-01, 2.84529388e-01,
          1.50336444e-01, 3.46722081e-02, 5.28904386e-02, 1.39794365e-01,
          1.77509964e-01, 9.39454660e-02, 3.96944024e-02, 1.46865293e-01,
          2.84529388e-01, 1.77426338e-01, 3.50886546e-02, 1.87862158e-01,
          2.84529388e-01, 2.75036693e-01, 3.16894278e-02, 4.24349494e-02,
          1.68713361e-01, 2.84529388e-01, 1.90488026e-01, 3.31405848e-02,
          8.86030272e-02, 1.48546994e-01, 1.53228521e-01, 6.67904764e-02,
          8.83886591e-02, 1.56893522e-01, 1.52775079e-01, 6.68353736e-02,
          3.48473005e-02, 1.12723134e-01, 2.46137217e-01, 2.52207488e-01,
          1.91822171e-01, 1.44055158e-01, 2.52207488e-01, 2.52207488e-01,
          7.87264854e-02, 3.06819323e-02, 7.06097409e-02, 1.89019129e-01,
          2.40261048e-01, 1.68718785e-01, 6.48842826e-02, 1.65885493e-01,
          2.26686925e-01, 8.54808167e-02, 5.82168102e-02, 1.98116556e-01,
          2.52207488e-01, 2.52207488e-01, 1.02095082e-01, 1.35143399e-01,
          2.52207488e-01, 2.52207488e-01, 8.00014511e-02, 4.21719477e-02,
          9.23175961e-02, 1.54917508e-01, 1.06464036e-01, 1.10016666e-01 ]
      - [ 2.39922595e-03, 3.31815481e-01, 4.37430441e-01, 9.90762189e-03,
          2.32440140e-03, 3.53915035e-03, 2.27953400e-03, 3.49776703e-03,
          2.16132868e-03, 5.71046723e-03, 9.69936326e-02, 3.75366598e-01,
          1.71970110e-02, 1.07003665e-02, 1.00056659e-02, 6.00345479e-03,
          8.58327188e-03, 5.57108317e-03, 1.63564237e-03, 3.84099633e-01,
          4.37430441e-01, 6.87028095e-03, 9.36960569e-04, 3.53373750e-03,
          5.80084417e-03, 6.17804518e-03, 3.20149539e-03, 4.67831595e-03,
          1.38940543e-01, 4.28158939e-01, 1.25828125e-02, 1.36665385e-02,
          1.60322059e-02, 1.90804172e-02, 1.82228349e-02, 8.94747954e-03,
          1.22680455e-01, 2.12376788e-01, 2.59110391e-01, 2.28099346e-01,
          2.64677346e-01, 1.09624662e-01, 6.70934990e-02, 6.05404377e-02,
          8.44275206e-02, 1.07496925e-01, 1.54042363e-01, 2.43828744e-01,
          1.38813958e-01, 1.32041574e-01, 4.46885042e-02, 3.36147770e-02,
          1.45536419e-02, 6.34199753e-02, 1.00047864e-01, 1.88227445e-01,
          2.64677346e-01, 2.64677346e-01, 2.64677346e-01, 1.76496565e-01,
          1.73995197e-01, 1.54680997e-01, 1.08517781e-01, 5.36036976e-02,
          1.11526206e-01, 2.64677346e-01, 2.64677346e-01, 2.64677346e-01,
          2.32053604e-02, 2.62647420e-02, 1.97819769e-02, 4.51887362e-02,
          1.40074804e-01, 2.55316973e-01, 3.18502992e-01, 2.44254649e-01,
          2.63181269e-01, 2.18148250e-02, 1.31490994e-02, 3.34650022e-03,
          7.18311965e-02, 5.15374169e-02, 3.40766944e-02, 5.27001023e-02,
          2.26633027e-02, 2.23482117e-01, 2.73167025e-02, 1.20584086e-01,
          6.74901679e-02, 5.81481121e-02, 7.88824558e-02, 2.82962173e-01,
          3.18502992e-01, 3.18502992e-01, 3.18502992e-01, 2.48950385e-02,
          4.90496755e-02, 2.67598610e-02, 5.19004650e-02, 1.05806440e-01,
          1.57841891e-01, 2.90810794e-01, 1.14698902e-01, 1.80933297e-01,
          4.30638939e-02, 1.34469107e-01, 7.05455840e-02, 8.36793259e-02,
          5.46522089e-04, 3.40506881e-01, 4.16265637e-01, 8.58535059e-03,
          1.67529448e-03, 8.14478472e-03, 1.54089453e-02, 8.18988960e-03,
          1.60355796e-03, 3.77356121e-03, 1.16778784e-01, 3.96576166e-01,
          1.01420954e-02, 2.92895958e-02, 3.59856114e-02, 3.38449813e-02,
          2.14043763e-02, 6.93904189e-03, 2.39894609e-03, 4.00498182e-01,
          4.16265637e-01, 7.81824719e-03, 1.58740114e-03, 5.73114865e-03,
          1.93477478e-02, 1.70690380e-02, 6.43367367e-03, 1.76926963e-02,
          1.36087745e-01, 4.16265637e-01, 5.23383636e-03, 1.57963280e-02,
          1.99790914e-02, 2.83248238e-02, 4.31385003e-02, 3.74600030e-02,
          9.07321572e-02, 7.55252466e-02, 1.12837136e-01, 2.09125072e-01,
          2.63877332e-01, 1.97936177e-01, 1.22739099e-01, 8.81290585e-02,
          6.01723082e-02, 8.81430805e-02, 1.73521131e-01, 2.63877332e-01,
          2.63877332e-01, 2.63877332e-01, 1.89687070e-02, 2.30547749e-02,
          1.23943109e-02, 3.74327227e-02, 2.63877332e-01, 1.88531309e-01,
          1.09364361e-01, 6.20097518e-02, 2.26824835e-01, 1.06128000e-01,
          8.58061090e-02, 1.55938372e-01, 2.63877332e-01, 2.63877332e-01,
          2.63877332e-01, 2.63877332e-01, 1.21735036e-01, 1.22829892e-01,
          1.57484394e-02, 4.15283851e-02, 2.01709121e-02, 1.27655670e-01,
          9.30599943e-02, 3.07123780e-01, 3.07123780e-01, 3.07123780e-01,
          1.88787952e-01, 9.51958261e-03, 1.23140693e-01, 5.39137721e-02,
          4.76686321e-02, 2.91347802e-02, 8.08021724e-02, 1.62250817e-01,
          7.32811168e-02, 1.36519089e-01, 5.18846624e-02, 1.96878880e-01,
          6.80686533e-02, 1.57837309e-02, 1.88906357e-01, 3.07123780e-01,
          3.07123780e-01, 2.04902858e-01, 9.43303853e-02, 4.07062396e-02,
          2.93521971e-01, 1.04942232e-01, 7.17376992e-02, 1.17353657e-02,
          6.17995858e-02, 1.50109157e-01, 7.91679844e-02, 1.22087568e-01,
          9.25142616e-02, 3.07123780e-01, 1.24160543e-01, 4.74207755e-03,
          6.95502479e-03, 3.56193036e-01, 4.44631338e-01, 4.93216654e-03,
          1.51117938e-03, 2.83122412e-03, 8.58082343e-03, 1.15695447e-02,
          9.94864013e-03, 1.38245318e-02, 1.16125189e-01, 4.44631338e-01,
          3.38973827e-03, 3.47739644e-03, 7.57008186e-03, 1.30894426e-02,
          2.52080206e-02, 3.11178211e-02, 6.03451813e-03, 2.27103680e-01,
          4.44631338e-01, 1.03746532e-02, 4.71537886e-03, 7.08573405e-03,
          1.22471545e-02, 5.39841363e-03, 5.55731077e-03, 1.30803336e-03,
          9.58969519e-02, 4.44631338e-01, 4.97465720e-03, 4.49911831e-03,
          1.28798457e-02, 2.23792084e-02, 7.55068380e-03, 2.51148245e-03,
          2.66921103e-01, 1.84693590e-01, 2.01064184e-01, 8.57060403e-02,
          1.05129108e-01, 1.11875243e-01, 1.02462471e-01, 1.69418231e-01,
          2.66921103e-01, 2.66921103e-01, 2.66921103e-01, 2.58830845e-01,
          1.31347597e-01, 1.27960801e-01, 6.29892349e-02, 7.77903274e-02,
          3.27468701e-02, 1.62338108e-01, 4.91333492e-02, 8.61231908e-02,
          2.66921103e-01, 1.42999202e-01, 1.88769460e-01, 2.34411910e-01,
          1.96597174e-01, 6.00799210e-02, 4.79055382e-02, 3.76452133e-02,
          5.74635379e-02, 1.79006308e-01, 2.34737426e-01, 2.66921103e-01,
          1.53950527e-01, 7.37463012e-02, 1.98579840e-02, 1.78265423e-02,
          1.23421498e-01, 2.74863988e-01, 2.74863988e-01, 2.10092381e-01,
          1.95782349e-01, 7.30237439e-02, 2.74863988e-01, 9.81255621e-02,
          3.93936001e-02, 1.70515862e-03, 3.21734138e-02, 1.02881484e-01,
          9.00826529e-02, 1.28324255e-01, 8.14562887e-02, 2.74863988e-01,
          1.16345562e-01, 8.04453739e-04, 1.97735839e-02, 1.00245267e-01,
          2.74863988e-01, 2.74863988e-01, 2.74863988e-01, 1.25805140e-01,
          1.49563089e-01, 4.69905734e-02, 3.10771260e-03, 1.12685682e-02,
          7.24228993e-02, 2.33749047e-01, 2.27922544e-01, 2.74863988e-01,
          7.05761462e-02, 2.20666930e-01, 7.51332417e-02, 1.12442020e-02 ]
      - [ 4.47017737e-02, 2.63044626e-01, 2.88929552e-01, 1.16514154e-01,
          2.44965069e-02, 3.98165658e-02, 2.88929552e-01, 1.84965909e-01,
          7.07151508e-03, 1.94188934e-02, 1.95262253e-01, 1.84457690e-01,
          3.13040987e-02, 1.18774911e-02, 4.15319875e-02, 2.88929552e-01,
          2.88929552e-01, 8.35971162e-03, 6.81826659e-03, 5.23867197e-02,
          2.88929552e-01, 2.50501186e-01, 8.84422883e-02, 1.20942220e-01,
          2.86351770e-01, 4.90981154e-02, 2.47615902e-03, 1.63631253e-02,
          1.67551354e-01, 2.35063478e-01, 5.98405004e-02, 4.45483699e-02,
          1.33110985e-01, 2.88929552e-01, 1.42080843e-01, 1.00143589e-02,
          9.25612450e-03, 2.35235915e-01, 2.15254843e-01, 4.09971690e-03,
          1.69879256e-03, 7.00386614e-03, 1.30317360e-01, 6.36457652e-02,
          6.08410081e-03, 2.28520874e-02, 3.16435277e-01, 3.86284262e-01,
          3.24031673e-02, 5.97909139e-03, 7.53817661e-03, 1.44532928e-02,
          1.41609544e-02, 9.81163234e-03, 9.59088355e-02, 3.12898129e-01,
          2.59419918e-01, 1.85387454e-03, 9.72904440e-04, 1.36645567e-02,
          9.86947417e-02, 4.53469083e-02, 1.60510242e-02, 3.67366493e-01,
          3.86284262e-01, 3.86284262e-01, 9.36142635e-03, 3.58500215e-03,
          4.83576721e-03, 1.19899632e-02, 2.18179077e-02, 3.07758637e-02,
          3.05514713e-03, 1.31887838e-01, 3.42406332e-01, 7.78179662e-03,
          1.51566206e-03, 5.20643592e-03, 2.12224454e-01, 8.64061788e-02,
          1.49724353e-03, 1.29021856e-03, 4.95175011e-02, 1.97410822e-01,
          1.39253784e-03, 1.24355312e-03, 4.79147863e-03, 3.42406332e-01,
          3.09036732e-01, 1.02957140e-03, 8.03272203e-02, 3.42406332e-01,
          3.42406332e-01, 2.21714121e-03, 1.22731563e-03, 3.48553597e-03,
          2.43806228e-01, 9.75180939e-02, 8.21744092e-03, 6.64091017e-03,
          1.03324056e-01, 1.55573606e-01, 2.19315803e-03, 2.39559170e-03,
          4.02627885e-03, 3.42406332e-01, 3.04871649e-01, 4.99595096e-03,
          8.14363658e-02, 1.32694468e-01, 3.00692290e-01, 2.10502252e-01,
          1.05943553e-01, 1.23624906e-01, 1.58968762e-01, 4.21197377e-02,
          2.71527823e-02, 2.44451746e-01, 3.00692290e-01, 2.76052803e-01,
          5.57000265e-02, 5.27194366e-02, 1.51557773e-01, 3.00692290e-01,
          1.07627362e-01, 5.94532378e-02, 1.46519378e-01, 2.42260724e-01,
          1.63781434e-01, 2.43435986e-02, 9.35205352e-03, 7.16438564e-03,
          2.58735754e-02, 3.64487991e-02, 5.57833165e-02, 3.00692290e-01,
          3.00692290e-01, 3.00692290e-01, 1.70373559e-01, 4.03595623e-03,
          8.16640258e-03, 3.90108712e-02, 5.74754439e-02, 7.04904050e-02,
          1.73443064e-01, 3.17430198e-01, 1.38728485e-01, 1.47450007e-02,
          1.05459221e-04, 5.86871943e-03, 2.49293614e-02, 1.01022292e-02,
          9.14901309e-03, 3.17430198e-01, 3.17430198e-01, 2.35259980e-01,
          3.50067206e-02, 3.24007560e-04, 4.06122213e-04, 6.25807093e-03,
          9.30652861e-03, 1.03850281e-02, 1.36472285e-01, 3.17430198e-01,
          3.17430198e-01, 1.26095027e-01, 2.58874856e-02, 1.48542793e-02,
          3.26352171e-03, 3.07185110e-03, 4.04390646e-03, 1.86327845e-01,
          3.17430198e-01, 3.17430198e-01, 3.17430198e-01, 1.05086304e-01,
          4.39170450e-02, 1.94070209e-02, 4.42611892e-03, 8.75899452e-04,
          1.32892817e-01, 3.41943532e-01, 1.56721205e-01, 8.94727372e-03,
          1.58112292e-04, 1.00385910e-03, 2.73716986e-01, 1.18539996e-01,
          7.73586752e-03, 1.34725291e-02, 9.96148139e-02, 6.18482977e-02,
          1.70278281e-03, 1.42686348e-03, 2.10767891e-03, 3.41943532e-01,
          3.34214121e-01, 5.56929782e-03, 4.40338738e-02, 1.54218301e-01,
          2.53135532e-01, 2.16201842e-01, 3.29973772e-02, 1.92662273e-02,
          3.41943532e-01, 1.00770280e-01, 2.16065114e-03, 5.48090087e-03,
          3.19559425e-02, 6.65604100e-02, 3.41060571e-02, 5.25988312e-03,
          1.05213467e-02, 3.41943532e-01, 3.41943532e-01, 2.47063534e-03,
          1.14402644e-01, 2.89040029e-01, 3.22311342e-01, 5.11307754e-02,
          3.14545110e-02, 9.84557159e-03, 6.00230740e-03, 1.60732400e-02,
          5.36964238e-02, 1.42802387e-01, 3.28483909e-01, 3.28483909e-01,
          3.25522691e-01, 4.33733054e-02, 8.29922408e-03, 7.04649836e-03,
          1.98853686e-02, 5.44719435e-02, 5.67353815e-02, 2.44128600e-01,
          3.28483909e-01, 7.82575831e-02, 5.40218726e-02, 2.36661620e-02,
          4.23067063e-02, 3.88712250e-02, 4.45448942e-02, 9.96172652e-02,
          2.98555791e-01, 3.28483909e-01, 1.94382831e-01, 7.21472427e-02,
          1.40563278e-02, 2.23073978e-02, 3.64338569e-02, 6.49547726e-02,
          2.17680708e-02, 1.05292939e-01, 3.44881028e-01, 1.97499454e-01,
          6.40086904e-02, 5.13691939e-02, 2.99698561e-02, 1.66347972e-03,
          1.89268403e-03, 1.24979559e-02, 7.52860680e-02, 3.44881028e-01,
          3.44881028e-01, 2.50989914e-01, 1.65362358e-01, 1.38995722e-01,
          3.90194566e-03, 4.39068863e-05, 1.46251777e-02, 8.08141008e-02,
          3.44881028e-01, 8.53289217e-02, 2.42563281e-02, 3.66812423e-02,
          8.28968808e-02, 1.72944032e-02, 1.09147662e-02, 1.42902113e-03,
          1.32873014e-01, 3.44881028e-01, 2.16058373e-01, 6.89690933e-02,
          1.18246518e-01, 3.44881028e-01, 5.34994602e-02, 6.51899201e-04,
          1.21268362e-03, 1.73470192e-02, 3.32572997e-01, 3.32572997e-01,
          6.18929192e-02, 4.21318822e-02, 2.99224019e-01, 6.53769225e-02,
          5.75812919e-05, 7.19161937e-04, 1.13199111e-02, 1.14044473e-01,
          7.40784332e-02, 1.32085215e-02, 1.70551781e-02, 3.32572997e-01,
          2.69337326e-01, 4.35003167e-04, 9.60772013e-05, 1.20873868e-01,
          3.32572997e-01, 1.13811277e-01, 1.92142762e-02, 2.38783937e-02,
          3.03261429e-01, 7.97685310e-02, 0., 7.21093384e-04,
          6.14759438e-02, 2.18671128e-01, 3.37472446e-02, 6.87188143e-03,
          5.65220090e-03, 3.32572997e-01, 2.69549400e-01, 3.81172955e-04 ]
      - [ 1.62703484e-01, 2.79087603e-01, 2.79087603e-01, 1.04730345e-01,
          8.30774009e-02, 2.30082702e-02, 1.34096239e-02, 8.24416522e-03,
          7.69895911e-02, 5.68472147e-02, 7.92308077e-02, 1.42837167e-01,
          7.92482570e-02, 2.53878951e-01, 1.34765729e-01, 2.08589897e-01,
          8.21167231e-02, 4.95370515e-02, 2.79087603e-01, 2.79087603e-01,
          2.79087603e-01, 5.51555306e-04, 1.20668476e-02, 6.54988340e-04,
          1.07054181e-01, 1.09374061e-01, 2.79087603e-01, 1.52982995e-01,
          7.95484558e-02, 1.07471280e-01, 2.15826003e-04, 1.31313354e-01,
          5.43555580e-02, 2.79087603e-01, 2.79087603e-01, 2.57838249e-01,
          1.84207037e-02, 2.05725944e-03, 5.83185209e-03, 5.64314984e-03,
          1.05252191e-01, 1.28882885e-01, 1.94938436e-01, 9.82683301e-02,
          4.33311686e-02, 3.21426243e-02, 2.31668074e-03, 3.43066920e-03,
          0., 9.15164724e-02, 3.14309806e-01, 3.40003371e-01,
          3.40003371e-01, 8.15526024e-02, 4.63307649e-02, 1.04655810e-02,
          2.74265036e-02, 0., 1.00156851e-01, 1.34763926e-01,
          2.75770009e-01, 1.48323134e-01, 9.42049250e-02, 1.29906267e-01,
          7.49024302e-02, 5.87569810e-02, 0., 9.07685235e-02,
          3.40003371e-01, 3.40003371e-01, 3.40003371e-01, 2.31925085e-01,
          5.30292764e-02, 3.61278802e-02, 2.72469372e-02, 2.36939685e-03,
          5.38655221e-02, 1.62629962e-01, 2.82074273e-01, 2.61783570e-01,
          5.22915833e-02, 2.02797398e-01, 2.82074273e-01, 2.59367347e-01,
          1.43095395e-02, 4.73288968e-02, 4.78574224e-02, 2.06481069e-01,
          8.19159448e-02, 1.22111544e-01, 1.31642357e-01, 1.48354083e-01,
          1.08069904e-01, 1.02941804e-02, 2.13831067e-02, 1.12687528e-01,
          2.82074273e-01, 2.82074273e-01, 1.91043109e-01, 2.65478879e-01,
          2.82074273e-01, 2.82074273e-01, 2.94502042e-02, 2.67274696e-02,
          2.35372353e-02, 1.21552788e-01, 1.39149979e-01, 1.71426192e-01,
          1.87160596e-01, 2.39721775e-01, 2.81263083e-01, 8.40404350e-03,
          9.94420238e-03, 9.77886096e-03, 1.76207051e-01, 1.19306616e-01,
          1.69331238e-01, 9.64194760e-02, 5.37438542e-02, 8.65748823e-02,
          5.42799244e-03, 5.35845496e-02, 4.25987244e-02, 2.81263083e-01,
          2.81263083e-01, 2.19348729e-01, 4.81785573e-02, 2.14752525e-01,
          2.81263083e-01, 6.36781082e-02, 5.01733385e-02, 7.90798366e-02,
          2.51781255e-01, 9.62088183e-02, 2.21608430e-02, 5.72577417e-02,
          6.60175011e-02, 1.29280671e-01, 7.87735656e-02, 2.15172812e-01,
          2.66987532e-01, 2.81263083e-01, 2.67184556e-01, 9.21238139e-02,
          1.09995916e-01, 3.24764811e-02, 4.15257141e-02, 4.64995857e-03,
          7.26092160e-02, 8.19173381e-02, 2.63022065e-01, 1.82648793e-01,
          1.67736709e-01, 2.63022065e-01, 1.75576642e-01, 9.64890420e-02,
          8.26485083e-03, 8.08688849e-02, 1.93357632e-01, 2.63022065e-01,
          2.63022065e-01, 2.63022065e-01, 1.32032752e-01, 5.15314266e-02,
          6.23507909e-02, 1.08763866e-01, 2.63022065e-01, 1.04425132e-01,
          1.76279455e-01, 9.88263711e-02, 1.42012492e-01, 2.63022065e-01,
          9.87130105e-02, 7.57928863e-02, 1.42277762e-01, 2.63022065e-01,
          1.19847603e-01, 1.69222519e-01, 1.25637516e-01, 2.63022065e-01,
          2.50539690e-01, 1.84093416e-01, 9.20120850e-02, 8.24717153e-03,
          2.63962522e-02, 9.32431519e-02, 2.50539690e-01, 2.50539690e-01,
          2.50539690e-01, 2.05673411e-01, 2.43151128e-01, 2.11653352e-01,
          4.59669046e-02, 5.87173179e-02, 8.47875774e-02, 1.89625740e-01,
          2.16819018e-01, 2.08741710e-01, 1.20496787e-01, 4.73047756e-02,
          2.06654072e-02, 4.48396802e-02, 1.48226872e-01, 1.50619999e-01,
          2.50539690e-01, 2.50539690e-01, 1.84566036e-01, 6.39080927e-02,
          7.91115612e-02, 1.28872022e-01, 3.42197083e-02, 5.48225753e-02,
          1.45784199e-01, 2.50539690e-01, 2.45020568e-01, 1.02198876e-01,
          7.23871812e-02, 1.67579532e-01, 2.43134439e-01, 7.88880065e-02,
          2.04181448e-02, 6.29298910e-02, 2.13935435e-01, 1.00872763e-01,
          3.97816859e-02, 2.80470196e-02, 3.97246070e-02, 6.79969192e-02,
          7.32283741e-02, 1.76516399e-01, 2.30458215e-01, 3.04198116e-01,
          2.62329996e-01, 5.18867895e-02, 6.10681064e-02, 1.64248168e-01,
          3.04198116e-01, 2.02960357e-01, 2.04633381e-02, 6.61112815e-02,
          2.93138474e-01, 1.77643508e-01, 7.17525706e-02, 2.00146176e-02,
          1.69394799e-02, 3.46863419e-02, 4.83650565e-02, 7.25855008e-02,
          2.76125491e-01, 3.04198116e-01, 3.04198116e-01, 1.14249326e-01,
          4.16239537e-02, 3.26751135e-02, 7.11054653e-02, 1.70689300e-01,
          2.55622953e-01, 1.71598941e-01, 2.49929741e-01, 1.07416399e-01,
          4.79018018e-02, 5.88940084e-02, 3.01759280e-02, 6.55749217e-02,
          2.47903258e-01, 2.55622953e-01, 2.20083475e-01, 1.54967725e-01,
          8.06842297e-02, 6.96587861e-02, 3.20062563e-02, 6.33741543e-02,
          1.33428499e-01, 1.29689455e-01, 2.03234434e-01, 2.55622953e-01,
          2.55622953e-01, 2.55622953e-01, 7.96191320e-02, 9.76917297e-02,
          1.34663403e-01, 2.55622953e-01, 1.83614671e-01, 2.55622953e-01,
          1.72781900e-01, 1.87809378e-01, 1.28903389e-01, 1.13659859e-01,
          5.67301475e-02, 1.02530224e-02, 2.85263117e-02, 1.92804962e-01,
          2.51757443e-01, 2.51757443e-01, 2.51757443e-01, 2.51757443e-01,
          1.20670833e-01, 1.13540247e-01, 1.35729507e-01, 1.86201334e-01,
          4.00872342e-02, 7.53619596e-02, 1.82793379e-01, 2.51757443e-01,
          2.51757443e-01, 1.69114679e-01, 1.72610819e-01, 5.82326092e-02,
          1.05200157e-01, 1.18607193e-01, 1.79230988e-01, 1.09104998e-01,
          1.68818027e-01, 1.83280960e-01, 2.40704581e-01, 1.95669577e-01,
          1.07632160e-01, 1.26879036e-01, 2.36228351e-02, 4.70156148e-02,
          5.56410253e-02, 1.80455923e-01, 1.89415470e-01, 2.51757443e-01 ]
      - [ 4.37111370e-02, 2.56034583e-01, 2.71057099e-01, 6.13461249e-02,
          3.54740545e-02, 6.86925873e-02, 2.71057099e-01, 2.55250365e-01,
          5.52551560e-02, 7.89408088e-02, 1.10596947e-01, 1.37249514e-01,
          5.93959503e-02, 4.57615070e-02, 9.00472328e-02, 2.71057099e-01,
          2.71057099e-01, 9.39182043e-02, 5.66157810e-02, 2.71057099e-01,
          2.71057099e-01, 8.28204229e-02, 3.93524319e-02, 6.67127967e-02,
          2.22534299e-01, 2.50991791e-01, 9.51362848e-02, 9.11273807e-02,
          1.26057506e-01, 9.00839195e-02, 3.10216267e-02, 5.85711077e-02,
          9.60685834e-02, 2.71057099e-01, 2.71057099e-01, 1.43833563e-01,
          8.42962861e-02, 1.30692929e-01, 8.07417631e-02, 3.29724886e-02,
          4.54262123e-02, 1.16601832e-01, 2.60932267e-01, 1.80821687e-01,
          7.96919912e-02, 1.16607897e-01, 1.50739342e-01, 1.12806953e-01,
          5.43138422e-02, 8.47247466e-02, 2.60932267e-01, 2.60932267e-01,
          2.60932267e-01, 1.72847569e-01, 6.95483759e-02, 1.25811636e-01,
          7.20403641e-02, 2.95225307e-02, 9.51234922e-02, 1.52278379e-01,
          2.60932267e-01, 2.48047233e-01, 9.28111896e-02, 1.26240879e-01,
          1.60232991e-01, 1.94390625e-01, 1.16569959e-01, 2.03898996e-01,
          2.60932267e-01, 2.60932267e-01, 2.60932267e-01, 1.16145827e-01,
          1.24416947e-01, 2.40378529e-01, 2.40378529e-01, 1.13579139e-01,
          5.10103293e-02, 1.60227165e-01, 2.40378529e-01, 1.92098558e-01,
          1.29206613e-01, 1.38976023e-01, 2.40378529e-01, 2.40378529e-01,
          1.09064206e-01, 5.34235910e-02, 1.07193552e-01, 1.74328938e-01,
          1.52260110e-01, 8.85007679e-02, 2.01726094e-01, 2.40378529e-01,
          2.40378529e-01, 1.50374725e-01, 1.16209857e-01, 1.20266326e-01,
          2.40378529e-01, 1.49182111e-01, 1.05099224e-01, 1.42636463e-01,
          2.34251365e-01, 2.40378529e-01, 1.37388736e-01, 9.25725251e-02,
          8.39230120e-02, 1.06372438e-01, 8.47083926e-02, 8.70432556e-02,
          4.07602564e-02, 2.81124800e-01, 2.81124800e-01, 9.01166499e-02,
          4.87204455e-02, 9.08756703e-02, 2.81124800e-01, 1.55244574e-01,
          5.24701402e-02, 4.93900552e-02, 1.03916734e-01, 1.05376452e-01,
          4.09024805e-02, 6.94889277e-02, 1.16913423e-01, 2.81124800e-01,
          2.77054936e-01, 1.00238010e-01, 1.58979502e-02, 2.81124800e-01,
          2.81124800e-01, 7.03570768e-02, 5.14699928e-02, 1.45819128e-01,
          2.81124800e-01, 1.55616194e-01, 3.42669711e-02, 3.36633287e-02,
          6.26654625e-02, 9.16777849e-02, 6.02594577e-02, 9.32981968e-02,
          1.92165285e-01, 2.81124800e-01, 2.48567134e-01, 8.56366083e-02,
          3.37551944e-02, 5.74186109e-02, 6.01782799e-02, 3.37693021e-02,
          7.01901913e-02, 1.26374140e-01, 2.73622751e-01, 2.05578178e-01,
          6.42333180e-02, 1.03627913e-01, 1.69214472e-01, 2.17195049e-01,
          1.64081529e-01, 1.18945867e-01, 1.58692017e-01, 2.73622751e-01,
          1.82613760e-01, 4.81873937e-02, 2.89819352e-02, 2.90556718e-02,
          5.21665514e-02, 3.44429836e-02, 6.67712167e-02, 1.72843382e-01,
          2.73622751e-01, 2.52855986e-01, 6.84380680e-02, 1.51746705e-01,
          2.73622751e-01, 2.73622751e-01, 2.21284121e-01, 7.13723525e-02,
          1.40881002e-01, 2.73622751e-01, 2.69058436e-01, 7.22709149e-02,
          2.22232267e-01, 2.41719007e-01, 2.41719007e-01, 1.85184255e-01,
          1.07687742e-01, 6.78544641e-02, 1.84494734e-01, 9.98475775e-02,
          6.80473000e-02, 1.42452762e-01, 2.17072919e-01, 2.34425902e-01,
          9.58452150e-02, 8.88057649e-02, 7.58785382e-02, 1.16146773e-01,
          9.35259908e-02, 8.17989409e-02, 2.38863453e-01, 2.41719007e-01,
          2.41719007e-01, 2.41719007e-01, 6.32203966e-02, 4.33628038e-02,
          1.62501097e-01, 1.42193660e-01, 6.60614073e-02, 1.54839352e-01,
          2.41719007e-01, 2.41719007e-01, 7.12898746e-02, 5.03927656e-02,
          7.25846067e-02, 2.41719007e-01, 2.23049372e-01, 8.35070908e-02,
          1.94887705e-02, 2.51158684e-01, 2.82733291e-01, 5.76990992e-02,
          3.78050841e-02, 1.46333173e-01, 2.48976201e-01, 1.54913455e-01,
          3.37923318e-02, 1.30604627e-02, 2.08391156e-02, 4.71726246e-02,
          3.06406058e-02, 6.77960366e-02, 2.32017085e-01, 2.82733291e-01,
          2.37166777e-01, 5.87429889e-02, 2.23340504e-02, 2.35901624e-01,
          2.82733291e-01, 8.48040357e-02, 1.29602566e-01, 2.30212837e-01,
          2.47253731e-01, 9.65947136e-02, 2.95813959e-02, 1.39110014e-02,
          1.03416108e-02, 3.34100388e-02, 7.02150688e-02, 1.53375700e-01,
          2.82733291e-01, 2.82733291e-01, 2.44084910e-01, 7.00236559e-02,
          2.33984664e-02, 5.35071567e-02, 6.16842024e-02, 2.30588038e-02,
          5.20277843e-02, 2.13488698e-01, 2.80003279e-01, 1.64224669e-01,
          3.33850496e-02, 1.56715900e-01, 2.80003279e-01, 2.80003279e-01,
          1.01506740e-01, 5.77244051e-02, 1.65977001e-01, 2.80003279e-01,
          1.57415763e-01, 5.79831377e-02, 2.69888919e-02, 1.18075006e-01,
          1.59468308e-01, 3.13783363e-02, 4.20475006e-02, 2.10050896e-01,
          2.80003279e-01, 2.21057519e-01, 3.82217653e-02, 1.02997154e-01,
          2.80003279e-01, 2.80003279e-01, 9.27850306e-02, 4.25337441e-02,
          1.33660719e-01, 2.80003279e-01, 1.19835280e-01, 3.78420986e-02,
          2.35062391e-01, 2.70416975e-01, 2.70416975e-01, 1.73818484e-01,
          6.16826341e-02, 4.38168235e-02, 1.28840774e-01, 1.11769132e-01,
          6.94266558e-02, 9.81661081e-02, 2.27390081e-01, 2.18344346e-01,
          8.44328329e-02, 6.18288666e-02, 8.42765346e-02, 2.70416975e-01,
          2.31626362e-01, 6.20907955e-02, 1.24220513e-01, 2.70416975e-01,
          2.70416975e-01, 1.60593867e-01, 7.99578801e-02, 3.62557136e-02,
          8.65115747e-02, 1.06974974e-01, 7.92378038e-02, 7.04762191e-02,
          1.28416777e-01, 1.84421197e-01, 1.16237476e-01, 7.92387053e-02,
          1.16660737e-01, 2.70416975e-01, 2.70416975e-01, 1.12848416e-01 ]
      - [ 5.38655370e-02, 4.94087674e-02, 1.02946468e-01, 7.51648918e-02,
          8.38673785e-02, 1.49548247e-01, 2.62031943e-01, 1.88845322e-01,
          1.02700338e-01, 5.27977161e-02, 4.97587509e-02, 1.01607643e-01,
          6.56395629e-02, 5.66032939e-02, 2.35046417e-01, 2.65881389e-01,
          2.65881389e-01, 9.54489931e-02, 8.27883258e-02, 3.02170552e-02,
          8.45328271e-02, 1.01564966e-01, 9.57595110e-02, 1.85494632e-01,
          2.65881389e-01, 2.65881389e-01, 2.65881389e-01, 9.63010192e-02,
          3.36855687e-02, 7.98099339e-02, 9.19663832e-02, 1.26139671e-01,
          2.65881389e-01, 2.65881389e-01, 2.65881389e-01, 2.61780322e-01,
          6.53197914e-02, 1.12050675e-01, 2.06907585e-01, 6.44322038e-02,
          1.20664775e-01, 2.05653414e-01, 2.52697021e-01, 2.52697021e-01,
          8.96957442e-02, 9.75754037e-02, 1.31506026e-01, 2.52697021e-01,
          5.86807206e-02, 1.75568223e-01, 3.41957659e-02, 2.52697021e-01,
          1.39427751e-01, 9.49319899e-02, 9.14382860e-02, 5.95740750e-02,
          1.21139847e-01, 6.42114356e-02, 1.28850996e-01, 2.40178630e-01,
          2.52697021e-01, 2.52697021e-01, 2.52697021e-01, 1.37896448e-01,
          1.48837939e-01, 2.52697021e-01, 8.73650983e-02, 1.78873584e-01,
          6.77005947e-02, 1.81168541e-01, 9.01658982e-02, 1.89507663e-01,
          3.48219462e-02, 8.40857923e-02, 2.01770768e-01, 1.00157792e-02,
          2.88888700e-02, 4.25699446e-03, 9.30484533e-02, 4.31324504e-02,
          3.86376642e-02, 1.41467629e-02, 3.55550289e-01, 3.55550289e-01,
          9.30774119e-03, 2.21727435e-02, 3.92928198e-02, 3.55550289e-01,
          1.31502792e-01, 9.87493806e-03, 5.05397730e-02, 9.97586474e-02,
          2.67168611e-01, 2.40001585e-02, 4.48522903e-02, 1.58978738e-02,
          1.07203409e-01, 4.53787223e-02, 6.12955540e-02, 2.48134956e-02,
          3.55550289e-01, 3.55550289e-01, 3.88586111e-02, 3.20814624e-02,
          3.97553928e-02, 3.55550289e-01, 2.16165558e-01, 2.79756822e-02,
          1.31742045e-01, 4.13722824e-03, 1.11481315e-02, 2.28833891e-02,
          1.86581254e-01, 1.19077288e-01, 1.09675728e-01, 1.61974624e-01,
          2.99000442e-01, 1.87475502e-01, 8.48393235e-03, 1.09071806e-02,
          2.56987978e-02, 1.98582336e-01, 1.35794491e-01, 1.29243404e-01,
          1.88813597e-01, 2.99000442e-01, 1.06455736e-01, 2.31459411e-03,
          9.55720025e-04, 2.80057527e-02, 2.99000442e-01, 2.88707495e-01,
          9.93202478e-02, 8.97230431e-02, 2.76463658e-01, 1.63135111e-01,
          6.31260732e-03, 1.57294737e-03, 6.25883862e-02, 2.99000442e-01,
          2.41974667e-01, 7.18178675e-02, 1.19982436e-01, 2.99000442e-01,
          1.67418331e-01, 2.32565254e-02, 3.06260008e-02, 2.24298872e-02,
          1.48711339e-01, 1.24897309e-01, 1.16677210e-01, 1.74398437e-01,
          2.93926686e-01, 2.60906965e-01, 5.89917935e-02, 1.38778627e-01,
          7.56726786e-02, 1.90667555e-01, 5.24777547e-02, 5.05525135e-02,
          4.53013815e-02, 2.93926686e-01, 1.33226365e-01, 1.22552235e-02,
          5.10031683e-03, 6.27297312e-02, 2.93926686e-01, 2.78559595e-01,
          8.40394571e-02, 1.29148737e-01, 2.93926686e-01, 2.43958071e-01,
          2.57545002e-02, 2.70365793e-02, 1.82534441e-01, 2.93926686e-01,
          8.80106315e-02, 2.05115695e-02, 3.32357436e-02, 2.93926686e-01,
          1.54301286e-01, 7.21135288e-02, 1.64398476e-01, 5.38654588e-02,
          1.28630728e-01, 3.04627102e-02, 5.60417175e-02, 2.85137370e-02,
          2.08963960e-01, 9.05852616e-02, 2.89370209e-01, 2.89370209e-01,
          1.24422595e-01, 1.46833673e-01, 1.11465655e-01, 2.89370209e-01,
          1.84860975e-01, 1.17443614e-01, 1.62618563e-01, 3.77274863e-02,
          3.68256494e-02, 1.06449664e-01, 2.89370209e-01, 5.58546595e-02,
          1.35040618e-02, 1.97417010e-02, 2.08087847e-01, 9.30512771e-02,
          1.43777236e-01, 1.50085136e-01, 1.14076607e-01, 2.89370209e-01,
          2.89370209e-01, 2.89370209e-01, 1.20560758e-01, 1.19754009e-01,
          1.51183441e-01, 3.63501422e-02, 2.28642877e-02, 3.35570052e-02,
          2.78771013e-01, 2.78771013e-01, 2.10475266e-01, 1.25294715e-01,
          1.64292559e-01, 2.21285731e-01, 4.63944189e-02, 2.61826124e-02,
          7.33048171e-02, 2.78771013e-01, 2.22288921e-01, 2.04129890e-01,
          2.78771013e-01, 2.68035024e-01, 1.68527737e-01, 1.10879883e-01,
          6.25669807e-02, 3.09882290e-03, 1.20322565e-02, 2.03684289e-02,
          1.46276280e-01, 1.40308902e-01, 1.40729189e-01, 1.86766267e-01,
          8.48249793e-02, 5.49135916e-02, 7.30114849e-03, 1.94316767e-02,
          2.29988322e-02, 2.78771013e-01, 2.78771013e-01, 2.14229256e-01,
          1.35292962e-01, 3.65197062e-02, 1.43364398e-02, 7.45742768e-02,
          3.05339515e-01, 2.65990287e-01, 2.74361908e-01, 3.05339515e-01,
          2.27879122e-01, 1.77623019e-01, 7.17833787e-02, 4.76946086e-02,
          1.95795223e-01, 3.05339515e-01, 8.10990483e-02, 6.51149750e-02,
          9.01470706e-02, 1.68985993e-01, 1.21044092e-01, 2.71169990e-02,
          1.44623080e-02, 6.81699347e-03, 1.98492240e-02, 4.46237512e-02,
          3.05339515e-01, 3.05339515e-01, 2.44297758e-01, 1.28265619e-01,
          3.82378660e-02, 2.61345711e-02, 1.44630056e-02, 5.88438734e-02,
          4.43332084e-02, 1.53594300e-01, 1.71612248e-01, 1.66223645e-01,
          1.36140704e-01, 5.05912192e-02, 5.00695780e-02, 1.28814057e-01,
          3.28313649e-01, 9.39555988e-02, 6.87533468e-02, 3.66563909e-02,
          1.17921554e-01, 9.36780721e-02, 2.73858346e-02, 3.62484865e-02,
          5.12205735e-02, 3.28313649e-01, 3.28313649e-01, 3.28313649e-01,
          3.28313649e-01, 1.62207782e-01, 6.32909387e-02, 2.82009412e-02,
          3.88560668e-02, 6.03491534e-03, 9.71398726e-02, 1.05952851e-01,
          1.61758125e-01, 6.21439405e-02, 5.87295927e-02, 5.52399047e-02,
          1.82618704e-02, 3.10587920e-02, 2.21387669e-03, 1.23137631e-01,
          2.30522662e-01, 3.28313649e-01, 2.95568466e-01, 1.43887103e-01 ]
      - [ 1.05187157e-03, 4.81081115e-05, 1.01191174e-04, 6.56269910e-03,
          4.26239580e-01, 2.96727210e-01, 2.35932581e-02, 1.19190728e-02,
          4.32166969e-03, 2.13019643e-03, 1.44670473e-03, 1.53738155e-03,
          2.19063386e-02, 4.26239580e-01, 2.57712454e-01, 2.59310622e-02,
          6.83380943e-03, 2.79378239e-03, 1.55213866e-02, 1.60554412e-03,
          2.81274435e-04, 3.90389399e-03, 4.26239580e-01, 2.02535942e-01,
          1.99605823e-02, 1.63962290e-01, 1.02124915e-01, 5.05007952e-02,
          2.85452195e-02, 7.85608869e-03, 3.43013480e-02, 4.26239580e-01,
          1.33964255e-01, 7.76391011e-03, 6.50051162e-02, 8.21842253e-02,
          1.53795630e-03, 1.56666583e-03, 2.21068994e-03, 1.97543148e-02,
          4.10246760e-01, 3.30579877e-01, 4.30000760e-02, 8.75901338e-03,
          2.42247107e-03, 5.12111757e-04, 2.14464334e-03, 6.18789438e-03,
          4.43163179e-02, 4.10246760e-01, 2.96216011e-01, 4.78638224e-02,
          1.30009586e-02, 3.68425553e-03, 4.42961119e-02, 3.04453075e-02,
          9.59791709e-03, 3.67089361e-02, 4.10246760e-01, 1.74065679e-01,
          1.18628293e-02, 7.31879696e-02, 6.63050041e-02, 1.38149001e-02,
          2.03331448e-02, 8.83052964e-03, 2.75375694e-02, 4.10246760e-01,
          2.10073009e-01, 2.14211941e-02, 1.46131039e-01, 8.33511576e-02,
          1.21176976e-03, 9.16608516e-03, 1.27684185e-02, 1.43133357e-01,
          3.42504501e-01, 1.52977303e-01, 4.77120094e-02, 1.70940477e-02,
          4.52419277e-03, 4.31535766e-03, 2.55680718e-02, 6.45679608e-02,
          2.18658522e-01, 3.42504501e-01, 7.88282305e-02, 1.04793034e-01,
          4.52855565e-02, 1.37579115e-02, 1.21720340e-02, 1.51875272e-01,
          8.42567459e-02, 1.67833403e-01, 3.42504501e-01, 9.25867930e-02,
          1.22397169e-02, 8.14614296e-02, 4.44378890e-02, 9.75747500e-03,
          3.40959132e-01, 3.42504501e-01, 3.13740104e-01, 3.42504501e-01,
          2.11701579e-02, 7.50451954e-03, 7.86075462e-03, 7.35901063e-03,
          5.63758798e-02, 3.05131334e-03, 2.02389143e-04, 6.55946904e-04,
          1.65134758e-01, 5.52339368e-02, 2.39267759e-02, 3.58289570e-01,
          3.58289570e-01, 1.87311351e-01, 5.24121374e-02, 6.30233297e-03,
          1.39231496e-02, 1.95054933e-01, 2.94167083e-02, 7.99810141e-03,
          1.61136895e-01, 3.58289570e-01, 1.87343940e-01, 6.70291600e-04,
          8.14589803e-05, 0., 0., 4.01849102e-04, 1.82893649e-02,
          2.01148748e-01, 3.58289570e-01, 3.58289570e-01, 1.38728851e-02,
          4.94019652e-04, 0., 0., 5.87317860e-04, 1.04166539e-02,
          1.13617219e-01, 3.58289570e-01, 1.77472338e-01, 5.80805726e-02,
          7.81958457e-03, 1.52972117e-02, 1.69048145e-01, 3.49041149e-02,
          1.15557145e-02, 1.80653140e-01, 3.07531685e-01, 8.47859234e-02,
          5.07737100e-02, 1.53912865e-02, 8.41319468e-03, 1.72449976e-01,
          5.23265041e-02, 3.20260599e-02, 3.41291189e-01, 3.40617537e-01,
          3.41291189e-01, 1.70187391e-02, 3.92174727e-04, 0., 0.,
          1.31005901e-04, 5.48326317e-03, 1.11736231e-01, 3.41291189e-01,
          3.41291189e-01, 2.74516288e-02, 2.76094605e-03, 0., 0.,
          3.58520029e-03, 2.01544613e-02, 2.19781458e-01, 3.41291189e-01,
          1.09867647e-01, 3.12261671e-01, 1.38905540e-01, 4.59635593e-02,
          1.41150713e-01, 2.05817465e-02, 2.06114016e-02, 1.86063737e-01,
          1.78836420e-01, 6.42765462e-02, 3.12261671e-01, 3.12261671e-01,
          9.88048986e-02, 6.86510429e-02, 9.56790696e-04, 1.12607249e-03,
          1.17280437e-02, 2.05108244e-02, 3.12261671e-01, 2.20438510e-01,
          4.51111197e-02, 0., 0., 5.70848212e-03, 1.86050180e-02,
          1.19794406e-01, 3.12261671e-01, 2.98860222e-01, 3.12261671e-01,
          3.12261671e-01, 1.84966307e-02, 9.55464505e-03, 1.60287833e-03,
          5.30098379e-03, 1.47207631e-02, 1.37669235e-01, 2.15410843e-01,
          1.95958815e-03, 1.73658389e-03, 7.07374769e-04, 1.14640605e-03,
          1.14470534e-02, 1.76559135e-01, 2.28824764e-01, 3.70036185e-01,
          3.70036185e-01, 3.47018577e-02, 1.50884949e-02, 4.66795731e-03,
          0., 7.32984859e-03, 1.08039513e-01, 1.58809900e-01,
          3.70036185e-01, 2.59827152e-02, 5.60679520e-03, 8.33545253e-03,
          1.72041159e-03, 5.72365336e-03, 7.36610815e-02, 3.70036185e-01,
          2.80122906e-01, 1.74286976e-01, 9.84092429e-02, 8.02476853e-02,
          9.06464458e-02, 1.51870949e-02, 0., 3.88468429e-02,
          2.81625748e-01, 1.84379950e-01, 1.60149410e-01, 3.65067720e-01,
          3.24233472e-02, 1.17314449e-02, 2.57109920e-03, 0.,
          8.63061845e-03, 5.84723018e-02, 9.73381475e-02, 3.65067720e-01,
          3.65067720e-01, 8.05094838e-03, 1.45370618e-03, 2.65196340e-05,
          1.70133414e-03, 5.08655310e-02, 1.87663212e-01, 1.88727185e-01,
          3.65067720e-01, 1.16239741e-01, 7.26777464e-02, 7.34685138e-02,
          1.07977819e-02, 0., 4.09173965e-02, 2.32207432e-01,
          1.50302708e-01, 1.51330888e-01, 5.35520166e-02, 8.29273369e-03,
          6.96279947e-03, 5.32958249e-04, 3.73232388e-03, 1.16738975e-01,
          3.65067720e-01, 2.76780486e-01, 1.53931811e-01, 3.22715253e-01,
          9.12066996e-02, 1.92814022e-02, 2.35447404e-03, 9.61526390e-03,
          8.69438648e-02, 2.10338965e-01, 1.89419851e-01, 3.22715253e-01,
          3.22715253e-01, 3.22715253e-01, 1.84162900e-01, 2.23993566e-02,
          1.12273414e-02, 2.49930639e-02, 4.84475605e-02, 6.21796064e-02,
          2.92160243e-01, 5.92158735e-02, 2.69396063e-02, 3.40508558e-02,
          2.03398857e-02, 3.53230089e-02, 1.36288419e-01, 3.22715253e-01,
          2.63341129e-01, 1.46618530e-01, 1.08108185e-01, 1.77348107e-01,
          2.09337905e-01, 1.56798854e-01, 5.67944273e-02, 4.49167266e-02,
          9.76712257e-02, 6.91953525e-02, 7.24449009e-02 ]
      - [ 9.28596109e-02, 1.88334867e-01, 2.19118863e-01, 5.34632169e-02,
          1.77006811e-01, 2.19118863e-01, 1.22373872e-01, 1.46375030e-01,
          1.82565600e-01, 1.84438482e-01, 2.19118863e-01, 2.19118863e-01,
          2.07092777e-01, 2.17985094e-01, 1.59047753e-01, 1.10825785e-01,
          1.24259055e-01, 1.40714511e-01, 1.31431699e-01, 1.57489747e-01,
          9.76335108e-02, 2.32781265e-02, 8.11505616e-02, 1.61434978e-01,
          1.77390546e-01, 1.96098104e-01, 2.19118863e-01, 2.19118863e-01,
          2.19118863e-01, 2.19118863e-01, 1.37256458e-01, 1.84789881e-01,
          1.20443195e-01, 7.11562261e-02, 1.25696495e-01, 1.59290999e-01,
          1.45242825e-01, 3.02227348e-01, 3.02227348e-01, 1.05536364e-01,
          3.77293862e-02, 1.72393303e-02, 4.44020368e-02, 4.20086794e-02,
          6.57334998e-02, 9.55128446e-02, 3.02227348e-01, 3.02227348e-01,
          1.81314766e-01, 4.61124033e-02, 1.61489807e-02, 1.29848957e-01,
          8.72606784e-02, 4.99722101e-02, 6.86162934e-02, 2.19882235e-01,
          3.02227348e-01, 1.86918482e-01, 1.33839086e-01, 3.90057079e-02,
          5.26168384e-02, 3.67195569e-02, 1.44415461e-02, 1.54544367e-02,
          3.02227348e-01, 3.02227348e-01, 1.92490891e-01, 1.51388749e-01,
          4.58600484e-02, 2.26274997e-01, 1.37531817e-01, 6.20412873e-03,
          2.32239608e-02, 2.28986695e-01, 3.17835838e-01, 2.69485027e-01,
          5.17979153e-02, 2.68539973e-02, 3.01934242e-01, 1.53070584e-01,
          1.14558572e-02, 5.12381364e-03, 3.91946249e-02, 1.58353224e-01,
          3.14031728e-02, 5.46109118e-03, 4.04659100e-02, 2.61384130e-01,
          1.37028292e-01, 1.31544620e-02, 6.21106429e-03, 3.17835838e-01,
          3.17835838e-01, 9.66386870e-02, 6.10449351e-02, 3.62127498e-02,
          3.17835838e-01, 1.92052975e-01, 7.76330614e-03, 3.36160138e-03,
          1.15078248e-01, 2.31195286e-01, 1.11945793e-02, 3.27634322e-03,
          4.36723270e-02, 3.00014645e-01, 1.49285495e-01, 7.20004877e-03,
          9.97975096e-02, 7.59863779e-02, 3.15324105e-02, 3.38989832e-02,
          2.03038812e-01, 2.36248448e-01, 2.36248448e-01, 1.30575508e-01,
          1.46351084e-01, 2.08674669e-01, 1.15496218e-01, 1.51525170e-01,
          2.08301008e-01, 2.36248448e-01, 2.36248448e-01, 9.92864072e-02,
          9.23336595e-02, 1.83388203e-01, 9.07545239e-02, 9.06400383e-02,
          5.82441390e-02, 8.31725225e-02, 2.12494090e-01, 2.36248448e-01,
          2.19790325e-01, 7.94166476e-02, 9.56062153e-02, 2.36248448e-01,
          2.36248448e-01, 1.83954448e-01, 1.57737255e-01, 2.36248448e-01,
          1.43502533e-01, 6.73015714e-02, 5.46481572e-02, 2.36248448e-01,
          8.86123255e-02, 1.26111895e-01, 2.40440011e-01, 2.34355450e-01,
          2.11337090e-01, 7.54380077e-02, 3.07591483e-02, 2.12107878e-02,
          6.81167543e-02, 5.20302095e-02, 2.83978075e-01, 2.83978075e-01,
          2.28103697e-01, 2.13977650e-01, 6.32174090e-02, 8.61229226e-02,
          4.15074155e-02, 1.80609804e-02, 2.83978075e-01, 1.84559271e-01,
          1.40429094e-01, 1.43586665e-01, 2.54603058e-01, 4.43036593e-02,
          1.20161269e-02, 1.48739805e-02, 2.15600029e-01, 2.00934276e-01,
          2.83978075e-01, 2.83978075e-01, 1.91200137e-01, 1.28057510e-01,
          2.72974260e-02, 2.64290217e-02, 6.59879018e-03, 6.49959147e-02,
          2.68602259e-02, 3.28729719e-01, 3.28729719e-01, 9.60823148e-02,
          7.83988535e-02, 3.16006206e-02, 3.28155398e-01, 1.05968639e-01,
          5.96852507e-03, 4.24037734e-03, 1.15271501e-01, 1.66878432e-01,
          1.00718699e-02, 2.56373337e-03, 2.71509886e-02, 3.28729719e-01,
          1.07547142e-01, 3.29501717e-03, 5.65320067e-02, 3.28729719e-01,
          3.28729719e-01, 1.60609826e-01, 2.44409442e-02, 4.34814952e-02,
          3.28729719e-01, 2.84206383e-02, 3.80976894e-03, 5.91859873e-03,
          5.16346171e-02, 9.56297517e-02, 4.44614775e-02, 2.04356126e-02,
          5.63018285e-02, 3.28729719e-01, 3.05282101e-02, 1.77238742e-03,
          9.35564488e-02, 8.97083431e-02, 1.03108518e-01, 6.13324232e-02,
          7.81127810e-02, 1.33975431e-01, 1.38669938e-01, 9.50065032e-02,
          1.59325913e-01, 1.87412068e-01, 1.72976553e-01, 1.87477171e-01,
          1.66356787e-01, 2.49045804e-01, 2.13384241e-01, 1.94324628e-01,
          3.52142490e-02, 1.27038196e-01, 1.29474983e-01, 1.73484936e-01,
          1.58294663e-01, 4.90083098e-02, 6.49950132e-02, 2.02979729e-01,
          2.49045804e-01, 2.49045804e-01, 2.49045804e-01, 1.04831122e-01,
          4.81464826e-02, 1.02649383e-01, 8.72731507e-02, 2.46358454e-01,
          2.49045804e-01, 2.49045804e-01, 2.09913731e-01, 1.78832471e-01,
          1.56083211e-01, 9.31513235e-02, 2.21938476e-01, 2.12611720e-01,
          3.40522796e-01, 6.21787757e-02, 3.95696387e-02, 8.38308129e-03,
          9.55365300e-02, 9.65183526e-02, 2.19018564e-01, 3.40522796e-01,
          2.86988795e-01, 1.47334144e-01, 4.23014490e-03, 1.87283345e-02,
          2.71676830e-03, 3.12218573e-02, 8.77343640e-02, 1.17776096e-01,
          3.08265477e-01, 1.49478823e-01, 1.84082061e-01, 6.73914626e-02,
          8.92071500e-02, 4.23071757e-02, 5.69487140e-02, 4.16441485e-02,
          3.40522796e-01, 3.40522796e-01, 1.81352228e-01, 5.14581203e-02,
          1.67907868e-03, 1.59606207e-02, 5.60433650e-03, 4.60817385e-03,
          2.28804350e-02, 1.98928908e-01, 3.73188019e-01, 2.27015331e-01,
          1.79984476e-02, 3.14285345e-02, 3.21272492e-01, 4.62867692e-02,
          2.94814119e-03, 1.14962328e-02, 5.68748042e-02, 1.31409198e-01,
          5.53259999e-02, 2.59644073e-02, 3.56188565e-02, 3.37226212e-01,
          5.17505482e-02, 5.20787667e-03, 2.11513806e-02, 3.73188019e-01,
          3.73188019e-01, 9.04310271e-02, 8.00911337e-03, 9.68708657e-03,
          2.71761119e-01, 8.15299675e-02, 2.16950895e-03, 1.83653142e-02,
          1.57914013e-01, 1.82854921e-01, 1.22744264e-02, 7.66464788e-03,
          7.16382777e-03, 2.85055518e-01, 9.23475698e-02, 6.49992609e-03 ]
      - [ 3.85245588e-03, 1.10850655e-01, 2.40031406e-01, 6.32743211e-03,
          4.31727571e-03, 2.02283785e-02, 6.53802976e-02, 5.65330237e-02,
          8.20331927e-03, 1.17180415e-03, 4.42300647e-01, 4.42300647e-01,
          7.07109645e-03, 2.63271388e-03, 1.36712259e-02, 4.25154530e-02,
          1.53053533e-02, 1.74876209e-03, 3.42112686e-03, 1.41180754e-01,
          3.01638573e-01, 8.50978191e-04, 1.32589659e-03, 1.06722042e-02,
          1.01587467e-01, 8.82549211e-02, 9.12199169e-03, 6.91902451e-03,
          4.42300647e-01, 4.42300647e-01, 2.49599246e-03, 1.31075538e-03,
          9.69398580e-03, 5.41314036e-02, 2.26121712e-02, 4.41115117e-03,
          1.09579402e-03, 4.74377483e-01, 4.74377483e-01, 1.70074943e-02,
          4.97443601e-03, 2.05870215e-02, 6.05569705e-02, 1.41103407e-02,
          8.63229216e-04, 3.08009214e-03, 6.29846826e-02, 1.85242310e-01,
          2.80151609e-02, 5.82570583e-03, 1.21154888e-02, 3.49488668e-02,
          8.60030483e-03, 8.82817199e-04, 2.48494688e-02, 4.74377483e-01,
          4.74377483e-01, 1.03323050e-02, 2.43529072e-03, 1.11445207e-02,
          6.22514077e-02, 1.60072781e-02, 2.03266554e-02, 1.16917975e-02,
          7.50542060e-02, 1.93074778e-01, 8.53897259e-03, 1.00175361e-03,
          5.60890697e-03, 3.46586592e-02, 8.72731954e-03, 1.17217368e-02,
          2.06635632e-02, 2.53063172e-01, 3.39426726e-01, 1.27956077e-01,
          2.95048561e-02, 3.57058533e-02, 2.50922203e-01, 1.26707613e-01,
          1.73067898e-02, 5.32355309e-02, 4.31927405e-02, 7.86927044e-02,
          1.73974521e-02, 6.67286143e-02, 8.95056129e-02, 3.39426726e-01,
          2.87727028e-01, 7.03063160e-02, 3.92446388e-03, 3.19182277e-01,
          3.39426726e-01, 1.12353060e-02, 3.57769750e-04, 2.15358799e-04,
          2.80747652e-01, 9.54247117e-02, 1.27561588e-03, 5.96981822e-03,
          3.11798435e-02, 8.88519958e-02, 8.55394392e-05, 7.08968984e-03,
          2.14142352e-02, 3.39426726e-01, 2.50030756e-01, 1.42428102e-02,
          3.31284641e-03, 1.33263275e-01, 2.86756605e-01, 8.91815813e-04,
          1.65364717e-03, 1.59982815e-02, 1.20309107e-01, 9.08689797e-02,
          1.03032570e-02, 8.93379562e-03, 4.18998331e-01, 4.18998331e-01,
          1.74560712e-03, 1.54640491e-03, 9.11222678e-03, 3.97531539e-02,
          1.58916656e-02, 4.64583980e-03, 5.39398100e-03, 1.48287252e-01,
          3.37084860e-01, 4.40277997e-03, 8.70255288e-03, 2.55095679e-02,
          1.53828174e-01, 8.13933834e-02, 1.45105906e-02, 5.59822423e-03,
          4.18998331e-01, 4.18998331e-01, 3.79082165e-03, 3.54549708e-03,
          6.06749579e-03, 3.02869380e-02, 2.25438047e-02, 6.86824182e-03,
          3.76527794e-02, 4.87990946e-01, 4.87990946e-01, 4.25608363e-03,
          2.32441770e-03, 3.12969880e-03, 2.24650912e-02, 1.11916550e-02,
          3.03129274e-02, 1.81778148e-02, 6.98532239e-02, 1.39705256e-01,
          1.49682024e-03, 6.74957759e-04, 1.12017035e-03, 1.52054653e-02,
          6.89407857e-03, 1.78960375e-02, 6.94917981e-03, 4.87990946e-01,
          4.87990946e-01, 8.38110968e-03, 1.04411626e-02, 5.82320383e-03,
          1.09026358e-02, 8.29542801e-03, 7.31874304e-03, 2.85610557e-03,
          3.58410440e-02, 1.09138764e-01, 1.88750755e-02, 1.08214412e-02,
          3.00688203e-03, 6.98444154e-03, 3.07779876e-03, 2.78829155e-03,
          6.44832617e-03, 3.00902367e-01, 3.42276633e-01, 6.97173935e-04,
          0., 1.76547692e-04, 2.73863047e-01, 9.12792832e-02,
          1.50406198e-03, 5.20065380e-03, 3.13180313e-02, 9.54907089e-02,
          2.92377453e-03, 8.38959403e-03, 4.68716472e-02, 3.42276633e-01,
          2.26358533e-01, 6.96304906e-03, 1.18218232e-02, 2.37087801e-01,
          3.42276633e-01, 1.27883017e-01, 7.15718940e-02, 5.86432666e-02,
          2.47940615e-01, 8.48512724e-02, 9.91307013e-03, 8.31336752e-02,
          3.88421379e-02, 1.07733808e-01, 3.45752575e-02, 1.43116683e-01,
          1.16134122e-01, 3.42276633e-01, 2.84484208e-01, 6.47875294e-02,
          8.73869471e-03, 1.12926506e-01, 3.21172655e-01, 5.64121874e-03,
          1.16676847e-02, 2.43156739e-02, 1.24294989e-01, 5.04896529e-02,
          1.22914100e-02, 4.56535351e-03, 4.14624691e-01, 4.14624691e-01,
          5.64514520e-03, 5.46983955e-03, 1.01443660e-02, 4.10128236e-02,
          2.60189418e-02, 7.06712482e-03, 7.71843176e-03, 1.14788830e-01,
          3.56765926e-01, 2.90812878e-03, 6.79494301e-03, 2.16620732e-02,
          1.32651418e-01, 6.50865212e-02, 1.21774552e-02, 2.78294785e-03,
          4.14624691e-01, 4.14624691e-01, 3.05180042e-03, 2.90203816e-03,
          1.24869281e-02, 7.98070282e-02, 3.35348733e-02, 4.65661520e-03,
          2.33322103e-03, 4.79561776e-01, 4.79561776e-01, 1.45445736e-02,
          1.82571094e-02, 1.18440883e-02, 7.47038946e-02, 3.88381109e-02,
          5.00248186e-03, 4.51471482e-04, 2.95960475e-02, 1.01663582e-01,
          3.33033130e-02, 1.95511598e-02, 6.02318859e-03, 2.33256985e-02,
          9.40514822e-03, 8.18416011e-04, 2.79026083e-03, 4.79561776e-01,
          4.79561776e-01, 4.49628616e-03, 5.10548614e-03, 5.29532041e-03,
          1.68598309e-01, 6.61968961e-02, 3.66968382e-03, 2.40684557e-03,
          4.38014269e-02, 1.28511846e-01, 9.12200660e-03, 5.47094084e-03,
          2.23257951e-03, 4.80344072e-02, 1.85028091e-02, 2.13938649e-03,
          2.21915003e-02, 1.82891220e-01, 3.06534022e-01, 2.49410793e-01,
          1.63886771e-01, 9.78944972e-02, 1.48241475e-01, 5.61479330e-02,
          2.01917943e-02, 1.51954412e-01, 5.08005619e-02, 1.28189206e-01,
          7.49302208e-02, 3.06534022e-01, 1.54510513e-01, 3.06534022e-01,
          2.25825086e-01, 1.15525700e-01, 9.68829077e-03, 2.45130822e-01,
          3.06534022e-01, 7.92279765e-02, 6.50471374e-02, 3.28277163e-02,
          1.29378632e-01, 4.49828915e-02, 5.91807207e-03, 4.66223881e-02,
          7.57826567e-02, 2.19460145e-01, 3.62266637e-02, 1.41558573e-01,
          8.25381130e-02, 3.06534022e-01, 2.35385716e-01, 5.33467196e-02 ]
      - [ 3.79232764e-02, 6.71715140e-02, 5.04982062e-02, 1.44559309e-01,
          1.46086499e-01, 2.18279660e-02, 8.92119016e-03, 1.54913198e-02,
          2.28419080e-02, 3.09021790e-02, 3.09702680e-02, 3.25985663e-02,
          1.18538179e-01, 1.88995957e-01, 3.52692343e-02, 4.12484482e-02,
          3.25696953e-02, 3.06078847e-02, 3.01760680e-04, 5.00730611e-03,
          2.84133386e-02, 1.30839661e-01, 4.90414858e-01, 3.58860224e-01,
          2.10155882e-02, 4.57846938e-04, 2.08219921e-04, 4.89878585e-04,
          2.57364218e-03, 2.04824246e-02, 1.26386717e-01, 4.90414858e-01,
          4.90414858e-01, 1.56927016e-02, 3.68858315e-03, 7.79362512e-04,
          1.13921566e-02, 1.04120197e-02, 2.01421082e-02, 2.82952450e-02,
          1.43854141e-01, 3.68082598e-02, 4.04219255e-02, 2.73979716e-02,
          1.65230874e-02, 4.34641354e-02, 5.02256490e-02, 8.19812417e-02,
          6.17450848e-02, 9.65296030e-02, 2.07169317e-02, 9.55825951e-03,
          8.92013125e-03, 3.07774991e-02, 2.21300463e-04, 2.69729178e-03,
          2.06012819e-02, 1.91084877e-01, 5.00549376e-01, 3.58895004e-01,
          1.11956205e-02, 4.26713843e-03, 6.86648069e-04, 3.19393799e-02,
          5.43093942e-02, 1.19899787e-01, 5.00549376e-01, 5.00549376e-01,
          8.03371370e-02, 2.97193066e-03, 1.28917524e-03, 2.61782017e-02,
          1.17582187e-01, 6.03072904e-02, 8.37893113e-02, 6.55031353e-02,
          8.15506279e-02, 5.04421256e-02, 4.50218245e-02, 7.23184869e-02,
          1.74678534e-01, 7.34662935e-02, 6.14103489e-03, 1.38429133e-02,
          1.81352720e-02, 3.98932733e-02, 6.40558675e-02, 8.57659653e-02,
          1.51949629e-01, 1.95171848e-01, 1.24593444e-01, 8.81554931e-02,
          1.73712149e-01, 3.99974406e-01, 3.99974406e-01, 5.27177341e-02,
          2.62757037e-02, 5.88202737e-02, 2.04468951e-01, 7.00228885e-02,
          8.18471890e-03, 1.02505498e-01, 3.85379702e-01, 3.59067857e-01,
          7.80011266e-02, 8.13540518e-02, 2.19848156e-01, 2.52887011e-01,
          7.05835002e-04, 3.06928938e-04, 1.58294442e-03, 1.01185394e-02,
          3.11583251e-01, 3.11583251e-01, 9.68138129e-02, 4.09300737e-02,
          1.66835207e-02, 2.12376355e-03, 1.42911944e-04, 8.01658898e-04,
          1.56719536e-02, 3.11583251e-01, 3.11583251e-01, 3.97491865e-02,
          3.69299948e-02, 3.70808542e-02, 3.33691612e-02, 3.96102332e-05,
          0., 0., 1.31765634e-01, 2.14375049e-01, 1.56594843e-01,
          2.66362250e-01, 3.11583251e-01, 7.75743574e-02, 5.66473136e-05,
          0., 3.96763440e-03, 2.82284319e-01, 3.11583251e-01,
          6.78590685e-02, 2.25987256e-01, 3.11583251e-01, 7.64337135e-03,
          2.81622750e-03, 3.98297841e-03, 1.37473390e-01, 3.24408501e-01,
          3.20973456e-01, 8.50207265e-03, 1.80010963e-02, 2.65932307e-02,
          1.26496600e-02, 2.52537765e-02, 6.15547113e-02, 3.24408501e-01,
          3.24408501e-01, 4.86282595e-02, 9.82355210e-04, 2.51353881e-03,
          1.34258801e-02, 1.17809266e-01, 1.54443737e-02, 4.86110477e-03,
          7.51591176e-02, 2.61637092e-01, 2.09457099e-01, 1.86659694e-02,
          9.83106792e-02, 3.24408501e-01, 2.13552073e-01, 1.56694084e-01,
          1.47825688e-01, 3.24408501e-01, 2.22404435e-01, 2.95618065e-02,
          2.16882024e-03, 1.16221095e-02, 2.35986143e-01, 1.14877475e-02,
          2.82654949e-02, 2.35985950e-01, 3.34110260e-01, 3.34110260e-01,
          5.34917088e-03, 1.86580222e-03, 4.97335056e-03, 1.61623806e-02,
          8.41575302e-03, 5.86554268e-03, 2.50799686e-01, 3.03764105e-01,
          1.13682657e-01, 1.76171791e-02, 1.13288350e-02, 2.76432410e-02,
          2.71011554e-02, 1.75516456e-01, 2.80641377e-01, 3.34110260e-01,
          3.34110260e-01, 8.99997652e-02, 1.15644907e-04, 4.17324627e-05,
          8.41009169e-05, 3.65436561e-02, 3.56542394e-02, 1.69573635e-01,
          3.34110260e-01, 2.47643694e-01, 2.96357442e-02, 1.16427690e-02,
          4.82081436e-03, 2.54905596e-03, 6.10238872e-03, 2.48061880e-01,
          9.52461502e-04, 1.29695429e-04, 2.28945821e-04, 7.86245149e-03,
          2.23234706e-02, 4.43053097e-02, 2.13466004e-01, 3.58485073e-01,
          3.55924666e-01, 7.99764006e-04, 1.52538632e-04, 4.06762440e-04,
          2.15691589e-02, 3.60149071e-02, 1.88303515e-02, 1.77801728e-01,
          3.58485073e-01, 3.27081561e-01, 1.27727967e-02, 2.17737872e-02,
          2.06920505e-02, 8.01212341e-03, 8.40006769e-03, 2.08634627e-03,
          8.60612374e-03, 3.30811501e-01, 3.48385692e-01, 9.63830668e-03,
          1.89163480e-02, 2.31594536e-02, 1.20837055e-02, 2.13937405e-02,
          4.29526437e-03, 1.28300153e-02, 3.58485073e-01, 2.70478040e-01,
          1.03381155e-02, 1.71170395e-03, 6.55174628e-03, 1.90280899e-02,
          2.14963220e-02, 5.61947515e-03, 7.49222189e-02, 3.74016106e-01,
          3.74016106e-01, 1.50390908e-01, 7.29013234e-02, 4.39587310e-02,
          1.69214811e-02, 3.18779517e-03, 8.05466203e-04, 1.52914571e-02,
          3.74016106e-01, 2.08114699e-01, 6.16101455e-03, 1.32401213e-02,
          1.75413545e-02, 9.70398448e-03, 1.82203390e-02, 5.07329777e-03,
          1.78401824e-02, 3.74016106e-01, 3.74016106e-01, 2.60712951e-02,
          4.20987001e-03, 3.01076425e-03, 6.83064386e-03, 1.64968614e-02,
          1.13793565e-02, 3.16526517e-02, 3.74016106e-01, 3.11656326e-01,
          3.11656326e-01, 3.11656326e-01, 1.01080649e-01, 5.47121791e-03,
          5.08465382e-05, 1.91708023e-04, 1.77869177e-03, 2.22106487e-01,
          1.59488231e-01, 3.11656326e-01, 3.11656326e-01, 6.35436177e-02,
          1.58811156e-02, 7.61750434e-03, 1.39595661e-02, 1.37626082e-02,
          2.16295738e-02, 3.11656326e-01, 2.59204268e-01, 3.35360020e-02,
          3.28344759e-04, 1.25058822e-03, 3.47260479e-03, 7.78751867e-03,
          2.44022552e-02, 3.11656326e-01, 2.00624362e-01, 3.11656326e-01,
          1.04517125e-01, 9.17082245e-04, 7.50573818e-03, 4.95966664e-03,
          1.72694474e-02, 2.31653973e-02, 9.25111249e-02 ]
      - [ 6.23371936e-02, 1.39354452e-01, 1.67017758e-01, 7.01536313e-02,
          4.46212813e-02, 1.23832924e-02, 1.96335874e-02, 2.31969673e-02,
          3.46057601e-02, 3.90635543e-02, 8.74049962e-02, 1.19101703e-01,
          4.62289900e-02, 3.44079211e-02, 1.41373305e-02, 3.34089920e-02,
          2.45846286e-02, 1.77040659e-02, 1.18843637e-01, 9.92549583e-02,
          1.07728504e-01, 1.01158276e-01, 4.92817372e-01, 4.61275637e-01,
          2.38556564e-02, 2.93369424e-02, 1.16040945e-01, 4.94889617e-02,
          3.57585549e-02, 5.21198511e-02, 8.53053182e-02, 4.92817372e-01,
          3.59468848e-01, 3.04430369e-02, 2.28658989e-02, 4.66239825e-02,
          1.27779851e-02, 3.52462344e-02, 7.36767203e-02, 3.46972831e-02,
          4.39954102e-02, 4.17129472e-02, 6.87372983e-02, 2.46751998e-02,
          8.17321707e-03, 1.81605518e-02, 6.32297844e-02, 1.29789770e-01,
          5.92610203e-02, 5.96266985e-02, 3.42789330e-02, 4.53381017e-02,
          1.54556399e-02, 5.75136719e-03, 2.28776745e-02, 2.65690573e-02,
          5.13533801e-02, 5.59966043e-02, 4.99439389e-01, 2.91238159e-01,
          6.16841055e-02, 3.60124074e-02, 2.74444483e-02, 3.49027403e-02,
          7.70791396e-02, 1.75813898e-01, 3.19328606e-01, 4.99439389e-01,
          4.54923183e-01, 4.03477401e-02, 2.33705416e-02, 2.07135659e-02,
          3.95227447e-02, 7.47727603e-02, 9.77424681e-02, 3.21862623e-02,
          3.00336313e-02, 8.22993461e-03, 3.82508002e-02, 5.83814569e-02,
          1.96092688e-02, 5.25367446e-02, 7.35964850e-02, 6.76319897e-02,
          2.31959056e-02, 1.18857464e-02, 1.94452181e-02, 1.27749234e-01,
          1.75461575e-01, 4.06915359e-02, 3.97514366e-02, 7.58481696e-02,
          3.37157905e-01, 3.37157905e-01, 3.37157905e-01, 3.13547254e-01,
          9.12705511e-02, 2.58157980e-02, 1.44683821e-02, 3.21755409e-02,
          9.60988328e-02, 3.37157905e-01, 3.37157905e-01, 2.10111395e-01,
          2.55647838e-01, 3.14248383e-01, 8.89561847e-02, 2.06408054e-02,
          8.79979506e-02, 7.49753742e-03, 4.54192888e-03, 9.09583550e-03,
          3.21716249e-01, 2.90074021e-01, 3.87435816e-02, 2.25698128e-02,
          2.25736588e-01, 9.88134965e-02, 1.50426815e-03, 1.64847099e-03,
          1.11880722e-02, 3.21716249e-01, 1.74741209e-01, 5.14058536e-03,
          7.02191517e-03, 2.70814478e-01, 2.27046192e-01, 8.74661095e-03,
          7.97065534e-03, 1.29469940e-02, 1.92501113e-01, 1.59893110e-01,
          4.15182896e-02, 3.51914838e-02, 3.21716249e-01, 3.20384711e-01,
          3.38750333e-03, 5.96034247e-03, 1.53220762e-02, 3.11962694e-01,
          7.83657581e-02, 6.55322382e-03, 6.78243209e-03, 3.21716249e-01,
          7.30490237e-02, 4.54508606e-03, 7.38452096e-03, 2.01502722e-02,
          3.54731083e-01, 1.37550578e-01, 5.80947939e-03, 1.02884853e-02,
          1.99193314e-01, 5.32454774e-02, 2.03582775e-02, 7.24529997e-02,
          1.40359208e-01, 3.54731083e-01, 1.96029991e-01, 1.39838159e-02,
          1.82224233e-02, 9.82743725e-02, 3.02518040e-01, 6.91814348e-03,
          7.18222698e-03, 1.70646086e-02, 2.86717236e-01, 4.55107726e-02,
          3.99745349e-03, 1.62116997e-02, 3.54731083e-01, 3.54731083e-01,
          2.77946293e-02, 5.60694523e-02, 5.50533421e-02, 1.93621069e-01,
          5.17825857e-02, 1.81141403e-02, 4.47947718e-02, 3.54731083e-01,
          3.07073761e-02, 2.10913047e-02, 2.86325753e-01, 2.86325753e-01,
          2.86325753e-01, 1.59765333e-01, 3.77187580e-02, 1.04886079e-02,
          3.57446782e-02, 5.46764489e-03, 6.54270351e-02, 2.86325753e-01,
          2.75165260e-01, 9.60823521e-02, 1.53467402e-01, 9.38194841e-02,
          3.91308451e-03, 5.46879182e-03, 2.51680583e-01, 5.69388159e-02,
          2.86325753e-01, 2.11308241e-01, 9.56473798e-02, 7.28624687e-02,
          7.12750405e-02, 9.17620733e-02, 2.86325753e-01, 4.59851772e-02,
          1.82709888e-01, 2.86325753e-01, 2.12452307e-01, 6.56102449e-02,
          1.14452332e-01, 1.05503850e-01, 7.69839138e-02, 1.32633269e-01,
          4.57906544e-01, 8.47549364e-02, 7.98606947e-02, 1.06716745e-01,
          6.86004460e-02, 3.48340310e-02, 3.99576984e-02, 6.18994683e-02,
          4.57906544e-01, 4.57906544e-01, 5.54051325e-02, 1.00418143e-01,
          1.29093051e-01, 4.75376658e-02, 2.45313626e-02, 2.90824808e-02,
          2.03268621e-02, 4.57906544e-01, 1.07150450e-01, 9.95078236e-02,
          8.18191618e-02, 7.85509944e-02, 4.08360511e-02, 1.53269945e-02,
          2.13012174e-02, 3.30544226e-02, 5.75887412e-02, 9.74639133e-02,
          8.87970254e-02, 1.20158441e-01, 7.62808397e-02, 2.50472743e-02,
          9.22156218e-03, 1.87227782e-02, 2.43891589e-02, 7.85157531e-02,
          4.83207941e-01, 3.14412527e-02, 4.64720726e-02, 4.82360274e-02,
          2.05849074e-02, 1.11879231e-02, 1.24772293e-02, 2.33785845e-02,
          4.83207941e-01, 4.83207941e-01, 3.27250659e-02, 4.05782796e-02,
          2.42823437e-02, 2.29606368e-02, 2.55597457e-02, 5.29520921e-02,
          1.05200209e-01, 4.83207941e-01, 3.92440073e-02, 3.91200744e-02,
          6.50424361e-02, 3.13808285e-02, 9.40153003e-03, 1.01780649e-02,
          1.09919077e-02, 1.37890829e-02, 4.40996587e-02, 4.74139601e-02,
          1.36097511e-02, 3.40377316e-02, 2.40501352e-02, 1.74351148e-02,
          4.06193212e-02, 5.63366376e-02, 5.83792441e-02, 1.12648375e-01,
          2.41060227e-01, 5.69430850e-02, 1.31843656e-01, 4.03089672e-02,
          1.42574180e-02, 2.62419395e-02, 1.79219335e-01, 2.81971782e-01,
          2.81971782e-01, 1.07775271e-01, 2.81971782e-01, 2.81971782e-01,
          7.04619586e-02, 2.02120319e-02, 4.79011834e-02, 2.39024282e-01,
          2.81971782e-01, 2.27478042e-01, 4.69814576e-02, 2.88308226e-02,
          4.17602658e-02, 1.52238365e-02, 7.85770081e-03, 2.55835056e-02,
          1.31970167e-01, 2.32307598e-01, 1.04304396e-01, 1.35875136e-01,
          2.25925624e-01, 2.81971782e-01, 1.50287328e-02, 4.88980347e-03,
          1.92114580e-02, 1.45773247e-01, 2.81971782e-01, 1.40448824e-01 ]
      - [ 1.96970627e-02, 5.12703368e-03, 6.90944353e-03, 3.56165925e-03,
          2.78761119e-01, 9.78813916e-02, 1.59323424e-01, 7.75480121e-02,
          4.31204326e-02, 4.53552268e-02, 6.28133910e-03, 8.21237359e-03,
          4.49103583e-03, 3.01814407e-01, 3.06860954e-01, 3.06860954e-01,
          1.69732064e-01, 7.72239417e-02, 3.06860954e-01, 3.43187489e-02,
          1.42120495e-02, 4.68575070e-03, 1.05073176e-01, 5.79011440e-02,
          1.66154534e-01, 1.25222489e-01, 3.06860954e-01, 3.06860954e-01,
          4.13716175e-02, 1.04874568e-02, 4.50437143e-03, 1.15742765e-01,
          1.33681282e-01, 2.31352627e-01, 1.92788482e-01, 3.06860954e-01,
          8.02509487e-02, 1.93580799e-02, 9.97209921e-03, 3.82290827e-03,
          5.43010458e-02, 1.96085274e-01, 2.96060055e-01, 2.00874552e-01,
          1.07526809e-01, 2.95510411e-01, 2.37485543e-01, 9.09294784e-02,
          6.55585108e-03, 2.86048800e-02, 7.51571357e-02, 2.04318404e-01,
          1.90773636e-01, 2.65047580e-01, 2.96060055e-01, 6.31294772e-02,
          1.26489419e-02, 4.00131755e-03, 3.57330292e-02, 7.63749853e-02,
          1.07256651e-01, 1.30110040e-01, 2.96060055e-01, 2.96060055e-01,
          2.96060055e-01, 9.52244923e-02, 6.81916857e-03, 2.79310141e-02,
          2.43628062e-02, 3.98498811e-02, 1.10536091e-01, 2.96060055e-01,
          1.89891711e-01, 2.35557139e-01, 9.23212394e-02, 8.88203923e-03,
          1.22573487e-02, 3.15302573e-02, 2.21062243e-01, 1.14634857e-01,
          1.35674641e-01, 9.95074213e-02, 1.81712449e-01, 1.65690869e-01,
          3.40794884e-02, 2.78600436e-02, 7.45519996e-02, 2.73376852e-01,
          1.36736602e-01, 9.24637541e-02, 2.62893289e-01, 2.73376852e-01,
          1.18908316e-01, 1.46373203e-02, 1.43464878e-02, 2.59239320e-02,
          2.73376852e-01, 2.73376852e-01, 1.10824659e-01, 6.99223205e-02,
          2.73376852e-01, 2.73376852e-01, 6.24870062e-02, 3.54420617e-02,
          6.03221767e-02, 2.73376852e-01, 2.73376852e-01, 4.74070869e-02,
          3.15006524e-01, 3.36992517e-02, 2.59968210e-02, 5.62374964e-02,
          1.40859693e-01, 5.12680970e-02, 2.41698511e-02, 2.95330863e-02,
          2.82562077e-01, 3.15006524e-01, 2.89438814e-02, 5.96668245e-03,
          5.04158735e-02, 2.63574362e-01, 5.94362095e-02, 3.70484218e-02,
          5.36881760e-02, 3.15006524e-01, 6.78367913e-02, 1.93813220e-02,
          3.08292154e-02, 1.65699795e-01, 3.15006524e-01, 3.06261212e-01,
          6.54827356e-02, 3.98005247e-02, 9.13762897e-02, 5.04714474e-02,
          1.19257923e-02, 1.06306020e-02, 1.79558650e-01, 3.15006524e-01,
          3.15006524e-01, 1.45550817e-01, 9.26748216e-02, 7.64344186e-02,
          3.72786343e-01, 4.27579582e-02, 1.05848480e-02, 3.61695029e-02,
          2.00635836e-01, 1.43611850e-02, 1.77752543e-02, 3.00042257e-02,
          2.55329698e-01, 3.86958092e-01, 1.38920337e-01, 8.25024769e-02,
          4.60821800e-02, 1.67904839e-01, 3.31062218e-03, 2.58451654e-03,
          1.31080039e-02, 1.83469564e-01, 2.16165278e-02, 1.03198187e-02,
          9.57877748e-03, 1.45494059e-01, 3.86958092e-01, 1.00159653e-01,
          7.56133646e-02, 7.82615766e-02, 5.47228195e-02, 1.33500537e-02,
          4.34303470e-02, 1.93321675e-01, 3.19154888e-01, 3.86958092e-01,
          1.12010069e-01, 5.82486317e-02, 5.14814556e-02, 3.12156789e-02,
          9.19379741e-02, 9.13034528e-02, 7.73495808e-02, 2.61647012e-02,
          3.18455547e-02, 2.91474499e-02, 2.93116778e-01, 1.97690949e-01,
          3.97349112e-02, 5.07947169e-02, 2.32781589e-01, 2.47153282e-01,
          2.80978661e-02, 1.31066507e-02, 6.45375624e-02, 2.93116778e-01,
          2.93116778e-01, 4.78879474e-02, 4.91889892e-03, 6.38824180e-02,
          2.59645939e-01, 1.71700552e-01, 2.78251439e-01, 7.15941712e-02,
          2.93116778e-01, 9.18695927e-02, 8.76836199e-03, 2.99244076e-02,
          2.35593215e-01, 2.93116778e-01, 6.87173158e-02, 3.27202454e-02,
          9.30856839e-02, 2.93116778e-01, 1.62509665e-01, 3.12822722e-02,
          4.57929894e-02, 2.70302352e-02, 3.14012952e-02, 1.17699489e-01,
          2.63118118e-01, 2.63118118e-01, 1.50876328e-01, 1.23734489e-01,
          1.35895848e-01, 4.59018573e-02, 5.70242032e-02, 5.74580655e-02,
          1.06386408e-01, 2.63118118e-01, 2.63118118e-01, 2.49035120e-01,
          1.39878854e-01, 8.53026211e-02, 3.56210358e-02, 2.87006982e-02,
          6.21680319e-02, 9.85636339e-02, 1.73718050e-01, 2.63118118e-01,
          2.63118118e-01, 2.63118118e-01, 1.10723309e-01, 5.66906333e-02,
          1.06397465e-01, 1.51939422e-01, 1.37753054e-01, 1.23273320e-01,
          2.63118118e-01, 2.54009604e-01, 2.47879907e-01, 6.78712353e-02,
          2.55852882e-02, 3.47327441e-02, 3.65793332e-02, 6.89442605e-02,
          3.12524885e-01, 1.20767765e-01, 2.06926808e-01, 1.55317098e-01,
          8.26327652e-02, 8.39348324e-03, 7.03991726e-02, 2.94837415e-01,
          2.12045833e-01, 3.12524885e-01, 1.77893311e-01, 3.12524885e-01,
          1.58437774e-01, 5.46709932e-02, 2.88145225e-02, 6.73315376e-02,
          1.04001626e-01, 7.60862827e-02, 5.17246649e-02, 8.91257375e-02,
          3.12524885e-01, 1.62447080e-01, 4.12226841e-02, 2.50818562e-02,
          1.27621830e-01, 2.60849178e-01, 7.10460320e-02, 8.20851848e-02,
          1.38039559e-01, 3.12524885e-01, 1.94959342e-01, 3.27033587e-02,
          4.14099684e-03, 1.28035381e-01, 2.85050362e-01, 1.84172332e-01,
          2.71248907e-01, 1.21701598e-01, 2.85050362e-01, 1.21660866e-01,
          1.91422645e-02, 4.24697511e-02, 2.85050362e-01, 2.85050362e-01,
          7.81179294e-02, 5.18791974e-02, 8.73458833e-02, 2.85050362e-01,
          2.01020703e-01, 3.93913575e-02, 3.86603400e-02, 1.66674554e-01,
          2.85050362e-01, 7.57394731e-02, 8.94817412e-02, 9.91827920e-02,
          2.00312480e-01, 5.30124977e-02, 2.32299995e-02, 5.74847646e-02,
          2.85050362e-01, 2.85050362e-01, 4.28567380e-02, 5.65791801e-02,
          7.98860937e-02, 1.29486829e-01, 6.38374314e-02, 3.39463688e-02 ]
      - [ 1.04721524e-01, 1.10219032e-01, 2.00909898e-01, 8.94096717e-02,
          1.50243595e-01, 1.74139723e-01, 2.39515334e-01, 1.46649927e-01,
          1.19690262e-01, 9.35529545e-02, 1.28643826e-01, 2.39515334e-01,
          9.84604284e-02, 1.22159362e-01, 1.06005318e-01, 1.66885480e-01,
          9.14842188e-02, 8.24673772e-02, 2.39515334e-01, 2.00155720e-01,
          1.84628353e-01, 1.42098695e-01, 1.71995685e-01, 1.09517425e-01,
          2.39515334e-01, 1.51037157e-01, 2.10492373e-01, 2.39515334e-01,
          2.39515334e-01, 2.18235776e-01, 1.32763952e-01, 1.51646763e-01,
          6.88876286e-02, 1.49835750e-01, 1.14755467e-01, 2.39515334e-01,
          6.51605502e-02, 4.06635292e-02, 8.14583749e-02, 5.87060079e-02,
          1.03181466e-01, 1.67530239e-01, 2.28233427e-01, 9.24092829e-02,
          8.50534365e-02, 1.51807547e-01, 5.25488704e-02, 1.61890015e-01,
          1.55428499e-01, 8.93986896e-02, 1.62126243e-01, 2.31300279e-01,
          1.67338014e-01, 1.35551170e-01, 2.97463626e-01, 2.13820636e-01,
          6.20423965e-02, 3.51455286e-02, 1.57102197e-01, 7.53519088e-02,
          1.30484432e-01, 1.49983287e-01, 2.97463626e-01, 2.97463626e-01,
          1.95138559e-01, 1.16180167e-01, 8.96493644e-02, 2.97463626e-01,
          1.17830679e-01, 9.19449851e-02, 1.38146013e-01, 2.97463626e-01,
          1.47875950e-01, 9.16171968e-02, 1.07574001e-01, 7.11863264e-02,
          3.56727764e-02, 5.61145954e-02, 1.39408752e-01, 1.38080910e-01,
          1.07238658e-01, 2.56515592e-01, 2.53153563e-01, 1.56684145e-01,
          6.56329468e-02, 4.39295135e-02, 3.80284488e-02, 2.56515592e-01,
          2.56515592e-01, 1.74963951e-01, 2.56515592e-01, 1.32674336e-01,
          9.09274518e-02, 8.37715343e-02, 2.17122108e-01, 7.60580525e-02,
          6.46014363e-02, 7.35027790e-02, 2.11960733e-01, 2.56515592e-01,
          2.56515592e-01, 1.89112589e-01, 1.39323398e-01, 1.71332538e-01,
          4.84375991e-02, 2.56515592e-01, 2.56515592e-01, 1.24839284e-01,
          1.00080103e-01, 5.98566495e-02, 4.04717736e-02, 2.03387924e-02,
          2.08465666e-01, 9.63617340e-02, 6.53267652e-02, 2.74857040e-02,
          7.89271668e-02, 1.30299047e-01, 6.19290583e-02, 2.62551364e-02,
          1.64758991e-02, 3.47396314e-01, 1.27249449e-01, 2.37418860e-02,
          1.45769501e-02, 1.33438349e-01, 1.34441122e-01, 3.58445309e-02,
          3.38713303e-02, 3.11603863e-02, 3.47396314e-01, 2.04752907e-01,
          1.47848070e-01, 8.90884250e-02, 3.23926181e-01, 3.29349935e-01,
          1.56896431e-02, 1.45315342e-02, 2.13613138e-02, 3.47396314e-01,
          2.50867635e-01, 7.09052905e-02, 4.61006127e-02, 3.47396314e-01,
          6.97768256e-02, 2.96752956e-02, 5.35359420e-03, 5.61047392e-03,
          3.60557050e-01, 7.16309175e-02, 3.16828862e-03, 8.90900195e-03,
          8.75156522e-02, 9.03317556e-02, 2.17209402e-02, 5.83998393e-03,
          1.19136898e-02, 3.60557050e-01, 1.19035646e-01, 2.54284986e-03,
          5.10776974e-03, 5.70833907e-02, 2.65874714e-01, 6.85431296e-03,
          1.14348568e-02, 9.93892830e-03, 3.60557050e-01, 1.17172427e-01,
          5.93983894e-03, 6.84014196e-03, 3.60557050e-01, 2.48429447e-01,
          4.40229056e-03, 6.71718409e-03, 1.86508261e-02, 3.60557050e-01,
          1.54360339e-01, 8.44209455e-03, 2.50348672e-02, 3.60557050e-01,
          6.73744529e-02, 1.27902096e-02, 2.69442108e-02, 6.19164072e-02,
          2.97647744e-01, 1.22171551e-01, 4.11558943e-03, 3.25108855e-03,
          2.97312643e-02, 3.18622217e-02, 3.49482894e-02, 2.21126959e-01,
          1.68527871e-01, 2.92125195e-01, 8.09346437e-02, 2.56773263e-01,
          4.85565104e-02, 1.26886582e-02, 1.48620546e-01, 1.15197748e-02,
          6.98391721e-02, 8.53666812e-02, 2.97647744e-01, 1.36497930e-01,
          9.33259353e-03, 2.35667098e-02, 2.97647744e-01, 1.09449081e-01,
          1.48758426e-01, 2.97647744e-01, 2.43751943e-01, 2.97647744e-01,
          1.28348708e-01, 2.97647744e-01, 2.76366863e-02, 1.89911038e-01,
          1.92365646e-01, 2.06405763e-02, 4.46954109e-02, 7.85007477e-02,
          2.85441607e-01, 1.72367170e-01, 1.84715554e-01, 1.68380111e-01,
          3.83491486e-01, 3.83491486e-01, 2.16901675e-02, 5.51346131e-02,
          7.64280111e-02, 3.83491486e-01, 2.27074236e-01, 1.42681897e-01,
          1.14040621e-01, 3.83491486e-01, 1.58026610e-02, 2.59904638e-02,
          5.03381379e-02, 3.15175019e-02, 3.55907641e-02, 5.46534657e-02,
          1.34472996e-01, 9.89898145e-02, 2.82430500e-02, 3.39216925e-02,
          2.56871656e-02, 6.61515221e-02, 5.75422309e-02, 6.08931482e-02,
          9.55738351e-02, 1.42517924e-01, 1.00217476e-01, 6.55580163e-02,
          3.67694944e-01, 2.48636622e-02, 8.07439014e-02, 5.69865368e-02,
          3.67694944e-01, 8.39222968e-02, 3.90637293e-02, 2.89895274e-02,
          3.67694944e-01, 3.67694944e-01, 1.66221987e-02, 5.01402318e-02,
          5.72608486e-02, 3.57750505e-01, 1.06393822e-01, 9.00371000e-02,
          1.19767867e-01, 3.67694944e-01, 4.18568850e-02, 3.29907909e-02,
          9.92953479e-02, 5.97611740e-02, 4.74529862e-02, 5.14013544e-02,
          5.15858643e-02, 3.80483195e-02, 6.84943199e-02, 4.99144495e-02,
          2.20729038e-02, 7.55708143e-02, 5.37769645e-02, 7.83393160e-02,
          1.07483529e-01, 1.92018941e-01, 1.17755204e-01, 1.50779948e-01,
          2.25372478e-01, 1.94664579e-02, 4.95353006e-02, 4.74033691e-02,
          1.57652646e-01, 6.07774593e-02, 5.32046817e-02, 6.92779124e-02,
          2.83676893e-01, 2.29538560e-01, 2.82578290e-01, 2.83676893e-01,
          1.13146879e-01, 1.09299913e-01, 1.94809496e-01, 2.83676893e-01,
          1.04414552e-01, 2.83676893e-01, 3.85579877e-02, 8.60417262e-03,
          2.48992573e-02, 2.74000820e-02, 4.03414853e-02, 6.01882935e-02,
          1.39974564e-01, 9.31174606e-02, 1.12062700e-01, 7.05311522e-02,
          1.90457106e-01, 2.83676893e-01, 4.41268571e-02, 5.45950085e-02,
          1.79816484e-01, 2.83676893e-01, 2.83676893e-01, 9.02895704e-02 ]
      - [ 1.09103499e-02, 2.75685549e-01, 4.07743305e-01, 1.25681264e-02,
          1.81480485e-03, 2.93045829e-04, 3.59372149e-04, 1.42232527e-03,
          1.05480440e-02, 2.11008289e-03, 2.55240262e-01, 4.07743305e-01,
          1.36382394e-02, 9.17083025e-03, 3.79450247e-03, 4.33284137e-03,
          3.84626561e-03, 1.15132984e-03, 1.39579214e-02, 2.92377919e-01,
          4.07743305e-01, 2.60054599e-03, 1.47961910e-04, 4.32512280e-07,
          2.83409329e-03, 2.78958958e-02, 2.63718423e-02, 1.05303628e-02,
          3.18319798e-01, 4.07743305e-01, 9.34864581e-03, 3.90265090e-03,
          2.10502301e-03, 6.29169075e-03, 1.10940412e-02, 1.28184389e-02,
          2.34546643e-02, 3.05649459e-01, 3.65870297e-01, 1.42321020e-01,
          1.02829970e-01, 5.32542318e-02, 4.68255356e-02, 3.44926193e-02,
          1.15587553e-02, 3.28550786e-02, 8.72854367e-02, 1.40954301e-01,
          1.32020339e-01, 1.53688297e-01, 8.81977826e-02, 1.74838696e-02,
          9.54680797e-03, 1.11378608e-02, 1.80073544e-01, 3.65870297e-01,
          3.65870297e-01, 1.42689556e-01, 1.04436360e-01, 6.51413053e-02,
          8.89380723e-02, 1.21881329e-01, 2.16066957e-01, 2.74652839e-01,
          1.63037434e-01, 1.26684174e-01, 1.38016149e-01, 2.24492759e-01,
          1.27580628e-01, 3.82585339e-02, 4.09950465e-02, 2.03408644e-01,
          5.18905781e-02, 1.72185838e-01, 2.55250126e-01, 2.55250126e-01,
          2.47164428e-01, 1.05025657e-01, 1.26417102e-02, 5.92438737e-03,
          1.09064495e-02, 7.45396093e-02, 1.58690423e-01, 2.55250126e-01,
          2.55250126e-01, 1.41765311e-01, 6.89342916e-02, 3.52016278e-02,
          2.00050622e-02, 4.13994864e-02, 2.55250126e-01, 2.55250126e-01,
          2.55250126e-01, 1.94581121e-01, 2.55250126e-01, 1.24078259e-01,
          1.60841364e-02, 1.72839556e-02, 1.43227473e-01, 2.48537615e-01,
          2.55250126e-01, 2.55250126e-01, 1.63680837e-01, 7.17489794e-02,
          3.12299877e-02, 2.15514153e-02, 3.24673541e-02, 1.08043745e-01,
          2.94271414e-03, 2.07254276e-01, 4.52481270e-01, 9.87318810e-03,
          2.76564620e-04, 1.98667962e-03, 2.34950390e-02, 5.84850721e-02,
          1.34748090e-02, 1.13289868e-02, 2.41449192e-01, 4.52481270e-01,
          4.11260203e-02, 5.63365920e-03, 1.14639930e-03, 5.37791662e-03,
          9.46081243e-03, 1.85194202e-02, 1.56302165e-04, 1.31706461e-01,
          4.52481270e-01, 1.53061207e-02, 1.13452617e-02, 2.28769016e-02,
          7.21548051e-02, 3.31692211e-02, 2.08294368e-03, 2.38973484e-03,
          2.04892457e-01, 4.52481270e-01, 4.48656604e-02, 5.21257706e-03,
          1.71494484e-03, 9.01829358e-03, 4.78418777e-03, 3.86870233e-03,
          1.93178028e-01, 2.99189478e-01, 4.34228569e-01, 1.71837986e-01,
          7.66344294e-02, 3.37914117e-02, 4.84399498e-02, 7.84320533e-02,
          2.52519250e-01, 2.60554373e-01, 1.04571648e-01, 6.30999133e-02,
          7.02423900e-02, 7.99340829e-02, 8.03016648e-02, 3.82484868e-02,
          4.60280553e-02, 2.50411361e-01, 4.56476510e-02, 3.58769923e-01,
          4.34228569e-01, 1.78828865e-01, 6.86669201e-02, 3.16915214e-02,
          6.47835881e-02, 5.61118834e-02, 5.84144257e-02, 4.78084162e-02,
          4.12746258e-02, 7.67434314e-02, 6.57088533e-02, 5.89495301e-02,
          9.01174098e-02, 6.34400472e-02, 4.68737148e-02, 6.91293851e-02,
          2.58442014e-01, 2.58442014e-01, 2.58442014e-01, 1.98588043e-01,
          1.13616787e-01, 1.20599106e-01, 5.21221459e-02, 5.53489663e-02,
          2.58442014e-01, 1.97567388e-01, 2.58442014e-01, 2.58442014e-01,
          2.58442014e-01, 7.68032745e-02, 9.95500293e-03, 2.11600922e-02,
          3.61642055e-02, 9.55019146e-02, 5.21254726e-02, 9.91878435e-02,
          2.52406240e-01, 2.49028847e-01, 1.20506875e-01, 1.44929796e-01,
          8.77176970e-02, 5.95767647e-02, 9.27466825e-02, 2.06634086e-02,
          9.01129469e-02, 2.58442014e-01, 2.58442014e-01, 2.54478395e-01,
          7.58866314e-03, 1.77504215e-02, 1.15958266e-02, 1.56173212e-02,
          2.56592961e-04, 1.68678001e-01, 3.89446259e-01, 1.51231699e-02,
          1.94241367e-02, 2.20811889e-02, 5.24139330e-02, 3.08338064e-03,
          1.26936749e-04, 6.64099003e-04, 2.73965985e-01, 3.89446259e-01,
          6.08172128e-03, 5.92096709e-04, 1.63957349e-03, 9.63732600e-03,
          4.21044324e-03, 7.96732842e-04, 3.03833894e-02, 3.58556658e-01,
          3.89446259e-01, 1.34575833e-02, 1.04848882e-02, 7.87998084e-03,
          1.40589001e-02, 1.52672728e-04, 3.12721793e-04, 8.35926645e-03,
          3.89446259e-01, 3.89446259e-01, 2.39312882e-03, 6.89069624e-04,
          1.94017706e-03, 1.14291171e-02, 2.81617558e-03, 4.64818673e-04,
          1.37286177e-02, 4.41097677e-01, 4.89306599e-01, 2.70867608e-02,
          1.01494603e-02, 1.76477544e-02, 7.90231824e-02, 6.37269020e-02,
          1.49212237e-02, 1.53397284e-02, 3.64397429e-02, 5.80792129e-02,
          1.64297055e-02, 1.78306736e-02, 4.06095162e-02, 6.27400503e-02,
          4.75301072e-02, 1.99496504e-02, 1.07487645e-02, 4.89306599e-01,
          4.89306599e-01, 2.92402841e-02, 9.66314878e-03, 3.37955132e-02,
          1.55264273e-01, 4.76883166e-02, 8.76949448e-03, 1.11503256e-02,
          2.88367309e-02, 7.38888383e-02, 2.43235230e-02, 2.47785728e-02,
          6.23930916e-02, 1.19354442e-01, 4.50196974e-02, 1.41686108e-02,
          4.38361652e-02, 1.01424806e-01, 2.66542226e-01, 1.94376290e-01,
          1.91534981e-01, 1.34629861e-01, 1.35924771e-01, 8.78369659e-02,
          5.99406064e-02, 6.70301989e-02, 1.38824016e-01, 2.72783041e-01,
          2.72783041e-01, 2.72783041e-01, 2.94332579e-03, 1.33712571e-02,
          5.53583819e-03, 3.65707390e-02, 7.86251202e-02, 9.84189510e-02,
          2.02300355e-01, 1.78297266e-01, 2.72783041e-01, 2.09993169e-01,
          2.30677322e-01, 1.04464211e-01, 8.05087090e-02, 9.96600613e-02,
          1.41371608e-01, 2.72783041e-01, 2.72783041e-01, 2.72783041e-01,
          5.49173467e-02, 6.16401657e-02, 2.80807074e-02, 6.81167692e-02 ]
      - [ 4.98575941e-02, 1.40587706e-02, 2.03901585e-02, 1.91800632e-02,
          2.61077404e-01, 1.16685905e-01, 1.15402378e-02, 1.10375378e-02,
          5.27998358e-02, 4.94299717e-02, 2.14101672e-02, 8.75945669e-03,
          1.01492573e-02, 4.13626283e-01, 1.57817826e-01, 1.63607940e-03,
          2.14520213e-03, 2.39958577e-02, 2.61289217e-02, 1.07049886e-02,
          1.19936923e-02, 1.00582652e-02, 4.13626283e-01, 4.13626283e-01,
          1.24431081e-01, 3.75818461e-02, 3.86993289e-02, 2.54734959e-02,
          5.61368698e-03, 7.52932567e-04, 2.07177363e-03, 4.13626283e-01,
          4.13626283e-01, 3.63039412e-02, 3.13989185e-02, 3.39425616e-02,
          2.40096282e-02, 8.33418034e-03, 2.10802793e-03, 6.18429715e-03,
          3.88648361e-01, 1.53262496e-01, 1.50624989e-03, 2.65404116e-03,
          2.95566004e-02, 3.70014906e-02, 1.13543719e-02, 2.81355437e-03,
          4.97411098e-03, 3.88648361e-01, 2.35974416e-01, 5.61338384e-03,
          9.49840434e-03, 5.03892340e-02, 1.76715273e-02, 4.65706224e-03,
          1.55762697e-04, 3.33367079e-03, 3.88648361e-01, 3.88648361e-01,
          1.55766569e-02, 2.09900457e-02, 2.56867185e-02, 2.57514101e-02,
          8.18892289e-03, 5.91316260e-04, 4.66250209e-03, 3.88648361e-01,
          3.88648361e-01, 1.10625243e-02, 2.90175900e-02, 3.86112034e-02,
          2.26801075e-02, 1.47750471e-02, 8.59389454e-03, 3.43800820e-02,
          3.50226879e-01, 1.87218830e-01, 8.07275251e-02, 4.50091958e-02,
          2.22120322e-02, 9.24167782e-03, 6.16125986e-02, 1.51305020e-01,
          1.64109007e-01, 3.50226879e-01, 1.07368395e-01, 1.19317129e-01,
          4.61730137e-02, 6.40754728e-03, 1.94103420e-02, 9.10598412e-03,
          6.60757199e-02, 7.83635527e-02, 3.50226879e-01, 3.10396671e-01,
          4.37030718e-02, 6.50073141e-02, 3.20466608e-02, 5.24072628e-03,
          1.39389992e-01, 3.50226879e-01, 3.26442838e-01, 3.50226879e-01,
          9.89925563e-02, 5.23311086e-02, 4.89429459e-02, 7.47059938e-03,
          7.57783800e-02, 2.34679529e-03, 2.76186154e-04, 5.60492394e-04,
          3.00154090e-01, 3.19857210e-01, 1.52510673e-01, 1.26643211e-01,
          3.19857210e-01, 1.29079729e-01, 6.82498841e-03, 1.57036702e-04,
          4.56711768e-06, 3.19857210e-01, 2.49811739e-01, 5.03966101e-02,
          8.73790607e-02, 3.19857210e-01, 1.76073432e-01, 9.96953226e-04,
          7.13888614e-04, 3.88575089e-03, 1.47817982e-02, 2.26518195e-02,
          4.80158627e-02, 1.30594775e-01, 3.19857210e-01, 3.19857210e-01,
          3.70344473e-03, 2.86289520e-04, 4.06742003e-03, 1.36952167e-02,
          9.50174779e-03, 1.76934712e-02, 6.69637620e-02, 3.19857210e-01,
          1.40891001e-01, 8.93075857e-03, 3.39600578e-04, 6.66470674e-04,
          3.56771201e-01, 1.71947181e-01, 3.10878567e-02, 7.48948157e-02,
          3.16946954e-01, 1.13843173e-01, 1.81932691e-02, 4.26039705e-03,
          3.50240385e-03, 3.50682408e-01, 1.45723730e-01, 2.64725443e-02,
          7.83562437e-02, 2.74330556e-01, 3.56771201e-01, 4.13158396e-03,
          3.91073321e-04, 2.75246752e-03, 1.05424821e-02, 7.52577605e-03,
          1.34249581e-02, 5.71281537e-02, 3.56771201e-01, 2.81686246e-01,
          8.50662682e-03, 4.64712735e-03, 2.11758912e-03, 5.42724878e-03,
          1.30429761e-02, 1.81869399e-02, 8.67166594e-02, 3.56771201e-01,
          5.76608814e-02, 3.74335237e-02, 9.79002342e-02, 2.91670356e-02,
          2.06854075e-01, 8.69608074e-02, 8.44370574e-02, 1.48830041e-01,
          1.39221147e-01, 2.86934637e-02, 3.08600903e-01, 3.37734669e-01,
          1.00384101e-01, 1.11320861e-01, 2.72756293e-02, 9.22090188e-02,
