%YAML:1.0
---
opencv_ml_svm:
   format: 3
   svmType: C_SVC
   kernel:
      type: LINEAR
   C: 2.9999999999999999e-01
   term_criteria: { epsilon:1.1920928955078125e-07, iterations:1000 }
   var_count: 600
   class_count: 2
   class_labels: !!opencv-matrix
      rows: 2
      cols: 1
      dt: i
      data: [ 0, 1 ]
   sv_total: 1
   support_vectors:
      - [ -4.69140932e-02, -2.99621224e-01, 3.04543704e-01,
          2.03626722e-01, 1.12505831e-01, 5.04824042e-01, 1.33805826e-01,
          -6.59093410e-02, 1.95447013e-01, 3.58539112e-02,
          -1.72889724e-01, 1.89340368e-01, 2.29813941e-02,
          -2.56681532e-01, -1.68067012e-02, 1.88316599e-01,
          1.57204151e-01, 2.28222355e-01, -1.50861084e-01,
          -2.26616502e-01, 2.35313848e-01, -4.76086773e-02,
          -2.22806498e-01, -2.70058811e-01, 6.54094815e-02,
          -3.66797537e-01, 1.12860866e-01, 1.41362444e-01,
          -4.90085840e-01, 4.12656605e-01, 2.23312065e-01,
          -2.04656556e-01, 3.59252572e-01, 8.54051486e-02,
          -3.15773606e-01, 3.38680029e-01, -1.06094144e-01,
          -1.08104110e-01, -8.89480412e-02, 3.16951536e-02,
          -2.96153128e-01, 7.66347647e-02, 6.82605878e-02,
          -4.82359201e-01, -4.86457907e-02, -7.74605274e-02,
          -3.40951502e-01, -7.04600289e-02, 3.53015602e-01,
          -2.29483619e-01, 2.64272124e-01, 4.79901314e-01,
          -1.99283928e-01, -8.17973241e-02, 3.04099649e-01,
          -1.28505871e-01, 7.19834507e-01, 8.64047855e-02,
          2.16659516e-01, -1.68504345e-03, 4.32743542e-02,
          -3.21681827e-01, -1.36834145e-01, -7.39613250e-02,
          -2.44858727e-01, -2.64378160e-01, -2.77604721e-02,
          -1.17021026e-02, 3.88564765e-01, -2.64187962e-01,
          -2.76681706e-02, -1.90312862e-01, 7.88870007e-02,
          2.66548581e-02, 4.06808734e-01, -2.19029430e-02,
          2.78088767e-02, 2.39701062e-01, 5.98398969e-02, 2.69728124e-01,
          1.94395185e-01, -2.79654413e-02, -3.66579443e-02,
          1.60155863e-01, -3.17039602e-02, -1.30084887e-01,
          8.50435570e-02, -1.93682209e-01, -1.18883654e-01,
          1.42099380e-01, -2.37245997e-03, -2.86537170e-01,
          6.02766350e-02, -1.28243670e-01, 7.83665571e-03,
          -4.20638919e-02, -2.13091797e-03, 3.31081420e-01,
          -3.08099259e-02, -1.77883640e-01, -3.21212381e-01,
          -1.65985152e-01, -3.05993371e-02, 4.78138775e-01,
          5.71886217e-03, -1.70063823e-01, -1.66329727e-01,
          1.10847410e-02, -5.89268096e-02, -3.19952220e-01,
          -3.21550131e-01, -2.08488882e-01, -2.37511203e-01,
          -1.27690330e-01, 1.15813710e-01, -1.61098540e-01,
          -2.22994938e-01, -4.12347652e-02, -2.66347647e-01,
          1.11283339e-03, -3.50126438e-02, -1.43234774e-01,
          3.19771707e-01, 1.74942181e-01, 5.85602783e-02, 1.77807957e-01,
          -1.54901072e-01, 5.29551320e-02, 1.65677041e-01,
          -4.86809723e-02, 6.75071822e-03, -3.10862303e-01,
          2.56435107e-02, -2.03153566e-01, 2.04873443e-01,
          5.04585356e-02, -3.03451300e-01, 4.83106822e-01,
          -2.31550857e-01, -1.49385750e-01, 6.23700731e-02,
          -4.52955067e-02, -1.29645452e-01, -1.32803723e-01,
          4.80270758e-02, -4.99601625e-02, 1.88675895e-01,
          1.53074116e-01, 6.19542003e-02, -5.07775359e-02,
          5.23488559e-02, -6.80737570e-02, 2.12737516e-01,
          -1.70099705e-01, 6.99440241e-02, -2.49589652e-01,
          -1.31397009e-01, -1.06526323e-01, 1.48870096e-01,
          -7.60649964e-02, 2.63061911e-01, -2.73838758e-01,
          1.98804930e-01, -5.70256114e-02, 6.76966310e-02,
          7.41989613e-02, 3.16639513e-01, -2.31589288e-01,
          2.06428505e-02, 3.47437948e-01, 1.86022758e-01, 4.95603606e-02,
          3.08459818e-01, 1.29207773e-02, 1.55851662e-01, 4.40659195e-01,
          2.00198993e-01, 5.78887053e-02, 8.95474628e-02, 8.14224631e-02,
          -1.48237556e-01, 4.01503354e-01, -2.10345805e-01,
          -3.63845527e-01, 3.55012864e-01, 1.41395047e-01,
          3.95321399e-02, 3.40814948e-01, -3.34444344e-01,
          -2.39875972e-01, 2.69265413e-01, 1.38443694e-01,
          7.98727497e-02, 1.64777130e-01, -2.06391945e-01,
          -1.37672499e-01, 1.04495995e-02, 7.29423910e-02,
          -1.17222972e-01, -3.10909972e-02, 1.33936211e-01,
          1.94969654e-01, 3.88665050e-01, 1.00179739e-01,
          -1.94158286e-01, 1.29221842e-01, -1.47580534e-01,
          -2.20603213e-01, -3.46747749e-02, -1.00474328e-01,
          4.57825314e-04, 1.90109964e-02, 6.88863918e-02, 1.88640848e-01,
          6.57221377e-02, 1.50616765e-01, -3.23177487e-01,
          -1.56890288e-01, -6.56291395e-02, 2.97078863e-02,
          -3.40594463e-02, -8.95382185e-03, 1.64997503e-01,
          8.03880692e-02, -1.80291966e-01, 2.99556524e-01,
          1.15457270e-02, 1.86893225e-01, -1.48239449e-01,
          -3.64914685e-01, 1.37351140e-01, 1.15936257e-01,
          -2.59980887e-01, 8.16238765e-03, -1.49963826e-01,
          -1.74676359e-01, -2.02847138e-01, 3.05429399e-01,
          -9.78871211e-02, -3.25000703e-01, 1.90729812e-01,
          -2.20496178e-01, 1.90589204e-01, -9.99715775e-02,
          -3.38073105e-01, 2.68079519e-01, -5.39319813e-02,
          -1.97365120e-01, 5.05509339e-02, -3.54451269e-01,
          -2.73028404e-01, -1.49343774e-01, 2.50377148e-01,
          -1.94142573e-02, 1.28144771e-01, 1.54154468e-02,
          -2.55996406e-01, -1.16695456e-01, 1.48989186e-01,
          -4.62499648e-01, -2.87084311e-01, -1.49888843e-01,
          -2.93139398e-01, -1.34220317e-01, 5.54144531e-02,
          2.19811182e-02, 2.19146550e-01, -4.35481071e-02,
          2.34266415e-01, -3.21111709e-01, -3.16233665e-01,
          1.26194388e-01, 2.32032500e-02, -6.37231469e-02,
          2.58410811e-01, -3.73315245e-01, 3.39471906e-01,
          9.19756889e-02, -4.39040735e-02, -3.10403146e-02,
          1.60993159e-01, -3.67897093e-01, -2.55570978e-01,
          4.07924086e-01, -1.15254976e-01, -4.07948978e-02,
          1.98535815e-01, -3.71681660e-01, -4.41977471e-01,
          4.06145066e-01, -1.34040058e-01, 9.78556089e-03,
          3.32496703e-01, -2.07803383e-01, -3.14129621e-01,
          1.61449596e-01, -3.51070255e-01, 3.98794681e-01,
          3.64448577e-01, 1.23685539e-01, -2.79977739e-01,
          7.06179976e-01, -1.33389875e-01, 8.04182068e-02,
          3.12044084e-01, -4.72917259e-01, -2.72584558e-01,
          6.79046333e-01, -5.40855110e-01, -5.73528334e-02,
          3.99466246e-01, -2.21466824e-01, -4.34636682e-01,
          2.43705854e-01, -3.35408181e-01, 5.79828203e-01,
          -8.41482133e-02, -5.26688108e-03, 2.95958519e-01,
          3.89906913e-01, 1.01007059e-01, 3.36904109e-01,
          -3.07351828e-01, 3.85889411e-01, -9.05417651e-02,
          3.66919309e-01, -3.44788641e-01, -1.82436317e-01,
          5.81610613e-02, -2.50293523e-01, 2.94445872e-01,
          -1.50651395e-01, 5.27898371e-02, -1.66298691e-02,
          -1.10045902e-01, 3.11873496e-01, 3.15184414e-01,
          -2.19769076e-01, -1.31406948e-01, 2.15023816e-01,
          -2.83428758e-01, 1.00934327e-01, 8.88103545e-02,
          -1.39979348e-01, -2.00675666e-01, 4.04094458e-01,
          -1.08487695e-01, -7.78894946e-02, -8.39714259e-02,
          -1.31368309e-01, -2.71003067e-01, 1.55731291e-03,
          -4.82798010e-01, 1.95397571e-01, -1.24362648e-01,
          -1.89718172e-01, -3.05228475e-02, 2.42970437e-01,
          -3.93360890e-02, 1.32394359e-01, 1.17498286e-01,
          -2.51168072e-01, 4.30717111e-01, 3.45297128e-01,
          -2.41652101e-01, -3.07021081e-01, 2.80424710e-02,
          -2.21453860e-01, -1.70142949e-01, -8.60611256e-03,
          -3.18674594e-01, 1.04742713e-01, 3.07326853e-01,
          8.89221951e-02, 9.78577211e-02, 8.88691396e-02,
          -1.03467949e-01, -2.08671734e-01, -2.89603369e-03,
          2.01800108e-01, 1.47169799e-01, 1.53630778e-01, 1.02675676e-01,
          -3.10452860e-02, 2.41343483e-01, -8.91566947e-02,
          3.47109064e-02, 2.67102540e-01, 1.82025269e-01,
          -9.73986909e-02, 1.54283926e-01, 3.25517267e-01,
          -2.56529480e-01, 1.17384247e-01, 1.25188977e-01,
          -1.35185823e-01, 3.52636784e-01, 9.22961384e-02,
          2.74482429e-01, -5.70667535e-02, 2.47417450e-01,
          -2.64494009e-02, 9.36969742e-02, 2.68020093e-01,
          5.48750423e-02, -5.04152104e-02, 3.27409595e-01,
          6.50317594e-02, 6.07564300e-02, 1.20758727e-01,
          -4.81028035e-02, 5.48787694e-03, 2.99889088e-01,
          -1.00198545e-01, 4.18262333e-02, 3.02139491e-01,
          -1.64237216e-01, -6.48215339e-02, 3.44702721e-01,
          4.33300026e-02, 2.25111037e-01, 6.87852278e-02, 9.79319587e-02,
          -6.68052956e-02, 3.08766156e-01, 1.91582024e-01,
          5.63109033e-02, 1.19479768e-01, 1.00406609e-01,
          -1.25084534e-01, 1.70175686e-01, 7.68359751e-02,
          -2.00382307e-01, 1.20052975e-02, -2.99917608e-01,
          -1.42589852e-01, 1.89352185e-01, -1.40121117e-01,
          -8.59293267e-02, -8.00189599e-02, 2.37481609e-01,
          -4.03773189e-02, 8.90892074e-02, 1.18464552e-01,
          9.08979177e-02, 1.71654716e-01, -1.59586638e-01,
          -1.18680269e-01, 3.59102309e-01, -1.41934259e-02,
          1.44104317e-01, -1.80449132e-02, -5.89300506e-02,
          5.34006767e-02, 4.07335609e-02, -2.84325834e-02,
          -1.79573134e-01, -3.24310780e-01, 1.26880512e-01,
          -4.96189222e-02, -2.35090926e-01, 1.24373354e-01,
          -1.40696764e-01, -1.23774908e-01, 3.76091689e-01,
          2.10018963e-01, -1.93341106e-01, 1.22940220e-01,
          1.34248063e-01, -1.55857608e-01, -2.45391756e-01,
          -4.52141836e-03, -3.71434927e-01, -1.90441638e-01,
          -8.53341445e-02, 1.27830759e-01, 2.34314173e-01,
          2.70784408e-01, 1.76710129e-01, -7.02471212e-02,
          2.09014669e-01, 5.95395118e-02, -6.68003708e-02,
          -3.29048745e-02, -1.25853300e-01, 5.76716736e-02,
          -4.64498269e-04, -8.49885568e-02, -1.40866816e-01,
          -2.95314401e-01, 6.61029518e-02, 3.28707732e-02,
          1.66597605e-01, -2.80089170e-01, 2.32138231e-01,
          2.18800709e-01, -1.64622918e-01, 1.90380260e-01,
          -1.42418176e-01, -1.83960631e-01, 1.06240176e-02,
          -1.45350412e-01, -2.87750959e-01, -2.00058911e-02,
          2.42642276e-02, -1.17387667e-01, 1.02141850e-01,
          -1.19920924e-01, 1.87178329e-01, -1.62702814e-01,
          -7.81940203e-03, -1.77140638e-01, -1.71978414e-01,
          -2.03567535e-01, 3.10144946e-02, 9.34591144e-02,
          8.55965093e-02, -1.40123695e-01, -1.31572075e-02,
          1.53420806e-01, -2.12072097e-02, -7.40757510e-02,
          3.07587776e-02, -7.14533180e-02, 1.12544194e-01,
          6.04271702e-02, -4.23152968e-02, -1.52934715e-01,
          -7.54920095e-02, -1.56679735e-01, -4.17085290e-02,
          -2.17337683e-01, -9.05907378e-02, 1.43198192e-01,
          -1.60285875e-01, -1.68628618e-01, 4.83629331e-02,
          -1.58240139e-01, -7.38000358e-03, -1.38513772e-02,
          3.37497622e-01, -1.87985539e-01, 3.99983935e-02,
          9.85388085e-02, -3.95585708e-02, 1.85485825e-01,
          1.04928620e-01, -1.28066480e-01, 7.31918737e-02,
          -1.80706680e-01, -8.67983848e-02, 3.52733225e-01,
          -1.86816771e-02, -2.54904956e-01, 3.03540304e-02,
          -2.19595701e-01, -9.78999585e-02, -2.83472478e-01,
          2.67315321e-02, -4.45759147e-02, -1.42064989e-01,
          -3.04867029e-01, 4.81463484e-02, -2.94891655e-01,
          1.28139272e-01, -8.93029198e-02, 1.50257289e-01,
          -1.46585986e-01, 1.21790981e-02, 2.27464750e-01,
          -6.67262301e-02, 6.96214288e-02, 5.57571091e-02,
          1.81274470e-02, 1.24965660e-01, 8.30455124e-03,
          -2.60334074e-01, -2.54164655e-02, -3.37524951e-01,
          -6.93211928e-02, -1.34619042e-01, -3.72321248e-01,
          -3.59517276e-01, -9.87993181e-02, 6.95126727e-02,
          6.72547445e-02, -1.23994173e-02, -1.51706412e-01,
          -2.10948244e-01, -5.83882593e-02, -1.39854744e-01,
          1.19614892e-01, -9.46709663e-02, 5.83744273e-02,
          -3.89219552e-01, 1.09360702e-01, -9.97498333e-02,
          -8.73024464e-02, 8.10845494e-02, 4.02269326e-02 ]
   uncompressed_sv_total: 198
   uncompressed_support_vectors:
      - [ 0., 0., 3.08752041e-02, 3.55381340e-01, 3.55381340e-01,
          9.89311025e-04, 5.19589894e-03, 1.21301107e-01, 8.49157572e-02,
          3.52958202e-01, 3.55381340e-01, 6.92517683e-03, 0., 0.,
          3.41423154e-02, 3.55381340e-01, 3.55381340e-01, 1.17743816e-02,
          5.69075719e-02, 1.93677947e-01, 3.23739313e-02, 1.97900221e-01,
          3.55381340e-01, 9.42021459e-02, 1.70152895e-02, 3.40803474e-01,
          1.88063487e-01, 8.90546441e-02, 1.99836716e-01, 9.37013887e-03,
          8.23734999e-02, 3.40803474e-01, 1.96759909e-01, 1.32009417e-01,
          6.22661337e-02, 1.03141591e-01, 1.21919610e-01, 3.40803474e-01,
          5.39214052e-02, 2.69749053e-02, 2.42374644e-01, 6.48256093e-02,
          9.13187265e-02, 3.40803474e-01, 1.82820469e-01, 3.35206807e-01,
          3.19675714e-01, 1.82177410e-01, 2.75325477e-02, 3.68478857e-02,
          2.82940548e-02, 1.68086678e-01, 2.63714999e-01, 7.21489787e-02,
          3.60352686e-03, 0., 1.28841237e-03, 3.42954785e-01,
          3.98527443e-01, 9.83499512e-02, 1.31302383e-02, 3.45071144e-02,
          5.11776470e-02, 3.75382423e-01, 3.20641786e-01, 1.13571703e-01,
          6.43652445e-03, 0., 5.00052609e-03, 3.48586828e-01,
          3.98527443e-01, 2.50921100e-01, 0., 0., 0., 2.45224029e-01,
          3.70418817e-01, 3.91134173e-02, 3.10020428e-02, 1.44101679e-01,
          7.25863967e-04, 3.07974190e-01, 3.70418817e-01, 1.28192957e-02,
          1.83762307e-03, 0., 0., 1.12967983e-01, 3.70418817e-01,
          2.16045856e-01, 5.91071211e-02, 3.70418817e-01, 8.57424084e-03,
          1.51639938e-01, 3.70418817e-01, 2.14107051e-01, 2.26672113e-01,
          3.69371027e-01, 2.35520676e-03, 8.02166015e-02, 1.56879634e-01,
          1.94484857e-03, 3.69371027e-01, 3.69371027e-01, 1.27036115e-02,
          8.47384857e-04, 2.68894411e-03, 5.92284948e-02, 2.10648283e-01,
          3.69371027e-01, 3.55299786e-02, 4.60616909e-02, 1.56551957e-01,
          4.63305749e-02, 3.69371027e-01, 3.69371027e-01, 3.11540514e-02,
          0., 0., 1.27298236e-01, 3.35016102e-02, 1.55458888e-02,
          4.19789925e-02, 2.62097746e-01, 2.68412501e-01, 6.65841624e-02,
          1.64332420e-01, 1.11913882e-01, 2.11085565e-02, 1.15494810e-01,
          2.36087769e-01, 1.65668726e-01, 3.89485627e-01, 7.57293254e-02,
          1.76074672e-02, 6.55535161e-02, 2.74067491e-01, 3.89485627e-01,
          3.89485627e-01, 1.16187602e-01, 9.47096292e-03, 4.95698415e-02,
          5.48909530e-02, 3.89485627e-01, 1.69846550e-01, 2.31428951e-01,
          1.02311140e-03, 1.07052159e-02, 4.95976172e-02, 6.78601786e-02,
          2.84512520e-01, 2.13343546e-01, 1.40791722e-02, 5.12091741e-02,
          1.32376045e-01, 3.03034395e-01, 4.09942925e-01, 1.43410042e-01,
          0., 6.38587633e-03, 9.28902347e-03, 3.11144918e-01,
          4.09942925e-01, 2.13217869e-01, 1.02368664e-04, 1.68682495e-03,
          2.34815627e-02, 4.09942925e-01, 1.07472092e-01, 1.25319259e-02,
          7.12123327e-03, 7.47380033e-02, 9.91334617e-02, 3.44260126e-01,
          1.97405532e-01, 0., 1.35680824e-03, 7.30247274e-02,
          3.55625331e-01, 3.65015954e-01, 3.65015954e-01, 2.84365918e-02,
          1.83765078e-04, 4.06410638e-03, 2.94448249e-02, 3.65015954e-01,
          3.65015954e-01, 1.86703459e-04, 1.10259054e-04, 6.72333827e-03,
          1.09423369e-01, 3.65015954e-01, 1.33926868e-01, 0., 0.,
          1.91310793e-02, 3.11479777e-01, 3.24125975e-01, 1.36762336e-01,
          1.21558860e-01, 3.21828807e-03, 9.23578814e-03, 3.08651686e-01,
          3.24125975e-01, 3.24125975e-01, 0., 0., 4.81924834e-03,
          2.50517994e-01, 3.24125975e-01, 2.40931898e-01, 3.33825275e-02,
          2.99495121e-04, 1.75012499e-02, 3.24125975e-01, 3.24125975e-01,
          2.38957286e-01, 3.14904034e-01, 2.26404853e-02, 2.73956219e-03,
          9.75092724e-02, 2.57405847e-01, 2.76686221e-01, 3.14904034e-01,
          4.93394360e-02, 1.13366423e-02, 0., 5.14382310e-02,
          3.14904034e-01, 2.62628108e-01, 1.79825611e-02, 3.00782565e-02,
          2.99360305e-01, 3.14904034e-01, 2.76028305e-01, 3.14904034e-01,
          1.65869415e-01, 1.41946808e-01, 5.26932580e-03, 4.67008874e-02,
          2.19606325e-01, 1.85211718e-01, 3.74491401e-02, 2.68972013e-02,
          1.22454837e-01, 1.86074093e-01, 3.37561458e-01, 2.86378235e-01,
          7.77120516e-02, 7.05650588e-03, 1.03425412e-02, 2.64269114e-01,
          5.88472597e-02, 3.12935621e-01, 3.31976414e-01, 1.82209328e-01,
          1.85574040e-01, 2.63245255e-02, 2.36045882e-01, 3.37561458e-01,
          3.37561458e-01, 1.54176310e-01, 1.46480585e-02, 5.31873107e-02,
          3.68149847e-01, 8.19967762e-02, 4.19327281e-02, 1.68090183e-02,
          0., 2.52189100e-01, 3.68149847e-01, 8.35335627e-02,
          6.19914643e-02, 2.69655995e-02, 0., 2.11545900e-01,
          1.95976570e-01, 1.21079914e-01, 3.68149847e-01, 3.22015494e-01,
          0., 8.04165751e-02, 1.51460215e-01, 3.18265669e-02,
          3.68149847e-01, 3.68149847e-01, 0., 5.29709496e-02,
          3.47657681e-01, 3.37788053e-02, 4.79600392e-02, 2.09702663e-02,
          2.54453020e-03, 3.47657681e-01, 3.47657681e-01, 2.44075502e-03,
          2.97823884e-02, 1.50880357e-02, 2.76430249e-02, 3.47657681e-01,
          5.49902432e-02, 1.76094938e-02, 3.47657681e-01, 3.47657681e-01,
          0., 5.50627597e-02, 7.90123194e-02, 1.02176052e-02,
          3.47657681e-01, 3.47657681e-01, 4.18835282e-02, 9.67458263e-02,
          1.99683622e-01, 5.30180405e-04, 4.00108332e-03, 3.72103136e-03,
          3.74148399e-01, 2.33092412e-01, 8.82025659e-02, 4.17543156e-03,
          2.27413009e-04, 4.58894148e-02, 3.85616243e-01, 3.48580509e-01,
          2.35774871e-02, 4.22630552e-03, 1.81356758e-01, 1.69141427e-01,
          3.85616243e-01, 5.90211041e-02, 1.24508692e-02, 4.50581266e-03,
          2.47914102e-02, 2.68971831e-01, 3.85616243e-01, 2.13826165e-01,
          1.92195937e-01, 5.62206730e-02, 3.15910727e-02, 1.83434293e-01,
          3.41306716e-01, 3.14831525e-01, 1.14307925e-01, 1.94020301e-01,
          2.44086489e-01, 3.08612943e-01, 4.97544222e-02, 4.27396111e-02,
          4.30839732e-02, 2.78180707e-02, 1.34379873e-02, 3.41306716e-01,
          3.41306716e-01, 2.80955493e-01, 3.14169191e-02, 1.76491499e-01,
          2.04799414e-01, 1.99682117e-01, 1.38237044e-01, 2.20484376e-01,
          8.84271460e-04, 1.04600072e-01, 3.20350498e-01, 1.80092454e-01,
          2.38088816e-01, 1.16678663e-02, 4.78468224e-04, 1.64932653e-01,
          3.44511360e-01, 3.29460531e-01, 1.85742676e-02, 2.01898161e-03,
          1.47378573e-03, 2.62684673e-02, 1.53675288e-01, 3.31996083e-01,
          3.44511360e-01, 1.94464419e-02, 1.50945690e-02, 2.06353396e-01,
          3.44511360e-01, 3.44511360e-01, 7.18550533e-02, 2.56752246e-03,
          1.02853938e-03, 2.91278698e-02, 3.38512242e-01, 3.38512242e-01,
          3.96730797e-03, 2.83446256e-03, 6.17123616e-04, 5.34928730e-03,
          3.38512242e-01, 3.38512242e-01, 1.58913080e-02, 3.62699572e-03,
          1.19369691e-02, 1.70981199e-01, 3.38512242e-01, 2.30801359e-01,
          5.60143068e-02, 2.38059834e-02, 1.70528155e-03, 6.00708649e-02,
          3.38512242e-01, 3.38512242e-01, 3.16226631e-01, 5.79201989e-02,
          0., 4.69452236e-03, 3.28907728e-01, 3.28907728e-01,
          3.97828966e-03, 3.16662161e-04, 7.69352890e-04, 6.60307482e-02,
          3.28907728e-01, 3.28907728e-01, 5.74309984e-03, 7.69352890e-04,
          3.46851721e-02, 4.24233824e-02, 3.20247322e-01, 3.28907728e-01,
          1.17653146e-01, 1.93416700e-02, 8.27314407e-02, 3.28907728e-01,
          3.28907728e-01, 3.28907728e-01, 1.32826744e-02, 6.38671452e-03,
          7.10565597e-04, 4.51393276e-02, 3.26317817e-01, 3.26317817e-01,
          2.47823685e-01, 9.48621798e-03, 7.90864136e-03, 2.01245155e-02,
          6.37352765e-02, 3.26317817e-01, 3.26317817e-01, 7.50621706e-02,
          1.73664987e-02, 1.73419267e-01, 3.05076241e-01, 3.26317817e-01,
          2.14226723e-01, 4.12484864e-03, 1.66265331e-02, 3.14630009e-02,
          6.58553913e-02, 3.26317817e-01, 3.26317817e-01, 5.18351011e-02,
          6.34310842e-02, 1.11089654e-01, 1.55299082e-02, 3.31997305e-01,
          3.31997305e-01, 2.21447438e-01, 6.72150627e-02, 1.45248309e-01,
          8.70069936e-02, 7.46441334e-02, 2.33686224e-01, 3.31997305e-01,
          6.58247024e-02, 1.21854074e-01, 1.17813386e-01, 3.31997305e-01,
          3.31997305e-01, 1.37553439e-01, 4.23870012e-02, 7.99506679e-02,
          1.47145510e-01, 2.76741832e-01, 3.31997305e-01, 1.33902594e-01,
          2.07214849e-04, 2.40651239e-02, 5.95097505e-02, 2.74202019e-01,
          3.57604414e-01, 2.73417728e-03, 1.56818088e-02, 3.04340869e-01,
          3.57604414e-01, 2.69146711e-01, 1.32563293e-01, 3.60994629e-04,
          0., 1.80021841e-02, 4.00721096e-02, 1.11193769e-01,
          3.57604414e-01, 0., 2.24025873e-03, 2.46620059e-01,
          3.57604414e-01, 1.40374735e-01, 3.57604414e-01, 0.,
          1.91041790e-02, 3.01363051e-01, 3.01363051e-01, 1.42411530e-01,
          7.88464025e-02, 2.51743272e-02, 3.30323055e-02, 1.00535452e-01,
          1.47994012e-01, 2.98671961e-01, 3.01363051e-01, 1.13871917e-01,
          1.37869725e-02, 3.01363051e-01, 3.01363051e-01, 1.26224950e-01,
          5.90728037e-02, 5.43588446e-03, 2.78432727e-01, 3.01363051e-01,
          2.38548234e-01, 1.70247525e-01, 2.57605612e-01, 1.99711651e-01,
          2.12800846e-01, 1.46122545e-01, 9.48842913e-02, 2.32985571e-01,
          2.90341854e-01, 1.00788832e-01, 2.90341854e-01, 2.90341854e-01,
          2.66947001e-01, 1.83436096e-01, 5.55047095e-02, 3.25469896e-02,
          2.90341854e-01, 1.91351756e-01, 1.87340192e-02, 4.17562574e-02,
          2.30306596e-01, 2.90341854e-01, 2.90341854e-01, 2.67943829e-01,
          9.00225565e-02, 5.59892207e-02, 1.32760063e-01, 2.23091707e-01,
          5.77707291e-02, 1.96695581e-01, 1.35309085e-01, 2.75004148e-01,
          3.55523258e-01, 2.88190097e-02, 1.36214774e-02, 2.09722407e-02,
          3.18972580e-02, 3.28234255e-01, 3.78721267e-01, 1.12468436e-01,
          9.13756266e-02, 8.79521444e-02, 4.23908047e-02, 5.42131029e-02,
          3.78721267e-01, 1.10731654e-01, 2.92535387e-02, 1.87847819e-02,
          3.00473324e-03, 5.45664802e-02, 3.78721267e-01, 3.78721267e-01,
          5.50516434e-02, 5.15123159e-02, 8.26119110e-02, 2.80338407e-01,
          3.45059842e-01, 1.11260369e-01, 6.84307963e-02, 3.77932303e-02,
          1.08625099e-01, 2.62288421e-01, 3.44393909e-01, 8.39464739e-02,
          1.54369429e-01, 8.98592919e-02, 3.69386538e-03, 8.49848986e-02,
          3.45059842e-01, 3.45059842e-01, 3.45059842e-01, 8.64819363e-02,
          7.15579418e-03, 4.06954587e-02, 1.92500666e-01, 3.45059842e-01 ]
      - [ 4.71496861e-03, 1.19329534e-01, 1.31154343e-01, 1.01626769e-01,
          4.92196642e-02, 4.71496861e-03, 3.30047794e-02, 5.38705699e-02,
          1.53685017e-02, 1.94238931e-01, 4.28016007e-01, 8.11346620e-02,
          0., 4.28016007e-01, 1.79776862e-01, 1.73545986e-01,
          2.08295718e-01, 0., 0., 2.31387287e-01, 9.23855379e-02,
          4.28016007e-01, 4.28016007e-01, 4.75224033e-02, 6.24782080e-03,
          1.02101602e-02, 1.78116709e-02, 1.44487590e-01, 1.99117050e-01,
          2.34963149e-02, 1.06012765e-02, 4.55890819e-02, 4.87201363e-02,
          2.66859025e-01, 4.50562567e-01, 2.68042320e-03, 3.53701264e-02,
          5.38383611e-02, 2.23863497e-02, 2.53243506e-01, 3.66920501e-01,
          5.98291345e-02, 1.15490362e-01, 1.51698083e-01, 5.70221767e-02,
          4.50562567e-01, 4.50562567e-01, 5.06197661e-02, 3.20822634e-02,
          1.10103518e-01, 1.50065012e-02, 1.28575623e-01, 3.58121395e-01,
          2.16441415e-02, 1.44982681e-01, 3.58121395e-01, 3.51281948e-02,
          8.36808980e-02, 2.56144077e-01, 4.08160537e-02, 5.43109253e-02,
          3.18825066e-01, 6.00269586e-02, 2.33347714e-01, 3.58121395e-01,
          6.38109678e-03, 1.91046312e-01, 3.58121395e-01, 1.16217926e-01,
          1.24619804e-01, 3.58121395e-01, 5.31157479e-03, 1.97712436e-01,
          4.62344944e-01, 1.09282680e-01, 5.98595291e-02, 1.45734012e-01,
          7.28234127e-02, 0., 5.94402477e-02, 9.82369035e-02,
          9.13756192e-02, 2.17428595e-01, 3.16921286e-02, 2.55908966e-01,
          4.62344944e-01, 1.55941784e-01, 7.95980915e-02, 2.84206003e-01,
          8.63651000e-03, 0., 1.64121259e-02, 9.70226005e-02,
          1.95126757e-01, 4.38311934e-01, 4.52744681e-03, 0.,
          3.53572145e-02, 2.14552686e-01, 2.14552686e-01, 1.20619632e-01,
          0., 0., 1.65304244e-01, 1.50879532e-01, 1.50879532e-01,
          3.11590894e-03, 0., 0., 2.97949672e-01, 3.06031913e-01,
          3.88401419e-01, 4.42284495e-01, 0., 0., 4.42284495e-01,
          2.10928857e-01, 2.10928857e-01, 3.68020758e-02, 0., 0.,
          3.73290002e-01, 5.07541783e-02, 1.24905482e-01, 2.43236139e-01,
          0., 0., 1.25856489e-01, 1.10225834e-01, 3.72229636e-01,
          3.73290002e-01, 6.65956065e-02, 6.78783236e-03, 3.73290002e-01,
          9.28123575e-03, 4.94519062e-02, 3.73290002e-01, 2.30748709e-02,
          1.03162125e-01, 7.79915377e-02, 4.32964191e-02, 1.23774298e-01,
          3.73290002e-01, 1.19134128e-01, 3.01984437e-02, 2.43743174e-02,
          1.73248816e-02, 8.75604153e-02, 2.34007820e-01, 1.05371445e-01,
          7.22404644e-02, 5.40703051e-02, 3.14192548e-02, 2.77566254e-01,
          5.05362511e-01, 1.64837137e-01, 3.53395492e-02, 3.75800044e-03,
          1.19844414e-02, 5.64387925e-02, 2.47276857e-01, 8.46998841e-02,
          5.62229753e-02, 1.22442069e-02, 4.21607345e-02, 2.69746155e-01,
          5.05362511e-01, 3.80430490e-01, 1.25320166e-01, 2.77741611e-01,
          3.52457985e-02, 1.10420279e-01, 3.34453285e-01, 4.63905707e-02,
          2.22219050e-01, 3.34453285e-01, 9.09700170e-02, 3.74423079e-02,
          2.97690809e-01, 1.90162454e-02, 2.66445249e-01, 2.04713985e-01,
          1.34533783e-02, 7.04239532e-02, 3.34453285e-01, 1.81587443e-01,
          3.34453285e-01, 3.34453285e-01, 4.52538580e-02, 9.66145750e-03,
          1.48810536e-01, 7.47623146e-02, 1.74012288e-01, 4.16120619e-01,
          1.20236620e-01, 3.64351496e-02, 3.07665527e-01, 1.20011624e-02,
          1.30568109e-02, 1.67113298e-03, 1.62808970e-02, 2.03624040e-01,
          3.94656837e-01, 9.20472890e-02, 2.31884107e-01, 4.16120619e-01,
          7.54704177e-02, 1.00584859e-02, 1.61822021e-01, 3.45506370e-02,
          5.98995052e-02, 4.31523472e-02, 0., 7.04094023e-02,
          3.66182059e-01, 2.66630381e-01, 9.66011658e-02, 2.17382222e-01,
          3.85507345e-02, 1.28380939e-01, 2.12856621e-01, 7.44609907e-02,
          1.66088581e-01, 4.03465122e-01, 2.49636881e-02, 2.49636881e-02,
          1.70135703e-02, 6.20524213e-02, 3.37095618e-01, 3.40987265e-01,
          6.54003117e-03, 3.37609947e-02, 1.40615582e-01, 2.18144894e-01,
          4.03465122e-01, 4.03465122e-01, 4.57802154e-02, 3.14642601e-02,
          8.96354020e-02, 1.99172825e-01, 4.14907485e-02, 3.51242125e-01,
          0., 0., 2.56175578e-01, 8.28043446e-02, 2.67012149e-01,
          1.22140408e-01, 0., 5.91149321e-03, 3.75197232e-01,
          2.44038954e-01, 5.07854149e-02, 3.75197232e-01, 2.98530725e-03,
          2.98530725e-03, 2.11562887e-01, 7.55735636e-02, 2.17573062e-01,
          2.63502121e-01, 2.08971500e-02, 1.19158290e-01, 3.75197232e-01,
          2.14662731e-01, 6.06308430e-02, 6.42358419e-03, 1.81802083e-03,
          2.83853710e-02, 2.64419913e-01, 7.95373619e-02, 4.84931804e-02,
          3.09791360e-02, 7.42722377e-02, 2.29636982e-01, 4.45161909e-01,
          2.11532712e-01, 3.74636650e-02, 1.26830954e-02, 3.34406202e-03,
          1.43523946e-01, 4.45161909e-01, 7.09620565e-02, 8.03666096e-03,
          7.49042854e-02, 1.98592022e-01, 3.37307930e-01, 4.45161909e-01,
          1.66935727e-01, 1.97043970e-01, 2.26026565e-01, 1.06149010e-01,
          1.35261014e-01, 3.32376659e-01, 1.54448628e-01, 2.47936025e-01,
          3.32376659e-01, 6.48763552e-02, 3.01882755e-02, 6.04251996e-02,
          6.78941756e-02, 4.11897972e-02, 3.32376659e-01, 3.32376659e-01,
          1.60958737e-01, 3.32376659e-01, 5.54335341e-02, 1.11514412e-01,
          3.32376659e-01, 2.28811473e-01, 4.73036021e-02, 1.33085310e-01,
          1.52273308e-02, 1.42761856e-01, 2.92346537e-01, 7.88301881e-03,
          0., 6.73125088e-02, 3.22342850e-02, 1.25972465e-01,
          8.20722282e-02, 0., 0., 3.38307053e-01, 2.08347321e-01,
          3.81006479e-01, 3.81006479e-01, 1.46973878e-02, 0.,
          1.68120548e-01, 1.94562182e-01, 2.96894014e-01, 5.61728179e-02,
          0., 0., 3.81006479e-01, 3.33338529e-01, 2.42515296e-01,
          4.07541126e-01, 3.32128294e-02, 8.05988163e-03, 1.37010008e-01,
          1.70766100e-01, 4.07541126e-01, 4.07541126e-01, 2.71266133e-01,
          2.16206968e-01, 1.50058299e-01, 9.18536633e-02, 1.15030423e-01,
          1.53039500e-01, 2.85249036e-02, 1.34331360e-02, 1.39103264e-01,
          1.30130664e-01, 3.83233167e-02, 1.94762632e-01, 2.64301479e-01,
          2.31266022e-01, 3.98610868e-02, 1.41210156e-02, 4.89330478e-03,
          3.40460479e-01, 7.66812414e-02, 7.03978390e-02, 1.46461666e-01,
          4.89330478e-03, 1.40875336e-02, 1.57932967e-01, 1.26670122e-01,
          3.35920364e-01, 3.40460479e-01, 5.97499646e-02, 0.,
          2.32362375e-01, 2.35069558e-01, 2.24597245e-01, 2.93874353e-01,
          0., 0., 2.03219965e-01, 3.07375163e-01, 3.40460479e-01,
          2.73484319e-01, 4.79254909e-02, 8.08593445e-03, 1.94689445e-02,
          1.76189188e-02, 1.14090897e-01, 2.64151096e-01, 6.82186410e-02,
          7.16492534e-02, 8.35247934e-02, 7.41425455e-02, 2.46308938e-01,
          5.09783685e-01, 1.43699154e-01, 1.10306023e-02, 3.12976651e-02,
          3.76625918e-02, 8.09364468e-02, 2.63072759e-01, 6.66472912e-02,
          1.87575147e-01, 1.87439442e-01, 2.45740227e-02, 3.57260883e-01,
          5.09783685e-01, 8.21426958e-02, 1.10964999e-01, 3.50448787e-01,
          1.24452963e-01, 1.16464376e-01, 3.50448787e-01, 3.25756334e-02,
          1.48302257e-01, 3.50448787e-01, 8.77695978e-02, 2.30365116e-02,
          7.59570822e-02, 1.13173565e-02, 2.86412537e-01, 3.50448787e-01,
          2.78249439e-02, 1.91971079e-01, 3.50448787e-01, 1.14082126e-02,
          2.30862185e-01, 3.50448787e-01, 3.33136246e-02, 2.80034635e-02,
          7.68522844e-02, 1.31680146e-02, 3.44610631e-01, 3.72967005e-01,
          1.35276727e-02, 5.03119640e-02, 1.67752460e-01, 1.03192657e-01,
          1.12468228e-01, 2.37258133e-02, 0., 8.38532671e-02,
          3.72967005e-01, 1.32928327e-01, 1.42850742e-01, 3.72967005e-01,
          1.79061703e-02, 1.44845158e-01, 3.72967005e-01, 3.09925694e-02,
          2.94923373e-02, 5.14949951e-03, 0., 2.41408601e-01,
          3.72967005e-01, 2.71304268e-02, 5.04514463e-02, 0.,
          6.83051907e-03, 7.05907792e-02, 7.18853235e-01, 1.20176636e-01,
          4.69454192e-03, 0., 8.06754231e-02, 8.06754231e-02, 0.,
          4.69454192e-03, 7.88313448e-02, 0., 0., 1.83562011e-01,
          6.25400722e-01, 8.87920931e-02, 1.12616215e-02, 0., 0., 0., 0.,
          1.12616215e-02, 1.90762598e-02, 6.02651946e-02, 1.00100808e-01,
          1.01990432e-01, 3.53334755e-01, 1.90762598e-02, 3.82362157e-02,
          3.17478567e-01, 1.68863952e-01, 2.02489257e-01, 2.18854964e-01,
          5.86344376e-02, 3.17937694e-02, 3.08787357e-02, 1.11521363e-01,
          2.20291287e-01, 3.53334755e-01, 3.17937694e-02, 9.80867669e-02,
          3.53334755e-01, 3.35625321e-01, 3.53334755e-01, 2.34487936e-01,
          8.94908905e-02, 1.49346404e-02, 4.08961140e-02, 2.95899902e-02,
          3.92344557e-02, 2.10596085e-01, 3.68618667e-02, 1.31020218e-01,
          1.98752373e-01, 1.72264688e-02, 2.23514110e-01, 4.55357611e-01,
          1.01606399e-01, 5.33854924e-02, 1.32214993e-01, 9.20213312e-02,
          7.78031275e-02, 3.20340872e-01, 7.08932430e-02, 2.41913691e-01,
          3.02285969e-01, 2.65215822e-02, 2.52265096e-01, 4.55357611e-01,
          2.38214612e-01, 2.68094093e-01, 3.44601274e-01, 2.18430478e-02,
          1.34408280e-01, 3.44601274e-01, 5.69568016e-02, 1.89083487e-01,
          3.44601274e-01, 3.45256291e-02, 2.28347387e-02, 6.06087074e-02,
          1.01381447e-02, 2.98462272e-01, 3.44601274e-01, 3.74186002e-02,
          8.62520784e-02, 3.44601274e-01, 1.33568764e-01, 1.49542943e-01,
          3.44601274e-01, 6.75973743e-02, 1.82138421e-02, 7.61536434e-02,
          1.81605089e-02, 4.68242094e-02, 2.29171097e-01, 2.19617430e-02,
          9.25551429e-02, 3.26549739e-01, 3.76279466e-02, 1.97326243e-01,
          3.65937166e-02, 4.26069507e-03, 9.20498222e-02, 3.31168830e-01,
          1.69876695e-01, 1.17590621e-01, 3.04131329e-01, 7.70208687e-02,
          1.35074019e-01, 3.22274029e-01, 5.80393486e-02, 3.31168830e-01,
          3.31168830e-01, 2.98248641e-02, 1.05931856e-01, 2.65743434e-01,
          3.12689722e-01, 1.97039396e-01, 1.64804365e-02, 0.,
          1.04828896e-02, 7.74921626e-02, 2.48207211e-01, 1.15577370e-01,
          0., 0., 0., 4.49749045e-02, 1.69570059e-01, 3.69346470e-01,
          1.37454048e-01, 9.27587319e-03, 1.68021530e-01, 3.69346470e-01,
          3.69346470e-01, 2.11543307e-01, 1.23376936e-01, 6.49311095e-02,
          2.31544286e-01, 3.69346470e-01, 3.66984993e-01 ]
      - [ 1.47189125e-01, 4.10716981e-01, 5.57723409e-03, 7.14874477e-04,
          3.31514806e-01, 4.91682924e-02, 4.85488288e-02, 4.10716981e-01,
          2.53003892e-02, 3.28365527e-03, 4.44008633e-02, 1.31505206e-02,
          1.58725098e-01, 4.10716981e-01, 3.67995352e-03, 2.10987229e-04,
          3.56093436e-01, 1.33222342e-01, 1.03496499e-01, 4.10716981e-01,
          2.05387175e-02, 3.30439536e-03, 1.37477592e-02, 2.97315754e-02,
          4.83015776e-02, 3.11558425e-01, 5.78925833e-02, 1.65204741e-02,
          3.11558425e-01, 2.09564254e-01, 2.06737101e-01, 3.11558425e-01,
          0., 1.89077458e-03, 1.36604145e-01, 1.69434488e-01,
          2.39743873e-01, 3.11558425e-01, 4.91480343e-02, 2.21495684e-02,
          1.32877499e-01, 3.11558425e-01, 3.11558425e-01, 3.11558425e-01,
          0., 3.15129082e-03, 4.79666553e-02, 3.11558425e-01,
          2.93753535e-01, 3.47616524e-01, 0., 0., 2.87933712e-04,
          1.76976249e-02, 3.47616524e-01, 3.47616524e-01, 4.42121876e-03,
          2.16690544e-03, 4.22563702e-02, 3.64830121e-02, 3.47616524e-01,
          3.47616524e-01, 1.09122107e-02, 2.29971134e-03, 2.35610385e-03,
          5.11763655e-02, 3.47616524e-01, 3.47616524e-01, 2.14240141e-02,
          3.15227881e-02, 2.25126877e-01, 7.76994601e-02, 1.96366876e-01,
          1.26275510e-01, 1.48066292e-02, 9.67727080e-02, 2.32830614e-01,
          4.47756425e-02, 1.05375675e-02, 2.18096953e-02, 8.88397824e-03,
          3.51202965e-01, 4.16173428e-01, 1.15852552e-02, 1.47242218e-01,
          4.04903740e-02, 5.65806730e-03, 1.55742124e-01, 4.16173428e-01,
          9.98851061e-02, 2.15112837e-03, 3.02103319e-04, 6.22024410e-04,
          4.16173428e-01, 4.16173428e-01, 3.16847265e-02, 0., 0., 0.,
          3.65058810e-01, 3.81109178e-01, 8.16452608e-04, 8.30374472e-03,
          1.40174502e-03, 3.29159535e-02, 3.08867276e-01, 3.81109178e-01,
          9.81010683e-03, 0., 0., 7.58400012e-04, 3.81109178e-01,
          3.81109178e-01, 5.71516762e-03, 6.46248087e-02, 1.91344116e-02,
          1.82462689e-02, 1.79244474e-01, 3.81109178e-01, 5.49206734e-02,
          2.08455294e-01, 3.53898972e-01, 1.00458669e-03, 5.32750739e-04,
          2.84308314e-01, 2.54644245e-01, 1.67134166e-01, 3.53898972e-01,
          5.49639715e-03, 6.94702799e-03, 6.96095405e-03, 5.32973744e-02,
          2.34581068e-01, 3.53898972e-01, 2.14356314e-02, 8.93925596e-03,
          2.23037362e-01, 3.53898972e-01, 1.56431645e-01, 3.53898972e-01,
          8.01786482e-02, 1.01438425e-01, 1.43045904e-02, 5.91905415e-02,
          2.84196049e-01, 3.07332695e-01, 1.98371764e-02, 2.76526902e-02,
          3.90934497e-02, 2.65642434e-01, 3.07332695e-01, 2.27813914e-01,
          4.00722176e-02, 1.14094624e-02, 7.31719378e-03, 2.34109789e-01,
          1.24690123e-01, 3.07332695e-01, 3.07332695e-01, 3.07332695e-01,
          7.29587004e-02, 8.42164606e-02, 1.85084537e-01, 8.93508121e-02,
          3.07332695e-01, 3.07332695e-01, 1.03952736e-02, 5.41178398e-02,
          3.45106483e-01, 3.63874286e-01, 1.19283475e-01, 2.28057429e-02,
          2.18843948e-03, 3.08283679e-02, 1.50219843e-01, 2.10591480e-01,
          1.70678377e-01, 7.96197280e-02, 1.79999784e-01, 3.35640088e-02,
          9.01954025e-02, 1.12490617e-01, 3.69305104e-01, 3.69305104e-01,
          3.12634220e-04, 7.37331109e-03, 3.28469314e-02, 1.21936813e-01,
          3.69305104e-01, 3.69305104e-01, 1.00271165e-01, 2.83064991e-02,
          2.37491820e-02, 1.76691040e-02, 3.02930474e-02, 7.67705366e-02,
          3.94588113e-01, 6.28320575e-02, 9.36153228e-04, 3.84675572e-04,
          0., 2.14800015e-01, 3.94588113e-01, 6.07318506e-02,
          2.13280395e-02, 4.31347601e-02, 3.94588113e-01, 2.77654916e-01,
          3.94588113e-01, 7.91825205e-02, 2.84929145e-02, 2.69272900e-03,
          3.81891690e-02, 2.28141919e-01, 3.94588113e-01, 1.26851857e-01,
          7.32209533e-04, 0., 2.86162295e-03, 3.43938977e-01,
          3.78260314e-01, 8.62761363e-02, 4.98201773e-02, 2.96074376e-02,
          7.27087930e-02, 1.83138326e-01, 3.07834715e-01, 7.70138502e-02,
          9.55501795e-02, 0., 1.71697407e-03, 1.07247084e-01,
          3.78260314e-01, 3.41228873e-01, 1.00149602e-01, 5.50842136e-02,
          5.74268401e-02, 1.51920512e-01, 3.78260314e-01, 3.49055946e-01,
          2.91368425e-01, 2.91368425e-01, 5.79417273e-02, 2.16652285e-02,
          2.78383404e-01, 2.91368425e-01, 2.04962090e-01, 2.91368425e-01,
          1.87906459e-01, 2.25864381e-01, 2.98296604e-02, 1.74363211e-01,
          2.90925205e-01, 1.04242213e-01, 1.69423446e-02, 8.94458499e-03,
          2.25294828e-01, 2.91368425e-01, 2.64379948e-01, 1.35604829e-01,
          4.41432446e-02, 7.48958960e-02, 6.55272231e-02, 2.91368425e-01,
          2.02638581e-02, 7.41565675e-02, 3.16466779e-01, 3.16466779e-01,
          7.51676708e-02, 1.29574507e-01, 3.80703397e-02, 6.57315645e-03,
          3.16466779e-01, 3.16466779e-01, 1.14971958e-01, 1.09875485e-01,
          9.83891934e-02, 2.27114968e-02, 9.27376524e-02, 1.39295727e-01,
          1.47629082e-01, 3.16466779e-01, 3.16466779e-01, 6.29647681e-03,
          2.73683041e-01, 2.56893784e-01, 1.99287146e-01, 3.16466779e-01,
          3.10067628e-02, 6.26814645e-03, 3.17609996e-01, 3.07376325e-01,
          3.27959247e-02, 5.00254035e-02, 5.63259423e-02, 6.32231161e-02,
          3.17609996e-01, 2.58593738e-01, 1.26918163e-02, 4.20971364e-02,
          3.17609996e-01, 1.88346151e-02, 2.34153479e-01, 1.51653707e-01,
          5.46598807e-02, 3.17609996e-01, 3.17609996e-01, 1.32879302e-01,
          3.17609996e-01, 1.29571617e-01, 6.78429753e-03, 3.17609996e-01,
          6.44014254e-02, 1.46122590e-01, 2.95314252e-01, 2.95314252e-01,
          1.77783474e-01, 2.55603231e-02, 1.39902323e-01, 6.99369237e-02,
          9.55039114e-02, 2.20523059e-01, 2.95314252e-01, 6.98157474e-02,
          2.95314252e-01, 2.95314252e-01, 2.95314252e-01, 1.27125531e-01,
          2.82167364e-02, 2.95314252e-01, 2.95314252e-01, 2.79252052e-01,
          8.68715197e-02, 1.22392476e-01, 9.51034874e-02, 1.67349175e-01,
          2.53836632e-01, 7.47054210e-03, 0., 5.18540144e-02,
          2.96437293e-01, 2.96437293e-01, 1.73232988e-01, 1.64835434e-02,
          2.04343605e-03, 2.09109224e-02, 2.96437293e-01, 2.96437293e-01,
          2.96437293e-01, 6.88536912e-02, 0., 2.22169191e-01,
          2.96437293e-01, 2.96437293e-01, 1.64465457e-01, 9.36331809e-04,
          1.28212636e-02, 1.64157107e-01, 2.96437293e-01, 2.96437293e-01,
          2.95873463e-01, 5.19418009e-02, 4.11788095e-03, 3.90841700e-02,
          3.19448441e-01, 3.19448441e-01, 2.57403791e-01, 8.65696669e-02,
          2.60342676e-02, 1.65840968e-01, 2.96697080e-01, 3.19448441e-01,
          1.97474752e-02, 4.75313049e-03, 3.96052003e-03, 2.46757373e-01,
          3.19448441e-01, 1.84559315e-01, 8.46253149e-03, 7.92188384e-03,
          1.95707176e-02, 3.19448441e-01, 3.19448441e-01, 8.29603076e-02,
          1.16394043e-01, 1.36592789e-02, 6.39997050e-02, 1.34370610e-01,
          2.65177786e-01, 3.19616407e-01, 3.19616407e-01, 1.06510773e-01,
          2.88747251e-01, 8.75998437e-02, 1.46693885e-01, 3.19616407e-01,
          1.34145236e-02, 1.46869458e-02, 5.93181923e-02, 3.19616407e-01,
          3.19616407e-01, 4.12262306e-02, 1.43905714e-01, 3.19616407e-01,
          2.74136245e-01, 1.32097214e-01, 1.79482222e-01, 5.12285493e-02,
          3.40642899e-01, 1.90051869e-01, 1.49127141e-01, 1.51008116e-02,
          1.67817045e-02, 3.40642899e-01, 3.40642899e-01, 2.86139727e-01,
          1.49951741e-01, 4.42284625e-03, 5.81971975e-03, 3.40642899e-01,
          1.27578154e-01, 3.40642899e-01, 1.47027433e-01, 6.14228752e-03,
          4.39800741e-03, 3.36782336e-02, 1.51344702e-01, 3.40642899e-01,
          2.25103736e-01, 0., 2.57530808e-03, 1.56267896e-01,
          3.38101000e-01, 2.01926246e-01, 7.51545131e-02, 0.,
          5.01986668e-02, 3.38101000e-01, 2.06749424e-01, 1.54750943e-01,
          1.19559849e-02, 1.36498526e-01, 2.71840692e-01, 3.38101000e-01,
          7.77770206e-02, 2.11783245e-01, 1.32872239e-01, 1.15509657e-02,
          2.07358792e-01, 3.28638136e-01, 3.27317901e-02, 3.35288569e-02,
          1.99009720e-02, 1.31387934e-01, 3.38101000e-01, 3.02523047e-01,
          1.02821670e-01, 6.14545196e-02, 0., 3.81893367e-01,
          3.81893367e-01, 1.27804816e-01, 6.76991120e-02, 1.19723864e-02,
          1.80865657e-02, 3.16979080e-01, 3.81893367e-01, 1.09786987e-01,
          1.26475319e-02, 6.86958013e-03, 3.53470235e-03, 3.71206075e-01,
          3.81893367e-01, 1.05915181e-01, 9.12585780e-02, 8.02748203e-02,
          8.47496558e-03, 1.72457159e-01, 2.61820734e-01, 4.67076637e-02,
          4.36089205e-04, 0., 5.00765909e-03, 2.46362761e-01,
          3.98751974e-01, 2.04488412e-02, 0., 0., 1.17445812e-02,
          3.98751974e-01, 3.98751974e-01, 2.89114267e-02, 0., 0.,
          6.26138784e-03, 1.02876090e-01, 3.98751974e-01, 1.08891562e-01,
          0., 0., 7.04674888e-03, 1.89313158e-01, 3.98751974e-01,
          2.83759743e-01, 2.71820743e-03, 1.85301229e-02, 7.56555647e-02,
          3.24943393e-01, 2.87807912e-01, 1.67826526e-02, 5.22117317e-02,
          3.24943393e-01, 3.24943393e-01, 1.91088334e-01, 1.09276146e-01,
          3.09118093e-03, 7.35976361e-03, 7.93191232e-03, 6.49883300e-02,
          2.39941418e-01, 3.24943393e-01, 2.22265840e-01, 1.11786328e-01,
          3.24943393e-01, 3.24943393e-01, 1.90848514e-01, 2.10250631e-01,
          1.35659188e-01, 4.43117283e-02, 3.55530202e-01, 3.23013812e-01,
          1.08444430e-02, 2.29741912e-03, 0., 2.09151693e-02,
          3.55530202e-01, 3.55530202e-01, 3.09136300e-03, 0.,
          3.73021071e-03, 5.97976111e-02, 3.55530202e-01, 3.55530202e-01,
          2.12672297e-02, 5.07975509e-03, 2.14966889e-02, 1.40934931e-02,
          3.55530202e-01, 3.55530202e-01, 5.86245116e-03, 0.,
          1.26385037e-03, 6.00505387e-04, 2.36432150e-01, 1.97277546e-01,
          3.93576138e-02, 2.33496994e-01, 2.59203240e-02, 3.60303209e-04,
          3.79577354e-02, 4.15470824e-02, 1.35590121e-01, 4.25016642e-01,
          4.86321859e-02, 0., 3.78247917e-01, 3.33853632e-01,
          1.12308271e-01, 2.53346115e-01, 0., 0., 5.70464693e-02,
          8.06789994e-02, 3.43371749e-01, 4.25016642e-01, 1.94162200e-03,
          8.84925853e-03, 2.01531462e-02, 2.04496235e-02, 1.86987698e-01,
          4.35296685e-01, 3.70005071e-02, 8.63290578e-02, 1.31384969e-01,
          8.51217583e-02, 1.07712768e-01, 1.34083867e-01, 4.28597555e-02,
          4.04739240e-03, 3.53278331e-02, 7.42331222e-02, 4.12130475e-01,
          4.35296685e-01, 4.03495599e-03, 3.97815071e-02, 1.64474458e-01,
          4.35296685e-01, 3.04907113e-01, 1.67706996e-01, 1.47308214e-02 ]
      - [ 2.10552707e-01, 9.09760147e-02, 9.78221744e-02, 1.59087107e-01,
          1.50312260e-01, 3.04592073e-01, 3.04592073e-01, 3.04592073e-01,
          2.67547905e-01, 7.85478503e-02, 6.25888631e-02, 1.56455606e-01,
          3.04592073e-01, 2.62296367e-02, 5.92294969e-02, 1.73938632e-01,
          1.13689445e-01, 3.04592073e-01, 3.04592073e-01, 1.48607314e-01,
          1.24515973e-01, 2.05738530e-01, 6.32542372e-02, 3.04592073e-01,
          1.23380445e-01, 2.40246624e-01, 1.29164621e-01, 1.32696435e-01,
          2.12229386e-01, 1.05818361e-01, 1.54224448e-02, 1.03810895e-02,
          1.14501724e-02, 2.82969445e-01, 3.10796529e-01, 2.24796474e-01,
          2.35189259e-01, 9.40284207e-02, 6.77397698e-02, 3.10796529e-01,
          2.47386530e-01, 2.57846564e-01, 8.25212523e-02, 5.19846845e-03,
          1.26895905e-01, 3.10796529e-01, 3.10796529e-01, 3.10796529e-01,
          5.08223251e-02, 8.66727978e-02, 7.15474710e-02, 9.44722369e-02,
          2.97011524e-01, 2.10187003e-01, 1.38340831e-01, 2.97011524e-01,
          2.97011524e-01, 9.05921310e-03, 1.01770855e-01, 1.49538085e-01,
          1.60531893e-01, 1.76107250e-02, 1.14436038e-01, 1.60536781e-01,
          1.72641605e-01, 2.97011524e-01, 2.97011524e-01, 2.97011524e-01,
          2.65463859e-01, 2.97011524e-01, 7.63136372e-02, 2.97011524e-01,
          1.29431412e-01, 3.41196984e-01, 2.28221133e-01, 1.24672102e-03,
          2.40124967e-02, 8.23373646e-02, 1.86519995e-01, 1.70843542e-01,
          9.82672200e-02, 2.07786844e-03, 1.23396762e-01, 3.41196984e-01,
          1.11390591e-01, 3.41196984e-01, 3.41196984e-01, 1.81185693e-01,
          1.25923315e-02, 7.97688216e-02, 1.29551753e-01, 3.41196984e-01,
          3.41196984e-01, 4.08702940e-02, 0., 2.50653505e-01,
          1.38030887e-01, 2.60558240e-02, 1.41841564e-02, 1.93048749e-04,
          4.57097739e-02, 3.40715289e-01, 2.89702088e-01, 7.92795047e-03,
          1.11540798e-02, 1.80988805e-03, 6.14058301e-02, 3.40715289e-01,
          1.99953482e-01, 2.07164258e-01, 2.61563063e-01, 9.35546309e-03,
          0., 3.40715289e-01, 3.40715289e-01, 6.26388192e-02,
          1.82587340e-01, 3.87396663e-02, 3.40715289e-01, 3.40715289e-01,
          5.21398149e-02, 0., 1.07015312e-01, 2.85204977e-01,
          6.80062994e-02, 1.14406779e-01, 1.11378834e-01, 0.,
          1.29780412e-01, 2.50396281e-01, 3.77190299e-02, 9.58048031e-02,
          4.77480255e-02, 3.12368393e-01, 3.12368393e-01, 3.12368393e-01,
          3.12368393e-01, 1.76812764e-02, 2.70241708e-01, 3.12368393e-01,
          3.12368393e-01, 2.44704127e-01, 1.49551973e-01, 1.94400206e-01,
          4.49824966e-02, 0., 4.65657860e-02, 2.98781455e-01,
          7.95998499e-02, 9.23099518e-02, 2.14657355e-02, 2.04315074e-02,
          1.19466960e-01, 3.11429977e-01, 8.13444629e-02, 1.02854274e-01,
          2.07498759e-01, 1.40185431e-01, 1.01991273e-01, 3.11429977e-01,
          3.11429977e-01, 3.11429977e-01, 7.20228106e-02, 2.81056404e-01,
          3.11429977e-01, 3.11429977e-01, 3.11429977e-01, 1.41463414e-01,
          3.97339314e-02, 4.59572002e-02, 1.14913598e-01, 2.23176599e-01,
          6.61932230e-02, 1.23122424e-01, 6.40930310e-02, 7.19568655e-02,
          2.07641631e-01, 3.09931487e-01, 2.34772876e-01, 1.61594406e-01,
          1.57034457e-01, 3.09931487e-01, 1.80275872e-01, 2.24359587e-01,
          1.69050708e-01, 1.45852342e-01, 3.09931487e-01, 2.11584494e-01,
          1.40596092e-01, 2.73599058e-01, 3.09931487e-01, 3.09931487e-01,
          3.85653004e-02, 1.02089770e-01, 3.21710408e-01, 2.01841503e-01,
          5.72427921e-02, 2.94404961e-02, 7.71756098e-02, 3.21710408e-01,
          3.21710408e-01, 3.56030539e-02, 0., 8.56084283e-03,
          3.21710408e-01, 2.10233703e-01, 1.86810419e-01, 1.24498114e-01,
          1.47925287e-01, 3.21710408e-01, 3.21710408e-01, 3.21710408e-01,
          2.76243716e-01, 1.74261071e-02, 2.37891474e-03, 1.22941032e-01,
          1.05338633e-01, 2.88780957e-01, 2.89562464e-01, 2.31580064e-02,
          0., 5.20525388e-02, 1.67591825e-01, 1.17420256e-01,
          2.89562464e-01, 1.07228868e-01, 2.89562464e-01, 2.25774214e-01,
          2.89562464e-01, 2.72484720e-01, 2.54671991e-01, 1.23762349e-02,
          5.05460054e-02, 2.36167341e-01, 1.60417423e-01, 1.03637978e-01,
          2.89562464e-01, 1.69072241e-01, 2.66711563e-01, 2.04957083e-01,
          8.12935457e-02, 2.91416526e-01, 2.07033947e-01, 1.45958871e-01,
          2.77210534e-01, 7.65699595e-02, 1.25875011e-01, 2.91416526e-01,
          2.03754082e-01, 2.00688139e-01, 1.19022794e-01, 5.53078055e-02,
          1.53780490e-01, 2.52933621e-01, 5.37650287e-02, 4.01580185e-02,
          2.54133105e-01, 2.91416526e-01, 1.04752541e-01, 2.91416526e-01,
          1.72109619e-01, 2.91416526e-01, 2.91416526e-01, 1.47969991e-01,
          4.79905568e-02, 1.05916180e-01, 5.77696636e-02, 3.12085479e-01,
          2.64027178e-01, 5.47561161e-02, 6.98949620e-02, 3.05451304e-01,
          1.54965952e-01, 2.91007966e-01, 2.46576786e-01, 2.40561757e-02,
          5.37724011e-02, 1.39545158e-01, 5.77006005e-02, 3.13724458e-01,
          2.92784721e-01, 3.57668772e-02, 3.09704900e-01, 3.13724458e-01,
          6.60846010e-02, 3.13724458e-01, 1.82326719e-01, 1.19871739e-02,
          2.35608473e-01, 3.23109090e-01, 7.22865984e-02, 4.24473695e-02,
          3.87325957e-02, 5.86622097e-02, 3.23109090e-01, 1.06112629e-01,
          5.88117773e-03, 1.20484335e-02, 1.23643726e-01, 3.23109090e-01,
          3.23109090e-01, 3.23109090e-01, 5.11112548e-02, 4.01073769e-02,
          3.96111868e-02, 5.82476519e-02, 3.23109090e-01, 2.26889297e-01,
          1.86923184e-02, 7.97330141e-02, 3.23109090e-01, 3.23109090e-01,
          3.24949503e-01, 1.68633223e-01, 1.03110820e-02, 2.73946431e-02,
          1.18500099e-01, 3.24949503e-01, 3.24949503e-01, 3.24949503e-01,
          1.17544513e-02, 1.21536776e-02, 3.38039212e-02, 1.43250048e-01,
          2.20371783e-01, 2.79840320e-01, 1.09088293e-03, 9.23146680e-02,
          3.24949503e-01, 2.97143817e-01, 2.11577952e-01, 3.24949503e-01,
          4.25881892e-03, 3.06281410e-02, 1.48162082e-01, 8.09271932e-02,
          3.47507507e-01, 1.87794909e-01, 1.31557621e-02, 0.,
          2.53530174e-01, 3.26171011e-01, 9.76630300e-02, 2.19468139e-02,
          4.03905474e-02, 6.58756122e-02, 3.47507507e-01, 2.72867113e-01,
          1.08287595e-01, 3.47507507e-01, 6.80105761e-03, 7.76962284e-03,
          3.47507507e-01, 1.37987450e-01, 9.17305723e-02, 3.67593169e-02,
          7.77263753e-03, 1.80317927e-02, 3.47507507e-01, 2.34826893e-01,
          7.58854300e-02, 4.48908024e-02, 9.94263683e-03, 2.80177388e-02,
          2.50275940e-01, 3.38272721e-01, 8.09736848e-02, 7.66759217e-02,
          5.03003895e-02, 3.38272721e-01, 3.38272721e-01, 3.38272721e-01,
          5.55114225e-02, 3.30334567e-02, 1.22679239e-02, 3.42961922e-02,
          3.07073087e-01, 3.38272721e-01, 8.67775530e-02, 6.96886703e-03,
          5.21867187e-04, 4.45742756e-02, 3.38272721e-01, 3.38272721e-01,
          2.11988777e-01, 8.94625783e-02, 1.47011941e-02, 3.41803759e-01,
          1.88175589e-01, 2.12862670e-01, 3.41803759e-01, 3.41803759e-01,
          5.44342212e-02, 1.18089177e-01, 4.41953912e-02, 7.27359951e-02,
          2.15484619e-01, 7.21374229e-02, 2.36005802e-02, 3.86879034e-02,
          1.89471826e-01, 3.41803759e-01, 3.41803759e-01, 3.41803759e-01,
          1.92718416e-01, 1.71232149e-02, 3.45035233e-02, 9.67452154e-02,
          3.00089926e-01, 3.24172467e-01, 1.76716045e-01, 7.57290199e-02,
          3.61037180e-02, 2.68979035e-02, 1.40422285e-01, 2.10522190e-01,
          1.50207639e-01, 2.53647387e-01, 3.24172467e-01, 1.16418228e-01,
          1.10698454e-01, 3.24172467e-01, 3.24172467e-01, 1.29608780e-01,
          1.79926157e-02, 8.83240812e-03, 1.46331284e-02, 1.22530662e-01,
          3.24172467e-01, 3.24172467e-01, 1.65580273e-01, 2.44984217e-02,
          1.50283471e-01, 2.30642915e-01, 4.92717922e-02, 1.94204077e-01,
          3.33354443e-01, 1.86404303e-01, 1.60478234e-01, 3.33354443e-01,
          1.19399682e-01, 4.91120704e-02, 1.41616434e-01, 6.86180294e-02,
          5.87971397e-02, 1.25498384e-01, 3.33354443e-01, 3.33354443e-01,
          2.14806110e-01, 5.95636033e-02, 6.42928034e-02, 3.33354443e-01,
          3.33354443e-01, 1.85169324e-01, 6.38414100e-02, 2.58599278e-02,
          2.64655165e-02, 2.77341694e-01, 8.27619433e-02, 1.20089568e-01,
          3.30131263e-01, 2.31400970e-02, 5.16722165e-02, 9.61299688e-02,
          4.38148268e-02, 1.41581565e-01, 3.30131263e-01, 1.01669647e-01,
          8.35101679e-03, 1.13214165e-01, 3.21902931e-01, 3.30131263e-01,
          3.30131263e-01, 2.53215339e-03, 4.25180942e-02, 2.58008331e-01,
          1.17389269e-01, 3.30131263e-01, 3.30131263e-01, 2.17281040e-02,
          9.27709192e-02, 1.46825314e-01, 3.09497025e-02, 2.92321593e-02,
          1.33658439e-01, 2.89680928e-01, 4.71782237e-02, 3.90146933e-02,
          1.64150470e-03, 3.14739086e-02, 3.71852696e-01, 3.71852696e-01,
          3.71852696e-01, 2.39434078e-01, 1.70772634e-02, 9.75442398e-03,
          1.97699755e-01, 2.07584769e-01, 1.39913708e-01, 7.24116564e-02,
          9.84902959e-04, 4.12673801e-02, 3.71852696e-01, 3.71852696e-01,
          4.11128700e-02, 6.01914339e-02, 4.76030819e-02, 4.13825139e-02,
          3.32484514e-01, 2.98992753e-01, 1.00157544e-01, 3.32484514e-01,
          2.44643435e-01, 3.26971300e-02, 1.06058374e-01, 9.71197635e-02,
          1.31123081e-01, 4.83800471e-02, 1.74780730e-02, 2.82089561e-02,
          3.32484514e-01, 3.32484514e-01, 2.85378486e-01, 3.32484514e-01,
          1.48338631e-01, 1.66616011e-02, 1.36836097e-01, 3.32484514e-01,
          7.46953264e-02, 3.30889553e-01, 2.68797338e-01, 1.05298758e-01,
          7.96930641e-02, 4.56983745e-02, 2.48834100e-02, 1.23633683e-01,
          2.73885429e-01, 3.30889553e-01, 2.85148710e-01, 6.31067008e-02,
          1.36278301e-01, 3.30889553e-01, 2.60622829e-01, 8.07260498e-02,
          1.51092350e-01, 1.41844794e-01, 1.70026999e-02, 1.39034748e-01,
          1.53084502e-01, 3.15869093e-01, 3.30889553e-01, 7.99016580e-02,
          0., 1.04269139e-01, 3.46437961e-01, 2.90327102e-01,
          1.41665220e-01, 1.26703763e-02, 0., 2.34010205e-01,
          3.46437961e-01, 1.86960652e-01, 3.48431878e-02, 0., 0.,
          6.38707876e-02, 2.94947207e-01, 2.68290162e-01, 3.46437961e-01,
          1.82187688e-02, 0., 2.26008415e-01, 3.46437961e-01,
          3.03780884e-01, 5.82537539e-02, 0., 7.29568768e-03,
          6.66696057e-02, 2.99985766e-01, 2.99985766e-01, 1.53515413e-01,
          3.06434766e-03, 7.49291182e-02, 1.88576281e-01, 1.43400267e-01,
          2.99985766e-01, 2.14283139e-01, 2.95301750e-02, 7.29631931e-02,
          2.99985766e-01, 2.99985766e-01, 2.99985766e-01, 5.27936965e-02,
          1.41051235e-02, 2.99985766e-01, 2.99985766e-01, 1.58646628e-01,
          2.06639141e-01, 7.67207891e-02, 2.41668522e-01 ]
      - [ 1.09718693e-03, 9.61284735e-04, 3.10698748e-01, 2.95528769e-01,
          8.83307979e-02, 5.52169308e-02, 5.45869283e-02, 6.42725825e-02,
          3.11277717e-01, 1.59797683e-01, 1.13636337e-01, 2.93754429e-01,
          2.13529263e-02, 1.00736059e-01, 3.43842357e-01, 3.43842357e-01,
          7.98438955e-03, 2.55988576e-02, 3.95560637e-02, 3.43842357e-01,
          3.43842357e-01, 2.89041400e-01, 1.46529209e-02, 5.94835617e-02,
          7.97165409e-02, 5.01727462e-02, 5.28302416e-02, 1.34516433e-02,
          1.64250862e-02, 1.27470732e-01, 2.67126977e-01, 4.74995337e-02,
          3.27874012e-02, 2.34242976e-02, 4.52586673e-02, 3.50730389e-01,
          1.13190159e-01, 3.67713720e-01, 2.56458580e-01, 3.68697681e-02,
          1.34701449e-02, 9.58276168e-02, 3.67713720e-01, 3.67713720e-01,
          3.65816385e-01, 5.44130318e-02, 2.69077122e-02, 3.67713720e-01,
          1.73555419e-01, 1.07482513e-02, 1.52353179e-02, 2.08922308e-02,
          3.39648239e-02, 2.46636301e-01, 2.17315018e-01, 1.18587688e-02,
          3.53732705e-02, 4.68556993e-02, 1.91134028e-02, 2.96415627e-01,
          4.04734850e-01, 1.55387059e-01, 1.48422480e-01, 8.33480507e-02,
          1.21089900e-02, 4.04734850e-01, 4.04734850e-01, 2.59834994e-03,
          1.52780190e-01, 1.79238871e-01, 6.56421715e-03, 4.04734850e-01,
          1.80580780e-01, 2.19963267e-02, 1.54515924e-02, 5.25775664e-02,
          3.72754857e-02, 2.05190659e-01, 2.25104496e-01, 5.53023331e-02,
          2.19129538e-03, 2.44157016e-02, 9.24958140e-02, 2.38231003e-01,
          3.67248327e-01, 1.88899655e-02, 1.11589588e-01, 1.81984365e-01,
          9.26920623e-02, 3.67248327e-01, 3.67248327e-01, 1.44230664e-01,
          1.04432441e-01, 1.91092908e-01, 3.67248327e-01, 3.67248327e-01,
          9.64600444e-02, 1.42040001e-02, 0., 8.54614470e-03,
          1.54404506e-01, 2.16931298e-01, 1.04276977e-01, 0.,
          1.06530264e-03, 1.65789686e-02, 1.86000571e-01, 2.26410270e-01,
          3.92188609e-01, 1.88122004e-01, 1.51647434e-01, 7.51616508e-02,
          2.34457090e-01, 3.92188609e-01, 3.92188609e-01, 8.58367383e-02,
          1.67776048e-01, 1.70836419e-01, 1.40141636e-01, 3.92188609e-01,
          8.29164311e-02, 2.43338123e-01, 3.62942725e-01, 2.03534663e-01,
          1.63264610e-02, 9.97221470e-02, 6.97772130e-02, 3.62942725e-01,
          3.62942725e-01, 1.37225375e-01, 3.25984024e-02, 9.36712045e-03,
          5.45007735e-02, 2.17258692e-01, 3.40389699e-01, 8.21949393e-02,
          2.33001411e-02, 6.99595436e-02, 1.18760802e-01, 3.62942725e-01,
          3.62942725e-01, 3.14057954e-02, 4.21319492e-02, 8.06741696e-03,
          4.28034142e-02, 3.42445999e-01, 1.20294094e-01, 1.24986684e-02,
          5.35206031e-03, 7.62595981e-03, 3.45628560e-01, 3.45628560e-01,
          3.45628560e-01, 6.13873489e-02, 1.97797152e-03, 1.55879289e-01,
          8.68963152e-02, 3.45628560e-01, 1.24265723e-01, 3.51389148e-03,
          5.79394121e-03, 6.26711466e-04, 3.45628560e-01, 3.45628560e-01,
          2.70624191e-01, 4.02446687e-02, 9.19708400e-04, 1.41453698e-01,
          2.73902625e-01, 1.27620429e-01, 2.63096958e-01, 1.45623162e-01,
          4.01561178e-04, 2.50925332e-01, 2.73902625e-01, 8.83599976e-04,
          2.64974922e-01, 2.73902625e-01, 1.70328922e-03, 2.73902625e-01,
          2.73902625e-01, 2.40553468e-01, 1.65256500e-01, 9.52803418e-02,
          1.69077283e-03, 2.73902625e-01, 2.73902625e-01, 1.28068570e-02,
          1.64058283e-01, 1.89063072e-01, 1.04253301e-02, 2.73902625e-01,
          2.26270452e-01, 8.76375765e-04, 1.72492757e-01, 2.55383968e-01,
          6.17106073e-02, 2.77580261e-01, 1.79999426e-01, 6.45891279e-02,
          1.67749166e-01, 2.77580261e-01, 2.59417921e-01, 2.77580261e-01,
          2.77580261e-01, 1.95027608e-02, 1.11288808e-01, 1.58078909e-01,
          8.83922055e-02, 2.77580261e-01, 2.77580261e-01, 8.58794823e-02,
          1.03637718e-01, 1.87469944e-01, 2.77580261e-01, 2.77580261e-01,
          2.35837087e-01, 1.29356697e-01, 2.50084758e-01, 1.16553195e-01,
          8.91331807e-02, 2.35414803e-01, 2.68736392e-01, 6.86221644e-02,
          2.68736392e-01, 2.68736392e-01, 3.20559032e-02, 2.68736392e-01,
          2.68736392e-01, 1.88735902e-01, 1.49422154e-01, 9.02830884e-02,
          1.47298291e-01, 2.68736392e-01, 2.68736392e-01, 1.16119251e-01,
          1.77371323e-01, 2.42292240e-01, 1.02634579e-01, 2.68736392e-01,
          1.19944319e-01, 1.95113972e-01, 2.61019617e-01, 4.45926227e-02,
          2.94623082e-03, 1.42555824e-02, 2.23870248e-01, 3.60620975e-01,
          3.60620975e-01, 6.75367471e-03, 9.09189731e-02, 4.44810316e-02,
          3.60620975e-01, 2.44233578e-01, 7.36491829e-02, 1.11338692e-02,
          0., 1.80478379e-01, 3.60620975e-01, 3.60620975e-01,
          1.15548015e-01, 1.44107814e-03, 9.38039795e-02, 2.07461447e-01,
          6.25677183e-02, 4.12868649e-01, 6.96258321e-02, 1.67770151e-04,
          1.21444324e-02, 5.68790128e-03, 2.51374036e-01, 4.12868649e-01,
          7.30406418e-02, 1.15497783e-02, 1.95080810e-03, 4.84916233e-02,
          1.16807908e-01, 4.12868649e-01, 7.98223093e-02, 2.19435431e-03,
          1.25803584e-02, 2.71609407e-02, 1.77452013e-01, 4.12868649e-01,
          4.12868649e-01, 1.05278604e-01, 1.92672759e-03, 1.11872600e-02,
          2.93968946e-01, 2.94114858e-01, 4.87424135e-02, 3.21514383e-02,
          7.12050172e-03, 1.69000790e-01, 2.94114858e-01, 3.50003242e-02,
          1.97471548e-02, 2.48412713e-02, 4.45928387e-02, 2.94114858e-01,
          2.49684885e-01, 2.94114858e-01, 2.94114858e-01, 2.90721744e-01,
          5.28997369e-03, 4.27032225e-02, 2.94114858e-01, 2.84306500e-02,
          2.94114858e-01, 2.94114858e-01, 3.38794179e-02, 1.78054184e-01,
          2.02368319e-01, 3.28148492e-02, 2.40665674e-02, 1.52746597e-02,
          1.69153392e-01, 2.41253510e-01, 2.08508939e-01, 1.74651846e-01,
          1.35721900e-02, 3.90671641e-02, 3.05870235e-01, 3.05870235e-01,
          2.08505869e-01, 1.35769714e-02, 2.34381005e-01, 3.05870235e-01,
          2.27319404e-01, 1.06430575e-01, 1.67959154e-01, 2.88725287e-01,
          2.04538524e-01, 3.05870235e-01, 3.05870235e-01, 9.38552991e-02,
          2.52486885e-01, 2.52486885e-01, 2.05709646e-03, 6.53151050e-02,
          2.40849555e-01, 1.69756502e-01, 2.38374874e-01, 1.77898347e-01,
          1.14133721e-02, 1.99444056e-01, 1.86817452e-01, 2.52486885e-01,
          1.49314910e-01, 2.52486885e-01, 2.26710424e-01, 2.27840409e-01,
          2.52486885e-01, 1.11351267e-01, 8.02833140e-02, 2.22722247e-01,
          1.97612584e-01, 2.52486885e-01, 2.52486885e-01, 2.52486885e-01,
          2.11492136e-01, 3.40278372e-02, 1.50688842e-01, 1.08762346e-01,
          0., 7.31878653e-02, 2.66700894e-01, 1.35882005e-01,
          1.59104332e-01, 1.08083874e-01, 6.66469894e-03, 5.60501553e-02,
          5.92155345e-02, 4.96586077e-02, 4.05500263e-01, 4.05500263e-01,
          3.21958121e-03, 2.67791525e-02, 8.19045007e-02, 3.30159158e-01,
          4.05500263e-01, 4.05500263e-01, 6.00889232e-03, 1.49191935e-02,
          6.20257743e-02, 1.83342963e-01, 7.92457536e-02, 1.81551278e-02,
          8.43707100e-03, 3.43303271e-02, 1.90934479e-01, 3.46980125e-01,
          3.46980125e-01, 1.51938960e-01, 1.00591406e-02, 1.67228833e-01,
          1.51593357e-01, 3.46980125e-01, 1.99628070e-01, 6.21991716e-02,
          1.27115715e-02, 3.70375477e-02, 3.46980125e-01, 3.46980125e-01,
          2.52561361e-01, 9.45352018e-02, 1.65723469e-02, 3.46980125e-01,
          1.25876456e-01, 6.30547851e-02, 3.26460391e-01, 1.78923652e-01,
          8.26323580e-04, 1.32510200e-01, 1.62194952e-01, 1.04055414e-03,
          3.37179959e-01, 3.16543430e-01, 5.17006556e-04, 1.48071080e-01,
          3.37179959e-01, 1.17760070e-01, 1.47378594e-01, 8.97334218e-02,
          1.25410897e-03, 3.37179959e-01, 3.37179959e-01, 5.34890685e-04,
          1.91552967e-01, 1.53105944e-01, 0., 3.37179959e-01,
          1.15983665e-01, 1.58185256e-04, 2.07654014e-01, 3.51859182e-01,
          3.14684100e-02, 1.05688110e-01, 1.26120612e-01, 7.19003081e-02,
          2.15057418e-01, 3.52576822e-01, 1.19890004e-01, 1.48248643e-01,
          3.52576822e-01, 1.97321366e-04, 1.07187666e-01, 1.58925548e-01,
          1.37253804e-03, 3.52576822e-01, 3.52576822e-01, 1.59915779e-02,
          1.24210849e-01, 1.61998004e-01, 5.90169150e-03, 3.52576822e-01,
          9.02721584e-02, 1.12303354e-01, 2.72605479e-01, 1.65123239e-01,
          4.18800302e-02, 1.03818461e-01, 8.79571214e-02, 4.23195325e-02,
          2.99575627e-01, 2.83637404e-01, 5.44858910e-02, 1.45287097e-01,
          3.60867947e-01, 2.04750951e-02, 1.77863210e-01, 8.92701522e-02,
          2.23162165e-03, 3.60867947e-01, 3.60867947e-01, 6.21653814e-03,
          2.52268493e-01, 1.81907848e-01, 4.66509815e-03, 3.60867947e-01,
          3.48291062e-02, 1.19136617e-01, 3.68745625e-01, 3.33394587e-01,
          1.97662190e-02, 1.76376489e-03, 1.37750998e-01, 3.68745625e-01,
          3.68745625e-01, 1.96976319e-01, 1.45865965e-03, 2.45807134e-03,
          6.59316853e-02, 3.53969187e-01, 1.37266457e-01, 4.51835506e-02,
          7.45297670e-02, 6.78818068e-03, 2.46503964e-01, 3.68745625e-01,
          2.13271827e-01, 1.65078286e-02, 4.85593043e-02, 5.17875664e-02,
          7.23468065e-02, 4.52285975e-01, 7.36680552e-02, 2.00391021e-02,
          1.30014261e-03, 3.92312929e-03, 3.75500619e-01, 4.52285975e-01,
          3.20596881e-02, 5.51103055e-03, 1.50958099e-03, 1.18022248e-01,
          4.70801480e-02, 4.52285975e-01, 3.88261676e-02, 1.91960018e-03,
          9.92271304e-03, 1.13514941e-02, 7.33069181e-02, 4.52285975e-01,
          2.78561879e-02, 1.65285042e-03, 2.03577010e-03, 7.06635835e-03,
          4.02430058e-01, 4.02430058e-01, 2.26626433e-02, 1.38997789e-02,
          9.97797702e-04, 4.02430058e-01, 4.02430058e-01, 9.44799464e-03,
          2.48271227e-02, 3.67026664e-02, 3.37605784e-03, 4.02430058e-01,
          8.47253650e-02, 4.02430058e-01, 2.32173838e-02, 1.60303116e-02,
          6.74815429e-03, 3.48796025e-02, 6.68109357e-02, 2.88997740e-02,
          2.44425107e-02, 4.06949259e-02, 1.97359566e-02, 6.57998696e-02,
          4.84768480e-01, 1.44702001e-02, 2.87173260e-02, 2.39398219e-02,
          5.68319345e-03, 4.84768480e-01, 4.84768480e-01, 9.55241919e-03,
          2.18531843e-02, 1.96048822e-02, 1.32836979e-02, 4.84768480e-01,
          7.16080368e-02, 6.43051416e-02, 2.69589387e-02, 3.04052625e-02,
          1.75368898e-02, 7.72498697e-02, 1.12634912e-01, 3.71496715e-02,
          2.63085328e-02, 2.87458859e-02, 3.77641879e-02, 1.34857714e-01,
          4.78326708e-01, 1.03017269e-02, 2.93252561e-02, 1.41587676e-02,
          3.38810682e-03, 4.78326708e-01, 4.78326708e-01, 1.92442816e-02,
          6.78497553e-02, 2.18886547e-02, 0., 4.78326708e-01,
          1.06031679e-01, 2.57328488e-02, 2.81482134e-02, 9.23364051e-03,
          1.16001954e-02, 8.78383294e-02, 1.73733577e-01, 6.28779978e-02,
          4.77112532e-02, 8.81682523e-03, 1.09016255e-03, 1.27596065e-01 ]
      - [ 1.19321659e-01, 3.98794830e-01, 1.10068202e-01, 8.06523580e-03,
          0., 4.26518451e-03, 2.03049287e-01, 3.98794830e-01,
          6.98322281e-02, 1.68462365e-03, 0., 1.80983003e-02,
          1.48899341e-02, 3.98794830e-01, 3.48300993e-01, 2.52154619e-02,
          0., 4.80670045e-04, 3.44517380e-02, 3.98794830e-01,
          3.67100149e-01, 1.69873625e-01, 1.46639487e-03, 3.86372162e-03,
          1.82021841e-01, 1.63119420e-01, 7.89369419e-02, 1.10969394e-02,
          0., 3.83885466e-02, 1.45093888e-01, 4.07817751e-01,
          2.16169372e-01, 4.39832360e-02, 0., 1.86658371e-02,
          3.58301103e-02, 1.05539382e-01, 4.07817751e-01, 4.07817751e-01,
          1.68121385e-03, 9.35479160e-03, 2.81562693e-02, 1.15701139e-01,
          4.07817751e-01, 4.07817751e-01, 2.74645834e-04, 4.98897536e-03,
          1.83663014e-02, 1.79786831e-01, 1.88954085e-01, 2.62161158e-02,
          0., 0., 9.12774121e-04, 1.12636827e-01, 3.55949193e-01,
          6.90388680e-02, 0., 0., 2.55796872e-03, 3.67449746e-02,
          4.41825598e-01, 4.41825598e-01, 0., 0., 8.50111464e-05,
          1.36008170e-02, 4.41825598e-01, 4.41825598e-01, 0., 0., 0.,
          2.66037099e-02, 2.14594483e-01, 1.29172102e-01, 0., 0., 0.,
          3.77582526e-03, 2.75180548e-01, 2.84354746e-01, 8.01947259e-04,
          0., 0., 2.24726787e-03, 4.40326989e-01, 4.40326989e-01, 0., 0.,
          0., 2.06917478e-03, 4.40326989e-01, 4.40326989e-01, 0., 0., 0.,
          0., 3.16105723e-01, 2.57388920e-01, 1.65561493e-02, 0., 0.,
          4.74356872e-04, 2.13163793e-01, 2.91739255e-01, 7.35588670e-02,
          0., 0., 2.38253679e-02, 4.30638134e-01, 4.30638134e-01,
          2.36014463e-03, 0., 0., 1.06504083e-01, 4.30638134e-01,
          3.53243172e-01, 1.56822931e-02, 0., 6.22816123e-02,
          3.64413947e-01, 1.33680373e-01, 2.88308449e-02, 8.18215124e-03,
          2.48553813e-03, 1.79990269e-02, 2.77120858e-01, 1.83333814e-01,
          3.64413947e-01, 5.95631450e-02, 0., 3.24060082e-01,
          3.64413947e-01, 3.39400172e-02, 6.06848039e-02, 1.74361020e-01,
          2.84850895e-02, 1.02771141e-01, 1.79862455e-01, 4.82441634e-02,
          3.64413947e-01, 3.64413947e-01, 9.55847651e-02, 0.,
          6.04170235e-03, 8.79179165e-02, 3.85167003e-01, 4.93306108e-02,
          0., 0., 1.67729729e-03, 2.80313462e-01, 3.85167003e-01,
          7.12246299e-02, 0., 0., 3.32442374e-04, 1.28281098e-02,
          3.85167003e-01, 3.65993321e-01, 5.87481335e-02, 4.82337270e-03,
          0., 6.96040839e-02, 3.85167003e-01, 3.85167003e-01,
          1.34528115e-01, 0., 3.42541171e-04, 3.07740688e-01,
          3.64678413e-01, 1.66015793e-02, 0., 0., 0., 3.64678413e-01,
          3.64678413e-01, 2.20710458e-03, 0., 1.70090608e-02, 0.,
          1.14800029e-01, 3.64678413e-01, 1.95499182e-01, 1.05395801e-01,
          4.28447239e-02, 0., 3.64678413e-01, 3.64678413e-01,
          1.02743790e-01, 1.68050632e-01, 0., 0., 3.45798522e-01,
          3.45798522e-01, 8.02482173e-05, 0., 0., 2.26483457e-02,
          3.45798522e-01, 3.45798522e-01, 0., 0., 4.67510633e-02,
          2.00855602e-02, 3.45798522e-01, 3.45798522e-01, 2.89171562e-02,
          8.11288431e-02, 1.06151074e-01, 2.27349862e-01, 3.45798522e-01,
          2.91806549e-01, 2.92095495e-03, 2.95443460e-02, 0.,
          1.02168404e-01, 3.82123977e-01, 1.94538847e-01, 0., 0., 0.,
          2.23428249e-01, 3.82123977e-01, 4.55727875e-02, 0., 0.,
          1.01460189e-01, 3.82123977e-01, 3.82123977e-01, 6.54991046e-02,
          0., 4.14936338e-03, 6.97389022e-02, 3.82123977e-01,
          3.82123977e-01, 1.79894902e-02, 0., 8.12243670e-04,
          1.79832429e-01, 3.59154165e-01, 1.14591513e-02, 1.74858924e-02,
          1.80425897e-01, 7.64568895e-02, 6.93139806e-02, 8.79763365e-02,
          1.76177220e-03, 1.95513144e-01, 3.59154165e-01, 3.59154165e-01,
          1.14193596e-01, 3.59154165e-01, 3.90772782e-02, 3.93720483e-03,
          1.52154565e-01, 1.21109448e-01, 9.07426029e-02, 1.98715910e-01,
          1.72700863e-02, 9.54567641e-03, 3.59154165e-01, 3.59154165e-01,
          9.36525594e-03, 0., 1.01024452e-04, 1.64169371e-01,
          3.31538260e-01, 3.23920697e-01, 1.06739864e-01, 0.,
          5.26566408e-04, 2.35973865e-01, 3.55557412e-01, 3.55557412e-01,
          1.47209406e-01, 5.15412015e-04, 0., 6.02709735e-03,
          1.62602440e-01, 3.55557412e-01, 3.55557412e-01, 1.63500314e-04,
          0., 4.07274859e-03, 8.49711001e-02, 3.55557412e-01,
          1.45740673e-01, 0., 3.96036031e-03, 1.21353485e-01,
          1.42947793e-01, 3.74209821e-01, 2.60140061e-01, 0.,
          3.53490151e-02, 1.49735183e-01, 8.79059955e-02, 3.74209821e-01,
          3.74209821e-01, 0., 0., 3.20303574e-04, 2.08345130e-02,
          3.74209821e-01, 3.74209821e-01, 0., 0., 1.01655263e-04,
          1.19156819e-02, 3.74209821e-01, 2.47754425e-01, 1.92703344e-02,
          7.04436898e-02, 7.83403292e-02, 2.74028033e-02, 3.70110780e-01,
          3.70110780e-01, 1.80221498e-01, 1.60141066e-01, 3.37491371e-02,
          2.80240015e-03, 2.01292098e-01, 3.70110780e-01, 2.75290501e-03,
          1.57808608e-04, 2.57607986e-04, 3.88636300e-03, 3.70110780e-01,
          3.70110780e-01, 3.15096751e-02, 5.19132940e-04, 1.54564797e-04,
          4.00342891e-04, 3.70110780e-01, 3.63771617e-01, 3.63771617e-01,
          1.66616902e-01, 3.91301140e-03, 0., 4.56985869e-02,
          3.63771617e-01, 3.63771617e-01, 1.72032058e-01, 4.93498286e-03,
          0., 7.26600550e-03, 3.63771617e-01, 1.01690926e-01,
          2.18772911e-03, 0., 0., 2.53298551e-01, 3.63771617e-01,
          2.41184354e-01, 5.61190490e-03, 2.86066119e-04, 0.,
          1.00709185e-01, 9.71110463e-02, 4.22955751e-01, 7.66182691e-02,
          5.85200824e-03, 8.03788975e-02, 6.72678351e-02, 1.91868335e-01,
          2.98184991e-01, 5.70222102e-02, 1.32959587e-02, 2.38358051e-01,
          4.22955751e-01, 3.84063758e-02, 4.22955751e-01, 1.06608726e-01,
          1.71901491e-02, 9.08058602e-03, 1.40045118e-02, 1.10808969e-01,
          4.14626092e-01, 1.24525391e-01, 1.65576473e-01, 2.49225274e-02,
          7.52166808e-02, 3.80554765e-01, 1.33900652e-02, 5.03833294e-02,
          1.26881683e-02, 6.81830645e-02, 3.80554765e-01, 3.80554765e-01,
          2.30412334e-02, 1.57280892e-01, 1.27538983e-02, 4.25932556e-03,
          3.80554765e-01, 1.72893211e-01, 3.08917407e-02, 1.76514387e-01,
          1.99293613e-01, 8.01074691e-03, 6.46815524e-02, 2.98209727e-01,
          1.25063881e-01, 3.80554765e-01, 1.21054918e-01, 8.68291128e-04,
          1.17972337e-01, 3.72732252e-01, 2.59969588e-02, 8.89491513e-02,
          1.91044714e-03, 0., 3.72732252e-01, 3.72732252e-01,
          2.57066377e-02, 9.83780622e-02, 5.55781042e-03, 2.84170825e-03,
          3.72732252e-01, 1.77872434e-01, 1.24283224e-01, 3.33812922e-01,
          6.76308386e-03, 0., 5.86552285e-02, 2.06429169e-01,
          1.97921172e-01, 3.72732252e-01, 9.26301815e-03, 4.73617995e-03,
          1.96885616e-01, 3.93870533e-01, 6.56827353e-03, 1.99811365e-02,
          1.76206010e-03, 2.44901190e-03, 3.93870533e-01, 3.93870533e-01,
          1.73456431e-03, 4.11314657e-04, 0., 3.49858834e-04,
          3.93870533e-01, 1.50102943e-01, 9.68700349e-02, 1.36203647e-01,
          3.82578699e-03, 4.08168649e-03, 2.56657064e-01, 3.14785361e-01,
          2.63000354e-02, 5.90347089e-02, 1.73566099e-02, 1.51950924e-03,
          3.93870533e-01, 3.63717794e-01, 7.25412602e-03, 0., 0.,
          3.62086785e-03, 3.63717794e-01, 3.63717794e-01, 4.05079313e-02,
          0., 0., 2.78680809e-02, 3.63717794e-01, 3.18518937e-01,
          5.40598470e-04, 1.92907769e-02, 5.53666726e-02, 4.48110104e-02,
          3.63717794e-01, 1.83389738e-01, 0., 1.32792734e-03,
          6.12821691e-02, 2.36325398e-01, 3.63717794e-01, 6.19602529e-03,
          4.38246459e-01, 1.50302008e-01, 3.82843278e-02, 1.85781531e-02,
          2.09500734e-03, 1.49088046e-02, 3.05324912e-01, 1.11470826e-01,
          2.58062690e-01, 7.22310096e-02, 3.28842811e-02, 2.63209026e-02,
          4.38246459e-01, 3.04906398e-01, 3.41421477e-02, 3.09635922e-02,
          1.01527283e-02, 1.24153174e-01, 4.38246459e-01, 9.62902382e-02,
          1.18463047e-01, 1.77767992e-01, 2.23658144e-01, 1.48940179e-02,
          5.68180680e-02, 2.71412373e-01, 3.51053119e-01, 5.25606461e-02,
          5.20988405e-02, 1.03405220e-02, 3.51053119e-01, 3.51053119e-01,
          2.05042213e-01, 5.57120983e-03, 1.22088203e-02, 9.50129554e-02,
          1.34775266e-01, 1.17576905e-01, 1.59465760e-01, 2.88796097e-01,
          3.51053119e-01, 1.00849383e-01, 3.51053119e-01, 2.64148027e-01,
          5.14958277e-02, 1.10554583e-01, 1.03501163e-01, 1.13931987e-02,
          3.92317533e-01, 3.92317533e-01, 8.20066407e-03, 0., 0.,
          1.48568144e-02, 3.92317533e-01, 3.92317533e-01, 3.37401405e-03,
          1.72513304e-03, 2.63869553e-03, 1.14993803e-01, 3.92317533e-01,
          1.11852862e-01, 8.91370117e-04, 0., 0., 1.36758834e-01,
          3.92317533e-01, 1.66507602e-01, 0., 0., 0., 4.44062203e-02,
          3.44631821e-01, 3.44631821e-01, 1.90099124e-02, 2.45833141e-03,
          3.91606651e-02, 1.41614839e-01, 1.30784586e-01, 3.44631821e-01,
          2.79033899e-01, 4.51850565e-03, 1.73275128e-01, 3.96250449e-02,
          3.44631821e-01, 3.44631821e-01, 4.41395603e-02, 0., 0., 0.,
          1.12602800e-01, 3.44631821e-01, 3.44631821e-01, 4.93367389e-03,
          0., 1.02513842e-01, 1.89579756e-03, 1.97817758e-01,
          3.52374256e-01, 1.34202749e-01, 2.03184679e-01, 4.44306917e-02,
          0., 2.44719945e-02, 3.52374256e-01, 3.52374256e-01,
          2.81730682e-01, 0., 2.70828197e-04, 2.66765147e-01,
          3.52374256e-01, 7.76596665e-02, 0., 2.46621296e-03, 0.,
          7.03862756e-02, 3.52374256e-01, 3.20235372e-01, 7.17246626e-03 ]
      - [ 2.29592621e-02, 1.34199977e-01, 2.38682345e-01, 5.64840101e-02,
          1.94931760e-01, 1.21470012e-01, 2.68116780e-02, 7.36713707e-02,
          5.30718714e-02, 1.86743066e-01, 3.67000550e-01, 3.67000550e-01,
          1.65538058e-01, 3.27492595e-01, 2.24966809e-01, 4.99992780e-02,
          1.34677023e-01, 7.87184015e-02, 8.75006467e-02, 1.86551765e-01,
          8.63407776e-02, 3.31441700e-01, 3.67000550e-01, 2.12401628e-01,
          9.02131025e-04, 2.56533222e-03, 4.68774186e-03, 8.43245238e-02,
          3.62346262e-01, 4.95360009e-02, 1.32634103e-01, 3.62346262e-01,
          6.37477904e-04, 4.72499020e-02, 3.62346262e-01, 1.21199988e-01,
          1.75372753e-02, 9.50798509e-04, 1.69499207e-03, 6.80967048e-02,
          3.62346262e-01, 1.02530695e-01, 2.60504663e-01, 3.62346262e-01,
          1.67450053e-05, 2.27684062e-02, 3.62346262e-01, 2.84008741e-01,
          3.48945223e-02, 4.93880808e-01, 3.26583814e-03, 2.07418358e-04,
          3.42688486e-02, 7.55752437e-03, 2.89472733e-02, 4.93880808e-01,
          8.24283995e-03, 0., 0., 4.06925625e-04, 7.60966092e-02,
          4.93880808e-01, 5.93215460e-04, 1.93010183e-05, 2.92047653e-02,
          1.22932130e-02, 9.58966836e-02, 4.93880808e-01, 6.04878319e-03,
          7.84947013e-04, 0., 1.27500927e-04, 6.19135052e-02,
          6.07855320e-01, 1.91021021e-02, 9.62030329e-03, 3.90064269e-02,
          1.82415675e-02, 2.64508408e-02, 1.04168579e-01, 8.03973991e-03,
          5.87952361e-02, 1.23625755e-01, 3.11438814e-02, 1.90536901e-01,
          6.07855320e-01, 2.00693440e-02, 2.04048958e-02, 1.22572012e-01,
          3.31378020e-02, 5.62739894e-02, 1.33316696e-01, 4.56403894e-03,
          6.73975125e-02, 3.66650134e-01, 6.55960664e-02, 0.,
          1.01070211e-03, 3.26689985e-03, 3.26482266e-01, 3.50792468e-01,
          3.84706743e-02, 1.32092191e-02, 1.03347287e-01, 0.,
          2.25329787e-01, 3.50792468e-01, 2.07972024e-02, 0.,
          1.37965102e-02, 1.22780295e-03, 3.50792468e-01, 3.50792468e-01,
          1.11974590e-01, 1.52008198e-02, 3.50792468e-01, 6.18184218e-03,
          2.72800028e-01, 3.50792468e-01, 2.44954452e-02, 1.16373576e-01,
          1.55128375e-01, 1.12018861e-01, 6.39662147e-02, 1.54202595e-01,
          1.86628290e-02, 2.61773854e-01, 1.21581614e-01, 5.79792857e-02,
          2.15273410e-01, 3.86586457e-01, 4.11923602e-02, 1.58831682e-02,
          1.07978791e-01, 1.91500232e-01, 2.17928454e-01, 1.05475567e-01,
          3.15057090e-03, 3.86586457e-01, 3.86586457e-01, 1.47240579e-01,
          2.35989705e-01, 3.86586457e-01, 2.59971712e-02, 1.31833971e-01,
          1.05648348e-02, 4.57305898e-04, 1.64247248e-02, 1.22334704e-01,
          8.86550024e-02, 3.47872645e-01, 3.47872645e-01, 0.,
          2.36451463e-03, 1.77984610e-01, 3.18120748e-01, 3.47872645e-01,
          2.95721501e-01, 1.08477222e-02, 5.83876530e-03, 3.50514613e-02,
          8.20257962e-02, 3.47872645e-01, 3.47872645e-01, 1.95362680e-02,
          4.17163456e-03, 3.16356719e-02, 3.47872645e-01, 1.28828973e-01,
          4.20302629e-01, 1.10091642e-02, 0., 1.37656583e-02,
          2.91287135e-02, 9.23131406e-02, 4.20302629e-01, 1.21674672e-01,
          4.26090742e-03, 0., 1.15943863e-03, 2.33909011e-01,
          4.20302629e-01, 7.62923360e-02, 1.01860845e-03, 2.67793913e-03,
          6.63025007e-02, 8.01140144e-02, 4.20302629e-01, 4.20302629e-01,
          4.56998078e-03, 0., 7.10128946e-03, 6.53644204e-02,
          4.30776030e-01, 2.56338358e-01, 4.93027791e-02, 6.91282377e-02,
          5.65317366e-03, 1.70054361e-02, 6.38678521e-02, 6.46827295e-02,
          5.49527071e-02, 2.08616123e-01, 3.09676342e-02, 1.58136543e-02,
          4.30776030e-01, 4.30776030e-01, 4.98768352e-02, 2.37036925e-02,
          1.97640760e-03, 4.67900820e-02, 3.66018951e-01, 3.83460581e-01,
          5.03752306e-02, 1.22998051e-01, 3.93316522e-02, 1.62439086e-02,
          1.86816659e-02, 5.09800157e-03, 9.96220484e-02, 3.56420279e-01,
          1.98102921e-01, 3.92824039e-02, 2.78397352e-01, 8.61422997e-03,
          4.94102910e-02, 3.00144851e-01, 7.00211078e-02, 1.57892033e-01,
          3.04192603e-01, 9.39186215e-02, 3.58628333e-02, 3.56420279e-01,
          3.56420279e-01, 1.53023377e-01, 1.38452157e-01, 3.23749636e-03,
          3.23749636e-03, 3.56420279e-01, 3.02918404e-01, 4.45927726e-04,
          3.99395712e-02, 1.39210254e-01, 1.81072041e-01, 1.25679588e-02,
          4.45927726e-04, 1.90084621e-01, 3.83357495e-01, 3.27528417e-01,
          1.31119832e-01, 1.33701488e-02, 1.30724884e-03, 3.12149362e-03,
          3.48683670e-02, 2.05828711e-01, 3.83357495e-01, 1.20218359e-01,
          3.12149362e-03, 1.36727728e-02, 3.83357495e-01, 3.83357495e-01,
          3.66690546e-01, 3.02636866e-02, 0., 1.49116948e-01,
          3.34394783e-01, 1.18174240e-01, 6.92209462e-03, 1.11345784e-03,
          8.74214061e-03, 3.34394783e-01, 3.34394783e-01, 3.12514812e-01,
          2.94477567e-02, 0., 1.18196726e-01, 1.02093099e-02,
          2.81853169e-01, 3.34394783e-01, 1.19806901e-01, 1.59112591e-04,
          0., 3.71880010e-02, 3.34394783e-01, 3.34394783e-01,
          2.85452813e-01, 0., 1.20178787e-02, 1.75510094e-01,
          2.33486235e-01, 1.17044970e-01, 6.97722007e-03, 0.,
          4.26349789e-02, 3.32613826e-01, 3.61748815e-01, 3.61748815e-01,
          1.16279093e-03, 0., 1.59035567e-02, 2.07427949e-01,
          3.61748815e-01, 2.73050755e-01, 3.25647220e-02, 0.,
          9.69012827e-03, 3.61748815e-01, 3.61748815e-01, 1.00628056e-01,
          5.85760514e-04, 1.54637068e-03, 3.79048139e-02, 2.78814286e-01,
          3.53652447e-01, 3.53652447e-01, 3.32497153e-03, 4.99314105e-04,
          6.10644370e-03, 9.33706015e-02, 3.53652447e-01, 2.07846880e-01,
          6.31598011e-03, 4.77275401e-02, 9.90620721e-03, 3.53652447e-01,
          3.53652447e-01, 9.46354493e-02, 1.00008282e-03, 8.53433926e-03,
          6.47375211e-02, 3.04598898e-01, 3.53652447e-01, 6.78941831e-02,
          2.27610543e-02, 4.62683477e-02, 2.56195106e-02, 1.15603104e-01,
          3.54724526e-01, 1.47206485e-01, 4.05844152e-02, 3.54724526e-01,
          1.90266714e-01, 8.27343464e-02, 1.23255337e-02, 0.,
          9.49213374e-03, 3.34847927e-01, 2.03225985e-01, 1.31696478e-01,
          3.54724526e-01, 1.23903237e-01, 3.03285271e-01, 3.54724526e-01,
          7.68256411e-02, 6.82910159e-02, 3.40189151e-02, 3.19446344e-03,
          9.46697369e-02, 2.84512490e-01, 1.82821751e-01, 6.37906487e-04,
          4.76379506e-03, 1.72521040e-01, 3.69442195e-01, 5.12009710e-02,
          6.37906487e-04, 0., 8.64192247e-02, 3.69442195e-01,
          3.69442195e-01, 1.61483604e-02, 0., 0., 1.11886673e-02,
          3.69442195e-01, 3.69442195e-01, 9.41846333e-03, 0., 0.,
          2.26267669e-02, 3.69442195e-01, 3.69442195e-01, 5.72202355e-03,
          0., 0., 3.81693654e-02, 2.32358471e-01, 2.49161541e-01,
          3.20020178e-03, 0., 1.46895589e-03, 3.71172458e-01,
          3.71172458e-01, 3.71172458e-01, 4.66828747e-03, 0., 0.,
          8.85984953e-03, 1.45608425e-01, 3.71172458e-01, 1.08819082e-02,
          0., 7.12670945e-03, 3.71172458e-01, 2.18602315e-01,
          3.47033828e-01, 1.46553153e-02, 0., 5.39462082e-02,
          4.64205354e-01, 1.24129049e-01, 2.27111988e-02, 1.77469687e-04,
          7.48725870e-05, 3.25177997e-01, 4.64205354e-01, 3.17470916e-02,
          1.78871525e-03, 5.89278946e-03, 1.35995317e-02, 1.70005579e-02,
          4.64205354e-01, 4.79174294e-02, 1.38489855e-02, 5.02945739e-04,
          0., 5.42275831e-02, 4.64205354e-01, 4.15816866e-02,
          4.46581049e-03, 1.17351208e-02, 2.63590924e-03, 4.72651541e-01,
          4.72651541e-01, 1.96467489e-02, 3.71282399e-02, 1.05031073e-01,
          1.30093157e-01, 3.19603592e-01, 1.61688820e-01, 1.32147921e-02,
          6.95589185e-02, 1.42034680e-01, 8.11707079e-02, 1.50364235e-01,
          4.72651541e-01, 1.22032575e-01, 7.67656118e-02, 1.87479898e-01,
          4.41344827e-02, 3.73506807e-02, 8.34039375e-02, 4.12167683e-02,
          7.34701306e-02, 1.78757489e-01, 8.60348269e-02, 1.30732298e-01,
          2.66234010e-01, 3.34768109e-02, 3.30220968e-01, 3.30220968e-01,
          1.95740253e-01, 5.93600608e-02, 8.67578909e-02, 1.73349325e-02,
          1.70155957e-01, 1.34206295e-01, 1.44220620e-01, 7.25697950e-02,
          1.61776796e-01, 8.12643915e-02, 1.40700907e-01, 3.30220968e-01,
          3.30220968e-01, 3.45387049e-02, 3.26063260e-02, 3.75159569e-02,
          3.30220968e-01, 3.30220968e-01, 2.72766083e-01, 1.15857631e-01,
          7.06848651e-02, 3.42469424e-01, 3.42469424e-01, 1.75159276e-02,
          4.36374024e-02, 1.64127469e-01, 1.10711366e-01, 3.42469424e-01,
          3.42469424e-01, 6.79028267e-03, 3.17912288e-02, 3.42469424e-01,
          8.04493800e-02, 9.44391862e-02, 6.13175444e-02, 3.53593975e-02,
          3.42469424e-01, 3.42469424e-01, 1.19637027e-01, 1.23626485e-01,
          3.64459157e-02, 2.00531371e-02, 2.50940531e-01, 2.68637538e-02,
          2.94666607e-02, 1.05973780e-01, 2.11648241e-01, 1.69761758e-02,
          3.61288898e-02, 3.51929143e-02, 6.30291164e-01, 8.39435980e-02,
          1.45470470e-01, 1.89522468e-02, 3.09809037e-02, 1.26296833e-01,
          4.19982672e-02, 1.89946163e-02, 2.37743743e-02, 5.07071726e-02,
          1.80613965e-01, 1.72838211e-01, 6.30291164e-01, 1.60723608e-02,
          1.64058786e-02, 7.01206550e-02, 1.41590104e-01, 1.50415255e-02,
          4.96850312e-01, 1.04692280e-02, 2.46738992e-03, 3.55468888e-04,
          4.56392940e-04, 1.49631687e-02, 4.96850312e-01, 2.41415482e-02,
          1.44906587e-03, 5.48983226e-03, 1.07950158e-03, 5.72489463e-02,
          4.96850312e-01, 2.12659757e-03, 2.29936311e-04, 1.61674828e-03,
          2.02735793e-03, 5.52287363e-02, 4.96850312e-01, 4.94996971e-03,
          1.73517840e-03, 6.91211596e-03, 4.93147352e-04, 2.89474074e-02,
          6.25949800e-01, 1.18039578e-01, 4.17810045e-02, 1.40191749e-01,
          3.66512872e-02, 1.61496028e-02, 9.42288265e-02, 6.86588511e-02,
          5.73490821e-02, 1.30064487e-01, 5.92036322e-02, 8.24908540e-02,
          6.25949800e-01, 2.64617447e-02, 6.12803660e-02, 2.06740469e-01,
          1.44855697e-02, 1.26397442e-02, 1.81613296e-01, 5.36531135e-02,
          7.26745799e-02, 1.97907612e-01, 1.90449394e-02, 1.41049679e-02,
          9.76660550e-02, 1.05408825e-01, 8.86475518e-02, 4.05301541e-01,
          2.03623980e-01, 3.13348183e-03, 5.05506573e-03, 1.47137204e-02,
          1.62321821e-01, 4.05301541e-01, 1.32049024e-01, 4.81008552e-02,
          3.28077376e-01, 9.14439335e-02, 5.22396751e-02, 4.05301541e-01,
          1.47552326e-01, 2.02347580e-02, 3.34439687e-02, 2.26536905e-03,
          1.40951592e-02, 4.05301541e-01, 2.83061653e-01 ]
      - [ 2.49199420e-01, 1.83943346e-01, 6.37726206e-03, 0., 0.,
          1.56331718e-01, 2.23742664e-01, 3.99358928e-01, 4.93300706e-02,
          0., 0., 2.26837248e-02, 3.83043021e-01, 6.75098151e-02,
          1.33853406e-04, 0., 2.44248356e-03, 3.99358928e-01,
          3.99358928e-01, 3.99358928e-01, 4.95300293e-02, 0.,
          9.17961588e-04, 1.75772458e-01, 6.72085881e-02, 4.31829542e-01,
          2.63655670e-02, 0., 0., 0., 1.48310408e-01, 4.31829542e-01,
          7.77948871e-02, 0., 0., 0., 7.11435527e-02, 4.31829542e-01,
          1.51951820e-01, 0., 0., 3.15480120e-03, 4.33785357e-02,
          4.31829542e-01, 4.31829542e-01, 0., 0., 0., 5.46449982e-02,
          4.45908040e-01, 5.88228069e-02, 0., 0., 0., 5.22073545e-02,
          4.45908040e-01, 3.00225746e-02, 1.22108744e-04, 4.06683503e-05,
          2.29161093e-03, 1.81977786e-02, 4.45908040e-01, 3.67897987e-01,
          0., 0., 0., 3.08708083e-02, 4.45908040e-01, 2.31273815e-01,
          2.26846011e-03, 2.84678419e-04, 2.37570074e-03, 2.79298097e-01,
          5.63049495e-01, 1.60290226e-02, 3.43002146e-03, 3.03584002e-02,
          7.43935704e-02, 8.99155214e-02, 8.66282880e-02, 3.85707384e-03,
          7.05759926e-03, 7.66450390e-02, 1.27633333e-01, 1.36816055e-01,
          5.63049495e-01, 3.23083669e-01, 6.22190461e-02, 5.03228866e-02,
          8.83259773e-02, 3.18914577e-02, 1.06225766e-01, 2.52512097e-02,
          6.31659701e-02, 1.96327344e-01, 2.12125942e-01, 2.37018447e-02,
          1.49998039e-01, 1.95333645e-01, 6.34735301e-02, 1.95465922e-01,
          2.26718351e-01, 0., 3.16154420e-01, 3.62251014e-01,
          3.14266056e-01, 4.22212929e-02, 3.74978743e-02, 2.15671267e-02,
          6.56481311e-02, 1.03679277e-01, 5.32125942e-02, 3.62251014e-01,
          3.62251014e-01, 5.58684431e-02, 3.25571597e-01, 2.06273794e-01,
          7.36431852e-02, 2.30830759e-01, 1.31208017e-01, 2.53477901e-01,
          1.82343218e-02, 5.51720448e-02, 8.83843750e-02, 2.56380346e-02,
          3.25893760e-01, 3.25893760e-01, 3.25893760e-01, 1.05739519e-01,
          1.51728643e-02, 3.87227796e-02, 2.89862722e-01, 8.06757361e-02,
          1.72110528e-01, 3.25893760e-01, 2.48063639e-01, 3.30288373e-02,
          1.82182029e-01, 3.25893760e-01, 3.25893760e-01, 1.80672452e-01,
          4.49771620e-02, 6.45772517e-02, 1.25270739e-01, 9.38111693e-02,
          3.09729189e-01, 1.17014535e-01, 1.86001620e-04, 2.52815499e-03,
          6.63880026e-03, 2.70513892e-01, 3.57901335e-01, 3.57901335e-01,
          0., 0., 0., 3.54265571e-01, 3.57901335e-01, 5.36887050e-02,
          1.30201143e-03, 4.54398058e-03, 4.34333971e-03, 3.57901335e-01,
          3.57901335e-01, 1.89410269e-01, 0., 0., 0., 2.00799733e-01,
          3.73325497e-01, 2.13537231e-01, 0., 0., 0., 1.39321312e-01,
          3.73325497e-01, 1.73605710e-01, 1.52946089e-03, 9.26867142e-05,
          5.57034684e-04, 3.73325497e-01, 3.73325497e-01, 1.26874223e-01,
          0., 0., 0., 3.73325497e-01, 3.73325497e-01, 9.18943360e-02,
          3.58476856e-04, 3.24904337e-03, 3.94674623e-03, 2.00316116e-01,
          4.72058535e-01, 3.05474102e-01, 4.11846898e-02, 1.33828642e-02,
          2.12155320e-02, 3.01336218e-02, 1.15726613e-01, 2.66154446e-02,
          6.13507889e-02, 1.13616996e-01, 4.71154489e-02, 4.72058535e-01,
          4.72058535e-01, 1.44593075e-01, 2.48840936e-02, 1.24952093e-01,
          9.99434739e-02, 8.17070156e-02, 1.16158262e-01, 1.36518739e-02,
          1.28465489e-01, 2.51807511e-01, 9.85167697e-02, 7.60384649e-02,
          2.81714853e-02, 4.09392035e-03, 6.11504987e-02, 3.63070220e-01,
          9.08679068e-02, 3.41100991e-01, 1.14261270e-01, 5.82845928e-03,
          3.73190804e-03, 1.39411524e-01, 1.48644820e-01, 2.07635656e-01,
          3.17197651e-01, 5.68082789e-03, 2.19605133e-01, 3.63070220e-01,
          4.52318378e-02, 3.63070220e-01, 3.63070220e-01, 7.99366448e-04,
          1.16088381e-02, 7.74552971e-02, 2.81697333e-01, 1.50360465e-01,
          3.58348668e-01, 2.43612230e-01, 6.19082786e-02, 3.83516378e-03,
          5.70954494e-02, 3.29988122e-01, 3.69837612e-01, 1.36668637e-01,
          1.06963841e-02, 8.51963833e-03, 4.13403893e-03, 1.99667424e-01,
          3.51307690e-01, 9.33835879e-02, 1.04265483e-02, 1.38937816e-01,
          2.71020710e-01, 1.03438839e-01, 3.69837612e-01, 3.18078607e-01,
          5.04360069e-03, 2.41788626e-02, 1.19052781e-02, 1.75685063e-01,
          3.60189348e-01, 1.50718078e-01, 6.10430632e-03, 7.13153102e-04,
          1.88562291e-04, 3.60189348e-01, 3.60189348e-01, 3.60189348e-01,
          3.35195251e-02, 0., 0., 2.00516526e-02, 2.91001707e-01,
          2.53181368e-01, 3.03244200e-02, 3.90072982e-03, 2.59772595e-03,
          3.45801637e-02, 3.60189348e-01, 3.60189348e-01, 1.08823277e-01,
          6.50121598e-03, 5.78938751e-03, 2.62221873e-01, 3.23369145e-01,
          3.43826622e-01, 1.06656170e-02, 0., 0., 2.12320551e-01,
          3.43826622e-01, 2.59806216e-01, 2.52250256e-03, 4.17878479e-03,
          1.93849846e-03, 1.75425466e-02, 3.43826622e-01, 3.43826622e-01,
          2.62609143e-02, 5.88967698e-04, 8.22742062e-04, 1.38424020e-02,
          3.43826622e-01, 3.43826622e-01, 4.71593719e-03, 1.82254240e-03,
          1.69059640e-04, 3.26291114e-01, 3.92573804e-01, 2.67419070e-01,
          6.25738576e-02, 1.70488134e-01, 5.11738509e-02, 2.37771403e-02,
          3.88618596e-02, 3.19529958e-02, 1.29471958e-01, 2.79205650e-01,
          5.05932383e-02, 2.20852494e-02, 3.92573804e-01, 3.92573804e-01,
          1.02838248e-01, 1.82509109e-01, 4.75419778e-03, 8.09019897e-03,
          1.14398189e-01, 6.51363879e-02, 1.47792041e-01, 3.68949741e-01,
          4.89772344e-03, 5.37867621e-02, 3.82663310e-01, 7.04008341e-02,
          1.16337478e-01, 1.74529433e-01, 1.33307269e-02, 3.55881393e-01,
          4.19216782e-01, 3.01876757e-02, 7.97259156e-03, 4.77376627e-03,
          5.34885563e-02, 2.61916388e-02, 4.19216782e-01, 1.84383884e-01,
          9.37754586e-02, 2.32219562e-01, 1.30136963e-03, 5.66042103e-02,
          4.19216782e-01, 1.97066456e-01, 1.26956794e-02, 0.,
          3.92652070e-03, 4.56642359e-02, 1.42172724e-01, 8.37051868e-02,
          5.16236387e-02, 3.98586810e-01, 1.60041615e-01, 3.11472323e-02,
          3.98586810e-01, 2.28092596e-01, 1.31705459e-02, 8.60812292e-02,
          8.85918085e-03, 6.31640851e-02, 1.96282446e-01, 4.72917557e-02,
          1.23465419e-01, 3.98586810e-01, 1.97402723e-02, 3.98586810e-01,
          3.98586810e-01, 5.37547655e-02, 1.81291588e-02, 1.40522704e-01,
          8.26537516e-03, 4.70169149e-02, 3.56503129e-01, 1.66114688e-01,
          3.74023877e-02, 1.30567951e-02, 2.55761854e-02, 2.07257405e-01,
          3.56503129e-01, 3.56503129e-01, 1.01998895e-01, 2.17613224e-02,
          6.25108406e-02, 3.56503129e-01, 3.56503129e-01, 8.84229410e-03,
          2.97108642e-03, 4.26044641e-03, 3.40901017e-02, 3.56503129e-01,
          3.56503129e-01, 1.00713760e-01, 1.21263163e-02, 1.24614965e-02,
          7.27673396e-02, 2.88669728e-02, 4.61077690e-01, 2.39038482e-01,
          6.65096426e-03, 6.87208143e-04, 3.39016295e-03, 4.21811035e-03,
          4.61077690e-01, 2.45057896e-01, 8.87888193e-04, 3.64485823e-05,
          0., 5.49993962e-02, 4.61077690e-01, 7.20284209e-02,
          1.03698904e-03, 7.75313936e-04, 3.70690436e-03, 8.18810426e-03,
          4.61077690e-01, 1.36483535e-01, 3.65374071e-05, 0., 0., 0.,
          5.86706638e-01, 3.04998249e-01, 3.02400161e-02, 7.78832287e-02,
          0., 5.36792679e-03, 1.10453658e-01, 4.18550782e-02,
          4.58921529e-02, 1.78470135e-01, 0., 3.87083017e-03,
          5.86706638e-01, 3.05477411e-01, 2.54106801e-02, 4.67316173e-02,
          6.55976636e-03, 3.08934506e-03, 1.91798732e-01, 9.90134925e-02,
          6.63678870e-02, 1.02086358e-01, 1.09329438e-02, 2.01511830e-02,
          4.07402813e-01, 8.25958326e-02, 2.80300658e-02, 1.46870032e-01,
          0., 2.87874066e-03, 4.07402813e-01, 1.85450882e-01,
          4.29534027e-03, 0., 0., 2.87874066e-03, 4.07402813e-01,
          2.99209982e-01, 7.38938600e-02, 7.95929134e-02, 5.55446325e-03,
          4.11248620e-04, 4.07402813e-01, 4.07402813e-01, 2.60803737e-02,
          0., 0., 3.63423824e-02, 1.29304960e-01, 4.18468341e-02,
          9.79056284e-02, 1.11760199e-01, 4.80398955e-03, 3.97045523e-01,
          4.02195215e-01, 4.44888696e-02, 2.65718680e-02, 2.38537826e-02,
          1.91981867e-02, 2.54124235e-02, 4.02195215e-01, 1.29112214e-01,
          2.55383492e-01, 1.80968210e-01, 1.94143888e-03, 4.02195215e-01,
          4.02195215e-01, 1.35223120e-01, 6.45526797e-02, 2.21570265e-02,
          8.68706107e-02, 2.97410280e-01, 2.85685629e-01, 4.56207758e-03,
          6.29609823e-03, 3.54760922e-02, 7.52421319e-02, 2.05299035e-01,
          2.97410280e-01, 1.21079907e-01, 6.12451471e-02, 1.04790471e-01,
          7.58123770e-02, 2.97410280e-01, 2.97410280e-01, 1.26580913e-02,
          1.35387210e-02, 2.79956877e-01, 2.97410280e-01, 8.71941969e-02,
          2.97410280e-01, 1.57771975e-01, 1.59478515e-01, 2.97410280e-01,
          2.74456084e-01, 1.28194531e-02, 4.82611954e-01, 7.87841678e-02,
          1.00534949e-02, 8.46748892e-03, 2.05597980e-03, 2.93608452e-03,
          4.82611954e-01, 9.30841938e-02, 7.38734438e-04, 0., 0.,
          3.47562978e-04, 4.82611954e-01, 1.23992577e-01, 2.99840551e-02,
          6.20544702e-02, 5.61525766e-03, 1.93946250e-03, 4.82611954e-01,
          1.67728797e-01, 2.78362329e-03, 6.28366950e-04, 0.,
          1.56017430e-02, 6.27905071e-01, 1.25792816e-01, 5.95448259e-03,
          2.26839744e-02, 1.49892000e-02, 1.40947187e-02, 1.61077768e-01,
          3.91328894e-02, 3.21899317e-02, 6.27293438e-02, 2.95501631e-02,
          2.12852936e-02, 6.27905071e-01, 1.73626378e-01, 7.96204200e-04,
          5.31936996e-02, 1.84395928e-02, 2.67109480e-02, 3.06092620e-01,
          1.07018305e-02, 7.49321701e-03, 1.54127777e-01, 5.23195975e-02,
          4.54001091e-02, 3.60767454e-01, 2.34570920e-01, 7.19179288e-02,
          7.85234943e-02, 2.75089443e-02, 5.09106442e-02, 4.13195848e-01,
          4.13195848e-01, 2.45940052e-02, 0., 3.90687585e-03,
          1.52303562e-01, 4.13195848e-01, 3.86611260e-02, 1.93677973e-02,
          1.99241355e-01, 8.08302686e-02, 1.83190256e-01, 4.13195848e-01,
          7.29620233e-02, 5.48116164e-03, 0., 1.39794471e-02 ]
      - [ 1.79277584e-02, 4.53013957e-01, 4.40517776e-02, 4.01920732e-03,
          0., 4.43994440e-03, 1.30389594e-02, 4.53013957e-01,
          5.49617074e-02, 2.45151594e-02, 1.00462399e-01, 1.30389594e-02,
          2.65759856e-01, 4.53013957e-01, 4.08430956e-03, 0.,
          1.60147855e-03, 1.63354687e-02, 2.10023552e-01, 4.53013957e-01,
          3.09681613e-02, 6.65916055e-02, 1.80312768e-01, 7.28407502e-02,
          1.10383881e-02, 2.79837884e-02, 1.21045290e-02, 5.93846403e-02,
          4.65257734e-01, 1.10383881e-02, 1.57691247e-03, 0.,
          9.23024549e-04, 2.10801587e-01, 4.65257734e-01, 2.71889307e-02,
          5.23989014e-02, 5.43193966e-02, 2.41421163e-02, 9.07191113e-02,
          4.65257734e-01, 8.15038607e-02, 4.53983806e-03, 0.,
          3.44887376e-03, 1.73727587e-01, 4.65257734e-01, 1.68072641e-01,
          0., 0., 0., 1.42506465e-01, 3.18540126e-01, 1.40296482e-02, 0.,
          0., 0., 2.45744288e-01, 4.36469942e-01, 3.89461964e-02, 0., 0.,
          0., 2.16029271e-01, 4.36469942e-01, 3.86161171e-02, 0., 0., 0.,
          4.36469942e-01, 4.36469942e-01, 3.97050604e-02, 2.65707467e-02,
          4.93764542e-02, 3.50004584e-02, 1.90497398e-01, 4.00987238e-01,
          3.15481871e-02, 1.49739891e-01, 4.00987238e-01, 6.77757636e-02,
          1.12109520e-01, 2.24341944e-01, 7.93013256e-03, 8.32754150e-02,
          1.03385739e-01, 1.48126837e-02, 1.99886978e-01, 4.00987238e-01,
          4.00920436e-02, 2.91493297e-01, 4.00987238e-01, 2.60366164e-02,
          2.66832560e-02, 2.73975432e-01, 1.93746202e-02, 1.72234461e-01,
          4.54182386e-01, 4.88674864e-02, 1.07205762e-02, 3.28357960e-03,
          1.05781728e-04, 7.47123584e-02, 4.54182386e-01, 1.77835107e-01,
          1.02257570e-02, 0., 0., 2.35442296e-01, 4.54182386e-01,
          1.77286211e-02, 1.46606308e-03, 0., 4.11180500e-03,
          1.01244219e-01, 4.54182386e-01, 1.86250702e-01, 1.04255658e-02,
          0., 5.61888888e-03, 3.33848983e-01, 3.33848983e-01, 0., 0.,
          1.31871430e-02, 2.69728024e-02, 3.08371484e-01, 2.88523287e-01,
          2.54789013e-02, 1.01800151e-01, 1.99352115e-01, 1.78798735e-01,
          3.33848983e-01, 3.33848983e-01, 8.54987130e-02, 2.02096812e-02,
          2.62873825e-02, 3.58379893e-02, 2.36582920e-01, 1.51209220e-01,
          5.25669493e-02, 1.84791625e-01, 2.97163218e-01, 2.74106354e-01,
          4.14579660e-02, 1.61985140e-02, 1.73168145e-02, 9.41493884e-02,
          2.91198999e-01, 1.54224575e-01, 1.06856339e-02, 0.,
          2.47383071e-03, 1.22669786e-01, 4.00227457e-01, 2.55465001e-01,
          3.84827740e-02, 2.10752198e-03, 4.38139820e-03, 3.03933650e-01,
          3.41058820e-01, 2.47178540e-01, 1.82596836e-02, 0.,
          3.53404408e-04, 4.00227457e-01, 4.00227457e-01, 2.08963647e-01,
          1.07893640e-04, 0., 0., 1.04539499e-01, 4.04598057e-01,
