%YAML:1.0
---
opencv_ml_svm:
   format: 3
   svmType: C_SVC
   kernel:
      type: RBF
      gamma: 5.0624999999999998e-01
   C: 1.2500000000000000e+01
   term_criteria: { epsilon:1.1920928955078125e-07, iterations:1000 }
   var_count: 81
   class_count: 2
   class_labels: !!opencv-matrix
      rows: 2
      cols: 1
      dt: i
      data: [ 0, 1 ]
   sv_total: 268
   support_vectors:
      - [ 3.40939075e-01, 2.90952981e-01, 3.40939075e-01, 3.13470364e-01,
          3.40939075e-01, 3.40939075e-01, 3.40939075e-01, 3.40939075e-01,
          3.40939075e-01, 3.58470678e-01, 1.15342900e-01, 3.58470678e-01,
          3.58470678e-01, 3.58470678e-01, 3.35780084e-01, 3.15212607e-01,
          3.58470678e-01, 3.58470678e-01, 9.64773595e-02, 2.83938527e-01,
          3.60697955e-01, 3.60697955e-01, 3.60697955e-01, 3.60697955e-01,
          3.60697955e-01, 3.60697955e-01, 3.54752302e-01, 3.44817847e-01,
          2.68504202e-01, 3.44817847e-01, 3.44817847e-01, 3.44817847e-01,
          3.03586870e-01, 3.44817847e-01, 3.44817847e-01, 3.44817847e-01,
          3.46624732e-01, 1.88007921e-01, 3.46624732e-01, 3.46624732e-01,
          3.46624732e-01, 3.46624732e-01, 3.46624732e-01, 3.46624732e-01,
          3.46624732e-01, 1.63108870e-01, 3.89797151e-01, 3.89797151e-01,
          3.89797151e-01, 2.05205739e-01, 1.25463083e-01, 3.89797151e-01,
          3.89797151e-01, 3.89797151e-01, 1.53156459e-01, 4.38419104e-01,
          4.38419104e-01, 2.95345813e-01, 2.23320782e-01, 1.38118178e-01,
          4.38419104e-01, 4.36774284e-01, 2.20408633e-01, 2.55098611e-01,
          3.55740577e-01, 3.75996083e-01, 3.33212823e-01, 3.12980890e-01,
          1.73599795e-01, 3.75996083e-01, 3.75996083e-01, 3.75996083e-01,
          8.14573839e-02, 1.47106811e-01, 4.53735679e-01, 4.53735679e-01,
          7.34327734e-02, 7.12856129e-02, 4.45821643e-01, 4.53735679e-01,
          3.74610394e-01 ]
      - [ 3.35739344e-01, 3.35739344e-01, 3.35739344e-01, 3.35739344e-01,
          3.35739344e-01, 3.35739344e-01, 3.35739344e-01, 3.08023095e-01,
          3.35739344e-01, 3.87569875e-01, 3.87569875e-01, 3.87569875e-01,
          1.40993223e-01, 3.13030899e-01, 3.87569875e-01, 3.87569875e-01,
          2.52987981e-01, 2.51407415e-01, 4.45749283e-01, 4.45749283e-01,
          3.12147647e-01, 7.04249293e-02, 2.29471594e-01, 4.45749283e-01,
          4.45749283e-01, 1.71606898e-01, 1.27576783e-01, 3.75686347e-01,
          3.75686347e-01, 3.75686347e-01, 2.15683624e-01, 2.90397316e-01,
          3.75686347e-01, 3.75686347e-01, 2.11067885e-01, 3.39331388e-01,
          4.40289319e-01, 4.40289319e-01, 3.57022315e-01, 7.27793127e-02,
          2.51746297e-01, 4.40289319e-01, 4.40289319e-01, 1.24194972e-01,
          9.28491727e-02, 4.63128626e-01, 4.63128626e-01, 1.96008816e-01,
          6.50417805e-02, 2.75996119e-01, 4.63128626e-01, 4.63128626e-01,
          1.04800679e-01, 8.72614831e-02, 4.41631645e-01, 4.41631645e-01,
          3.47726971e-01, 9.42980722e-02, 2.53680676e-01, 4.41631645e-01,
          4.41631645e-01, 1.14519328e-01, 9.03308913e-02, 4.53161448e-01,
          4.53161448e-01, 1.96244687e-01, 5.64625897e-02, 3.28510463e-01,
          4.53161448e-01, 4.53161448e-01, 1.36166230e-01, 7.67602026e-02,
          4.43306774e-01, 4.43306774e-01, 1.54924154e-01, 7.85980523e-02,
          3.92388731e-01, 4.43306774e-01, 4.43306774e-01, 7.94703811e-02,
          1.37930065e-01 ]
      - [ 3.32778692e-01, 3.32778692e-01, 3.32778692e-01, 3.32778692e-01,
          3.32778692e-01, 3.32778692e-01, 3.32778692e-01, 3.32778692e-01,
          3.32778692e-01, 3.32778692e-01, 3.32778692e-01, 3.32778692e-01,
          3.32778692e-01, 3.32778692e-01, 3.32778692e-01, 3.32778692e-01,
          3.32778692e-01, 3.32778692e-01, 3.33720416e-01, 3.33720416e-01,
          3.25132340e-01, 3.33720416e-01, 3.33720416e-01, 3.33720416e-01,
          3.33720416e-01, 3.33720416e-01, 3.33720416e-01, 3.42811137e-01,
          3.42811137e-01, 2.37527058e-01, 3.42811137e-01, 3.42811137e-01,
          3.42811137e-01, 3.42811137e-01, 3.42811137e-01, 3.42811137e-01,
          3.35034043e-01, 3.35034043e-01, 3.14117879e-01, 3.35034043e-01,
          3.35034043e-01, 3.35034043e-01, 3.35034043e-01, 3.35034043e-01,
          3.35034043e-01, 3.44117522e-01, 3.44117522e-01, 2.89663911e-01,
          2.89376080e-01, 3.44117522e-01, 3.44117522e-01, 3.44117522e-01,
          3.44117522e-01, 3.44117522e-01, 4.21883821e-01, 4.21883821e-01,
          1.25424832e-01, 1.17365904e-01, 2.11299330e-01, 4.21883821e-01,
          4.21883821e-01, 3.75434667e-01, 2.62177557e-01, 3.35331172e-01,
          3.35331172e-01, 3.12354147e-01, 3.34597349e-01, 3.35331172e-01,
          3.35331172e-01, 3.35331172e-01, 3.35331172e-01, 3.35331172e-01,
          3.32778692e-01, 3.32778692e-01, 3.32778692e-01, 3.32778692e-01,
          3.32778692e-01, 3.32778692e-01, 3.32778692e-01, 3.32778692e-01,
          3.32778692e-01 ]
      - [ 1.97308287e-01, 3.80258590e-01, 3.80258590e-01, 1.61955595e-01,
          2.51915097e-01, 3.80258590e-01, 3.80258590e-01, 3.80258590e-01,
          3.80258590e-01, 3.76467347e-01, 4.23778027e-01, 4.23778027e-01,
          1.40421748e-01, 1.59990877e-01, 4.23778027e-01, 4.23778027e-01,
          2.31800199e-01, 1.91418961e-01, 3.55630517e-01, 3.55630517e-01,
          3.41332972e-01, 2.00094789e-01, 2.93357909e-01, 3.55630517e-01,
          3.55630517e-01, 3.55630517e-01, 3.48534912e-01, 3.05691689e-01,
          3.61290276e-01, 3.61290276e-01, 2.64997452e-01, 3.33015174e-01,
          3.61290276e-01, 3.61290276e-01, 3.61290276e-01, 2.62995958e-01,
          3.49734187e-01, 3.49734187e-01, 3.49734187e-01, 2.46088058e-01,
          3.49734187e-01, 3.49734187e-01, 3.49734187e-01, 2.82397509e-01,
          3.49734187e-01, 2.72836477e-01, 3.38180035e-01, 2.77404308e-01,
          3.56163144e-01, 3.56163144e-01, 3.56163144e-01, 3.56163144e-01,
          3.56163144e-01, 3.10518920e-01, 3.04411978e-01, 3.37735504e-01,
          3.37735504e-01, 3.24810535e-01, 3.37735504e-01, 3.37735504e-01,
          3.37735504e-01, 3.37735504e-01, 3.37735504e-01, 2.15049356e-01,
          3.54231030e-01, 3.54231030e-01, 3.54231030e-01, 3.54231030e-01,
          3.54231030e-01, 3.54231030e-01, 3.49679410e-01, 2.73973018e-01,
          8.73732716e-02, 1.13950014e-01, 1.77797735e-01, 4.47365820e-01,
          4.47365820e-01, 4.47365820e-01, 4.47365820e-01, 3.56775463e-01,
          1.24367550e-01 ]
      - [ 3.32778692e-01, 3.32778692e-01, 3.32778692e-01, 3.32778692e-01,
          3.32778692e-01, 3.32778692e-01, 3.32778692e-01, 3.32778692e-01,
          3.32778692e-01, 3.32778692e-01, 3.32778692e-01, 3.32778692e-01,
          3.32778692e-01, 3.32778692e-01, 3.32778692e-01, 3.32778692e-01,
          3.32778692e-01, 3.32778692e-01, 3.38118643e-01, 3.38118643e-01,
          3.38118643e-01, 3.38118643e-01, 3.38118643e-01, 3.38118643e-01,
          3.38118643e-01, 3.30282122e-01, 2.95408070e-01, 3.32778692e-01,
          3.32778692e-01, 3.32778692e-01, 3.32778692e-01, 3.32778692e-01,
          3.32778692e-01, 3.32778692e-01, 3.32778692e-01, 3.32778692e-01,
          3.34676027e-01, 3.34676027e-01, 3.34676027e-01, 3.34676027e-01,
          3.34676027e-01, 3.17161947e-01, 3.34676027e-01, 3.34676027e-01,
          3.34676027e-01, 3.43773454e-01, 3.43773454e-01, 3.43773454e-01,
          3.31013203e-01, 3.15182358e-01, 3.43773454e-01, 3.43773454e-01,
          3.43773454e-01, 2.80311197e-01, 3.32778692e-01, 3.32778692e-01,
          3.32778692e-01, 3.32778692e-01, 3.32778692e-01, 3.32778692e-01,
          3.32778692e-01, 3.32778692e-01, 3.32778692e-01, 3.35545242e-01,
          3.35545242e-01, 3.35545242e-01, 3.35545242e-01, 3.35545242e-01,
          3.35545242e-01, 3.35545242e-01, 3.09713602e-01, 3.35545242e-01,
          4.12431687e-01, 4.12431687e-01, 4.12431687e-01, 1.87780589e-01,
          1.93740487e-01, 4.12431687e-01, 4.12431687e-01, 1.67071953e-01,
          2.11353734e-01 ]
      - [ 8.46904293e-02, 2.19125465e-01, 4.16193068e-01, 4.16193068e-01,
          4.16193068e-01, 2.12940991e-01, 4.16193068e-01, 4.16193068e-01,
          1.70958683e-01, 2.73809373e-01, 3.97654146e-01, 3.97654146e-01,
          3.97654146e-01, 2.48239905e-01, 1.90435842e-01, 3.97654146e-01,
          3.97654146e-01, 1.80340856e-01, 1.92414552e-01, 4.23054844e-01,
          4.23054844e-01, 4.23054844e-01, 8.89674872e-02, 7.59218410e-02,
          4.23054844e-01, 4.23054844e-01, 2.24041030e-01, 3.61951739e-01,
          1.75626382e-01, 3.61951739e-01, 3.61951739e-01, 3.61951739e-01,
          2.20171899e-01, 3.61951739e-01, 3.61951739e-01, 3.61951739e-01,
          3.52355778e-01, 3.52355778e-01, 3.52355778e-01, 3.52355778e-01,
          3.52355778e-01, 2.18892053e-01, 3.52355778e-01, 3.52355778e-01,
          2.81928539e-01, 2.63879985e-01, 3.95497799e-01, 3.95497799e-01,
          3.95497799e-01, 3.06544989e-01, 1.81519955e-01, 3.95497799e-01,
          3.95497799e-01, 1.31925926e-01, 3.62789571e-01, 1.53236791e-01,
          3.62789571e-01, 3.62789571e-01, 3.62789571e-01, 2.27112547e-01,
          3.62789571e-01, 3.62789571e-01, 3.62789571e-01, 3.46946478e-01,
          3.40913266e-01, 3.46946478e-01, 3.46946478e-01, 3.46946478e-01,
          1.94187552e-01, 3.46946478e-01, 3.46946478e-01, 3.46946478e-01,
          1.98296934e-01, 2.24315137e-01, 3.94426912e-01, 3.94426912e-01,
          3.94426912e-01, 2.67620593e-01, 3.94426912e-01, 3.94426912e-01,
          2.38614991e-01 ]
      - [ 3.52119327e-01, 3.52119327e-01, 3.52119327e-01, 3.52119327e-01,
          3.52119327e-01, 1.97516128e-01, 3.33136350e-01, 3.20252240e-01,
          3.52119327e-01, 2.51464903e-01, 3.41568559e-01, 3.41568559e-01,
          3.41568559e-01, 3.41568559e-01, 3.41568559e-01, 3.41568559e-01,
          3.41568559e-01, 3.41568559e-01, 4.29024667e-01, 4.67323780e-01,
          1.94742829e-01, 1.04758620e-01, 1.67524382e-01, 4.67323780e-01,
          4.67323780e-01, 2.34459803e-01, 1.55436441e-01, 3.32778692e-01,
          3.32778692e-01, 3.32778692e-01, 3.32778692e-01, 3.32778692e-01,
          3.32778692e-01, 3.32778692e-01, 3.32778692e-01, 3.32778692e-01,
          3.04858953e-01, 4.29165214e-01, 2.27382764e-01, 2.00086698e-01,
          2.50289261e-01, 4.29165214e-01, 4.29165214e-01, 3.88774663e-01,
          2.11418301e-01, 4.60566252e-01, 4.60566252e-01, 2.14130461e-01,
          9.82204899e-02, 1.08060926e-01, 4.60566252e-01, 4.60566252e-01,
          1.97147578e-01, 2.02166095e-01, 3.51282746e-01, 3.51282746e-01,
          3.51282746e-01, 3.51282746e-01, 3.48942906e-01, 3.51282746e-01,
          3.51282746e-01, 3.15644890e-01, 1.86279610e-01, 4.41442102e-01,
          4.85567957e-01, 1.16810091e-01, 8.68429095e-02, 1.07023947e-01,
          4.85567957e-01, 4.85567957e-01, 2.02600688e-01, 1.38791069e-01,
          3.33749086e-01, 3.33749086e-01, 3.33749086e-01, 3.33749086e-01,
          3.24896455e-01, 3.33749086e-01, 3.33749086e-01, 3.33749086e-01,
          3.33749086e-01 ]
      - [ 3.43391776e-01, 3.43391776e-01, 3.43391776e-01, 2.30706841e-01,
          3.43391776e-01, 3.43391776e-01, 3.43391776e-01, 3.43391776e-01,
          3.43391776e-01, 3.40818375e-01, 3.40818375e-01, 3.40818375e-01,
          3.40818375e-01, 3.40818375e-01, 3.40818375e-01, 3.40818375e-01,
          2.59494424e-01, 3.40818375e-01, 3.56094509e-01, 3.56094509e-01,
          2.78896928e-01, 1.76169783e-01, 3.56094509e-01, 3.56094509e-01,
          3.56094509e-01, 3.56094509e-01, 3.56094509e-01, 3.32778692e-01,
          3.32778692e-01, 3.32778692e-01, 3.32778692e-01, 3.32778692e-01,
          3.32778692e-01, 3.32778692e-01, 3.32778692e-01, 3.32778692e-01,
          3.37840647e-01, 3.37840647e-01, 3.37840647e-01, 2.89022774e-01,
          3.37840647e-01, 3.37840647e-01, 3.37840647e-01, 3.37840647e-01,
          3.37840647e-01, 3.53190958e-01, 3.53190958e-01, 3.53190958e-01,
          1.94034398e-01, 3.53190958e-01, 2.92600662e-01, 3.53190958e-01,
          3.53190958e-01, 3.53190958e-01, 3.32778692e-01, 3.32778692e-01,
          3.32778692e-01, 3.32778692e-01, 3.32778692e-01, 3.32778692e-01,
          3.32778692e-01, 3.32778692e-01, 3.32778692e-01, 3.38771313e-01,
          3.38771313e-01, 3.38771313e-01, 3.38771313e-01, 3.38771313e-01,
          2.80155301e-01, 3.38771313e-01, 3.38771313e-01, 3.38771313e-01,
          2.51741886e-01, 1.93698689e-01, 3.74034166e-01, 2.94741094e-01,
          4.14556324e-01, 4.14556324e-01, 4.14556324e-01, 2.93789715e-01,
          2.57504046e-01 ]
      - [ 3.80789340e-01, 3.30027133e-01, 2.06475824e-01, 8.72505233e-02,
          3.34709316e-01, 3.80789340e-01, 3.80789340e-01, 3.80789340e-01,
          3.80789340e-01, 3.51716429e-01, 3.51716429e-01, 3.51716429e-01,
          2.09900945e-01, 3.51716429e-01, 2.94936627e-01, 3.51716429e-01,
          3.51017326e-01, 3.51716429e-01, 3.98945779e-01, 3.98945779e-01,
          3.98945779e-01, 9.00624096e-02, 2.29236290e-01, 3.28548729e-01,
          3.98945779e-01, 3.98945779e-01, 1.77822903e-01, 3.52675050e-01,
          3.52675050e-01, 2.83606559e-01, 3.52675050e-01, 3.52675050e-01,
          2.13039562e-01, 3.52675050e-01, 3.52675050e-01, 3.52675050e-01,
          3.53280306e-01, 3.53280306e-01, 3.53280306e-01, 2.10772514e-01,
          3.53280306e-01, 2.79993922e-01, 3.53280306e-01, 3.53280306e-01,
          3.53280306e-01, 3.77503425e-01, 3.77503425e-01, 3.77503425e-01,
          1.48852482e-01, 2.62460232e-01, 3.77503425e-01, 3.77503425e-01,
          3.77503425e-01, 2.23904341e-01, 3.64904732e-01, 1.59627318e-01,
          2.15116322e-01, 3.74031663e-01, 3.74031663e-01, 3.74031663e-01,
          3.74031663e-01, 3.74031663e-01, 3.03073436e-01, 3.56486857e-01,
          3.56486857e-01, 3.56486857e-01, 3.56486857e-01, 3.42956036e-01,
          3.56486857e-01, 3.56486857e-01, 2.66801506e-01, 2.12459624e-01,
          2.44731054e-01, 4.03175890e-01, 4.03175890e-01, 3.25741589e-01,
          2.28372276e-01, 4.03175890e-01, 4.03175890e-01, 2.87950963e-01,
          2.11420760e-01 ]
      - [ 4.16455954e-01, 8.81185457e-02, 5.15574627e-02, 1.29206732e-01,
          4.16455954e-01, 3.18660885e-01, 4.16455954e-01, 4.16455954e-01,
          4.16455954e-01, 3.14869583e-01, 3.70151043e-01, 3.70151043e-01,
          3.70151043e-01, 2.12114945e-01, 3.29637557e-01, 3.70151043e-01,
          3.70151043e-01, 2.41757065e-01, 3.40175182e-01, 3.56209606e-01,
          3.56209606e-01, 3.48112404e-01, 2.74072558e-01, 2.49749914e-01,
          3.56209606e-01, 3.56209606e-01, 3.38389903e-01, 2.60807812e-01,
          3.19846839e-01, 3.28874975e-01, 1.37213051e-01, 4.00803000e-01,
          3.07166100e-01, 4.00803000e-01, 4.00803000e-01, 3.49866927e-01,
          1.89896464e-01, 4.03311938e-01, 4.03311938e-01, 3.90845418e-01,
          2.34498829e-01, 2.64125437e-01, 4.03311938e-01, 3.87329340e-01,
          2.10695639e-01, 2.63830453e-01, 4.11508054e-01, 4.11508054e-01,
          2.75647759e-01, 2.57602870e-01, 2.83378392e-01, 4.11508054e-01,
          3.74813616e-01, 2.34812021e-01, 2.47619867e-01, 2.51001775e-01,
          2.57458061e-01, 1.19994543e-01, 1.76046029e-01, 4.31609690e-01,
          4.44142431e-01, 4.44142431e-01, 4.22798574e-01, 2.31724530e-01,
          4.27740306e-01, 4.27740306e-01, 2.76197881e-01, 1.64079815e-01,
          2.20170602e-01, 4.27740306e-01, 4.27740306e-01, 2.41870627e-01,
          3.62527460e-01, 4.53958660e-01, 4.53958660e-01, 1.65684432e-01,
          1.33056000e-01, 2.37210244e-01, 4.53958660e-01, 3.13648254e-01,
          2.14487389e-01 ]
      - [ 3.81613702e-01, 2.89375603e-01, 3.24616224e-01, 2.06774801e-01,
          3.58168900e-01, 2.31336862e-01, 3.81613702e-01, 3.81613702e-01,
          3.81613702e-01, 3.48732591e-01, 3.48732591e-01, 3.48732591e-01,
          3.48732591e-01, 3.48732591e-01, 3.04951191e-01, 3.48732591e-01,
          2.28515998e-01, 3.48732591e-01, 4.05052722e-01, 4.05052722e-01,
          2.66588688e-01, 2.73826003e-01, 3.02064091e-01, 2.19076216e-01,
          4.05052722e-01, 4.05052722e-01, 2.33228341e-01, 3.46557975e-01,
          3.46557975e-01, 1.88992321e-01, 3.46557975e-01, 3.46557975e-01,
          3.46557975e-01, 3.46557975e-01, 3.46557975e-01, 3.46557975e-01,
          3.55123252e-01, 3.55123252e-01, 3.55123252e-01, 3.00602198e-01,
          3.55123252e-01, 2.94253081e-01, 3.55123252e-01, 2.50659436e-01,
          3.55123252e-01, 3.58902335e-01, 3.58902335e-01, 3.58902335e-01,
          2.98023075e-01, 3.51416498e-01, 3.03686827e-01, 3.58902335e-01,
          3.58902335e-01, 2.18684480e-01, 3.46084356e-01, 3.46084356e-01,
          2.07845837e-01, 3.46084356e-01, 3.46084356e-01, 3.46084356e-01,
          3.46084356e-01, 3.46084356e-01, 3.39001119e-01, 3.66235107e-01,
          3.66235107e-01, 3.66235107e-01, 3.66235107e-01, 1.91999152e-01,
          3.66235107e-01, 3.66235107e-01, 2.29398116e-01, 3.19507033e-01,
          4.19647306e-01, 4.19647306e-01, 2.93161899e-01, 1.84523031e-01,
          2.76071310e-01, 4.19647306e-01, 4.19647306e-01, 1.67216778e-01,
          2.59273767e-01 ]
      - [ 3.36141050e-01, 3.36141050e-01, 3.18492174e-01, 3.22906435e-01,
          3.36141050e-01, 3.36141050e-01, 3.36141050e-01, 3.36141050e-01,
          3.36141050e-01, 3.34320515e-01, 3.34320515e-01, 3.34320515e-01,
          3.34320515e-01, 3.34320515e-01, 3.23943973e-01, 3.34320515e-01,
          3.30648780e-01, 3.34320515e-01, 4.02262449e-01, 4.02262449e-01,
          2.23269209e-01, 1.21714830e-01, 2.46280879e-01, 4.02262449e-01,
          4.02262449e-01, 3.33246291e-01, 3.35186511e-01, 3.15018415e-01,
          3.40575337e-01, 1.84038594e-01, 3.52934211e-01, 3.52934211e-01,
          3.52934211e-01, 3.52934211e-01, 3.52934211e-01, 3.52934211e-01,
          3.37927490e-01, 3.37927490e-01, 3.37927490e-01, 3.37927490e-01,
          3.37927490e-01, 2.88207859e-01, 3.37927490e-01, 3.37927490e-01,
          3.37927490e-01, 3.77051204e-01, 3.77051204e-01, 3.77051204e-01,
          1.74881697e-01, 1.76590845e-01, 3.23789954e-01, 3.77051204e-01,
          3.77051204e-01, 3.44654948e-01, 1.91229478e-01, 2.36645311e-01,
          3.04123044e-01, 3.67710441e-01, 3.67710441e-01, 3.67710441e-01,
          3.67710441e-01, 3.67710441e-01, 3.67710441e-01, 3.31785053e-01,
          3.94936770e-01, 3.94936770e-01, 3.94936770e-01, 2.93931276e-01,
          3.22671324e-01, 2.28428990e-01, 1.59471631e-01, 3.87201309e-01,
          4.14490312e-01, 4.24540520e-01, 4.24540520e-01, 1.72104225e-01,
          1.45853698e-01, 4.24540520e-01, 4.24540520e-01, 1.31868184e-01,
          1.86375991e-01 ]
      - [ 3.35187495e-01, 3.35187495e-01, 3.35187495e-01, 3.35187495e-01,
          3.12803268e-01, 3.35187495e-01, 3.35187495e-01, 3.35187495e-01,
          3.35187495e-01, 3.90426964e-01, 3.90426964e-01, 3.49471182e-01,
          1.49672925e-01, 1.93506286e-01, 3.90426964e-01, 3.90426964e-01,
          3.90426964e-01, 2.27940381e-01, 2.70485610e-01, 4.55367476e-01,
          4.50169206e-01, 7.91984871e-02, 8.32121372e-02, 2.61367232e-01,
          4.55367476e-01, 4.55367476e-01, 1.26683518e-01, 3.40446472e-01,
          3.40446472e-01, 3.40446472e-01, 3.40446472e-01, 3.32793385e-01,
          3.40446472e-01, 3.40446472e-01, 3.40446472e-01, 2.72984385e-01,
          4.66921151e-01, 4.66921151e-01, 2.80999154e-01, 8.30518082e-02,
          1.10807918e-01, 4.66921151e-01, 4.66921151e-01, 1.37619659e-01,
          7.87345618e-02, 3.56824040e-01, 4.10410553e-01, 4.10410553e-01,
          4.72113602e-02, 7.09736794e-02, 4.10410553e-01, 4.10410553e-01,
          4.10410553e-01, 1.38298169e-01, 4.39482212e-01, 4.39482212e-01,
          3.85909647e-01, 1.10561445e-01, 1.91868827e-01, 4.39482212e-01,
          4.39482212e-01, 1.14239767e-01, 1.09622084e-01, 4.78371441e-01,
          4.78371441e-01, 2.16399521e-01, 5.39628565e-02, 1.24647439e-01,
          4.78371441e-01, 4.78371441e-01, 8.88416469e-02, 8.18200782e-02,
          3.48588943e-01, 3.48588943e-01, 3.48588943e-01, 2.23982885e-01,
          3.09433609e-01, 3.48588943e-01, 3.48588943e-01, 3.48588943e-01,
          3.48588943e-01 ]
      - [ 3.90949488e-01, 3.90949488e-01, 3.90949488e-01, 9.14401859e-02,
          9.37062725e-02, 3.90949488e-01, 3.90949488e-01, 3.90949488e-01,
          2.48803660e-01, 3.35803866e-01, 3.35803866e-01, 3.35803866e-01,
          3.35803866e-01, 3.35803866e-01, 3.07458639e-01, 3.35803866e-01,
          3.35803866e-01, 3.35803866e-01, 1.15728937e-01, 1.76801592e-01,
          4.57104892e-01, 4.57104892e-01, 2.13547632e-01, 1.53091639e-01,
          4.57104892e-01, 4.57104892e-01, 2.14390129e-01, 3.32778692e-01,
          3.32778692e-01, 3.32778692e-01, 3.32778692e-01, 3.32778692e-01,
          3.32778692e-01, 3.32778692e-01, 3.32778692e-01, 3.32778692e-01,
          3.40293765e-01, 2.64955103e-01, 3.40293765e-01, 3.40293765e-01,
          3.40293765e-01, 3.40293765e-01, 3.40293765e-01, 3.40293765e-01,
          3.40293765e-01, 2.33871847e-01, 4.03471857e-01, 4.03471857e-01,
          2.60148972e-01, 2.27450296e-01, 2.67720789e-01, 4.03471857e-01,
          4.03471857e-01, 3.14689785e-01, 9.97425988e-02, 2.57631987e-01,
          4.20419216e-01, 4.20419216e-01, 1.29252642e-01, 1.37875035e-01,
          4.20419216e-01, 4.20419216e-01, 4.20419216e-01, 4.65792641e-02,
          1.91866472e-01, 4.68928725e-01, 4.68928725e-01, 1.96377382e-01,
          1.54965252e-01, 4.68928725e-01, 4.68928725e-01, 1.19075760e-01,
          3.05618495e-01, 4.09454674e-01, 4.09454674e-01, 3.28713655e-01,
          1.89757764e-01, 2.32163101e-01, 4.09454674e-01, 4.09454674e-01,
          1.84211940e-01 ]
      - [ 3.67290348e-01, 3.56944829e-01, 3.16010505e-01, 3.67290348e-01,
          3.67290348e-01, 1.62097335e-01, 2.65337676e-01, 3.64376009e-01,
          3.67290348e-01, 3.62710118e-01, 2.70334542e-01, 3.62710118e-01,
          3.62710118e-01, 3.55561197e-01, 8.67179409e-02, 3.62710118e-01,
          3.62710118e-01, 3.62710118e-01, 8.23283866e-02, 9.13012475e-02,
          4.40931708e-01, 4.40931708e-01, 1.51056007e-01, 5.19707054e-02,
          4.21045870e-01, 4.40931708e-01, 4.40931708e-01, 3.48863930e-01,
          2.38281220e-01, 1.68835893e-01, 4.37730938e-01, 4.37730938e-01,
          4.37730938e-01, 2.39443466e-01, 2.81008035e-01, 2.78413713e-01,
          3.86480182e-01, 3.44465137e-01, 4.18469965e-01, 4.18469965e-01,
          4.18469965e-01, 3.01713675e-01, 1.71527177e-01, 1.75536960e-01,
          2.26228371e-01, 1.98088527e-01, 2.91191936e-01, 3.53482872e-01,
          3.53482872e-01, 3.53482872e-01, 3.53482872e-01, 3.53482872e-01,
          3.53482872e-01, 3.50336403e-01, 4.03292179e-01, 1.12963870e-01,
          2.13774100e-01, 2.69189626e-01, 4.03292179e-01, 2.27651089e-01,
          4.03292179e-01, 4.03292179e-01, 4.03292179e-01, 4.15811747e-01,
          3.42592686e-01, 4.15811747e-01, 4.15811747e-01, 4.15811747e-01,
          1.15384549e-01, 8.90724361e-03, 2.42169928e-02, 4.15811747e-01,
          3.91848564e-01, 3.91848564e-01, 3.91848564e-01, 3.91848564e-01,
          3.91848564e-01, 2.57232338e-01, 1.31339729e-01, 1.99268326e-01,
          3.24395299e-01 ]
      - [ 3.41737747e-01, 2.49616206e-01, 3.41737747e-01, 3.41737747e-01,
          3.41737747e-01, 3.41737747e-01, 3.41737747e-01, 3.41737747e-01,
          3.41737747e-01, 3.55400890e-02, 3.31425667e-02, 1.11410111e-01,
          8.46153200e-02, 4.91799265e-01, 4.91799265e-01, 4.91799265e-01,
          4.91799265e-01, 7.54230022e-02, 3.15959543e-01, 3.37898105e-01,
          3.50222081e-01, 3.50222081e-01, 2.40869910e-01, 3.50222081e-01,
          3.50222081e-01, 3.50222081e-01, 3.33465576e-01, 2.79406488e-01,
          1.63183555e-01, 9.92450714e-02, 1.15774244e-01, 2.95581490e-01,
          3.35256666e-01, 4.72944349e-01, 4.72944349e-01, 4.69263136e-01,
          2.26390243e-01, 3.95768024e-02, 5.70110306e-02, 3.30427773e-02,
          2.56390601e-01, 4.67022002e-01, 4.67022002e-01, 4.67022002e-01,
          4.67022002e-01, 3.94939244e-01, 4.03388083e-01, 4.03388083e-01,
          2.70285249e-01, 3.95217873e-02, 1.25627011e-01, 3.14177006e-01,
          4.03388083e-01, 4.03388083e-01, 1.67619094e-01, 1.87506706e-01,
          7.93858021e-02, 7.72611424e-02, 1.03944585e-01, 3.29822093e-01,
          5.94957948e-01, 5.94957948e-01, 3.01655263e-01, 4.77340847e-01,
          1.30757153e-01, 7.20430985e-02, 4.21584919e-02, 1.26801819e-01,
          2.08977431e-01, 4.77340847e-01, 4.77340847e-01, 4.77340847e-01,
          3.75350416e-01, 1.81996122e-01, 4.08178657e-01, 3.83513451e-01,
          6.31028488e-02, 6.63922355e-02, 4.08178657e-01, 4.08178657e-01,
          4.08178657e-01 ]
      - [ 3.33168268e-01, 3.33168268e-01, 3.33168268e-01, 3.33168268e-01,
          3.33168268e-01, 3.33168268e-01, 3.33168268e-01, 3.29639673e-01,
          3.33168268e-01, 3.47020596e-01, 3.47020596e-01, 3.46767515e-01,
          1.82543591e-01, 3.47020596e-01, 3.47020596e-01, 3.47020596e-01,
          3.47020596e-01, 3.47020596e-01, 3.40905666e-01, 3.40905666e-01,
          3.40905666e-01, 3.40905666e-01, 3.40905666e-01, 3.40905666e-01,
          3.40905666e-01, 3.40905666e-01, 2.58573860e-01, 3.40077251e-01,
          3.40780824e-01, 3.40780824e-01, 3.40780824e-01, 3.40780824e-01,
          3.40780824e-01, 2.60809541e-01, 3.40780824e-01, 3.40780824e-01,
          3.33936542e-01, 3.33936542e-01, 3.33936542e-01, 3.23349237e-01,
          3.33936542e-01, 3.33936542e-01, 3.33936542e-01, 3.33936542e-01,
          3.33936542e-01, 1.87651977e-01, 3.63223135e-01, 3.63223135e-01,
          3.63223135e-01, 3.63223135e-01, 3.63223135e-01, 3.63223135e-01,
          3.63223135e-01, 1.94011226e-01, 3.32778692e-01, 3.32778692e-01,
          3.32778692e-01, 3.32778692e-01, 3.32778692e-01, 3.32778692e-01,
          3.32778692e-01, 3.32778692e-01, 3.32778692e-01, 3.32778692e-01,
          3.32778692e-01, 3.32778692e-01, 3.32778692e-01, 3.32778692e-01,
          3.32778692e-01, 3.32778692e-01, 3.32778692e-01, 3.32778692e-01,
          3.67243052e-01, 3.67243052e-01, 3.67243052e-01, 2.04598084e-01,
          2.85244405e-01, 3.67243052e-01, 3.67243052e-01, 2.52787352e-01,
          3.67243052e-01 ]
      - [ 2.79426754e-01, 3.44678551e-01, 3.44678551e-01, 3.44678551e-01,
          3.25154305e-01, 3.16119999e-01, 3.44678551e-01, 3.44678551e-01,
          3.44678551e-01, 4.13070410e-01, 4.13070410e-01, 4.13070410e-01,
          3.51412624e-01, 3.92529190e-01, 3.51773739e-01, 1.79282680e-01,
          1.27790108e-01, 1.84945419e-01, 3.47942084e-01, 3.47942084e-01,
          3.47942084e-01, 2.06459597e-01, 3.26270014e-01, 3.47942084e-01,
          3.47942084e-01, 3.47942084e-01, 3.47942084e-01, 3.83684665e-01,
          3.83684665e-01, 3.83684665e-01, 1.90968141e-01, 2.36241728e-01,
          1.43541798e-01, 3.83684665e-01, 3.83684665e-01, 3.83684665e-01,
          3.29490155e-01, 3.61222625e-01, 3.61222625e-01, 3.61222625e-01,
          3.19951653e-01, 2.15062723e-01, 3.61222625e-01, 3.61222625e-01,
          2.94613928e-01, 1.81120947e-01, 3.95762712e-01, 3.95762712e-01,
          3.08106542e-01, 2.55749822e-01, 3.95762712e-01, 3.95762712e-01,
          3.95762712e-01, 1.40581623e-01, 2.69956797e-01, 3.55755180e-01,
          3.55755180e-01, 3.29881698e-01, 3.55755180e-01, 2.35322133e-01,
          3.55755180e-01, 3.55755180e-01, 3.55755180e-01, 2.64569134e-01,
          3.67727369e-01, 3.67727369e-01, 3.53703052e-01, 3.63188118e-01,
          3.02770317e-01, 3.67727369e-01, 3.67727369e-01, 1.91714242e-01,
          3.54225338e-01, 3.66804093e-01, 3.66804093e-01, 3.13661009e-01,
          3.09081167e-01, 2.61507839e-01, 3.66804093e-01, 3.66804093e-01,
          2.65288532e-01 ]
      - [ 3.48588288e-01, 3.73420328e-01, 3.73420328e-01, 1.23415448e-01,
          3.73420328e-01, 3.73420328e-01, 3.73420328e-01, 3.59940022e-01,
          1.80979416e-01, 4.00860876e-01, 4.00860876e-01, 3.12461436e-01,
          1.90869108e-01, 4.00860876e-01, 4.00860876e-01, 2.12245032e-01,
          1.15918390e-01, 4.00860876e-01, 3.47838134e-01, 3.47838134e-01,
          3.47838134e-01, 3.13182026e-01, 3.47838134e-01, 3.47838134e-01,
          3.47838134e-01, 3.47838134e-01, 2.26940840e-01, 3.63259047e-01,
          3.63259047e-01, 2.03771830e-01, 2.64041811e-01, 3.63259047e-01,
          3.63259047e-01, 3.63259047e-01, 3.05592597e-01, 3.63259047e-01,
          4.04441684e-01, 4.01897639e-01, 1.48294032e-01, 3.38336706e-01,
          4.04441684e-01, 4.04441684e-01, 1.61947370e-01, 1.32120356e-01,
          4.04441684e-01, 3.54139537e-01, 3.54139537e-01, 3.54139537e-01,
          1.35569230e-01, 3.54139537e-01, 3.54139537e-01, 3.54139537e-01,
          3.16510558e-01, 3.54139537e-01, 3.49255025e-01, 3.49255025e-01,
          3.49255025e-01, 2.20325023e-01, 3.49255025e-01, 3.49255025e-01,
          3.49255025e-01, 3.06779712e-01, 3.49255025e-01, 3.81303668e-01,
          3.81303668e-01, 2.36644521e-01, 1.30796760e-01, 3.81303668e-01,
          3.81303668e-01, 3.81303668e-01, 2.25227401e-01, 3.81303668e-01,
          3.51197511e-01, 3.51197511e-01, 3.51197511e-01, 9.88617167e-02,
          3.51197511e-01, 3.51197511e-01, 3.51197511e-01, 3.51197511e-01,
          3.51197511e-01 ]
      - [ 2.71764934e-01, 3.92785102e-01, 3.92785102e-01, 1.44857273e-01,
          3.07837367e-01, 3.92785102e-01, 3.92785102e-01, 3.92785102e-01,
          1.87274590e-01, 3.32778692e-01, 3.32778692e-01, 3.32778692e-01,
          3.32778692e-01, 3.32778692e-01, 3.32778692e-01, 3.32778692e-01,
          3.32778692e-01, 3.32778692e-01, 3.62295359e-01, 3.62295359e-01,
          3.55501145e-01, 1.27220690e-01, 3.62156987e-01, 3.62295359e-01,
          3.62295359e-01, 3.62295359e-01, 2.57617712e-01, 3.47088665e-01,
          3.47088665e-01, 3.47088665e-01, 2.41855547e-01, 3.47088665e-01,
          3.47088665e-01, 3.47088665e-01, 3.47088665e-01, 3.07805598e-01,
          3.44191283e-01, 3.44191283e-01, 3.44191283e-01, 2.20952362e-01,
          3.44191283e-01, 3.44191283e-01, 3.44191283e-01, 3.44191283e-01,
          3.44191283e-01, 3.45754266e-01, 3.45754266e-01, 3.45754266e-01,
          2.00443044e-01, 3.45754266e-01, 3.45754266e-01, 3.45754266e-01,
          3.45754266e-01, 3.45754266e-01, 3.61930490e-01, 3.61930490e-01,
          3.61930490e-01, 2.72072643e-01, 2.66697079e-01, 3.61930490e-01,
          3.61930490e-01, 3.61930490e-01, 2.55481809e-01, 3.61117452e-01,
          3.61117452e-01, 3.61117452e-01, 1.70367002e-01, 3.11727554e-01,
          3.61117452e-01, 3.61117452e-01, 3.61117452e-01, 2.96240300e-01,
          3.43036801e-01, 3.43036801e-01, 3.43036801e-01, 2.34901220e-01,
          3.43036801e-01, 3.43036801e-01, 3.43036801e-01, 3.43036801e-01,
          3.43036801e-01 ]
      - [ 3.36175114e-01, 3.36175114e-01, 3.36175114e-01, 3.36175114e-01,
          3.36175114e-01, 3.04189593e-01, 3.36175114e-01, 3.36175114e-01,
          3.36175114e-01, 2.04107106e-01, 1.39326230e-01, 4.10515606e-01,
          4.10515606e-01, 2.86678404e-01, 2.56674767e-01, 4.10515606e-01,
          4.10515606e-01, 3.35661739e-01, 2.46146813e-01, 2.18446583e-01,
          3.56196970e-01, 3.56196970e-01, 3.56196970e-01, 3.56196970e-01,
          3.56196970e-01, 3.56196970e-01, 3.56196970e-01, 3.43741268e-01,
          2.71799862e-01, 3.09166908e-01, 3.43741268e-01, 3.43741268e-01,
          3.43741268e-01, 3.43741268e-01, 3.43741268e-01, 3.43741268e-01,
          3.32778692e-01, 3.32778692e-01, 3.32778692e-01, 3.32778692e-01,
          3.32778692e-01, 3.32778692e-01, 3.32778692e-01, 3.32778692e-01,
          3.32778692e-01, 3.66706699e-01, 2.30503172e-01, 3.66706699e-01,
          2.36020237e-01, 3.66706699e-01, 2.84000516e-01, 3.66706699e-01,
          3.66706699e-01, 3.66706699e-01, 6.31689504e-02, 2.49128863e-01,
          4.30843681e-01, 4.28491473e-01, 2.92262286e-01, 2.46782079e-01,
          4.30843681e-01, 4.30843681e-01, 2.06974074e-01, 1.50636435e-01,
          2.60514498e-01, 3.84382457e-01, 3.84382457e-01, 3.84382457e-01,
          2.94842660e-01, 3.84382457e-01, 3.84382457e-01, 2.82699943e-01,
          1.02575533e-01, 1.07018076e-01, 4.74984497e-01, 4.74984497e-01,
          7.26450235e-02, 1.02506787e-01, 4.74984497e-01, 4.74984497e-01,
          2.34638304e-01 ]
      - [ 3.38838428e-01, 3.38838428e-01, 3.38838428e-01, 3.38838428e-01,
          3.38838428e-01, 2.79504627e-01, 3.38838428e-01, 3.38838428e-01,
          3.38838428e-01, 2.56411284e-01, 3.65250111e-01, 3.65250111e-01,
          3.65250111e-01, 3.35437238e-01, 2.02658698e-01, 3.65250111e-01,
          3.52457613e-01, 3.45193505e-01, 6.87435493e-02, 4.20141429e-01,
          4.20141429e-01, 4.20141429e-01, 3.21328759e-01, 3.62925947e-01,
          4.20141429e-01, 1.62453488e-01, 1.53764471e-01, 3.47028196e-01,
          3.47028196e-01, 3.47028196e-01, 3.47028196e-01, 3.47028196e-01,
          1.81945920e-01, 3.47028196e-01, 3.47028196e-01, 3.47028196e-01,
          3.43331635e-01, 2.58904576e-01, 3.43331635e-01, 3.43331635e-01,
          3.43331635e-01, 3.23112696e-01, 3.43331635e-01, 3.43331635e-01,
          3.43331635e-01, 1.13448203e-01, 4.13119048e-01, 4.13119048e-01,
          4.13119048e-01, 1.50286362e-01, 1.65045872e-01, 4.13119048e-01,
          4.13119048e-01, 2.82559276e-01, 1.54793024e-01, 3.81843179e-01,
          4.54085827e-01, 3.70563030e-01, 1.55103981e-01, 1.38829201e-01,
          4.54085827e-01, 4.54085827e-01, 1.62694797e-01, 3.45298856e-01,
          3.45298856e-01, 3.45298856e-01, 3.45298856e-01, 3.45298856e-01,
          2.06638709e-01, 3.45298856e-01, 3.45298856e-01, 3.45298856e-01,
          3.57059091e-01, 2.59502679e-01, 3.57059091e-01, 3.57059091e-01,
          3.57059091e-01, 1.91448838e-01, 3.57059091e-01, 3.57059091e-01,
          3.57059091e-01 ]
      - [ 9.05174315e-02, 5.33107698e-01, 5.33107698e-01, 8.09177384e-02,
          1.54939562e-01, 1.47428647e-01, 5.33107698e-01, 2.80758321e-01,
          5.25073148e-02, 3.15372467e-01, 3.92184556e-01, 3.92184556e-01,
          1.98589981e-01, 3.33472788e-01, 3.66882622e-01, 3.92184556e-01,
          2.77992338e-01, 2.69576222e-01, 3.57190102e-01, 3.57190102e-01,
          3.57190102e-01, 1.97067872e-01, 3.57190102e-01, 3.57190102e-01,
          3.57190102e-01, 2.53972739e-01, 3.57190102e-01, 3.51970106e-01,
          3.51970106e-01, 3.51970106e-01, 3.07397723e-01, 3.51970106e-01,
          3.51970106e-01, 3.51970106e-01, 3.15262049e-01, 2.43520543e-01,
          3.33210707e-01, 3.33210707e-01, 3.33210707e-01, 3.29295605e-01,
          3.33210707e-01, 3.33210707e-01, 3.33210707e-01, 3.33210707e-01,
          3.33210707e-01, 2.95326471e-01, 3.95854831e-01, 3.95854831e-01,
          1.63998112e-01, 3.95854831e-01, 3.95854831e-01, 3.95854831e-01,
          1.97156474e-01, 2.44041994e-01, 3.55978429e-01, 3.55978429e-01,
          3.55978429e-01, 2.23138139e-01, 2.68220395e-01, 3.38211119e-01,
          3.55978429e-01, 3.55978429e-01, 3.55978429e-01, 3.35577518e-01,
          3.35577518e-01, 3.35577518e-01, 3.35577518e-01, 3.35577518e-01,
          3.35577518e-01, 3.35577518e-01, 3.09433192e-01, 3.35577518e-01,
          2.68291175e-01, 4.49361861e-01, 4.49361861e-01, 1.23130225e-01,
          1.92870736e-01, 4.49361861e-01, 4.49361861e-01, 1.90357760e-01,
          1.65017232e-01 ]
      - [ 3.45197916e-01, 3.83561343e-01, 2.91967332e-01, 2.74202019e-01,
          2.64668584e-01, 2.40931794e-01, 3.83561343e-01, 3.83561343e-01,
          3.83561343e-01, 3.64982903e-01, 3.64982903e-01, 3.61789435e-01,
          2.16130242e-01, 3.64982903e-01, 2.11604327e-01, 3.64982903e-01,
          3.28497618e-01, 3.64982903e-01, 4.23280567e-01, 4.23280567e-01,
          4.23280567e-01, 3.99083458e-02, 1.06672384e-01, 2.76925832e-01,
          4.23280567e-01, 3.56436104e-01, 2.49798983e-01, 1.89089239e-01,
          3.99313211e-01, 3.99313211e-01, 2.96446741e-01, 3.99313211e-01,
          3.98269057e-01, 3.99313211e-01, 2.04072446e-01, 1.85223237e-01,
          3.80855531e-01, 3.80855531e-01, 3.80855531e-01, 3.27692479e-01,
          3.80855531e-01, 2.75098026e-01, 3.80855531e-01, 1.32893831e-01,
          2.64987081e-01, 2.94525087e-01, 4.68123108e-01, 4.01267707e-01,
          3.73725705e-02, 7.90743232e-02, 4.68123108e-01, 4.68123108e-01,
          2.80827314e-01, 6.02687709e-02, 2.36510739e-01, 3.80191386e-01,
          3.80191386e-01, 1.96475178e-01, 3.80191386e-01, 3.80191386e-01,
          3.80191386e-01, 3.02128404e-01, 2.96062350e-01, 2.65270978e-01,
          4.38827097e-01, 4.38827097e-01, 2.28107259e-01, 3.14711928e-01,
          4.21413720e-01, 4.38827097e-01, 5.97678237e-02, 1.23701245e-01,
          1.89174816e-01, 5.40656030e-01, 1.67091653e-01, 6.55420274e-02,
          2.02449247e-01, 5.40656030e-01, 5.40656030e-01, 8.48416165e-02,
          3.85703109e-02 ]
      - [ 3.63145024e-01, 3.63145024e-01, 3.63145024e-01, 3.63145024e-01,
          3.63145024e-01, 1.65938497e-01, 2.13813320e-01, 3.63145024e-01,
          3.63145024e-01, 2.79992789e-01, 3.38788122e-01, 3.38788122e-01,
          3.38788122e-01, 3.38788122e-01, 3.38788122e-01, 3.38788122e-01,
          3.38788122e-01, 3.38788122e-01, 3.39913100e-01, 3.39913100e-01,
          3.39913100e-01, 3.39913100e-01, 3.39913100e-01, 3.39913100e-01,
          3.39913100e-01, 2.68842846e-01, 3.39913100e-01, 3.94856095e-01,
          2.67213941e-01, 3.94856095e-01, 3.94856095e-01, 3.94856095e-01,
          6.13625683e-02, 9.77751091e-02, 3.63001525e-01, 3.94856095e-01,
          2.48754978e-01, 2.11111814e-01, 3.62176716e-01, 3.62176716e-01,
          3.62176716e-01, 3.62176716e-01, 3.20784330e-01, 3.62176716e-01,
          3.62176716e-01, 3.93608063e-01, 1.01049975e-01, 9.34286937e-02,
          3.93608063e-01, 3.93608063e-01, 2.93030500e-01, 3.41503143e-01,
          3.93608063e-01, 3.93608063e-01, 3.46673667e-01, 1.91635922e-01,
          3.44287217e-01, 3.46673667e-01, 3.46673667e-01, 3.46673667e-01,
          3.46673667e-01, 3.46673667e-01, 3.46673667e-01, 2.89612055e-01,
          3.28856707e-01, 3.57323170e-01, 3.57323170e-01, 3.57323170e-01,
          3.57323170e-01, 3.57323170e-01, 2.57738054e-01, 3.15562814e-01,
          3.46376866e-01, 3.26017439e-01, 3.46376866e-01, 2.65324414e-01,
          3.46376866e-01, 3.46376866e-01, 3.46376866e-01, 3.16217363e-01,
          3.46376866e-01 ]
      - [ 3.73345464e-01, 1.68707281e-01, 2.11753145e-01, 2.93905288e-01,
          3.73416811e-01, 3.73416811e-01, 3.73416811e-01, 3.73416811e-01,
          3.73416811e-01, 3.39287311e-01, 3.39287311e-01, 3.39287311e-01,
          3.39287311e-01, 2.75105506e-01, 3.39287311e-01, 3.39287311e-01,
          3.39287311e-01, 3.39287311e-01, 1.02294423e-01, 5.10632694e-01,
          5.10632694e-01, 7.65561163e-02, 7.68274143e-02, 4.08411771e-01,
          5.10632694e-01, 1.40159220e-01, 6.31734952e-02, 3.87725204e-01,
          1.33536354e-01, 1.80911615e-01, 2.21673563e-01, 3.87725204e-01,
          3.80489469e-01, 3.87725204e-01, 3.87725204e-01, 3.87725204e-01,
          3.38583827e-01, 3.38583827e-01, 3.38583827e-01, 3.38583827e-01,
          3.08076262e-01, 3.34511489e-01, 3.38583827e-01, 3.19334060e-01,
          3.38583827e-01, 1.17202915e-01, 5.02237916e-01, 5.02237916e-01,
          7.99493492e-02, 6.09461330e-02, 4.07052934e-01, 5.02237916e-01,
          2.00750679e-01, 9.17569101e-02, 1.01104960e-01, 6.66417032e-02,
          7.27616921e-02, 5.84141873e-02, 1.35178685e-01, 4.90289241e-01,
          5.23420036e-01, 5.23420036e-01, 4.05966610e-01, 2.15421990e-01,
          4.51675504e-01, 4.51675504e-01, 2.80149043e-01, 2.19326794e-01,
          3.49370956e-01, 4.51675504e-01, 2.65720844e-01, 1.33394241e-01,
          1.90894574e-01, 4.57788050e-01, 4.57788050e-01, 1.23866975e-01,
          1.13211967e-01, 4.57788050e-01, 4.57788050e-01, 2.62791127e-01,
          1.53257370e-01 ]
      - [ 3.68368983e-01, 3.68368983e-01, 2.61565953e-01, 2.28499755e-01,
          3.68368983e-01, 3.68368983e-01, 3.39194626e-01, 2.86634445e-01,
          3.68368983e-01, 3.69517475e-01, 2.44336918e-01, 3.64863396e-01,
          2.40412384e-01, 3.69517475e-01, 3.13242465e-01, 3.69517475e-01,
          3.18419397e-01, 3.69517475e-01, 3.41981977e-01, 3.41981977e-01,
          3.41981977e-01, 3.04527462e-01, 3.41981977e-01, 3.41981977e-01,
          3.41981977e-01, 2.91863769e-01, 3.41981977e-01, 4.14122492e-01,
          2.46798217e-01, 1.80184722e-01, 4.14122492e-01, 4.14122492e-01,
          3.21684241e-01, 1.86366677e-01, 2.79792964e-01, 4.14122492e-01,
          4.33407545e-01, 1.47964805e-01, 1.31922260e-01, 3.36936861e-01,
          4.33407545e-01, 4.33407545e-01, 1.92765549e-01, 2.33066916e-01,
          4.33407545e-01, 3.62546563e-01, 3.62546563e-01, 3.62546563e-01,
          1.76502913e-01, 3.62546563e-01, 3.62546563e-01, 3.62546563e-01,
          2.12472409e-01, 3.62546563e-01, 3.32778692e-01, 3.32778692e-01,
          3.32778692e-01, 3.32778692e-01, 3.32778692e-01, 3.32778692e-01,
          3.32778692e-01, 3.32778692e-01, 3.32778692e-01, 3.32778692e-01,
          3.32778692e-01, 3.32778692e-01, 3.32778692e-01, 3.32778692e-01,
          3.32778692e-01, 3.32778692e-01, 3.32778692e-01, 3.32778692e-01,
          3.47342551e-01, 3.47342551e-01, 3.47342551e-01, 1.82772800e-01,
          3.47342551e-01, 3.47342551e-01, 3.47342551e-01, 3.44377458e-01,
          3.47342551e-01 ]
      - [ 1.95951283e-01, 1.61345392e-01, 3.84829372e-01, 3.84829372e-01,
          3.84829372e-01, 2.07760230e-01, 3.84829372e-01, 3.84829372e-01,
          3.84829372e-01, 1.06407203e-01, 9.52535495e-02, 4.29850429e-01,
          4.29850429e-01, 4.29850429e-01, 2.08624110e-01, 1.41436338e-01,
          4.29850429e-01, 4.15567607e-01, 4.78993058e-02, 4.33074050e-02,
          1.74518690e-01, 4.81878191e-01, 4.78785992e-01, 1.73961371e-01,
          6.66479841e-02, 4.81878191e-01, 4.81878191e-01, 2.36862183e-01,
          1.34949937e-01, 4.02656615e-01, 4.02656615e-01, 3.07665855e-01,
          1.27837613e-01, 4.02656615e-01, 4.02656615e-01, 4.02656615e-01,
          3.04951102e-01, 2.03727841e-01, 3.69529337e-01, 3.69529337e-01,
          3.69529337e-01, 2.06146568e-01, 3.69529337e-01, 3.69529337e-01,
          3.69529337e-01, 1.70442939e-01, 2.25721657e-01, 3.74509901e-01,
          3.74509901e-01, 3.74509901e-01, 3.74509901e-01, 2.76847184e-01,
          3.74509901e-01, 3.71920407e-01, 1.76967844e-01, 1.83449551e-01,
          4.49228048e-01, 3.92592847e-01, 2.39472806e-01, 1.64725810e-01,
          4.49228048e-01, 4.49228048e-01, 2.94130832e-01, 3.62260103e-01,
          2.36193508e-01, 3.62260103e-01, 3.62260103e-01, 3.62260103e-01,
          1.48211703e-01, 3.62260103e-01, 3.62260103e-01, 3.62260103e-01,
          2.79426098e-01, 3.51929992e-01, 3.51929992e-01, 3.51929992e-01,
          3.51929992e-01, 2.26763681e-01, 3.51929992e-01, 3.51929992e-01,
          3.51929992e-01 ]
      - [ 3.50582480e-01, 2.80120969e-01, 3.50582480e-01, 2.40151986e-01,
          3.50582480e-01, 3.50582480e-01, 3.50582480e-01, 3.50582480e-01,
          3.50582480e-01, 3.46814662e-01, 3.46814662e-01, 3.46814662e-01,
          2.97688305e-01, 3.46814662e-01, 2.56814778e-01, 3.46814662e-01,
          3.46814662e-01, 3.46814662e-01, 3.67075175e-01, 3.67075175e-01,
          2.71338403e-01, 1.81554630e-01, 2.85098046e-01, 3.67075175e-01,
          3.67075175e-01, 3.67075175e-01, 3.67075175e-01, 2.86497623e-01,
          3.39478850e-01, 3.39478850e-01, 3.28338265e-01, 3.39478850e-01,
          3.39478850e-01, 3.39478850e-01, 3.39478850e-01, 3.39478850e-01,
          3.36110085e-01, 3.36110085e-01, 3.36110085e-01, 3.36110085e-01,
          3.24801177e-01, 3.16790342e-01, 3.36110085e-01, 3.36110085e-01,
          3.36110085e-01, 2.88518578e-01, 3.88571918e-01, 3.60954672e-01,
          2.26386651e-01, 2.50043333e-01, 3.95457894e-01, 4.03810650e-01,
          4.03810650e-01, 1.87513039e-01, 3.34315926e-01, 3.34315926e-01,
          3.34315926e-01, 3.20191443e-01, 3.34315926e-01, 3.34315926e-01,
          3.34315926e-01, 3.34315926e-01, 3.34315926e-01, 3.16765845e-01,
          3.53278339e-01, 3.53278339e-01, 3.50380898e-01, 3.53278339e-01,
          3.53278339e-01, 3.53278339e-01, 2.87234545e-01, 2.58517712e-01,
          2.91913778e-01, 3.40844303e-01, 3.57280463e-01, 1.70722172e-01,
          3.57280463e-01, 3.57280463e-01, 3.57280463e-01, 3.57280463e-01,
          3.57280463e-01 ]
      - [ 1.93412289e-01, 1.93714142e-01, 4.47185904e-01, 4.47185904e-01,
          2.17148259e-01, 1.33104667e-01, 4.47185904e-01, 4.47185904e-01,
          2.36280277e-01, 3.49372268e-01, 3.49372268e-01, 3.49372268e-01,
          3.49372268e-01, 3.03064615e-01, 2.24130452e-01, 3.49372268e-01,
          3.49372268e-01, 3.49372268e-01, 3.39313120e-01, 2.74850518e-01,
          3.39313120e-01, 3.39313120e-01, 3.39313120e-01, 3.39313120e-01,
          3.39313120e-01, 3.39313120e-01, 3.39313120e-01, 3.61567259e-01,
          2.29857489e-01, 3.61567259e-01, 3.61567259e-01, 3.61567259e-01,
          1.68632820e-01, 3.61567259e-01, 3.61567259e-01, 3.61567259e-01,
          3.54307026e-01, 2.95758873e-01, 3.54307026e-01, 3.54307026e-01,
          3.54307026e-01, 1.73933059e-01, 3.54307026e-01, 3.54307026e-01,
          3.54307026e-01, 3.66580337e-01, 2.77968138e-01, 3.24569762e-01,
          2.99135238e-01, 3.66580337e-01, 2.28775501e-01, 3.66580337e-01,
          3.66580337e-01, 3.66580337e-01, 5.55575974e-02, 1.87349379e-01,
          4.80681717e-01, 4.80681717e-01, 1.51848912e-01, 7.88603052e-02,
          4.80681717e-01, 4.80681717e-01, 5.92946708e-02, 9.15300250e-02,
          2.01850832e-01, 4.44103330e-01, 4.44103330e-01, 3.69503409e-01,
          1.15720913e-01, 4.44103330e-01, 4.44103330e-01, 8.72196704e-02,
          1.78262219e-01, 2.97657758e-01, 3.95626873e-01, 3.95626873e-01,
          3.95626873e-01, 2.26242051e-01, 3.95626873e-01, 3.95626873e-01,
          2.04649612e-01 ]
      - [ 4.15767133e-01, 7.92600811e-02, 1.21050037e-01, 4.82615680e-01,
          4.82615680e-01, 1.40724495e-01, 2.01249614e-01, 2.05727085e-01,
          4.82615680e-01, 3.38601977e-01, 2.16397136e-01, 1.95440233e-01,
          3.64390701e-01, 3.64390701e-01, 3.64390701e-01, 3.64390701e-01,
          3.64390701e-01, 3.64390701e-01, 2.74971962e-01, 3.39300841e-01,
          3.39300841e-01, 3.39300841e-01, 3.39300841e-01, 3.39300841e-01,
          3.39300841e-01, 3.39300841e-01, 3.39300841e-01, 3.41422379e-01,
          1.56763434e-01, 1.07407100e-01, 3.86502355e-01, 3.86502355e-01,
          3.10705841e-01, 3.86502355e-01, 3.86502355e-01, 3.86502355e-01,
          3.53142828e-01, 2.67067432e-01, 2.28424907e-01, 3.53142828e-01,
          3.53142828e-01, 3.53142828e-01, 3.53142828e-01, 3.53142828e-01,
          3.53142828e-01, 3.32778692e-01, 3.32778692e-01, 3.32778692e-01,
          3.32778692e-01, 3.32778692e-01, 3.32778692e-01, 3.32778692e-01,
          3.32778692e-01, 3.32778692e-01, 3.43573183e-01, 2.85173267e-01,
          3.48006368e-01, 2.65529633e-01, 3.48006368e-01, 3.48006368e-01,
          3.48006368e-01, 3.48006368e-01, 3.48006368e-01, 3.47257733e-01,
          2.63188213e-01, 3.47257733e-01, 3.22329223e-01, 3.15972596e-01,
          3.47257733e-01, 3.47257733e-01, 3.47257733e-01, 3.47257733e-01,
          3.35749120e-01, 3.35749120e-01, 3.35749120e-01, 3.07937860e-01,
          3.35749120e-01, 3.35749120e-01, 3.35749120e-01, 3.35749120e-01,
          3.35749120e-01 ]
      - [ 2.00922474e-01, 5.57050467e-01, 5.57050467e-01, 2.08126321e-01,
          1.51030600e-01, 1.53697520e-01, 2.95877069e-01, 2.99012482e-01,
          2.58370608e-01, 1.18145704e-01, 3.45134884e-01, 4.57536221e-01,
          3.60892653e-01, 1.44849494e-01, 1.79969504e-01, 4.57536221e-01,
          4.57536221e-01, 2.25213990e-01, 3.17105278e-02, 1.91730395e-01,
          4.80691016e-01, 4.80691016e-01, 1.01116441e-01, 9.88244638e-02,
          4.80691016e-01, 4.80691016e-01, 1.14832215e-01, 3.78992677e-01,
          3.78992677e-01, 3.78992677e-01, 1.91498622e-01, 2.41235554e-01,
          1.98833048e-01, 3.78992677e-01, 3.78992677e-01, 3.78992677e-01,
          3.48740965e-01, 3.48740965e-01, 3.48740965e-01, 3.48740965e-01,
          2.81972140e-01, 3.48446876e-01, 3.48740965e-01, 3.48740965e-01,
          2.56652713e-01, 2.33806655e-01, 2.34110013e-01, 4.13636029e-01,
          4.13636029e-01, 1.83887661e-01, 2.90197253e-01, 4.13636029e-01,
          4.13636029e-01, 2.89804757e-01, 1.79603040e-01, 2.11106092e-01,
          3.75586033e-01, 3.75586033e-01, 3.75586033e-01, 3.75586033e-01,
          3.75586033e-01, 3.75586033e-01, 2.70250589e-01, 2.32482508e-01,
          3.73617828e-01, 3.73617828e-01, 3.73617828e-01, 3.73617828e-01,
          3.73617828e-01, 3.73617828e-01, 3.13459516e-01, 8.01303163e-02,
          2.20995545e-01, 3.69414955e-01, 3.69414955e-01, 3.31122011e-01,
          3.69414955e-01, 3.69414955e-01, 3.69414955e-01, 3.69414955e-01,
          1.37927637e-01 ]
      - [ 3.39332432e-01, 3.96867841e-01, 3.96867841e-01, 3.96867841e-01,
          3.96867841e-01, 2.07890555e-01, 2.73096383e-01, 2.60713547e-01,
          2.55148739e-01, 3.42588633e-01, 3.42588633e-01, 3.42588633e-01,
          3.15981627e-01, 2.74160326e-01, 3.42588633e-01, 3.42588633e-01,
          3.42588633e-01, 3.42588633e-01, 3.45772505e-01, 3.45772505e-01,
          3.45772505e-01, 2.38906547e-01, 3.20247680e-01, 3.45772505e-01,
          3.45772505e-01, 3.45772505e-01, 3.45772505e-01, 3.25514436e-01,
          4.08983141e-01, 4.08983141e-01, 4.08983141e-01, 4.08983141e-01,
          2.64252633e-01, 2.62950569e-01, 2.39056498e-01, 1.57370552e-01,
          3.38776201e-01, 3.43756258e-01, 3.43756258e-01, 3.43756258e-01,
          3.33364159e-01, 2.48302579e-01, 3.43756258e-01, 3.43756258e-01,
          3.43756258e-01, 3.51506799e-01, 3.51506799e-01, 3.51506799e-01,
          2.22205296e-01, 2.86729187e-01, 3.51506799e-01, 3.51506799e-01,
          3.51506799e-01, 3.51506799e-01, 3.19631279e-01, 3.59909594e-01,
          3.59909594e-01, 3.59909594e-01, 3.01772147e-01, 1.61134169e-01,
          3.59909594e-01, 3.59909594e-01, 3.59909594e-01, 2.28854269e-01,
          4.33550179e-01, 4.33550179e-01, 4.33550179e-01, 3.34964842e-01,
          1.78803086e-01, 2.50869066e-01, 3.46920729e-01, 2.27895632e-01,
          3.40107530e-01, 3.40107530e-01, 3.40107530e-01, 3.40107530e-01,
          3.40107530e-01, 2.66864777e-01, 3.40107530e-01, 3.40107530e-01,
          3.40107530e-01 ]
      - [ 3.40878576e-01, 3.37779909e-01, 3.13136786e-01, 2.95389742e-01,
          3.40878576e-01, 3.40878576e-01, 3.40878576e-01, 3.40878576e-01,
          3.40878576e-01, 3.32778692e-01, 3.32778692e-01, 3.32778692e-01,
          3.32778692e-01, 3.32778692e-01, 3.32778692e-01, 3.32778692e-01,
          3.32778692e-01, 3.32778692e-01, 3.32778692e-01, 3.32778692e-01,
          3.32778692e-01, 3.32778692e-01, 3.32778692e-01, 3.32778692e-01,
          3.32778692e-01, 3.32778692e-01, 3.32778692e-01, 2.49365464e-01,
          2.09546387e-01, 3.79521996e-01, 3.79521996e-01, 3.79521996e-01,
          1.60915524e-01, 3.79521996e-01, 3.79521996e-01, 3.79521996e-01,
          3.32472116e-01, 3.73939604e-01, 3.73939604e-01, 2.28632718e-01,
          2.97249317e-01, 2.14340821e-01, 3.73939604e-01, 3.73939604e-01,
          3.73939604e-01, 3.32778692e-01, 3.32778692e-01, 3.32778692e-01,
          3.32778692e-01, 3.32778692e-01, 3.32778692e-01, 3.32778692e-01,
          3.32778692e-01, 3.32778692e-01, 1.53393194e-01, 2.25836784e-01,
          3.82347703e-01, 3.82347703e-01, 3.82347703e-01, 3.02792042e-01,
          3.82347703e-01, 3.82347703e-01, 3.14669162e-01, 1.21270828e-01,
          3.62323046e-01, 3.80138606e-01, 3.80138606e-01, 3.80138606e-01,
          1.59538701e-01, 3.80138606e-01, 3.80138606e-01, 3.19746971e-01,
          2.03762457e-01, 3.40765536e-01, 3.86949360e-01, 3.82543027e-01,
          2.67709047e-01, 1.46859348e-01, 3.86949360e-01, 3.86949360e-01,
          3.86949360e-01 ]
      - [ 3.32778692e-01, 3.32778692e-01, 3.32778692e-01, 3.32778692e-01,
          3.32778692e-01, 3.32778692e-01, 3.32778692e-01, 3.32778692e-01,
          3.32778692e-01, 3.52916062e-01, 3.52916062e-01, 3.52916062e-01,
          2.67038971e-01, 3.35707903e-01, 2.55276203e-01, 3.52916062e-01,
          3.52916062e-01, 3.52916062e-01, 3.63939732e-01, 3.63939732e-01,
          3.63939732e-01, 3.48237365e-01, 3.51478815e-01, 1.62283674e-01,
          2.50919729e-01, 3.63939732e-01, 3.63939732e-01, 3.28096598e-01,
          3.33358258e-01, 3.33358258e-01, 3.33358258e-01, 3.33358258e-01,
          3.33358258e-01, 3.33358258e-01, 3.33358258e-01, 3.33358258e-01,
          3.35478663e-01, 3.35478663e-01, 3.35478663e-01, 3.35478663e-01,
          3.35478663e-01, 3.10290933e-01, 3.35478663e-01, 3.35478663e-01,
          3.35478663e-01, 3.14283580e-01, 3.46909612e-01, 3.46909612e-01,
          3.46909612e-01, 3.46909612e-01, 2.71067470e-01, 3.19694519e-01,
          3.46909612e-01, 3.46909612e-01, 2.06622705e-01, 3.73304218e-01,
          3.73304218e-01, 3.29617709e-01, 3.43760312e-01, 3.28282863e-01,
          3.73304218e-01, 3.73304218e-01, 2.48122379e-01, 3.39154720e-01,
          3.39154720e-01, 3.39154720e-01, 3.39154720e-01, 3.39154720e-01,
          2.76412547e-01, 3.39154720e-01, 3.39154720e-01, 3.39154720e-01,
          1.75573632e-01, 3.47437471e-01, 3.47437471e-01, 3.47437471e-01,
          3.47437471e-01, 3.47437471e-01, 3.47437471e-01, 3.47437471e-01,
          3.47437471e-01 ]
      - [ 1.39141843e-01, 4.85174984e-01, 4.85174984e-01, 7.73515329e-02,
          1.25999182e-01, 4.85174984e-01, 4.85174984e-01, 8.80337954e-02,
          6.78646863e-02, 2.60465145e-01, 4.89830971e-01, 3.55827570e-01,
          9.31905955e-02, 1.46694720e-01, 4.89830971e-01, 4.89830971e-01,
          1.92118734e-01, 1.17199875e-01, 3.33842963e-01, 3.33842963e-01,
          3.33842963e-01, 3.24122339e-01, 3.33842963e-01, 3.33842963e-01,
          3.33842963e-01, 3.33842963e-01, 3.33842963e-01, 3.58228385e-01,
          3.58228385e-01, 3.58228385e-01, 3.02476197e-01, 3.58228385e-01,
          3.58228385e-01, 3.58228385e-01, 2.62305856e-01, 2.57214397e-01,
          3.35804611e-01, 3.35804611e-01, 3.35804611e-01, 3.07452381e-01,
          3.35804611e-01, 3.35804611e-01, 3.35804611e-01, 3.35804611e-01,
          3.35804611e-01, 4.73410666e-01, 4.73410666e-01, 2.19204098e-01,
          8.52532312e-02, 1.68780312e-01, 4.73410666e-01, 4.55520064e-01,
          1.31660804e-01, 1.19500197e-01, 3.36322725e-01, 3.36322725e-01,
          3.36322725e-01, 3.02879572e-01, 3.36322725e-01, 3.36322725e-01,
          3.36322725e-01, 3.36322725e-01, 3.36322725e-01, 3.38465899e-01,
          3.38465899e-01, 3.38465899e-01, 2.83098966e-01, 3.38465899e-01,
          3.38465899e-01, 3.38465899e-01, 3.38465899e-01, 3.38465899e-01,
          3.03917766e-01, 4.47010607e-01, 4.47010607e-01, 1.28563434e-01,
          2.49351233e-01, 4.47010607e-01, 4.47010607e-01, 1.08744472e-01,
          1.15607470e-01 ]
      - [ 1.54360965e-01, 1.19540520e-01, 4.64319468e-01, 4.64319468e-01,
          1.83693975e-01, 1.40070170e-01, 4.64319468e-01, 4.64319468e-01,
          2.03743875e-01, 2.25908116e-01, 3.50109965e-01, 4.19036120e-01,
          4.19036120e-01, 2.12512344e-01, 1.63000137e-01, 4.19036120e-01,
          4.19036120e-01, 2.19332844e-01, 1.68567583e-01, 1.98184475e-01,
          4.85625654e-01, 4.85625654e-01, 1.58384249e-01, 1.50590852e-01,
          3.28975350e-01, 4.85625654e-01, 2.52928525e-01, 3.61283630e-01,
          1.98496282e-01, 3.61283630e-01, 3.61283630e-01, 3.61283630e-01,
          2.08107591e-01, 3.61283630e-01, 3.61283630e-01, 3.61283630e-01,
          2.14362502e-01, 2.85098523e-01, 3.90832841e-01, 3.90832841e-01,
          3.90832841e-01, 2.45535031e-01, 3.90832841e-01, 3.90832841e-01,
          2.11717218e-01, 2.14152873e-01, 2.89193064e-01, 3.71277928e-01,
          3.71277928e-01, 3.71277928e-01, 3.71277928e-01, 3.71277928e-01,
          3.71277928e-01, 1.99280813e-01, 2.46701121e-01, 3.33349317e-01,
          3.47355217e-01, 3.47355217e-01, 3.47355217e-01, 3.47355217e-01,
          3.47355217e-01, 3.47355217e-01, 3.17194581e-01, 2.11988717e-01,
          2.78645754e-01, 3.88657928e-01, 3.88657928e-01, 3.88657928e-01,
          2.06582904e-01, 3.88657928e-01, 3.88657928e-01, 2.74924010e-01,
          3.35105896e-01, 3.13502729e-01, 3.35105896e-01, 3.35105896e-01,
          3.35105896e-01, 3.35105896e-01, 3.35105896e-01, 3.35105896e-01,
          3.35105896e-01 ]
      - [ 3.32778692e-01, 3.32778692e-01, 3.32778692e-01, 3.32778692e-01,
          3.32778692e-01, 3.32778692e-01, 3.32778692e-01, 3.32778692e-01,
          3.32778692e-01, 3.32778692e-01, 3.32778692e-01, 3.32778692e-01,
          3.32778692e-01, 3.32778692e-01, 3.32778692e-01, 3.32778692e-01,
          3.32778692e-01, 3.32778692e-01, 3.90162081e-01, 3.90162081e-01,
          2.68107951e-01, 1.55307829e-01, 2.36196935e-01, 3.90162081e-01,
          3.90162081e-01, 3.90162081e-01, 2.88406700e-01, 3.34976673e-01,
          3.34976673e-01, 3.34976673e-01, 3.14607769e-01, 3.34976673e-01,
          3.34976673e-01, 3.34976673e-01, 3.34976673e-01, 3.34976673e-01,
          3.37282449e-01, 3.37282449e-01, 3.31482083e-01, 3.00721735e-01,
          3.37282449e-01, 3.37282449e-01, 3.37282449e-01, 3.37282449e-01,
          3.37282449e-01, 4.78538752e-01, 4.78538752e-01, 1.80704489e-01,
          7.72077665e-02, 9.40244794e-02, 4.78538752e-01, 4.78538752e-01,
          1.53595671e-01, 9.04191062e-02, 3.34903330e-01, 3.34903330e-01,
          3.34903330e-01, 3.15233201e-01, 3.34903330e-01, 3.34903330e-01,
          3.34903330e-01, 3.34903330e-01, 3.34903330e-01, 4.66964960e-01,
          4.66964960e-01, 2.32714668e-01, 1.00185305e-01, 1.12360455e-01,
          4.66964960e-01, 4.66964960e-01, 1.54533058e-01, 1.49706677e-01,
          3.41228038e-01, 5.03186643e-01, 1.89357251e-01, 1.12489194e-01,
          1.34508118e-01, 5.03186643e-01, 5.03186643e-01, 1.82562485e-01,
          1.37899250e-01 ]
      - [ 3.47592294e-01, 3.47592294e-01, 3.47592294e-01, 2.27723330e-01,
          3.47592294e-01, 3.47592294e-01, 3.47592294e-01, 3.47592294e-01,
          3.14525694e-01, 3.88858646e-01, 3.88858646e-01, 3.88858646e-01,
          1.51120171e-01, 3.68787348e-01, 3.88858646e-01, 3.88858646e-01,
          2.40635917e-01, 1.52685776e-01, 3.78560752e-01, 3.78560752e-01,
          2.17660546e-01, 1.43876776e-01, 3.61869514e-01, 3.78560752e-01,
          3.78560752e-01, 3.58988047e-01, 3.08360904e-01, 3.38321179e-01,
          3.38321179e-01, 3.38321179e-01, 2.84481883e-01, 3.38321179e-01,
          3.38321179e-01, 3.38321179e-01, 3.38321179e-01, 3.38321179e-01,
          3.51647377e-01, 3.51647377e-01, 3.51647377e-01, 2.26321071e-01,
          3.51647377e-01, 3.51647377e-01, 3.51647377e-01, 3.51647377e-01,
          2.82266229e-01, 3.43377084e-01, 3.43377084e-01, 3.43377084e-01,
          2.64992446e-01, 3.43377084e-01, 3.43377084e-01, 3.43377084e-01,
          3.43377084e-01, 3.17794710e-01, 3.35858345e-01, 3.35858345e-01,
          3.06981444e-01, 3.35858345e-01, 3.35858345e-01, 3.35858345e-01,
          3.35858345e-01, 3.35858345e-01, 3.35858345e-01, 2.02458605e-01,
          3.57998461e-01, 3.57998461e-01, 3.40797693e-01, 3.57998461e-01,
          3.57998461e-01, 3.57998461e-01, 3.57998461e-01, 2.65166342e-01,
          2.39942431e-01, 2.96528310e-01, 3.51796776e-01, 3.51796776e-01,
          3.51796776e-01, 3.51796776e-01, 3.51796776e-01, 3.51796776e-01,
          3.29268843e-01 ]
      - [ 3.43707591e-01, 3.43707591e-01, 3.43707591e-01, 2.26906523e-01,
          3.43707591e-01, 3.43707591e-01, 3.43707591e-01, 3.43707591e-01,
          3.43707591e-01, 1.89914584e-01, 3.80168736e-01, 4.16208893e-01,
          1.77456856e-01, 4.16208893e-01, 2.36578867e-01, 4.16208893e-01,
          4.16208893e-01, 1.86726049e-01, 2.49668449e-01, 7.99263567e-02,
          1.54039979e-01, 1.85411215e-01, 4.16895002e-01, 4.16895002e-01,
          4.16895002e-01, 4.16895002e-01, 4.16895002e-01, 3.38924080e-01,
          3.38924080e-01, 3.38924080e-01, 2.78670967e-01, 3.38924080e-01,
          3.38924080e-01, 3.38924080e-01, 3.38924080e-01, 3.38924080e-01,
          3.59107077e-01, 3.59107077e-01, 3.59107077e-01, 2.26590768e-01,
          3.59107077e-01, 2.05824420e-01, 3.59107077e-01, 3.59107077e-01,
          3.59107077e-01, 1.76839814e-01, 4.01324272e-01, 4.01324272e-01,
          6.52899221e-02, 4.01324272e-01, 2.97186613e-01, 4.01324272e-01,
          4.01324272e-01, 2.58514851e-01, 3.08426082e-01, 9.83700752e-02,
          1.16073675e-01, 1.62013739e-01, 4.12638575e-01, 4.12638575e-01,
          4.12638575e-01, 4.12638575e-01, 4.12638575e-01, 1.71573192e-01,
          3.07495266e-01, 4.43353385e-01, 2.92006671e-01, 3.21043044e-01,
          1.72149539e-01, 4.43353385e-01, 4.43353385e-01, 2.52828360e-01,
          2.23635048e-01, 9.82569382e-02, 3.64989877e-01, 6.10952862e-02,
          3.24166059e-01, 3.59617561e-01, 4.83008146e-01, 4.83008146e-01,
          3.12340051e-01 ]
      - [ 2.64859974e-01, 3.87451023e-01, 3.87451023e-01, 3.00879806e-01,
          2.01647252e-01, 3.87451023e-01, 3.87451023e-01, 3.87451023e-01,
          2.10229889e-01, 2.78363764e-01, 3.70135367e-01, 3.70135367e-01,
          2.93521136e-01, 3.70135367e-01, 3.70135367e-01, 3.70135367e-01,
          3.70135367e-01, 1.03246965e-01, 2.14452356e-01, 3.65567505e-01,
          3.65567505e-01, 3.65567505e-01, 3.65567505e-01, 3.65567505e-01,
          3.65567505e-01, 3.65567505e-01, 1.21985771e-01, 3.39091331e-01,
          3.39091331e-01, 3.39091331e-01, 2.77035445e-01, 3.39091331e-01,
          3.39091331e-01, 3.39091331e-01, 3.39091331e-01, 3.39091331e-01,
          3.42652798e-01, 3.28943938e-01, 3.42652798e-01, 2.59140849e-01,
          3.42652798e-01, 3.42652798e-01, 3.42652798e-01, 3.42652798e-01,
          3.41690809e-01, 2.93842584e-01, 3.79079074e-01, 3.79079074e-01,
          3.79079074e-01, 2.88891166e-01, 2.79640764e-01, 3.79079074e-01,
          3.79079074e-01, 1.72358960e-01, 3.35378885e-01, 3.35378885e-01,
          3.35378885e-01, 3.11154425e-01, 3.35378885e-01, 3.35378885e-01,
          3.35378885e-01, 3.35378885e-01, 3.35378885e-01, 3.42191666e-01,
          3.42191666e-01, 3.42191666e-01, 2.44580954e-01, 3.42191666e-01,
          3.42191666e-01, 3.42191666e-01, 3.42191666e-01, 3.42191666e-01,
          3.50927025e-01, 3.50927025e-01, 3.50927025e-01, 3.14047575e-01,
          2.00485036e-01, 3.44637305e-01, 3.50927025e-01, 3.50927025e-01,
          3.50927025e-01 ]
      - [ 3.50886434e-01, 3.50886434e-01, 2.05883995e-01, 3.03738624e-01,
          3.50886434e-01, 3.50886434e-01, 3.50886434e-01, 3.50886434e-01,
          3.50886434e-01, 3.81812274e-01, 3.81812274e-01, 3.81812274e-01,
          2.79432386e-01, 2.39189580e-01, 2.98371285e-01, 3.22111815e-01,
          2.91526228e-01, 3.81812274e-01, 3.68246019e-01, 3.68246019e-01,
          3.68246019e-01, 2.18765944e-01, 2.56018341e-01, 3.68246019e-01,
          3.68246019e-01, 2.63223052e-01, 3.68246019e-01, 3.71990383e-01,
          3.71990383e-01, 3.71990383e-01, 2.16218457e-01, 2.92055666e-01,
          2.80628145e-01, 3.71990383e-01, 3.71990383e-01, 3.05941671e-01,
          3.76731932e-01, 4.09873456e-01, 4.09873456e-01, 4.09873456e-01,
          1.54190779e-01, 4.09873456e-01, 2.75332332e-01, 1.40141368e-01,
          2.50542045e-01, 4.78083670e-01, 4.78083670e-01, 1.80536315e-01,
          5.05252630e-02, 1.06899284e-01, 4.78083670e-01, 4.78083670e-01,
          9.09859166e-02, 1.61606923e-01, 3.98898959e-01, 3.98898959e-01,
          3.98898959e-01, 2.33408749e-01, 2.33110309e-01, 3.98898959e-01,
          3.98898959e-01, 2.70953506e-01, 1.34822801e-01, 4.12254006e-01,
          4.12254006e-01, 4.12254006e-01, 2.35933647e-01, 2.68542498e-01,
          4.12254006e-01, 4.12254006e-01, 1.16553448e-01, 6.89228103e-02,
          4.75009114e-01, 4.75009114e-01, 2.29652599e-01, 7.09800348e-02,
          1.14215083e-01, 4.75009114e-01, 4.75009114e-01, 1.21182397e-01,
          8.49248245e-02 ]
      - [ 2.59186000e-01, 3.44151825e-01, 3.44151825e-01, 3.44151825e-01,
          3.44151825e-01, 3.16703320e-01, 3.44151825e-01, 3.44151825e-01,
          3.44151825e-01, 3.39896083e-01, 3.39896083e-01, 3.39896083e-01,
          3.39896083e-01, 3.39896083e-01, 2.69015163e-01, 3.39896083e-01,
          3.39896083e-01, 3.39896083e-01, 3.60661834e-01, 3.60661834e-01,
          3.60661834e-01, 2.14604720e-01, 3.60661834e-01, 3.60661834e-01,
          3.60661834e-01, 2.89862037e-01, 2.93018222e-01, 1.85112521e-01,
          2.97988653e-01, 3.78067344e-01, 3.78067344e-01, 3.78067344e-01,
          2.12557703e-01, 3.36606145e-01, 3.78067344e-01, 3.78067344e-01,
          3.56647968e-01, 3.00518990e-01, 1.57076001e-01, 3.56647968e-01,
          3.56647968e-01, 3.43897521e-01, 3.56647968e-01, 3.56647968e-01,
          3.56647968e-01, 4.22053069e-01, 4.22053069e-01, 1.18135028e-01,
          1.41749844e-01, 4.22053069e-01, 4.22053069e-01, 2.42890984e-01,
          1.46592528e-01, 4.10772949e-01, 1.66081354e-01, 1.37875497e-01,
          1.83857039e-01, 7.90152773e-02, 3.64283174e-01, 4.06007856e-01,
          4.91307408e-01, 4.91307408e-01, 3.57970685e-01, 1.91207126e-01,
          1.72412872e-01, 2.88603216e-01, 3.94861430e-01, 3.94861430e-01,
          3.94861430e-01, 3.94861430e-01, 3.94861430e-01, 2.58649200e-01,
          1.34775653e-01, 1.17258705e-01, 2.76009709e-01, 3.02138388e-01,
          4.51367140e-01, 4.51367140e-01, 4.51367140e-01, 3.85538369e-01,
          1.90451190e-01 ]
      - [ 2.19632909e-01, 1.32660180e-01, 4.13950294e-01, 4.13950294e-01,
          4.13950294e-01, 1.83614001e-01, 4.13950294e-01, 4.13950294e-01,
          1.98844478e-01, 3.68911803e-01, 2.70407200e-01, 3.72033715e-01,
          3.72033715e-01, 2.88239449e-01, 1.76587626e-01, 3.72033715e-01,
          3.68820697e-01, 3.48634362e-01, 2.13328928e-01, 2.04104781e-01,
          3.60402822e-01, 3.60402822e-01, 3.60402822e-01, 3.60402822e-01,
          3.60402822e-01, 3.60402822e-01, 3.60402822e-01, 4.40361261e-01,
          2.07542837e-01, 2.42777556e-01, 4.40361261e-01, 4.40361261e-01,
          1.09652668e-01, 2.12544262e-01, 2.46404722e-01, 4.40361261e-01,
          4.17706341e-01, 1.72871023e-01, 2.32293427e-01, 4.17706341e-01,
          4.17706341e-01, 1.22754849e-01, 2.22565264e-01, 3.86605889e-01,
          4.17706341e-01, 3.71276051e-01, 1.42921060e-01, 3.71276051e-01,
          3.02683175e-01, 3.71276051e-01, 3.10155511e-01, 3.14358681e-01,
          3.71276051e-01, 3.71276051e-01, 3.58774185e-01, 3.58774185e-01,
          3.58774185e-01, 3.58774185e-01, 3.58774185e-01, 2.12964460e-01,
          3.58774185e-01, 3.58774185e-01, 2.23671868e-01, 2.12666705e-01,
          3.11173797e-01, 4.04400647e-01, 4.04400647e-01, 4.04400647e-01,
          1.41664430e-01, 4.04400647e-01, 4.04400647e-01, 1.27026051e-01,
          8.08164477e-02, 3.00816685e-01, 4.90594834e-01, 4.90594834e-01,
          4.45877671e-01, 1.22807890e-01, 1.55743927e-01, 2.94573903e-01,
          3.02973300e-01 ]
      - [ 2.34789878e-01, 3.97593766e-01, 3.97593766e-01, 3.97593766e-01,
          3.97593766e-01, 1.49704844e-01, 3.91733199e-01, 2.81474859e-01,
          2.31265962e-01, 3.57365489e-01, 3.57365489e-01, 3.57365489e-01,
          3.57365489e-01, 3.57365489e-01, 2.49684855e-01, 2.83903033e-01,
          2.95339584e-01, 3.57365489e-01, 1.30087212e-01, 4.10088778e-01,
          4.10088778e-01, 2.22883224e-01, 1.64913505e-01, 4.10088778e-01,
          4.10088778e-01, 4.10088778e-01, 2.47473925e-01, 3.42335105e-01,
          3.60890985e-01, 3.60890985e-01, 3.60890985e-01, 3.60890985e-01,
          2.80945510e-01, 3.60890985e-01, 2.63154596e-01, 2.82504559e-01,
          3.98399979e-01, 3.98399979e-01, 3.98399979e-01, 3.98399979e-01,
          3.98399979e-01, 2.55573660e-01, 1.58949912e-01, 1.63497552e-01,
          2.91706830e-01, 1.76894784e-01, 4.33669180e-01, 4.33669180e-01,
          1.99662670e-01, 2.17183366e-01, 3.24428022e-01, 4.33669180e-01,
          4.31540996e-01, 1.47154227e-01, 3.62043291e-01, 3.62043291e-01,
          3.62043291e-01, 3.07349950e-01, 3.62043291e-01, 2.09086061e-01,
          3.62043291e-01, 3.62043291e-01, 2.67861634e-01, 3.86185646e-01,
          3.86185646e-01, 3.86185646e-01, 3.72416228e-01, 3.86185646e-01,
          1.87973365e-01, 2.65904248e-01, 2.39329070e-01, 3.12366992e-01,
          1.56867787e-01, 4.02428120e-01, 4.02428120e-01, 1.16378963e-01,
          1.96036428e-01, 4.02428120e-01, 4.02428120e-01, 4.02428120e-01,
          3.31143707e-01 ]
      - [ 3.32778692e-01, 3.32778692e-01, 3.32778692e-01, 3.32778692e-01,
          3.32778692e-01, 3.32778692e-01, 3.32778692e-01, 3.32778692e-01,
          3.32778692e-01, 3.35296124e-01, 3.35296124e-01, 3.35296124e-01,
          3.12179983e-01, 3.35296124e-01, 3.35296124e-01, 3.35296124e-01,
          3.35296124e-01, 3.35006088e-01, 3.36047083e-01, 3.50624651e-01,
          3.33065182e-01, 1.87112093e-01, 3.50624651e-01, 3.50624651e-01,
          3.50624651e-01, 3.50624651e-01, 3.50624651e-01, 3.34928155e-01,
          3.34928155e-01, 3.34928155e-01, 3.34928155e-01, 3.15863699e-01,
          3.34134012e-01, 3.34928155e-01, 3.34928155e-01, 3.34928155e-01,
          4.08228517e-01, 4.63707596e-01, 2.82240719e-01, 1.29830778e-01,
          1.24277860e-01, 4.63707596e-01, 4.63707596e-01, 2.36415878e-01,
          1.25659630e-01, 3.58562201e-01, 3.58562201e-01, 2.71821618e-01,
          1.74169019e-01, 3.56391191e-01, 3.58562201e-01, 3.58562201e-01,
          3.58562201e-01, 3.49781156e-01, 3.49969149e-01, 4.44727808e-01,
          4.44727808e-01, 1.84023395e-01, 1.14759848e-01, 4.44727808e-01,
          4.44727808e-01, 1.53729275e-01, 1.06210977e-01, 3.91629964e-01,
          4.93317366e-01, 1.96107745e-01, 1.08009376e-01, 1.67016134e-01,
          4.93317366e-01, 4.93317366e-01, 1.48789003e-01, 1.07032694e-01,
          3.44871491e-01, 3.44871491e-01, 3.44871491e-01, 2.12282076e-01,
          3.44871491e-01, 3.44871491e-01, 3.44871491e-01, 3.44871491e-01,
          3.44871491e-01 ]
      - [ 3.44318449e-01, 3.31478208e-01, 3.44318449e-01, 3.44318449e-01,
          3.44318449e-01, 2.38318235e-01, 3.44318449e-01, 3.44318449e-01,
          3.44318449e-01, 3.45551997e-01, 3.45551997e-01, 3.45551997e-01,
          3.45551997e-01, 2.62339294e-01, 3.03121030e-01, 3.45551997e-01,
          3.45551997e-01, 3.45551997e-01, 2.63035923e-01, 3.74359876e-01,
          3.74359876e-01, 2.62814343e-01, 1.30877092e-01, 3.74359876e-01,
          3.74359876e-01, 3.74359876e-01, 3.74359876e-01, 3.32778692e-01,
          3.32778692e-01, 3.32778692e-01, 3.32778692e-01, 3.32778692e-01,
          3.32778692e-01, 3.32778692e-01, 3.32778692e-01, 3.32778692e-01,
          3.37802380e-01, 3.37802380e-01, 3.37802380e-01, 3.37802380e-01,
          3.37802380e-01, 2.89380997e-01, 3.37802380e-01, 3.37802380e-01,
          3.37802380e-01, 3.79812241e-01, 1.97862580e-01, 2.39025593e-01,
          2.58491576e-01, 3.79812241e-01, 3.79812241e-01, 3.79812241e-01,
          3.34391981e-01, 3.79812241e-01, 1.37919709e-01, 3.89195472e-01,
          3.89195472e-01, 1.60602778e-01, 3.89195472e-01, 3.89195472e-01,
          3.89195472e-01, 3.89195472e-01, 2.06053525e-01, 1.57833174e-01,
          2.36951962e-01, 3.84703487e-01, 3.84703487e-01, 3.84703487e-01,
          1.64677218e-01, 3.84703487e-01, 3.84703487e-01, 3.84703487e-01,
          4.05804634e-01, 4.84246649e-02, 2.57400751e-01, 4.05804634e-01,
          4.05804634e-01, 4.05804634e-01, 2.26736262e-01, 2.29237154e-01,
          4.05804634e-01 ]
      - [ 3.35609317e-01, 3.35609317e-01, 3.35609317e-01, 3.09156656e-01,
          3.35609317e-01, 3.35609317e-01, 3.35609317e-01, 3.35609317e-01,
          3.35609317e-01, 3.57132494e-01, 3.57132494e-01, 2.50037879e-01,
          2.02750251e-01, 3.57132494e-01, 3.57132494e-01, 3.57132494e-01,
          3.57132494e-01, 3.57132494e-01, 3.62233490e-01, 3.62233490e-01,
          3.62233490e-01, 1.71772271e-01, 3.43147665e-01, 3.62233490e-01,
          3.62233490e-01, 2.48689085e-01, 3.62233490e-01, 3.65528584e-01,
          3.65528584e-01, 3.65528584e-01, 1.07509807e-01, 2.62674630e-01,
          3.65528584e-01, 3.65528584e-01, 3.65528584e-01, 3.37823689e-01,
          4.04734105e-01, 4.04734105e-01, 4.04734105e-01, 9.37622637e-02,
          1.88628614e-01, 2.55586833e-01, 4.04734105e-01, 3.80812526e-01,
          2.93263108e-01, 3.71208191e-01, 3.71208191e-01, 3.71208191e-01,
          2.13261127e-01, 3.07244956e-01, 3.08223724e-01, 3.71208191e-01,
          3.71208191e-01, 2.69132167e-01, 3.51269692e-01, 3.71940017e-01,
          3.71940017e-01, 1.55826047e-01, 3.71940017e-01, 3.71940017e-01,
          3.71940017e-01, 3.71940017e-01, 1.36292577e-01, 1.62107140e-01,
          3.93736631e-01, 3.93736631e-01, 2.45906621e-01, 3.93736631e-01,
          3.93736631e-01, 3.93736631e-01, 3.29875052e-01, 1.59240544e-01,
          1.66417211e-01, 2.80180156e-01, 3.78471971e-01, 3.75332117e-01,
          3.78471971e-01, 3.78471971e-01, 3.78471971e-01, 3.71652216e-01,
          1.95088819e-01 ]
      - [ 6.51216656e-02, 6.82814345e-02, 4.38483208e-01, 4.38483208e-01,
          1.29752129e-01, 9.24310833e-02, 4.38483208e-01, 4.38483208e-01,
          4.38483208e-01, 3.32778692e-01, 3.32778692e-01, 3.32778692e-01,
          3.32778692e-01, 3.32778692e-01, 3.32778692e-01, 3.32778692e-01,
          3.32778692e-01, 3.32778692e-01, 3.32778692e-01, 3.32778692e-01,
          3.32778692e-01, 3.32778692e-01, 3.32778692e-01, 3.32778692e-01,
          3.32778692e-01, 3.32778692e-01, 3.32778692e-01, 1.58930361e-01,
          2.13881254e-01, 4.11519140e-01, 4.11519140e-01, 3.79938692e-01,
          2.65381753e-01, 4.11519140e-01, 4.11519140e-01, 1.80865034e-01,
          3.32778692e-01, 3.32778692e-01, 3.32778692e-01, 3.32778692e-01,
          3.32778692e-01, 3.32778692e-01, 3.32778692e-01, 3.32778692e-01,
          3.32778692e-01, 3.32778692e-01, 3.32778692e-01, 3.32778692e-01,
          3.32778692e-01, 3.32778692e-01, 3.32778692e-01, 3.32778692e-01,
          3.32778692e-01, 3.32778692e-01, 3.32778692e-01, 3.32778692e-01,
          3.32778692e-01, 3.32778692e-01, 3.32778692e-01, 3.32778692e-01,
          3.32778692e-01, 3.32778692e-01, 3.32778692e-01, 3.25585246e-01,
          3.42176020e-01, 3.42425466e-01, 3.42425466e-01, 3.42425466e-01,
          3.42425466e-01, 3.42425466e-01, 3.42425466e-01, 2.64494330e-01,
          3.32778692e-01, 3.32778692e-01, 3.32778692e-01, 3.32778692e-01,
          3.32778692e-01, 3.32778692e-01, 3.32778692e-01, 3.32778692e-01,
          3.32778692e-01 ]
      - [ 3.36301565e-01, 3.36301565e-01, 3.36301565e-01, 3.36301565e-01,
          3.36301565e-01, 3.03067446e-01, 3.36301565e-01, 3.36301565e-01,
          3.36301565e-01, 3.35268587e-01, 3.35268587e-01, 3.35268587e-01,
          3.35268587e-01, 3.35268587e-01, 3.35268587e-01, 3.35268587e-01,
          3.12105536e-01, 3.35268587e-01, 3.32778692e-01, 3.32778692e-01,
          3.32778692e-01, 3.32778692e-01, 3.32778692e-01, 3.32778692e-01,
          3.32778692e-01, 3.32778692e-01, 3.32778692e-01, 3.41189861e-01,
          3.41189861e-01, 3.41189861e-01, 3.41189861e-01, 3.41189861e-01,
          3.41189861e-01, 2.55552113e-01, 3.41189861e-01, 3.41189861e-01,
          3.37386280e-01, 3.37386280e-01, 3.37386280e-01, 3.37386280e-01,
          3.37386280e-01, 3.37386280e-01, 2.93245643e-01, 3.37386280e-01,
          3.37386280e-01, 2.63704717e-01, 3.91533762e-01, 3.63483250e-01,
          1.00783773e-01, 3.91533762e-01, 3.91533762e-01, 3.91533762e-01,
          3.91533762e-01, 1.33331522e-01, 3.74320567e-01, 3.74320567e-01,
          3.74320567e-01, 3.74320567e-01, 3.74320567e-01, 3.10964942e-01,
          1.38467282e-01, 1.99230149e-01, 3.74320567e-01, 3.59202355e-01,
          3.59202355e-01, 3.59202355e-01, 3.25243652e-01, 3.59202355e-01,
          3.59202355e-01, 3.59202355e-01, 1.86512277e-01, 2.85802156e-01,
          4.30124223e-01, 4.54536825e-01, 2.89667755e-01, 7.53977001e-02,
          1.95011109e-01, 4.54536825e-01, 4.54536825e-01, 2.31422350e-01,
          9.72819999e-02 ]
      - [ 3.32778692e-01, 3.32778692e-01, 3.32778692e-01, 3.32778692e-01,
          3.32778692e-01, 3.32778692e-01, 3.32778692e-01, 3.32778692e-01,
          3.32778692e-01, 3.34490448e-01, 3.34490448e-01, 3.34490448e-01,
          3.28371316e-01, 3.34490448e-01, 3.34490448e-01, 3.34490448e-01,
          3.34490448e-01, 3.25028211e-01, 3.63406807e-01, 3.63406807e-01,
          3.63406807e-01, 1.94108397e-01, 2.99224496e-01, 3.63406807e-01,
          3.63406807e-01, 3.63406807e-01, 2.77072012e-01, 3.32778692e-01,
          3.32778692e-01, 3.32778692e-01, 3.32778692e-01, 3.32778692e-01,
          3.32778692e-01, 3.32778692e-01, 3.32778692e-01, 3.32778692e-01,
          3.41052264e-01, 3.41052264e-01, 3.41052264e-01, 2.57019997e-01,
          3.41052264e-01, 3.41052264e-01, 3.41052264e-01, 3.41052264e-01,
          3.41052264e-01, 3.63803118e-01, 3.63803118e-01, 3.63803118e-01,
          1.99316382e-01, 3.35117191e-01, 3.63803118e-01, 3.63803118e-01,
          3.11116129e-01, 2.92878807e-01, 3.42330515e-01, 3.42330515e-01,
          3.42330515e-01, 2.43019015e-01, 3.42330515e-01, 3.42330515e-01,
          3.42330515e-01, 3.42330515e-01, 3.42330515e-01, 3.40249568e-01,
          3.40249568e-01, 3.40249568e-01, 2.65409529e-01, 3.40249568e-01,
          3.40249568e-01, 3.40249568e-01, 3.40249568e-01, 3.40249568e-01,
          3.73097509e-01, 3.73097509e-01, 3.73097509e-01, 1.30184487e-01,
          3.10364693e-01, 3.73097509e-01, 3.73097509e-01, 2.72536844e-01,
          3.35727751e-01 ]
      - [ 3.98012161e-01, 2.05713689e-01, 2.15245843e-01, 2.98185915e-01,
          3.98012161e-01, 3.83166790e-01, 3.23934317e-01, 3.02438080e-01,
          3.98012161e-01, 3.36931795e-01, 3.36931795e-01, 3.36931795e-01,
          3.36931795e-01, 3.36931795e-01, 3.36931795e-01, 3.36931795e-01,
          2.97404140e-01, 3.36931795e-01, 2.31798083e-01, 3.39181244e-01,
          3.91686469e-01, 3.91686469e-01, 3.91686469e-01, 1.29915893e-01,
          3.91686469e-01, 3.91686469e-01, 2.08189860e-01, 3.45449418e-01,
          3.01736325e-01, 3.45449418e-01, 3.45449418e-01, 3.45449418e-01,
          3.45449418e-01, 2.64871299e-01, 3.45449418e-01, 3.45449418e-01,
          3.47458661e-01, 3.47458661e-01, 3.47458661e-01, 3.47458661e-01,
          3.47458661e-01, 2.94563919e-01, 3.47458661e-01, 3.47458661e-01,
          2.54299134e-01, 2.08724275e-01, 4.09746021e-01, 4.09746021e-01,
          4.09746021e-01, 2.80987442e-01, 1.04354970e-01, 4.09746021e-01,
          4.09746021e-01, 1.51782736e-01, 3.35058451e-01, 3.35058451e-01,
          3.35058451e-01, 3.21642697e-01, 3.32181752e-01, 3.35058451e-01,
          3.35058451e-01, 3.35058451e-01, 3.30557883e-01, 2.64708102e-01,
          3.94019783e-01, 3.94019783e-01, 3.94019783e-01, 2.47830570e-01,
          2.12794855e-01, 3.94019783e-01, 3.94019783e-01, 2.07445547e-01,
          2.03652635e-01, 3.86159033e-01, 3.86159033e-01, 3.86159033e-01,
          3.86159033e-01, 1.96618885e-01, 3.86159033e-01, 3.86159033e-01,
          1.45931140e-01 ]
      - [ 1.50213480e-01, 4.72991079e-01, 4.32948828e-01, 1.16594769e-01,
          1.69899985e-01, 4.72991079e-01, 4.72991079e-01, 2.63230056e-01,
          4.85268347e-02, 2.23776698e-01, 4.58362192e-01, 3.86911988e-01,
          1.59424499e-01, 2.37230226e-01, 4.58362192e-01, 4.58362192e-01,
          2.66414464e-01, 1.12632707e-01, 2.37997085e-01, 1.72154218e-01,
          3.88650864e-01, 1.65388852e-01, 3.88650864e-01, 3.88650864e-01,
          3.88650864e-01, 3.88650864e-01, 3.56702536e-01, 7.40153268e-02,
          4.00750309e-01, 4.00750309e-01, 3.68824959e-01, 2.92552203e-01,
          4.00750309e-01, 4.00750309e-01, 3.51723254e-01, 5.27930744e-02,
          1.39658183e-01, 3.95689309e-01, 3.95689309e-01, 3.95689309e-01,
          3.25425476e-01, 3.95689309e-01, 3.95689309e-01, 2.54516810e-01,
          1.51696950e-01, 2.40861803e-01, 1.87002271e-01, 3.86043936e-01,
          9.47607830e-02, 3.86043936e-01, 3.86043936e-01, 3.86043936e-01,
          3.86043936e-01, 3.86043936e-01, 8.17367211e-02, 4.40984696e-01,
          4.62799877e-01, 2.03721911e-01, 7.21981749e-02, 3.15839827e-01,
          4.62799877e-01, 4.62799877e-01, 7.21648559e-02, 2.09616274e-01,
          4.45411205e-01, 4.45411205e-01, 4.14671540e-01, 3.48915040e-01,
          1.76895261e-01, 3.46208274e-01, 2.85262942e-01, 1.69139773e-01,
          2.30002522e-01, 2.57231653e-01, 3.85534257e-01, 1.42311454e-01,
          3.85534257e-01, 3.85534257e-01, 3.85534257e-01, 3.85534257e-01,
          3.37110370e-01 ]
      - [ 2.72693902e-01, 1.21418945e-01, 3.10659736e-01, 3.33364069e-01,
          3.74036789e-01, 3.74036789e-01, 3.74036789e-01, 3.74036789e-01,
          3.74036789e-01, 9.84978974e-02, 1.71645179e-01, 4.24343437e-01,
          4.24343437e-01, 3.65679294e-01, 2.76775807e-01, 4.24343437e-01,
          4.24343437e-01, 1.61249697e-01, 1.36900589e-01, 3.66434336e-01,
          3.66434336e-01, 3.66434336e-01, 3.66434336e-01, 3.66434336e-01,
          3.66434336e-01, 3.66434336e-01, 1.94109470e-01, 2.12824196e-01,
          1.71250895e-01, 2.22720593e-01, 2.79998153e-01, 4.08042401e-01,
          3.93891245e-01, 4.08042401e-01, 4.08042401e-01, 3.72361690e-01,
          1.78124994e-01, 2.06071928e-01, 3.80972713e-01, 3.80972713e-01,
          3.80972713e-01, 3.80972713e-01, 3.80972713e-01, 3.80972713e-01,
          2.26182655e-01, 1.83413982e-01, 3.79863530e-01, 3.79863530e-01,
          3.79863530e-01, 3.60694557e-01, 3.00410509e-01, 3.79863530e-01,
          3.79863530e-01, 1.43999130e-01, 2.53617108e-01, 1.83932945e-01,
          1.95650458e-01, 1.57759875e-01, 3.76648337e-01, 3.82001221e-01,
          4.26859379e-01, 4.26859379e-01, 4.26859379e-01, 2.50538260e-01,
          2.51590073e-01, 3.47794235e-01, 3.53421628e-01, 3.53421628e-01,
          3.53421628e-01, 3.53421628e-01, 3.53421628e-01, 3.53421628e-01,
          3.25695336e-01, 3.40633869e-01, 3.40633869e-01, 3.40633869e-01,
          3.40633869e-01, 2.79819816e-01, 3.40633869e-01, 3.40633869e-01,
          3.40633869e-01 ]
      - [ 3.49155068e-01, 3.84495944e-01, 3.84495944e-01, 2.22467825e-01,
          3.84495944e-01, 2.34154209e-01, 3.03788185e-01, 2.93758035e-01,
          3.84495944e-01, 4.03988183e-01, 4.03988183e-01, 4.03988183e-01,
          2.20367670e-01, 1.28787547e-01, 3.28648418e-01, 2.60240406e-01,
          3.19774181e-01, 4.03988183e-01, 4.24709409e-01, 3.70462179e-01,
          4.24709409e-01, 1.35196969e-01, 5.90417907e-02, 1.86285138e-01,
          4.24709409e-01, 4.24709409e-01, 2.83789575e-01, 3.51889044e-01,
          3.51889044e-01, 3.51889044e-01, 3.08437198e-01, 3.51889044e-01,
          1.85928434e-01, 3.51889044e-01, 3.51889044e-01, 3.51889044e-01,
          5.78573234e-02, 4.53736603e-01, 4.53736603e-01, 4.53736603e-01,
          3.07976007e-01, 2.75842696e-01, 3.76355559e-01, 2.29056731e-01,
          9.71635506e-02, 9.68511552e-02, 2.67384827e-01, 4.73949999e-01,
          2.54193932e-01, 2.22165301e-01, 3.42342168e-01, 4.73949999e-01,
          4.73949999e-01, 9.66193452e-02, 1.04594857e-01, 4.19044942e-01,
          4.55011427e-01, 3.60261917e-01, 1.27402499e-01, 1.87062547e-01,
          4.55011427e-01, 4.55011427e-01, 8.24487954e-02, 7.50518739e-02,
          6.24408722e-01, 6.24408722e-01, 3.78045857e-01, 9.09305513e-02,
          6.51821867e-02, 1.82830200e-01, 1.17204376e-01, 7.59013444e-02,
          1.57619596e-01, 4.36673492e-01, 4.75024521e-01, 1.44058377e-01,
          8.62238333e-02, 1.04930103e-01, 4.75024521e-01, 4.75024521e-01,
          2.52160937e-01 ]
      - [ 1.14129640e-01, 1.54752105e-01, 3.43802571e-01, 8.53696167e-02,
          1.71748236e-01, 3.26605350e-01, 5.46202719e-01, 5.46202719e-01,
          3.15024108e-01, 1.86249614e-01, 3.59026074e-01, 4.39686626e-01,
          2.82224834e-01, 2.05497220e-01, 1.69194832e-01, 4.39686626e-01,
          4.39686626e-01, 3.18652332e-01, 1.20368168e-01, 1.73850060e-01,
          4.75988835e-01, 4.75988835e-01, 1.25983238e-01, 1.15375951e-01,
          4.69139874e-01, 4.75988835e-01, 1.46839097e-01, 3.47284019e-01,
          2.05382243e-01, 1.73464745e-01, 1.01726428e-01, 3.98194820e-01,
          3.98194820e-01, 3.98194820e-01, 3.98194820e-01, 3.98194820e-01,
          2.88565248e-01, 4.21329468e-01, 4.21329468e-01, 2.40420103e-01,
          2.14662597e-01, 1.34155855e-01, 4.21329468e-01, 4.21329468e-01,
          2.83844143e-01, 3.34351242e-01, 2.91303247e-01, 3.74418765e-01,
          3.74418765e-01, 2.74459124e-01, 2.12628275e-01, 3.74418765e-01,
          3.74418765e-01, 3.43969047e-01, 4.14280027e-01, 1.13583438e-01,
          8.94613564e-02, 1.36845708e-01, 4.14280027e-01, 3.13194245e-01,
          4.14280027e-01, 4.14280027e-01, 4.14280027e-01, 8.53999928e-02,
          3.06223810e-01, 4.32679951e-01, 3.31070125e-01, 3.83954287e-01,
          2.55712897e-01, 4.32679951e-01, 4.32679951e-01, 1.02754354e-01,
          2.14637473e-01, 3.00764769e-01, 3.85457039e-01, 3.85457039e-01,
          3.85457039e-01, 2.24584088e-01, 3.85457039e-01, 3.85457039e-01,
          2.57481515e-01 ]
      - [ 3.48934978e-01, 3.48934978e-01, 3.07305694e-01, 2.23131344e-01,
          3.48934978e-01, 3.48934978e-01, 3.48934978e-01, 3.48934978e-01,
          3.48934978e-01, 3.36104721e-01, 3.36104721e-01, 3.36104721e-01,
          3.36104721e-01, 3.36104721e-01, 3.04812551e-01, 3.36104721e-01,
          3.36104721e-01, 3.36104721e-01, 2.77726084e-01, 3.04426491e-01,
          3.55085939e-01, 3.55085939e-01, 3.55085939e-01, 2.64818639e-01,
          3.55085939e-01, 3.55085939e-01, 3.55085939e-01, 3.32983375e-01,
          3.32983375e-01, 3.32983375e-01, 3.31133485e-01, 3.32983375e-01,
          3.32983375e-01, 3.32983375e-01, 3.32983375e-01, 3.32983375e-01,
          3.32778692e-01, 3.32778692e-01, 3.32778692e-01, 3.32778692e-01,
          3.32778692e-01, 3.32778692e-01, 3.32778692e-01, 3.32778692e-01,
          3.32778692e-01, 3.32134664e-01, 3.17107081e-01, 3.35044116e-01,
          3.35044116e-01, 3.35044116e-01, 3.35044116e-01, 3.35044116e-01,
          3.35044116e-01, 3.35044116e-01, 3.43145311e-01, 3.43145311e-01,
          3.43145311e-01, 2.33627811e-01, 3.43145311e-01, 3.43145311e-01,
          3.43145311e-01, 3.43145311e-01, 3.43145311e-01, 3.32778692e-01,
          3.32778692e-01, 3.32778692e-01, 3.32778692e-01, 3.32778692e-01,
          3.32778692e-01, 3.32778692e-01, 3.32778692e-01, 3.32778692e-01,
          3.49947512e-01, 3.49947512e-01, 3.17094475e-01, 2.40010634e-01,
          3.49947512e-01, 3.21823001e-01, 3.49947512e-01, 3.49947512e-01,
          3.49947512e-01 ]
      - [ 3.36194903e-01, 3.36194903e-01, 3.36194903e-01, 3.33337873e-01,
          3.36194903e-01, 3.07144523e-01, 3.36194903e-01, 3.36194903e-01,
          3.36194903e-01, 3.50383848e-01, 3.50383848e-01, 3.50383848e-01,
          2.42670581e-01, 3.50383848e-01, 3.50383848e-01, 3.50383848e-01,
          2.79693246e-01, 3.50383848e-01, 3.57295930e-01, 3.57295930e-01,
          2.48989046e-01, 2.08963275e-01, 3.53279978e-01, 3.57295930e-01,
          3.57295930e-01, 3.57295930e-01, 3.57295930e-01, 3.33033919e-01,
          3.33033919e-01, 3.33033919e-01, 3.33033919e-01, 3.33033919e-01,
          3.33016962e-01, 3.33033919e-01, 3.30743223e-01, 3.33033919e-01,
          3.33503753e-01, 3.33503753e-01, 3.33503753e-01, 3.33503753e-01,
          3.33503753e-01, 3.33503753e-01, 3.33503753e-01, 3.26909333e-01,
          3.33503753e-01, 3.41165304e-01, 3.59719396e-01, 3.59719396e-01,
          2.73605257e-01, 2.70331055e-01, 3.59719396e-01, 3.59719396e-01,
          3.59719396e-01, 2.91690409e-01, 3.32778692e-01, 3.32778692e-01,
          3.32778692e-01, 3.32778692e-01, 3.32778692e-01, 3.32778692e-01,
          3.32778692e-01, 3.32778692e-01, 3.32778692e-01, 3.48237604e-01,
          3.48237604e-01, 3.48237604e-01, 3.48237604e-01, 3.46733719e-01,
          3.48237604e-01, 3.48237604e-01, 2.52612740e-01, 2.91318625e-01,
          2.69780666e-01, 3.71471763e-01, 3.71471763e-01, 3.31033051e-01,
          3.60045165e-01, 3.71471763e-01, 3.71471763e-01, 3.18920463e-01,
          1.74975336e-01 ]
      - [ 3.50262135e-01, 3.50262135e-01, 3.50262135e-01, 3.50262135e-01,
          3.50262135e-01, 3.50262135e-01, 2.34490633e-01, 2.87627846e-01,
          3.50262135e-01, 3.04062307e-01, 3.60969305e-01, 3.60969305e-01,
          3.60969305e-01, 3.60969305e-01, 3.60969305e-01, 3.18596303e-01,
          2.12779641e-01, 3.25064063e-01, 1.20138325e-01, 3.43539327e-01,
          3.99491161e-01, 3.99491161e-01, 2.64989257e-01, 2.98097163e-01,
          3.99491161e-01, 3.99491161e-01, 2.57104069e-01, 3.68366778e-01,
          3.52322876e-01, 3.68366778e-01, 3.68366778e-01, 3.68366778e-01,
          3.68366778e-01, 1.66119769e-01, 1.74436480e-01, 3.68366778e-01,
          3.43071729e-01, 3.43071729e-01, 3.43071729e-01, 3.43071729e-01,
          3.43071729e-01, 3.43071729e-01, 3.42421114e-01, 2.35441208e-01,
          3.43071729e-01, 2.10535616e-01, 2.95805901e-01, 3.77648175e-01,
          3.77648175e-01, 3.11352223e-01, 2.83661693e-01, 3.77648175e-01,
          3.77648175e-01, 3.41356158e-01, 3.51795912e-01, 2.45283753e-01,
          2.64572382e-01, 3.51795912e-01, 3.51795912e-01, 3.51795912e-01,
          3.51795912e-01, 3.51795912e-01, 3.51795912e-01, 3.48144859e-01,
          3.48144859e-01, 3.48144859e-01, 3.48144859e-01, 3.48144859e-01,
          3.33952993e-01, 3.16427439e-01, 2.40086526e-01, 3.48144859e-01,
          2.34710544e-01, 3.39932889e-01, 3.80430549e-01, 3.80430549e-01,
          2.04297796e-01, 3.11459512e-01, 3.80430549e-01, 3.80430549e-01,
          3.28483701e-01 ]
      - [ 3.77643317e-01, 3.77643317e-01, 2.84876347e-01, 8.54575634e-02,
          2.28216410e-01, 3.77643317e-01, 3.77643317e-01, 3.77643317e-01,
          3.77643317e-01, 4.02493149e-01, 4.02493149e-01, 4.02493149e-01,
          1.41777173e-01, 1.44465417e-01, 2.50048310e-01, 4.02493149e-01,
          4.02493149e-01, 2.87193835e-01, 3.92191440e-01, 4.13263410e-01,
          4.13263410e-01, 9.45029333e-02, 1.15886092e-01, 4.13263410e-01,
          4.13263410e-01, 2.95829475e-01, 2.21439272e-01, 3.32778692e-01,
          3.32778692e-01, 3.32778692e-01, 3.32778692e-01, 3.32778692e-01,
          3.32778692e-01, 3.32778692e-01, 3.32778692e-01, 3.32778692e-01,
          3.44423711e-01, 3.44423711e-01, 3.44423711e-01, 3.40281397e-01,
          3.44423711e-01, 3.44423711e-01, 3.44423711e-01, 3.44423711e-01,
          2.24440470e-01, 3.14922392e-01, 3.88278455e-01, 3.83508444e-01,
          1.99133217e-01, 2.87329167e-01, 3.88278455e-01, 3.88278455e-01,
          3.88278455e-01, 1.56887040e-01, 2.31917784e-01, 3.05247456e-01,
          3.54461819e-01, 3.09253365e-01, 3.54461819e-01, 3.54461819e-01,
          3.54461819e-01, 3.54461819e-01, 3.54461819e-01, 1.71078205e-01,
          3.34180206e-01, 3.77666265e-01, 3.77666265e-01, 3.77666265e-01,
          3.77666265e-01, 3.77666265e-01, 3.47951829e-01, 1.45097062e-01,
          1.75830215e-01, 3.87041599e-01, 3.87041599e-01, 3.87041599e-01,
          3.87041599e-01, 3.87041599e-01, 3.87041599e-01, 2.33633056e-01,
          1.08745709e-01 ]
      - [ 3.45596701e-01, 3.45596701e-01, 3.45596701e-01, 2.06064820e-01,
          3.45596701e-01, 3.43547434e-01, 3.45596701e-01, 3.45596701e-01,
          3.45596701e-01, 3.47637743e-01, 3.47637743e-01, 3.47637743e-01,
          2.41297692e-01, 3.47637743e-01, 3.31410676e-01, 3.47637743e-01,
          3.47637743e-01, 3.21492016e-01, 3.66947502e-01, 3.66947502e-01,
          3.66947502e-01, 2.01071098e-01, 3.66947502e-01, 3.66947502e-01,
          3.66947502e-01, 3.66947502e-01, 1.15546949e-01, 3.43059570e-01,
          3.43059570e-01, 3.43059570e-01, 3.29715639e-01, 3.43059570e-01,
          3.13830465e-01, 2.88498282e-01, 3.43059570e-01, 3.43059570e-01,
          3.33207697e-01, 3.33207697e-01, 3.33207697e-01, 3.29319984e-01,
          3.33207697e-01, 3.33207697e-01, 3.33207697e-01, 3.33207697e-01,
          3.33207697e-01, 3.70088458e-01, 3.70088458e-01, 3.70088458e-01,
          1.85114086e-01, 3.70088458e-01, 3.70088458e-01, 3.70088458e-01,
          3.13053101e-01, 2.05524564e-01, 3.32778692e-01, 3.32778692e-01,
          3.32778692e-01, 3.32778692e-01, 3.32778692e-01, 3.32778692e-01,
          3.32778692e-01, 3.32778692e-01, 3.32778692e-01, 2.92741925e-01,
          3.41538697e-01, 3.41538697e-01, 3.07162881e-01, 3.41538697e-01,
          3.41538697e-01, 3.41538697e-01, 3.41538697e-01, 3.41538697e-01,
          3.77873063e-01, 3.77873063e-01, 3.77873063e-01, 2.21593976e-01,
          2.53783226e-01, 3.77873063e-01, 3.77873063e-01, 3.15106452e-01,
          2.63595760e-01 ]
      - [ 3.32778692e-01, 3.32778692e-01, 3.32778692e-01, 3.32778692e-01,
          3.32778692e-01, 3.32778692e-01, 3.32778692e-01, 3.32778692e-01,
          3.32778692e-01, 3.28146517e-01, 3.37947220e-01, 3.37947220e-01,
          3.37947220e-01, 3.37947220e-01, 2.99140304e-01, 3.37947220e-01,
          3.37947220e-01, 3.37947220e-01, 1.22841060e-01, 2.42607817e-01,
          3.82224172e-01, 3.82224172e-01, 3.82224172e-01, 3.32231611e-01,
          3.82224172e-01, 3.82224172e-01, 2.85269111e-01, 3.40658218e-01,
          3.40658218e-01, 3.40658218e-01, 2.61174530e-01, 3.40658218e-01,
          3.40658218e-01, 3.40658218e-01, 3.40658218e-01, 3.40658218e-01,
          3.36367339e-01, 3.36367339e-01, 3.36367339e-01, 3.02482069e-01,
          3.36367339e-01, 3.36367339e-01, 3.36367339e-01, 3.36367339e-01,
          3.36367339e-01, 3.57174873e-01, 3.57174873e-01, 3.57174873e-01,
          3.19851249e-01, 2.57542938e-01, 2.49709666e-01, 3.57174873e-01,
          3.57174873e-01, 3.57174873e-01, 3.35931957e-01, 3.40911090e-01,
          3.40911090e-01, 3.40911090e-01, 3.18857282e-01, 2.91120827e-01,
          3.40911090e-01, 3.40911090e-01, 3.40911090e-01, 2.29700595e-01,
          3.02644223e-01, 3.59582633e-01, 3.59582633e-01, 3.59582633e-01,
          3.03454369e-01, 3.59582633e-01, 3.59582633e-01, 3.36851150e-01,
          2.84040451e-01, 3.65198791e-01, 3.65198791e-01, 3.65198791e-01,
          2.30845511e-01, 2.49322861e-01, 3.65198791e-01, 3.65198791e-01,
          3.65198791e-01 ]
      - [ 5.32112792e-02, 4.01205689e-01, 4.98403370e-01, 1.22336179e-01,
          1.03271417e-01, 2.35424995e-01, 4.98403370e-01, 4.98403370e-01,
          7.03634396e-02, 4.59161736e-02, 4.91118759e-01, 4.91118759e-01,
          8.57034400e-02, 5.31246737e-02, 1.27139792e-01, 4.91118759e-01,
          4.91118759e-01, 4.31740321e-02, 9.80452374e-02, 4.40969437e-01,
          4.66171414e-01, 1.29789308e-01, 7.38929287e-02, 3.16269964e-01,
          4.66171414e-01, 4.66171414e-01, 1.30373999e-01, 6.57000244e-02,
          2.02536702e-01, 3.86878639e-01, 3.86878639e-01, 3.86878639e-01,
          3.86878639e-01, 3.86878639e-01, 3.86878639e-01, 2.29666635e-01,
          2.22811550e-01, 3.82342547e-01, 3.82342547e-01, 3.82342547e-01,
          3.82342547e-01, 1.88000739e-01, 3.82342547e-01, 3.82342547e-01,
          1.84596822e-01, 2.53726751e-01, 3.86454314e-01, 3.86454314e-01,
          1.45977125e-01, 3.57150316e-01, 3.57530564e-01, 3.86454314e-01,
          3.86454314e-01, 2.40167782e-01, 3.32778692e-01, 3.32778692e-01,
          3.32778692e-01, 3.32778692e-01, 3.32778692e-01, 3.32778692e-01,
          3.32778692e-01, 3.32778692e-01, 3.32778692e-01, 3.53377312e-01,
          3.53377312e-01, 3.53377312e-01, 1.99010238e-01, 3.53377312e-01,
          3.25000882e-01, 3.53377312e-01, 3.53377312e-01, 3.19351733e-01,
          3.42779458e-01, 3.52013707e-01, 3.52486730e-01, 9.79052708e-02,
          3.52486730e-01, 3.52486730e-01, 3.52486730e-01, 3.52486730e-01,
          3.52486730e-01 ]
      - [ 3.09333116e-01, 3.26689273e-01, 4.04738754e-01, 3.48681986e-01,
          3.04877579e-01, 3.23431909e-01, 4.04738754e-01, 2.81684101e-01,
          2.59679228e-01, 2.65735183e-02, 4.25411463e-01, 4.90746826e-01,
          4.90746826e-01, 8.79628062e-02, 1.13362983e-01, 4.90746826e-01,
          2.64349073e-01, 2.12398879e-02, 3.77237052e-02, 2.09701240e-01,
          4.79560196e-01, 4.79560196e-01, 9.84235331e-02, 1.25306308e-01,
          4.79560196e-01, 4.79560196e-01, 6.71686828e-02, 3.48510057e-01,
          3.48510057e-01, 3.48510057e-01, 3.48510057e-01, 3.48510057e-01,
          3.48510057e-01, 3.48510057e-01, 1.57619357e-01, 3.48510057e-01,
          1.56208917e-01, 2.40279332e-01, 4.43941504e-01, 4.43941504e-01,
          3.42913359e-01, 2.76248783e-01, 4.43941504e-01, 3.39070857e-01,
          1.15350805e-01, 2.36356407e-02, 1.28286123e-01, 5.56709051e-01,
          3.18645269e-01, 3.22783515e-02, 5.22602424e-02, 5.56709051e-01,
          4.99005288e-01, 5.71014993e-02, 3.32778692e-01, 3.32778692e-01,
          3.32778692e-01, 3.32778692e-01, 3.32778692e-01, 3.32778692e-01,
          3.32778692e-01, 3.32778692e-01, 3.32778692e-01, 5.22445515e-02,
          2.16844469e-01, 4.79835957e-01, 4.79835957e-01, 2.52218962e-01,
          2.50689179e-01, 4.79835957e-01, 3.55326414e-01, 4.48617339e-02,
          8.90979357e-03, 6.98900893e-02, 6.22765422e-01, 5.17822742e-01,
          2.71124560e-02, 2.54482813e-02, 3.95335078e-01, 4.15873498e-01,
          4.70923409e-02 ]
      - [ 3.97837132e-01, 3.97837132e-01, 3.97837132e-01, 1.77674174e-01,
          3.97837132e-01, 3.40497106e-01, 2.21363291e-01, 1.61643773e-01,
          3.74554783e-01, 4.19739574e-01, 1.96317554e-01, 2.59019613e-01,
          4.19739574e-01, 4.19739574e-01, 2.08705202e-01, 1.47481784e-01,
          3.46614003e-01, 4.19739574e-01, 4.24925148e-01, 1.77418783e-01,
          1.30437881e-01, 4.24925148e-01, 4.24925148e-01, 1.05472028e-01,
          1.82571903e-01, 4.24925148e-01, 4.24925148e-01, 3.67824167e-01,
          3.67824167e-01, 3.67824167e-01, 1.85154900e-01, 3.67824167e-01,
          3.67824167e-01, 3.65093350e-01, 1.30314752e-01, 3.67824167e-01,
          4.32059377e-01, 1.14217453e-01, 1.70750454e-01, 4.32059377e-01,
          4.32059377e-01, 3.74438494e-01, 1.42295226e-01, 2.15242863e-01,
          4.32059377e-01, 2.92864889e-01, 5.08259609e-02, 1.77645370e-01,
          4.71168518e-01, 4.71168518e-01, 5.98806627e-02, 4.58431989e-02,
          4.51327264e-01, 4.71168518e-01, 1.69857889e-01, 1.56396315e-01,
          3.76885325e-01, 3.76885325e-01, 3.76885325e-01, 3.76885325e-01,
          3.76885325e-01, 3.76885325e-01, 3.01111162e-01, 4.13627513e-02,
          3.46910059e-02, 4.86728907e-01, 4.86728907e-01, 3.09839755e-01,
          2.31779337e-01, 2.40241438e-01, 4.86728907e-01, 2.72159636e-01,
          7.13220909e-02, 8.24988931e-02, 4.21564490e-01, 4.21564490e-01,
          4.21564490e-01, 2.10550785e-01, 2.99846917e-01, 4.21564490e-01,
          3.72544646e-01 ]
      - [ 3.82113308e-01, 2.49334529e-01, 2.75716662e-01, 1.25939429e-01,
          3.82113308e-01, 3.34785581e-01, 3.82113308e-01, 3.82113308e-01,
          3.82113308e-01, 3.38289559e-01, 3.38289559e-01, 3.38289559e-01,
          3.38289559e-01, 3.38289559e-01, 3.38289559e-01, 3.38289559e-01,
          2.84783006e-01, 3.38289559e-01, 3.61552477e-01, 3.70170981e-01,
          3.70170981e-01, 3.70170981e-01, 1.94214448e-01, 7.55190030e-02,
          3.70170981e-01, 3.70170981e-01, 3.70170981e-01, 3.62242907e-01,
          3.09979647e-01, 3.62242907e-01, 2.97685176e-01, 3.62242907e-01,
          2.67248541e-01, 3.62242907e-01, 3.14893514e-01, 3.40907067e-01,
          3.40080976e-01, 3.40080976e-01, 3.40080976e-01, 2.67135680e-01,
          3.40080976e-01, 3.40080976e-01, 3.40080976e-01, 3.40080976e-01,
          3.40080976e-01, 2.13491097e-01, 3.67231816e-01, 3.67231816e-01,
          3.67231816e-01, 3.67231816e-01, 3.35595429e-01, 3.67231816e-01,
          3.57425630e-01, 1.89945921e-01, 3.26564997e-01, 3.23011279e-01,
          3.60225499e-01, 2.31087923e-01, 3.60225499e-01, 2.88455158e-01,
          3.60225499e-01, 3.60225499e-01, 3.60225499e-01, 3.32778692e-01,
          3.32778692e-01, 3.32778692e-01, 3.32778692e-01, 3.32778692e-01,
          3.32778692e-01, 3.32778692e-01, 3.32778692e-01, 3.32778692e-01,
          2.79331654e-01, 2.11275399e-01, 3.74633521e-01, 3.74633521e-01,
          3.74633521e-01, 3.74633521e-01, 3.74633521e-01, 3.30169797e-01,
          2.50659734e-01 ]
      - [ 3.74245793e-01, 2.54975259e-01, 2.66554356e-01, 2.11173221e-01,
          3.74245793e-01, 3.74245793e-01, 3.74245793e-01, 3.39564234e-01,
