%YAML:1.0
---
opencv_ml_svm:
   format: 3
   svmType: C_SVC
   kernel:
      type: LINEAR
   C: 5.5000000000000000e-02
   term_criteria: { epsilon:1.1920928955078125e-07, iterations:1000 }
   var_count: 432
   class_count: 2
   class_labels: !!opencv-matrix
      rows: 2
      cols: 1
      dt: i
      data: [ 0, 1 ]
   sv_total: 1
   support_vectors:
      - [ 8.88639614e-02, 8.24114904e-02, -1.38096735e-01,
          -1.35279238e-01, 3.72218154e-02, 1.59768164e-01,
          2.44991764e-01, 1.26402974e-01, 1.28734648e-01, 8.87677222e-02,
          8.10193643e-02, 7.70821497e-02, 3.58239338e-02, 1.65839195e-01,
          -1.16050497e-01, -5.33179529e-02, 1.17490843e-01,
          -2.49450002e-03, 2.29222677e-03, 1.45462915e-01,
          3.77880782e-02, 5.06410450e-02, 1.09833488e-02, 1.43332377e-01,
          3.34606916e-02, 1.86939742e-02, -9.23979282e-02,
          -8.84430204e-03, 2.40910407e-02, 1.13763236e-01,
          7.72474185e-02, 3.56855989e-02, 6.79531321e-02,
          -2.31135692e-02, 5.86254708e-02, 7.10688159e-02,
          -3.31617221e-02, -6.84540719e-03, -1.07041888e-01,
          5.32813706e-02, 1.01087548e-01, -1.54021397e-01,
          -8.32134485e-02, -6.47484660e-02, -8.07297975e-02,
          -9.87580717e-02, -5.89361005e-02, 2.57103629e-02,
          7.00713992e-02, 8.75810236e-02, -2.99451649e-02,
          2.44025830e-02, 1.10228054e-01, 9.40284878e-02, 7.01541230e-02,
          1.24696590e-01, 6.07575253e-02, 7.40018040e-02, 3.02236006e-02,
          9.95980725e-02, -2.81487033e-02, -7.54624158e-02,
          1.74482062e-01, 2.15745792e-01, 2.09673837e-01,
          -8.37163180e-02, 1.32322758e-02, 7.97103643e-02,
          5.82390651e-02, 3.83782089e-02, 7.49415085e-02, 7.11091310e-02,
          -6.75443336e-02, 3.35850840e-04, 6.97199372e-04,
          2.28115544e-02, 1.32521391e-01, -1.57492027e-01,
          -2.24175155e-01, -1.51195889e-02, 5.80829047e-02,
          5.37395366e-02, 1.29547883e-02, 7.68502802e-02,
          -1.15697868e-01, -2.18469098e-01, 3.13576795e-02,
          1.37649804e-01, 6.07724525e-02, -2.55959749e-01,
          -2.45799180e-02, 7.92077556e-02, 1.71271488e-01,
          1.17499098e-01, 6.34817556e-02, -3.10655143e-02,
          -7.74264708e-02, -6.85878769e-02, 1.52247593e-01,
          1.48822144e-01, 8.47801939e-02, -1.04744904e-01,
          -9.84878764e-02, 1.74247827e-02, 4.44390066e-02,
          4.22159843e-02, 7.04666376e-02, -1.84721872e-02,
          4.03712913e-02, -2.80526429e-02, 2.55924374e-01,
          1.99451044e-01, 5.17400168e-02, 1.57059297e-01, 1.06353492e-01,
          9.55559721e-04, 1.22217663e-01, 1.72468930e-01, 8.71967599e-02,
          2.36902013e-02, -1.03270777e-01, -2.16536224e-01,
          -8.44083875e-02, -1.08953692e-01, -2.06841692e-01,
          -3.76458228e-01, -2.18870625e-01, 3.68679799e-02,
          -3.19315381e-02, -2.80593466e-02, -1.11913413e-01,
          -8.70438442e-02, 1.05640762e-01, -1.40427455e-01,
          -4.95026410e-02, -1.53502300e-01, -1.79883331e-01,
          7.77288377e-02, 1.62330434e-01, -2.78685568e-03,
          -8.20147321e-02, -1.54347777e-01, -1.48785442e-01,
          3.02194506e-02, 1.67533159e-01, 4.74183261e-03,
          -1.51673304e-02, -4.14309539e-02, 2.67483070e-02,
          2.27535814e-01, 1.17855817e-01, 1.93832535e-02,
          -4.56025004e-02, -1.11549862e-01, 1.23392148e-02,
          9.90035534e-02, 4.81732823e-02, -5.48696369e-02,
          -5.94639480e-02, 2.33281637e-03, 9.94259790e-02,
          -6.22753636e-04, -1.66976973e-01, 4.41473871e-02,
          -1.20196171e-01, -2.16829464e-01, -6.50470853e-02,
          -2.54476786e-01, 3.16399246e-01, 4.73254360e-03,
          1.14231870e-01, -7.38183558e-02, -1.33406632e-02,
          1.46170959e-01, 1.67441651e-01, 9.98456962e-03,
          -5.16374670e-02, -1.35049000e-01, -2.25927811e-02,
          -3.65315005e-02, -6.44998774e-02, -3.29758972e-02,
          1.52581438e-01, 1.91156641e-02, -2.26689558e-02,
          -7.81213492e-02, -1.87973246e-01, -1.61177143e-01,
          -1.01578668e-01, -5.64704612e-02, -3.01748607e-02,
          -1.54744327e-01, -1.75735317e-02, 7.99476355e-03,
          1.27204498e-02, -1.83435362e-02, 9.17668194e-02,
          2.30431054e-02, -1.34061262e-01, 4.40649912e-02,
          2.69173961e-02, -3.72839011e-02, -6.27030898e-03,
          -6.63763136e-02, -2.16045067e-01, -9.31763127e-02,
          -1.91489048e-02, -4.98045050e-02, 5.88723458e-03,
          -2.82917768e-01, -1.02159642e-01, 9.54219177e-02,
          9.74675417e-02, 1.02736279e-02, -1.37709424e-01,
          -1.57177418e-01, -5.24912700e-02, 6.67817444e-02,
          1.64511591e-01, -2.44317483e-02, 4.21545319e-02,
          -1.16225258e-01, -4.47806157e-02, 9.95380222e-04,
          7.28152916e-02, 1.55334502e-01, 2.12250017e-02,
          -1.94945037e-01, -1.81147754e-01, 1.73704494e-02,
          1.99964941e-01, 2.81246938e-02, 2.31236033e-02,
          -2.77385503e-01, -1.04278654e-01, -1.44551229e-02,
          8.04019198e-02, 9.67442244e-02, -1.52249724e-01,
          -7.37074688e-02, -9.58816782e-02, -8.35692137e-02,
          -1.70637295e-01, -1.75332293e-01, -1.47680268e-01,
          -1.63228855e-01, 1.18722253e-01, 1.57812089e-02,
          -9.24092233e-02, -5.93785122e-02, -1.90940514e-01,
          -2.39749271e-02, 1.84453577e-01, -1.15312599e-02,
          -8.58275592e-02, -1.68665811e-01, -1.07178643e-01,
          2.25261405e-01, 3.13322902e-01, -7.05775842e-02,
          -1.77467287e-01, -2.24168316e-01, -1.27419204e-01,
          2.19937518e-01, -7.04645589e-02, -1.34255022e-01,
          -8.23489875e-02, -8.97904411e-02, -7.42468461e-02,
          -1.57741591e-01, 2.79519223e-02, -1.10244609e-01,
          -1.41547814e-01, -7.96616748e-02, -1.67949453e-01,
          -1.31174266e-01, 2.51329839e-01, -2.91657131e-02,
          -1.52533531e-01, -1.48330122e-01, -1.00059502e-01,
          1.88248977e-01, 2.55825132e-01, -1.75281078e-01,
          -1.35761991e-01, -1.55935392e-01, -1.00106813e-01,
          2.79267728e-01, 9.18862522e-02, 2.63896957e-03, 1.46401254e-03,
          -1.04808874e-01, -1.24736251e-02, 1.32056221e-01,
          8.95145163e-02, 1.79646090e-02, -2.19940185e-03,
          7.40003306e-03, -2.03575175e-02, -1.27543017e-01,
          1.08492477e-02, 2.78239530e-02, 1.09846741e-02,
          -5.46520092e-02, -2.88155992e-02, 3.21706943e-02,
          -7.46203819e-03, -1.75224349e-01, 3.26227732e-02,
          1.17484339e-01, -6.68495521e-02, -2.70459592e-01,
          1.76012024e-01, 7.15397298e-02, -1.18491493e-01,
          1.83162140e-03, 5.45958690e-02, 1.89362362e-01, 1.03890166e-01,
          2.51392368e-02, -1.03444448e-02, 5.47708981e-02,
          9.98337939e-02, 1.46753654e-01, -6.63321316e-02,
          6.63089976e-02, 2.65951082e-02, 5.10560535e-02, 7.98549801e-02,
          2.67708916e-02, 6.42453134e-02, -9.98903364e-02,
          -6.65307939e-02, -7.22950092e-03, 1.32913843e-01,
          -1.29004881e-01, -9.54444781e-02, 1.05580598e-01,
          2.36572828e-02, -1.70667991e-01, -8.84664245e-03,
          -4.40829694e-02, -4.32027914e-02, -1.08069979e-01,
          4.25763540e-02, 1.87170759e-01, 5.98875098e-02,
          -2.81206280e-01, -2.62045115e-01, 1.24297395e-01,
          2.16603473e-01, -8.64273235e-02, -4.60180975e-02,
          -1.71148717e-01, 2.57089920e-02, -1.33610427e-01,
          -2.65543237e-02, 1.04366511e-01, -7.18503892e-02,
          -1.05147198e-01, 2.02034190e-01, 9.67962444e-02,
          4.02003750e-02, -1.23650447e-01, 1.40856942e-02,
          8.60992521e-02, 7.81165063e-02, -9.63660106e-02,
          5.16769253e-02, 1.53314561e-01, 1.84269965e-01, 9.20456946e-02,
          -1.02944359e-01, 1.70877948e-01, 1.26224875e-01,
          -5.38379438e-02, -5.66587150e-02, 6.94246218e-02,
          6.54887483e-02, -1.46984145e-01, 7.44526684e-02,
          1.37619272e-01, 9.76168215e-02, -1.46184921e-01,
          -2.41719246e-01, -5.94206005e-02, -3.22906189e-02,
          -1.00741215e-01, -6.09732829e-02, -2.08793476e-01,
          -8.30020159e-02, -2.17432857e-01, -1.07439257e-01,
          -6.86093196e-02, -1.49959698e-01, -1.89404115e-01,
          6.78947866e-02, -1.17016345e-01, -4.68399078e-02,
          -4.82005700e-02, -6.81029782e-02, 7.49898553e-02,
          6.04858324e-02, -1.18428208e-01, -1.24493307e-02,
          -1.89416725e-02, -7.78667480e-02, 4.07191329e-02,
          -1.03768319e-01, 6.76177070e-02, 6.82567582e-02,
          -4.45177890e-02, -2.57471092e-02, -4.27456833e-02,
          3.02049424e-03, -1.42694473e-01, 1.71756390e-02,
          9.10911709e-02, -4.64868965e-03, -1.67245552e-01,
          -1.71814173e-01, -2.19158214e-02, 1.68365553e-01,
          2.81847622e-02, -4.82246056e-02, 6.51644245e-02,
          6.08621426e-02, -3.43174450e-02, 1.14887893e-01,
          9.73700434e-02, 1.38555830e-02, -1.26542762e-01 ]
   uncompressed_sv_total: 351
   uncompressed_support_vectors:
      - [ 0., 0., 1.66006133e-01, 3.40971649e-01, 6.92976192e-02,
          1.06950812e-01, 4.22303565e-02, 0., 0., 0., 0., 0., 0., 0.,
          7.54378289e-02, 3.45108002e-01, 7.51968920e-02, 2.64340878e-01,
          2.94802576e-01, 2.80990489e-02, 3.74095654e-03, 3.74095654e-03,
          0., 0., 0., 0., 4.74189743e-02, 3.01665038e-01, 1.55795187e-01,
          3.45108002e-01, 1.79847211e-01, 0., 0., 0., 0., 0., 0., 0.,
          1.58063229e-02, 1.85351565e-01, 6.92976192e-02, 3.45108002e-01,
          3.45108002e-01, 9.36635118e-03, 0., 0., 0., 0., 0., 0.,
          5.88206714e-03, 4.44971323e-02, 7.90816545e-03, 8.87389258e-02,
          3.47352207e-01, 2.80146655e-02, 3.72972223e-03, 3.72972223e-03,
          0., 0., 0., 0., 1.00903045e-02, 1.00903045e-02, 0.,
          2.16330454e-01, 4.24856961e-01, 9.33822338e-03, 1.24324067e-03,
          1.24324067e-03, 0., 0., 0., 0., 0., 1.28716892e-02,
          2.63605523e-03, 3.08158815e-01, 4.24856961e-01, 9.33822338e-03,
          0., 0., 0., 0., 0., 0., 0., 0., 0., 4.24856961e-01,
          4.24856961e-01, 3.11274035e-03, 0., 0., 0., 0., 0., 0.,
          2.90432665e-03, 2.90432665e-03, 0., 1.22139446e-01,
          3.94753903e-01, 0., 1.13488548e-03, 1.13488548e-03, 0., 0., 0.,
          0., 5.63189620e-04, 5.63189620e-04, 0., 3.06535065e-01,
          3.94753903e-01, 0., 3.40465666e-03, 3.40465666e-03, 0., 0., 0.,
          0., 0., 0., 0., 3.28600407e-01, 3.94753903e-01, 0., 0., 0., 0.,
          0., 0., 0., 0., 0., 0., 3.94753903e-01, 3.94753903e-01, 0., 0.,
          0., 0., 0., 8.26682225e-02, 3.13305371e-02, 0., 6.17646649e-02,
          4.18321006e-02, 2.60867149e-01, 2.11438581e-01, 0., 0., 0., 0.,
          5.94642609e-02, 1.08784258e-01, 1.04435105e-02, 0.,
          2.05882210e-02, 1.39440354e-02, 3.24906886e-01, 3.24906886e-01,
          0., 0., 9.86113120e-03, 2.39366014e-02, 1.72311455e-01,
          2.56488234e-01, 1.98455781e-01, 1.95741400e-01, 0., 0.,
          6.09294996e-02, 6.25893027e-02, 0., 0., 0., 5.15293367e-02,
          2.97149837e-01, 3.24906886e-01, 6.61519319e-02, 6.52471408e-02,
          0., 0., 1.42205015e-01, 1.83722690e-01, 0., 6.12108968e-03,
          2.14305177e-01, 2.26397812e-01, 3.24906886e-01, 1.70330331e-02,
          0., 0., 0., 0., 3.46721500e-01, 3.46721500e-01, 0., 0.,
          1.34694735e-02, 3.51193175e-02, 7.21492246e-02, 2.41096839e-02,
          0., 0., 0., 0., 3.46721500e-01, 3.46721500e-01, 0., 0.,
          4.48982418e-03, 1.81702748e-02, 1.63972452e-01, 7.80655220e-02,
          5.49718030e-02, 0., 0., 0., 1.23490445e-01, 1.12781681e-01, 0.,
          8.36089253e-03, 2.92722821e-01, 1.33934572e-01, 2.77601987e-01,
          2.11935461e-01, 1.64915398e-01, 0., 0., 0., 1.93647653e-01,
          1.44121364e-01, 0., 2.78696441e-03, 9.75742713e-02,
          5.45108207e-02, 3.46721500e-01, 3.08514591e-02, 5.72398789e-02,
          2.13010442e-02, 0., 0., 3.24930787e-01, 3.24930787e-01, 0., 0.,
          0., 1.25932600e-03, 7.60663524e-02, 2.93388125e-02,
          1.71719640e-01, 6.39031306e-02, 0., 0., 3.24930787e-01,
          3.24930787e-01, 0., 0., 0., 0., 3.74319702e-02, 1.97942764e-01,
          2.00279504e-01, 6.39031306e-02, 0., 0., 1.37529954e-01,
          6.98155761e-02, 0., 0., 0., 3.77797778e-03, 3.24930787e-01,
          1.61822498e-01, 3.24930787e-01, 1.91709399e-01, 0., 0.,
          1.92980155e-01, 6.34858832e-02, 0., 0., 0., 0., 3.24930787e-01,
          6.05451167e-02, 1.67567879e-01, 3.27070087e-01, 0., 0., 0., 0.,
          2.80432664e-02, 2.14440208e-02, 0., 6.76733628e-02,
          1.92994520e-01, 5.80044836e-02, 5.58559634e-02, 1.46044910e-01,
          0., 0., 0., 0., 8.41297954e-02, 7.45109841e-02, 3.27070087e-01,
          2.15783268e-01, 3.27070087e-01, 1.96870361e-02, 8.67397860e-02,
          3.27070087e-01, 9.11813378e-02, 0., 0., 0., 8.41297954e-02,
          1.15636036e-01, 5.13039902e-02, 2.25577876e-02, 6.79609925e-02,
          0., 2.89132614e-02, 2.40024731e-01, 3.03937830e-02, 0., 0., 0.,
          2.52389401e-01, 3.27070087e-01, 3.27070087e-01, 6.76733628e-02,
          1.44821882e-01, 6.36063293e-02, 1.14051960e-01, 0., 0., 0., 0.,
          0., 2.22295150e-02, 3.68717387e-02, 3.93195957e-01,
          8.04099590e-02, 1.69786915e-01, 2.92100638e-01, 3.42155874e-01,
          0., 0., 0., 0., 0., 0., 6.62445277e-03, 2.70650297e-01,
          1.38484845e-02, 2.46823326e-01, 1.68840811e-02, 6.69757202e-02,
          1.39766484e-02, 1.39766484e-02, 0., 0., 0., 6.66885450e-02,
          2.49304786e-01, 3.93195957e-01, 1.78812519e-02, 3.82661149e-02,
          1.22328699e-01, 2.00927153e-01, 4.19299416e-02, 4.19299416e-02,
          0., 0., 0., 0., 6.10244833e-02, 3.93195957e-01, 0.,
          7.16764405e-02, 3.81009370e-01, 1.92708299e-01, 2.90995743e-02,
          0., 0., 0., 0., 0., 0., 0., 1.72037818e-03, 3.81009370e-01,
          3.34732890e-01, 2.59495765e-01, 8.72987285e-02, 0., 0.,
          8.74978751e-02, 8.74978751e-02, 0., 0., 0., 0., 3.81009370e-01,
          1.98363870e-01, 8.72782245e-02, 1.30156092e-02, 1.30156092e-02,
          0., 0., 0., 0., 3.54728177e-02, 3.54728177e-02, 0.,
          2.50991166e-01, 2.21720248e-01, 7.47233331e-02, 0., 0., 0.,
          2.91659608e-02, 2.91659608e-02, 0., 5.45678623e-02,
          5.45678623e-02, 0., 3.81009370e-01 ]
      - [ 5.39105991e-03, 0., 2.24327549e-01, 3.64628166e-01, 0., 0., 0.,
          0., 0., 0., 0., 5.39105991e-03, 0., 0., 3.36212009e-01,
          3.74121249e-01, 0., 0., 0., 0., 0., 0., 0., 0., 5.27169928e-03,
          0., 3.74121249e-01, 3.74121249e-01, 0., 0., 0., 0., 0., 0., 0.,
          5.27169928e-03, 0., 0., 3.74121249e-01, 3.74121249e-01, 0., 0.,
          0., 0., 0., 0., 0., 0., 9.82579309e-03, 1.27206533e-03,
          3.88193697e-01, 4.17703539e-01, 0., 0., 0., 0., 0., 0., 0., 0.,
          2.94773784e-02, 1.14711877e-02, 1.56405643e-01, 1.56127557e-01,
          0., 0., 0., 0., 0., 0., 0., 0., 3.27526452e-03, 4.24021797e-04,
          4.17703539e-01, 4.17703539e-01, 0., 0., 0., 0., 0., 0., 0., 0.,
          9.82579309e-03, 1.18922936e-02, 3.11515391e-01, 4.17703539e-01,
          0., 0., 0., 0., 0., 0., 0., 0., 2.80864891e-02, 5.75303584e-02,
          3.35666835e-01, 4.99706119e-02, 0., 0., 0., 9.84376296e-03,
          1.21367924e-01, 4.53315601e-02, 0., 0., 0., 1.79647412e-02,
          1.03591733e-01, 8.35964363e-03, 0., 4.71871458e-02,
          4.71871458e-02, 2.95312889e-02, 3.64103794e-01, 1.35994688e-01,
          0., 0., 9.36216302e-03, 7.59827271e-02, 2.67142236e-01,
          3.31913114e-01, 0., 0., 0., 2.95312889e-02, 2.40463078e-01,
          1.50709137e-01, 1.79116298e-02, 0., 4.49583866e-02,
          2.49235630e-02, 6.39004633e-02, 5.98075651e-02, 0.,
          8.16169232e-02, 8.16169232e-02, 8.85938630e-02, 4.39568043e-01,
          4.39568043e-01, 5.37348948e-02, 4.49583866e-02, 3.02104303e-03,
          3.30078718e-03, 2.54645288e-01, 2.61649221e-01, 0., 0., 0., 0.,
          0., 0., 0., 3.02104303e-03, 0., 1.10026239e-03, 3.98942828e-01,
          3.98942828e-01, 0., 0., 0., 0., 0., 0., 0., 0., 6.60714693e-03,
          4.30623591e-02, 2.52249479e-01, 3.98942828e-01, 1.06077073e-02,
          0., 0., 0., 0., 0., 0., 6.60714693e-03, 0., 1.43541200e-02,
          3.98942828e-01, 3.98942828e-01, 3.18231210e-02, 0., 0., 0., 0.,
          0., 0., 0., 0., 0., 4.12010014e-01, 4.12010014e-01, 0., 0.,
          9.64402501e-03, 1.24853326e-03, 0., 0., 0., 0., 0.,
          1.09696935e-03, 2.09252208e-01, 2.06272081e-01, 2.02391185e-02,
          0., 2.89320722e-02, 3.74559965e-03, 0., 0., 0., 0., 0., 0.,
          4.12010014e-01, 4.12010014e-01, 1.45330606e-02, 0.,
          2.89320722e-02, 1.45530365e-02, 1.72222909e-02, 0., 0., 0., 0.,
          0., 3.38748872e-01, 3.09852064e-01, 6.89849108e-02, 0.,
          8.67962167e-02, 4.36591096e-02, 5.16668782e-02, 0., 0., 0., 0.,
          8.03262740e-03, 4.19012122e-02, 2.92802423e-01, 1.48202226e-01,
          0., 2.86717173e-02, 7.42377201e-03, 2.86717340e-02,
          1.45650685e-01, 4.49536145e-02, 0., 4.17552441e-02,
          2.67754239e-03, 6.10746350e-03, 6.58878610e-02, 4.94007394e-02,
          9.31685418e-03, 9.31685418e-03, 1.11356350e-02, 8.60151947e-02,
          4.23532158e-01, 1.34860843e-01, 4.17552441e-02, 0., 0.,
          7.27488985e-03, 4.23532158e-01, 4.23532158e-01, 0.,
          8.60151574e-02, 4.32662293e-02, 6.26757368e-02, 1.05765052e-01,
          9.04995501e-02, 0., 1.39184156e-02, 0., 6.13544078e-04,
          2.05415338e-01, 1.68382123e-01, 6.26328662e-02, 6.26328662e-02,
          0., 3.44213806e-02, 3.17295164e-01, 2.71498680e-01,
          1.39184156e-02, 1.67524051e-02, 4.08128463e-02, 5.00429645e-02,
          3.19676638e-01, 1.25486674e-02, 0., 0., 0., 0., 0., 0.,
          1.25543596e-02, 3.81780602e-03, 1.36042833e-02, 2.24036574e-01,
          4.61768717e-01, 3.76460031e-02, 0., 0., 0., 0., 0., 0.,
          2.41845800e-03, 4.37054969e-02, 1.30758332e-02, 1.07423276e-01,
          4.22378868e-01, 4.18288959e-03, 0., 0., 0., 3.99807319e-02,
          3.99807319e-02, 0., 3.11113615e-02, 1.14534190e-02,
          4.35861060e-03, 4.61768717e-01, 4.61768717e-01, 1.25486674e-02,
          0., 0., 0., 1.33269122e-02, 1.33269122e-02, 0., 7.25537352e-03,
          0., 0., 4.02002513e-01, 4.02681440e-01, 1.15818940e-02,
          3.68455681e-03, 2.99190311e-03, 8.64542834e-03, 1.31597565e-02,
          0., 0., 0., 0., 0., 1.52426720e-01, 2.17765853e-01,
          1.40272258e-02, 1.10536693e-02, 8.97570979e-03, 2.59362832e-02,
          3.94792706e-02, 0., 0., 0., 0., 0., 4.02681440e-01,
          4.02681440e-01, 5.13265608e-03, 1.10536693e-02, 0.,
          2.75269686e-03, 6.78117387e-03, 2.39458797e-03, 0., 0., 0., 0.,
          3.63694042e-01, 3.74255717e-01, 6.39886549e-03, 3.31610069e-02,
          0., 8.25809129e-03, 2.03435216e-02, 7.18376413e-03, 0., 0., 0.,
          0., 1.91228941e-01, 4.38261509e-01, 1.14200808e-01,
          1.33573618e-02, 1.08463345e-02, 3.13416608e-02, 7.01483861e-02,
          2.89300773e-02, 1.07125733e-02, 0., 0., 0., 6.37429804e-02,
          1.58087879e-01, 3.74905169e-02, 7.97391385e-02, 7.97391385e-02,
          0., 6.73237368e-02, 8.67902264e-02, 3.21377218e-02, 0., 0., 0.,
          4.38261509e-01, 4.38261509e-01, 2.39903275e-02, 4.00720835e-02,
          0., 9.97915678e-03, 1.16851889e-01, 1.00949503e-01, 0., 0., 0.,
          0., 2.88492054e-01, 1.72493532e-01, 6.26750709e-03,
          8.35964978e-02, 8.35964978e-02, 0., 2.76805729e-01,
          2.76805729e-01, 0., 0. ]
      - [ 2.67515006e-03, 0., 0., 0., 0., 0., 0., 8.69137142e-03,
          1.64728999e-01, 9.75940749e-02, 0., 2.67515006e-03, 0., 0., 0.,
          0., 0., 0., 0., 2.60741133e-02, 4.92771208e-01, 2.78428823e-01,
          0., 0., 1.28931329e-02, 0., 0., 0., 0., 0., 0., 2.89712381e-03,
          1.68157578e-01, 3.35072398e-01, 2.45061219e-02, 1.28931329e-02,
          0., 0., 0., 0., 0., 0., 0., 8.69137142e-03, 4.92771208e-01,
          4.92771208e-01, 1.00439638e-01, 0., 0., 0., 0., 0., 0., 0., 0.,
          4.32109721e-02, 3.70665729e-01, 1.44027919e-01, 0., 0., 0., 0.,
          0., 0., 0., 7.19060227e-02, 7.19060227e-02, 1.22654229e-01,
          3.74331951e-01, 1.13435492e-01, 0., 0., 0., 0., 0., 0., 0., 0.,
          0., 1.44036571e-02, 3.74331951e-01, 3.74331951e-01,
          8.87591839e-02, 0., 2.57243812e-01, 0., 0., 0., 0.,
          2.39686780e-02, 2.39686780e-02, 4.08847444e-02, 3.74331951e-01,
          3.74331951e-01, 1.37836978e-01, 3.60763595e-02, 0.,
          6.83446452e-02, 1.08154491e-01, 2.21210555e-03, 0.,
          1.38457566e-01, 1.38457566e-01, 3.19628157e-02, 1.22989357e-01,
          4.60281074e-02, 0., 0., 0., 2.05033943e-01, 3.24463487e-01,
          6.63631735e-03, 0., 1.19499631e-01, 1.19499631e-01, 0.,
          1.02980193e-02, 1.02980193e-02, 0., 0., 4.76009369e-01,
          2.27815490e-02, 2.14069545e-01, 6.63631735e-03, 0.,
          4.61525247e-02, 4.61525247e-02, 1.06542716e-02, 1.28052071e-01,
          8.39286745e-02, 3.19628157e-02, 6.94663003e-02, 1.65110663e-01,
          6.83446452e-02, 4.76009369e-01, 1.99089516e-02, 0.,
          3.00038964e-01, 3.00038964e-01, 0., 0., 0., 0., 2.31554341e-02,
          7.34689739e-03, 0., 0., 0., 0., 0., 0., 0., 2.19165403e-02,
          2.96153367e-01, 7.87401795e-02, 7.35422270e-03, 0., 0., 0., 0.,
          0., 0., 0., 0., 7.57606849e-02, 5.07980824e-01, 2.37561390e-01,
          2.19754529e-05, 2.00221199e-03, 0., 0., 0., 0., 0., 0.,
          7.19290227e-02, 1.14623144e-01, 1.99818656e-01, 1.55580193e-01,
          2.02418747e-03, 0., 0., 0., 0., 0., 0., 0., 2.12898135e-01,
          2.19842106e-01, 5.07980824e-01, 3.82175446e-01, 6.59263533e-05,
          2.72133183e-02, 0., 0., 0., 0., 0., 0., 0., 4.57759686e-02,
          3.63135546e-01, 1.18053727e-01, 2.72149760e-02, 3.50253522e-01,
          0., 0., 0., 0., 0., 0., 0., 6.80525601e-02, 3.22395504e-01,
          1.76789224e-01, 2.34197214e-01, 8.16399530e-02, 0., 0., 0., 0.,
          6.60228506e-02, 6.60228506e-02, 7.32165053e-02, 5.00562117e-02,
          3.04777265e-01, 1.07008681e-01, 8.16449225e-02, 3.34457695e-01,
          0., 0., 0., 0., 1.98068544e-01, 2.38917619e-01, 8.99183899e-02,
          1.36163682e-02, 1.59980446e-01, 1.46556571e-01, 3.63135546e-01,
          3.00773591e-01, 0., 1.58075634e-02, 5.23812079e-04, 0., 0., 0.,
          0., 2.58382838e-02, 1.24313541e-01, 4.67531979e-02,
          1.75956398e-01, 9.62969437e-02, 0., 4.74226922e-02,
          1.57143641e-03, 0., 1.09314784e-01, 1.09314784e-01, 0.,
          5.12132868e-02, 2.76008546e-01, 9.37054399e-03, 5.46911918e-02,
          1.31945401e-01, 0., 0., 0., 0., 2.88291816e-02, 7.27619156e-02,
          7.25296438e-02, 5.12132868e-02, 4.33728427e-01, 1.33922696e-01,
          4.19830263e-01, 3.20989750e-02, 0., 0., 0., 0., 1.44774213e-01,
          1.59418449e-01, 2.41765529e-02, 1.53639868e-01, 4.59734738e-01,
          1.58233434e-01, 1.28060594e-01, 0., 0., 0., 0., 0., 0., 0.,
          5.41639552e-02, 1.31980091e-01, 5.80952838e-02, 1.48279341e-02,
          2.23952065e-06, 0., 0., 0., 0., 0., 0., 0., 1.60316452e-01,
          4.80182648e-01, 9.85220298e-02, 3.47372703e-02, 6.71856151e-06,
          0., 0., 0., 0., 0., 0., 0., 1.80546530e-02, 2.62015939e-01,
          2.33244777e-01, 0., 0., 0., 0., 0., 0., 0., 0., 0.,
          5.34388125e-02, 5.37243068e-01, 5.37243068e-01, 0., 0.,
          8.94575287e-03, 0., 0., 0., 0., 8.36351067e-02, 1.11716837e-01,
          5.92805371e-02, 2.03512415e-01, 3.08743902e-02, 8.34031124e-03,
          8.94629955e-03, 2.68372614e-02, 0., 0., 9.22815651e-02,
          3.93388458e-02, 2.50905335e-01, 3.66381139e-01, 7.28034005e-02,
          6.43586218e-02, 9.29749105e-03, 1.08019924e-02, 6.46035224e-02,
          0., 0., 0., 0., 0., 1.08355686e-01, 1.92600876e-01,
          1.97601803e-02, 3.66381139e-01, 2.27476403e-01, 0., 0., 0., 0.,
          1.33743942e-01, 3.66381139e-01, 1.18016548e-01, 3.25067103e-01,
          3.66381139e-01, 2.42678039e-02, 2.44515583e-01, 8.61406997e-02,
          0., 0., 4.31775907e-03, 0., 0., 1.09704413e-01, 4.67660576e-02,
          4.03673314e-02, 9.32395682e-02, 6.49115667e-02, 4.20796983e-02,
          2.34982625e-01, 4.90328819e-02, 4.92143184e-02, 2.38307528e-02,
          0., 0., 3.65681387e-02, 1.55886868e-02, 6.42666072e-02,
          7.73727149e-02, 2.16371920e-02, 1.26239091e-01, 4.10496086e-01,
          1.19859487e-01, 3.87962721e-02, 0., 0., 1.58994913e-01,
          4.10496086e-01, 1.40298173e-01, 5.22989742e-02, 1.06066868e-01,
          2.16371920e-02, 1.34686053e-01, 2.78934717e-01, 1.29393991e-02,
          0., 7.14922622e-02, 0., 5.29983081e-02, 1.62702739e-01,
          4.67660576e-02, 1.92721114e-02, 2.36408114e-02, 7.21239625e-03,
          3.94382745e-01, 4.10496086e-01, 3.88181992e-02, 7.14922622e-02 ]
      - [ 0., 0., 3.83236945e-01, 1.44511119e-01, 2.44458541e-02,
          7.98140317e-02, 7.98140317e-02, 0., 0., 0., 0., 0.,
          1.54247051e-02, 9.67938825e-03, 2.03607664e-01, 2.06048667e-01,
          7.33375624e-02, 0., 0., 0., 0., 0., 0., 0., 2.75914948e-02, 0.,
          3.83236945e-01, 3.83236945e-01, 8.14861711e-03, 2.47374773e-01,
          2.47374773e-01, 0., 0., 0., 0., 3.86948348e-03, 8.79160464e-02,
          3.22646275e-03, 3.83236945e-01, 3.83236945e-01, 2.44458541e-02,
          0., 0., 0., 0., 7.91504011e-02, 2.58260686e-03, 1.16084507e-02,
          4.33543548e-02, 2.72059441e-02, 7.29893148e-02, 1.68227836e-01,
          2.78967358e-02, 3.81230265e-02, 3.81230265e-02, 0.,
          5.80431428e-03, 7.72835165e-02, 4.48550619e-02, 0.,
          1.69930831e-01, 1.06956363e-01, 1.74587183e-02, 3.95817086e-02,
          0., 1.14369087e-01, 1.14369087e-01, 0., 1.74129456e-02,
          2.31850520e-01, 1.34565189e-01, 6.93683550e-02, 4.59378809e-02,
          9.06864833e-03, 1.76635697e-01, 3.64558846e-01, 5.41539751e-02,
          1.85848281e-01, 1.14369087e-01, 0., 0., 2.46295139e-01,
          2.22106427e-02, 4.41571651e-03, 2.41625905e-01, 3.56521271e-02,
          1.43541723e-01, 3.30626667e-01, 1.34565189e-01, 3.64558846e-01,
          3.43107253e-01, 0., 0., 1.45635441e-01, 4.72747125e-02,
          2.08105072e-01, 1.09366812e-01, 6.88558668e-02, 2.40166217e-01,
          1.25441924e-01, 0., 1.08876079e-02, 1.08876079e-02, 0.,
          1.65766210e-03, 2.20715031e-02, 1.28102191e-02, 4.87948693e-02,
          5.86522967e-02, 2.29519587e-02, 3.90495867e-01, 3.76325786e-01,
          0., 1.82980765e-02, 1.82980765e-02, 0., 0., 0., 0.,
          3.84616479e-02, 1.66575283e-01, 2.29519587e-02, 2.24253401e-01,
          3.90495867e-01, 3.21281329e-02, 5.30766658e-02, 3.26628201e-02,
          0., 0., 6.80461433e-03, 4.27007256e-03, 1.46384612e-01,
          6.29239827e-02, 7.65065243e-03, 3.90495867e-01, 3.90495867e-01,
          5.79537451e-02, 1.21484295e-01, 1.21484295e-01, 0., 0., 0., 0.,
          5.61937727e-02, 1.40535692e-02, 0., 3.97712559e-01,
          3.97712559e-01, 1.11542558e-02, 8.30166712e-02, 8.30166712e-02,
          0., 0., 0., 0., 1.97089906e-03, 4.21607047e-02, 0.,
          1.69244528e-01, 1.71155632e-01, 3.34627666e-02, 0., 0., 0., 0.,
          4.03148010e-02, 5.15478477e-03, 1.89970713e-02, 4.68452275e-03,
          0., 3.97712559e-01, 3.97712559e-01, 4.54212502e-02,
          9.62499529e-02, 9.62499529e-02, 0., 0., 0., 0., 6.56966353e-04,
          1.40535692e-02, 0., 2.94603467e-01, 3.97712559e-01,
          1.36263773e-01, 0., 0., 0., 0., 1.34382676e-02, 1.19565260e-02,
          4.12240177e-02, 3.53698134e-02, 0., 2.68533770e-02,
          6.29996657e-02, 7.84601420e-02, 9.76822898e-02, 1.73871759e-02,
          0., 0., 2.49906987e-01, 6.51655421e-02, 1.15284845e-01,
          3.16375680e-02, 0., 1.17211059e-01, 2.89401710e-01,
          1.94905236e-01, 2.93046862e-01, 5.21615297e-02, 0., 0.,
          8.33023265e-02, 1.10286132e-01, 1.46321565e-01, 1.17899375e-02,
          0., 5.31711541e-02, 1.36273801e-01, 1.31111294e-01,
          2.67650355e-02, 0., 0., 3.89619581e-02, 1.22264296e-01,
          1.73751980e-01, 3.32627028e-01, 0., 0., 2.65257180e-01,
          2.54212856e-01, 1.81617513e-01, 8.02951083e-02, 0., 0.,
          1.16885886e-01, 1.44653320e-01, 3.23610187e-01, 3.44052017e-01,
          2.66234707e-02, 1.42674046e-02, 1.72399148e-01, 3.74188840e-01,
          7.99868405e-02, 3.33741084e-02, 5.94049925e-03, 0., 0., 0.,
          1.13470713e-02, 3.66053842e-02, 8.87448993e-03, 4.28022146e-02,
          2.69637555e-01, 4.27526802e-01, 9.01527107e-02, 1.07669152e-01,
          1.07669152e-01, 0., 0., 0., 0., 8.87448993e-03, 0.,
          6.06286228e-02, 4.27526802e-01, 2.37044200e-01, 1.24824196e-01,
          9.14453622e-03, 0., 0., 1.33117354e-02, 1.33117354e-02,
          3.40412110e-02, 2.99457330e-02, 0., 1.81885868e-01,
          4.27526802e-01, 1.80441871e-01, 6.27715439e-02, 8.42493549e-02,
          8.42493549e-02, 0., 0., 0., 0., 0., 0., 0., 2.24953815e-01,
          3.63231570e-01, 1.37428120e-01, 1.79876350e-02, 1.79876350e-02,
          0., 0., 0., 0., 0., 0., 0., 1.03668630e-01, 3.04859400e-01,
          8.11531022e-02, 5.64287091e-03, 0., 0., 0., 0., 1.02567568e-03,
          3.49546876e-03, 0., 0., 3.63231570e-01, 3.63231570e-01,
          3.63231570e-01, 1.38720619e-02, 1.38720619e-02, 0., 0., 0., 0.,
          0., 0., 0., 3.63231570e-01, 3.63231570e-01, 1.53692096e-01,
          1.69286150e-02, 0., 0., 0., 0., 0., 0., 0., 0., 8.19886029e-02,
          1.62310883e-01, 9.69253331e-02, 5.05527779e-02, 9.17232683e-06,
          2.87868790e-02, 3.70503217e-02, 3.70503217e-02, 2.20112372e-02,
          4.25946973e-02, 0., 4.79150042e-02, 2.93629378e-01,
          9.84287336e-02, 3.60442139e-02, 1.68509260e-02, 2.75169805e-05,
          8.63606408e-02, 1.11150965e-01, 1.11150965e-01, 4.15304601e-02,
          4.42778282e-02, 0., 0., 4.02862400e-01, 4.02862400e-01,
          1.81939706e-01, 1.51658341e-01, 2.75169805e-05, 8.63606408e-02,
          1.23501075e-02, 1.23501075e-02, 0., 0., 0., 1.43745020e-01,
          4.02862400e-01, 4.02862400e-01, 5.74665479e-02, 5.05527779e-02,
          8.25509414e-05, 2.59081930e-01, 3.70503217e-02, 3.70503217e-02,
          0., 0., 1.18133631e-02, 1.20463438e-01, 3.79728556e-01,
          7.00127482e-02, 1.44950021e-02, 0., 3.19619994e-06,
          1.00311097e-02, 1.29105980e-02, 1.29105980e-02, 4.46814997e-03,
          3.93058965e-03, 3.54400910e-02, 2.51726776e-01, 3.79728556e-01,
          2.33375840e-02, 4.83166706e-03, 7.19070956e-02, 7.19070956e-02,
          0., 0., 0., 0., 0., 3.54400910e-02, 2.98431486e-01,
          3.79728556e-01, 2.72716433e-01, 0., 0., 9.58859891e-06,
          3.00933290e-02, 4.30353265e-03, 4.30353265e-03, 0., 0.,
          1.06320262e-01, 3.79728556e-01, 3.19190562e-01, 1.07801318e-01,
          0., 1.28889963e-01, 1.28889963e-01, 0., 0., 0., 0., 0. ]
      - [ 2.90708423e-01, 2.90708423e-01, 2.10711230e-02, 2.10711230e-02,
          0., 0., 0., 0., 7.85794947e-03, 6.50906563e-02, 1.02300733e-01,
          1.30943269e-01, 2.90708423e-01, 2.69328028e-01, 1.30440276e-02,
          1.30440276e-02, 0., 0., 0., 0., 4.19603251e-02, 1.99434549e-01,
          4.64430489e-02, 3.30052972e-02, 1.42840877e-01, 1.20278478e-01,
          0., 0., 0., 2.50453293e-01, 2.76919544e-01, 1.34368530e-02, 0.,
          1.71698138e-01, 2.90708423e-01, 1.96165964e-01, 2.12541625e-01,
          8.97760168e-02, 0., 0., 0., 1.32834271e-01, 2.90708423e-01,
          4.03105579e-02, 5.51594310e-02, 2.90708423e-01, 1.39329135e-01,
          4.67686132e-02, 3.34611386e-01, 4.16045897e-02, 1.10373963e-02,
          1.10373963e-02, 0., 0., 0., 0., 4.10745293e-02, 5.75984195e-02,
          8.72580148e-03, 2.17829287e-01, 2.78015465e-01, 0.,
          3.67913186e-03, 3.67913186e-03, 0., 0., 0., 0., 2.13044193e-02,
          7.79745355e-02, 1.29048347e-01, 3.34611386e-01, 1.74595043e-01,
          1.38681969e-02, 0., 0., 0., 2.23704770e-01, 2.70068496e-01,
          1.00017702e-02, 1.01126917e-01, 1.50698572e-01, 2.61774044e-02,
          7.26142451e-02, 9.26718190e-02, 0., 0., 0., 0., 3.34611386e-01,
          3.34611386e-01, 1.34248435e-01, 3.37089710e-02, 2.03719348e-01,
          1.94638312e-01, 3.06596786e-01, 1.64661091e-02, 0.,
          5.95337246e-04, 5.95337246e-04, 0., 0., 0., 0., 5.64217083e-02,
          1.33302838e-01, 2.65024364e-01, 3.31939548e-01, 1.33405812e-02,
          0., 1.78601185e-03, 1.78601185e-03, 0., 3.39841843e-02,
          3.39841843e-02, 0., 1.56259969e-01, 2.50049025e-01,
          3.31939548e-01, 1.08096823e-01, 5.48870303e-03, 0., 0., 0., 0.,
          3.54338475e-02, 1.57011539e-01, 1.49854988e-01, 2.72925824e-01,
          3.31939548e-01, 1.78710014e-01, 1.14087380e-01, 4.48766313e-02,
          0., 0., 0., 0., 1.13280620e-02, 6.01567589e-02, 1.68479517e-01,
          3.31939548e-01, 3.31939548e-01, 2.12957919e-01, 7.64620453e-02,
          5.32630738e-03, 0., 0., 0., 0., 3.07679653e-01, 3.51421028e-01,
          1.03956582e-02, 0., 1.79775711e-02, 3.21340524e-02,
          1.79655161e-02, 0., 0., 0., 0., 0., 2.76153326e-01,
          3.51421028e-01, 3.11869737e-02, 5.77544235e-03, 5.52402362e-02,
          1.45883905e-02, 4.21306957e-03, 0., 0., 0., 0., 1.06609434e-01,
          3.51421028e-01, 3.51421028e-01, 3.46521940e-03, 0., 0., 0., 0.,
          0., 0., 0., 0., 2.58828700e-01, 3.51421028e-01, 3.51421028e-01,
          1.03956582e-02, 0., 0., 0., 0., 0., 0., 0., 0., 0.,
          2.87934422e-01, 2.81787306e-01, 6.86849840e-03, 9.39859170e-03,
          1.40057104e-02, 2.43289047e-03, 4.69114809e-07, 0., 0., 0., 0.,
          0., 3.68756860e-01, 3.68756860e-01, 9.21922028e-02,
          3.13286367e-03, 1.89333819e-02, 1.58529915e-02, 1.40734426e-06,
          0., 0., 0., 0., 8.69205296e-02, 3.68756860e-01, 3.68756860e-01,
          2.28949939e-03, 0., 0., 0., 0., 0., 0., 0., 0., 1.24236625e-02,
          3.68756860e-01, 3.68756860e-01, 3.07307336e-02, 0., 0., 0., 0.,
          0., 0., 0., 0., 0., 8.26909319e-02, 3.40332925e-01,
          2.34657690e-01, 1.56559408e-01, 5.21660410e-02, 1.54899806e-02,
          2.45164102e-07, 1.15635917e-02, 0., 0., 0., 0., 3.02834138e-02,
          1.50418997e-01, 3.40332925e-01, 3.40332925e-01, 9.39432755e-02,
          4.90684854e-03, 1.15635917e-02, 0., 0., 0., 0., 0.,
          2.35423505e-01, 3.40332925e-01, 2.96515793e-01, 4.43237163e-02,
          0., 0., 0., 1.82191259e-03, 0., 0., 0., 0., 1.28873065e-01,
          3.40332925e-01, 3.40332925e-01, 1.32971153e-01, 0., 0.,
          1.82191259e-03, 0., 0., 0., 1.01680189e-01, 1.89967483e-01,
          3.43539417e-01, 1.30318344e-01, 0., 0., 0., 0., 0., 0., 0., 0.,
          2.79058963e-01, 3.43539417e-01, 3.43539417e-01, 7.10142776e-02,
          0., 0., 0., 0., 0., 0., 0., 9.02528539e-02, 3.43539417e-01,
          2.06924245e-01, 1.69887885e-01, 2.81143486e-02, 0., 0., 0., 0.,
          0., 0., 0., 1.90802172e-01, 3.43539417e-01, 3.43539417e-01,
          1.58442944e-01, 0., 0., 0., 0., 0., 0., 0., 0., 0.,
          2.24205270e-01, 2.45680422e-01, 3.35478812e-01, 1.24651618e-01,
          0., 0., 0., 0., 0., 0., 0., 0., 1.01469569e-01, 1.09193616e-01,
          3.35478812e-01, 3.35478812e-01, 3.05451974e-02, 0., 0., 0., 0.,
          0., 0., 1.73008993e-01, 3.35478812e-01, 3.35478812e-01,
          1.12517402e-01, 2.14350969e-02, 0., 0., 0., 0., 0., 0., 0.,
          1.69182152e-01, 3.35478812e-01, 2.76459277e-01, 9.55848247e-02,
          8.01056921e-02, 9.16355923e-02, 0., 0., 0., 0., 0., 0., 0.,
          1.42347766e-02, 1.86154265e-02, 2.88615376e-01, 3.77507687e-01,
          2.52193004e-01, 4.80252281e-02, 0., 0., 0., 0., 0., 0., 0., 0.,
          1.38511419e-01, 3.77507687e-01, 3.77507687e-01, 1.44075677e-01,
          0., 0., 0., 0., 0., 8.84723514e-02, 1.31176695e-01,
          5.58462813e-02, 8.11591148e-02, 8.86184350e-02, 2.53962725e-01,
          1.83090061e-01, 3.90143879e-02, 0., 0., 0., 0., 1.89307388e-02,
          1.89307388e-02, 0., 5.63319139e-02, 1.50853828e-01,
          2.32380047e-01, 3.77507687e-01, 1.17043167e-01, 0., 0. ]
      - [ 3.87007743e-03, 0., 0., 0., 0., 1.19324856e-01, 1.05993949e-01,
          0., 3.75954970e-03, 3.75954970e-03, 0., 3.87007743e-03,
          1.16102332e-02, 0., 0., 0., 0., 1.47099972e-01, 3.70028287e-01,
          3.22729945e-02, 1.25318312e-03, 1.25318312e-03, 0.,
          1.16102332e-02, 1.29002589e-03, 0., 0., 0., 0., 3.60488623e-01,
          4.12750214e-01, 2.88205773e-01, 9.26196054e-02, 9.38928395e-04,
          0., 1.29002589e-03, 3.87007743e-03, 0., 0., 0., 0.,
          4.12750214e-01, 4.12750214e-01, 2.77133584e-01, 3.08732018e-02,
          3.12976103e-04, 0., 3.87007743e-03, 1.35698030e-03, 0., 0., 0.,
          0., 3.96101922e-02, 2.43174657e-01, 8.81997719e-02,
          4.47456434e-04, 4.47456434e-04, 0., 1.35698030e-03, 0., 0.,
          2.71396071e-04, 2.71396071e-04, 0., 2.63855755e-01,
          3.80295664e-01, 1.90275222e-01, 1.34236936e-03, 1.34236936e-03,
          0., 0., 4.52326756e-04, 0., 0., 0., 0., 1.93141237e-01,
          3.80295664e-01, 2.47908294e-01, 0., 0., 0., 4.52326756e-04, 0.,
          0., 0., 0., 0., 3.80295664e-01, 3.80295664e-01, 3.80295664e-01,
          0., 0., 0., 0., 0., 0., 2.83261994e-04, 2.83261994e-04,
          2.18931101e-02, 2.91122258e-01, 2.21650541e-01, 4.43636999e-02,
          9.67979664e-04, 9.67979664e-04, 0., 0., 0., 0., 9.44206622e-05,
          9.44206622e-05, 6.56793341e-02, 3.98832977e-01, 1.76004604e-01,
          5.63975275e-02, 2.33510020e-03, 2.33510020e-03, 0., 0., 0., 0.,
          0., 0., 8.89964253e-02, 4.03090477e-01, 4.02140796e-01,
          9.60900933e-02, 0., 0., 0., 0., 0., 0., 0., 0., 2.66989321e-01,
          4.03090477e-01, 2.94000983e-01, 2.31758878e-02, 0., 0., 0., 0.,
          2.82878266e-03, 0., 0., 0., 0., 4.14095558e-02, 1.47644415e-01,
          2.24788979e-01, 7.15072528e-02, 2.77727861e-02, 1.31256849e-01,
          6.73588440e-02, 3.63945030e-02, 0., 0., 0., 0., 1.31116122e-01,
          3.47094864e-01, 1.75936460e-01, 2.38357540e-02, 9.25759505e-03,
          9.01873037e-02, 3.13263834e-01, 1.65911168e-01, 0., 0., 0., 0.,
          1.30723300e-03, 3.81260104e-02, 7.49296695e-02, 2.38357540e-02,
          8.33183601e-02, 3.47094864e-01, 3.30968261e-01, 3.47094864e-01,
          0., 0., 0., 0., 2.81780697e-02, 1.63833275e-01, 5.67402057e-02,
          7.94525072e-03, 2.77727861e-02, 2.70561934e-01, 3.47094864e-01,
          4.94924299e-02, 0., 0., 0., 0., 1.21208049e-01, 3.20218414e-01,
          3.85121703e-02, 0., 0., 6.42990600e-03, 1.90700650e-01,
          8.74298364e-02, 0., 0., 0., 0., 1.87578186e-01, 3.83280724e-01,
          7.24219009e-02, 0., 0., 0., 3.00713927e-01, 2.98841119e-01, 0.,
          0., 0., 0., 3.88108715e-02, 8.23174044e-02, 4.39834548e-03, 0.,
          0., 1.92897171e-02, 3.83280724e-01, 3.83280724e-01, 0., 0., 0.,
          0., 4.80925478e-02, 1.10338077e-01, 3.44436499e-03, 0., 0., 0.,
          3.83280724e-01, 8.29744786e-02, 6.77469969e-02, 0., 0.,
          2.83715427e-02, 2.35788226e-01, 1.63082764e-01, 2.07105409e-02,
          0., 0., 0., 1.27501175e-01, 1.93260133e-01, 2.03241006e-01, 0.,
          0., 8.51146355e-02, 3.46296877e-01, 7.48524368e-02,
          3.85563797e-03, 0., 0., 0., 8.16490799e-02, 3.46296877e-01,
          2.03241006e-01, 0., 0., 6.84702210e-03, 5.24003692e-02,
          4.68122847e-02, 3.85563797e-03, 0., 0., 0., 3.46296877e-01,
          3.46296877e-01, 3.46296877e-01, 0., 0., 2.05410644e-02,
          1.43699616e-01, 1.70208868e-02, 1.28521258e-03, 0., 0., 0.,
          3.46296877e-01, 4.03741568e-01, 9.37878713e-03, 2.51442892e-03,
          0., 0., 1.13117800e-03, 1.13117800e-03, 0., 0., 3.15632075e-02,
          1.49170741e-01, 4.03741568e-01, 4.03741568e-01, 2.81363595e-02,
          7.54328724e-03, 0., 0., 0., 4.56013391e-03, 3.13668437e-02, 0.,
          1.05210692e-02, 1.02496043e-01, 4.03741568e-01, 1.87350377e-01,
          2.81363595e-02, 2.59924494e-02, 1.84491631e-02, 0.,
          3.39353364e-03, 3.39353364e-03, 0., 6.75945031e-03,
          6.75945031e-03, 0., 1.21604182e-01, 3.81548464e-01,
          8.44090804e-02, 2.87795831e-02, 6.14972087e-03, 0., 0.,
          1.36804003e-02, 9.41005126e-02, 8.17755610e-02, 8.17755610e-02,
          0., 2.83419758e-01, 3.81280839e-01, 2.76740338e-03,
          7.41933763e-04, 0., 0., 0., 3.31414165e-03, 4.18669134e-02,
          1.84361413e-02, 0., 5.83934784e-03, 3.91061813e-01,
          3.91061813e-01, 0., 0., 0., 0., 1.54042977e-03, 1.20888175e-02,
          6.48106113e-02, 5.53084239e-02, 0., 0., 3.91061813e-01,
          1.12111367e-01, 8.30221083e-03, 2.22580135e-03, 0., 0., 0.,
          9.94242448e-03, 1.25600725e-01, 1.31472051e-01, 7.61636347e-02,
          0., 1.98488131e-01, 1.34604260e-01, 0., 1.11734914e-02,
          1.11734914e-02, 0., 4.62128967e-03, 3.62664498e-02,
          1.94431826e-01, 2.69248724e-01, 1.03323460e-01, 0.,
          3.88196617e-01, 3.86573523e-01, 6.68259636e-02, 0.,
          1.79641489e-02, 1.58319250e-02, 1.87294220e-03, 1.33550987e-02,
          9.41411499e-03, 9.10090841e-03, 0., 0., 3.86573523e-01,
          3.86573523e-01, 2.00477883e-01, 0., 5.38924485e-02,
          4.74957787e-02, 6.24314067e-04, 4.45169909e-03, 0., 0., 0., 0.,
          3.86573523e-01, 2.01076820e-01, 0., 4.34500091e-02,
          9.73424539e-02, 4.74957787e-02, 5.61882695e-03, 4.00652885e-02,
          2.82423422e-02, 4.18529883e-02, 1.45502640e-02, 0.,
          1.82872608e-01, 3.52970839e-01, 0., 9.41223800e-02,
          2.55799741e-01, 1.42487332e-01, 1.87294220e-03, 1.33550987e-02,
          0., 0., 0., 0., 1.90684393e-01 ]
      - [ 8.53883289e-03, 2.26775445e-02, 1.70849353e-01, 4.28899638e-02,
          0., 0., 0., 0., 8.06824267e-02, 5.79527803e-02, 0.,
          8.53883289e-03, 0., 7.55918073e-03, 5.69497868e-02,
          1.42966546e-02, 0., 0., 0., 0., 4.79787558e-01, 4.00308788e-01,
          0., 0., 2.65064351e-02, 6.80326298e-02, 1.83874130e-01,
          4.48527858e-02, 0., 0., 0., 0., 9.35749784e-02, 2.10249096e-01,
          0., 2.65064351e-02, 0., 2.26775445e-02, 6.12913854e-02,
          1.49509292e-02, 0., 0., 0., 0., 4.79787558e-01, 4.79787558e-01,
          0., 0., 0., 0., 0., 0., 0., 0., 0., 3.13313566e-02,
          4.14280564e-01, 1.40267596e-01, 0., 0., 0., 2.02740058e-02,
          1.78348776e-02, 0., 0., 0., 0., 9.39940587e-02, 4.14280564e-01,
          9.51680765e-02, 0., 0., 0., 0., 0., 0., 0., 0., 0.,
          6.07139617e-02, 4.14280564e-01, 2.96352118e-01, 0., 0.,
          1.60332043e-02, 1.87989384e-01, 5.35046309e-02, 0., 0., 0., 0.,
          1.82141870e-01, 4.14280564e-01, 3.26992542e-01, 0., 0., 0.,
          2.94752028e-02, 2.80910164e-01, 8.55730027e-02, 0., 0., 0.,
          1.84939094e-02, 2.28853345e-01, 2.33283602e-02, 0., 0., 0.,
          9.82506759e-03, 4.06136245e-01, 2.56719023e-01, 0.,
          4.32233140e-02, 4.32233140e-02, 0., 2.68575363e-02,
          4.61990852e-03, 0., 0., 2.33097486e-02, 2.73306906e-01,
          4.06136245e-01, 1.24995045e-01, 0., 0., 0., 3.58375348e-02,
          2.03245327e-01, 5.42901419e-02, 0., 0., 5.09932339e-02,
          9.11023021e-02, 4.06136245e-01, 3.74985158e-01, 0.,
          1.44077726e-02, 1.44077726e-02, 0., 7.66658876e-03,
          2.54046230e-04, 0., 4.32233140e-02, 9.75862425e-03,
          8.64581671e-03, 4.74846959e-02, 5.06743379e-02, 1.06474096e-02,
          1.37779198e-03, 1.37779198e-03, 0., 7.82244578e-02,
          1.36027172e-01, 0., 9.75862425e-03, 0., 2.88193859e-03,
          1.58282313e-02, 1.68914460e-02, 3.54913692e-03, 0., 0., 0.,
          4.73114252e-01, 4.73114252e-01, 4.04820452e-03, 0.,
          2.50701932e-03, 0., 1.42073929e-02, 1.51817665e-01,
          3.19422297e-02, 6.64039562e-03, 6.64039562e-03, 0.,
          1.37362272e-01, 1.53105438e-01, 0., 2.50701932e-03, 0., 0.,
          4.73579811e-03, 5.06058894e-02, 1.06474096e-02, 0., 0., 0.,
          4.73114252e-01, 4.73114252e-01, 1.21446140e-02, 0., 0., 0., 0.,
          0., 0., 0., 0., 8.18244275e-03, 3.25713098e-01, 3.25713098e-01,
          4.64765690e-02, 0., 1.15659609e-01, 1.47966251e-01,
          7.74125662e-03, 0., 0., 0., 0., 2.45473292e-02, 3.07374895e-01,
          3.25713098e-01, 1.33322090e-01, 0., 0., 0., 0., 0., 0., 0., 0.,
          0., 2.00090110e-01, 3.25713098e-01, 2.19830588e-01, 0.,
          3.25713098e-01, 7.96996951e-02, 0., 0., 0., 0., 0., 0.,
          9.48370248e-02, 3.25713098e-01, 3.25713098e-01, 0.,
          1.66955829e-01, 2.34682918e-01, 2.07501933e-01, 8.59524086e-02,
          0., 0., 0., 4.79551405e-03, 4.32598144e-02, 6.29077405e-02,
          2.58963741e-02, 0., 1.16661504e-01, 1.34473398e-01,
          3.57067078e-01, 2.57857233e-01, 0., 0., 0., 0., 0., 0., 0.,
          6.10095486e-02, 3.57067078e-01, 2.86176383e-01, 1.91333085e-01,
          2.72394288e-02, 0., 0., 0., 0., 8.49615503e-03, 4.82854694e-02,
          1.24809973e-01, 0., 3.02046001e-01, 3.57067078e-01,
          3.57067078e-01, 8.17182884e-02, 0., 0., 0., 0., 0., 0., 0.,
          9.73847359e-02, 0., 0., 3.83020658e-03, 1.46115959e-01,
          4.13132608e-02, 3.95226385e-03, 3.95226385e-03, 0.,
          1.25597984e-01, 5.80894649e-02, 0., 0., 0., 0., 1.27673557e-03,
          4.87053171e-02, 1.37710860e-02, 0., 0., 4.68548462e-02,
          4.68475312e-01, 4.68475312e-01, 2.11841101e-03, 0., 0., 0.,
          3.02398298e-02, 1.32440343e-01, 1.07224524e-01, 1.07708992e-03,
          1.07708992e-03, 0., 2.78441817e-01, 7.59162754e-02, 0., 0., 0.,
          0., 1.00799436e-02, 4.41467836e-02, 3.57415080e-02, 0., 0.,
          1.40564546e-01, 4.68475312e-01, 3.91873002e-01, 0., 0.,
          1.53042236e-02, 0., 0., 0., 0., 0., 0., 4.09863144e-02,
          3.05433750e-01, 3.35144848e-01, 1.97824627e-01, 1.53042236e-02,
          3.67758304e-01, 7.39494264e-02, 0., 0., 0., 0., 0.,
          1.36621054e-02, 8.69423896e-02, 2.27711797e-01, 3.67758304e-01,
          4.59126681e-02, 4.59126681e-02, 0., 6.96186069e-03,
          6.96186069e-03, 0., 0., 0., 1.22958951e-01, 3.67758304e-01,
          1.83087066e-01, 5.34071140e-02, 4.59126681e-02, 3.67758304e-01,
          8.25819075e-02, 4.62210737e-02, 4.62210737e-02, 0., 0., 0.,
          4.09863144e-02, 1.44002378e-01, 8.55278522e-02, 1.60221338e-01,
          1.37738004e-01, 3.77402097e-01, 2.89795846e-01, 7.66018555e-02,
          0., 0., 0., 0., 0., 0., 2.18731984e-02, 9.30282623e-02,
          7.26495916e-03, 2.50635177e-01, 3.77402097e-01, 2.29805559e-01,
          0., 0., 0., 0., 0., 0., 0., 0., 8.54387134e-02, 3.77402097e-01,
          2.00864866e-01, 1.38415724e-01, 5.73465899e-02, 0., 0., 0., 0.,
          0., 5.96098928e-03, 2.53525078e-02, 2.17948779e-02,
          2.14019969e-01, 3.45114827e-01, 3.26339900e-01, 8.31324980e-02,
          0., 0., 0., 0., 0., 0., 0., 6.85871392e-02 ]
      - [ 0., 0., 0., 0., 0., 5.88105200e-03, 8.66216794e-02,
          4.86804880e-02, 7.35144019e-02, 9.73027870e-02, 6.39237538e-02,
          0., 0., 0., 0., 0., 0., 7.73295818e-04, 6.24898374e-02,
          1.91414714e-01, 1.88648179e-01, 1.87708393e-01, 1.91771269e-01,
          0., 0., 0., 0., 0., 0., 3.66360322e-02, 4.33045119e-01,
          4.33045119e-01, 1.59600321e-02, 2.38894951e-02, 2.13079192e-02,
          0., 0., 0., 0., 0., 0., 2.31988751e-03, 4.33045119e-01,
          4.33045119e-01, 2.43514881e-01, 5.03884405e-02, 6.39237538e-02,
          0., 0., 0., 0., 0., 0., 0., 4.96847928e-03, 8.44581276e-02,
          2.51230568e-01, 9.17605609e-02, 2.43353639e-02, 0., 0., 0., 0.,
          0., 0., 0., 2.96383823e-05, 1.77343994e-01, 4.10063833e-01,
          1.78240344e-01, 0., 0., 0., 0., 0., 0., 0., 0., 1.62914902e-01,
          3.91995668e-01, 3.79271984e-01, 2.36971267e-02, 8.11178796e-03,
          0., 0., 0., 0., 0., 0., 0., 1.50866151e-01, 4.10063833e-01,
          4.10063833e-01, 3.87563892e-02, 0., 0., 0., 0., 0., 0., 0., 0.,
          4.47726816e-05, 1.54857114e-01, 2.76149124e-01, 3.16785991e-01,
          6.42690063e-02, 0., 9.04264674e-02, 0., 0., 0., 0., 0.,
          1.49242260e-05, 4.68389206e-02, 1.49530977e-01, 4.37381238e-01,
          1.92807034e-01, 9.04264674e-02, 0., 0., 0., 0., 0., 0.,
          2.20286697e-01, 4.37381238e-01, 1.81814820e-01, 1.20764203e-01,
          2.14230008e-02, 0., 5.27487732e-02, 0., 0., 0., 0., 0.,
          1.63551658e-01, 3.46882015e-01, 1.37973383e-01, 2.40389854e-01,
          6.42690063e-02, 5.27487732e-02, 1.32746130e-01, 0., 0., 0., 0.,
          5.51998708e-03, 6.02787398e-02, 6.61152527e-02, 0., 0., 0.,
          1.56649783e-01, 2.60945499e-01, 0., 0., 0., 0., 5.88854491e-05,
          1.23816520e-01, 5.08992858e-02, 5.50592504e-03, 0., 0.,
          2.32075065e-01, 4.48035955e-01, 0., 0., 0., 0., 1.78111007e-03,
          1.79845970e-02, 2.08027698e-02, 0., 0., 0., 4.48035955e-01,
          4.48035955e-01, 0., 0., 0., 0., 0., 3.96859944e-02,
          1.21077709e-02, 0., 0., 0., 4.48035955e-01, 1.16200343e-01, 0.,
          0., 0., 0., 0., 2.81721782e-02, 3.24695632e-02, 1.21908970e-02,
          0., 0., 1.62990838e-01, 1.56589076e-01, 0., 0., 0., 0., 0.,
          2.83153728e-02, 7.80770928e-02, 2.27890424e-02, 0., 0.,
          3.48161101e-01, 4.47096974e-01, 0., 0., 0., 0., 0.,
          9.26446076e-03, 8.67681671e-03, 1.39378500e-03, 0., 0.,
          4.47096974e-01, 4.47096974e-01, 0., 0., 0., 0., 0.,
          9.43770446e-03, 2.15187836e-02, 4.18135524e-03, 0., 0.,
          4.47096974e-01, 1.40253171e-01, 0., 0., 0., 0., 0.,
          2.67519429e-02, 3.48175764e-02, 3.46041634e-03, 6.73668052e-04,
          0., 1.63793653e-01, 3.00236315e-01, 0., 0., 0., 0., 0.,
          1.98677313e-02, 2.73851752e-02, 2.02100398e-03, 2.02100398e-03,
          0., 2.16597006e-01, 4.49606717e-01, 0., 0., 0., 0., 0.,
          8.91657919e-03, 9.05939098e-03, 5.53134712e-04, 0., 0.,
          4.49606717e-01, 4.49606717e-01, 0., 0., 0., 0., 0.,
          6.62233122e-03, 8.35817307e-03, 0., 0., 0., 4.49606717e-01,
          3.96075040e-01, 0., 0., 0., 0., 0., 0., 0., 0., 0.,
          1.03395954e-02, 3.96075040e-01, 3.96075040e-01, 0., 0., 0., 0.,
          0., 0., 0., 0., 0., 3.10187899e-02, 3.96075040e-01,
          1.66141748e-01, 0., 0., 0., 0., 0., 0., 0., 0., 0.,
          3.10187899e-02, 2.75389403e-01, 3.12231749e-01, 0., 0., 0., 0.,
          0., 0., 0., 4.69730189e-03, 4.69730189e-03, 9.30563584e-02,
          3.96075040e-01, 4.04660136e-01, 8.22690316e-03, 0., 0., 0., 0.,
          0., 0., 0., 0., 4.30462230e-03, 4.04660136e-01, 4.04660136e-01,
          2.92451959e-02, 0., 0., 0., 0., 0., 0., 0., 0., 0.,
          4.04660136e-01, 2.49712586e-01, 2.46807095e-02, 0., 0., 0., 0.,
          0., 0., 1.80522781e-02, 1.80522781e-02, 1.29138669e-02,
          2.32973143e-01, 3.65096003e-01, 8.77355859e-02, 0., 0., 0., 0.,
          0., 0., 4.13123593e-02, 4.13123593e-02, 0., 2.78478235e-01,
          4.10254925e-01, 7.87562225e-03, 0., 0., 0., 0., 0., 0., 0.,
          1.62326749e-02, 2.10150238e-03, 4.10254925e-01, 4.10254925e-01,
          1.51590700e-03, 0., 0., 0., 0., 0., 0., 0., 4.86980267e-02,
          6.30450668e-03, 4.10254925e-01, 1.94167778e-01, 2.36268677e-02,
          2.63739680e-03, 2.63739680e-03, 0., 0., 0., 0., 5.35399234e-03,
          5.40520176e-02, 6.30450668e-03, 1.84393480e-01, 3.06106597e-01,
          4.54772124e-03, 7.91218970e-03, 7.91218970e-03, 0., 0., 0., 0.,
          0., 1.46094069e-01, 1.89135224e-02, 3.59317690e-01 ]
      - [ 3.70255555e-03, 0., 0., 0., 0., 0., 2.50735432e-02,
          7.46733472e-02, 1.06392726e-01, 9.64410827e-02, 5.20638302e-02,
          3.70255555e-03, 0., 0., 0., 0., 2.86129154e-02, 4.55963761e-02,
          7.52206296e-02, 1.91941813e-01, 3.54642421e-02, 3.21470313e-02,
          1.73546113e-02, 0., 1.11076664e-02, 0., 0., 0., 0.,
          6.73714001e-03, 2.20092937e-01, 1.39446989e-01, 4.99809474e-01,
          6.55271113e-02, 1.73546113e-02, 1.11076664e-02, 0., 0., 0., 0.,
          2.42030233e-01, 3.85689497e-01, 4.99809474e-01, 3.22106242e-01,
          1.82933688e-01, 2.18423717e-02, 5.78487059e-03, 0.,
          1.25676021e-02, 0., 0., 0., 3.94316800e-02, 6.28367141e-02,
          1.40291434e-02, 3.50505635e-02, 0., 0., 0., 1.25676021e-02,
          8.34386274e-02, 0., 0., 0., 1.31438943e-02, 2.09455732e-02, 0.,
          0., 9.28450469e-03, 9.28450469e-03, 0., 8.34386274e-02,
          3.77028063e-02, 0., 1.82525307e-01, 6.04830449e-03,
          3.33543748e-01, 5.31521678e-01, 1.19376786e-01, 5.78313954e-02,
          0., 0., 0., 3.77028063e-02, 2.50315905e-01, 0., 5.47575891e-01,
          1.81449130e-02, 1.11181252e-01, 1.77173898e-01, 0., 0., 0., 0.,
          2.35308200e-01, 2.50390887e-01, 8.39414746e-02, 1.06719233e-01,
          8.42159241e-03, 8.42159241e-03, 5.86501025e-02, 1.86596208e-05,
          0., 0., 1.53238624e-02, 1.53238624e-02, 0., 8.39075074e-02,
          2.52638701e-02, 3.20157677e-01, 2.52647772e-02, 2.52647772e-02,
          1.75950289e-01, 3.77989374e-02, 3.77429575e-02, 0.,
          5.10795414e-03, 5.10795414e-03, 0., 2.51619723e-02,
          2.51733840e-01, 3.55730802e-02, 1.22310810e-01, 4.05298918e-03,
          1.75950289e-01, 5.59788641e-05, 0., 0., 7.54859149e-02,
          7.54859149e-02, 3.88370782e-01, 2.51846284e-01, 7.55198821e-02,
          1.06719233e-01, 0., 0., 5.27850926e-01, 1.82073623e-01,
          1.81905657e-01, 0., 2.26457760e-01, 2.26457760e-01,
          1.29456937e-01, 7.55271614e-02, 9.27069981e-04, 0., 0., 0., 0.,
          1.10050105e-02, 1.02492809e-01, 3.19534093e-02, 3.14013511e-01,
          1.12288691e-01, 0., 9.27069981e-04, 0., 0., 1.11578763e-01,
          3.31440158e-02, 1.03488617e-01, 1.64915234e-01, 2.74463385e-01,
          8.78282711e-02, 1.38351887e-01, 1.86200410e-01, 0., 0., 0., 0.,
          0., 0., 0., 2.19354611e-02, 5.03399521e-02, 8.33470840e-03,
          3.90624076e-01, 2.93205142e-01, 0., 0., 1.34459719e-01, 0.,
          3.34736288e-01, 9.94320437e-02, 3.21081132e-02, 5.11661768e-02,
          8.52134600e-02, 2.50041280e-02, 2.49962375e-01, 3.90624076e-01,
          0., 2.76884884e-01, 2.30416795e-03, 0., 1.95017844e-01,
          1.15180328e-01, 1.22404844e-01, 1.66415870e-01, 3.74825783e-02,
          1.18573094e-02, 5.17462287e-03, 2.28567924e-02, 0.,
          2.30416795e-03, 1.52977956e-02, 0., 2.84802675e-01,
          2.56352693e-01, 8.87337402e-02, 5.54719605e-02, 9.30352235e-06,
          2.91986298e-02, 0., 0., 1.06259182e-01, 1.53316511e-02,
          1.35683239e-01, 0., 3.65256786e-01, 3.38257611e-01,
          1.44721210e-01, 5.16503379e-02, 1.16373263e-02, 3.41473217e-03,
          1.55238668e-02, 6.85703754e-02, 0., 2.79404372e-01,
          4.52277511e-02, 0., 2.13807970e-01, 4.12068039e-01,
          3.47762853e-01, 1.72663219e-02, 2.79105661e-05, 8.75958875e-02,
          0., 0., 3.54197323e-02, 9.31460857e-02, 2.73649823e-02, 0.,
          9.82487202e-02, 9.74273756e-02, 4.05532829e-02, 6.08551272e-06,
          2.73142650e-05, 8.57244283e-02, 9.39594060e-02, 9.39594060e-02,
          3.11966985e-01, 2.74643842e-02, 6.88417852e-02, 0., 0., 0.,
          5.73831499e-02, 6.74935356e-02, 6.74843788e-02, 2.85748113e-02,
          2.81878233e-01, 2.81878233e-01, 1.03988998e-01, 6.88749105e-02,
          2.72835987e-05, 8.57244581e-02, 8.79156366e-02, 3.38766485e-01,
          1.33885980e-01, 2.21463015e-05, 8.19428024e-05, 2.57173300e-01,
          1.20183155e-01, 1.20183155e-01, 1.03988998e-01, 3.31338815e-05,
          1.81988776e-01, 2.57173359e-01, 1.83886904e-02, 1.83886904e-02,
          0., 1.83886904e-02, 1.84160043e-02, 8.57244283e-02,
          3.60549450e-01, 3.60549450e-01, 3.46629992e-02, 1.81917980e-01,
          2.05535698e-03, 0., 0., 0., 4.88321260e-02, 5.79121709e-02,
          2.50346074e-03, 0., 9.19885486e-02, 1.49698377e-01, 0.,
          2.05535698e-03, 1.21031739e-01, 2.25071032e-02, 1.17480993e-01,
          1.21127982e-02, 1.46496370e-01, 1.66226149e-01, 0., 0.,
          4.29717861e-02, 1.04269184e-01, 0., 2.49233440e-01,
          6.16607070e-03, 0., 9.21147037e-03, 9.21147037e-03,
          1.46496370e-01, 1.66226149e-01, 0., 0., 2.79461473e-01,
          3.82607907e-01, 0., 6.16607070e-03, 4.03439179e-02,
          6.75213188e-02, 3.82607907e-01, 2.12006703e-01, 3.82607907e-01,
          3.82607907e-01, 0., 0., 9.31538269e-02, 1.63755581e-01, 0.,
          8.30778182e-02, 1.64812058e-01, 3.06485072e-02, 1.59976915e-01,
          5.54563105e-02, 1.06796399e-01, 3.06563098e-02, 0., 0.,
          2.55195959e-03, 1.12722442e-02, 5.84753081e-02, 3.39406282e-01,
          5.49373589e-02, 3.18451971e-02, 1.10616893e-01, 1.45208150e-01,
          2.39395946e-01, 6.77034623e-05, 4.58820205e-06, 1.43998368e-02,
          0., 0., 1.75425917e-01, 1.13185108e-01, 5.49373589e-02,
          9.19455290e-02, 4.34004217e-01, 2.68700778e-01, 1.04637980e-01,
          9.19087455e-02, 0., 0., 0., 0., 1.75425917e-01, 1.13185108e-01,
          1.83124524e-02, 9.55355838e-02, 3.36777419e-01, 1.28926694e-01,
          7.09341690e-02, 2.25678214e-05, 0., 0., 0., 0., 4.34004217e-01,
          3.78774293e-02, 2.50461671e-05, 1.26685083e-01, 1.27118066e-01,
          8.57409090e-02, 7.18864053e-02, 2.03301624e-05, 1.01803207e-05,
          3.19504179e-02, 1.24201225e-02, 1.24201225e-02, 1.39174163e-01,
          4.43448844e-05, 2.26746947e-02, 2.52080351e-01, 4.23726924e-02,
          1.68806966e-02, 0., 2.78315637e-02, 2.78349593e-02,
          1.06501384e-02, 3.72603685e-02, 3.72603685e-02, 2.59490520e-01,
          2.26822365e-02, 8.34872299e-06, 1.70203224e-01, 2.57608384e-01,
          2.81804781e-02, 2.13002879e-02, 6.77672006e-06, 0., 0.,
          2.78315637e-02, 2.78315637e-02, 4.17522490e-01, 1.33034657e-04,
          2.50461671e-05, 1.26685083e-01, 8.21028724e-02, 5.62689919e-03,
          0., 8.34946930e-02, 8.34946930e-02, 0., 8.34946930e-02,
          8.34946930e-02, 6.82765782e-01, 2.48043390e-04 ]
      - [ 0., 0., 0., 0., 0., 2.29379624e-01, 4.39967126e-01,
          5.26679738e-04, 5.61909936e-03, 5.61909936e-03, 0., 0., 0., 0.,
          0., 0., 0., 2.33281299e-01, 4.39967126e-01, 1.58003916e-03,
          1.32098608e-02, 1.32098608e-02, 0., 0., 0., 0., 0., 0.,
          1.38554648e-02, 1.90083295e-01, 4.39967126e-01, 1.58003916e-03,
          0., 0., 0., 0., 4.99282889e-02, 6.46380894e-03, 0., 0.,
          4.15663943e-02, 2.70665199e-01, 4.39967126e-01, 4.74011758e-03,
          0., 0., 0., 0., 0., 0., 0., 3.64976749e-02, 3.03075109e-02,
          2.22622365e-01, 3.19876701e-01, 2.11674705e-04, 8.63443408e-03,
          8.63443408e-03, 0., 0., 0., 0., 1.40020549e-02, 2.35562935e-01,
          2.37052783e-01, 3.19876701e-01, 2.70337224e-01, 0.,
          5.54465968e-03, 5.54465968e-03, 0., 0., 4.94238734e-02,
          6.39850600e-03, 5.54120690e-02, 1.46371812e-01, 9.64910984e-02,
          2.41351411e-01, 3.19876701e-01, 6.35024160e-04, 0., 0., 0., 0.,
          1.64746270e-02, 2.13283557e-03, 3.19876701e-01, 3.19876701e-01,
          3.19876701e-01, 1.85321838e-01, 1.29354402e-01, 0., 0., 0., 0.,
          0., 0., 6.88529154e-03, 7.81272203e-02, 2.50978380e-01,
          3.45211953e-01, 1.63766757e-01, 3.62516679e-02, 0.,
          2.71088770e-03, 2.71088770e-03, 0., 0., 1.29615627e-02,
          2.06558742e-02, 1.67866245e-01, 7.48603567e-02, 2.75697559e-01,
          1.07304014e-01, 1.57231707e-02, 0., 5.78423124e-03,
          5.78423124e-03, 0., 1.29615627e-02, 0., 8.46681669e-02,
          3.90385956e-01, 3.90385956e-01, 1.73524514e-01, 5.45889176e-02,
          1.20838890e-02, 0., 0., 0., 0., 0., 8.60541984e-02,
          2.54004508e-01, 3.90385956e-01, 2.65641302e-01, 9.18991864e-02,
          3.57680060e-02, 5.24105690e-03, 0., 0., 0., 0., 8.60541984e-02,
          9.19887621e-04, 0., 0., 2.53741220e-02, 2.65987869e-02,
          5.47485873e-02, 2.31065005e-01, 3.59808240e-04, 0., 0., 0.,
          9.19887621e-04, 8.40263739e-02, 5.75039126e-02, 0.,
          7.61223659e-02, 7.97963589e-02, 5.41989915e-02, 2.11078480e-01,
          1.07942487e-03, 0., 0., 0., 0., 4.43038702e-01, 0., 0.,
          7.61223659e-02, 1.76261906e-02, 1.00815492e-02, 2.92680338e-02,
          0., 0., 0., 0., 4.43038702e-01, 4.43038702e-01, 1.43508285e-01,
          0., 2.28367090e-01, 5.28785698e-02, 1.87926868e-03,
          8.26817006e-03, 0., 0., 0., 0., 4.43038702e-01, 5.16621210e-02,
          3.53552550e-02, 1.06397219e-01, 6.59721047e-02, 1.94997452e-02,
          2.65973695e-02, 2.91152522e-02, 8.98173021e-05, 0., 0., 0., 0.,
          1.72207095e-02, 1.17850853e-02, 3.77734482e-01, 3.60646784e-01,
          3.85800265e-02, 8.86517204e-03, 6.24414999e-03, 0., 0., 0., 0.,
          0., 3.77734482e-01, 1.66138321e-01, 1.64761618e-01,
          4.86775637e-02, 4.39994596e-03, 6.17184526e-07, 0., 0., 0., 0.,
          0., 6.47792295e-02, 3.77734482e-01, 3.77734482e-01,
          3.77734482e-01, 2.60092854e-01, 0., 0., 0., 0., 0., 0., 0.,
          1.39039159e-02, 0., 7.65928626e-02, 3.76899391e-01,
          2.42221996e-01, 6.14092732e-03, 0., 0., 0., 0., 0., 0., 0.,
          5.10848314e-02, 2.29778588e-01, 3.76899391e-01, 7.12478459e-02,
          0., 0., 0., 0., 0., 0., 0., 5.10848314e-02, 6.99987411e-02,
          3.00961256e-01, 3.76899391e-01, 2.15369344e-01, 0., 0., 0., 0.,
          0., 0., 0., 0., 7.72658214e-02, 3.76899391e-01, 3.76899391e-01,
          6.70662224e-02, 0., 0., 0., 0., 0., 0., 0., 7.72658214e-02,
          3.49419087e-01, 0., 0., 5.17992862e-03, 6.70601556e-04, 0., 0.,
          0., 0., 0., 1.25742471e-02, 3.62379879e-01, 3.62379879e-01,
          9.51866433e-03, 0., 1.55397858e-02, 2.01180461e-03, 0., 0., 0.,
          0., 0., 4.19141538e-03, 3.62379879e-01, 2.22360879e-01, 0.,
          2.69476119e-02, 2.69476119e-02, 0., 0., 0., 0., 2.64027398e-02,
          2.64027398e-02, 3.77227440e-02, 3.62379879e-01, 3.62379879e-01,
          0., 1.26104683e-01, 1.26104683e-01, 0., 0., 0., 0.,
          8.80091358e-03, 8.80091358e-03, 1.25742471e-02, 3.62379879e-01,
          3.31556559e-01, 7.48914331e-02, 1.64642762e-02, 4.05559549e-03,
          2.78450112e-04, 0., 0., 0., 0., 0., 0., 2.00221688e-01,
          3.31556559e-01, 2.97322989e-01, 2.83330619e-01, 2.20011100e-02,
          0., 0., 0., 0., 0., 0., 0., 2.55927712e-01, 3.31556559e-01,
          2.17188802e-02, 8.29183459e-02, 8.29183459e-02, 0., 0., 0., 0.,
          0., 0., 0., 3.31556559e-01, 3.31556559e-01, 9.80260223e-02,
          1.55512482e-01, 9.17483717e-02, 0., 0., 0., 0., 3.85746057e-03,
          3.85746057e-03, 0., 3.31556559e-01, 2.35167861e-01,
          3.41317505e-01, 3.55139047e-01, 3.93070579e-02, 0., 0., 0., 0.,
          0., 0., 0., 1.53849304e-01, 8.29136819e-02, 2.35245422e-01,
          3.55139047e-01, 1.25084165e-02, 0., 0., 0., 0., 0., 0., 0.,
          8.29136819e-02, 3.55139047e-01, 1.12200119e-01, 2.61135876e-01,
          2.37973370e-02, 0., 0., 0., 0., 2.35410109e-02, 2.35410109e-02,
          0., 3.55139047e-01, 1.24192372e-01, 7.36979693e-02,
          3.20244551e-01, 0., 0., 0., 0., 0., 4.69225198e-02,
          4.69225198e-02, 0., 1.24192372e-01 ]
      - [ 0., 0., 0., 0., 0., 0., 0., 0., 0., 0., 0., 0., 0., 0., 0., 0.,
          0., 0., 0., 0., 0., 0., 0., 0., 0., 0., 0., 0., 0.,
          4.98753130e-01, 4.98753130e-01, 0., 0., 0., 0., 0., 0., 0., 0.,
          0., 0., 4.98753130e-01, 4.98753130e-01, 0., 0., 0., 0., 0., 0.,
          0., 0., 0., 0., 0., 0., 0., 0., 0., 0., 0., 0., 0., 0., 0., 0.,
          0., 0., 0., 0., 0., 0., 0., 0., 0., 0., 0., 0., 5.91741979e-01,
          5.91741979e-01, 0., 0., 0., 0., 0., 0., 0., 0., 0., 0.,
          3.83258522e-01, 3.83258522e-01, 0., 0., 0., 0., 0., 0., 0., 0.,
          0., 0., 0., 0., 0., 0., 0., 0., 0., 0., 0., 0., 0., 0., 0., 0.,
          0., 0., 0., 0., 0., 0., 0., 0., 0., 0., 0., 0., 0., 0., 0., 0.,
          0., 0., 0., 0., 0., 0., 0., 0., 0., 0., 0., 0., 0., 0., 0., 0.,
          0., 0., 2.29720667e-01, 2.62169600e-01, 1.61473125e-01, 0., 0.,
          0., 0., 0., 0., 0., 3.77065241e-02, 1.68498993e-01,
          3.02871436e-01, 3.02871436e-01, 5.38243726e-02, 0., 0., 0., 0.,
          2.66342470e-03, 0., 0., 0., 5.65583771e-03, 1.99061632e-01,
          2.87395477e-01, 3.02871436e-01, 1.51275873e-01, 0., 0.,
          2.66342470e-03, 0., 0., 0., 3.02871436e-01, 3.02871436e-01,
          3.02871436e-01, 3.02871436e-01, 1.63927287e-01, 5.04252873e-02,
          0., 0., 0., 0., 0., 4.40494306e-02, 9.67013985e-02,
          2.35285684e-01, 2.11017311e-01, 2.16872647e-01, 0., 0., 0., 0.,
          0., 0., 0., 1.32148281e-01, 1.49698943e-01, 7.84285590e-02,
          4.86146435e-02, 4.86146435e-02, 0., 0., 0., 0., 0., 0., 0.,
          1.32148281e-01, 3.76313150e-01, 3.76313150e-01, 1.28993452e-01,
          1.41449749e-01, 0., 0., 0., 0., 0., 0., 0., 3.76313150e-01,
          3.76313150e-01, 3.76313150e-01, 1.12045169e-01, 1.12045169e-01,
          0., 0., 0., 0., 0., 0., 0., 9.08515230e-02, 9.08515230e-02, 0.,
          0., 0., 0., 0., 0., 0., 0., 0., 0., 0., 0., 0., 0., 0., 0., 0.,
          0., 0., 0., 0., 0., 2.72554576e-01, 3.04306746e-01,
          4.03131783e-01, 4.03131783e-01, 4.03131783e-01, 0., 0., 0., 0.,
          0., 0., 0., 0., 0., 0., 4.03131783e-01, 4.03131783e-01, 0., 0.,
          0., 0., 0., 1.47791458e-02, 0., 0., 0., 9.60633717e-03,
          4.46526669e-02, 5.17209694e-02, 1.47096634e-01, 3.27621490e-01,
          1.09459169e-01, 0., 1.47791458e-02, 0., 0., 0., 3.27621490e-01,
          2.58080900e-01, 1.19195655e-01, 9.97222364e-02, 1.11007489e-01,
          1.82810053e-01, 3.64863947e-02, 0., 0., 3.22740264e-02, 0., 0.,
          0., 3.20211239e-03, 5.10275597e-03, 0., 7.38905668e-02,
          3.27621490e-01, 3.27621490e-01, 0., 3.22740264e-02, 0., 0.,
          2.61029869e-01, 3.27621490e-01, 1.01743944e-01, 1.53082674e-02,
          0., 2.10556075e-01, 3.27621490e-01, 2.13136882e-01, 0., 0., 0.,
          0., 4.20236886e-02, 3.33595991e-01, 3.33595991e-01,
          1.07208351e-02, 8.51199310e-03, 6.27103681e-03, 4.50052880e-03,
          0., 0., 0., 0., 0., 1.75129309e-01, 3.32799435e-01,
          3.33595991e-01, 7.74761438e-02, 7.74761438e-02, 0., 0., 0., 0.,
          0., 0., 0., 3.33595991e-01, 3.33595991e-01, 1.25618458e-01,
          1.37687405e-03, 0., 1.88131109e-02, 1.53806387e-02,
          1.87905040e-03, 0., 0., 0., 0., 3.33595991e-01, 3.33595991e-01,
          2.10972115e-01, 2.58253831e-02, 2.58253831e-02, 0., 0., 0., 0.,
          0., 0., 0., 2.13645026e-01, 2.31497779e-01, 2.08320349e-01,
          2.63440281e-01, 2.63440281e-01, 0., 0., 0., 0., 0., 0., 0.,
          1.50868073e-01, 1.50868073e-01, 0., 3.23042303e-01,
          3.23042303e-01, 0., 0., 0., 0., 0., 0., 0., 3.23042303e-01,
          3.23042303e-01, 6.94401041e-02, 8.78134370e-02, 8.78134370e-02,
          0., 0., 0., 0., 0., 0., 0., 3.23042303e-01, 3.23042303e-01, 0.,
          1.08242907e-01, 1.08242907e-01, 0., 0., 0., 0., 0. ]
      - [ 0., 0., 0., 0., 0., 8.34490079e-03, 8.34490079e-03, 0.,
          2.37081096e-01, 2.07255721e-01, 1.06086567e-01, 3.24286448e-05,
          5.77427167e-03, 0., 0., 0., 0., 0., 0., 4.82520014e-02,
          2.93469489e-01, 2.65571326e-01, 3.06763917e-01, 1.74352840e-01,
          1.12403929e-01, 6.20495304e-02, 5.42936362e-02, 0., 0.,
          9.27675143e-03, 9.27675143e-03, 0., 6.75322190e-02,
          2.48699889e-01, 3.18259686e-01, 9.72859270e-05, 3.59506279e-01,
          4.62442711e-02, 1.80978794e-02, 0., 0., 0., 0., 1.60840005e-02,
          8.02456886e-02, 1.34649485e-01, 3.59506279e-01, 3.59506279e-01,
          7.87201747e-02, 0., 2.01407191e-03, 2.01407191e-03,
          1.35122286e-02, 8.18464160e-03, 0., 3.98999229e-02,
          4.26923372e-02, 2.78441086e-02, 3.41690481e-02, 1.54474273e-01,
          2.55960703e-01, 1.63940579e-01, 6.04221597e-03, 6.04221597e-03,
          5.60168736e-02, 2.45588496e-02, 0., 1.32999737e-02,
          9.83579643e-03, 4.88638552e-03, 0., 7.91417733e-02,
          4.11367029e-01, 3.21810064e-03, 0., 0., 4.50407621e-03,
          2.72821379e-03, 0., 1.32999737e-02, 1.14645902e-02,
          6.51518069e-03, 1.02507144e-01, 4.11367029e-01, 4.11367029e-01,
          4.11367029e-01, 0., 0., 1.86722912e-02, 8.18628352e-03, 0.,
          4.43332409e-03, 1.64980337e-03, 0., 0., 4.11367029e-01,
          1.62243277e-01, 1.69082120e-01, 8.43370683e-04, 8.43370683e-04,
          2.16237828e-02, 3.43230879e-03, 0., 0., 6.54937560e-03,
          6.54937560e-03, 0., 1.25779495e-01, 3.36039573e-01,
          5.63607067e-02, 0., 0., 5.32189524e-03, 1.69316934e-06, 0., 0.,
          9.56885982e-03, 9.56885982e-03, 0., 3.36039573e-01,
          3.36039573e-01, 3.36039573e-01, 0., 0., 7.20792823e-03,
          1.14410301e-03, 0., 0., 0., 1.22239478e-01, 7.35305483e-03,
          2.95582682e-01, 3.36039573e-01, 1.69082120e-01, 0., 0.,
          1.77396496e-03, 5.64389723e-07, 0., 0., 0., 3.36039573e-01,
          2.20591631e-02, 3.36039573e-01, 9.91741642e-02, 5.43538034e-02,
          4.75598350e-02, 8.61833338e-03, 4.11697142e-02, 7.58094788e-02,
          8.38257745e-03, 0., 0., 2.54880860e-02, 3.77297699e-02,
          7.22727913e-04, 4.02200907e-01, 4.05087993e-02, 1.58532783e-02,
          2.87277810e-03, 1.37232374e-02, 3.73566777e-01, 4.88553531e-02,
          0., 0., 8.49602930e-03, 1.09100819e-01, 1.52976900e-01,
          3.75427417e-02, 1.81179345e-02, 1.58532783e-02, 2.58550011e-02,
          1.23509131e-01, 2.24829704e-01, 1.00623764e-01, 1.50929183e-01,
          1.78133264e-01, 0., 0., 4.72175190e-03, 1.73176944e-01,
          1.35029312e-02, 5.28442627e-03, 8.61833338e-03, 4.11697142e-02,
          4.02200907e-01, 4.02200907e-01, 3.70181650e-01, 5.93777671e-02,
          0., 0., 3.03227324e-02, 3.42608482e-01, 2.77323741e-03, 0., 0.,
          0., 1.96727365e-01, 3.10318321e-02, 0., 0., 0., 1.19550833e-02,
          1.68718785e-01, 3.96834731e-01, 5.73596135e-02, 0., 0., 0.,
          2.34754235e-01, 7.00674728e-02, 0., 0., 0., 0., 2.61323720e-01,
          1.05021946e-01, 9.24412394e-04, 0., 0., 7.05674961e-02,
          3.96834731e-01, 1.59062922e-01, 3.96179855e-02, 0., 0., 0.,
          3.82237472e-02, 1.73501641e-01, 0., 0., 0., 2.75383919e-01,
          3.96834731e-01, 2.23595992e-01, 0., 0., 0., 0., 7.78778642e-02,
          3.06465119e-01, 8.00847560e-02, 0., 0., 0., 8.68201703e-02,
          6.19750656e-02, 5.91558926e-02, 3.24493647e-02, 1.42603859e-01,
          8.57803039e-03, 1.67522147e-01, 2.08138168e-01, 2.66949181e-02,
          0., 0., 0., 1.93074644e-02, 1.93074644e-02, 1.77467674e-01,
          9.73481089e-02, 3.06465119e-01, 2.57340930e-02, 1.69265136e-01,
          9.29800943e-02, 0., 0., 0., 1.28913075e-01, 3.06465119e-01,
          2.61407405e-01, 1.77467674e-01, 9.73481089e-02, 4.75346185e-02,
          2.85934377e-03, 4.81545031e-02, 7.26332888e-02, 0., 0., 0.,
          2.96370592e-02, 2.94393361e-01, 3.06465119e-01, 3.06465119e-01,
          2.92044312e-01, 1.42603859e-01, 8.57803039e-03, 6.14414252e-02,
          5.99806895e-03, 0., 0., 3.26257828e-03, 1.55853108e-02,
          2.83706971e-02, 7.56428167e-02, 1.50634855e-01, 3.37509185e-01,
          2.08010674e-02, 0., 5.99806895e-03, 0., 0., 0., 9.12331697e-03,
          4.35820110e-02, 3.48203391e-01, 2.82941371e-01, 3.48203391e-01,
          2.70662546e-01, 6.93368865e-03, 0., 0., 1.07512455e-02, 0., 0.,
          0., 0., 0., 2.42658053e-02, 7.66315982e-02, 3.48203391e-01,
          2.72719741e-01, 0., 1.07512455e-02, 0., 0., 3.24459672e-02,
          5.65533452e-02, 1.15160726e-01, 9.84809399e-02, 8.81488621e-02,
          2.04220667e-01, 3.48203391e-01, 2.33558178e-01, 0., 0., 0., 0.,
          0., 5.39807826e-02, 1.68302372e-01, 3.65848124e-01,
          1.10360689e-01, 6.05802275e-02, 2.95109451e-02, 0., 0., 0., 0.,
          0., 0., 1.45509198e-01, 3.65848124e-01, 3.65848124e-01,
          5.87736815e-02, 0., 0., 0., 0., 0., 0., 0., 8.34695324e-02,
          2.45411888e-01, 2.40574718e-01, 1.57222793e-01, 3.08876690e-02,
          3.33392657e-02, 1.15150161e-01, 2.66173352e-02, 0., 0., 0., 0.,
          2.04017818e-01, 3.65848124e-01, 3.65848124e-01, 2.16905311e-01,
          6.27122167e-03, 0., 0., 0., 0., 0., 0., 0., 0., 4.35269736e-02,
          3.23611259e-01, 3.48596424e-01, 1.93594620e-01, 5.09837419e-02,
          2.07931641e-02, 0., 0., 0., 6.95924461e-03, 0., 0.,
          5.13941189e-03, 8.21267664e-02, 3.48596424e-01, 3.48596424e-01,
          1.52951226e-01, 6.23794869e-02, 0., 0., 6.95924461e-03, 0., 0.,
          1.27118066e-01, 2.57699013e-01, 3.48596424e-01, 1.53654456e-01,
          1.43961221e-01, 3.92320678e-02, 0., 0., 0., 0., 0., 0.,
          4.83299196e-02, 6.37481585e-02, 1.21646009e-01, 2.10108966e-01,
          3.48596424e-01, 1.17696196e-01, 0., 0., 0., 0. ]
      - [ 2.90946811e-02, 3.01626567e-02, 1.27093317e-02, 1.27093317e-02,
          0., 5.29743591e-03, 2.33993493e-02, 0., 0., 5.33289798e-02,
          2.81813797e-02, 2.43533812e-02, 2.50610650e-01, 3.45501274e-01,
          3.06493957e-02, 1.89737696e-02, 0., 1.58923082e-02,
          7.01980442e-02, 0., 9.57711367e-04, 1.87340397e-02,
          9.39379353e-03, 1.93427538e-03, 5.96700348e-02, 9.04879645e-02,
          1.90857902e-01, 1.81849584e-01, 0., 1.76581205e-03,
          7.79978326e-03, 0., 0., 1.59986943e-01, 3.35699618e-02,
          4.75181639e-02, 4.14125651e-01, 4.14125651e-01, 4.14125651e-01,
          4.14125651e-01, 0., 5.29743591e-03, 2.33993493e-02, 0., 0.,
          5.33289798e-02, 1.11899870e-02, 6.49350369e-03, 7.16227517e-02,
          2.20512420e-01, 1.65488854e-01, 1.69294588e-02, 0.,
          6.89984823e-04, 3.04773753e-03, 0., 3.07238864e-04,
          3.07238864e-04, 0., 0., 2.34164614e-02, 3.73216957e-01,
          3.73216957e-01, 2.16134831e-01, 0., 0., 0., 0., 1.02412952e-04,
          1.02412952e-04, 0., 0., 2.49867260e-01, 3.73216957e-01,
          2.43901998e-01, 2.36856956e-02, 0., 2.29994941e-04,
          1.01591251e-03, 0., 0., 0., 0., 0., 1.75246432e-01,
          3.73216957e-01, 3.73216957e-01, 1.33866861e-01, 0., 0., 0., 0.,
          0., 0., 0., 0., 0., 1.38959438e-01, 3.54922414e-01,
          3.54922414e-01, 0., 0., 0., 0., 0., 0., 0., 0., 0., 0.,
          3.54922414e-01, 2.48032317e-01, 0., 0., 0., 0., 0., 0., 0., 0.,
          3.60858738e-02, 3.51046145e-01, 3.54922414e-01, 3.54922414e-01,
          0., 0., 0., 0., 0., 0., 0., 0., 0., 0., 3.54922414e-01,
          1.87800542e-01, 0., 0., 0., 0., 0., 0., 0., 0., 6.78611221e-03,
          7.37926224e-03, 1.24701187e-01, 1.76328883e-01, 0.,
          3.80586111e-03, 3.80586111e-03, 0., 2.13208571e-02,
          3.43677402e-02, 1.39395241e-02, 1.47794234e-02, 6.13116287e-02,
          2.98572809e-01, 3.93292993e-01, 3.93292993e-01, 2.71809518e-01,
          0., 0., 0., 7.10695190e-03, 1.14559121e-02, 4.64650895e-03,
          3.52430739e-03, 8.65639304e-04, 2.45093438e-03, 7.13261142e-02,
          2.36778632e-01, 0., 2.92651914e-02, 2.92651914e-02, 0.,
          6.39625639e-02, 6.39625639e-02, 4.60888771e-03, 4.38994681e-03,
          0., 8.02735090e-02, 2.88197041e-01, 3.93292993e-01,
          3.93292993e-01, 3.44846793e-03, 3.44846793e-03, 0.,
          2.13208571e-02, 2.13208571e-02, 1.53629575e-03, 1.17476902e-03,
          7.94117898e-02, 2.99720496e-01, 2.01114789e-01, 1.49910793e-01,
          1.79336771e-01, 0., 0., 0., 0., 0., 0., 0., 1.41904429e-01,
          3.56364906e-01, 1.87380850e-01, 2.42467746e-01, 8.13467056e-02,
          0., 0., 0., 0., 0., 0., 0., 1.44580193e-02, 7.21993074e-02,
          1.01628661e-01, 3.56364906e-01, 3.56364906e-01, 0., 0., 0., 0.,
          0., 0., 0., 4.33740579e-02, 8.63289386e-02, 1.56520501e-01,
          3.56364906e-01, 3.56364906e-01, 0., 0., 0., 0., 0., 0., 0.,
          7.63713047e-02, 2.03112602e-01, 3.58045250e-01, 3.58045250e-01,
          9.35348049e-02, 0., 0., 0., 0., 0., 0., 0., 0., 0.,
          1.81255847e-01, 1.92122087e-01, 3.11782695e-02, 0., 0., 0., 0.,
          0., 0., 0., 2.54570991e-02, 4.12555002e-02, 3.23578179e-01,
          3.58045250e-01, 3.58045250e-01, 0., 0., 0., 0., 0., 0., 0., 0.,
          0., 3.36253315e-01, 3.58045250e-01, 9.35348049e-02, 0., 0., 0.,
          0., 0., 0., 0., 5.34033999e-02, 1.05014239e-02, 2.16834303e-02,
          7.49365240e-02, 0., 5.36222458e-02, 5.36222458e-02, 0.,
          2.39354260e-02, 2.39354260e-02, 0., 7.75336474e-02,
          2.66125537e-02, 3.15042697e-02, 2.34523267e-01, 4.07430023e-01,
          4.07430023e-01, 9.53521207e-03, 9.53521207e-03, 0.,
          7.97847472e-03, 7.97847472e-03, 0., 1.88289359e-02,
          1.60210192e-01, 1.34323360e-02, 3.59984441e-03, 0., 0.,
          1.64498910e-02, 1.64498910e-02, 0., 1.75017014e-01,
          1.75017014e-01, 0., 2.32600972e-01, 7.98376575e-02,
          4.02970091e-02, 4.07430023e-01, 4.07430023e-01, 2.78162420e-01,
          3.17840395e-03, 3.17840395e-03, 0., 1.05501726e-01,
          1.05501726e-01, 0., 5.64868040e-02, 4.62495344e-04,
          8.18322704e-04, 4.40823771e-02, 2.77596295e-01, 3.42459530e-01,
          0., 0., 0., 0., 0., 0., 0., 0., 0., 1.26204550e-01,
          3.71244639e-01, 3.71244639e-01, 0., 0., 0., 0., 0., 0., 0.,
          1.38748589e-03, 1.04671391e-03, 2.56859243e-01, 3.71244639e-01,
          9.46312025e-02, 0., 0., 0., 1.37818186e-03, 1.37818186e-03, 0.,
          0., 0., 0., 3.71244639e-01, 3.71244639e-01, 1.41525939e-01, 0.,
          0., 0., 0., 0., 0., 0., 0., 0., 2.84798533e-01, 3.95838678e-01,
          1.56210318e-01, 0., 0., 0., 0., 0., 0., 0., 0., 0.,
          1.97891474e-01, 2.56524533e-01, 6.40292373e-03, 0., 0., 0., 0.,
          0., 0., 0., 0., 0., 3.95838678e-01, 3.95838678e-01,
          4.56671827e-02, 0., 0., 0., 0., 0., 0., 0., 0., 0.,
          3.95838678e-01, 3.95838678e-01, 0., 0., 0., 0., 0., 0., 0., 0. ]
      - [ 0., 0., 0., 0., 0., 1.47140422e-03, 1.47140422e-03,
          6.32377639e-02, 1.96484506e-01, 3.70789021e-01, 5.07087028e-03,
          1.34053469e-01, 0., 0., 1.31923810e-01, 1.31923810e-01, 0., 0.,
          0., 1.89713299e-01, 1.06145389e-01, 1.74763039e-01,
          1.86035186e-02, 3.70789021e-01, 0., 0., 4.25560679e-03,
          4.25560679e-03, 0., 1.88206835e-03, 1.88206835e-03,
          2.10792553e-02, 1.08625084e-01, 3.11360866e-01, 7.57242739e-02,
          3.70789021e-01, 0., 0., 4.53931428e-02, 4.53931428e-02, 0., 0.,
          0., 6.32377639e-02, 1.93623126e-01, 2.36407295e-01,
          2.37345561e-01, 3.70789021e-01, 0., 0., 2.92559594e-01,
          2.92559594e-01, 0., 8.55117664e-03, 2.25599762e-02,
          1.38564184e-01, 3.78926657e-02, 9.03067738e-02, 1.20854992e-02,
          1.20698400e-01, 1.29024312e-01, 5.21341152e-02, 9.75198746e-02,
          9.75198746e-02, 0., 2.56535299e-02, 6.76799268e-02,
          2.44879410e-01, 4.53604944e-02, 6.47223070e-02, 4.18108590e-02,
          1.04442030e-01, 0., 5.54547086e-02, 1.39924809e-01,
          9.75198746e-02, 0., 2.56535299e-02, 3.03231273e-02,
          4.61880602e-02, 3.06993455e-01, 2.94104278e-01, 9.07396823e-02,
          3.06993455e-01, 3.06993455e-01, 3.06993455e-01, 3.06993455e-01,
          1.12405173e-01, 0., 7.69605935e-02, 9.09693912e-02,
          8.16264674e-02, 1.12224296e-01, 9.80347544e-02, 2.06212308e-02,
          3.48140113e-02, 1.24517925e-01, 5.03132455e-02, 0., 0., 0.,
          3.35056824e-03, 8.83957185e-03, 3.19833234e-02, 1.96334198e-02,
          1.96334198e-02, 1.34811372e-01, 1.88447475e-01, 8.56515840e-02,
          1.67710818e-02, 0., 0., 0., 0., 0., 0., 1.14429891e-02,
          1.14429891e-02, 3.03283483e-01, 3.40703458e-01, 3.47486287e-01,
          1.72668293e-01, 2.33224750e-01, 7.71079659e-02, 0.,
          1.00517049e-02, 1.18813729e-02, 1.06611084e-02, 0.,
          8.20926949e-02, 2.25454926e-01, 2.24069923e-01, 2.78206229e-01,
          5.03132455e-02, 7.22031444e-02, 2.57026553e-02, 0., 0., 0., 0.,
          0., 2.46278092e-01, 3.47486287e-01, 3.47486287e-01, 0., 0.,
          7.09422352e-03, 7.09422352e-03, 0., 8.15079920e-03,
          8.15079920e-03, 0., 8.47469941e-02, 5.51677831e-02,
          1.04306839e-01, 1.65085062e-01, 0., 0., 2.36474141e-03,
          2.36474141e-03, 0., 2.59919954e-03, 2.59919954e-03,
          9.23829805e-03, 4.70975369e-01, 1.43559948e-01, 3.15215588e-01,
          4.70975369e-01, 0., 0., 2.36474141e-03, 2.36474141e-03, 0.,
          2.33927947e-02, 2.34119687e-02, 8.48738924e-02, 3.26082289e-01,
          1.95206795e-02, 3.36249173e-02, 2.47848239e-02, 0., 0.,
          7.88247038e-04, 7.88247038e-04, 0., 7.79759837e-03,
          7.80398957e-03, 1.21863768e-01, 4.70975369e-01, 1.17159098e-01,
          1.00874752e-01, 7.43544772e-02, 0., 4.92975973e-02,
          6.03594258e-02, 3.17826285e-03, 0., 3.08635226e-03,
          3.08635226e-03, 1.09251412e-02, 3.73403698e-01, 1.30630106e-01,
          5.27959317e-02, 7.92638585e-02, 4.65683825e-02, 1.66709423e-01,
          3.73403698e-01, 8.05622414e-02, 8.89501423e-02, 1.10188767e-01,
          9.25905723e-03, 3.64171364e-03, 1.60305068e-01, 4.25019637e-02,
          9.04701650e-04, 0., 0., 1.64325330e-02, 8.05536583e-02,
          9.53478832e-03, 0., 0., 1.66156569e-05, 9.67806205e-02,
          3.73403698e-01, 7.86690935e-02, 1.61446482e-02, 1.19001707e-02,
          0., 4.92975973e-02, 3.08170408e-01, 5.22801839e-02,
          2.66850412e-01, 3.69905710e-01, 6.71664551e-02, 1.67367309e-01,
          3.12214166e-01, 2.30988134e-02, 0., 0., 5.11241779e-02,
          4.26306464e-02, 2.45951831e-01, 7.93927163e-02, 9.76521522e-02,
          1.12179354e-01, 7.92609751e-02, 1.00831753e-02, 0.,
          8.30169320e-02, 9.57997963e-02, 2.48276982e-02, 8.25405046e-02,
          6.88581821e-03, 7.30160400e-02, 2.59920266e-02, 3.25507186e-02,
          3.69345620e-02, 2.33655900e-01, 3.02495267e-02, 0.,
          2.49050796e-01, 2.87399381e-01, 1.39982209e-01, 0.,
          7.32439803e-03, 1.08920857e-01, 3.02419253e-02, 3.31478596e-01,
          3.43540281e-01, 3.07345927e-01, 5.34929447e-02, 0.,
          2.76723113e-02, 2.67399214e-02, 0., 3.05358153e-02, 0.,
          2.43386794e-02, 8.66400916e-03, 2.13218570e-01, 3.43540281e-01,
          3.43540281e-01, 9.07485783e-02, 0., 8.30169320e-02,
          8.02197680e-02, 3.05358153e-02, 0., 0., 0., 0., 0.,
          3.81389330e-03, 3.83201311e-03, 8.02069306e-02, 2.22985387e-01,
          3.27566564e-02, 0., 0., 0., 0., 0., 0., 0., 9.97262890e-04,
          1.00330298e-03, 1.35898709e-01, 4.64290380e-01, 6.63151443e-02,
          0., 0., 0., 0., 0., 0., 0., 2.46631308e-03, 2.47235294e-03,
          2.67356485e-02, 4.40596730e-01, 2.19431043e-01, 0., 0., 0., 0.,
          0., 0., 0., 0., 2.01332068e-06, 1.59804106e-01, 4.64290380e-01,
          4.64290380e-01, 0., 0., 0., 0., 1.25257839e-02, 1.75664166e-03,
          0., 3.08512468e-02, 4.34925221e-03, 1.67074546e-01,
          4.24042463e-01, 5.33553846e-02, 0., 0., 0., 0., 3.75773497e-02,
          5.26992464e-03, 1.02405272e-01, 2.39722356e-01, 1.04415111e-01,
          2.39615873e-01, 2.23756477e-01, 1.53297111e-02, 0., 0., 0., 0.,
          6.27663685e-03, 6.27663685e-03, 0., 9.25537422e-02,
          1.29874386e-02, 2.50757277e-01, 4.24042463e-01, 3.21826935e-01,
          0., 0., 0., 0., 3.02508306e-02, 3.02508306e-02, 1.59726262e-01,
          3.08167815e-01, 6.94181100e-02, 1.44893870e-01, 2.93674618e-01,
          8.12493712e-02, 0., 0., 0., 0., 6.61409227e-03, 9.27573768e-04,
          1.95310414e-01, 3.42840493e-01, 1.96778163e-01, 5.95588908e-02,
          0., 0., 0., 0., 3.31430393e-03, 0., 0., 0., 2.30771244e-01,
          3.85292023e-01, 3.85292023e-01, 6.62212968e-02, 0., 0., 0.,
          3.31430393e-03, 0., 0., 1.81679819e-02, 1.81679819e-02,
          2.28443310e-01, 1.33596838e-01, 1.20432407e-01, 5.89097440e-02,
          3.26527730e-02, 3.26527730e-02, 0., 0., 0., 0., 4.95122699e-03,
          4.95122699e-03, 1.31370351e-01, 3.85292023e-01, 3.85292023e-01,
          1.39244109e-01, 9.79583114e-02, 9.79583114e-02, 0., 0. ]
      - [ 8.23378190e-03, 0., 0., 0., 0., 3.27554494e-02, 1.25283018e-01,
          8.74739513e-02, 4.96071903e-03, 1.07762232e-01, 7.99493864e-02,
          8.23378190e-03, 0., 0., 0., 0., 0., 1.09184841e-02,
          8.17939416e-02, 3.50710303e-01, 1.24068730e-01, 1.88141167e-01,
          1.60067499e-01, 7.60958269e-02, 1.97459146e-01, 0., 0., 0., 0.,
          1.09184841e-02, 4.17610072e-02, 2.91579831e-02, 0.,
          3.08404565e-01, 2.39848152e-01, 1.20080799e-01, 3.50710303e-01,
          0., 0., 0., 0., 3.63949453e-03, 2.72646472e-02, 1.99101329e-01,
          2.73690429e-02, 3.50710303e-01, 3.50710303e-01, 3.50710303e-01,
          5.88563308e-02, 2.21490692e-02, 0., 0., 0., 0., 3.53734428e-03,
          2.14963093e-01, 1.36535421e-01, 7.41136000e-02, 4.28781249e-02,
          4.41628695e-02, 2.59079605e-01, 3.85221034e-01, 0., 0., 0., 0.,
          0., 6.47839010e-02, 2.46287525e-01, 1.56426877e-01,
          1.22242412e-02, 1.47209559e-02, 3.85221034e-01, 6.64472133e-02,
          0., 0., 0., 0., 1.17911480e-03, 7.16543794e-02, 3.50852571e-02,
          4.06477787e-02, 1.28634378e-01, 3.00510406e-01, 3.85221034e-01,
          3.85221034e-01, 0., 0., 0., 0., 0., 2.15946324e-02,
          6.28988147e-02, 3.29452679e-02, 3.66727225e-02, 2.03759789e-01,
          1.01849832e-01, 2.67271608e-01, 9.68367152e-04, 9.68367152e-04,
          0., 0., 0., 0., 2.58318819e-02, 1.15628935e-01, 1.73802152e-02,
          9.67804193e-02, 1.09308511e-01, 8.70740563e-02, 2.90510128e-03,
          2.90510128e-03, 0., 1.61460981e-01, 1.61460981e-01, 0.,
          2.05570506e-03, 2.91651756e-01, 5.21406420e-02, 2.90341228e-01,
          2.17629164e-01, 3.58280897e-01, 0., 0., 0., 0., 0., 0.,
          9.50822756e-02, 3.58280897e-01, 5.21406420e-02, 4.32276800e-02,
          1.02863036e-01, 1.67243436e-01, 0., 0., 0., 1.57978415e-01,
          1.57978415e-01, 0., 2.69513696e-01, 3.58280897e-01,
          1.56421930e-01, 1.24419510e-01, 1.53598160e-01, 0., 0., 0., 0.,
          5.87514937e-02, 9.38733518e-02, 0., 0., 3.44109237e-02,
          2.67615933e-02, 8.98035318e-02, 3.15302819e-01, 0., 0., 0.,
          1.99316069e-02, 2.72230506e-01, 1.29980356e-01, 0., 0.,
          4.89309281e-02, 5.35796657e-02, 3.19509596e-01, 5.07842600e-02,
          0., 0., 0., 0., 1.81835890e-01, 3.12028259e-01, 3.19912046e-01,
          0., 0., 0., 2.95193866e-02, 1.05100945e-01, 0., 0., 0.,
          5.97948208e-02, 3.61455560e-01, 3.61455560e-01, 3.61455560e-01,
          0., 0., 0., 9.80126560e-02, 2.00393915e-01, 7.46888155e-03, 0.,
          0., 1.16531141e-02, 1.44231454e-01, 3.16987559e-02, 0., 0.,
          3.33455717e-03, 1.44589208e-02, 1.54443309e-01, 3.62825662e-01,
          1.70175716e-01, 0., 0., 3.88437137e-03, 3.09177339e-01,
          1.08919144e-01, 0., 0., 0., 4.12213290e-03, 1.37517884e-01,
          6.01823330e-02, 0., 0., 0., 3.49593461e-02, 3.62825662e-01,
          2.73905069e-01, 1.76921889e-01, 0., 0., 0., 4.65170518e-02,
          1.07333831e-01, 2.74545643e-02, 0., 0., 1.84735894e-01,
          3.62825662e-01, 3.62825662e-01, 2.57936537e-01, 0., 0., 0.,
          4.41846102e-02, 8.31760094e-02, 1.07704237e-01, 0., 0., 0.,
          1.15551166e-01, 3.56768444e-02, 0., 1.78603008e-01,
          1.53359294e-01, 6.22233655e-03, 9.67108738e-03, 7.55213201e-02,
          3.51794846e-02, 0., 0., 0., 4.81267311e-02, 2.36787740e-02, 0.,
          3.40156674e-01, 3.40156674e-01, 1.86670106e-02, 5.69006242e-02,
          2.30084956e-02, 1.96083840e-02, 0., 0., 1.23617835e-01,
          3.40156674e-01, 1.69006586e-01, 2.27649994e-02, 3.24560136e-01,
          6.71823025e-02, 0., 3.22369579e-03, 2.18916982e-01,
          6.53612753e-03, 0., 0., 4.12059464e-02, 3.40156674e-01,
          1.57800630e-01, 0., 3.40156674e-01, 2.01546922e-01, 0.,
          2.13642895e-01, 0., 0., 0., 0., 0., 3.60604487e-02,
          8.23375061e-02, 3.91105711e-01, 3.89895812e-02, 0., 0., 0., 0.,
          0., 0., 0., 9.58106667e-03, 1.30860403e-01, 3.67484570e-01,
          3.91105711e-01, 7.94388205e-02, 4.33038734e-02, 0., 0., 0., 0.,
          0., 0., 0., 5.83443325e-03, 1.56324580e-02, 3.91105711e-01,
          2.35432446e-01, 1.18463725e-01, 0., 0., 0., 0., 0., 0., 0., 0.,
          1.01667792e-01, 3.91105711e-01, 3.07420284e-01, 1.99015453e-01,
          0., 0., 0., 0., 0., 0., 5.67815546e-03, 7.02789500e-02,
          2.30041802e-01, 2.20002353e-01, 4.38242145e-02, 6.27718642e-02,
          0., 0., 0., 0., 0., 0., 2.09616795e-01, 3.24569672e-01,
          3.24569672e-01, 3.09560716e-01, 1.11607790e-01, 1.19878910e-01,
          0., 0., 0., 0., 0., 0., 0., 0., 7.15320334e-02, 9.37896445e-02,
          2.42268473e-01, 2.99111396e-01, 0., 0., 0., 0., 0., 0.,
          6.92413673e-02, 1.64191425e-01, 3.03566545e-01, 1.03186890e-01,
          3.24569672e-01, 3.24569672e-01, 0., 0., 0., 0., 0., 0.,
          2.41214707e-01, 2.97139615e-01, 1.64071068e-01, 3.16030867e-02,
          6.84629828e-02, 1.82766467e-02, 0., 0., 1.97389364e-01, 0., 0.,
          0., 2.66017109e-01, 2.97139615e-01, 2.03459710e-01, 0.,
          1.68048590e-01, 1.74895748e-02, 0., 1.97389364e-01, 0., 0.,
          7.17205182e-02, 7.17205182e-02, 2.66017109e-01, 2.28340790e-01,
          2.02455327e-01, 1.05343619e-02, 8.79499093e-02, 8.79499093e-02,
          0., 0., 1.37603655e-01, 0., 2.15161547e-01, 2.15161547e-01,
          2.97139615e-01, 2.97139615e-01, 1.17487714e-01, 0.,
          6.44454733e-03, 6.44454733e-03, 0., 1.37603655e-01 ]
      - [ 1.85419500e-01, 2.04134732e-01, 3.02451938e-01, 4.73272689e-02,
          0., 1.70609877e-02, 1.70609877e-02, 0., 0., 0., 0.,
          1.77085921e-01, 8.51584375e-02, 1.83176607e-01, 3.08473080e-01,
          9.65475589e-02, 0., 0., 0., 4.29705419e-02, 3.57167907e-02, 0.,
          0., 5.38546368e-02, 3.08473080e-01, 3.08473080e-01,
          3.08473080e-01, 9.34923999e-03, 1.21253468e-02, 1.53573707e-01,
          5.99140897e-02, 0., 0., 0., 0., 5.90286404e-02, 2.00627908e-01,
          3.08473080e-01, 3.08473080e-01, 3.11641349e-03, 3.63760404e-02,
          2.87006110e-01, 5.62238097e-02, 3.76767218e-02, 9.14925560e-02,
          0., 0., 1.79515444e-02, 7.76342861e-03, 3.13334800e-02,
          2.61981696e-01, 7.68269300e-02, 0., 7.34784007e-02,
          1.06113657e-01, 7.68105611e-02, 6.38443604e-02, 0.,
          4.09055166e-02, 2.87667476e-02, 0., 0., 4.76504676e-02,
          4.76504676e-02, 2.85387158e-01, 3.03399593e-01, 3.03399593e-01,
          1.39640719e-01, 1.59211889e-01, 3.46823293e-03, 1.22716561e-01,
          8.63002390e-02, 2.32902858e-02, 5.53278625e-02, 6.17182627e-02,
          0., 8.79987609e-03, 1.03239365e-01, 1.35872215e-01,
          6.73477724e-02, 1.82728529e-01, 8.47377926e-02, 1.22716561e-01,
          8.63002390e-02, 0., 0., 0., 0., 9.51290578e-02, 1.19266361e-01,
          1.39613986e-01, 3.03399593e-01, 3.03399593e-01, 2.54213363e-01,
          3.03399593e-01, 2.58900732e-01, 0., 0., 2.59492826e-03,
          2.59492826e-03, 1.82277843e-01, 9.99077559e-02, 2.38779262e-01,
          2.21938580e-01, 9.50967371e-02, 9.21523012e-03, 1.06075155e-02,
          7.45971920e-03, 1.77320447e-02, 0., 0., 0., 6.07592873e-02,
          1.60975382e-01, 3.38745713e-01, 3.38745713e-01, 5.03657348e-02,
          2.17385627e-02, 0., 1.77320447e-02, 0., 0., 0., 0.,
          6.07592873e-02, 5.40430322e-02, 2.03197256e-01, 3.38745713e-01,
          3.38745713e-01, 2.19739899e-02, 3.18225510e-02, 2.23791581e-02,
          5.31961359e-02, 0., 0., 0., 2.02530939e-02, 1.85373813e-01,
          3.38745713e-01, 3.38745713e-01, 1.60500914e-01, 0., 0.,
          5.31961359e-02, 5.74727878e-02, 9.55033749e-02, 3.36679310e-01,
          1.19422451e-02, 1.48950949e-01, 1.89303026e-01, 2.00007297e-02,
          2.49371659e-02, 1.36790304e-02, 0., 0., 1.36205251e-03,
          3.34974490e-02, 6.39078617e-02, 1.46879598e-01, 1.21888127e-02,
          2.12307975e-01, 3.36679310e-01, 7.18174428e-02, 7.93532059e-02,
          5.65151088e-02, 0., 0., 0., 4.08615777e-03, 0., 1.46879598e-01,
          2.86181241e-01, 3.36679310e-01, 1.94453776e-01, 5.57635399e-03,
          7.48114958e-02, 4.10370938e-02, 0., 0., 4.08615777e-03, 0., 0.,
          4.89598624e-02, 2.41788030e-01, 3.36679310e-01, 3.30428690e-01,
          2.39391513e-02, 2.24434480e-01, 1.23111278e-01, 0., 0., 0.,
          2.28526117e-03, 4.95449081e-03, 0., 8.32781754e-03,
          1.29506141e-01, 5.70928343e-02, 7.28652328e-02, 1.48803266e-02,
          3.52474526e-02, 6.14365935e-02, 3.06135658e-02, 5.31392470e-02,
          0., 0., 0., 2.77593872e-03, 4.10420150e-02, 2.60374718e-03,
          2.42884140e-02, 9.74639952e-02, 3.20772797e-01, 1.84309781e-01,
          9.18407068e-02, 1.59417748e-01, 0., 0., 0., 4.37937044e-02,
          3.20772797e-01, 1.79904372e-01, 1.92284629e-01, 7.15883672e-02,
          2.15406548e-02, 2.04788633e-02, 5.57175651e-02, 1.34014189e-01,
          0., 0., 0., 8.32781754e-03, 2.16927648e-01, 5.44923916e-02,
          3.20772797e-01, 2.83210069e-01, 3.20772797e-01, 1.91687167e-01,
          3.20772797e-01, 3.20772797e-01, 0., 0., 0., 0., 0.,
          2.24682279e-02, 4.90062684e-02, 1.16718605e-01, 3.06210846e-01,
          7.27048367e-02, 5.38259335e-02, 2.05896012e-02, 7.79905356e-03,
          0., 0., 0., 0., 2.09181353e-01, 2.88795501e-01, 1.06029570e-01,
          1.55007079e-01, 1.46700904e-01, 1.25892729e-01, 7.79905356e-03,
          0., 0., 0., 0., 0., 7.48940930e-03, 7.63458237e-02,
          1.69346049e-01, 3.06210846e-01, 2.86909878e-01, 3.06210846e-01,
          5.19258231e-02, 0., 0., 0., 0., 0., 2.55109012e-01,
          2.66400248e-01, 5.11828586e-02, 2.11686537e-01, 3.06210846e-01,
          3.06210846e-01, 0., 1.98935285e-01, 2.20116368e-03, 0.,
          2.83073157e-01, 2.78866738e-01, 2.20916755e-02, 1.86453282e-03,
          5.01797870e-02, 6.56280369e-02, 0., 0., 4.31193830e-03,
          6.48744479e-02, 7.33721186e-04, 0., 2.19847202e-01,
          3.15677017e-01, 1.65792793e-01, 8.27829447e-03, 1.90084562e-01,
          1.96884111e-01, 0., 0., 0., 3.15677017e-01, 6.60349056e-03,
          6.68500513e-02, 1.61207765e-01, 7.48375207e-02, 6.21510961e-04,
          6.21510961e-04, 1.20071523e-01, 2.42933810e-01, 6.27625138e-02,
          0., 1.12716807e-02, 1.94623351e-01, 2.20116368e-03,
          3.89958657e-02, 1.11163989e-01, 1.84902951e-01, 5.30168116e-02,
          2.48348806e-02, 3.15677017e-01, 3.15677017e-01, 1.88287541e-01,
          0., 0., 0., 0., 0., 5.74697666e-02, 3.33449394e-01,
          1.35314927e-01, 1.48348987e-01, 8.52705613e-02, 2.26690136e-02,
          0., 6.34256098e-03, 1.52553879e-02, 6.96949586e-02, 0., 0.,
          1.17359959e-01, 3.33449394e-01, 4.51049842e-02, 3.33449394e-01,
          1.32039040e-01, 6.61085322e-02, 1.09557234e-01, 2.06549779e-01,
          7.55965784e-02, 0., 0., 4.80795391e-02, 1.69765458e-01,
          3.33449394e-01, 4.51049842e-02, 6.82307407e-02, 1.53837338e-01,
          8.39133710e-02, 2.16792151e-02, 0., 0., 2.09084898e-01, 0.,
          1.48978099e-01, 3.33449394e-01, 3.33449394e-01, 1.50349941e-02,
          1.48348987e-01, 6.79376274e-02, 0., 3.65190804e-02,
          6.25073686e-02, 8.94912481e-02, 7.30105042e-02, 0., 0.,
          1.65041313e-02, 4.86440621e-02, 0., 6.01003654e-02,
          3.33823562e-02, 1.20267428e-01, 2.20124543e-01, 2.69373178e-01,
          3.77379470e-02, 2.43368354e-02, 0., 0., 0., 0., 8.01242962e-02,
          8.01242962e-02, 6.26549358e-03, 1.76126376e-01, 3.51464838e-01,
          2.76178896e-01, 1.04165049e-02, 2.19031528e-01, 0.,
          5.90864047e-02, 1.08598799e-01, 1.45932183e-01, 0.,
          2.00334564e-02, 4.86195832e-03, 2.75829315e-01, 3.51464838e-01,
          8.36481899e-02, 9.37485397e-02, 7.30105042e-02, 0.,
          1.48948682e-02, 1.48948682e-02, 0., 1.45734459e-01,
          1.45734459e-01, 0., 3.51464838e-01, 3.51464838e-01,
          7.63286203e-02, 3.12495157e-02 ]
      - [ 0., 2.36310773e-02, 3.00919861e-01, 3.79607648e-01, 0.,
          2.09927503e-02, 2.09927503e-02, 0., 0., 0., 0., 0., 0.,
          7.08932355e-02, 2.75814593e-01, 2.94980943e-01, 1.11822532e-02,
          0., 0., 0., 0., 0., 0., 0., 0., 8.80876854e-02, 3.79607648e-01,
          3.79607648e-01, 0., 2.43616048e-02, 2.43616048e-02, 0., 0., 0.,
          0., 0., 0., 7.34500140e-02, 3.79607648e-01, 3.79607648e-01,
          3.35467644e-02, 0., 0., 0., 0., 0., 0., 0., 0., 3.55625339e-02,
          3.24092656e-01, 2.76385307e-01, 7.98240453e-02, 1.79675091e-02,
          0., 0., 0., 0., 0., 0., 0., 0., 1.09460294e-01, 2.77436346e-01,
          1.28943473e-01, 5.39025292e-02, 0., 0., 1.31032616e-01,
          1.31032616e-01, 0., 0., 0., 1.12886198e-01, 4.06335205e-01,
          3.41542989e-01, 2.16238067e-01, 5.39025292e-02, 0., 0., 0., 0.,
          0., 0., 1.96804631e-05, 2.90817976e-01, 2.61708826e-01,
          1.38807476e-01, 3.17128152e-01, 1.61707595e-01, 0., 0.,
          1.01271085e-01, 1.01271085e-01, 0., 0., 5.64384200e-02, 0.,
          7.30707776e-03, 6.84326142e-02, 3.48549038e-02, 1.63190309e-02,
          0., 0., 2.93125480e-01, 2.93125480e-01, 0., 5.64384200e-02,
          2.23087952e-01, 0., 0., 0., 0., 0., 0., 0., 9.77085158e-02,
          9.77085158e-02, 0., 2.23087952e-01, 9.76623446e-02,
          2.06053510e-01, 5.95768467e-02, 9.42538530e-02, 1.29823029e-01,
          4.89570946e-02, 0., 0., 2.26547688e-01, 2.26547688e-01, 0.,
          9.76183116e-02, 4.54187721e-01, 4.61096093e-02, 0.,
          2.21636012e-01, 1.39082253e-01, 0., 0., 0., 7.55158886e-02,
          7.55158886e-02, 0., 4.54173088e-01, 1.29496446e-02,
          1.14475369e-01, 4.03389126e-01, 1.01225398e-01, 0.,
          2.01920997e-02, 2.01920997e-02, 0., 0., 0., 0., 4.29111475e-04,
          8.80134180e-02, 7.35997483e-02, 4.03389126e-01, 6.31640032e-02,
          4.13348293e-03, 0., 0., 0., 0., 0., 0., 1.28733437e-03,
          3.88489328e-02, 1.48686051e-01, 4.03389126e-01, 3.80456656e-01,
          2.14010733e-03, 7.94748813e-02, 6.29440770e-02, 0., 0., 0., 0.,
          1.28733437e-03, 2.64040262e-01, 9.98459607e-02, 4.03389126e-01,
          2.06694171e-01, 6.42032223e-03, 4.95923832e-02, 0., 0., 0., 0.,
          0., 3.86200310e-03, 2.39716142e-01, 1.08614281e-01,
          1.93197697e-01, 2.78538782e-02, 1.96280628e-02, 4.95937513e-03,
          0., 0., 0., 0., 0., 2.06511915e-02, 3.12637538e-01,
          2.11019278e-01, 1.61533251e-01, 6.07704883e-03, 2.83761732e-02,
          1.48781259e-02, 0., 0., 6.63478393e-03, 2.87280567e-02,
          1.05538681e-01, 6.05069622e-02, 4.26843464e-01, 1.42681167e-01,
          1.68549925e-01, 2.21075952e-01, 2.40489980e-03, 1.85761284e-02,
          0., 0., 0., 0., 0., 7.01243728e-02, 4.26843464e-01,
          1.05831899e-01, 8.96304995e-02, 7.36919940e-02, 0., 0., 0., 0.,
          2.06292689e-01, 1.58820555e-01, 3.16615999e-01, 2.06033289e-01,
          7.45684728e-02, 1.17234647e-01, 3.38963941e-02, 4.20334525e-02,
          3.26004922e-02, 3.76966433e-03, 0., 0., 1.24213882e-02,
          5.37835732e-02, 2.21356094e-01, 2.21646670e-02, 3.29091474e-02,
          2.62341760e-02, 0., 1.26100361e-01, 7.91311860e-02, 0., 0., 0.,
          4.14046273e-03, 1.79278590e-02, 1.37173682e-01, 3.29235196e-02,
          2.09369928e-01, 3.90782170e-02, 1.12987990e-02, 1.40111512e-02,
          8.79235473e-03, 0., 0., 0., 3.86213273e-01, 3.38949144e-01,
          4.96603161e-01, 5.22252843e-02, 2.78319112e-06, 8.74472503e-03,
          0., 4.20334525e-02, 2.63770614e-02, 0., 0., 0., 1.28737763e-01,
          2.23946735e-01, 4.96603161e-01, 6.81660167e-05, 4.67568636e-03,
          1.49654392e-02, 3.80817354e-01, 3.80817354e-01, 1.90322811e-03,
          5.06539457e-02, 2.48941779e-02, 0., 0., 0., 0., 1.54937894e-04,
          3.17787193e-02, 1.01973433e-02, 1.94315553e-01, 2.68961847e-01,
          5.44412024e-02, 9.12983939e-02, 1.40190991e-02, 0., 0., 0., 0.,
          4.64813726e-04, 0., 0., 3.80817354e-01, 3.80817354e-01,
          6.34409254e-04, 7.07545578e-02, 3.26781236e-02, 0., 0., 0., 0.,
          0., 0., 0., 3.01231861e-01, 3.80817354e-01, 1.48097783e-01,
          1.56286627e-01, 4.20572981e-02, 0., 0., 0., 0., 0.,
          1.07970148e-01, 1.65913142e-02, 1.09875098e-01, 2.48824701e-01,
