%YAML:1.0
---
opencv_ml_svm:
   format: 3
   svmType: C_SVC
   kernel:
      type: LINEAR
   C: 1.0000000000000001e-01
   term_criteria: { epsilon:1.1920928955078125e-07, iterations:1000 }
   var_count: 320
   class_count: 2
   class_labels: !!opencv-matrix
      rows: 2
      cols: 1
      dt: i
      data: [ 0, 1 ]
   sv_total: 1
   support_vectors:
      - [ -6.45700609e-03, -4.09568101e-02, 4.00816500e-02,
          9.73710604e-03, 3.89012620e-02, 6.57940432e-02,
          -1.18399467e-02, 1.52841315e-01, 1.09290183e-01,
          1.93638876e-01, 1.30507335e-01, 2.64886677e-01, 1.63778558e-01,
          1.98765352e-01, 2.17122287e-01, 1.32488295e-01, 1.32152468e-01,
          7.77986199e-02, 1.11630306e-01, 3.05631347e-02, 8.98868777e-04,
          -1.00703672e-01, 1.09243274e-01, 3.02846134e-02,
          1.35109663e-01, 1.53188631e-01, 2.94286221e-01, 1.78599715e-01,
          3.44084412e-01, 3.71580333e-01, 3.52189273e-01, 5.07741332e-01,
          -3.17771107e-01, 4.88901258e-01, 4.51642573e-01,
          1.59693599e-01, 2.73904383e-01, -1.92219704e-01,
          1.04740411e-01, 2.23344877e-01, -9.25124437e-02,
          -2.19097629e-01, 1.77973568e-01, 2.94037592e-02,
          1.14145778e-01, -3.77752244e-01, -3.28482687e-02,
          -1.87865481e-01, -2.47406885e-01, -4.40123886e-01,
          -3.63999218e-01, 1.09494127e-01, -4.64898169e-01,
          -1.25273958e-01, -4.08468336e-01, -3.50903332e-01,
          -9.01677087e-02, -1.80615038e-01, -1.52042285e-01,
          -3.56409937e-01, 2.21647806e-02, -1.16318300e-01,
          6.38246238e-02, 6.65614977e-02, 8.13305154e-02,
          -3.53801018e-03, -1.05830804e-01, -4.98474151e-01,
          -3.36156078e-02, -4.46374677e-02, -4.32062715e-01,
          -1.11065857e-01, -3.48433554e-01, -6.02013692e-02,
          -3.40557277e-01, -6.76589459e-02, -4.85143661e-02,
          -1.16056189e-01, -8.76978487e-02, -1.37419939e-01,
          5.65829128e-02, 7.78964087e-02, 5.60521223e-02, 7.13044554e-02,
          6.41580150e-02, 2.37203375e-01, 1.98351160e-01, 1.22315675e-01,
          2.41694883e-01, 6.48286268e-02, 1.66570663e-01, 1.26723379e-01,
          9.31709334e-02, 2.43112221e-01, -9.05942798e-05,
          2.86332313e-02, -2.44302526e-02, -7.46863335e-02,
          1.03207320e-01, 1.79270729e-02, 2.18607411e-01, 2.21201226e-01,
          -3.12428121e-02, 2.30261043e-01, 3.36998969e-01,
          4.43459190e-02, 2.23980755e-01, -2.30086699e-01,
          1.72948673e-01, 3.15414429e-01, -9.59631130e-02,
          -7.10232407e-02, -2.49074444e-01, -1.35575414e-01,
          -1.25685170e-01, 5.90930618e-02, -5.95428906e-02,
          -3.21268588e-01, -1.83087587e-01, -1.69834942e-01,
          -1.69052452e-01, -3.01384088e-02, -1.16566978e-01,
          8.79854932e-02, -4.08848189e-02, -1.70225337e-01,
          -8.00288171e-02, -2.62554288e-01, -1.07091576e-01,
          -3.27324718e-01, -2.45905623e-01, -2.24951714e-01,
          -3.59252840e-01, -1.99551210e-01, -3.01196158e-01,
          -1.37817651e-01, -2.97844678e-01, -6.91643655e-02,
          -3.21871132e-01, -2.87388623e-01, -1.09361216e-01,
          3.28887813e-02, 6.10089279e-04, 1.93077754e-02, 7.64978901e-02,
          1.05035054e-02, 8.53764564e-02, -4.91497070e-02,
          6.23689592e-02, -1.83066070e-01, 5.37394397e-02,
          1.30536601e-01, 4.07248102e-02, 8.74569491e-02,
          -1.23627618e-01, -1.95913017e-03, -4.65291664e-02,
          4.45146859e-02, -9.69052911e-02, 5.39311543e-02,
          -3.29420269e-02, -1.12521067e-01, 5.25036417e-02,
          7.33666448e-03, 6.42289082e-03, -2.73140579e-01,
          -1.31262884e-01, -1.13678157e-01, -2.73411751e-01,
          -3.82479370e-01, -5.80693960e-01, -1.14337385e-01,
          -1.41547382e-01, -4.10936683e-01, -6.83794618e-01,
          -4.53291863e-01, -2.96198040e-01, 3.30783986e-02,
          -1.93989992e-01, -3.32445830e-01, 6.22025095e-02,
          -1.38475791e-01, 1.15547754e-01, 1.27113029e-01,
          1.28527865e-01, 6.35189787e-02, 1.64095432e-01,
          -6.79210961e-01, 5.90560399e-02, -7.40047246e-02,
          -5.28826237e-01, -1.52088702e-01, -4.57160980e-01,
          8.02579243e-03, -2.96307057e-01, -1.66119307e-01,
          -8.84882137e-02, -3.64982098e-01, 2.79663000e-02,
          -1.47033557e-01, 1.18564360e-01, -1.53028890e-01,
          2.46939704e-01, 2.06487671e-01, 2.16095045e-01, 3.38699043e-01,
          4.28886980e-01, 4.96912152e-01, 2.59864479e-01, 2.40574434e-01,
          2.62152821e-01, 2.03482211e-01, 2.71341085e-01, 2.23379210e-01,
          2.14649722e-01, 3.26772742e-02, 8.71633366e-02, 3.59929688e-02,
          1.18293576e-01, 4.27467115e-02, 4.67762798e-02,
          -1.07020169e-01, 6.58264533e-02, 1.34147674e-01,
          1.27477288e-01, 1.15405440e-01, 2.59821080e-02, 1.85223967e-01,
          1.47361100e-01, 1.84163153e-01, 2.05372348e-01, 8.05686861e-02,
          2.35995069e-01, 1.13090023e-01, 1.21505171e-01, 3.46424803e-02,
          4.26280312e-02, 5.99616654e-02, 2.11516558e-03, 4.41718549e-02,
          -5.39704897e-02, -1.08733438e-01, 5.59620820e-02,
          1.64617039e-02, -1.89339280e-01, -2.49367043e-01,
          -2.66152501e-01, 1.46544740e-01, -1.38795570e-01,
          -4.40715134e-01, -1.16957948e-01, -1.32148385e-01,
          1.29036244e-03, 2.04730965e-02, -4.27072525e-01,
          -1.27113074e-01, -1.11655019e-01, 2.33869739e-02,
          -7.60983378e-02, -1.82688937e-01, 2.46763360e-02,
          -5.19484878e-02, -1.54134765e-01, 2.13878497e-01,
          -1.04069561e-02, -4.01808098e-02, -5.49410395e-02,
          -1.56217575e-01, 6.28850162e-02, -2.09819883e-01,
          -1.86537802e-01, -9.30701196e-02, -4.30147760e-02,
          -1.28837451e-01, -2.63694674e-01, -1.46944508e-01,
          -9.09322128e-02, 3.17895116e-04, -2.75393158e-01,
          -9.67331976e-02, 2.00514048e-01, 8.18770081e-02,
          2.93060482e-01, 2.18452096e-01, 1.21176295e-01,
          -8.16024560e-03, -5.78569062e-02, -1.22833341e-01,
          1.99660927e-01, 1.18543863e-01, -1.23591185e-01,
          4.60769087e-02, -1.92811549e-01, -8.06716606e-02,
          4.50240001e-02, -2.17677787e-01, 4.36609350e-02,
          -8.67370442e-02, -1.61462441e-01, 4.10113521e-02,
          6.57197759e-02, 1.07918242e-02, 9.36380103e-02, 6.23697266e-02,
          8.06891769e-02, 3.25989425e-02, 1.68602765e-01,
          -2.70847362e-02, 1.83101669e-02, 1.41711667e-01,
          -3.37106013e-03, 3.35682094e-01, -2.06706643e-01,
          5.27919363e-03, 2.35675737e-01, -7.65971541e-02,
          3.68728302e-02, -2.74703447e-02, 1.47862077e-01,
          1.01360187e-01 ]
   uncompressed_sv_total: 349
   uncompressed_support_vectors:
      - [ 7.59153278e-04, 5.40762849e-04, 3.60508566e-04, 1.26862694e-02,
          1.12982932e-02, 3.47233843e-03, 3.51820327e-02, 6.10822113e-03,
          1.66722778e-02, 8.37220158e-03, 7.82886054e-03, 3.32083665e-02,
          1.36795929e-02, 6.35423288e-02, 1.43662738e-02, 3.36317196e-02,
          1.18020782e-03, 2.56250966e-02, 4.36022617e-02, 2.53634211e-02,
          4.90155362e-04, 0., 1.08152570e-03, 3.72106433e-02,
          2.79503223e-02, 4.24970351e-02, 4.62176874e-02, 1.06066428e-02,
          6.12590723e-02, 8.33023563e-02, 1.54679447e-01, 1.27995506e-01,
          8.22973400e-02, 9.19582695e-02, 6.72659650e-02, 2.69248694e-01,
          9.43449214e-02, 2.67774872e-02, 6.22146539e-02, 1.24904722e-01,
          2.58724578e-03, 1.26037486e-02, 6.06682268e-04, 4.81180474e-02,
          2.08440870e-02, 1.91370085e-01, 2.00195491e-01, 5.37760668e-02,
          1.38973400e-01, 1.56653032e-01, 2.69248694e-01, 2.69248694e-01,
          1.73123404e-01, 2.19585299e-01, 2.22839624e-01, 2.69248694e-01,
          2.69248694e-01, 5.44571318e-02, 8.39315206e-02, 1.26916170e-01,
          5.65226248e-04, 4.20124922e-03, 3.48959258e-03, 2.88351011e-02,
          7.50138052e-03, 2.32496336e-02, 6.75312057e-02, 1.59577206e-01,
          6.09874688e-02, 2.78711896e-02, 9.16182175e-02, 1.42546624e-01,
          2.49286190e-01, 7.57412389e-02, 3.35305221e-02, 3.92023437e-02,
          2.69248694e-01, 1.65490076e-01, 0., 3.83623280e-02,
          2.14227475e-03, 2.63058976e-03, 5.76049136e-03, 1.76117681e-02,
          4.57495870e-03, 5.09765372e-02, 4.38373303e-04, 1.63760632e-02,
          2.87709665e-02, 2.90904567e-02, 2.16568764e-02, 2.87958793e-03,
          3.63208517e-03, 1.59402303e-02, 9.92088951e-03, 1.07901706e-03,
          7.98954337e-04, 4.13436629e-03, 9.57907178e-03, 3.21467640e-03,
          6.43099248e-02, 3.17944810e-02, 1.63750835e-02, 2.16887090e-02,
          1.00603011e-02, 2.70142585e-01, 5.37487976e-02, 1.10885231e-02,
          1.50804907e-01, 2.26557195e-01, 5.09027727e-02, 3.95280495e-03,
          5.32571040e-02, 2.70142585e-01, 1.69162557e-01, 7.87338882e-04,
          1.26396527e-03, 3.01885847e-02, 2.07138918e-02, 1.46956276e-03,
          8.30617622e-02, 1.15205310e-01, 2.87314858e-02, 1.89175010e-02,
          1.78510603e-02, 2.37168744e-01, 2.70142585e-01, 4.26577590e-02,
          2.70142585e-01, 2.70142585e-01, 1.51767684e-02, 4.25865641e-03,
          4.09197137e-02, 2.70142585e-01, 2.70142585e-01, 1.36680249e-03,
          7.96555262e-03, 2.20200997e-02, 2.61335913e-02, 2.17617396e-02,
          2.07435228e-02, 7.64692500e-02, 2.60863844e-02, 6.30583381e-03,
          4.66056354e-03, 1.96480863e-02, 2.40987569e-01, 2.57322341e-01,
          1.01386756e-01, 9.20970961e-02, 1.58034377e-02, 5.69547899e-03,
          1.06868237e-01, 2.70142585e-01, 2.03189448e-01, 4.71544359e-03,
          2.65518436e-03, 1.59401167e-03, 3.24861519e-02, 3.50162089e-02,
          1.34417403e-03, 8.37174430e-03, 1.09539833e-03, 2.61886753e-02,
          7.75771309e-03, 7.60478526e-02, 1.32267118e-01, 9.38042700e-02,
          7.43042603e-02, 5.05695380e-02, 1.29353449e-01, 1.76133811e-01,
          1.57570913e-01, 1.45286411e-01, 8.62657577e-02, 9.23429579e-02,
          3.26507986e-01, 4.57592607e-02, 2.05091164e-02, 7.06968531e-02,
          3.75438278e-04, 2.79058143e-03, 1.25535196e-02, 7.16546029e-02,
          2.35900804e-02, 1.54430261e-02, 4.97562997e-02, 3.00362855e-01,
          1.57429785e-01, 1.10665031e-01, 1.58196762e-01, 2.40179196e-01,
          3.26507986e-01, 8.22985023e-02, 4.96741161e-02, 5.84864020e-02,
          3.26507986e-01, 3.26507986e-01, 5.07163722e-03, 3.01973168e-02,
          1.74607930e-03, 0., 5.95092867e-03, 4.53616418e-02,
          2.30009705e-02, 0., 1.88908656e-03, 8.19209218e-03,
          2.03461185e-01, 1.96786895e-01, 1.97606515e-02, 7.00446963e-02,
          5.46189323e-02, 1.05905309e-01, 1.07585542e-01, 6.58688461e-03,
          2.14591473e-02, 1.81715801e-01, 3.90080661e-02, 3.79825849e-03,
          1.44991721e-03, 0., 0., 2.48452406e-02, 9.73166432e-03, 0., 0.,
          0., 1.09884173e-01, 5.95399700e-02, 3.86860501e-03,
          1.16058150e-02, 3.36227678e-02, 8.36739466e-02, 7.51846954e-02,
          3.37149692e-03, 1.01144901e-02, 2.09884159e-02, 1.58133730e-02,
          2.87504867e-03, 2.33905595e-02, 6.29026741e-02, 1.36841005e-02,
          1.01741748e-02, 6.54084794e-03, 5.15302643e-02, 1.80601463e-01,
          4.72651906e-02, 9.81235132e-02, 1.43027991e-01, 4.82151099e-03,
          3.77218798e-03, 1.77480131e-02, 2.68017739e-01, 2.15640917e-01,
          2.70424905e-04, 4.28401818e-03, 4.56242636e-03, 2.08830312e-02,
          1.62190367e-02, 2.96858661e-02, 1.02078348e-01, 5.33345789e-02,
          4.48535709e-03, 5.19972574e-03, 2.00749636e-02, 3.02422494e-01,
          3.02422494e-01, 1.50722280e-01, 6.33732453e-02, 6.25280365e-02,
          6.36771396e-02, 3.02422494e-01, 3.02422494e-01, 3.02422494e-01,
          1.87390223e-02, 1.42800598e-03, 4.85365745e-03, 9.24431384e-02,
          9.79577228e-02, 3.76157672e-03, 1.26515599e-02, 1.19485855e-02,
          6.73899660e-03, 4.51078825e-03, 1.48689244e-02, 7.11167455e-02,
          2.26943761e-01, 4.61039506e-02, 6.49068831e-03, 6.04937375e-02,
          2.01095536e-01, 2.53427535e-01, 1.28005922e-01, 1.39811844e-01,
          1.50730340e-02, 0., 6.83008805e-02, 1.98352084e-01,
          1.12583011e-01, 9.91784036e-04, 2.97535211e-03, 7.60001829e-03,
          6.81229960e-03, 4.82860813e-03, 2.61492142e-03, 7.84476381e-03,
          7.59436702e-03, 1.57740340e-02, 7.13082543e-03, 2.22201589e-02,
          4.26043123e-02, 6.87240884e-02, 4.99027893e-02, 3.60085107e-02,
          3.00068613e-02, 1.05803506e-02, 2.52592191e-02, 3.35141234e-02,
          7.32052773e-02 ]
      - [ 1.32950535e-02, 2.33607832e-02, 0., 0., 5.83488401e-03,
          9.70854983e-02, 9.88972932e-02, 0., 3.42064090e-02,
          2.29293741e-02, 2.35894509e-02, 1.36256991e-02, 0.,
          1.36993736e-01, 7.97967911e-02, 8.88243318e-03, 1.16238836e-02,
          0., 1.18870297e-02, 5.28995600e-03, 2.67198049e-02,
          9.29546058e-02, 1.77849689e-03, 8.18474591e-03, 4.27676365e-03,
          2.18835056e-01, 3.17007631e-01, 4.63306060e-04, 1.37889937e-01,
          6.96774349e-02, 5.68210743e-02, 6.64467067e-02, 2.37252389e-04,
          3.17007631e-01, 2.35032648e-01, 3.42541635e-02, 3.36525254e-02,
          8.27842765e-03, 5.64686283e-02, 9.89696197e-03, 2.54702531e-02,
          1.20999768e-01, 3.89804342e-03, 2.58023906e-02, 1.09452452e-03,
          1.09999865e-01, 3.17007631e-01, 3.16694789e-02, 2.09138691e-01,
          5.83564676e-02, 1.35690477e-02, 1.52775154e-01, 2.03488301e-02,
          3.17007631e-01, 2.57920384e-01, 1.28192343e-02, 6.16201945e-02,
          3.16355489e-02, 6.72972053e-02, 4.17548716e-02, 1.18101435e-02,
          4.57597338e-02, 2.71972851e-03, 2.00639293e-02, 4.36316594e-04,
          3.52160037e-02, 3.17007631e-01, 6.00605495e-02, 8.23457465e-02,
          5.18873613e-03, 2.10990850e-03, 7.28777424e-02, 5.25927432e-02,
          2.80096412e-01, 1.19982779e-01, 2.85168514e-02, 2.78596878e-02,
          8.84271786e-03, 1.77077036e-02, 3.96481380e-02, 3.34808929e-03,
          7.35197682e-03, 0., 5.50403595e-02, 2.98500899e-02,
          4.30549495e-02, 3.49671952e-02, 0., 1.11620435e-02,
          8.73199012e-03, 5.79314753e-02, 4.92198206e-02, 2.04944536e-02,
          1.72876120e-02, 8.37126672e-02, 8.06057267e-03, 8.46353732e-03,
          6.14833720e-02, 2.66613625e-02, 2.84596346e-02, 1.92168076e-02,
          1.86781567e-02, 4.92146297e-04, 2.43109271e-01, 8.03038776e-02,
          1.28616124e-01, 2.03955531e-01, 4.64335158e-02, 4.30919752e-02,
          8.88523553e-03, 1.49292439e-01, 2.60004014e-01, 1.13894895e-01,
          1.08626150e-01, 2.60004014e-01, 1.36031890e-02, 0.,
          4.91506048e-02, 2.18836144e-01, 1.83986962e-01, 4.92178183e-03,
          4.05348204e-02, 1.60522386e-02, 2.60004014e-01, 1.12900577e-01,
          6.03275746e-02, 2.58316249e-01, 1.25340924e-01, 5.29376715e-02,
          1.14005536e-01, 5.60582392e-02, 2.60004014e-01, 2.60004014e-01,
          1.48241654e-01, 1.39664963e-01, 1.96392685e-02, 1.21672004e-02,
          1.55556038e-01, 1.81629717e-01, 8.52908045e-02, 4.37670480e-03,
          1.46629773e-02, 1.55337062e-02, 1.04258038e-01, 8.42276514e-02,
          1.55922860e-01, 8.15067366e-02, 2.44662799e-02, 1.40404059e-02,
          1.19179830e-01, 1.02810286e-01, 1.94363184e-02, 8.79575387e-02,
          5.64205423e-02, 2.42964715e-01, 2.58114226e-02, 9.62981675e-03,
          2.31958609e-02, 1.82794314e-02, 1.37888994e-02, 1.17062181e-02,
          5.64595312e-02, 2.01786403e-03, 1.68983918e-02, 7.33162975e-04,
          3.84133011e-02, 2.96698928e-01, 3.16168778e-02, 1.04492046e-01,
          1.83501877e-02, 1.09821674e-03, 8.30240771e-02, 2.03516912e-02,
          2.96698928e-01, 1.35745764e-01, 8.87750089e-03, 3.21734175e-02,
          1.67540815e-02, 2.65732072e-02, 3.64247076e-02, 3.40590104e-02,
          1.05840370e-01, 8.68490897e-03, 5.44299148e-02, 4.36414359e-03,
          1.01115718e-01, 2.96698928e-01, 2.10593313e-01, 1.58203825e-01,
          4.73098410e-03, 2.30307803e-02, 1.60354182e-01, 2.27240503e-01,
          2.96698928e-01, 2.34013274e-01, 1.23137832e-01, 7.71855563e-02,
          8.81509669e-03, 3.37925851e-02, 7.79408887e-02, 3.13396379e-02,
          8.08281451e-02, 9.78779420e-03, 3.48443985e-02, 3.05779260e-02,
          9.36651304e-02, 2.96698928e-01, 1.74246028e-01, 4.58589494e-02,
          1.01533346e-02, 5.39318994e-02, 1.33879796e-01, 2.96698928e-01,
          1.16825365e-01, 3.41878533e-02, 1.09417617e-01, 8.91842917e-02,
          6.93065226e-02, 1.76267959e-02, 1.13959489e-02, 8.15304741e-03,
          3.26176025e-02, 3.59604438e-03, 1.01765292e-02, 1.37447324e-02,
          2.53077857e-02, 1.49253502e-01, 3.47657427e-02, 1.10381730e-02,
          5.86376525e-03, 1.19015696e-02, 5.62353134e-02, 1.33057117e-01,
          2.29379870e-02, 3.84656363e-03, 2.76177395e-02, 4.12714630e-02,
          6.76010102e-02, 4.30971943e-03, 0., 0., 1.52646396e-02,
          8.19633063e-03, 1.00172497e-01, 5.37989214e-02, 4.16872911e-02,
          6.42185733e-02, 3.88036184e-02, 1.48340492e-02, 6.97589740e-02,
          3.60494405e-02, 5.84818311e-02, 1.73180699e-01, 2.79600397e-02,
          7.64694959e-02, 1.29128639e-02, 7.12715508e-03, 4.71318923e-02,
          2.49135923e-02, 1.07948473e-02, 2.63437312e-02, 1.54742943e-02,
          3.82343195e-02, 1.35785058e-01, 1.20730735e-01, 2.75436729e-01,
          2.22795010e-01, 4.04379554e-02, 3.80727462e-02, 1.81596890e-01,
          1.86228305e-01, 6.54728413e-02, 1.15582749e-01, 2.71735370e-01,
          2.75436729e-01, 4.27529477e-02, 1.48489624e-02, 1.08015612e-02,
          7.04328716e-02, 4.49669398e-02, 4.56032790e-02, 3.46050486e-02,
          7.76852071e-02, 2.75258645e-02, 1.81368552e-02, 2.52031833e-01,
          2.33650938e-01, 2.75436729e-01, 1.50443748e-01, 3.00571881e-02,
          1.19256154e-01, 7.83628896e-02, 2.75436729e-01, 2.75436729e-01,
          1.80111080e-01, 3.02936062e-02, 1.66602824e-02, 2.44666338e-02,
          6.80682063e-02, 3.78201343e-02, 8.64495616e-03, 2.97544207e-02,
          5.80186471e-02, 4.47662827e-03, 7.50703912e-04, 7.79745579e-02,
          5.52911311e-02, 1.26875564e-01, 6.04689233e-02, 8.08936451e-03,
          4.04953733e-02, 4.02016826e-02, 1.14107929e-01, 1.50754020e-01,
          2.77702622e-02, 6.31781016e-03, 1.25827435e-02, 6.68729693e-02,
          2.85068192e-02, 5.27945999e-03 ]
      - [ 6.66776730e-04, 1.65192017e-04, 2.53920117e-03, 1.40720196e-02,
          9.08260234e-03, 6.70456141e-02, 5.38697727e-02, 2.50967476e-03,
          3.93437892e-02, 2.33453345e-02, 2.13203073e-01, 1.55405462e-01,
          9.97231342e-04, 4.20593796e-03, 1.46656402e-03, 1.10722287e-02,
          2.32944768e-02, 1.47602157e-04, 1.20397042e-02, 8.22704937e-03,
          3.00472025e-02, 4.95576067e-04, 7.61760399e-03, 2.94664055e-02,
          1.34307086e-01, 2.82542706e-01, 2.82542706e-01, 3.09362612e-03,
          8.68452117e-02, 1.31980240e-01, 2.82542706e-01, 2.82542706e-01,
          1.51322770e-03, 2.73338961e-03, 2.15951391e-02, 1.33374222e-02,
          6.03309693e-03, 8.51426367e-03, 2.11125072e-02, 2.91675925e-02,
          7.72549957e-02, 3.37212067e-03, 1.45815434e-02, 8.29616934e-03,
          2.82542706e-01, 2.82542706e-01, 1.52190536e-01, 1.19474083e-02,
          2.48885117e-02, 2.82542706e-01, 2.82542706e-01, 2.82542706e-01,
          6.51776427e-05, 1.04130590e-02, 1.46910593e-01, 6.21545054e-02,
          3.54417996e-03, 2.71221180e-03, 4.75545935e-02, 1.42681360e-01,
          7.87439011e-03, 1.11197680e-02, 4.71631438e-02, 4.08509374e-03,
          2.30766870e-02, 4.17892002e-02, 2.88677011e-02, 5.47773615e-02,
          8.65887851e-03, 1.56616002e-01, 1.25172257e-01, 9.56103355e-02,
          6.82037175e-02, 1.25587722e-02, 5.15019484e-02, 1.66870523e-02,
          1.28010632e-02, 3.59072015e-02, 4.32928391e-02, 6.41663447e-02,
          6.96390867e-02, 7.23639354e-02, 3.27459595e-04, 4.09235759e-03,
          1.49394677e-03, 3.22171338e-02, 1.85107831e-02, 1.09153203e-04,
          5.26450053e-02, 4.89661098e-02, 1.58771172e-01, 1.54049564e-02,
          0., 5.97086400e-02, 1.14365190e-01, 1.91066623e-01,
          1.46659762e-02, 0., 2.05156840e-02, 1.11600175e-01,
          1.01869717e-01, 1.18274495e-01, 9.82378842e-04, 5.49464766e-03,
          2.11762302e-02, 1.96709875e-02, 4.22288589e-02, 4.74398993e-02,
          8.70405436e-02, 7.50115365e-02, 1.79232270e-01, 2.67149568e-01,
          4.63747829e-02, 2.35188678e-02, 3.82645950e-02, 2.67149568e-01,
          2.01430678e-01, 1.16721556e-01, 0., 4.88188602e-02,
          1.76315874e-01, 1.03885211e-01, 4.81994866e-05, 2.09322851e-02,
          8.25970694e-02, 5.33740819e-02, 2.22421139e-02, 2.07128432e-02,
          1.51948854e-01, 2.67149568e-01, 8.74250904e-02, 2.67149568e-01,
          1.06563464e-01, 2.97173280e-02, 2.67149568e-01, 9.74520743e-02,
          2.67149568e-01, 2.23463148e-01, 0., 4.13610116e-02,
          5.21246158e-02, 4.36142236e-02, 5.30763641e-02, 2.52455883e-02,
          2.77264323e-02, 3.58668119e-02, 9.46650933e-03, 5.08268997e-02,
          1.11284040e-01, 2.55053639e-01, 9.17138308e-02, 3.71403694e-02,
          1.66492444e-02, 3.08076721e-02, 2.11238012e-01, 8.36187825e-02,
          1.11421108e-01, 4.84342836e-02, 2.00216961e-03, 2.77813375e-02,
          2.75448244e-02, 6.06880011e-03, 2.45249532e-02, 3.28570162e-03,
          9.51569229e-02, 1.29842311e-01, 3.55175473e-02, 2.15017311e-02,
          9.85710509e-03, 2.47566894e-01, 2.12077394e-01, 1.19619198e-01,
          1.17300093e-04, 9.26197134e-03, 8.74259099e-02, 3.20507213e-02,
          6.37845509e-03, 3.91000285e-05, 3.47794518e-02, 8.59496072e-02,
          6.92096073e-03, 2.35050935e-02, 1.07327551e-01, 1.02102309e-02,
          1.90343503e-02, 5.37387766e-02, 7.80716166e-02, 1.61160439e-01,
          2.61575077e-02, 1.42369062e-01, 1.50803477e-01, 2.21764296e-01,
          2.47566894e-01, 4.48206775e-02, 5.30366749e-02, 4.34050970e-02,
          6.92459270e-02, 1.87853977e-01, 7.71154985e-02, 1.04369186e-01,
          5.55881299e-03, 3.10307019e-03, 8.65230188e-02, 4.61894879e-03,
          1.62374694e-02, 1.48426965e-02, 1.90035570e-02, 1.79662332e-01,
          1.11960806e-01, 1.02427490e-02, 1.46172091e-01, 1.55387968e-01,
          2.47566894e-01, 1.47613883e-01, 2.69232946e-03, 2.47566894e-01,
          1.70655474e-01, 1.43333882e-01, 3.77522185e-02, 3.14796343e-02,
          1.01976907e-02, 2.95123681e-02, 2.19528466e-01, 1.75617810e-03,
          2.16840929e-03, 3.39608788e-02, 9.62645635e-02, 2.47566894e-01,
          5.58112077e-02, 2.02121492e-03, 1.44231230e-01, 2.47566894e-01,
          1.89068317e-01, 3.86770405e-02, 4.18040249e-03, 1.08353585e-01,
          8.78519937e-02, 3.70937139e-02, 7.32321292e-02, 1.55531233e-02,
          5.84708191e-02, 2.55549885e-02, 5.34319552e-05, 1.14683425e-02,
          2.81103235e-02, 1.94462817e-02, 4.30911919e-03, 8.60469416e-04,
          5.79440594e-02, 1.88059807e-01, 4.50770780e-02, 7.58857429e-02,
          1.91361811e-02, 7.84634240e-03, 1.37392357e-01, 3.88857350e-02,
          1.00490607e-01, 4.32113297e-02, 0., 2.05450896e-02,
          3.58862542e-02, 7.61277899e-02, 1.78623378e-01, 3.12844664e-02,
          1.92118585e-02, 1.09101444e-01, 6.21134937e-02, 1.59102961e-01,
          1.61328092e-01, 2.62782037e-01, 1.16144508e-01, 4.70083058e-02,
          6.19917102e-02, 1.69061661e-01, 2.09733203e-01, 9.60778370e-02,
          1.41024917e-01, 1.47425085e-01, 7.13646458e-03, 2.23619044e-02,
          1.25895262e-01, 1.02515087e-01, 1.19187467e-01, 2.12339871e-02,
          1.58313452e-03, 2.62782037e-01, 1.86724976e-01, 2.29687348e-01,
          2.62782037e-01, 1.12415470e-01, 5.25921211e-02, 4.54577319e-02,
          1.42004207e-01, 2.62782037e-01, 7.82870725e-02, 1.42410109e-02,
          5.77626377e-02, 1.97791904e-01, 5.19432612e-02, 1.48467105e-02,
          7.76833519e-02, 1.21202230e-01, 2.26831157e-02, 4.00701631e-03,
          4.74940380e-03, 1.10608056e-01, 4.95492555e-02, 1.24905854e-01,
          2.62782037e-01, 3.27404402e-02, 2.33306810e-02, 2.02025212e-02,
          4.33679856e-02, 2.01224968e-01, 2.02968698e-02, 2.18785442e-02,
          7.43993605e-03, 1.28294025e-02, 2.60552093e-02, 1.72745883e-02 ]
      - [ 1.17854681e-02, 1.27841311e-03, 6.08139962e-04, 6.66740257e-03,
          4.36645523e-02, 3.13806795e-02, 3.70553322e-02, 9.30955075e-03,
          1.00765349e-02, 6.34554923e-02, 1.82761997e-02, 4.32998836e-02,
          3.45929153e-02, 5.90419471e-02, 8.96764174e-02, 7.03859702e-03,
          1.09860930e-03, 1.17383422e-02, 4.21627536e-02, 5.66121936e-02,
          4.28777048e-03, 0., 1.82441995e-03, 4.38635089e-02,
          6.72319382e-02, 4.45352755e-02, 7.09493533e-02, 4.05956507e-02,
          8.15510526e-02, 1.77421078e-01, 2.76007298e-02, 1.50497139e-01,
          6.83646575e-02, 9.00884941e-02, 1.93754613e-01, 1.65589172e-02,
          8.92292149e-03, 4.98916358e-02, 2.18771920e-01, 1.66362241e-01,
          1.41530484e-02, 4.52656746e-02, 3.53974476e-02, 2.05755215e-02,
          6.32962510e-02, 1.30868047e-01, 8.78911391e-02, 7.23538101e-02,
          1.33136183e-01, 2.69131571e-01, 2.69131571e-01, 1.58859134e-01,
          8.75047520e-02, 1.48848251e-01, 2.69131571e-01, 2.16912523e-01,
          2.00909134e-02, 1.53324176e-02, 1.89512253e-01, 2.69131571e-01,
          1.64269358e-02, 6.28908500e-02, 6.15860522e-02, 1.36779593e-02,
          1.16051175e-03, 3.88074294e-02, 9.91467535e-02, 1.56403065e-01,
          7.68449828e-02, 4.74262238e-02, 2.06271157e-01, 2.69131571e-01,
          1.71734974e-01, 5.61132059e-02, 7.59594217e-02, 6.84101805e-02,
          5.64527065e-02, 1.15543954e-01, 1.82447359e-01, 1.37769818e-01,
          2.53433897e-03, 4.19877330e-03, 1.00144921e-02, 2.22804062e-02,
          2.75187399e-02, 1.07283229e-02, 1.07442457e-02, 9.61282477e-03,
          3.42481099e-02, 4.58745919e-02, 8.71341210e-03, 2.68657319e-02,
          1.79886781e-02, 7.34991655e-02, 1.55606698e-02, 1.44626396e-02,
          4.55193594e-03, 9.42440610e-03, 2.32390631e-02, 9.77313798e-03,
          4.71736351e-03, 2.16853376e-02, 1.92076378e-02, 5.04516438e-02,
          7.28718340e-02, 2.12127883e-02, 1.26695959e-02, 9.32357758e-02,
          2.93159395e-01, 1.61623880e-01, 5.23356460e-02, 5.50083853e-02,
          2.93159395e-01, 1.56735167e-01, 6.40547723e-02, 1.03530690e-01,
          7.47570693e-02, 7.59016722e-02, 2.67013572e-02, 1.72730610e-02,
          1.37899846e-01, 3.03404573e-02, 1.28987702e-02, 5.96472174e-02,
          1.61699459e-01, 1.63219139e-01, 7.51638971e-03, 2.66129300e-02,
          2.26244077e-01, 2.93159395e-01, 2.51259834e-01, 5.16876951e-02,
          1.00773357e-01, 7.25005120e-02, 2.93159395e-01, 1.80762932e-01,
          1.39576957e-01, 4.70613204e-02, 5.50368568e-04, 1.08349837e-01,
          5.44046499e-02, 7.34291300e-02, 5.07868454e-02, 3.81893739e-02,
          3.01536210e-02, 6.06770702e-02, 1.79533176e-02, 1.09777369e-01,
          2.31872320e-01, 2.50416458e-01, 1.03597276e-01, 0.,
          2.83949450e-02, 5.50827421e-02, 2.93159395e-01, 3.64668183e-02,
          0., 1.22741805e-02, 5.32711344e-03, 1.23973705e-01,
          6.07813289e-03, 2.27171332e-02, 2.34112255e-02, 4.33427887e-03,
          7.87222851e-03, 3.23783644e-02, 4.20698188e-02, 5.46891987e-02,
          4.55853529e-02, 8.72540101e-02, 1.76622495e-01, 1.09583110e-01,
          2.49416213e-02, 3.97778079e-02, 1.18328929e-01, 8.05854574e-02,
          1.78947896e-02, 1.16038707e-03, 7.37350434e-02, 1.66528165e-01,
          3.95396873e-02, 1.36567295e-01, 7.82738701e-02, 2.82485932e-02,
          5.14796656e-03, 4.39750217e-02, 1.36497959e-01, 1.85218707e-01,
          1.19586520e-01, 5.80778606e-02, 1.33521631e-01, 2.54456222e-01,
          2.54456222e-01, 7.12291226e-02, 3.96444798e-02, 2.67477296e-02,
          1.03193030e-01, 2.54456222e-01, 2.29979396e-01, 7.22423568e-02,
          7.34374896e-02, 2.07019314e-01, 9.71319620e-03, 2.38723122e-02,
          1.68516282e-02, 2.16853525e-02, 9.08776224e-02, 4.68304530e-02,
          2.23846689e-01, 1.40618235e-01, 2.96171382e-03, 2.28505880e-01,
          2.54456222e-01, 1.82977930e-01, 4.80100699e-02, 6.04299307e-02,
          2.07162261e-01, 1.62297711e-01, 1.20278910e-01, 1.40021406e-02,
          3.46541889e-02, 8.36839601e-02, 0., 9.16906632e-03,
          9.19090491e-03, 9.50654596e-03, 2.78946552e-02, 5.74161671e-03,
          1.94054052e-01, 6.96090013e-02, 1.30544668e-02, 1.53432757e-01,
          4.50837351e-02, 1.70249298e-01, 4.98899221e-02, 3.05231884e-02,
          1.06910616e-01, 9.28629469e-03, 3.83958630e-02, 1.52277965e-02,
          4.89283614e-02, 2.08447818e-02, 1.91073446e-03, 1.63090546e-02,
          3.96898389e-02, 5.09836487e-02, 5.05839242e-03, 3.28011287e-04,
          8.10543075e-02, 2.23433092e-01, 7.03468472e-02, 5.64740226e-03,
          0., 1.82485413e-02, 2.22711280e-01, 4.09880318e-02,
          1.62702464e-02, 7.21214525e-03, 2.04110649e-04, 5.11422791e-02,
          2.42335275e-02, 8.38064179e-02, 1.33459404e-01, 4.58078496e-02,
          1.15302820e-02, 6.12337925e-02, 8.65615010e-02, 2.45239928e-01,
          2.44224310e-01, 1.71679422e-01, 1.58277899e-01, 2.21247636e-02,
          7.67026395e-02, 1.22787260e-01, 2.45239928e-01, 2.39345003e-02,
          0., 2.80566271e-02, 2.90623326e-02, 1.35996580e-01,
          1.98181299e-03, 5.57906106e-02, 9.98224691e-02, 4.00372297e-02,
          3.47206113e-03, 1.66127786e-01, 2.45239928e-01, 2.28514671e-01,
          1.07068680e-01, 5.45157678e-02, 2.05024511e-01, 9.52600315e-02,
          2.45239928e-01, 2.45239928e-01, 2.35198885e-01, 9.89386905e-03,
          0., 1.25939712e-01, 1.12634882e-01, 5.55329844e-02,
          5.30923437e-03, 5.10099381e-02, 9.66619607e-03, 1.34225478e-02,
          3.47962813e-03, 4.73548993e-02, 8.60830173e-02, 1.16806895e-01,
          8.19396898e-02, 3.18062156e-02, 7.36524239e-02, 3.35393213e-02,
          2.45239928e-01, 1.02990784e-01, 6.91282824e-02, 1.78831518e-02,
          0., 8.27049837e-02, 8.34885240e-02, 3.23999301e-02 ]
      - [ 1.57758072e-02, 5.64940693e-03, 3.58395209e-03, 7.88366655e-04,
          7.07587460e-03, 1.13644592e-01, 9.06945243e-02, 5.27009042e-03,
          5.87742636e-03, 2.25740299e-02, 4.24886569e-02, 6.13502599e-02,
          2.19727475e-02, 3.83740477e-02, 4.13665315e-03, 0., 0.,
          1.98096260e-02, 7.57035017e-02, 1.00490283e-02, 4.84985858e-02,
          1.60707813e-02, 7.54078105e-02, 2.38784719e-02, 9.58644785e-03,
          1.83942899e-01, 2.30229661e-01, 2.30229661e-01, 5.60056865e-02,
          3.08675822e-02, 6.78274632e-02, 1.39389232e-01, 2.30229661e-01,
          2.30229661e-01, 5.71169071e-02, 6.34357985e-03, 7.91936275e-03,
          1.64176509e-01, 1.74530104e-01, 2.49067936e-02, 1.13785006e-01,
          3.40276049e-04, 7.89192021e-02, 2.64396314e-02, 3.14648561e-02,
          2.30229661e-01, 2.05679476e-01, 2.30229661e-01, 2.03800462e-02,
          1.08529478e-01, 2.30229661e-01, 1.73459485e-01, 1.99235693e-01,
          1.66961908e-01, 2.30229661e-01, 2.49578226e-02, 5.30552529e-02,
          1.12173237e-01, 1.78395793e-01, 1.30618140e-01, 3.71853635e-02,
          4.15821356e-04, 3.38919647e-02, 6.26159320e-03, 9.79250297e-03,
          1.17703646e-01, 1.04428411e-01, 1.40699759e-01, 5.56590874e-03,
          1.89220160e-02, 8.07591975e-02, 1.27034992e-01, 1.73065156e-01,
          1.10064492e-01, 1.33550659e-01, 8.18593428e-03, 3.60123776e-02,
          1.31770866e-02, 1.75978705e-01, 7.00675398e-02, 2.26140697e-03,
          8.74894392e-03, 1.81879960e-02, 2.33969763e-02, 1.48873939e-03,
          2.30093673e-03, 0., 2.75198817e-02, 2.46495828e-01,
          4.60938290e-02, 1.17994891e-02, 2.65878458e-02, 2.25946940e-02,
          8.13533962e-02, 3.01231761e-02, 2.43901950e-03, 3.74383777e-02,
          1.71008650e-02, 0., 1.35672709e-03, 1.13231055e-02,
          7.88761489e-03, 1.39293209e-01, 1.15335993e-01, 3.06895114e-02,
          8.26355219e-02, 3.54556665e-02, 2.46495828e-01, 2.46495828e-01,
          7.22831860e-02, 2.46495828e-01, 3.38045396e-02, 3.07278857e-02,
          2.46495828e-01, 9.11279097e-02, 1.69182029e-02, 5.32467775e-02,
          5.60813919e-02, 5.96678816e-02, 5.58937527e-03, 6.96058497e-02,
          2.63903402e-02, 8.78756195e-02, 1.34680241e-01, 1.80130810e-01,
          1.11388631e-01, 2.38063514e-01, 1.84752464e-01, 2.46495828e-01,
          1.54951870e-01, 2.38601834e-01, 1.05792791e-01, 3.55942771e-02,
          2.46495828e-01, 1.41779974e-01, 7.21520782e-02, 7.50706717e-02,
          2.22090930e-02, 1.22787416e-01, 2.51880512e-02, 1.24237360e-02,
          2.32310798e-02, 5.18033653e-02, 1.21070728e-01, 8.88640657e-02,
          5.25749512e-02, 1.65100902e-01, 7.98409805e-03, 2.46495828e-01,
          7.49938935e-02, 7.69305304e-02, 7.67582580e-02, 0.,
          1.81091011e-01, 8.58918875e-02, 5.15325107e-02, 3.42106819e-02,
          1.03661707e-02, 6.03636652e-02, 2.84708217e-02, 5.57734407e-02,
          2.05091303e-04, 2.21357979e-02, 4.16323170e-03, 1.22273220e-02,
          1.73967019e-01, 5.00531718e-02, 8.17348659e-02, 1.38774386e-03,
          4.00219820e-02, 1.32599503e-01, 5.35765961e-02, 7.21397847e-02,
          6.95279092e-02, 1.49463385e-01, 7.96748139e-03, 2.51638163e-02,
          1.55439163e-02, 9.67974663e-02, 7.17693865e-02, 3.26402262e-02,
          6.15273952e-04, 7.82333240e-02, 2.51849480e-02, 2.00354159e-02,
          1.20837957e-01, 2.58056432e-01, 2.58056432e-01, 2.64249519e-02,
          3.46707888e-02, 5.84178045e-02, 2.58056432e-01, 2.58056432e-01,
          2.58056432e-01, 1.51821733e-01, 2.35481914e-02, 9.94463265e-02,
          8.20963457e-02, 2.58056432e-01, 1.00019544e-01, 4.04248051e-02,
          3.19362944e-03, 1.76604129e-02, 8.39498267e-03, 4.46281061e-02,
          1.57760188e-01, 6.24035522e-02, 1.01248167e-01, 1.08923785e-01,
          1.17733404e-01, 7.07088485e-02, 1.19132757e-01, 2.58056432e-01,
          2.16097072e-01, 7.10233673e-02, 4.37540561e-02, 1.31273448e-01,
          1.04955770e-01, 1.40555158e-01, 1.48568645e-01, 3.32011841e-02,
          3.84925529e-02, 8.55180994e-03, 6.20851759e-04, 3.30967866e-02,
          8.31970945e-02, 3.09999567e-02, 3.94600742e-02, 1.68418050e-01,
          1.26214609e-01, 1.65425807e-01, 8.10850784e-02, 1.69510674e-02,
          8.79552662e-02, 7.54353777e-02, 4.79469374e-02, 4.01949175e-02,
          0., 5.54100908e-02, 1.26305997e-01, 2.05148812e-02,
          7.13082217e-03, 1.65731777e-02, 5.43250553e-02, 7.34447315e-02,
          3.23990211e-02, 8.69601667e-02, 1.96243022e-02, 1.11056015e-01,
          5.99010363e-02, 5.91055527e-02, 4.00149524e-02, 5.00746071e-03,
          1.16905570e-01, 4.50266898e-02, 2.24721264e-02, 2.82707773e-02,
          5.58830146e-03, 3.89685221e-02, 1.11420341e-02, 5.18384809e-03,
          5.93008548e-02, 1.56488419e-01, 2.12256476e-01, 8.28836858e-02,
          1.00294821e-01, 2.57561833e-01, 3.81296724e-02, 2.57561833e-01,
          9.31960344e-02, 1.25759035e-01, 1.92072526e-01, 0.,
          2.57561833e-01, 1.91858947e-01, 1.22915171e-01, 3.02117001e-02,
          2.51113810e-02, 8.70955959e-02, 7.64849782e-02, 2.14596279e-02,
          1.96495522e-02, 1.63701087e-01, 9.50098932e-02, 6.42089695e-02,
          1.26479268e-01, 2.57561833e-01, 5.13525456e-02, 1.60398617e-01,
          1.87230110e-01, 1.15144022e-01, 2.57561833e-01, 4.01659682e-02,
          2.54090399e-01, 1.28549755e-01, 7.12828413e-02, 1.55625853e-03,
          9.98330340e-02, 1.13661900e-01, 8.24709311e-02, 6.35978803e-02,
          2.16572657e-02, 9.12640418e-04, 2.44915951e-02, 5.76176718e-02,
          4.52651978e-02, 1.49340212e-01, 7.81740248e-03, 7.91472420e-02,
          1.61509529e-01, 2.13959962e-02, 1.57123998e-01, 4.98622917e-02,
          1.78744316e-01, 3.59579958e-02, 2.50825491e-02, 2.46564317e-02,
          6.68054223e-02, 6.76208138e-02, 2.98674405e-02 ]
      - [ 4.75644134e-02, 3.30206077e-03, 2.81600922e-04, 8.51882249e-03,
          5.44593297e-02, 4.86077033e-02, 8.29018746e-03, 1.52185571e-03,
          3.47474292e-02, 6.23413622e-02, 2.23382544e-02, 1.28182992e-02,
          1.95987872e-03, 8.59528687e-03, 4.03959826e-02, 6.14990015e-03,
          8.21430236e-03, 3.01628752e-04, 5.88496262e-03, 4.80135344e-03,
          5.06234951e-02, 0., 8.74797180e-02, 9.50443521e-02,
          9.02148932e-02, 2.83021815e-02, 0., 7.44362399e-02,
          2.66957849e-01, 1.36334240e-01, 3.72963101e-02, 8.89200438e-03,
          8.45138207e-02, 3.91101949e-02, 3.37614417e-02, 1.39753083e-02,
          3.41435196e-03, 1.43905217e-02, 3.08229588e-02, 3.23035941e-02,
          5.54109588e-02, 3.33018564e-02, 1.52047440e-01, 6.98692948e-02,
          7.91565180e-02, 2.19964966e-01, 2.53817812e-02, 1.72020704e-01,
          1.89790562e-01, 2.66957849e-01, 2.66957849e-01, 2.32509822e-02,
          2.35902563e-01, 3.58706750e-02, 2.66957849e-01, 2.15190992e-01,
          7.75032770e-03, 4.31241915e-02, 5.50392717e-02, 9.50739831e-02,
          8.66466388e-02, 1.03137687e-01, 3.68599817e-02, 3.17712463e-02,
          4.95364964e-02, 1.80331126e-01, 8.67285058e-02, 1.99685290e-01,
          1.28759325e-01, 2.66957849e-01, 2.20014364e-01, 2.66037602e-03,
          1.70353130e-01, 5.95477559e-02, 2.65295655e-01, 8.46964344e-02,
          6.17115153e-03, 7.03200102e-02, 3.71743441e-02, 6.63259253e-02,
          4.12412966e-03, 3.48776090e-03, 1.57340226e-04, 7.89458049e-04,
          5.29471971e-03, 2.50224979e-03, 4.82793618e-03, 1.29481300e-03,
          1.41120804e-02, 2.10686913e-03, 1.00169651e-04, 3.27337021e-03,
          2.95325536e-02, 7.93109238e-02, 2.15616636e-02, 2.61567556e-03,
          9.82011016e-03, 9.74702537e-02, 2.14874055e-02, 9.12350230e-03,
          9.08330083e-03, 2.40316684e-03, 1.12235313e-02, 3.42698023e-03,
          7.14319060e-03, 5.64436428e-03, 1.12144835e-03, 2.76534073e-02,
          8.74917209e-02, 5.38941585e-02, 1.81608798e-03, 4.83475253e-03,
          2.24859655e-01, 2.92103916e-01, 1.75100222e-01, 6.21998636e-03,
          1.45042548e-02, 2.92103916e-01, 1.30243078e-01, 1.87526986e-01,
          9.25168395e-02, 6.08525705e-03, 3.22545394e-02, 4.39380109e-03,
          3.62219848e-02, 2.33287156e-01, 2.02841917e-03, 3.32171246e-02,
          1.59823462e-01, 1.72059402e-01, 2.92103916e-01, 0.,
          6.42213896e-02, 2.92103916e-01, 2.92103916e-01, 1.15285620e-01,
          0., 1.10300258e-01, 1.14087112e-01, 2.92103916e-01,
          4.55223992e-02, 2.56145198e-04, 3.29075418e-02, 1.01097338e-02,
          3.62190157e-02, 9.61598232e-02, 1.19341863e-02, 5.78043759e-02,
          2.82713547e-02, 6.98660016e-02, 1.48315981e-01, 1.62236877e-02,
          2.77711581e-02, 4.93599996e-02, 2.14131355e-01, 5.29964119e-02,
          4.08187555e-03, 5.63245639e-03, 9.58819687e-02, 2.26267248e-01,
          3.63322943e-02, 3.41650434e-02, 2.23790444e-02, 1.26802251e-02,
          3.06571815e-02, 1.08892098e-01, 2.60396805e-02, 2.39156708e-02,
          4.74515893e-02, 2.37922981e-01, 1.71735480e-01, 3.22824088e-03,
          3.27534676e-02, 1.55216763e-02, 1.45404518e-01, 8.33187327e-02,
          1.07608025e-03, 6.30540960e-03, 1.24949301e-02, 3.89025845e-02,
          9.00955796e-02, 1.11508690e-01, 1.17002167e-01, 8.47250745e-02,
          6.35279119e-02, 1.46253079e-01, 1.07632719e-01, 2.77165562e-01,
          1.96323767e-01, 2.37945288e-01, 1.47913828e-01, 7.41909770e-03,
          2.77165562e-01, 1.09815784e-01, 2.27509275e-01, 6.54401109e-02,
          5.23442775e-02, 2.03788698e-01, 7.41758421e-02, 5.75957373e-02,
          5.70856826e-03, 3.12689855e-03, 1.33892164e-01, 7.60079399e-02,
          3.55560817e-02, 2.22804630e-03, 9.87868663e-03, 2.77165562e-01,
          9.29675922e-02, 2.97943130e-02, 2.89613698e-02, 4.19874489e-02,
          2.77165562e-01, 7.71698356e-02, 1.12252068e-02, 2.63411671e-01,
          1.84536219e-01, 9.39039066e-02, 2.10440010e-02, 2.79918648e-02,
          4.79350844e-03, 1.20179635e-03, 9.05650202e-03, 3.35671892e-03,
          3.15780961e-03, 6.77687721e-03, 4.00598801e-04, 2.88284337e-03,
          3.56914550e-02, 3.22992429e-02, 6.03870004e-02, 8.29242170e-02,
          8.30790866e-03, 2.35328469e-02, 2.98525095e-02, 1.56403974e-01,
          2.01618522e-01, 4.43382363e-04, 3.11865821e-03, 9.74480808e-03,
          3.10992692e-02, 6.94207032e-04, 3.67960194e-03, 1.38899009e-03,
          1.56367328e-02, 7.25974068e-02, 2.31402330e-04, 3.67609970e-03,
          2.12141145e-02, 4.14532460e-02, 9.61334631e-02, 0.,
          1.94735927e-04, 4.49062325e-02, 1.64058104e-01, 3.52351815e-02,
          0., 5.42353466e-03, 3.41983140e-02, 1.45763353e-01,
          2.41570752e-02, 5.86921058e-04, 8.23688954e-02, 1.88643690e-02,
          2.61720512e-02, 1.02710024e-01, 8.31727907e-02, 1.31499231e-01,
          4.25491519e-02, 6.44071326e-02, 1.79222852e-01, 5.57834096e-02,
          6.75096288e-02, 5.35941161e-02, 2.47434780e-01, 5.05214632e-02,
          9.35304910e-03, 2.75451690e-02, 1.16782300e-01, 2.19029859e-01,
          1.40388235e-02, 1.55287078e-02, 4.83010001e-02, 9.88264661e-03,
          9.92565299e-04, 2.47434780e-01, 2.47434780e-01, 6.94451705e-02,
          1.45410318e-02, 7.39804506e-02, 2.37578392e-01, 2.47434780e-01,
          1.54655650e-01, 1.54086635e-01, 2.47434780e-01, 4.40832525e-02,
          3.11768288e-03, 1.05320320e-01, 2.47434780e-01, 1.75294951e-01,
          2.41127461e-02, 3.35952193e-02, 7.56367750e-04, 1.70845748e-03,
          2.15138239e-03, 1.43915668e-01, 1.98456749e-01, 7.18383864e-03,
          1.90268811e-02, 4.82382886e-02, 2.96458788e-02, 1.07129842e-01,
          1.75682336e-01, 2.47434780e-01, 1.71895802e-01, 0., 0.,
          1.00750580e-01, 1.79476067e-01, 2.60144360e-02 ]
      - [ 5.03768818e-03, 0., 6.76934980e-03, 1.55257117e-02,
          1.21313790e-02, 9.32687987e-03, 2.82458641e-04, 8.13099556e-03,
          4.09073830e-02, 3.82007845e-02, 1.48498593e-02, 3.41962203e-02,
          2.94654146e-02, 1.35123357e-02, 1.96200330e-02, 1.37515934e-02,
          1.24361571e-02, 6.87928917e-03, 6.49720291e-03, 1.56600066e-02,
          3.61496024e-02, 2.14824602e-02, 3.02174594e-02, 5.56313060e-03,
          4.46359366e-02, 3.09711713e-02, 1.71044935e-02, 1.75909884e-02,
          2.01646283e-01, 2.54324645e-01, 9.33056250e-02, 1.45767465e-01,
          2.29960769e-01, 2.72907048e-01, 9.13223103e-02, 2.20697150e-01,
          2.34068334e-01, 1.07547440e-01, 1.60145108e-02, 4.54019010e-02,
          7.49925990e-03, 5.31267077e-02, 6.83592036e-02, 8.43660254e-03,
          7.95740634e-03, 4.32784185e-02, 4.75399271e-02, 1.50777981e-01,
          2.72907048e-01, 9.00232419e-02, 2.72907048e-01, 2.04162255e-01,
          9.16819721e-02, 2.72907048e-01, 8.25249553e-02, 2.72907048e-01,
          2.48609006e-01, 1.04703732e-01, 2.88385455e-03, 2.26553604e-02,
          0., 3.83758731e-03, 1.47324158e-02, 2.64625461e-03, 0.,
          3.60588767e-02, 2.57049152e-03, 4.40809615e-02, 4.58325781e-02,
          3.18640955e-02, 2.32292354e-01, 1.44991413e-01, 7.87255447e-03,
          2.35120021e-02, 4.63299155e-02, 1.75390899e-01, 9.33296457e-02,
          8.58804956e-03, 9.01027024e-03, 2.54286546e-02, 3.58056184e-03,
          1.17117846e-02, 6.05040463e-03, 1.87487586e-03, 1.51250092e-03,
          4.32930551e-02, 1.00576049e-02, 1.10100945e-02, 7.57346349e-03,
          3.98820750e-02, 8.91841128e-02, 1.14733279e-02, 1.53804766e-02,
          1.12142060e-02, 4.48525138e-02, 1.30585218e-02, 6.50882837e-04,
          8.32218328e-04, 2.64763981e-02, 1.79831870e-02, 5.67540601e-02,
          8.37992653e-02, 7.86605328e-02, 3.87557559e-02, 5.17631182e-03,
          2.49940470e-01, 2.49940470e-01, 1.13185458e-01, 4.56321985e-02,
          1.92004472e-01, 2.21375674e-01, 6.66796938e-02, 7.52871409e-02,
          2.49940470e-01, 2.49940470e-01, 1.46808233e-02, 1.95264863e-03,
          1.06690908e-02, 1.97902992e-01, 2.08412986e-02, 2.07312495e-01,
          1.05466932e-01, 2.38290839e-02, 5.95689043e-02, 9.83804278e-03,
          2.49940470e-01, 2.49940470e-01, 2.42279708e-01, 4.76177409e-02,
          9.03405845e-02, 2.48951558e-02, 3.36741768e-02, 2.07636833e-01,
          2.49940470e-01, 1.32184774e-01, 7.44369160e-03, 3.28481360e-03,
          2.37115789e-02, 1.94513127e-01, 1.83539856e-02, 8.66217315e-02,
          6.05366044e-02, 1.41568889e-04, 1.56681496e-03, 6.19577942e-03,
          1.76147565e-01, 6.27387762e-02, 2.27383710e-02, 8.73606801e-02,
          8.91238302e-02, 2.01604497e-02, 5.49237058e-03, 3.39367092e-02,
          2.49940470e-01, 1.33838221e-01, 8.05913098e-03, 1.64771117e-02,
          1.22513426e-02, 4.86558974e-02, 1.30884033e-02, 0.,
          1.41679375e-02, 3.07426527e-02, 5.12432400e-03, 0.,
          3.56393084e-02, 1.18063008e-02, 8.22501555e-02, 1.65017158e-01,
          2.51161028e-02, 2.95320004e-01, 7.85206407e-02, 1.28041580e-02,
          1.37860805e-01, 4.84711528e-02, 1.85736462e-01, 6.74126372e-02,
          1.94826610e-02, 0., 2.20589526e-02, 0., 1.08775878e-02,
          1.83537621e-02, 1.79526967e-03, 6.10873161e-04, 5.13292924e-02,
          1.13878530e-02, 5.05713113e-02, 6.76980317e-02, 5.38897738e-02,
          2.95320004e-01, 2.95320004e-01, 5.47725260e-02, 7.26663694e-02,
          6.81480318e-02, 2.95320004e-01, 2.95320004e-01, 2.09481627e-01,
          6.57067448e-02, 3.87197435e-02, 2.00398543e-04, 1.65547766e-02,
          2.24024877e-02, 1.77242863e-03, 2.03301804e-03, 0.,
          1.58080272e-02, 5.95115051e-02, 7.27504194e-02, 5.49785886e-03,
          1.10532917e-01, 2.95320004e-01, 2.25295857e-01, 1.62080452e-01,
          2.77613697e-04, 6.36657774e-02, 1.91316053e-01, 2.95320004e-01,
          1.46091282e-01, 8.32841266e-04, 6.01195614e-04, 4.09051077e-03,
          8.04444402e-03, 6.19343668e-03, 1.15473161e-03, 0.,
          4.21731826e-03, 4.01759222e-02, 2.66392808e-02, 2.98775546e-03,
          0., 0., 3.87399048e-02, 1.52885899e-01, 1.27074132e-02,
          1.73688855e-03, 1.94617361e-02, 9.15006995e-02, 9.13615078e-02,
          1.03548570e-02, 8.33513811e-02, 2.62436476e-02, 0.,
          9.31355171e-03, 4.98807477e-03, 1.19751312e-01, 4.25943956e-02,
          4.09180373e-02, 2.12848242e-02, 5.15621603e-02, 1.16295367e-02,
          5.50127588e-03, 5.39784282e-02, 1.71291545e-01, 5.41861653e-02,
          4.69048601e-03, 4.23705066e-03, 1.04744015e-02, 4.72199656e-02,
          7.35978549e-03, 1.12023138e-01, 1.74377441e-01, 2.90110614e-02,
          5.49370190e-03, 6.49848627e-03, 2.49192074e-01, 1.86159760e-01,
          2.78106630e-01, 2.85476476e-01, 1.04093358e-01, 2.39129923e-02,
          1.19773792e-02, 1.57614693e-01, 3.11653197e-01, 2.41509184e-01,
          1.06800729e-02, 3.59321386e-02, 2.00885255e-02, 8.88470337e-02,
          3.85368131e-02, 3.26933712e-02, 9.25920084e-02, 1.35678560e-01,
          3.40601280e-02, 1.93024156e-04, 3.01268864e-02, 1.22813545e-01,
          3.11653197e-01, 2.44851053e-01, 5.79072512e-04, 2.63415859e-03,
          4.93885204e-02, 3.11653197e-01, 2.96388924e-01, 8.78132805e-02,
          8.63596273e-04, 8.42176937e-03, 1.91405993e-02, 5.32576479e-02,
          3.64360176e-02, 0., 0., 1.69686414e-02, 4.18145619e-02,
          3.93483276e-03, 7.50320451e-03, 5.85100725e-02, 9.66553837e-02,
          4.88703996e-02, 6.12373417e-03, 1.57999489e-02, 8.35752785e-02,
          2.91562360e-02, 1.12241544e-02, 2.78465287e-03, 6.81441743e-04,
          2.04432523e-03, 1.54992507e-03, 1.77460238e-02, 7.38129299e-03 ]
      - [ 9.65120387e-04, 1.42318674e-03, 4.82763257e-03, 7.80311937e-04,
          7.05640821e-04, 8.64230562e-03, 3.85823194e-03, 1.60921074e-03,
          2.34532990e-02, 5.34595316e-03, 3.03131957e-02, 3.38997389e-03,
          0., 2.65733004e-02, 1.16473744e-02, 1.64922867e-02,
          1.06110126e-02, 8.55899230e-03, 2.03308165e-02, 3.74678732e-03,
          8.42359848e-03, 1.34138875e-02, 1.47661837e-02, 5.94244525e-03,
          6.01075869e-03, 4.82217111e-02, 4.81524169e-02, 8.79993960e-02,
          2.94981170e-02, 1.85776185e-02, 1.50698200e-01, 4.23793634e-03,
          2.32839249e-02, 5.79159558e-02, 1.23032041e-01, 5.15831746e-02,
          1.73973583e-03, 1.29408352e-02, 6.38309270e-02, 7.40784854e-02,
          8.13756324e-03, 4.01310110e-03, 1.48787610e-02, 5.55674732e-02,
          3.54609154e-02, 2.48594329e-01, 2.66260982e-01, 1.52401850e-01,
          1.09391540e-01, 5.10202013e-02, 2.66260982e-01, 2.47319818e-01,
          6.22862913e-02, 8.43756199e-02, 2.66260982e-01, 1.20166793e-01,
          0., 5.10137044e-02, 2.66260982e-01, 2.66260982e-01,
          1.71316986e-03, 0., 0., 2.37737838e-02, 3.04365214e-02,
          1.66883454e-01, 2.63139457e-01, 4.19485420e-02, 3.92962322e-02,
          7.91647434e-02, 1.63148373e-01, 2.66260982e-01, 2.07389966e-01,
          2.02855989e-01, 6.21058382e-02, 8.26781522e-03, 0.,
          1.01325020e-01, 2.66260982e-01, 5.32937571e-02, 1.51593350e-02,
          2.36230437e-03, 0., 1.23473695e-02, 4.49598208e-03,
          2.14632619e-02, 3.83247994e-02, 4.40488160e-02, 5.28521016e-02,
          4.73522395e-03, 3.13958190e-02, 4.30995412e-02, 4.19726297e-02,
          6.71636388e-02, 2.62258318e-03, 3.27595584e-02, 1.75031926e-02,
          3.07514012e-04, 9.44532640e-03, 3.93654406e-03, 4.94063310e-02,
          2.42623471e-04, 0., 3.66367474e-02, 6.61272407e-02,
          1.31384984e-01, 2.54901089e-02, 7.27862343e-02, 1.40752122e-01,
          1.12235583e-01, 1.67870283e-01, 1.40973225e-01, 1.74471796e-01,
          7.55470991e-02, 3.75897847e-02, 4.65516970e-02, 6.31885305e-02,
          8.22883621e-02, 4.58515901e-03, 9.30493348e-04, 2.09584847e-01,
          2.84387972e-02, 1.57021228e-02, 8.31328928e-02, 2.37750322e-01,
          1.52258128e-01, 8.32920987e-03, 2.21517935e-01, 2.89253086e-01,
          2.89253086e-01, 4.63287197e-02, 1.75093248e-01, 2.89253086e-01,
          2.69866288e-01, 1.79381203e-02, 5.17729782e-02, 1.49489716e-01,
          1.13708735e-01, 7.74534233e-03, 5.67667745e-03, 3.17068733e-02,
          5.75669594e-02, 9.38992873e-02, 1.74438700e-01, 3.87358963e-02,
          4.42069955e-03, 9.10369679e-03, 1.49118051e-01, 2.89253086e-01,
          8.44993219e-02, 2.04603318e-02, 2.17989057e-01, 5.95185347e-02,
          1.01446800e-01, 1.10630272e-02, 5.89303412e-02, 1.32844374e-01,
          9.43335705e-03, 0., 2.71226303e-03, 1.37855962e-03, 0.,
          2.48312741e-03, 2.35365443e-02, 1.87689271e-02, 1.15191072e-01,
          1.95749670e-01, 3.05069461e-02, 4.12371829e-02, 3.02411560e-02,
          2.34792069e-01, 1.78131416e-01, 4.01975624e-02, 6.92947581e-02,
          1.05168700e-01, 2.62351744e-02, 0., 3.41324322e-02,
          1.72638744e-01, 8.76269266e-02, 4.24746703e-03, 0.,
          4.34252527e-03, 2.57665794e-02, 4.09335569e-02, 2.19973579e-01,
          2.77796566e-01, 1.22175790e-01, 3.92713659e-02, 1.43332481e-01,
          1.20262131e-01, 2.77796566e-01, 2.77796566e-01, 2.77796566e-01,
          6.43515736e-02, 3.75074474e-03, 0., 2.07297087e-01,
          2.77796566e-01, 9.32692885e-02, 2.47975020e-03, 8.37213302e-04,
          2.43159104e-02, 4.37312163e-02, 2.33051050e-02, 3.11282836e-02,
          2.85966787e-02, 1.12104438e-01, 6.50148988e-02, 6.07551746e-02,
          3.92512754e-02, 8.75896513e-02, 2.77796566e-01, 2.05223992e-01,
          7.71196634e-02, 3.67541425e-02, 1.98993888e-02, 9.73726213e-02,
          1.28464729e-01, 2.30954781e-01, 3.81356105e-03, 4.71121073e-03,
          2.04501767e-02, 1.10695790e-02, 5.13623329e-03, 1.59714706e-02,
          4.15141508e-03, 1.62536129e-02, 2.97005083e-02, 2.21678354e-02,
          3.94985527e-02, 2.23996118e-02, 7.21269939e-03, 3.99515033e-02,
          5.69958948e-02, 1.60859730e-02, 6.63312897e-03, 1.06919631e-02,
          4.29562628e-02, 3.16614881e-02, 5.13856821e-02, 2.06180960e-02,
          1.59825850e-02, 5.40237650e-02, 5.85711449e-02, 2.00151242e-02,
          4.22496209e-03, 7.22470805e-02, 2.77950495e-01, 9.36431810e-02,
          8.58558714e-03, 8.24494734e-02, 9.03332010e-02, 8.69199634e-02,
          4.13321285e-03, 2.63285413e-02, 5.47154620e-02, 1.39913391e-02,
          1.06694060e-03, 2.32349103e-03, 1.18726464e-02, 6.76583052e-02,
          2.08869755e-01, 2.60656506e-01, 3.27024460e-02, 1.65533193e-03,
          1.08971437e-02, 1.99592844e-01, 2.77950495e-01, 1.70641780e-01,
          6.95006177e-02, 2.77950495e-01, 4.21568118e-02, 7.70635083e-02,
          4.40610163e-02, 1.03803277e-01, 2.24098042e-01, 2.71155071e-02,
          0., 1.60918152e-03, 2.02405341e-02, 2.71394718e-02,
          1.38776004e-01, 8.77325013e-02, 5.86666800e-02, 4.79219109e-02,
          1.56364851e-02, 5.75240478e-02, 1.67901739e-01, 2.77950495e-01,
          2.77950495e-01, 2.05495238e-01, 8.45769513e-03, 3.01760305e-02,
          2.56048143e-01, 1.88723415e-01, 1.78951576e-01, 2.38495152e-02,
          0., 1.01927696e-02, 1.46785425e-02, 8.22256878e-03,
          3.77593236e-03, 1.43127404e-02, 2.01898236e-02, 2.24110689e-02,
          1.33196823e-02, 1.54026104e-02, 9.33393687e-02, 7.61600733e-02,
          1.61108643e-01, 6.43863007e-02, 7.39489216e-03, 2.45995019e-02,
          6.13069311e-02, 5.08497059e-02, 3.36535349e-02, 1.99878998e-02,
          4.92985453e-03, 6.71796221e-03 ]
      - [ 4.06884886e-02, 1.09980442e-01, 1.40312221e-03, 0.,
          2.18448113e-03, 4.78012003e-02, 1.43252179e-01, 3.05383056e-02,
          3.39820515e-03, 8.68346449e-03, 5.98710263e-03, 2.06738859e-02,
          9.53974053e-02, 7.24112391e-02, 1.41912922e-02, 3.88661609e-03,
          0., 1.26082881e-03, 3.38757373e-02, 1.11953234e-02,
          1.39757529e-01, 2.53730178e-01, 1.04396348e-03, 0.,
          1.64700542e-02, 1.81669742e-01, 2.53730178e-01, 3.25634852e-02,
          3.97206508e-02, 1.47564322e-01, 4.51981537e-02, 6.88284822e-03,
          1.46333724e-01, 1.17278427e-01, 8.21768790e-02, 2.43423209e-02,
          4.56693582e-03, 5.26529290e-02, 2.23118234e-02, 1.97384506e-02,
          2.43559271e-01, 2.09060192e-01, 9.35693085e-03, 0.,
          3.82981240e-03, 2.20366240e-01, 2.53730178e-01, 0.,
          1.15739904e-01, 1.51502654e-01, 1.11798972e-01, 2.85104793e-02,
          1.11887440e-01, 2.39940405e-01, 2.53730178e-01, 3.82687114e-02,
          2.85193627e-03, 1.46611318e-01, 4.81482036e-02, 1.75916180e-01,
          1.02106854e-01, 1.02998152e-01, 2.54272087e-03, 0.,
          9.52371024e-03, 1.10232376e-01, 1.81465089e-01, 6.55613169e-02,
          3.32447141e-02, 4.84578200e-02, 6.97640553e-02, 7.77428374e-02,
          1.76812515e-01, 4.49617803e-02, 2.53730178e-01, 1.51421335e-02,
          4.48543299e-03, 4.22383472e-02, 5.16720191e-02, 2.13646278e-01,
          9.10972827e-04, 1.52085477e-03, 1.57246850e-02, 3.16669941e-02,
          5.62424492e-03, 1.00342082e-02, 0., 5.28898148e-04,
          3.31655927e-02, 2.59845909e-02, 1.29848644e-01, 2.98923310e-02,
          5.12976851e-03, 2.90050339e-02, 3.75180058e-02, 1.03614777e-01,
          2.17553340e-02, 2.74688769e-02, 3.26183252e-03, 2.34904531e-02,
          1.23999659e-02, 2.51402846e-03, 4.17311564e-02, 2.43187547e-02,
          1.09863039e-02, 3.67591307e-02, 7.18106106e-02, 8.94961432e-02,
          4.74007428e-02, 4.10904661e-02, 2.61455029e-01, 2.40063280e-01,
          1.65484354e-01, 5.27399369e-02, 6.87946752e-02, 1.87116146e-01,
          1.92758199e-02, 1.67611375e-01, 7.57203773e-02, 6.43917918e-02,
          3.89589332e-02, 4.53239307e-03, 6.56865239e-02, 4.53140624e-02,
          1.64401203e-01, 4.83612046e-02, 8.35689977e-02, 2.61455029e-01,
          9.00708437e-02, 2.20043153e-01, 2.02090397e-01, 2.61455029e-01,
          2.61455029e-01, 2.91992519e-02, 9.29349214e-02, 1.96262881e-01,
          1.15955889e-01, 2.04812020e-01, 2.95604989e-02, 2.99126506e-02,
          1.66048240e-02, 9.64266993e-03, 5.23462556e-02, 2.49709003e-02,
          1.17085546e-01, 5.55535965e-02, 2.64744293e-02, 2.76298281e-02,
          5.54939769e-02, 2.61455029e-01, 2.61455029e-01, 1.65098384e-01,
          1.70140639e-02, 3.36207636e-02, 1.90222234e-01, 9.01691541e-02,
          3.26229297e-02, 9.13218260e-02, 9.90785658e-02, 2.19179988e-02,
          8.42540860e-02, 6.22459278e-02, 3.70771065e-03, 0.,
          6.39384554e-04, 7.55886063e-02, 1.19277395e-01, 0.,
          3.17634009e-02, 4.36743237e-02, 5.45403585e-02, 2.94868164e-02,
          1.84669401e-02, 5.46940342e-02, 2.52147198e-01, 1.56963263e-02,
          2.46885262e-04, 2.41980944e-02, 2.60926653e-02, 1.17066115e-01,
          1.38464093e-01, 2.29875863e-01, 2.19067046e-03, 0.,
          2.89789345e-02, 1.46076724e-01, 2.49419019e-01, 2.20492214e-01,
          1.02325715e-01, 9.92085338e-02, 8.23723152e-02, 1.16091296e-01,
          2.52147198e-01, 7.77586922e-02, 2.46004656e-01, 4.05020639e-02,
          4.87764142e-02, 1.43996596e-01, 6.33504763e-02, 2.52147198e-01,
          9.04172361e-02, 2.52147198e-01, 3.46513726e-02, 1.01680355e-03,
          1.41503820e-02, 4.60749790e-02, 1.16799392e-01, 2.05826372e-01,
          1.43190891e-01, 1.00345097e-01, 9.81883109e-02, 8.92913193e-02,
          2.27436051e-01, 5.48220426e-02, 1.06618658e-01, 1.18153080e-01,
          1.40344560e-01, 9.48917344e-02, 8.94515403e-03, 1.35430694e-01,
          2.03994382e-02, 1.22095846e-01, 3.29990424e-02, 3.05041042e-03,
          1.08534889e-03, 1.95060335e-02, 8.25766474e-02, 1.87271312e-01,
          2.02106535e-02, 3.99996666e-03, 7.01850504e-02, 1.30555689e-01,
          9.61563438e-02, 1.07620163e-02, 1.53191034e-02, 2.33572349e-02,
          6.58369064e-02, 4.93904985e-02, 2.21079644e-02, 6.65373132e-02,
          1.25885308e-02, 2.11649947e-03, 7.87479337e-03, 1.16771366e-02,
          6.56253174e-02, 1.63378716e-02, 1.26618631e-02, 3.16169262e-02,
          2.49282531e-02, 1.17132641e-01, 8.25607777e-02, 1.32163078e-01,
          4.93842401e-02, 3.73398652e-03, 5.51962666e-02, 4.97349761e-02,
          3.30219120e-02, 5.30266538e-02, 3.82712972e-03, 7.40126194e-03,
          1.74196791e-02, 1.88952591e-02, 1.26046836e-01, 2.28303596e-02,
          8.13593343e-02, 1.07355885e-01, 9.53473970e-02, 7.54739046e-02,
          4.83963564e-02, 2.55646408e-01, 2.55646408e-01, 1.64641917e-01,
          9.52923149e-02, 1.20992914e-01, 2.55646408e-01, 8.81147012e-02,
          1.41347069e-02, 9.85196382e-02, 2.54302710e-01, 2.98277549e-02,
          4.22381982e-02, 4.02841941e-02, 4.80372980e-02, 2.27152742e-03,
          3.58473025e-02, 1.14778012e-01, 1.77865893e-01, 1.58350453e-01,
          2.86152251e-02, 2.33885303e-01, 1.04290783e-01, 8.98120850e-02,
          2.55646408e-01, 2.55646408e-01, 2.55646408e-01, 1.26217023e-01,
          5.86400889e-02, 1.11144796e-01, 2.08876371e-01, 6.86432645e-02,
          1.84619427e-02, 3.62885594e-02, 1.80650502e-02, 1.75932015e-03,
          9.56938509e-03, 1.16429664e-02, 4.55011539e-02, 7.76524916e-02,
          9.86216366e-02, 1.07364438e-01, 6.12309910e-02, 7.05664530e-02,
          1.31904885e-01, 2.11167008e-01, 3.88792641e-02, 1.45185173e-01,
          6.10568859e-02, 4.38972786e-02, 1.27685172e-02, 1.17063690e-02 ]
      - [ 1.50646158e-02, 6.70048990e-04, 0., 6.22684415e-03,
          4.39554565e-02, 2.00095475e-02, 4.75606881e-03, 1.10022887e-03,
          3.80878849e-03, 6.01136722e-02, 3.15013994e-03, 3.85064562e-03,
          5.11837332e-03, 8.32368992e-03, 1.87651105e-02, 1.62485929e-04,
          4.87457757e-04, 1.33221620e-03, 1.17465565e-02, 2.75779096e-03,
          2.24213880e-02, 9.62587968e-02, 3.94572951e-02, 1.86805315e-02,
          1.01317018e-01, 5.67774959e-02, 7.28565007e-02, 2.75317393e-02,
          1.10676445e-01, 2.80342013e-01, 7.59725692e-04, 4.12585796e-04,
          3.98829356e-02, 1.66989535e-01, 1.93233639e-01, 4.12585796e-04,
          2.01838394e-03, 2.23264657e-02, 3.03086005e-02, 6.56702509e-03,
          4.81988210e-03, 1.78691328e-01, 7.88615420e-02, 2.22009094e-03,
          1.25864418e-02, 1.13413790e-02, 2.61864722e-01, 2.80342013e-01,
          2.53444076e-01, 2.80342013e-01, 6.80467635e-02, 7.02545792e-02,
          9.27945226e-02, 2.80342013e-01, 2.80342013e-01, 1.17665201e-01,
          2.47258488e-02, 8.63166805e-03, 3.99289280e-02, 2.22436115e-01,
          3.89783498e-04, 1.06262621e-02, 1.89478956e-02, 1.08719831e-02,
          1.47341704e-03, 1.29927837e-04, 4.32552733e-02, 2.36439615e-01,
          5.04166782e-02, 6.24678563e-03, 7.69432113e-02, 2.80342013e-01,
          8.96245316e-02, 5.07262573e-02, 8.68368447e-02, 8.83101225e-02,
          9.13339108e-02, 4.92351614e-02, 1.04797617e-01, 1.93404183e-01,
          6.75505784e-04, 1.74134341e-03, 2.94144312e-03, 1.05424840e-02,
          8.07368476e-03, 1.36557108e-04, 4.09671367e-04, 8.21105950e-03,
          3.60229425e-02, 6.05507893e-03, 1.56518351e-03, 1.08165538e-03,
          1.91925038e-02, 2.93910429e-02, 1.61629003e-02, 5.21727838e-04,
          3.24496627e-03, 4.37441235e-03, 7.37560494e-03, 4.57188627e-03,
          3.45871464e-04, 9.42556362e-04, 3.43459994e-02, 6.86788782e-02,
          3.09908371e-02, 9.42556362e-04, 7.67531246e-03, 5.71077801e-02,
          9.71626490e-02, 1.29622715e-02, 5.21727838e-04, 4.72165365e-03,
          9.83473361e-02, 9.45985392e-02, 1.97365284e-02, 1.73909284e-04,
          9.31731798e-03, 5.54729141e-02, 2.42400095e-02, 3.23201483e-03,
          1.08624466e-01, 5.39223216e-02, 9.07121785e-03, 1.31937280e-01,
          2.74614334e-01, 2.55745709e-01, 3.87172401e-02, 4.46683653e-02,
          2.36947834e-01, 3.13721925e-01, 1.81528144e-02, 5.76271676e-03,
          1.09954417e-01, 2.02529222e-01, 5.14903814e-02, 6.10211398e-03,
          2.74522090e-03, 8.02590251e-02, 2.30882894e-02, 2.26066876e-02,
          9.85986367e-02, 2.43721932e-01, 4.03780825e-02, 1.82965808e-02,
          1.41087398e-01, 2.09901586e-01, 7.67592266e-02, 1.17615223e-01,
          3.13721925e-01, 3.13721925e-01, 2.22354069e-01, 0.,
          2.10666507e-02, 2.22080797e-01, 3.13721925e-01, 4.11019325e-02,
          0., 1.59142409e-02, 2.75508575e-02, 6.64366558e-02,
          6.43252104e-04, 4.36553732e-02, 2.71103792e-02, 3.31972237e-03,
          4.00584366e-04, 2.14417349e-04, 8.74030888e-02, 2.44844392e-01,
          7.93560296e-02, 5.34229651e-02, 5.47219403e-02, 1.03451975e-01,
          6.03537485e-02, 1.32935613e-01, 1.44131914e-01, 8.12261999e-02,
          2.91438401e-02, 9.69100744e-04, 3.95081080e-02, 1.57577813e-01,
          2.14417349e-04, 7.01271556e-03, 3.04260142e-02, 2.89292149e-02,
          4.54094959e-03, 7.14724520e-05, 4.17126119e-02, 2.73694247e-01,
          9.38995183e-02, 2.39700135e-02, 1.19835235e-01, 3.02602500e-01,
          2.08504081e-01, 4.95153591e-02, 8.72573480e-02, 1.09092034e-01,
          2.45694622e-01, 3.02602500e-01, 2.43463844e-01, 2.64746606e-01,
          5.46552241e-03, 1.00958943e-02, 3.16425972e-02, 1.70910135e-02,
          8.22377112e-03, 0., 7.57961022e-03, 2.47076396e-02,
          9.44993272e-02, 5.63219003e-02, 2.77068727e-02, 3.02602500e-01,
          1.95196778e-01, 9.26981121e-02, 2.61936374e-02, 2.28153095e-02,
          1.34455100e-01, 3.02602500e-01, 5.86915240e-02, 1.93005186e-02,
          1.33102695e-02, 6.79702125e-03, 1.84576213e-02, 3.23191024e-02,
          2.08713766e-02, 3.27777653e-03, 1.78843159e-02, 2.14313567e-02,
          5.00288866e-02, 1.48936044e-02, 2.91423436e-04, 8.74270219e-04,
          3.38629745e-02, 7.91874230e-02, 1.47215826e-02, 3.20565770e-03,
          1.75493266e-02, 7.29208142e-02, 2.41983887e-02, 6.26394525e-03,
          1.74636561e-02, 1.67825781e-02, 1.77038426e-04, 8.48695170e-03,
          3.31882089e-02, 3.80241796e-02, 6.13160711e-03, 2.86552869e-03,
          5.42102158e-02, 8.45142230e-02, 5.71728544e-03, 2.13886975e-04,
          8.91403854e-03, 2.52918061e-02, 1.35076474e-02, 1.38678600e-03,
          0., 5.68116410e-03, 1.50217023e-03, 3.02225375e-03,
          2.99662519e-02, 1.40217364e-01, 5.42157926e-02, 6.67674653e-03,
          3.39393131e-02, 8.22759345e-02, 6.28123730e-02, 1.57604009e-01,
          2.62144685e-01, 2.14754179e-01, 2.22663477e-01, 5.33770323e-02,
          2.52664136e-03, 1.19319454e-01, 2.62144685e-01, 3.74108367e-02,
          0., 4.73802304e-03, 6.29717335e-02, 9.32012275e-02,
          5.07688848e-03, 5.70061393e-02, 9.16237757e-02, 9.54898447e-03,
          1.28231966e-03, 6.46846369e-02, 2.36998439e-01, 2.62144685e-01,
          5.96859045e-02, 2.91721001e-02, 2.30721802e-01, 2.62144685e-01,
          5.03981896e-02, 1.40395999e-01, 2.62144685e-01, 3.02580968e-02,
          0., 3.35645527e-02, 2.62144685e-01, 2.27405831e-01, 0., 0.,
          1.14303175e-02, 9.34592076e-03, 1.86357647e-03, 8.11599568e-03,
          1.35482818e-01, 4.69632484e-02, 1.23646352e-02, 3.41248256e-03,
          1.27739497e-02, 2.62144685e-01, 1.51194558e-01, 9.78936255e-02,
          4.42013964e-02, 0., 0., 6.56263903e-02, 2.16151819e-01,
          5.04534170e-02 ]
      - [ 7.61311734e-03, 2.41604298e-02, 5.55379898e-04, 3.50098882e-04,
          2.24335212e-03, 8.07020962e-02, 6.13414459e-02, 1.66613981e-03,
          7.59937102e-03, 5.02979904e-02, 3.26006114e-02, 2.82144360e-03,
          1.40307809e-03, 2.45274659e-02, 4.51156758e-02, 1.15260936e-03,
          7.82672505e-05, 4.83662123e-04, 9.28108487e-03, 5.32403681e-03,
          1.78158991e-02, 7.37589300e-02, 1.85126628e-04, 4.53373231e-03,
          9.27164499e-03, 1.50049046e-01, 2.88318604e-01, 1.87534884e-01,
          2.39859018e-02, 1.55842185e-01, 3.69616859e-02, 8.20730776e-02,
          8.79581124e-02, 1.48117110e-01, 2.88318604e-01, 3.42089357e-03,
          2.71340064e-03, 5.48336841e-03, 4.10252102e-02, 4.99617346e-02,
          6.04459783e-03, 1.33740967e-02, 6.97860960e-04, 8.99077021e-03,
          9.63646080e-03, 1.78247560e-02, 2.88318604e-01, 2.29123667e-01,
          8.23170412e-03, 3.85998785e-02, 8.08252320e-02, 2.88318604e-01,
          2.88318604e-01, 8.75848308e-02, 2.88318604e-01, 2.74207089e-02,
          1.83724798e-02, 2.54799444e-02, 1.00826822e-01, 2.59199202e-01,
          0., 0., 6.54225005e-04, 4.79155220e-03, 4.04443592e-03,
          1.60849257e-03, 1.13721579e-01, 1.86975319e-02, 1.27293523e-02,
          7.44212605e-03, 3.25301401e-02, 2.88318604e-01, 2.33283579e-01,
          1.53948879e-02, 8.43325853e-02, 1.26991160e-02, 6.39174134e-02,
          6.12594187e-02, 6.40876591e-02, 1.75891876e-01, 6.05316414e-03,
          9.78789991e-04, 1.63323234e-03, 1.61925480e-02, 1.87480245e-02,
          2.67815636e-03, 9.11058523e-05, 6.99059980e-04, 5.01343757e-02,
          2.16708146e-02, 4.65077488e-03, 8.98366270e-04, 1.63397926e-03,
          2.72541363e-02, 2.81561557e-02, 2.75675324e-03, 2.69509898e-03,
          4.60893847e-03, 3.76815256e-03, 1.50242401e-02, 1.91139581e-03,
          8.09965096e-03, 1.88635830e-02, 1.31970003e-01, 2.84731239e-01,
          3.06402873e-02, 8.58567748e-03, 1.45786963e-02, 9.89064649e-02,
          1.57251716e-01, 2.34329943e-02, 2.99455423e-04, 5.44659793e-04,
          4.50635180e-02, 1.33614600e-01, 4.30642394e-03, 8.98366270e-04,
          1.53631286e-03, 1.84338838e-02, 5.34577370e-02, 9.28998888e-02,
          1.93593010e-01, 1.55266061e-01, 1.50898263e-01, 3.03104877e-01,
          4.13501672e-02, 5.16720153e-02, 6.47343770e-02, 3.03104877e-01,
          3.03104877e-01, 8.80587380e-03, 5.95165836e-03, 1.83825586e-02,
          1.44670293e-01, 8.79483446e-02, 9.37527511e-03, 1.65882427e-03,
          7.13617494e-03, 5.73151000e-02, 3.18253748e-02, 3.69139537e-02,
          3.03104877e-01, 2.33068138e-01, 3.57918851e-02, 1.96514085e-01,
          2.32045725e-02, 9.91690457e-02, 8.40165094e-02, 3.03104877e-01,
          3.03104877e-01, 4.57128277e-03, 3.49105056e-03, 3.73485312e-02,
          1.61394849e-01, 7.36275464e-02, 1.28943883e-02, 5.07443398e-03,
          1.53162368e-02, 2.06064787e-02, 8.90447386e-03, 4.25706909e-04,
          4.34779184e-04, 4.75914509e-04, 4.41410812e-03, 3.89215723e-03,
          2.00839993e-03, 1.83015615e-01, 5.82562387e-02, 5.03128720e-03,
          4.74682637e-03, 4.84486558e-02, 3.01710159e-01, 1.81980267e-01,
          2.41508428e-02, 1.59026563e-01, 1.53048094e-02, 1.59815978e-02,
          2.63068620e-02, 5.73607460e-02, 1.53358549e-01, 4.46930499e-04,
          0., 2.37801694e-03, 1.08710919e-02, 8.73786397e-03,
          2.68320506e-03, 1.28619522e-01, 1.22547839e-02, 4.86216247e-02,
          2.22269017e-02, 5.17415218e-02, 3.01710159e-01, 3.01710159e-01,
          3.39892842e-02, 9.21636522e-02, 2.95493063e-02, 2.67790318e-01,
          2.16233745e-01, 1.23516917e-01, 2.94111043e-01, 1.47099700e-03,
          2.28336826e-03, 6.29394781e-03, 9.57778282e-03, 6.59416430e-03,
          8.37547355e-04, 7.61122676e-04, 4.06453706e-04, 5.36061116e-02,
          5.84489740e-02, 7.16657341e-02, 3.01710159e-01, 1.77783936e-01,
          4.60528508e-02, 3.02638002e-02, 2.88340300e-02, 3.01710159e-01,
          3.01710159e-01, 4.30897847e-02, 7.80387595e-02, 1.37002219e-03,
          6.99997740e-03, 3.89152020e-03, 7.67258287e-04, 1.99706992e-03,
          1.49831898e-03, 2.33332580e-03, 5.75550599e-04, 1.97405033e-02,
          2.93192677e-02, 0., 1.20378910e-02, 1.20853232e-02,
          4.06855382e-02, 3.22358757e-02, 3.26468406e-04, 5.96322380e-02,
          9.13567021e-02, 8.34818371e-03, 2.47591967e-03, 1.96405705e-02,
          5.73402084e-02, 4.58470099e-02, 2.10073628e-02, 9.33040231e-02,
          6.80942507e-03, 1.08741783e-02, 1.60962846e-02, 8.40771645e-02,
          1.51320606e-01, 1.17856858e-03, 1.44079200e-03, 5.40585490e-03,
          2.95736957e-02, 1.10478988e-02, 2.05502729e-03, 9.41316830e-04,
          3.22999922e-03, 8.48224200e-03, 4.01089201e-03, 2.36858837e-02,
          2.71778256e-01, 2.08748102e-01, 1.34744076e-02, 8.67236927e-02,
          2.45435592e-02, 1.76508084e-01, 1.57173172e-01, 2.71778256e-01,
          2.71778256e-01, 9.10428166e-03, 5.55319525e-03, 3.85921896e-02,
          1.95799172e-01, 1.16673358e-01, 2.03567185e-02, 4.37033642e-03,
          8.41819029e-03, 1.33017739e-02, 9.25961975e-03, 3.13819870e-02,
          2.21473679e-01, 1.51994333e-01, 8.20234511e-03, 3.97558371e-03,
          1.60967223e-02, 2.71778256e-01, 2.71778256e-01, 2.12624669e-01,
          2.54825592e-01, 1.50717534e-02, 8.71811733e-02, 1.08546689e-01,
          2.71778256e-01, 1.38802230e-01, 2.35722680e-02, 1.58969946e-02,
          2.29370184e-02, 2.13780557e-03, 1.31435459e-02, 0.,
          1.37189189e-02, 1.24992132e-02, 1.09391622e-02, 5.64736035e-03,
          3.55806830e-03, 1.43312603e-01, 2.35502228e-01, 1.90928150e-02,
          3.77814635e-03, 1.16855633e-02, 1.44354716e-01, 1.34967759e-01,
          4.13461998e-02, 6.40957989e-03, 1.68559747e-03, 1.81699879e-02,
          5.33614568e-02, 3.47547932e-03, 1.60798593e-03 ]
      - [ 1.60935917e-04, 2.53700162e-03, 1.48830947e-03, 5.75252925e-04,
          5.01113063e-05, 5.36453008e-05, 1.55131484e-03, 1.59998680e-03,
          1.52282873e-02, 4.65117767e-03, 1.59281504e-03, 4.77844570e-03,
          0., 2.70684492e-02, 9.02281515e-03, 5.43349050e-03,
          1.93781555e-02, 1.69868674e-02, 3.21065518e-03, 1.07021839e-03,
          2.24559405e-03, 5.35084959e-03, 4.57375543e-03, 3.26518342e-03,
          2.24559405e-03, 4.30902354e-02, 6.49413699e-03, 6.85801636e-03,
          2.63880771e-02, 5.40044047e-02, 6.44463226e-02, 3.77280340e-02,
          2.18137633e-02, 4.54814695e-02, 1.16220310e-01, 1.48074955e-01,
          1.08832739e-01, 4.39159237e-02, 4.47311578e-03, 4.36279811e-02,
          9.85904131e-03, 3.22422534e-02, 2.62584118e-03, 1.55468052e-02,
          4.64270124e-03, 2.13146776e-01, 2.48723313e-01, 3.97595391e-02,
          7.94098601e-02, 1.58250839e-01, 1.98755935e-01, 2.08964184e-01,
          1.81478843e-01, 2.81268865e-01, 2.81268865e-01, 1.99035645e-01,
          2.81268865e-01, 2.45814279e-01, 1.61618337e-01, 2.92763282e-02,
          2.59619905e-03, 1.27149113e-02, 7.99900561e-04, 7.79455388e-03,
          5.81784919e-03, 2.79586855e-02, 1.15426660e-01, 1.18958004e-01,
          7.05277026e-02, 1.24683315e-02, 1.01792626e-01, 5.72502837e-02,
          1.51492491e-01, 2.81268865e-01, 1.61852196e-01, 2.00836077e-01,
          2.81268865e-01, 5.25892489e-02, 8.15516114e-02, 6.32160231e-02,
          1.11925276e-03, 3.35775875e-03, 0., 3.87383811e-03,
          1.29127922e-03, 1.43445246e-02, 1.97055843e-02, 3.24467048e-02,
          5.35832345e-03, 1.68128591e-02, 2.96237543e-02, 3.21076973e-03,
          1.08155683e-02, 2.42690239e-02, 5.61661907e-02, 0., 0., 0.,
          4.84379707e-03, 3.67544242e-03, 1.22917723e-02, 1.60875507e-02,
          1.07996613e-02, 6.01039035e-03, 2.08610706e-02, 2.69484252e-01,
          1.43304482e-01, 3.61864120e-02, 2.13829670e-02, 8.09847042e-02,
          1.99310675e-01, 3.71340811e-02, 3.84955946e-03, 2.64947563e-01,
          2.69484252e-01, 2.76291068e-03, 1.83785683e-04, 7.33110530e-04,
          7.54922256e-02, 4.91134338e-02, 2.65084784e-02, 7.95779750e-02,
          7.29901865e-02, 1.45700216e-01, 3.48741636e-02, 2.69484252e-01,
          2.69484252e-01, 1.62221953e-01, 1.11325271e-01, 3.15376893e-02,
          1.73141271e-01, 1.26786590e-01, 1.82055142e-02, 2.69484252e-01,
          2.69484252e-01, 4.98281233e-03, 5.51357050e-04, 1.10481558e-02,
          1.69751272e-01, 1.34142190e-01, 5.04891165e-02, 2.21274067e-02,
          2.18395777e-02, 8.26243982e-02, 3.99751328e-02, 1.59545854e-01,
          2.69484252e-01, 6.96208552e-02, 5.07939681e-02, 2.84200870e-02,
          3.36910076e-02, 1.20851904e-01, 1.31767780e-01, 2.69484252e-01,
          4.68970835e-02, 7.93283340e-03, 0., 2.06125546e-02,
          9.42490697e-02, 4.59320284e-02, 5.11609577e-03, 1.95217170e-02,
          6.40572514e-04, 7.43957143e-03, 2.96713714e-03, 8.06674883e-02,
          1.61774904e-01, 6.16324358e-02, 6.31524846e-02, 4.80059646e-02,
          7.56133348e-02, 9.51099545e-02, 1.24435738e-01, 2.92036831e-01,
          1.43676981e-01, 1.21695146e-01, 2.90420622e-01, 1.06346793e-01,
          1.09979086e-01, 1.73728913e-02, 1.59343774e-03, 1.15366019e-02,
          2.25724583e-03, 1.95454359e-02, 1.96102541e-02, 1.96365248e-02,
          1.28044128e-01, 2.23646805e-01, 1.02705561e-01, 1.42271575e-02,
          2.92036831e-01, 6.83237463e-02, 2.71461427e-01, 2.92036831e-01,
          2.92036831e-01, 2.92036831e-01, 2.92036831e-01, 7.74046108e-02,
          9.19376090e-02, 2.05602497e-01, 0., 0., 1.15540519e-03,
          2.74142213e-02, 2.85538193e-02, 7.42998207e-03, 5.01346029e-02,
          4.16150130e-02, 2.78155394e-02, 1.92006938e-02, 7.70273879e-02,
          2.10385770e-02, 4.90315035e-02, 8.12582299e-02, 9.08171013e-02,
          5.92896119e-02, 3.64981741e-02, 4.68381941e-02, 6.56139478e-02,
          6.91542849e-02, 0., 0., 2.00649747e-03, 2.29042508e-02,
          1.17704067e-02, 2.52872286e-03, 2.61056554e-02, 3.50233987e-02,
          3.68116796e-02, 1.79088805e-02, 5.42559428e-03, 3.49094234e-02,
          1.66235007e-02, 2.93187760e-02, 1.16020739e-02, 5.21643204e-04,
          0., 9.16703837e-04, 2.37450730e-02, 2.70477496e-02,
          2.10805275e-02, 3.39788273e-02, 3.33875492e-02, 9.79349390e-02,
          1.99943446e-02, 1.40047774e-01, 3.02529782e-01, 6.68513328e-02,
          5.43349274e-02, 8.05423129e-03, 6.38716817e-02, 9.38191116e-02,
          2.88627446e-02, 2.40234643e-01, 9.46514308e-02, 1.83134526e-03,
          1.18830023e-04, 1.27511267e-02, 9.80796143e-02, 5.30988090e-02,
          1.23788126e-01, 2.49373727e-02, 2.70471219e-02, 9.03146118e-02,
          1.01963572e-01, 2.84262896e-01, 3.02529782e-01, 2.40888357e-01,
          8.60502720e-02, 9.70342308e-02, 3.62274833e-02, 2.32624039e-01,
          3.02529782e-01, 3.02529782e-01, 8.86119008e-02, 3.15741822e-02,
          9.70328972e-03, 4.15825062e-02, 1.43697307e-01, 9.17507783e-02,
          2.33734250e-02, 4.41883458e-04, 6.89590676e-03, 2.29792949e-02,
          2.76462343e-02, 3.19205448e-02, 6.65455461e-02, 2.04889566e-01,
          6.98478818e-02, 4.40542474e-02, 2.65763495e-02, 1.29122749e-01,
          3.02529782e-01, 1.09144561e-01, 3.58183272e-02, 6.33190125e-02,
          5.92262410e-02, 8.98566172e-02, 3.99511419e-02, 5.88956214e-02,
          5.66862465e-04, 2.67635146e-03, 5.05402510e-04, 8.18296801e-03,
          5.39642945e-03, 3.49886308e-04, 0., 1.67138665e-03,
          2.75953561e-02, 3.23821530e-02, 6.84259413e-03, 3.05199306e-02,
          1.07571427e-02, 2.79731415e-02, 2.56327502e-02, 3.62585299e-02,
          8.19873065e-02, 1.97107308e-02, 3.50990379e-03, 1.61221996e-02 ]
      - [ 7.61505291e-02, 6.04125261e-02, 6.72427297e-04, 0., 0.,
          6.05609231e-02, 7.41063207e-02, 3.45360208e-03, 2.58214101e-02,
          8.41267314e-03, 1.67809392e-03, 0., 1.17769686e-03,
          2.17800811e-02, 1.51854549e-02, 3.42217833e-03, 0., 0.,
          6.89866580e-03, 1.08994599e-02, 2.09772438e-01, 1.61256224e-01,
          5.57280798e-03, 3.41820787e-03, 1.22037176e-02, 1.44504189e-01,
          6.71250746e-02, 1.72236953e-02, 1.60031617e-01, 1.13102518e-01,
          1.64306555e-02, 1.29301846e-03, 1.27767902e-02, 6.80886805e-02,
          6.06794655e-02, 5.84988296e-03, 2.25112587e-02, 1.15228109e-02,
          1.72312111e-02, 2.70036403e-02, 1.43689200e-01, 2.47506261e-01,
          1.60459969e-02, 1.07368194e-02, 1.07856905e-02, 2.60461181e-01,
          1.57749727e-01, 4.81379926e-02, 1.28885508e-01, 2.60461181e-01,
          2.56707191e-01, 1.95629299e-02, 3.69142070e-02, 1.18910298e-01,
          2.60461181e-01, 6.54487908e-02, 6.75337762e-02, 3.45684327e-02,
          2.56414115e-02, 1.66216150e-01, 8.99688154e-02, 1.35127634e-01,
          2.49823462e-03, 8.11402407e-03, 8.59055948e-03, 1.68362513e-01,
          2.60461181e-01, 1.49720877e-01, 8.30478221e-02, 1.09545037e-01,
          9.98270512e-02, 5.88978454e-02, 2.19601303e-01, 2.60461181e-01,
          2.60461181e-01, 3.11471187e-02, 7.17884162e-03, 3.85307670e-02,
          5.80697060e-02, 1.23933285e-01, 1.03139109e-03, 0.,
          5.10482005e-06, 3.69715504e-03, 5.59535762e-03, 9.51614510e-03,
          1.08415429e-02, 0., 2.17158273e-02, 3.54880057e-02,
          1.74023032e-01, 5.42159826e-02, 1.67986611e-03, 2.32704002e-02,
          5.48571870e-02, 1.22591555e-01, 2.14859210e-02, 1.33021753e-02,
          5.61859412e-03, 3.25943418e-02, 5.92272496e-03, 1.63621770e-03,
          7.11448817e-03, 5.84764779e-03, 1.21526243e-02, 1.03534088e-01,
          1.05719708e-01, 1.79555789e-02, 4.76855189e-02, 7.27919117e-02,
          2.55390972e-01, 2.55390972e-01, 2.23670248e-02, 7.73565173e-02,
          9.81323645e-02, 8.30976069e-02, 9.37924087e-02, 1.67061582e-01,
          8.20880309e-02, 7.77853355e-02, 5.54645658e-02, 4.90865298e-03,
          2.12975200e-02, 3.10021359e-02, 1.63385600e-01, 1.90107137e-01,
          2.55390972e-01, 9.81663764e-02, 4.59685586e-02, 2.47325569e-01,
          2.24758178e-01, 2.55390972e-01, 2.55390972e-01, 2.39759102e-01,
          6.38802946e-02, 1.47740114e-02, 2.18739398e-02, 2.18638644e-01,
          2.42586985e-01, 3.02582569e-02, 2.16679443e-02, 6.48360746e-03,
          4.75581028e-02, 7.96566680e-02, 9.27202255e-02, 5.58683500e-02,
          2.51590721e-02, 8.19147825e-02, 1.14416368e-01, 2.31546730e-01,
          1.06668817e-02, 6.08620718e-02, 1.43648386e-01, 1.38338104e-01,
          1.06866598e-01, 8.65798630e-03, 1.37693819e-03, 3.63818742e-02,
          2.94835512e-02, 2.10843291e-02, 4.20491435e-02, 7.60691613e-02,
          2.22909544e-03, 1.60665077e-03, 3.01230792e-03, 1.12624176e-01,
          1.02596678e-01, 6.68728584e-03, 2.48444993e-02, 1.28902301e-01,
          9.80813578e-02, 1.66380741e-02, 5.12808841e-03, 8.55497494e-02,
          2.37057090e-01, 2.68870872e-02, 9.38173104e-03, 4.80221538e-03,
          1.88086387e-02, 7.75386915e-02, 1.26312494e-01, 1.80042595e-01,
          1.14416368e-02, 2.78107114e-02, 2.30183210e-02, 1.38305023e-01,
          2.67564058e-01, 2.67564058e-01, 1.97998524e-01, 5.45998588e-02,
          9.50407535e-02, 8.13516825e-02, 2.67564058e-01, 2.67564058e-01,
          1.75079644e-01, 3.32969949e-02, 2.00308673e-02, 1.15025401e-01,
          8.14619809e-02, 9.97111425e-02, 5.21831810e-02, 1.03522308e-01,
          7.44938552e-02, 3.05189323e-02, 4.69091423e-02, 2.38484517e-02,
          4.47169878e-02, 2.67564058e-01, 2.03306317e-01, 3.88740115e-02,
          1.88684329e-01, 4.26173694e-02, 2.67564058e-01, 1.05448201e-01,
          2.90274322e-02, 4.59295772e-02, 9.58900712e-03, 1.00622535e-01,
          1.17940500e-01, 4.10999451e-03, 7.53351673e-03, 1.51799284e-02,
          1.08531982e-01, 7.66683184e-03, 6.02954207e-03, 2.44500991e-02,
          6.00717850e-02, 2.02813700e-01, 4.90764938e-02, 1.03820926e-02,
          3.02957110e-02, 4.17833328e-02, 1.92777291e-01, 4.11915854e-02,
          2.05018930e-02, 1.37316519e-02, 3.19367498e-02, 5.48645779e-02,
          3.15589979e-02, 1.53133518e-03, 3.80025618e-02, 1.22044922e-03,
          5.29524917e-03, 4.79660220e-02, 1.24868959e-01, 1.01589665e-01,
          9.29379091e-02, 4.33330163e-02, 6.00782558e-02, 2.20490843e-01,
          4.32523862e-02, 1.42879233e-01, 2.07226187e-01, 1.33576915e-01,
          6.56525493e-02, 7.60671077e-03, 8.43217364e-04, 8.18380490e-02,
          9.27490517e-02, 1.30064320e-02, 5.64488247e-02, 3.23785581e-02,
          2.43173808e-01, 1.61876187e-01, 1.18088856e-01, 6.55678734e-02,
          4.39858735e-02, 2.77210921e-01, 2.77210921e-01, 2.77210921e-01,
          8.01324099e-03, 4.59309183e-02, 2.23108113e-01, 2.77210921e-01,
          2.36994222e-01, 1.82063710e-02, 2.52965186e-03, 4.48979586e-02,
          2.73773838e-02, 5.24277054e-02, 1.28548443e-01, 2.23792158e-02,
          1.82830513e-01, 8.18859413e-02, 1.03727449e-02, 4.14810553e-02,
          1.69969834e-02, 2.18686789e-01, 2.77210921e-01, 4.28509712e-02,
          1.52182216e-02, 0., 5.11172339e-02, 1.77449808e-01,
          9.26598236e-02, 7.24699488e-03, 0., 6.68227999e-03,
          7.66562577e-03, 1.43451290e-02, 1.66974626e-02, 2.89981961e-02,
          1.30821928e-01, 3.57611813e-02, 7.76555669e-03, 3.21532339e-02,
          7.23306686e-02, 5.15461341e-02, 8.05280805e-02, 1.78645682e-02,
          7.77916331e-03, 0., 2.94308527e-03, 5.90140782e-02,
          4.97613177e-02, 1.53940229e-03, 0., 4.34749806e-03,
          1.86179820e-02, 5.66110387e-03 ]
      - [ 3.02885752e-02, 1.04625954e-03, 0., 6.94225309e-03,
          3.91254351e-02, 5.52083552e-02, 8.28357064e-04, 4.71442938e-04,
          4.39025238e-02, 9.21900049e-02, 5.43805817e-03, 4.97896131e-03,
          2.51812488e-03, 2.89668515e-02, 4.56401855e-02, 7.92044157e-04,
          3.50938668e-03, 3.46444361e-03, 6.37604250e-03, 6.61094859e-03,
          3.56380269e-02, 2.93912906e-02, 1.12903759e-01, 6.25718459e-02,
          5.36009483e-02, 6.05828539e-02, 8.81738812e-02, 1.98701963e-01,
          1.68353871e-01, 2.94142336e-01, 4.13684733e-03, 1.01008900e-02,
          2.66470034e-02, 1.71536028e-01, 2.94142336e-01, 2.54863920e-03,
          9.08364449e-03, 1.26938419e-02, 3.13698612e-02, 3.11802812e-02,
          4.12929570e-03, 6.76125437e-02, 1.07194722e-01, 5.47979847e-02,
          8.75052344e-03, 1.75802261e-02, 2.94142336e-01, 2.94142336e-01,
          6.16845824e-02, 2.94142336e-01, 3.38009000e-02, 1.04915142e-01,
          1.87422648e-01, 2.94142336e-01, 2.94142336e-01, 4.96650394e-03,
          7.14639388e-03, 3.45329568e-02, 9.79816467e-02, 3.91176231e-02,
          2.01590382e-03, 9.29656206e-04, 6.59731263e-03, 1.30075021e-02,
          7.99326319e-03, 1.37728713e-02, 1.53365999e-01, 1.36283547e-01,
          2.67824512e-02, 2.13058405e-02, 1.44340359e-02, 5.43803759e-02,
          2.66661167e-01, 1.66187719e-01, 8.39418024e-02, 2.57570157e-03,
          1.29180355e-02, 5.59397275e-03, 4.89887223e-02, 2.70086993e-02,
          2.71852571e-03, 7.89974257e-03, 5.11206966e-03, 1.50837786e-02,
          2.95919999e-02, 1.25468252e-02, 1.76196396e-02, 1.91849731e-02,
          4.60782126e-02, 4.21213955e-02, 3.33291441e-02, 4.05283598e-03,
          1.88929364e-02, 9.19091403e-02, 7.46097043e-02, 2.65375315e-03,
          0., 5.28801326e-03, 6.11063465e-02, 4.18951660e-02,
          3.56653496e-03, 1.66774075e-02, 3.08944490e-02, 9.50889960e-02,
          1.51606619e-01, 2.31572893e-02, 5.23152128e-02, 5.65472543e-02,
          2.29598284e-01, 1.51766419e-01, 2.60585435e-02, 6.03707209e-02,
          8.70937705e-02, 2.85751790e-01, 1.45652443e-01, 1.73186716e-02,
          1.58710815e-02, 3.23923901e-02, 1.30809322e-01, 8.88252258e-02,
          1.79518163e-02, 2.31658816e-02, 1.21191338e-01, 3.19230437e-01,
          3.19230437e-01, 5.25196120e-02, 1.97766405e-02, 1.49153873e-01,
          2.45564118e-01, 1.60505578e-01, 3.30108479e-02, 1.76679846e-02,
          1.44374162e-01, 3.19230437e-01, 2.10370585e-01, 7.57436594e-03,
          5.29036066e-03, 5.33442199e-02, 1.75761461e-01, 5.56562506e-02,
          8.54675099e-03, 1.60112884e-02, 1.37519255e-01, 2.19465181e-01,
          8.84254277e-02, 1.30042927e-02, 5.60598373e-02, 5.13086952e-02,
          1.24210045e-01, 1.49036303e-01, 3.85275781e-02, 2.67532468e-03,
          5.65063208e-02, 1.64777741e-01, 1.23330578e-01, 1.59895495e-02,
          0., 1.75258529e-03, 8.37399289e-02, 6.08677045e-02,
          3.75683047e-03, 2.11465769e-02, 2.96074580e-02, 1.98365580e-02,
          4.96305944e-03, 1.75057799e-02, 2.97446936e-01, 2.14065567e-01,
          2.99009345e-02, 7.94965252e-02, 2.84787994e-02, 9.05536637e-02,
          2.24846497e-01, 2.77180672e-01, 2.97446936e-01, 2.11027102e-03,
          5.69498632e-03, 1.27265602e-02, 8.21864456e-02, 3.40613909e-02,
          7.55977770e-03, 7.69058883e-04, 1.84162259e-02, 4.35980186e-02,
          3.32320631e-02, 4.68285792e-02, 2.24295527e-01, 2.80611336e-01,
          8.50536823e-02, 8.46400782e-02, 2.63050813e-02, 9.15622339e-02,
          2.97446936e-01, 2.97446936e-01, 1.36131689e-01, 1.58668850e-02,
          5.69449998e-02, 3.30126733e-02, 9.10094455e-02, 7.14917704e-02,
          2.39504986e-02, 9.97098396e-04, 2.39779167e-02, 2.26440504e-02,
          2.85258852e-02, 5.79046495e-02, 3.32366151e-04, 9.50227454e-02,
          2.13008791e-01, 9.55761597e-02, 1.62471794e-02, 3.46321501e-02,
          1.61259934e-01, 2.94716179e-01, 5.55656329e-02, 1.13989972e-02,
          2.47892961e-02, 8.18935409e-02, 7.92715400e-02, 5.74205332e-02,
          6.74908841e-03, 1.12376930e-02, 2.53667925e-02, 3.17009836e-02,
          3.84810148e-03, 1.98816461e-03, 3.74589744e-03, 6.92657232e-02,
          1.38957962e-01, 2.56317146e-02, 0., 1.00789238e-02,
          3.98641229e-02, 1.06140628e-01, 2.88080424e-02, 0.,
          3.35964095e-03, 2.69383267e-02, 6.13363609e-02, 1.32363718e-02,
          6.27711136e-03, 4.94239433e-03, 5.10488413e-02, 1.64324000e-01,
          1.03679888e-01, 1.00313490e-02, 9.01380181e-03, 3.40070911e-02,
          7.56809488e-02, 6.31072596e-02, 1.56420320e-02, 2.42290131e-04,
          4.82370071e-02, 9.86070782e-02, 5.84406964e-02, 4.09941608e-03,
          0., 6.76456187e-03, 4.60867509e-02, 1.89607404e-02,
          1.11396136e-02, 3.05286143e-02, 1.67498440e-01, 1.80113986e-01,
          7.71105587e-02, 2.87874211e-02, 1.13322489e-01, 1.39209986e-01,
          1.52613789e-01, 1.82795510e-01, 3.81237306e-02, 1.53660988e-02,
          1.14124179e-01, 2.34290332e-01, 1.69134885e-01, 2.79433057e-02,
          2.70685134e-03, 1.92712639e-02, 1.22944012e-01, 1.18657067e-01,
          6.64464803e-03, 2.71385498e-02, 5.68382330e-02, 9.31158066e-02,
          4.15799879e-02, 1.99339446e-02, 3.67888138e-02, 3.07025403e-01,
          2.62777060e-01, 1.14769571e-01, 2.04125675e-03, 4.85134795e-02,
          3.07025403e-01, 1.73354551e-01, 5.45014665e-02, 2.06040554e-02,
          1.53660988e-02, 2.60209173e-01, 3.65055092e-02, 7.62056932e-02,
          0., 6.48404844e-03, 1.39018800e-02, 4.00723442e-02,
          1.05614439e-02, 0., 2.16134964e-03, 1.14203297e-01,
          2.05601275e-01, 4.07650955e-02, 0., 7.24554528e-03,
          2.80879855e-01, 1.80434346e-01, 2.71157958e-02, 0.,
          2.41518160e-03, 2.60604948e-01, 6.59562945e-02, 1.17744012e-02 ]
      - [ 5.90975164e-04, 1.74904778e-03, 5.76969818e-04, 1.20209623e-03,
          2.12718640e-03, 3.32508907e-02, 8.08447152e-02, 2.22984725e-03,
          3.60628893e-03, 5.09072654e-03, 2.70180423e-02, 8.22956041e-02,
          1.86737198e-02, 1.66596361e-02, 1.17384410e-03, 3.22708220e-04,
          3.87580320e-03, 2.60781143e-02, 6.84871105e-03, 8.23114591e-04,
          2.24246341e-03, 3.29421996e-03, 1.12019423e-02, 5.14577469e-03,
          6.23251637e-03, 1.52223468e-01, 2.63006896e-01, 1.91407539e-02,
          2.99599255e-03, 2.83789802e-02, 2.63006896e-01, 1.28178075e-01,
          2.90567819e-02, 2.03257456e-01, 8.63193274e-02, 1.27815399e-02,
          4.06402685e-02, 5.07465377e-02, 6.91155866e-02, 7.93796219e-03,
          9.05960985e-03, 4.14874579e-04, 9.28092655e-03, 4.68205847e-03,
          1.90364551e-02, 2.61905640e-01, 2.63006896e-01, 4.35013473e-02,
          3.74296261e-03, 5.95832802e-02, 2.63006896e-01, 2.63006896e-01,
          9.90532264e-02, 2.63006896e-01, 2.63006896e-01, 3.56185474e-02,
          1.29974857e-02, 5.66215813e-02, 1.86693370e-01, 8.57789963e-02,
          2.96769920e-03, 1.24462380e-03, 3.14355940e-02, 2.50670826e-03,
          2.77947518e-03, 5.68866543e-02, 2.35657021e-01, 1.41789436e-01,
          3.98696400e-03, 7.63657037e-03, 1.84802040e-02, 2.24751428e-01,
          2.63006896e-01, 1.59299895e-01, 1.01491481e-01, 6.43462967e-03,
          2.52946815e-03, 6.39486685e-02, 1.56678677e-01, 3.38304937e-02,
          3.89700662e-03, 1.37178618e-02, 1.57372300e-02, 9.39672720e-03,
          6.62096951e-04, 4.94783977e-04, 1.15783298e-02, 4.29824069e-02,
          2.59030275e-02, 4.50875936e-03, 0., 2.97193020e-03,
          1.54664023e-02, 1.57116145e-01, 3.40341367e-02, 0., 0.,
          3.31664123e-02, 4.12803516e-02, 2.45594438e-02, 5.78674600e-02,
          1.64400488e-02, 2.75910050e-02, 1.14645652e-01, 2.64018569e-02,
          2.22901609e-02, 1.20661110e-01, 1.14780553e-01, 1.16047159e-01,
          4.89889132e-03, 1.42019312e-03, 3.07696946e-02, 1.14110909e-01,
          2.95291305e-01, 4.77706604e-02, 1.72696577e-03, 0.,
          8.41985568e-02, 9.73407552e-02, 6.24136478e-02, 6.56329766e-02,
          2.50334479e-02, 2.56178975e-02, 2.24316463e-01, 1.59258813e-01,
          5.55089414e-02, 3.53436023e-02, 2.31580108e-01, 2.95291305e-01,
          5.97267188e-02, 4.73397726e-04, 2.28331145e-02, 2.95291305e-01,
          2.95291305e-01, 4.22416404e-02, 5.75655256e-04, 4.41123098e-02,
          2.95291305e-01, 1.58674508e-01, 3.79039091e-03, 0.,
          3.41605172e-02, 1.10116296e-01, 1.26152009e-01, 5.72454110e-02,
          2.68178284e-02, 1.05421534e-02, 1.08178981e-01, 2.85796851e-01,
          4.16280590e-02, 1.42633701e-02, 2.72236615e-02, 1.06571041e-01,
          2.95291305e-01, 1.06485195e-01, 1.59722809e-02, 7.11288303e-02,
          8.57224762e-02, 8.57548565e-02, 1.29488101e-02, 4.11313819e-03,
          5.21006878e-04, 5.18574845e-03, 8.59453983e-04, 5.64386416e-03,
          7.90308863e-02, 2.04751819e-01, 3.62646952e-02, 1.40130881e-03,
          1.59706045e-02, 5.49753718e-02, 1.35734156e-01, 9.00145248e-02,
          1.26038596e-01, 1.19862586e-01, 5.99568803e-03, 3.34718643e-04,
          2.37858500e-02, 9.00744870e-02, 3.69481742e-02, 1.37104606e-03,
          3.27483076e-03, 1.01186879e-01, 6.89391280e-03, 1.28408836e-03,
          4.44063656e-02, 2.87576735e-01, 3.12151879e-01, 1.41547369e-02,
          3.52801546e-03, 1.45794367e-02, 3.12151879e-01, 3.12151879e-01,
          2.14857399e-01, 8.03577229e-02, 3.92298102e-02, 4.54642922e-02,
          1.79609507e-01, 2.30434626e-01, 2.67859083e-02, 4.31075878e-03,
          9.37894639e-03, 7.98369348e-02, 2.30219285e-03, 1.85798889e-03,
          5.61610656e-03, 3.87190320e-02, 2.39947647e-01, 1.94883253e-02,
          7.32271466e-03, 1.54903661e-02, 1.40307024e-01, 3.12151879e-01,
          4.47481088e-02, 2.80025899e-02, 1.27661109e-01, 2.88665950e-01,
          1.23837799e-01, 3.17011662e-02, 2.38923263e-03, 7.58785009e-03,
          1.41450600e-03, 2.84843333e-03, 4.48603509e-03, 5.17004030e-03,
          1.17384307e-02, 1.00353267e-02, 1.19015416e-02, 9.29516274e-03,
          5.56604099e-03, 1.93966124e-02, 5.35019711e-02, 6.44231867e-03,
          1.46491164e-02, 2.33213585e-02, 7.81525075e-02, 1.84928522e-01,
          0., 4.88303881e-03, 5.45879779e-03, 5.96422562e-03,
          1.00558680e-02, 1.39520643e-02, 5.46298437e-02, 4.06945981e-02,
          5.80962794e-03, 3.24331573e-04, 5.22807948e-02, 9.91744995e-02,
          1.87244378e-02, 0., 7.30052451e-03, 9.82355550e-02,
          1.79193929e-01, 1.66613068e-02, 0., 2.19015758e-02,
          7.44810328e-02, 3.78729813e-02, 0., 0., 4.68085930e-02,
          2.08108798e-01, 1.11849584e-01, 2.86445785e-02, 1.03328474e-01,
          6.27312884e-02, 1.23878323e-01, 2.85213679e-01, 4.68303077e-02,
          4.99189459e-02, 3.21267508e-02, 4.39176187e-02, 2.85213679e-01,
          2.39812389e-01, 4.79814783e-02, 6.53380826e-02, 4.02148366e-02,
          8.83284360e-02, 4.42084558e-02, 8.67426489e-03, 8.65689889e-02,
          1.45389557e-01, 1.73321217e-02, 5.28721604e-03, 2.85213679e-01,
          2.85213679e-01, 5.94070256e-02, 1.41139388e-01, 5.48498034e-02,
          1.07748084e-01, 4.55936529e-02, 7.65783805e-03, 2.85213679e-01,
          2.85213679e-01, 5.88865578e-02, 1.12134237e-02, 9.13740485e-04,
          7.40449876e-02, 9.91634503e-02, 1.41195953e-02, 4.87526692e-02,
          7.85373093e-04, 5.22187212e-03, 6.74831495e-03, 1.34578153e-01,
          2.35775858e-01, 7.65783805e-03, 8.33280906e-02, 1.40947858e-02,
          3.20617296e-02, 3.03102918e-02, 2.29735132e-02, 2.85213679e-01,
          1.07613698e-01, 6.82420610e-03, 1.41300890e-03, 0.,
          4.07425389e-02, 2.97851227e-02 ]
      - [ 0., 0., 1.00916484e-03, 9.19429935e-04, 1.67327365e-04, 0., 0.,
          1.00468320e-03, 1.18721053e-02, 3.02005769e-03, 6.12425478e-03,
          2.80414391e-02, 6.34352735e-04, 1.59215350e-02, 3.74758849e-03,
          1.39263356e-02, 3.91448177e-02, 2.70791072e-03, 0., 0.,
          1.26533918e-02, 7.92393752e-04, 1.19594275e-03, 1.20202359e-03,
          1.22998087e-02, 2.65992843e-02, 2.64131231e-04, 4.20734137e-02,
          2.59007104e-02, 1.33754358e-01, 4.76106666e-02, 1.41416490e-01,
          1.87129617e-01, 5.53002767e-02, 3.61677893e-02, 2.24071845e-01,
          2.18895391e-01, 2.58516856e-02, 0., 7.73614505e-04,
          4.69761789e-02, 7.97321945e-02, 1.07676052e-02, 0.,
          2.21507344e-02, 9.51652378e-02, 1.09357946e-01, 9.42121819e-02,
          2.73865312e-01, 2.73865312e-01, 1.50349781e-01, 2.73865312e-01,
          2.41322845e-01, 2.73865312e-01, 2.73865312e-01, 1.94215178e-01,
          2.73865312e-01, 5.66726252e-02, 0., 1.05135199e-02,
          5.71856368e-03, 2.70341784e-02, 3.22875902e-02, 1.60093827e-03,
          0., 1.76743865e-02, 4.26608175e-02, 2.13505775e-01,
          9.73628610e-02, 5.04253320e-02, 2.13924199e-01, 3.99231911e-02,
          7.11904466e-02, 1.13938197e-01, 1.39303744e-01, 1.12506621e-01,
          2.00284660e-01, 4.73364294e-02, 0., 1.25456098e-02,
          1.58705469e-03, 9.02881101e-03, 4.07456246e-04, 1.22914487e-03,
          2.74142425e-04, 4.83491682e-02, 3.80107388e-02, 2.92202644e-03,
          8.70671310e-03, 6.77754695e-04, 1.18523963e-01, 9.33159981e-03,
          1.35157572e-03, 5.61884046e-02, 1.22150198e-01, 1.33488113e-02,
          0., 0., 2.66360044e-02, 6.48529306e-02, 2.61248071e-02,
          4.27890718e-02, 2.62677744e-02, 4.58889734e-03, 1.53800749e-04,
          2.47812256e-01, 2.47812256e-01, 3.44872884e-02, 2.22448283e-03,
          1.35073217e-03, 2.47812256e-01, 1.22728221e-01, 1.07154429e-01,
          2.47812256e-01, 1.97573051e-01, 2.52178367e-02, 0.,
          1.75712872e-02, 1.97879434e-01, 2.22651944e-01, 4.68523279e-02,
          1.43754005e-01, 4.19541523e-02, 3.00858747e-02, 2.66662687e-02,
          1.86872423e-01, 2.47812256e-01, 1.01089455e-01, 1.02334199e-02,
          2.65826378e-02, 5.85163832e-02, 1.43787503e-01, 2.47812256e-01,
          2.47812256e-01, 8.51188749e-02, 5.75606488e-02, 1.21863142e-01,
          9.89621952e-02, 1.93489805e-01, 8.83335471e-02, 5.24837822e-02,
          2.29444318e-02, 8.26954469e-03, 8.06695689e-03, 1.71920992e-02,
          7.44710714e-02, 2.42544428e-01, 6.24698810e-02, 3.41113983e-03,
          4.79217693e-02, 5.18272258e-02, 9.25697461e-02, 6.49984479e-02,
          1.80639774e-01, 2.29100361e-01, 2.20739492e-03, 4.06210497e-02,
          8.28395635e-02, 7.07382932e-02, 3.95761244e-02, 2.07292903e-02,
          5.90351522e-02, 2.12811530e-02, 0., 5.61669609e-03,
          4.21538353e-02, 8.44264328e-02, 1.41622275e-01, 2.13240862e-01,
          1.87202707e-01, 1.83876097e-01, 1.46321237e-01, 7.92482793e-02,
          2.69273669e-01, 2.55390137e-01, 1.22865796e-01, 2.82701433e-01,
          2.78253965e-02, 0., 1.14811696e-02, 4.27150866e-03,
          2.19970103e-02, 7.23255053e-02, 9.57464520e-03, 2.46200128e-04,
          2.66301613e-02, 4.12111655e-02, 2.82701433e-01, 1.11567669e-01,
          4.58555594e-02, 2.82701433e-01, 9.31546763e-02, 2.54127681e-01,
          1.08138971e-01, 1.68922961e-01, 2.08121836e-01, 2.82701433e-01,
          1.86053962e-01, 0., 2.35426091e-02, 8.72634177e-04, 0.,
          3.82016301e-02, 9.66636464e-03, 1.61123462e-03, 0., 0.,
          6.80942908e-02, 1.00140251e-01, 2.21580104e-03, 1.57063361e-02,
          1.33497089e-01, 8.80359933e-02, 6.52277842e-02, 0.,
          2.11250596e-02, 2.56713569e-01, 5.57831787e-02, 1.47181405e-02,
          4.90604714e-03, 2.16538901e-03, 5.62353246e-03, 4.34080027e-02,
          7.77912885e-03, 2.90878088e-04, 5.03182923e-03, 1.50954872e-02,
          7.05925822e-02, 2.64664944e-02, 0., 1.04958704e-02,
          6.06006980e-02, 2.55996920e-02, 1.71973538e-02, 0.,
          7.34673673e-03, 6.82891160e-02, 8.41710344e-03, 1.29712597e-02,
          4.32375353e-03, 3.24744172e-02, 4.36100326e-02, 7.01598963e-03,
          1.30936578e-02, 1.61557551e-02, 6.03917874e-02, 1.62410691e-01,
          3.35878581e-02, 5.16384467e-03, 2.52608880e-02, 2.83882916e-02,
          4.72547635e-02, 9.04203802e-02, 1.05087914e-01, 8.66798684e-02,
          1.26745831e-02, 6.14928715e-02, 5.53508587e-02, 4.80009429e-02,
          1.87065639e-02, 6.54337853e-02, 2.73113046e-02, 3.11370119e-02,
          5.10258088e-03, 1.67746209e-02, 1.00196712e-01, 2.97713548e-01,
          1.95541367e-01, 1.72128156e-03, 6.36005998e-02, 7.35316128e-02,
          2.87139446e-01, 2.97713548e-01, 2.97713548e-01, 2.97713548e-01,
          1.11386459e-03, 2.04976238e-02, 1.31568462e-01, 2.13312253e-01,
          1.20632432e-01, 2.89112143e-03, 3.08329798e-02, 1.31207062e-02,
          2.53196782e-03, 0., 1.69227440e-02, 2.41755292e-01,
          1.96895376e-01, 3.13114561e-02, 6.20098272e-03, 4.77980496e-03,
          1.97626263e-01, 2.97713548e-01, 2.30223820e-01, 8.31700265e-02,
          4.16194613e-04, 0., 1.07233912e-01, 1.72064617e-01,
          6.66915923e-02, 1.90478831e-03, 1.41205890e-02, 2.31763534e-03,
          6.52519753e-04, 0., 2.55395449e-03, 2.63212975e-02,
          6.29010098e-03, 3.10203601e-02, 7.71501148e-03, 0., 0.,
          5.79006076e-02, 6.76327497e-02, 1.11637227e-02, 1.24858390e-03,
          0., 1.82888433e-02, 1.76601838e-02, 4.89291782e-03 ]
      - [ 3.24614532e-03, 2.84457533e-03, 4.68962640e-03, 2.82926299e-03,
          2.00615707e-03, 1.93753447e-02, 3.50181460e-02, 7.44887209e-03,
          6.26108004e-03, 2.07292964e-03, 9.70435515e-03, 5.43203577e-02,
          3.92187275e-02, 3.02389562e-02, 4.79726493e-03, 2.16006112e-04,
          7.09310686e-03, 2.08204892e-02, 5.64952530e-02, 2.36690929e-03,
          1.00428425e-03, 1.40688037e-02, 9.76995900e-02, 8.84828530e-03,
          4.98438487e-04, 9.99575388e-03, 1.14916034e-01, 2.67984331e-01,
          4.86621410e-02, 4.37877793e-03, 2.59323567e-02, 1.04554966e-01,
          2.67984331e-01, 1.59244165e-01, 1.27338013e-02, 8.62224400e-02,
