%YAML:1.0
---
opencv_ml_svm:
   format: 3
   svmType: C_SVC
   kernel:
      type: LINEAR
   C: 4.0000000000000002e-01
   term_criteria: { epsilon:1.1920928955078125e-07, iterations:1000 }
   var_count: 252
   class_count: 2
   class_labels: !!opencv-matrix
      rows: 2
      cols: 1
      dt: i
      data: [ 0, 1 ]
   sv_total: 1
   support_vectors:
      - [ 5.04656315e-01, -2.32120380e-02, -2.59193957e-01,
          6.54724658e-01, 6.70503020e-01, 3.75123858e-01, 2.22040966e-01,
          2.94098020e-01, -2.13929623e-01, 8.49366263e-02,
          -4.64869216e-02, 2.19661966e-01, -2.94471979e-01,
          -2.21956164e-01, -8.67735147e-02, 2.97087543e-02,
          -1.25094399e-01, -3.04229319e-01, -4.83926177e-01,
          -2.93970495e-01, 2.82896161e-01, -3.32308322e-01,
          -8.39950517e-02, -1.04207709e-01, 5.95875196e-02,
          -5.72381318e-01, 2.73875028e-01, -2.80561686e-01,
          2.72468030e-02, -5.12594320e-02, 7.36534968e-02,
          6.28706038e-01, 6.34049177e-01, 1.85490608e-01, 2.17984214e-01,
          2.27267649e-02, 9.44390178e-01, 5.51335096e-01, 2.81271458e-01,
          2.27894053e-01, 4.09954995e-01, 3.21528614e-02,
          -9.93908867e-02, 1.93461686e-01, 1.87507913e-01,
          1.83762804e-01, -4.88021284e-01, 1.47111982e-01,
          7.87278637e-02, 3.44487399e-01, 2.91859210e-01,
          -3.50946411e-02, 8.89466047e-01, -5.26656508e-01,
          5.02835512e-01, -2.94685476e-02, 1.39344960e-01,
          3.58672380e-01, 2.96351671e-01, -7.80743241e-01,
          5.65009192e-02, 2.35006258e-01, 3.82045984e-01, 4.77235794e-01,
          7.24983811e-01, 4.52051699e-01, 4.68559980e-01, 1.95678189e-01,
          7.39823103e-01, 5.31341672e-01, 9.51844379e-02,
          -4.65882182e-01, -1.03926487e-01, -1.92906752e-01,
          -1.86144590e-01, -4.14682895e-01, -8.56195837e-02,
          -2.19466984e-01, -2.85075098e-01, -6.48809314e-01,
          9.17176381e-02, -3.60593051e-02, -2.65208393e-01,
          -8.04309770e-02, 2.03959092e-01, -3.08822185e-01,
          6.47815131e-03, 3.80282700e-01, -4.26419377e-02,
          -3.01707894e-01, 9.59021673e-02, -3.84099752e-01,
          -2.38383353e-01, -8.01294520e-02, -4.51520175e-01,
          1.86094403e-01, -1.41193420e-01, -8.20961475e-01,
          4.21199858e-01, 1.19829074e-01, -2.74279505e-01,
          1.52389884e-01, -1.26093850e-01, -5.02955139e-01,
          -4.63271737e-02, -3.51965308e-01, 3.17243814e-01,
          -3.66604477e-01, -3.57570231e-01, -2.22891808e-01,
          -4.21552807e-01, 1.26735857e-02, 7.88163692e-02,
          -2.81105965e-01, 1.10980831e-01, -1.90997139e-01,
          2.24947542e-01, -2.16251463e-01, 8.41922387e-02,
          -6.79874599e-01, 1.69148177e-01, -1.72182009e-01,
          -5.31961143e-01, 3.22343469e-01, 7.77705312e-02,
          -4.68238056e-01, -4.15367968e-02, 2.65940398e-01,
          2.17985928e-01, 8.26977268e-02, -8.97292644e-02,
          3.31510872e-01, -5.11327863e-01, -8.35588202e-02,
          9.33357403e-02, -3.59138936e-01, -9.17672813e-02,
          -4.39107716e-02, 1.98876888e-01, 5.08791864e-01,
          -3.49003017e-01, -9.14549083e-02, -2.40752682e-01,
          -5.37871778e-01, 2.67538846e-01, -5.54114580e-01,
          -4.00501728e-01, 3.55112761e-01, -2.56413743e-02,
          1.68389395e-01, -1.04794493e-02, -1.18391581e-01,
          -3.50463152e-01, 3.22368413e-01, -2.37082422e-01,
          1.06449582e-01, -2.21503004e-01, 1.86513423e-03,
          1.30099252e-01, 1.99648649e-01, -5.63383698e-01,
          1.65985003e-01, -1.80493161e-01, -1.39157414e-01,
          1.58574402e-01, -3.19774270e-01, 5.37957205e-03,
          1.40190691e-01, -6.18847832e-02, -8.06759745e-02,
          -2.64738858e-01, 1.62523001e-01, 1.18016832e-01,
          -2.53244251e-01, -5.65259218e-01, -8.66038352e-02,
          -1.52277976e-01, -2.03820020e-01, -1.35659471e-01,
          -1.36249185e-01, -3.48067045e-01, 8.78760964e-02,
          3.14669371e-01, 1.01142213e-01, 2.55824834e-01, 5.23582458e-01,
          2.52387643e-01, 3.29343975e-01, 7.76035249e-01,
          -3.96653056e-01, -2.10951790e-01, 4.68940549e-02,
          1.29947573e-01, 9.67014581e-02, -1.01388484e-01,
          -3.13340753e-01, -3.16270530e-01, -2.71495461e-01,
          -3.57860446e-01, -3.13648194e-01, -3.74355376e-01,
          2.00456351e-01, -6.36205018e-01, 1.34748751e-02,
          4.51114140e-02, -1.73351839e-01, 1.16020150e-01,
          -4.09975231e-01, -1.75200641e-01, 8.03278923e-01,
          5.74611247e-01, 4.92761135e-01, -2.62784481e-01,
          9.24077928e-02, 1.10679425e-01, 7.19714701e-01, 7.16999769e-01,
          -4.50765133e-01, -2.39945203e-01, 2.42520407e-01,
          -9.99229550e-02, -3.23975176e-01, 2.06251472e-01,
          -6.38475642e-02, -1.35623246e-01, -4.65483963e-01,
          -4.68694746e-01, -9.84770954e-01, -4.20067042e-01,
          -3.69466782e-01, -2.68909633e-01, 5.01270890e-02,
          -4.13064003e-01, -2.36907616e-01, -7.73605555e-02,
          -1.46356560e-02, 1.36592239e-01, -2.55620241e-01,
          -2.23644808e-01, 3.37794185e-01, -4.64533538e-01,
          6.29396588e-02, -7.30809644e-02, -2.26130784e-01,
          -2.12783277e-01, -2.61691809e-01, 4.24496412e-01,
          -3.04282010e-01, 2.16002598e-01, 1.97755992e-01,
          -1.24278091e-01, -5.96214458e-02 ]
   uncompressed_sv_total: 436
   uncompressed_support_vectors:
      - [ 4.11290638e-02, 3.57718323e-03, 1.19239453e-03, 0.,
          5.18335067e-02, 6.07480183e-02, 2.83193648e-01, 9.56503749e-02,
          1.19239453e-03, 3.97464813e-04, 0., 1.90763474e-01,
          3.53258193e-01, 4.39767838e-01, 1.42902389e-01, 3.14718746e-02,
          2.93688965e-03, 0., 1.59672182e-02, 1.63174886e-02,
          4.39767838e-01, 2.99550653e-01, 3.39857452e-02, 8.81067012e-03,
          0., 5.93572557e-02, 2.00942606e-01, 4.39767838e-01,
          1.03141762e-01, 0., 0., 0., 4.80433144e-02, 1.86356172e-01,
          2.54161358e-01, 1.76999465e-01, 2.82656886e-02, 0., 0.,
          2.12491006e-02, 1.01014026e-01, 4.07139689e-01, 2.40849078e-01,
          2.88431649e-03, 9.61438869e-04, 0., 1.44638894e-02,
          1.75422013e-01, 4.07139689e-01, 2.97872394e-01, 9.42189712e-03,
          0., 0., 3.07891960e-03, 4.07139689e-01, 4.07139689e-01,
          3.11521851e-02, 2.87687052e-02, 0., 0., 6.47739843e-02,
          2.53675252e-01, 1.58140644e-01, 5.69818616e-02, 9.58956871e-03,
          0., 0., 1.80608928e-01, 4.37102765e-01, 9.42000300e-02,
          3.72337960e-02, 9.58956871e-03, 0., 0., 6.45445883e-02,
          4.37102765e-01, 4.37102765e-01, 4.47025821e-02, 3.19652283e-03,
          0., 1.05253212e-01, 1.93633765e-01, 4.37102765e-01,
          1.87050268e-01, 7.00444877e-02, 3.81530449e-02, 3.56036285e-03,
          7.82885402e-02, 2.00970888e-01, 4.72894637e-03, 1.34062886e-01,
          6.23531118e-02, 4.12005857e-02, 1.06810881e-02, 3.62805933e-01,
          2.39725605e-01, 1.29735976e-01, 2.51379579e-01, 1.81653444e-02,
          1.27176829e-02, 1.18678762e-03, 2.57994056e-01, 4.19818223e-01,
          1.03795215e-01, 2.89105647e-03, 5.09142876e-03, 1.37335286e-02,
          3.56036285e-03, 4.19818223e-01, 4.19818223e-01, 2.08071843e-01,
          0., 4.32439111e-02, 3.96780716e-03, 9.31603182e-03,
          2.48248383e-01, 2.71456763e-02, 1.73173964e-01, 1.77638412e-01,
          5.00308052e-02, 0., 2.39802878e-02, 2.45480850e-01,
          1.30178884e-01, 3.76234978e-01, 3.76234978e-01, 0.,
          1.32260239e-03, 2.44211573e-02, 3.76234978e-01, 1.00370266e-01,
          7.59392604e-02, 1.26835257e-02, 0., 0., 7.19408616e-02,
          3.76234978e-01, 3.76234978e-01, 2.36748666e-01, 6.69723153e-02,
          3.18239979e-03, 0., 1.86926010e-03, 2.39249077e-02,
          1.27256140e-01, 3.96948725e-01, 1.08302854e-01, 3.30678783e-02,
          0., 0., 8.54814649e-02, 1.83683813e-01, 3.96948725e-01,
          6.25913590e-02, 0., 0., 5.60778007e-03, 8.09090808e-02,
          3.58992577e-01, 3.96948725e-01, 1.96242630e-02, 1.44687682e-01,
          0., 0., 3.79424654e-02, 3.32278520e-01, 3.96948725e-01,
          1.50240436e-01, 0., 0., 0., 7.36329257e-02, 3.67339104e-01,
          2.02007905e-01, 0., 0., 0., 0., 2.19554812e-01, 3.67339104e-01,
          3.67339104e-01, 0., 0., 0., 0., 2.18554456e-02, 3.02772433e-01,
          3.67339104e-01, 0., 0., 0., 0., 1.09487511e-02, 3.67339104e-01,
          3.67339104e-01, 0., 0., 0., 5.12150303e-03, 3.25919986e-01,
          8.14018250e-02, 9.22172517e-02, 0., 0., 0., 1.53645081e-02,
          3.71628314e-01, 3.48708123e-01, 1.08060926e-01, 0., 0., 0., 0.,
          2.36436471e-01, 1.70798004e-01, 3.71628314e-01, 0., 0.,
          5.61247244e-02, 1.87082421e-02, 3.71628314e-01, 3.24902385e-01,
          3.64606351e-01, 0., 0., 0., 1.40230777e-03, 8.33725855e-02,
          2.35066906e-01, 3.99956942e-01, 0., 1.71991915e-01, 0., 0.,
          1.26516446e-02, 1.93181530e-01, 4.17183846e-01, 1.71991915e-01,
          0., 3.78501788e-02, 1.26167247e-02, 1.51264921e-01,
          1.82702348e-01, 4.17183846e-01, 0., 1.79254860e-01,
          1.26167256e-02, 4.20557521e-03, 2.99805794e-02, 1.78032622e-01,
          4.17183846e-01, 1.79254860e-01 ]
      - [ 0., 8.14373419e-03, 2.71457783e-03, 0., 0., 0., 0., 0.,
          5.84266372e-02, 1.94755476e-02, 0., 0., 0., 0., 0.,
          1.73763148e-02, 5.79210510e-03, 0., 0., 0., 0., 0.,
          9.01391357e-02, 3.00463792e-02, 0., 6.99922502e-01,
          6.99922502e-01, 0., 0., 3.43128946e-03, 1.14376319e-03,
          1.10822216e-01, 7.21065153e-05, 2.16319560e-04, 0.,
          1.17603503e-03, 1.04238105e-03, 3.47460358e-04, 3.90027374e-01,
          1.65610842e-03, 6.48958725e-04, 1.17603503e-03, 0.,
          4.14540712e-03, 1.38180237e-03, 3.32466632e-01, 1.99605674e-01,
          3.57995808e-01, 0., 3.92011687e-04, 1.16548280e-03,
          3.90027374e-01, 3.90027374e-01, 3.67070317e-01, 3.37844342e-01,
          3.92011687e-04, 3.10802367e-03, 2.55630654e-03, 4.06556576e-03,
          3.93481195e-01, 2.53079552e-03, 1.51301865e-04, 2.02598609e-03,
          3.92144173e-03, 7.66891986e-03, 1.21966964e-02, 1.05322689e-01,
          8.26787262e-04, 0., 6.75328774e-04, 3.92144173e-03,
          2.51997858e-01, 3.94414634e-01, 3.94414634e-01, 8.51351619e-02,
          5.73133603e-02, 6.75328774e-04, 1.19894342e-02, 3.94414634e-01,
          3.94414634e-01, 3.65258574e-01, 2.48036161e-03, 0.,
          2.25109584e-03, 0., 7.69950263e-03, 2.56650103e-03, 0., 0., 0.,
          0., 0., 2.54626442e-02, 8.48754775e-03, 0., 5.24479091e-01,
          5.24479091e-01, 0., 0., 2.50236169e-02, 8.34120531e-03, 0., 0.,
          0., 0., 0., 9.25593004e-02, 5.22089489e-02, 0., 3.95919502e-01,
          5.24479091e-01, 0., 0., 6.83030521e-04, 2.27676835e-04,
          3.36213633e-02, 1.58220857e-01, 3.12177122e-01, 7.23518506e-02,
          1.22494608e-01, 9.80403129e-05, 3.12177122e-01, 2.20647067e-01,
          2.74519354e-01, 3.12177122e-01, 2.41206154e-01, 2.23312657e-02,
          3.43969860e-03, 3.80343711e-03, 0., 7.69239366e-02,
          3.12177122e-01, 2.37234890e-01, 3.12177122e-01, 7.25243648e-04,
          1.14030875e-01, 2.13797819e-02, 9.94220674e-02, 3.12177122e-01,
          3.12177122e-01, 1.47004440e-01, 2.10515484e-01, 3.15869331e-01,
          1.59883305e-01, 4.09033895e-02, 5.41467555e-02, 6.41360506e-02,
          5.12420014e-02, 3.15869331e-01, 3.15869331e-01, 4.78423275e-02,
          1.74463450e-04, 0., 1.12776021e-02, 3.15869331e-01,
          2.85113841e-01, 2.30034664e-01, 2.58226898e-02, 1.34600000e-02,
          8.30069035e-02, 3.15869331e-01, 2.07048461e-01, 3.15869331e-01,
          3.15869331e-01, 1.12598967e-02, 0., 0., 9.07740071e-02, 0.,
          8.11180845e-02, 2.70393603e-02, 0., 0., 0., 0., 0.,
          4.46710438e-01, 2.97966510e-01, 0., 2.06578434e-01,
          5.20053804e-01, 0., 0., 1.21201731e-01, 4.04005758e-02, 0., 0.,
          0., 0., 0., 5.20053804e-01, 3.15043330e-01, 0., 0., 0., 0.,
          1.19291000e-01, 2.24978644e-02, 2.52001733e-02, 5.02021750e-04,
          1.96688846e-02, 1.76938429e-01, 2.64714897e-01, 4.81661558e-01,
          6.45403052e-03, 1.74068213e-02, 1.50606525e-03, 6.55629486e-03,
          3.48572731e-01, 4.81661558e-01, 3.97636667e-02, 4.97309119e-02,
          3.18324491e-02, 1.50606525e-03, 0., 0., 3.59318778e-02,
          3.78690541e-01, 2.53346674e-02, 4.15956005e-02, 4.51819599e-03,
          0., 0., 3.74166906e-01, 3.95292133e-01, 1.62039325e-01,
          6.26830831e-02, 1.24067126e-03, 0., 4.89597768e-02,
          3.95292133e-01, 3.87541085e-01, 3.95292133e-01, 1.83304369e-01,
          1.91977825e-02, 0., 0., 3.16334665e-01, 3.05969507e-01,
          1.74464774e-03, 7.68920453e-03, 1.01710402e-03, 0., 0.,
          3.11983526e-01, 9.60141942e-02, 0., 7.08834827e-03,
          2.16778368e-02, 0., 0., 9.85946953e-02 ]
      - [ 0., 0., 0., 2.97330648e-01, 1.30595207e-01, 2.37774290e-02, 0.,
          0., 0., 0., 4.38240588e-01, 2.11437002e-01, 8.16637501e-02, 0.,
          0., 0., 0., 4.90340382e-01, 2.02333421e-01, 1.90181762e-03, 0.,
          0., 0., 0., 4.90340382e-01, 3.51476014e-01, 1.73784364e-02, 0.,
          0., 0., 0., 2.37088442e-01, 1.74161673e-01, 1.05041198e-01, 0.,
          0., 0., 0., 2.76380777e-01, 3.08798462e-01, 2.71180212e-01, 0.,
          0., 0., 5.04895113e-03, 4.14142460e-01, 2.88270980e-01,
          2.66750604e-02, 0., 0., 0., 2.22850785e-01, 4.14142460e-01,
          4.14142460e-01, 7.04473332e-02, 0., 5.02152974e-03, 0., 0.,
          2.33894497e-01, 1.96012273e-01, 3.04255247e-01, 3.04738507e-02,
          4.57009412e-02, 0., 0., 8.90102610e-02, 8.37635323e-02,
          9.90575403e-02, 1.22057900e-01, 1.67384313e-03, 7.07923248e-02,
          3.72090012e-01, 3.72090012e-01, 3.72090012e-01, 8.04072246e-02,
          1.01579493e-02, 2.54457649e-02, 2.12376967e-01, 3.72090012e-01,
          3.28422099e-01, 2.14004815e-01, 2.24469006e-02, 5.08980826e-02,
          1.20023740e-02, 0., 0., 4.07934815e-01, 1.70478299e-01,
          3.97295877e-02, 8.05875808e-02, 2.76651774e-02, 0., 0.,
          4.07934815e-01, 2.26458609e-01, 1.32431956e-02, 1.34230137e-01,
          1.19896404e-01, 0., 0., 1.65227756e-01, 5.24446554e-02,
          1.19188771e-01, 4.07934815e-01, 2.56228298e-01, 0., 0.,
          3.04787308e-01, 6.32561147e-02, 3.97295877e-02, 4.07934815e-01,
          1.12521034e-02, 0., 7.12324679e-03, 3.56109560e-01,
          8.68294984e-02, 1.31036108e-02, 9.03775170e-02, 2.24512722e-02,
          7.77959824e-02, 3.14406127e-01, 3.56109560e-01, 9.64672044e-02,
          3.93108353e-02, 1.04984522e-01, 1.98579744e-01, 0.,
          2.37441552e-03, 1.95387214e-01, 1.44622885e-02, 3.93108353e-02,
          3.56109560e-01, 3.56109560e-01, 2.33387932e-01, 1.04802050e-01,
          2.45550439e-01, 2.88163521e-03, 1.17932491e-01, 3.56109560e-01,
          2.07128786e-02, 1.81562647e-01, 3.34656835e-01, 2.41946727e-01,
          3.13824303e-02, 5.62482607e-03, 1.25380484e-02, 1.98143832e-02,
          3.25351000e-01, 3.34656835e-01, 5.87365739e-02, 1.73856188e-02,
          0., 1.29100904e-02, 3.34656835e-01, 3.34656835e-01,
          2.59687781e-01, 6.15854561e-02, 0., 1.68744791e-02,
          1.10725924e-01, 1.87215492e-01, 3.34656835e-01, 3.34656835e-01,
          3.69247533e-02, 0., 0., 3.50097492e-02, 1.19657867e-01, 0., 0.,
          0., 0., 2.59242076e-02, 4.43719536e-01, 2.53293484e-01, 0., 0.,
          0., 0., 1.18053267e-02, 4.43719536e-01, 8.12979564e-02, 0., 0.,
          0., 5.57755195e-02, 1.88717544e-01, 4.43719536e-01,
          1.82388216e-01, 0., 0., 0., 6.57982379e-02, 2.14016810e-01,
          4.43719536e-01, 2.57948160e-01, 0., 0., 0., 0., 7.13806972e-03,
          3.67449403e-01, 3.67449403e-01, 3.92559916e-02, 0., 0., 0.,
          1.98363177e-02, 3.67449403e-01, 2.10544989e-01, 0., 0., 0.,
          3.79848294e-02, 1.15532376e-01, 3.67449403e-01, 3.67449403e-01,
          0., 0., 0., 7.65324011e-02, 2.29597196e-01, 3.67449403e-01,
          3.48697811e-01, 3.11767697e-01, 3.67191285e-02, 0., 0.,
          4.76566888e-03, 2.89676517e-01, 3.30819756e-01, 3.48697811e-01,
          1.10157378e-01, 5.13368025e-02, 0., 0., 6.10629171e-02,
          3.48697811e-01, 1.33091912e-01, 2.34478451e-02, 0.,
          4.49721441e-02, 1.34916425e-01, 3.48697811e-01, 1.55432299e-01,
          3.48697811e-01, 7.03435391e-02, 1.71122681e-02, 1.06951687e-02,
          3.20855044e-02, 9.54451934e-02 ]
      - [ 0., 2.90637184e-03, 9.70910955e-03, 2.79518843e-01,
          7.69379735e-02, 0., 0., 0., 3.71753075e-03, 3.30372751e-02,
          3.85301858e-01, 1.16316468e-01, 0., 0., 4.16798779e-04, 0.,
          2.91343965e-03, 3.85301858e-01, 3.43512058e-01, 2.39660174e-01,
          4.16798779e-04, 0., 0., 1.05993683e-02, 3.85301858e-01,
          3.85301858e-01, 3.57734561e-01, 0., 0., 3.47439054e-04,
          1.55064994e-02, 4.15806621e-01, 6.11806363e-02, 1.71149778e-03,
          0., 0., 0., 9.70737934e-02, 4.15806621e-01, 1.14582628e-01,
          9.28679761e-03, 0., 0., 2.30010715e-03, 4.91984487e-02,
          4.15806621e-01, 1.92777708e-01, 8.03525746e-02, 0., 0.,
          2.11961359e-01, 4.15806621e-01, 4.15806621e-01, 1.15998693e-01,
          1.77854691e-02, 0., 4.65250714e-03, 8.21051449e-02,
          1.68564722e-01, 3.39304030e-01, 7.15243146e-02, 8.15292075e-03,
          0., 3.76916975e-02, 2.46315435e-01, 9.09922346e-02,
          7.17363954e-02, 1.84102990e-02, 2.32804730e-03, 2.37341784e-02,
          1.55083567e-03, 3.87738079e-01, 3.87738079e-01, 3.87738079e-01,
          3.05373967e-02, 0., 0., 2.02092659e-02, 3.87738079e-01,
          3.87738079e-01, 1.04357533e-01, 5.87809365e-03, 0.,
          1.55567573e-02, 4.29695025e-02, 0., 0., 5.95398918e-02,
          1.41782045e-01, 2.36074716e-01, 1.91827044e-01, 1.27238736e-01,
          0., 0., 1.74776316e-01, 2.02856421e-01, 3.52382660e-01,
          3.87520194e-01, 2.03182995e-01, 0., 0., 0., 3.70040350e-02,
          7.86915794e-02, 3.87520194e-01, 3.87520194e-01, 0., 0., 0.,
          5.21125942e-02, 1.17460884e-01, 3.87520194e-01, 7.27554634e-02,
          2.17206939e-03, 4.16151248e-02, 1.09884962e-01, 7.43817613e-02,
          7.58796707e-02, 2.46061221e-01, 2.53426582e-01, 2.40147799e-01,
          3.21093887e-01, 1.68914571e-01, 2.60053985e-02, 1.67954247e-02,
          2.67068297e-01, 3.22533607e-01, 7.24023150e-04, 1.38717070e-02,
          0., 1.94906835e-02, 2.52932273e-02, 3.78700852e-01,
          3.78700852e-01, 1.86677158e-01, 9.52150300e-02, 0.,
          5.76844066e-03, 5.59847523e-03, 3.78700852e-01, 2.04269379e-01,
          3.42207968e-01, 3.42207968e-01, 5.06125018e-02, 8.88282433e-04,
          0., 4.01538126e-02, 6.43858165e-02, 3.42207968e-01,
          2.54410118e-01, 1.27943363e-02, 0., 0., 3.09375161e-03,
          3.42207968e-01, 3.42207968e-01, 1.38013169e-01, 4.46349243e-03,
          2.49473006e-03, 0., 2.59230316e-01, 2.28513449e-01,
          3.42207968e-01, 1.95553839e-01, 1.47250779e-02, 7.48419110e-03,
          0., 4.46372479e-02, 3.62355471e-01, 0., 0., 1.80225261e-02,
          3.70125882e-02, 4.19280864e-03, 4.05724287e-01, 4.05724287e-01,
          0., 1.78571567e-02, 6.73215315e-02, 1.11037768e-01,
          1.39760284e-03, 4.05724287e-01, 9.82584208e-02, 0., 0.,
          5.40675707e-02, 1.35674879e-01, 8.64897221e-02, 1.13364130e-01,
          1.96324259e-01, 4.31786887e-02, 6.79643676e-02, 2.01964572e-01,
          3.78238767e-01, 1.39569327e-01, 2.28551865e-01, 4.20682192e-01,
          1.32696796e-02, 1.65364593e-02, 2.94824168e-02, 1.01936460e-02,
          0., 4.20682192e-01, 4.20682192e-01, 9.39249694e-02,
          1.73074268e-02, 4.09264900e-02, 5.99743892e-03, 0.,
          4.20682192e-01, 1.15855686e-01, 8.51958320e-02, 6.47383109e-02,
          8.84472430e-02, 3.43932882e-02, 1.14370370e-02, 1.27362430e-01,
          3.01894009e-01, 2.06771076e-01, 8.10369179e-02, 1.22779474e-01,
          1.79923158e-02, 0., 2.63740480e-01, 3.59566897e-01,
          2.46331275e-01, 3.09258066e-02, 7.94456676e-02, 2.24100836e-02,
          0., 3.59566897e-01, 3.36581409e-01, 3.59566897e-01,
          8.27834383e-02, 8.03228840e-02, 3.75627801e-02, 0.,
          1.76095411e-01, 2.69169450e-01, 2.11643800e-01, 4.70760465e-02,
          1.84495986e-01, 3.71374935e-02, 0., 2.09237888e-01,
          2.01112330e-01, 3.59566897e-01, 5.08269258e-02, 7.94456676e-02,
          2.24100836e-02, 0., 5.73514327e-02 ]
      - [ 9.12633166e-02, 2.70403713e-01, 1.54371057e-02, 6.67540282e-02,
          4.64531258e-02, 1.52708907e-02, 1.91367455e-02, 2.40421873e-02,
          9.01345760e-02, 5.14570158e-03, 2.00262085e-01, 1.66696221e-01,
          4.62802976e-01, 1.04776602e-02, 2.33062059e-01, 7.77051300e-02,
          0., 1.81610227e-01, 1.59224167e-01, 0., 3.06525920e-02,
          6.74698204e-02, 2.59017106e-02, 0., 2.49644354e-01,
          4.62802976e-01, 4.62802976e-01, 3.49255372e-03, 0.,
          6.70839101e-03, 2.23613018e-03, 2.07942978e-01, 5.28047346e-02,
          3.59634936e-01, 6.90413918e-03, 8.76944885e-03, 2.66684800e-01,
          4.31789830e-02, 3.59634936e-01, 7.91987255e-02, 1.64116755e-01,
          2.30138004e-03, 6.01298437e-02, 0., 0., 1.11707591e-01,
          2.98842400e-01, 3.59634936e-01, 6.24312237e-02, 2.06697881e-01,
          3.59634936e-01, 1.08432494e-01, 2.78206140e-01, 1.05293706e-01,
          2.03896895e-01, 1.81156665e-01, 1.25617636e-02, 3.57084870e-01,
          5.35426550e-02, 1.10549383e-01, 2.17489004e-02, 7.07093701e-02,
          5.41528361e-03, 4.18725517e-03, 1.17727794e-01, 1.74140558e-02,
          2.71570146e-01, 2.91420054e-03, 1.42187297e-01, 1.62458494e-02,
          7.26557001e-02, 4.13111597e-01, 1.55323714e-01, 5.39331846e-02,
          8.01269487e-02, 2.32294917e-01, 5.12162559e-02, 1.25617636e-02,
          2.73826599e-01, 5.17745726e-02, 4.13111597e-01, 2.27374524e-01,
          4.13111597e-01, 4.87375520e-02, 3.23460586e-02, 4.10449633e-04,
          0., 1.46581486e-01, 1.62895873e-01, 5.13497368e-03,
          8.00460763e-03, 8.11381731e-03, 1.36816539e-04, 0.,
          2.94751436e-01, 4.15258020e-01, 2.07604825e-01, 0.,
          1.84489787e-03, 0., 0., 1.01177491e-01, 4.15258020e-01,
          1.26303747e-01, 1.84489787e-03, 0., 0., 0., 4.15258020e-01,
          4.15258020e-01, 3.17326844e-01, 0., 1.30581543e-01,
          9.82458587e-04, 0., 1.61366343e-01, 2.77278304e-01,
          1.71778709e-01, 7.23174736e-02, 3.60804528e-01, 2.20933661e-01,
          1.15789585e-01, 1.60771161e-01, 8.10065418e-02, 5.66451326e-02,
          2.16952398e-01, 1.98898047e-01, 2.94737564e-03, 5.96462041e-02,
          3.60804528e-01, 2.08610669e-01, 6.52584061e-02, 2.41058227e-02,
          3.60804528e-01, 5.91811910e-02, 2.71800995e-01, 3.60804528e-01,
          4.29136865e-02, 1.10916775e-02, 7.23174736e-02, 7.56877214e-02,
          2.88470685e-01, 1.52949497e-01, 1.30252689e-01, 1.17732063e-01,
          1.51323035e-01, 4.12225425e-02, 1.88545021e-03, 9.59812626e-02,
          5.09831719e-02, 1.52107671e-01, 3.53196174e-01, 3.78853410e-01,
          7.31523242e-03, 1.06669769e-01, 6.80748820e-02, 1.54652864e-01,
          3.78853410e-01, 1.83625564e-01, 1.18152998e-01, 1.29280444e-02,
          0., 2.21647285e-02, 4.08881307e-02, 1.50100395e-01,
          3.78853410e-01, 3.54458958e-01, 0., 0., 0., 0., 1.76763441e-02,
          2.10194439e-01, 1.69803113e-01, 0., 0., 0., 0., 1.27747893e-01,
          4.11529750e-01, 3.70533675e-01, 0., 0., 0., 0., 3.73578398e-03,
          3.36853296e-01, 3.82517278e-01, 0., 0., 0., 0., 3.27589773e-02,
          4.11529750e-01, 4.11529750e-01, 0., 4.06156182e-02,
          2.88431756e-02, 1.46181419e-01, 2.04213932e-01, 2.12824598e-01,
          7.16656744e-02, 0., 1.21846847e-01, 8.65295231e-02,
          4.52599049e-01, 1.95027515e-01, 4.60657626e-02, 0., 0., 0.,
          1.46557972e-01, 1.86145037e-01, 5.40030450e-02, 3.02252293e-01,
          2.09521830e-01, 0., 0., 4.52599049e-01, 4.52599049e-01,
          5.74541576e-02, 6.71467111e-02, 1.88276414e-02, 0.,
          2.36452911e-02, 1.67916995e-02, 2.92125612e-01, 1.34538040e-01,
          1.83119237e-01, 6.43918663e-02, 0., 2.96736639e-02, 0.,
          6.90076202e-02, 4.20021266e-02, 5.06644011e-01, 1.93175599e-01,
          2.96736639e-02, 0., 1.66312933e-01, 4.00167704e-01,
          4.07370329e-02, 2.01632708e-01, 6.13951869e-02, 0.,
          8.90209973e-02, 2.69969832e-02, 9.72664058e-02, 1.26310475e-02,
          5.06644011e-01, 1.84185579e-01, 8.90209973e-02 ]
      - [ 2.16409549e-01, 3.62833470e-01, 1.48961186e-01, 0.,
          3.01073794e-03, 9.95401070e-02, 2.42879882e-01, 3.53599675e-02,
          2.44195342e-01, 5.14798351e-02, 0., 9.03221406e-03,
          3.62833470e-01, 1.88297614e-01, 1.07484214e-01, 3.62833470e-01,
          8.61792341e-02, 0., 3.46206389e-02, 8.03926960e-02,
          1.41940236e-01, 1.87835358e-02, 2.25523978e-01, 2.87264138e-02,
          0., 1.28414020e-01, 3.62833470e-01, 3.42731774e-01,
          4.98019569e-02, 1.74947977e-02, 5.51328845e-02, 1.11530349e-01,
          1.85962010e-03, 1.78925082e-01, 1.50937498e-01, 7.56242648e-02,
          3.37166309e-01, 1.57990456e-01, 3.34591061e-01, 0.,
          3.91476266e-02, 4.32419516e-02, 7.13403523e-02, 0.,
          6.60584718e-02, 4.42780666e-02, 5.87353408e-02, 3.72771263e-01,
          3.46980006e-01, 3.01244557e-01, 3.72771263e-01, 2.35526860e-01,
          1.32834196e-01, 1.24504901e-02, 1.54794365e-01, 2.49676540e-01,
          1.15213253e-01, 4.32066530e-01, 5.58706596e-02, 6.02691360e-02,
          0., 0., 0., 1.47784933e-01, 4.32066530e-01, 8.74511525e-02,
          7.26459622e-02, 0., 0., 0., 2.06901729e-01, 4.32066530e-01,
          1.93410322e-01, 3.87317277e-02, 0., 0., 2.79374477e-02,
          1.27416670e-01, 3.88721615e-01, 3.53881359e-01, 6.92685395e-02,
          0., 0., 3.13017406e-02, 1.49308061e-02, 3.98860931e-01,
          1.66273981e-01, 4.98530455e-03, 8.41378793e-02, 3.77751179e-02,
          2.04881560e-02, 1.51697919e-03, 1.51693344e-01, 5.54246604e-02,
          4.26490754e-02, 3.16969007e-01, 2.62844890e-01, 6.06988370e-02,
          1.03082052e-02, 3.98860931e-01, 3.42182070e-01, 4.34998870e-02,
          2.47728467e-01, 1.05716502e-02, 1.03082052e-02, 0.,
          1.57707334e-01, 1.14060692e-01, 2.40369648e-01, 3.98860931e-01,
          6.66772947e-02, 0., 6.60943985e-02, 0., 3.15921083e-02,
          4.28542644e-02, 1.27337560e-01, 2.12654978e-01, 1.10568963e-01,
          2.18839034e-01, 2.16925681e-01, 2.15333119e-01, 1.27977133e-01,
          2.77575292e-02, 6.42904267e-02, 2.11343408e-01, 2.20314674e-02,
          0., 6.74082041e-02, 2.08958283e-01, 4.00524467e-01,
          6.19613938e-02, 2.20314674e-02, 6.60943985e-02, 4.50993218e-02,
          4.00524467e-01, 4.00524467e-01, 4.00524467e-01, 4.90094721e-02,
          6.60943985e-02, 4.68436517e-02, 2.23792240e-01, 2.12047398e-01,
          1.10212013e-01, 0., 0., 2.65250336e-02, 3.64921093e-02,
          9.95839760e-02, 2.80331761e-01, 8.76611471e-02, 0., 0.,
          2.97192372e-02, 8.84167757e-03, 1.30035207e-01, 4.38895911e-01,
          3.41340274e-01, 4.32735421e-02, 4.54513635e-03, 8.84167757e-03,
          9.90641396e-03, 2.71228641e-01, 4.38895911e-01, 4.38895911e-01,
          0., 0., 9.90641396e-03, 6.98866928e-03, 1.91678762e-01,
          2.11870596e-01, 7.35885724e-02, 2.14025825e-01, 0.,
          6.98866928e-03, 0., 6.38929233e-02, 9.99249145e-02,
          2.51089394e-01, 4.14624900e-01, 0., 0., 1.74280610e-02,
          5.43691665e-02, 2.26133421e-01, 1.37239963e-01, 2.87918150e-01,
          9.76339355e-02, 1.74280610e-02, 0., 5.36538400e-02,
          1.75125524e-01, 3.95808637e-01, 4.14624900e-01, 2.92901784e-01,
          0., 0., 0., 6.00363277e-02, 1.82142332e-01, 3.27851474e-01,
          9.88506991e-03, 0., 1.26856193e-01, 2.13907030e-03,
          3.15081269e-01, 1.30845353e-01, 3.28165352e-01, 2.96552088e-02,
          0., 0., 1.47529334e-01, 2.05398023e-01, 3.06018949e-01,
          2.02191129e-01, 4.72109802e-02, 0., 3.56886029e-01,
          3.56886029e-01, 3.56886029e-01, 1.28270432e-01, 1.07885398e-01,
          9.88506991e-03, 0., 1.53630510e-01, 6.79837391e-02,
          3.94795239e-01, 8.30902085e-02, 7.00267106e-02, 4.86046541e-03,
          0., 5.12101725e-02, 1.97043091e-01, 3.94795239e-01,
          3.94795239e-01, 7.12528974e-02, 0., 0., 3.94795239e-01,
          2.24413022e-01, 2.15229809e-01, 2.55890470e-02, 8.66781473e-02,
          1.62015494e-03, 0., 1.53630510e-01, 1.11587167e-01,
          1.68893069e-01, 2.66260475e-01, 2.13758692e-01, 0., 0. ]
      - [ 7.11295232e-02, 1.42002897e-02, 3.79885286e-02, 0.,
          1.03104953e-02, 8.48755017e-02, 4.46404628e-02, 1.66239545e-01,
          4.73342976e-03, 1.26628419e-02, 0., 4.96126823e-02,
          3.76078337e-01, 1.46296158e-01, 2.24818647e-01, 1.10644605e-02,
          1.51692539e-01, 4.11007375e-01, 2.61423318e-03, 2.58240402e-02,
          1.45351440e-01, 4.11007375e-01, 3.68815335e-03, 5.05641922e-02,
          4.11007375e-01, 2.79261358e-02, 1.10608146e-01, 4.11007375e-01,
          1.85776159e-01, 2.22122278e-02, 0., 0., 1.85682457e-02,
          1.21440858e-01, 8.55083466e-02, 3.90533298e-01, 6.94028214e-02,
          9.22046835e-04, 0., 8.74226168e-03, 4.26422134e-02,
          2.92808920e-01, 3.90533298e-01, 6.66366741e-02, 0.,
          3.90533298e-01, 1.92929097e-02, 3.28423530e-02, 1.13105513e-01,
          3.90533298e-01, 1.99910045e-01, 0., 3.90533298e-01,
          3.35741118e-02, 8.31611361e-03, 1.54313833e-01, 3.59810352e-01,
          1.19546484e-02, 1.17685611e-03, 0., 5.12481434e-04,
          1.53744430e-03, 1.58838183e-01, 3.59810352e-01, 3.70135880e-03,
          1.23378623e-03, 0., 0., 0., 2.46031046e-01, 3.59810352e-01,
          2.52722409e-02, 2.20802333e-02, 3.59810352e-01, 1.84810944e-02,
          0., 1.38091043e-01, 3.59810352e-01, 0., 6.62406906e-02,
          3.59810352e-01, 5.73397987e-03, 0., 3.29762816e-01,
          2.17945948e-02, 6.55594398e-04, 1.00781687e-01, 3.05400699e-01,
          9.84420553e-02, 9.99170244e-02, 1.59796607e-02, 3.64932641e-02,
          2.18531466e-04, 1.39045969e-01, 3.05400699e-01, 4.16302867e-02,
          3.33056748e-02, 3.21152546e-02, 2.11766124e-01, 0.,
          1.01102717e-01, 2.01582015e-01, 2.95326173e-01, 2.99751073e-01,
          2.98660129e-01, 3.05400699e-01, 0., 3.05400699e-01,
          3.05400699e-01, 1.01380818e-01, 9.99170244e-02, 3.05400699e-01,
          5.15717715e-02, 7.87331164e-03, 6.67986199e-02, 3.88962001e-01,
          1.36625813e-02, 0., 1.12455590e-02, 1.02807723e-01,
          2.36199349e-02, 5.46535254e-02, 3.88962001e-01, 2.84837391e-02,
          0., 7.53811700e-03, 1.98934391e-01, 0., 2.00395867e-01,
          3.79010707e-01, 4.55419393e-03, 0., 2.78563887e-01,
          7.11090267e-02, 0., 1.63960561e-01, 3.88962001e-01,
          9.49458033e-03, 1.88250437e-01, 3.88962001e-01, 3.32083032e-02,
          1.94913207e-03, 7.15333521e-02, 3.87933105e-01, 1.05320793e-02,
          0., 7.38769770e-03, 3.70787010e-02, 0., 1.84542403e-01,
          3.87933105e-01, 3.26770311e-03, 0., 2.14965083e-02,
          1.38732966e-03, 0., 1.81044951e-01, 3.87933105e-01,
          3.51069355e-03, 2.05309987e-01, 1.38875827e-01, 0., 0.,
          3.87933105e-01, 3.87933105e-01, 1.08923425e-03, 3.09834987e-01,
          1.05557427e-01, 3.34747195e-01, 0., 1.97213553e-02,
          2.59462260e-02, 9.84599665e-02, 1.34755179e-01, 3.34747195e-01,
          3.34747195e-01, 0., 8.87223780e-02, 8.94385651e-02,
          9.42318514e-02, 1.25252813e-01, 3.34747195e-01, 1.34122759e-01,
          0., 0., 6.74553681e-03, 9.58564430e-02, 2.62374312e-01,
          1.89697996e-01, 2.35583335e-01, 0., 0., 9.86176804e-02,
          3.03953350e-01, 3.34747195e-01, 2.78139353e-01, 3.11912268e-01,
          0., 4.59355228e-02, 1.00190379e-01, 8.45085755e-02,
          1.31259151e-02, 3.11912268e-01, 1.20440811e-01, 0.,
          3.75836827e-02, 2.02405795e-01, 1.19735271e-01, 3.11912268e-01,
          3.11912268e-01, 1.12314954e-01, 3.35816992e-03, 1.11939001e-03,
          1.67632505e-01, 2.92039901e-01, 1.54920325e-01, 1.57272384e-01,
          4.01469357e-02, 1.00745093e-02, 3.35816992e-03, 2.20677420e-01,
          3.11912268e-01, 3.11912268e-01, 3.11912268e-01, 1.89072068e-03,
          0., 3.26185897e-02, 5.96246906e-02, 6.91182818e-03,
          3.78071249e-01, 2.06582323e-01, 5.82153611e-02, 0.,
          8.12241286e-02, 3.78071249e-01, 0., 3.78071249e-01,
          2.34577790e-01, 6.30240247e-04, 6.68937108e-04, 2.22979026e-04,
          1.23103652e-02, 3.71662490e-02, 3.78071249e-01, 1.15035519e-01,
          1.74646080e-01, 0., 0., 1.42570049e-01, 3.33031341e-02,
          3.78071249e-01, 3.20109755e-01 ]
      - [ 0., 0., 0., 2.99560189e-01, 1.27194613e-01, 1.37495091e-02, 0.,
          0., 0., 0., 4.40222710e-01, 2.53565788e-01, 2.03957651e-02, 0.,
          0., 0., 0., 4.40222710e-01, 2.38472417e-01, 0., 0., 0., 0., 0.,
          4.40222710e-01, 4.31891322e-01, 0., 0., 0., 0., 0.,
          2.66100824e-01, 2.12104633e-01, 2.58079618e-02, 0., 0., 0., 0.,
          4.02800024e-01, 2.97523916e-01, 6.12126812e-02, 0., 0., 0., 0.,
          4.22155440e-01, 3.09413373e-01, 1.16140058e-03, 0., 0., 0.,
          2.49337610e-02, 4.22155440e-01, 4.14730430e-01, 3.48420162e-03,
          0., 0., 0., 0., 3.52881640e-01, 1.14509739e-01, 7.68532306e-02,
          1.38593093e-02, 2.11528130e-02, 0., 0., 3.73168290e-01,
          3.21027674e-02, 1.45403028e-01, 6.27307370e-02, 0., 0.,
          2.29571208e-01, 4.53493834e-01, 1.17292456e-01, 1.33794937e-02,
          4.61976929e-03, 7.05093844e-03, 0., 4.53493834e-01,
          4.53493834e-01, 1.87695902e-02, 3.81294154e-02, 2.09102482e-02,
          1.55749312e-02, 0., 0., 4.12660360e-01, 1.99459121e-01,
          2.18174700e-02, 1.32824868e-01, 3.54432650e-02, 0., 0.,
          4.12660360e-01, 2.70557493e-01, 7.27249030e-03, 1.85502186e-01,
          6.41473830e-02, 0., 0., 1.42982498e-01, 5.81513196e-02,
          1.00084171e-01, 4.12660360e-01, 1.99505463e-01, 0., 0.,
          2.52611995e-01, 7.05070719e-02, 3.33613940e-02, 4.12660360e-01,
          1.82654876e-02, 0., 0., 4.13641989e-01, 1.71021268e-01,
          1.01571875e-02, 1.21777520e-01, 5.17692510e-03, 0.,
          4.08132412e-02, 4.13641989e-01, 2.50744730e-01, 4.54423688e-02,
          2.46094614e-01, 1.53483137e-01, 0., 0., 1.37462199e-01,
          4.36105169e-02, 3.04715633e-02, 4.13641989e-01, 1.51191950e-01,
          0., 1.36044165e-02, 2.19872624e-01, 6.71179965e-02,
          1.36327103e-01, 4.13641989e-01, 7.51873152e-03, 6.17593043e-02,
          2.62404710e-01, 3.33038419e-01, 3.53218876e-02, 1.89370327e-02,
          1.00321017e-01, 2.25561950e-02, 1.85277909e-01, 3.33038419e-01,
          3.33038419e-01, 2.00388371e-03, 4.94906772e-03, 2.69904807e-02,
          2.03042641e-01, 2.34708577e-01, 8.74682367e-02, 1.22581370e-01,
          8.19522981e-03, 5.68110980e-02, 3.33038419e-01, 3.33038419e-01,
          3.33038419e-01, 2.26425797e-01, 1.05383053e-01, 0.,
          1.48472041e-02, 1.62212923e-01, 7.92858675e-02, 0., 0., 0., 0.,
          5.15307263e-02, 4.29781199e-01, 2.17794597e-01, 0., 0., 0., 0.,
          1.71769094e-02, 4.29781199e-01, 1.60329133e-01, 0., 0., 0.,
          6.03311732e-02, 1.94671839e-01, 4.29781199e-01, 3.07822853e-01,
          0., 0., 0., 6.04291782e-02, 1.85846940e-01, 4.29781199e-01,
          1.87634140e-01, 0., 0., 0., 0., 4.78185760e-03, 4.28922266e-01,
          2.27640033e-01, 0., 0., 0., 0., 2.77377255e-02, 4.28922266e-01,
          2.31951743e-01, 0., 0., 0., 2.26469208e-02, 6.79407567e-02,
          4.28922266e-01, 2.56124586e-01, 0., 0., 0., 6.31618500e-02,
          2.08517879e-01, 4.28922266e-01, 2.96503901e-01, 1.03620149e-01,
          0., 0., 0., 1.82393845e-02, 3.52394164e-01, 3.52394164e-01,
          3.10860425e-01, 0., 9.24007315e-03, 0., 5.31000225e-03,
          3.16451907e-01, 2.07398638e-01, 2.29156502e-02, 0., 0.,
          3.87149677e-02, 1.38783917e-01, 3.52394164e-01, 3.52394164e-01,
          6.87469468e-02, 0., 2.77202185e-02, 2.91967448e-02,
          9.51365754e-02, 3.52394164e-01 ]
      - [ 0., 0., 0., 1.24884769e-02, 3.62707257e-01, 2.80699402e-01, 0.,
          7.76204541e-02, 7.36447349e-02, 2.45482437e-02, 0.,
          3.62707257e-01, 3.52094471e-01, 3.58625464e-02, 0., 0., 0.,
          4.07683700e-02, 3.62707257e-01, 3.36569697e-01, 0.,
          2.32861355e-01, 1.25690535e-01, 1.44080266e-01, 9.90881678e-03,
          3.62707257e-01, 1.91044644e-01, 1.07587636e-01, 9.26634744e-02,
          8.79172534e-02, 1.67078465e-01, 1.97152458e-02, 6.65493608e-02,
          7.32508898e-02, 6.06843568e-02, 3.08878273e-02, 2.93057542e-02,
          3.78907084e-01, 5.91457374e-02, 2.09466681e-01, 1.97270572e-01,
          1.39430031e-01, 2.77990431e-01, 1.57682374e-01, 2.90598303e-01,
          8.17265268e-03, 9.62544233e-02, 9.31158140e-02, 1.82053074e-01,
          9.26634744e-02, 7.29147568e-02, 3.78907084e-01, 1.97152458e-02,
          6.53009191e-02, 3.78907084e-01, 3.78907084e-01, 0., 0.,
          2.97307316e-02, 4.25446080e-03, 2.83864349e-01, 1.90093145e-01,
          4.18830477e-02, 5.91891892e-02, 0., 0., 0., 3.56805027e-01,
          3.56805027e-01, 7.18646795e-02, 0., 1.64710928e-03,
          2.55922470e-02, 1.41815364e-03, 3.56805027e-01, 3.56805027e-01,
          1.78829283e-01, 1.77567586e-01, 0., 0., 2.15400364e-02,
          3.56805027e-01, 3.35820168e-01, 2.33320728e-01, 4.09373129e-03,
          0., 0., 1.22301131e-02, 3.21048111e-01, 1.86646610e-01,
          4.97730300e-02, 4.30261865e-02, 1.06062807e-01, 1.35043085e-01,
          1.73476145e-01, 2.19414860e-01, 6.40135854e-02, 1.63524032e-01,
          2.70973034e-02, 0., 0., 1.32576963e-02, 1.90436542e-01,
          3.57172906e-01, 3.13947886e-01, 4.17822860e-02, 3.53542715e-02,
          4.50143665e-02, 3.57172906e-01, 2.53802776e-01, 3.57172906e-01,
          3.57172906e-01, 2.66227648e-02, 9.22559649e-02, 1.97694808e-01,
          1.71176434e-01, 1.40584875e-02, 7.38289766e-03, 3.31419855e-02,
          8.41911510e-03, 4.44165543e-02, 2.97246069e-01, 1.75273210e-01,
          1.66487843e-01, 3.27366233e-01, 1.05176233e-01, 4.09624772e-03,
          3.07519902e-02, 2.19633147e-01, 3.72359127e-01, 1.42413497e-01,
          8.84772092e-02, 7.47239962e-02, 0., 1.48055172e-02,
          3.72359127e-01, 3.72359127e-01, 3.72359127e-01, 1.09707557e-01,
          2.23905649e-02, 0., 1.42065808e-03, 2.40524486e-02,
          2.61193477e-02, 2.65011609e-01, 2.86507815e-01, 6.05355874e-02,
          2.07272582e-02, 0., 0., 1.15894437e-01, 3.40118796e-01,
          2.96554178e-01, 4.04556170e-02, 0., 4.73552645e-04,
          5.06396033e-02, 2.23251328e-01, 3.40118796e-01, 3.00022453e-01,
          1.52895730e-02, 8.36038142e-02, 0., 0., 3.40118796e-01,
          3.40118796e-01, 3.40118796e-01, 8.87003392e-02, 1.97120942e-02,
          0., 0., 1.32121611e-03, 1.18425591e-02, 2.25777432e-01,
          1.81922033e-01, 7.95271154e-03, 0., 0., 5.32915108e-02,
          1.80519566e-01, 4.61998522e-01, 2.65345931e-01, 2.34823897e-02,
          0., 0., 0., 6.36556670e-02, 4.61998522e-01, 1.45416111e-01,
          1.31910387e-03, 0., 0., 0., 3.56775284e-01, 4.61998522e-01,
          1.07318379e-01, 5.33121463e-04, 0., 6.52993992e-02,
          9.97857526e-02, 1.83969304e-01, 2.59200305e-01, 3.10545880e-02,
          0., 0., 1.95898175e-01, 3.66346955e-01, 3.66346955e-01,
          1.42102331e-01, 0., 0., 0., 1.68249514e-02, 1.11234058e-02,
          2.84525186e-01, 3.66346955e-01, 9.81059298e-03, 0., 0.,
          5.04748523e-02, 2.57874966e-01, 3.66346955e-01, 3.66346955e-01,
          0., 7.81940855e-03, 3.71190049e-02, 2.79960074e-02,
          2.87919581e-01, 3.15252036e-01, 1.20552383e-01, 0.,
          2.00933978e-01, 1.11357018e-01, 0., 1.44705608e-01,
          3.15252036e-01, 3.15252036e-01, 1.77475765e-01, 2.34582238e-02,
          1.91074222e-01, 3.37858126e-02, 2.41840914e-01, 3.15252036e-01,
          1.51652291e-01, 0., 2.71252751e-01, 3.15252036e-01,
          7.97172114e-02, 7.90239796e-02, 2.01138794e-01, 9.16092917e-02,
          2.00878084e-01 ]
      - [ 8.19545537e-02, 1.78935051e-01, 6.35358244e-02, 1.58370845e-02,
          1.65703461e-01, 1.78006515e-02, 2.37717060e-03, 2.65257936e-02,
          5.96450232e-02, 2.11786088e-02, 2.73925234e-02, 4.38066244e-01,
          4.38066244e-01, 3.99186052e-02, 4.66337427e-02, 4.88313250e-02,
          1.58166364e-01, 2.02594906e-01, 3.14036429e-01, 1.95670072e-02,
          2.01079529e-02, 8.84193089e-03, 1.62771065e-02, 5.27221225e-02,
          1.33872107e-01, 4.38066244e-01, 3.88348252e-01, 1.33062014e-02,
          0., 7.67383631e-03, 2.55794544e-03, 3.21471840e-02,
          2.72443563e-01, 3.77309650e-01, 9.83711258e-02, 0.,
          4.47963513e-02, 7.91861862e-02, 8.55729580e-02, 2.19124511e-01,
          1.86076894e-01, 1.80568650e-01, 8.41655433e-02, 0., 0.,
          2.03766953e-02, 3.77309650e-01, 3.66067469e-01, 2.13312581e-01,
          2.52496600e-01, 7.25828065e-03, 2.38374509e-02, 2.85243187e-02,
          2.02105656e-01, 2.45466754e-01, 3.77309650e-01, 0.,
          2.66737025e-02, 7.77486786e-02, 1.24107460e-02, 2.21479505e-01,
          1.31115794e-01, 2.41115149e-02, 2.23541074e-02, 7.77828880e-03,
          2.55452469e-02, 2.45704595e-02, 4.02007788e-01, 3.23035270e-01,
          2.23541074e-02, 3.66198793e-02, 7.77828880e-03, 2.55452469e-02,
          4.13691578e-03, 2.95205086e-01, 3.44512969e-01, 3.00806254e-01,
          7.45136887e-02, 2.59276270e-03, 8.51508137e-03, 7.37113804e-02,
          4.02007788e-01, 4.02007788e-01, 1.45922035e-01, 2.20389869e-02,
          0., 2.01172661e-02, 2.38661259e-01, 2.17978567e-01,
          1.72811840e-02, 2.20389869e-02, 0., 0., 6.70575583e-03,
          2.74779260e-01, 3.90030891e-01, 1.03499614e-01, 0.,
          4.30699550e-02, 0., 0., 3.90030891e-01, 3.90030891e-01,
          1.75869107e-01, 4.30699550e-02, 0., 0., 4.13118973e-02,
          3.90030891e-01, 3.89803290e-01, 8.30934942e-02, 0.,
          9.39546600e-02, 0., 5.22065535e-02, 8.88563097e-02,
          1.32433444e-01, 7.54136741e-02, 6.16687387e-02, 2.81863958e-01,
          0., 1.56619653e-01, 3.94752547e-02, 1.62382036e-01,
          1.64371029e-01, 3.69086176e-01, 3.13182175e-02, 0.,
          2.09421158e-01, 3.69086176e-01, 4.45486829e-02, 1.46321002e-02,
          1.21840984e-02, 9.39546600e-02, 0., 3.69086176e-01,
          3.69086176e-01, 3.69086176e-01, 2.03645557e-01, 1.10936835e-01,
          2.74616778e-02, 0., 1.52592706e-02, 2.18359823e-03,
          2.25471348e-01, 2.19298527e-01, 1.78674802e-01, 5.02908193e-02,
          0., 0., 7.48093193e-03, 3.64017636e-01, 3.64017636e-01,
          1.03840776e-01, 9.15389135e-03, 0., 4.57778126e-02,
          7.48231858e-02, 3.64017636e-01, 3.09543014e-01, 1.00116223e-01,
          1.67636070e-02, 0., 0., 2.18933448e-01, 3.64017636e-01,
          3.64017636e-01, 1.63628638e-01, 1.27344169e-02, 0., 0.,
          1.41673937e-01, 2.67773718e-01, 3.06111366e-01, 1.27344169e-02,
          0., 0., 1.36263788e-01, 3.39243144e-01, 2.13053226e-01,
          1.02037124e-01, 0., 3.27150919e-03, 0., 0., 1.24028534e-01,
          3.38770807e-01, 3.39243144e-01, 3.27150919e-03, 0.,
          2.19928287e-02, 3.27465177e-01, 2.62980133e-01, 2.90056974e-01,
          3.39243144e-01, 0., 0., 0., 2.42711768e-01, 2.61949629e-01,
          2.86540445e-02, 0., 0., 0., 0., 1.75718009e-01, 3.80733222e-01,
          3.22827548e-01, 2.26381030e-02, 0., 0., 3.34348381e-02,
          3.80733222e-01, 1.79123506e-01, 6.54997155e-02, 1.18261568e-01,
          0., 0., 4.45797853e-02, 3.14479917e-01, 3.80733222e-01,
          3.10458690e-01, 2.20498905e-01, 0., 0., 0., 1.09042171e-02,
          1.88790679e-01, 2.67375588e-01, 1.71965942e-01, 4.31934260e-02,
          0., 0., 0., 3.49408746e-01, 1.51851460e-01, 3.66909593e-01,
          1.29580274e-01, 0., 2.52555721e-02, 2.24636849e-02,
          3.66909593e-01, 1.92923024e-01, 3.32381189e-01, 1.43978084e-02,
          0., 8.41852464e-03, 2.80617480e-03, 3.66909593e-01,
          7.89184868e-02, 3.66909593e-01, 4.31934260e-02 ]
      - [ 1.22643961e-02, 0., 0., 0., 3.14321131e-01, 4.11130160e-01,
          1.50095532e-02, 5.27911149e-02, 0., 0., 0., 1.40487373e-01,
          4.11130160e-01, 5.40111810e-02, 1.19029330e-02, 1.31774461e-04,
          0., 0., 3.44510734e-01, 4.11130160e-01, 1.23236002e-02,
          1.81817755e-01, 3.95323441e-04, 1.08163459e-02, 1.09206416e-01,
          1.21389762e-01, 4.11130160e-01, 1.27863541e-01, 7.45527595e-02,
          0., 0., 0., 1.87522527e-02, 3.32210511e-01, 2.15758786e-01,
          2.94169821e-02, 1.52823946e-03, 5.09413192e-04, 0.,
          1.85851231e-02, 3.32210511e-01, 3.32210511e-01, 2.28139058e-01,
          7.55555666e-05, 1.52750788e-02, 1.54223651e-01, 1.22008406e-01,
          2.66554177e-01, 3.32210511e-01, 7.60747790e-02, 0.,
          5.09169325e-03, 5.14078960e-02, 3.32210511e-01, 3.32210511e-01,
          3.32210511e-01, 9.12776310e-03, 2.26922438e-01, 7.97361061e-02,
          0., 4.43083514e-03, 2.20676631e-01, 1.68923736e-01,
          3.04258801e-03, 3.59184116e-01, 2.36492738e-01, 5.01637906e-02,
          0., 5.08639216e-02, 1.58513449e-02, 3.04258801e-03,
          2.65688598e-01, 9.33921635e-02, 0., 9.78813916e-02,
          3.59184116e-01, 3.24083060e-01, 1.01419596e-03, 3.59184116e-01,
          2.80176491e-01, 2.14385733e-01, 0., 3.03218007e-01,
          5.05586043e-02, 6.13994850e-03, 1.03532846e-04, 0., 0.,
          1.50378391e-01, 3.98865581e-01, 8.75681639e-04, 3.52597684e-02,
          3.10598523e-04, 8.49820953e-03, 8.58015269e-02, 2.74313748e-01,
          2.69654959e-01, 1.31416311e-02, 2.04664958e-03, 3.45109474e-05,
          0., 0., 3.95586163e-01, 3.98865581e-01, 1.24791432e-02,
          8.30790475e-02, 1.03532846e-04, 2.83273682e-03, 2.86005121e-02,
          3.98865581e-01, 3.98865581e-01, 1.25696301e-01, 3.52493227e-02,
          7.66420344e-05, 1.86116789e-02, 2.38704711e-01, 2.44565040e-01,
          8.16478729e-02, 4.49279323e-02, 1.02347052e-02, 0.,
          1.45157538e-02, 2.92721272e-01, 2.92721272e-01, 2.92721272e-01,
          1.06557637e-01, 1.41797632e-01, 2.55473460e-05, 1.45157538e-02,
          2.92721272e-01, 2.92721272e-01, 1.36991337e-01, 2.92721272e-01,
          4.67608608e-02, 3.82117033e-02, 4.25114036e-02, 2.92721272e-01,
          2.06469372e-01, 2.92721272e-01, 2.92721272e-01, 0.,
          1.55096307e-01, 3.93831059e-02, 1.09219730e-01, 1.76987424e-01,
          3.47997755e-01, 1.14571303e-01, 0., 3.47997755e-01,
          1.05734348e-01, 1.39819548e-01, 4.85565420e-03, 2.98777670e-01,
          2.70783752e-02, 0., 3.32028896e-01, 7.36363307e-02,
          3.27659190e-01, 9.78410468e-02, 3.47997755e-01, 2.06845030e-01,
          0., 3.47997755e-01, 7.25916326e-02, 1.11072466e-01,
          1.45669626e-02, 1.27015263e-01, 6.14966406e-03, 1.14657860e-02,
          0., 0., 0., 1.52970865e-01, 3.56638581e-01, 6.49097115e-02,
          1.87381595e-01, 0., 0., 0., 1.40926465e-01, 3.56638581e-01,
          3.15646768e-01, 3.43973562e-02, 2.06915825e-03, 6.89719396e-04,
          0., 1.44508183e-01, 3.56638581e-01, 1.61848217e-01,
          3.56638581e-01, 6.20747404e-03, 2.06915825e-03, 0.,
          5.13069183e-02, 3.56638581e-01, 3.56638581e-01, 1.97437555e-01,
          0., 8.58935993e-04, 2.26692688e-02, 3.36832404e-02,
          8.56062397e-02, 3.51507187e-01, 6.38690442e-02, 2.59355418e-02,
          1.12219891e-02, 6.80078045e-02, 1.03160925e-02, 2.81121075e-01,
          3.55085194e-01, 3.38407636e-01, 1.05218217e-03, 3.50727350e-04,
          0., 5.23051210e-02, 2.49623239e-01, 3.55085194e-01,
          1.06972098e-01, 8.64518061e-03, 2.88172695e-03, 0.,
          2.02140853e-01, 3.55085194e-01, 3.55085194e-01, 9.38303862e-03,
          1.64798647e-01, 3.72197479e-02, 3.03178728e-02, 1.25675071e-02,
          4.44650292e-01, 2.32802719e-01, 2.81491168e-02, 2.66575307e-01,
          3.22728194e-02, 6.88507110e-02, 4.18916857e-03, 1.23233303e-01,
          2.81491168e-02, 2.81491168e-02, 5.28394580e-02, 1.19587481e-02,
          0., 2.51035810e-01, 4.45442677e-01, 3.54924679e-01,
          8.44473466e-02, 8.25781822e-02, 1.05628418e-02, 6.84790462e-02,
          6.97009340e-02, 4.45442677e-01, 8.44473466e-02 ]
      - [ 5.57022095e-02, 2.42852017e-01, 6.67150170e-02, 0., 0., 0.,
          6.42534392e-03, 1.75692625e-02, 4.75256920e-01, 2.95876533e-01,
          0., 0., 0., 1.14364095e-03, 1.20847702e-01, 3.73619676e-01,
          8.51525441e-02, 4.73793421e-04, 0., 0., 1.92760322e-02,
          3.72881480e-02, 4.75256920e-01, 4.75256920e-01, 0., 0., 0.,
          3.43092252e-03, 0., 4.14456338e-01, 1.73332393e-01, 0., 0., 0.,
          0., 1.10268453e-03, 4.14456338e-01, 1.57780349e-01, 0., 0.,
          6.42448140e-04, 2.17428152e-03, 0., 4.14456338e-01,
          4.14456338e-01, 0., 0., 0., 0., 3.67561501e-04, 4.14456338e-01,
          2.86280185e-01, 0., 7.56058516e-03, 4.22946922e-03,
          3.58235231e-03, 2.53522713e-02, 5.26960850e-01, 2.99707174e-01,
          0., 0., 1.08602382e-02, 3.67550477e-02, 3.65936048e-02,
          1.84692621e-01, 4.30983007e-02, 0., 0., 3.62007902e-03,
          2.24958938e-02, 6.25789016e-02, 5.26960850e-01, 3.94860417e-01,
          0., 1.27807587e-01, 7.14968815e-02, 6.05577230e-02,
          2.20540479e-01, 2.62087286e-01, 1.02442103e-02, 0.,
          4.26025353e-02, 2.38322932e-02, 6.95588216e-02, 2.59182528e-02,
          2.78010428e-01, 9.22781825e-02, 6.75601477e-04, 0., 0.,
          7.43281934e-03, 6.82391087e-03, 4.60905790e-01, 4.60905790e-01,
          0., 0., 0., 6.62099919e-04, 2.46373694e-02, 1.89412579e-01,
          1.45090222e-01, 2.25200492e-04, 0., 1.45633807e-02,
          2.90400479e-02, 2.12411061e-02, 4.60905790e-01, 4.60905790e-01,
          0., 0., 4.85446025e-03, 3.82768246e-03, 0., 3.62521827e-01,
          3.62521827e-01, 0., 0., 0., 0., 0., 3.62521827e-01,
          2.75954008e-01, 4.75965627e-03, 5.93818584e-03, 2.01298506e-03,
          3.41713458e-04, 1.64450612e-03, 3.62521827e-01, 3.62521827e-01,
          0., 0., 0., 0., 0., 3.62521827e-01, 3.62521827e-01,
          1.42789697e-02, 1.97939528e-03, 6.02706627e-04, 0.,
          2.14300919e-02, 4.61846560e-01, 2.20062330e-01, 5.63564524e-02,
          7.03107640e-02, 2.38346402e-02, 4.04603966e-03, 7.68329576e-02,
          1.40126675e-01, 2.85020564e-03, 1.87854841e-02, 2.34369244e-02,
          7.94488098e-03, 1.38913617e-02, 6.64364314e-03, 4.61846560e-01,
          4.61846560e-01, 1.69069380e-01, 2.34369244e-02, 7.13631464e-03,
          0., 2.33491212e-02, 4.61846560e-01, 1.48732111e-01,
          7.68656060e-02, 7.81230722e-03, 2.37877131e-03, 3.41819203e-03,
          8.42510089e-02, 5.54985777e-02, 5.02990298e-02, 5.05487993e-03,
          0., 1.98269747e-02, 2.72117518e-02, 2.20382303e-01,
          4.08996493e-01, 4.08996493e-01, 0., 0., 6.60899235e-03,
          7.57566793e-03, 1.97589874e-01, 1.97152808e-01, 1.36415988e-01,
          1.51646398e-02, 0., 6.60899235e-03, 1.04883108e-02,
          4.08996493e-01, 4.08996493e-01, 4.08996493e-01, 0., 0.,
          2.20299722e-03, 8.83071311e-03, 1.16173327e-02, 3.67658347e-01,
          2.89099544e-01, 0., 0., 0., 1.24646438e-04, 4.69544815e-04,
          3.67658347e-01, 3.33787322e-01, 1.79132156e-03, 0., 0., 0.,
          3.07869129e-02, 3.67658347e-01, 3.52679014e-01, 0., 0., 0.,
          3.73939285e-04, 1.40863436e-03, 3.67658347e-01, 3.67658347e-01,
          0., 0., 0., 0., 3.94359790e-03, 4.41738576e-01, 4.08628136e-01,
          1.50448950e-02, 0., 0., 0., 1.31453271e-03, 2.18824238e-01,
          1.28191873e-01, 2.59114429e-02, 0., 0., 0., 1.18307937e-02,
          4.41738576e-01, 4.41738576e-01, 0., 0., 0., 0., 3.94359790e-03,
          3.83459955e-01, 1.73401296e-01, 2.67286152e-02, 0., 0., 0. ]
      - [ 4.45581973e-03, 8.74201804e-02, 3.01950753e-01, 5.69309667e-02,
          4.23634984e-03, 1.27090504e-02, 0., 1.18269980e-01,
          3.80333930e-01, 3.31160158e-01, 2.35951673e-02, 1.42507358e-02,
          4.27522063e-02, 0., 2.95720249e-02, 1.53063446e-01,
          3.80333930e-01, 1.21458955e-01, 0., 0., 1.91169009e-02,
          3.80333930e-01, 3.80333930e-01, 3.80333930e-01, 7.07854927e-02,
          0., 0., 0., 1.27064034e-01, 3.10012043e-01, 5.78030571e-02,
          7.47118087e-04, 1.34333875e-03, 4.03001625e-03, 0.,
          3.60680759e-01, 3.60680759e-01, 1.52112573e-01, 0.,
          2.11650971e-04, 6.34952972e-04, 0., 2.82976806e-01,
          3.60680759e-01, 1.79648206e-01, 2.24135420e-03, 0., 0., 0.,
          3.07957441e-01, 3.60680759e-01, 3.60680759e-01, 0., 0., 0., 0.,
          2.83089429e-01, 3.64461869e-01, 2.06143647e-01, 0., 0., 0., 0.,
          8.38164687e-02, 3.64461869e-01, 2.36343369e-01, 2.95670005e-03,
          0., 0., 4.06231172e-03, 1.09871633e-01, 3.64461869e-01,
          3.64461869e-01, 0., 0., 0., 0., 3.87716554e-02, 3.64461869e-01,
          3.64461869e-01, 9.85566620e-03, 0., 0., 1.21869361e-02,
          3.40751484e-02, 1.88809171e-01, 6.31995276e-02, 9.17634368e-03,
          0., 1.45906012e-03, 4.81348336e-02, 3.44070196e-01,
          4.48092461e-01, 1.69784620e-01, 5.63396374e-03, 0.,
          4.86353383e-04, 1.09685604e-02, 1.20540097e-01, 4.48092461e-01,
          9.03255586e-03, 0., 0., 4.37718024e-03, 1.16962284e-01,
          3.10362101e-01, 4.48092461e-01, 2.05867350e-01, 1.85717076e-01,
          0., 1.45906012e-03, 3.29056792e-02, 2.69588292e-01,
          3.19605947e-01, 5.06947041e-02, 3.34486045e-04, 3.20601203e-02,
          2.84985965e-03, 0., 1.74927041e-01, 3.19605947e-01,
          2.45870739e-01, 0., 9.61803645e-02, 8.54957942e-03, 0.,
          1.09105654e-01, 3.19605947e-01, 1.78068280e-01, 2.58861542e-01,
          9.61803645e-02, 8.54957942e-03, 0., 5.83090112e-02,
          3.19605947e-01, 3.19605947e-01, 3.19605947e-01, 2.88541108e-01,
          2.56487373e-02, 0., 1.52385617e-02, 3.68279666e-01,
          3.19315732e-01, 0., 1.50643187e-02, 1.33908400e-03, 0.,
          1.62061572e-03, 3.68279666e-01, 2.72186220e-01, 1.66989267e-02,
          0., 0., 1.62061572e-03, 5.07952040e-03, 3.68279666e-01,
          3.68279666e-01, 5.42455725e-02, 4.51929532e-02, 4.01725201e-03,
          0., 0., 3.68279666e-01, 3.68279666e-01, 2.68548783e-02, 0., 0.,
          0., 2.56222337e-01, 3.16618204e-01, 8.49353056e-03, 0., 0.,
          1.31671608e-03, 9.62932855e-02, 2.59844244e-01, 3.16618204e-01,
          2.99349993e-01, 3.16618204e-01, 0., 5.34293763e-02,
          3.57502811e-02, 3.16618204e-01, 2.46802077e-01, 3.98345105e-02,
          0., 0., 0., 1.73953682e-01, 1.53009251e-01, 3.16618204e-01,
          1.89899534e-01, 1.37599632e-01, 4.15471010e-02, 2.83612728e-01,
          7.75553957e-02, 1.10429553e-02, 1.06364921e-01, 1.53216586e-01,
          3.18291456e-01, 4.75255102e-02, 2.24515330e-02, 4.44991281e-03,
          0., 2.69907981e-01, 3.40102345e-01, 3.40102345e-01,
          1.42576516e-01, 1.10241789e-02, 1.48330431e-03, 3.02027655e-03,
          2.73417123e-02, 5.36157787e-02, 1.62818357e-01, 1.23434611e-01,
          1.40364632e-01, 1.33497389e-02, 0., 3.40102345e-01,
          3.40102345e-01, 3.40102345e-01, 3.26138049e-01, 1.19605288e-01,
          4.44991281e-03, 0., 3.05397660e-01, 3.68513733e-01,
          3.86266224e-02, 1.19410036e-02, 3.33571923e-04, 0.,
          1.95923774e-03, 3.68513733e-01, 2.91576713e-01, 1.98865496e-03,
          0., 0., 1.95923774e-03, 0., 3.68513733e-01, 3.68513733e-01,
          2.71270014e-02, 2.68521924e-02, 6.86085923e-03, 0.,
          5.87771321e-03, 3.68513733e-01, 3.68513733e-01, 0., 0., 0.,
          5.87771321e-03 ]
      - [ 3.98133462e-03, 4.00337785e-01, 2.42614746e-01, 0., 0., 0.,
          3.98133462e-03, 0., 4.00337785e-01, 1.76238239e-01,
          5.37508912e-03, 1.63007819e-03, 4.89023468e-03, 0.,
          6.12448901e-03, 4.00337785e-01, 4.00337785e-01, 3.63719603e-03,
          0., 0., 6.12448901e-03, 0., 4.00337785e-01, 3.22545946e-01,
          2.26455797e-02, 5.43359376e-04, 1.63007830e-03, 0., 0.,
          3.77803385e-01, 2.16240212e-01, 9.27240029e-02, 5.27897477e-02,
          6.71102628e-02, 0., 0., 1.64866015e-01, 1.01782270e-01,
          8.14677700e-02, 9.87156853e-02, 2.23700907e-02, 0., 0.,
          3.77803385e-01, 3.77803385e-01, 3.77803385e-01, 1.75965838e-02,
          2.23700907e-02, 0., 0., 1.44201249e-01, 3.77803385e-01,
          3.77803385e-01, 3.29052284e-02, 7.45669659e-03, 0., 0.,
          2.09488317e-01, 7.76090324e-02, 3.96335050e-02, 6.92861006e-02,
          5.68487169e-03, 0., 0., 1.23025134e-01, 4.10083793e-02,
          4.14122641e-01, 1.62374377e-01, 1.70546137e-02, 0., 0.,
          1.77018672e-01, 3.14171553e-01, 9.98074263e-02, 1.67428136e-01,
          1.51316077e-01, 2.82832012e-02, 0., 5.90062216e-02,
          8.76170397e-02, 4.14122641e-01, 4.14122641e-01, 4.14122641e-01,
          8.48496035e-02, 7.36232963e-04, 3.89811635e-01, 3.04989427e-01,
          6.08399324e-03, 0., 0., 7.36232963e-04, 0., 3.89811635e-01,
          1.96327880e-01, 1.10187940e-02, 4.26474167e-03, 0., 0., 0.,
          3.89811635e-01, 3.89811635e-01, 1.36081437e-02, 0., 0., 0., 0.,
          3.89811635e-01, 3.21909279e-01, 1.35844275e-02, 2.45716628e-02,
          0., 0., 0., 2.76697278e-01, 1.83170736e-01, 2.02683955e-01,
          4.11101505e-02, 0., 0., 0., 4.37726900e-02, 3.46315533e-01,
          3.41633052e-01, 1.37033835e-02, 0., 0., 0., 3.46315533e-01,
          2.14574605e-01, 2.81165153e-01, 2.36859575e-01, 0., 0., 0.,
          2.40144134e-01, 3.46315533e-01, 3.46315533e-01, 7.89531916e-02,
          0., 0., 0., 5.71333691e-02, 3.67695510e-01, 7.30806217e-02,
          1.65428352e-02, 1.22667879e-01, 5.44144474e-02, 0.,
          1.90444551e-02, 1.16238177e-01, 2.00206220e-01, 4.96285073e-02,
          3.67695510e-01, 1.63243338e-01, 0., 3.13442975e-01,
          3.67695510e-01, 1.33017272e-01, 2.57620476e-02, 9.32644904e-02,
          1.06465526e-01, 0., 1.04481004e-01, 2.90398359e-01,
          2.50230789e-01, 7.72861466e-02, 2.79793471e-01, 3.19396526e-01,
          0., 3.81787241e-01, 3.35240901e-01, 9.60171130e-03, 0., 0., 0.,
          0., 3.81787241e-01, 1.91420063e-01, 5.06668957e-03,
          1.76627617e-02, 5.63449285e-04, 0., 0., 3.81787241e-01,
          3.81787241e-01, 1.36637045e-02, 0., 0., 0., 0., 3.81787241e-01,
          3.42489600e-01, 1.41207688e-03, 2.04154234e-02, 3.93407047e-03,
          0., 0., 3.75385284e-01, 1.53732821e-01, 1.01750642e-01,
          2.19754010e-01, 7.01024150e-03, 0., 0., 3.13755661e-01,
          3.37262034e-01, 1.37150541e-01, 7.32513443e-02, 2.33674725e-03,
          0., 0., 3.75385284e-01, 3.21757555e-01, 2.43871026e-02,
          2.54001677e-01, 4.89463471e-02, 0., 0., 3.75385284e-01,
          2.75040835e-01, 2.63117831e-02, 8.46672207e-02, 1.63154490e-02,
          0., 0., 3.57091606e-01, 3.87620300e-01, 1.52512655e-01,
          2.83730216e-02, 8.87954421e-03, 1.48109905e-02, 1.25126801e-02,
          1.17634557e-01, 1.34097099e-01, 3.87620300e-01, 8.51190761e-02,
          2.66386345e-02, 5.69456443e-02, 0., 3.87620300e-01,
          2.77270049e-01, 2.67867237e-01, 9.45767481e-03, 0., 0.,
          3.75380404e-02, 1.99381426e-01, 8.93339589e-02, 3.87620300e-01,
          2.83730216e-02, 0., 3.75380404e-02 ]
      - [ 0., 0., 0., 1.06101029e-01, 2.41448820e-01, 1.46297142e-01,
          3.69997062e-02, 0., 2.60868102e-01, 2.26459235e-01,
          1.38498887e-01, 2.21743301e-01, 1.98663905e-01, 4.73261960e-02,
          1.63033493e-02, 0., 0., 6.35469779e-02, 7.55380094e-02,
          3.38428229e-01, 2.74273932e-01, 2.47346669e-01, 3.38428229e-01,
          2.52621353e-01, 4.61662970e-02, 6.63076341e-02, 3.38428229e-01,
          3.38428229e-01, 0., 8.85594636e-02, 7.68783540e-02,
          5.96791040e-03, 6.72599971e-02, 1.20138958e-01, 1.80866569e-03,
          0., 2.95198224e-02, 2.56261211e-02, 0., 3.49131107e-01,
          4.31652993e-01, 1.00810051e-01, 1.31789550e-01, 1.75936744e-01,
          8.57598707e-02, 1.98930362e-03, 1.01476297e-01, 1.19332768e-01,
          6.88181296e-02, 1.76370442e-01, 1.83894709e-01, 2.85866205e-02,
          0., 3.45958352e-01, 4.31652993e-01, 4.31652993e-01, 0., 0., 0.,
          1.08127529e-03, 2.38346234e-01, 3.64011198e-01, 8.69894326e-02,
          1.25709891e-01, 0., 0., 3.24382586e-03, 2.94541866e-01,
          2.82522589e-01, 1.71106592e-01, 1.61697622e-02, 1.52917514e-02,
          0., 3.60425096e-04, 9.62321013e-02, 3.64011198e-01,
          3.64011198e-01, 2.00209185e-01, 0., 0., 1.08127529e-03,
          8.92144814e-02, 3.64011198e-01, 3.64011198e-01, 3.64493355e-02,
          1.49637805e-02, 3.58418860e-02, 7.46262968e-02, 0.,
          7.41653442e-02, 1.25656575e-01, 1.82639912e-01, 8.90816897e-02,
          2.96260387e-01, 1.00622341e-01, 0., 1.72371864e-01,
          2.86001503e-01, 7.87081420e-02, 4.48913425e-02, 1.07525654e-01,
          3.08282793e-01, 2.42340475e-01, 1.50128976e-02, 3.83565389e-02,
          8.30660984e-02, 1.69673398e-01, 4.05935138e-01, 4.05935138e-01,
          4.05935138e-01, 4.50386927e-02, 9.08199251e-02, 1.28304362e-01,
          1.04261152e-01, 1.01698920e-01, 6.38614176e-03, 1.20449280e-02,
          2.00022440e-02, 6.24306314e-02, 1.71706304e-01, 2.07619846e-01,
          4.86012921e-02, 0., 2.10806832e-01, 3.25075477e-01,
          3.25075477e-01, 4.27681208e-02, 1.45089656e-01, 3.25075477e-01,
          2.33663887e-01, 4.61414568e-02, 2.85844505e-03, 2.05719117e-02,
          5.72354347e-02, 2.41796553e-01, 2.91270584e-01, 2.58625090e-01,
          3.25075477e-01, 3.25075477e-01, 1.15437999e-01, 1.47577645e-02,
          1.97855867e-02, 1.94305426e-03, 0., 1.34986654e-01,
          3.64140242e-01, 3.17948341e-01, 4.88633625e-02, 0., 0.,
          2.98565663e-02, 4.37701158e-02, 3.64140242e-01, 2.64051735e-01,
          4.91925515e-03, 2.21396312e-02, 1.73425451e-02, 5.03491051e-02,
          3.64140242e-01, 3.64140242e-01, 1.42798930e-01, 1.05635393e-02,
          0., 0., 1.18919499e-01, 2.28932381e-01, 3.64140242e-01,
          2.19368279e-01, 5.76671446e-03, 3.45729035e-03, 8.28105025e-03,
          8.19057152e-02, 2.21286252e-01, 3.74557935e-02, 0.,
          1.92223827e-03, 2.54104398e-02, 3.35384846e-01, 2.92097449e-01,
          3.35384846e-01, 9.38828364e-02, 0., 0., 0., 0., 2.25357730e-02,
          3.35384846e-01, 2.99709499e-01, 0., 0., 2.67224818e-01,
          3.35384846e-01, 8.96164402e-02, 3.35384846e-01, 3.35384846e-01,
          0., 2.85335965e-02, 3.00418809e-02, 3.04187506e-01,
          2.35073432e-01, 6.57118782e-02, 1.10584199e-02, 1.46495539e-03,
          8.56007934e-02, 3.24035771e-02, 2.30099142e-01, 2.80038595e-01,
          3.04187506e-01, 1.44100085e-01, 4.39486606e-03, 8.56007934e-02,
          2.92203963e-01, 3.04187506e-01, 7.74219930e-02, 7.99090192e-02,
          8.11902061e-02, 4.39486606e-03, 2.56802380e-01, 2.40748867e-01,
          2.60512024e-01, 9.33461934e-02, 3.04187506e-01, 3.04187506e-01,
          1.31845977e-02, 1.39628444e-02, 4.10861336e-03, 2.13570930e-02,
          8.74074697e-02, 3.51509184e-01, 3.14270020e-01, 8.17676708e-02,
          0., 0., 0., 8.06347579e-02, 2.37578839e-01, 3.51509184e-01,
          2.43152365e-01, 4.18885313e-02, 2.63050385e-02, 1.54308639e-02,
          2.91358214e-02, 3.51509184e-01, 3.51509184e-01, 9.06401798e-02,
          0., 0., 0., 4.28999439e-02, 2.42492869e-01, 3.51509184e-01,
          2.65468687e-01 ]
      - [ 3.15674744e-03, 0., 0., 1.07438024e-02, 4.07040030e-01,
          1.05549246e-01, 3.15674744e-03, 0., 0., 0., 7.74391368e-02,
          4.07040030e-01, 1.05230585e-01, 0., 1.05224911e-03, 0., 0.,
          2.97370069e-02, 4.07040030e-01, 4.07040030e-01, 8.24763030e-02,
          1.86661914e-01, 3.14752408e-03, 0., 8.01087990e-02,
          4.07040030e-01, 1.74794033e-01, 2.44272158e-01, 6.20945729e-03,
          3.72272590e-03, 0., 4.81330305e-02, 1.62673920e-01,
          3.49732749e-02, 0., 1.46420389e-01, 1.11681772e-02, 0.,
          1.52353328e-02, 3.67892198e-02, 2.70297714e-02, 1.27792016e-01,
          5.22333086e-01, 1.10720940e-01, 0., 5.15489765e-02,
          1.08299553e-01, 3.08589172e-03, 2.71675978e-02, 5.56113541e-01,
          4.09097612e-01, 0., 1.64377354e-02, 9.25976317e-03, 0.,
          3.83376092e-01, 1.10283092e-01, 8.99931416e-04, 0., 0.,
          1.25747062e-02, 3.77241224e-02, 1.27444997e-01, 2.27221712e-01,
          0., 0., 0., 3.61731909e-02, 1.08519569e-01, 2.83210695e-01,
          4.50976580e-01, 7.60550871e-02, 0., 0., 3.17035965e-03,
          9.51107871e-03, 4.50976580e-01, 4.50976580e-01, 1.66382380e-02,
          0., 0., 9.51107871e-03, 2.85332389e-02, 4.50976580e-01,
          9.88031458e-03, 0., 0., 1.30539797e-02, 8.04064497e-02,
          3.04907382e-01, 1.65581033e-01, 1.97577566e-01, 3.20051372e-01,
          0., 7.34760799e-03, 8.94902274e-02, 1.23557150e-01,
          3.57142359e-01, 3.52525376e-02, 0., 0., 3.74106434e-03,
          4.37510051e-02, 2.97114491e-01, 3.09363276e-01, 1.50306299e-01,
          4.08996910e-01, 1.16723977e-01, 0., 2.37979796e-02,
          1.33988217e-01, 4.08996910e-01, 2.78125435e-01, 2.04472974e-01,
          0., 2.21673399e-03, 3.61878867e-03, 1.26545224e-03,
          1.74899045e-02, 4.04908627e-01, 3.24200690e-01, 0.,
          7.09218148e-04, 0., 0., 7.11349100e-02, 2.80454546e-01,
          4.04908627e-01, 5.83853796e-02, 0., 5.31913596e-04,
          2.01755809e-03, 2.27609184e-02, 4.04908627e-01, 4.04908627e-01,
          5.71394302e-02, 6.75263721e-03, 4.71882112e-02, 0.,
          1.49575099e-01, 3.36325854e-01, 1.01613916e-01, 0., 0., 0.,
          4.66922782e-02, 2.69465894e-01, 3.36325854e-01, 1.70919523e-02,
          0., 0., 0., 1.40076831e-01, 3.36325854e-01, 3.31979513e-01,
          1.70967489e-01, 8.55623093e-03, 1.00718392e-02, 1.04090512e-01,
          1.70824796e-01, 2.76508152e-01, 2.32557714e-01, 5.69731742e-03,
          0., 1.75798535e-02, 1.24583080e-01, 3.36325854e-01,
          3.36325854e-01, 2.64779851e-02, 0., 0., 0., 4.34454530e-02,
          2.05459952e-01, 1.22726433e-01, 4.78993654e-02, 4.53511238e-01,
          1.85692295e-01, 0., 2.42031571e-02, 9.76506695e-02,
          1.62428245e-01, 5.09496704e-02, 0., 0., 0., 5.19516282e-02,
          3.43567252e-01, 2.32614011e-01, 1.03003882e-01, 4.53511238e-01,
          3.48085165e-01, 0., 4.97216694e-02, 2.11735800e-01,
          3.07344407e-01, 3.79621796e-02, 4.22098637e-01, 1.21128365e-01,
          0., 6.66265551e-04, 1.99879659e-03, 8.60543642e-03,
          1.01107933e-01, 4.22098637e-01, 1.40479818e-01, 8.45823344e-03,
          8.12942162e-02, 3.72533277e-02, 2.53557581e-02, 6.27512485e-03,
          4.22098637e-01, 2.56574571e-01, 0., 2.22088490e-03,
          6.66265516e-03, 1.61296837e-02, 0., 4.22098637e-01,
          3.51881742e-01, 2.81941146e-03, 1.04179658e-01, 1.65507898e-01,
          0., 3.10920458e-02, 1.95486486e-01, 3.30071785e-02,
          1.83178466e-02, 2.71052808e-01, 2.01812059e-01, 5.66003807e-02,
          1.79590080e-02, 0., 0., 7.46200755e-02, 3.43671858e-01,
          3.47054929e-01, 4.06827927e-02, 0., 2.89261729e-01,
          8.78258198e-02, 6.10594917e-03, 3.47054929e-01, 3.47054929e-01,
          0., 0., 0., 0., 1.38599351e-01, 3.47054929e-01, 3.47054929e-01,
          0. ]
      - [ 2.95172650e-02, 1.86865255e-01, 6.22884221e-02, 0.,
          6.68214932e-02, 1.99203908e-01, 4.45799641e-02, 0.,
          7.45339692e-02, 2.48446595e-02, 2.18062669e-01, 2.55106479e-01,
          4.16033030e-01, 5.10531142e-02, 4.31979001e-02, 1.09104931e-01,
          3.63683105e-02, 2.65844772e-03, 4.16033030e-01, 1.92821085e-01,
          4.82187979e-02, 0., 3.63683105e-02, 1.21227698e-02,
          8.06628987e-02, 4.16033030e-01, 4.16033030e-01, 1.83617026e-01,
          0., 4.31219973e-02, 1.93259194e-01, 2.37684190e-01,
          7.87465423e-02, 1.66216224e-01, 1.15373125e-02, 0.,
          1.23309940e-01, 3.64228576e-01, 2.47022212e-01, 1.88503973e-02,
          3.33743505e-02, 1.88267662e-03, 0., 7.40823597e-02,
          2.60636657e-01, 1.54105529e-01, 1.68492317e-01, 3.64228576e-01,
          1.64281353e-01, 0., 3.59717786e-01, 3.64228576e-01,
          3.03854972e-01, 5.84670668e-03, 1.17382318e-01, 5.41060902e-02,
          0., 1.31869018e-01, 2.68316925e-01, 2.88030207e-01,
          4.95151011e-03, 1.48545317e-02, 0., 1.57406665e-02,
          1.37424082e-01, 6.15547113e-02, 1.70821577e-01, 6.33346057e-03,
          1.90003794e-02, 1.57406665e-02, 1.87659245e-02, 4.44775075e-01,
          4.44775075e-01, 1.69119745e-01, 0., 0., 0., 1.32161364e-01,
          4.44775075e-01, 3.48315626e-01, 5.69405258e-02, 0., 0.,
          7.58635998e-02, 1.22583462e-02, 8.94446671e-03, 2.98148883e-03,
          2.91269831e-03, 3.42485458e-01, 1.75601259e-01, 2.18812097e-02,
          3.22963744e-02, 3.52607574e-03, 9.93829686e-04, 8.73809494e-03,
          3.44249994e-01, 3.04320604e-01, 1.96874380e-01, 6.90330286e-03,
          0., 0., 1.51646361e-02, 3.35932851e-01, 3.44249994e-01,
          8.73463303e-02, 9.68891308e-02, 1.63376064e-03, 0.,
          1.52082220e-01, 3.44249994e-01, 3.44249994e-01, 2.96461344e-01,
          3.74206230e-02, 8.45232308e-02, 8.48339647e-02, 1.61899626e-02,
          1.10652998e-01, 2.10678279e-01, 2.29230836e-01, 1.24735413e-02,
          3.28847975e-01, 3.28847975e-01, 9.26529244e-02, 0.,
          1.43580437e-01, 1.55013084e-01, 1.12261869e-01, 2.98570581e-02,
          1.77682713e-02, 1.67812064e-01, 2.19620809e-01, 2.31628194e-01,
          1.91847786e-01, 2.26109177e-01, 1.46057591e-01, 3.28847975e-01,
          2.00366065e-01, 8.51380602e-02, 3.28847975e-01, 2.91670322e-01,
          8.78210366e-03, 1.80569246e-01, 3.79587948e-01, 4.69329171e-02,
          0., 1.04892822e-02, 1.05597423e-02, 5.01071624e-02,
          2.35312223e-01, 2.34027937e-01, 1.39079206e-02, 0., 0.,
          2.37608496e-02, 1.66284934e-01, 1.84554651e-01, 3.79587948e-01,
          2.32652515e-01, 2.99077737e-03, 4.04401794e-02, 3.16792279e-02,
          8.98015574e-02, 3.79587948e-01, 3.79587948e-01, 3.79587948e-01,
          0., 0., 2.65669320e-02, 5.28920675e-04, 0., 0., 5.35870343e-02,
          2.32286140e-01, 1.08937383e-01, 4.46398668e-02, 1.04252193e-02,
          1.75791793e-04, 0., 2.15388179e-01, 3.80253762e-01,
          2.55062282e-01, 1.32332817e-01, 0., 0., 0., 1.30668163e-01,
          3.80253762e-01, 3.00488740e-01, 1.36682345e-02, 0., 0., 0.,
          3.29901874e-01, 3.80253762e-01, 3.80253762e-01, 4.10047024e-02,
          1.04192263e-02, 1.75690730e-04, 8.98833424e-02, 1.99552223e-01,
          2.15228364e-01, 5.91002852e-02, 2.62637343e-02, 1.32874086e-01,
          2.37860046e-02, 3.03613126e-01, 8.33281055e-02, 7.60827661e-02,
          1.64683089e-01, 9.65865776e-02, 0., 1.48795724e-01,
          3.19248587e-01, 2.92601049e-01, 3.36901098e-01, 1.58661306e-01,
          5.54619217e-03, 4.31336761e-02, 3.36901098e-01, 3.36901098e-01,
          1.07709296e-01, 8.31672549e-02, 3.11078668e-01, 2.14477167e-01,
          1.56736806e-01, 4.34645899e-02, 2.82792926e-01, 2.05458090e-01,
          2.86956341e-03, 1.18364386e-01, 9.07086134e-02, 5.51151671e-02,
          5.37542328e-02, 3.76912445e-01, 3.76912445e-01, 0.,
          3.52231935e-02, 3.17345820e-02, 5.22456057e-02, 1.31936952e-01,
          2.34425396e-01, 2.92613447e-01, 9.56521195e-04, 3.19878310e-01,
          2.59785146e-01, 1.74152013e-02, 4.78588529e-02, 1.97987050e-01,
          3.76912445e-01, 0., 1.05669580e-01, 8.65950584e-02 ]
      - [ 9.06339586e-02, 3.33909243e-01, 1.45046279e-01, 0., 0., 0.,
          8.57464448e-02, 3.02833389e-03, 3.33909243e-01, 2.28896335e-01,
          1.38749834e-02, 2.27073640e-01, 1.11234831e-02, 1.39916432e-03,
          1.06852837e-01, 2.36014709e-01, 2.73291707e-01, 1.57293811e-01,
          7.01680258e-02, 5.74807054e-04, 9.21903104e-02, 9.08500142e-03,
          3.33909243e-01, 3.33909243e-01, 3.33909243e-01, 3.20406884e-01,
          1.66824386e-02, 1.23707362e-01, 0., 2.55428940e-01,
          7.07731619e-02, 3.57228257e-02, 3.24626029e-01, 1.34932190e-01,
          0., 6.70253299e-03, 2.01518200e-02, 5.70642937e-04,
          5.28267100e-02, 3.24626029e-01, 3.24626029e-01, 0.,
          3.11769601e-02, 1.85439602e-01, 2.68688917e-01, 2.71589488e-01,
          3.24626029e-01, 7.60094151e-02, 3.07692647e-01, 2.10965931e-01,
          1.54091358e-01, 0., 4.93625291e-02, 3.24626029e-01,
          1.14807822e-01, 1.05988376e-01, 1.50866788e-02, 2.66962349e-01,
          9.39649642e-02, 9.21044946e-02, 8.08153600e-02, 9.71389562e-02,
          0., 4.07095738e-02, 4.07867908e-01, 2.78469682e-01,
          3.07015013e-02, 0., 0., 3.56806777e-02, 2.92825520e-01,
          4.07867908e-01, 1.62482604e-01, 3.07015013e-02, 7.37817213e-02,
          3.06621250e-02, 7.70740071e-03, 1.45263314e-01, 4.07867908e-01,
          4.07867908e-01, 1.02338335e-02, 0., 0., 5.97212315e-02,
          7.65488902e-03, 7.16772815e-03, 1.86247408e-01, 1.12777308e-01,
          5.93201146e-02, 1.62478611e-01, 6.39374321e-03, 3.21997739e-02,
          1.44248381e-01, 3.56783003e-01, 3.41912121e-01, 4.12967876e-02,
          6.43966421e-02, 7.63147622e-02, 9.39085585e-05, 4.83962893e-02,
          3.56783003e-01, 7.17530474e-02, 9.19306353e-02, 3.56783003e-01,
          9.39085585e-05, 9.42550823e-02, 3.56783003e-01, 3.56783003e-01,
          2.15259150e-01, 3.06435451e-02, 2.43560791e-01, 2.53179129e-02,
          9.57196504e-02, 3.27389181e-01, 1.85049236e-01, 1.20813198e-01,
          5.76166175e-02, 6.79364130e-02, 1.96198836e-01, 1.42566919e-01,
          1.64315164e-01, 0., 2.92047579e-03, 3.23924311e-02,
          1.46058276e-01, 1.02932967e-01, 2.36936361e-01, 3.66193920e-01,
          3.66193920e-01, 7.12914467e-02, 3.09661012e-02, 2.13210091e-01,
          9.29379389e-02, 1.15317620e-01, 3.66193920e-01, 5.94874769e-02,
          0., 1.25897080e-01, 3.66193920e-01, 1.38063416e-01,
          2.73415744e-01, 2.58144796e-01, 8.94606635e-02, 0.,
          8.06274451e-03, 1.06281765e-01, 5.69759943e-02, 1.19306117e-01,
          3.63205433e-01, 2.68381983e-01, 0., 0., 1.21201826e-02,
          5.17827310e-02, 8.89380872e-02, 3.34952235e-01, 1.14806212e-01,
          0., 1.83006823e-01, 3.63205433e-01, 1.48776889e-01,
          1.28968015e-01, 3.63205433e-01, 3.44418615e-01, 0.,
          4.41726558e-02, 5.51867299e-02, 1.35488674e-01, 0.,
          4.56105396e-02, 1.51697770e-01, 4.60841553e-03, 8.42178240e-02,
          3.55473518e-01, 0., 1.13025932e-02, 3.55473518e-01,
          3.55473518e-01, 1.38252461e-02, 2.80726068e-02, 1.34672999e-01,
          0., 0., 9.90263671e-02, 2.17231572e-01, 0., 2.46869892e-01,
          3.55473518e-01, 0., 0., 3.55473518e-01, 3.55473518e-01, 0.,
          8.22899714e-02, 2.49233767e-01, 0., 2.22116318e-02,
          3.64407837e-01, 3.30740392e-01, 3.67693766e-03, 2.93379296e-02,
          8.94841254e-02, 2.98332679e-03, 7.40387756e-03, 1.85685530e-01,
          6.99015409e-02, 0., 1.19378462e-01, 2.81903297e-01,
          1.12398816e-02, 0., 3.64407837e-01, 3.64407837e-01, 0.,
          4.85894829e-02, 1.42178953e-01, 0., 0., 3.64407837e-01,
          1.46663934e-01, 0., 1.90440401e-01, 3.64407837e-01, 0., 0.,
          1.70930311e-01, 1.05417393e-01, 0., 2.08837554e-01,
          2.40233243e-01, 1.68955214e-02, 3.89302969e-02, 3.55176419e-01,
          3.16252172e-01, 1.16613740e-02, 5.04522584e-02, 2.16367021e-02,
          4.26137596e-02, 0., 2.79348999e-01, 2.38438219e-01, 0.,
          3.10773462e-01, 3.55176419e-01, 0., 1.06094722e-02,
          3.55176419e-01, 3.55176419e-01, 3.49841230e-02, 7.18579292e-02,
          7.30189309e-02, 1.06094722e-02 ]
      - [ 4.00768258e-02, 3.85372937e-01, 2.05860108e-01, 0., 0., 0.,
          1.92251336e-02, 1.12101056e-01, 2.40090832e-01, 1.56770632e-01,
          0., 0., 1.34663209e-02, 6.92334846e-02, 2.58853454e-02,
          3.85372937e-01, 3.85372937e-01, 1.89321339e-01, 0., 0.,
          1.89347845e-02, 4.47649211e-02, 2.64659345e-01, 3.85372937e-01,
          3.85372937e-01, 0., 4.48877364e-03, 2.30778269e-02,
          4.47382294e-02, 2.52821408e-02, 1.82619058e-02, 9.94806644e-04,
          6.95182336e-03, 1.47923836e-02, 3.37189659e-02, 8.55545327e-02,
          1.18766548e-02, 1.38373557e-03, 4.39805724e-02, 3.86668406e-02,
          6.48749759e-03, 1.45012084e-02, 2.30391342e-02, 2.80651450e-02,
          7.34939203e-02, 6.51948392e-01, 7.78842121e-02, 4.93079470e-03,
          1.12396562e-02, 3.12269758e-02, 1.00275427e-02, 6.90831803e-03,
          6.51948392e-01, 3.37354779e-01, 1.64359820e-03, 4.83373553e-03,
          4.83044423e-02, 1.22321425e-02, 4.03622718e-04, 8.62143338e-02,
          3.36453654e-02, 2.20328616e-03, 1.20228413e-03, 7.00183436e-02,
          1.80862136e-02, 1.21086824e-03, 1.44305617e-01, 2.17265915e-02,
          7.34428701e-04, 0., 1.61014795e-02, 3.67375812e-03,
          7.28142112e-02, 6.52753115e-01, 2.04854295e-01, 0.,
          4.00761346e-04, 2.33394504e-02, 4.81786905e-03, 2.18442619e-01,
          6.52753115e-01, 8.88954550e-02, 0., 0., 5.23061678e-03,
          8.85604024e-02, 2.44704962e-01, 1.27712548e-01, 5.18486761e-02,
          3.33545357e-02, 5.23061678e-03, 7.41581898e-04, 3.31125110e-02,
          1.69454381e-01, 3.76559138e-01, 3.41583371e-01, 1.24829993e-01,
          0., 1.46311253e-01, 3.44211534e-02, 7.24009722e-02,
          5.32300398e-02, 1.55546039e-01, 1.16802923e-01, 1.72365069e-01,
          7.37497434e-02, 1.14737190e-02, 4.65280153e-02, 2.70440489e-01,
          3.76559138e-01, 3.76559138e-01, 3.76559138e-01, 3.66519991e-04,
          1.12516142e-03, 1.18180718e-02, 3.39250714e-01, 1.53324440e-01,
          1.89336315e-02, 0., 1.22173326e-04, 3.36121127e-04,
          7.95049369e-02, 3.39250714e-01, 2.01000288e-01, 4.08018567e-03,
          0., 1.36309760e-02, 0., 3.42006306e-03, 1.87099949e-01,
          3.39250714e-01, 6.09420948e-02, 3.39250714e-01, 1.63645595e-01,
          0., 2.33057499e-01, 3.39250714e-01, 3.39250714e-01,
          1.45871760e-02, 3.39250714e-01, 0., 3.02984137e-02,
          1.81888551e-01, 3.13543797e-01, 4.33561802e-02, 0., 0., 0.,
          9.08952430e-02, 3.13085347e-01, 3.13543797e-01, 7.81765115e-03,
          0., 0., 2.31392369e-01, 2.02787519e-01, 3.13543797e-01,
          3.13543797e-01, 5.39286472e-02, 3.57593002e-04, 2.48877481e-01,
          2.27310136e-01, 3.13543797e-01, 3.13543797e-01, 2.21907809e-01,
          1.92072976e-03, 0., 6.59673959e-02, 2.02856347e-01,
          1.95205927e-01, 2.79838387e-02, 4.40884056e-03, 2.48674247e-02,
          3.57715264e-02, 1.95547596e-01, 2.73772895e-01, 8.56302306e-02,
          9.32794530e-03, 4.89871134e-04, 1.63828641e-01, 1.19192913e-01,
          3.73545229e-01, 1.68799326e-01, 3.73545229e-01, 1.44460112e-01,
          9.79742268e-04, 0., 6.59139222e-03, 6.47999719e-02,
          3.73545229e-01, 3.67922008e-01, 7.17450976e-02, 0., 0.,
          1.97741762e-02, 3.73545229e-01, 8.61028135e-02, 1.63522549e-03,
          0., 1.00704776e-02, 6.87311664e-02, 1.47674037e-02,
          4.02032375e-01, 3.43496680e-01, 0., 3.92627530e-02,
          6.10359833e-02, 6.60870597e-02, 4.99788998e-03, 4.02032375e-01,
          2.12927312e-01, 3.43544222e-02, 9.81624890e-03, 0., 0.,
          1.72339159e-03, 4.02032375e-01, 4.02032375e-01, 3.15453820e-02,
          1.05151273e-02, 0., 0., 9.76564479e-04, 4.02032375e-01,
          3.25273037e-01, 1.64699569e-01, 8.86939093e-02, 4.17579263e-02,
          8.18263832e-03, 4.74222586e-04, 3.25273037e-01, 3.25273037e-01,
          3.25273037e-01, 1.40854582e-01, 1.68799292e-02, 0., 0.,
          2.60758221e-01, 3.25273037e-01, 5.35936803e-02, 1.37721177e-03,
          0., 2.26139883e-03, 6.94227079e-03, 3.25273037e-01,
          3.25273037e-01, 1.48386151e-01, 0., 0., 6.78419694e-03,
          2.03525890e-02, 3.25273037e-01 ]
      - [ 9.26530808e-02, 5.62403128e-02, 5.81185147e-03, 2.58507803e-02,
          2.88067560e-04, 8.64202739e-04, 6.95811808e-02, 2.81413287e-01,
          1.87467728e-02, 1.93728390e-03, 5.16011612e-03, 4.00919560e-03,
          9.56220999e-02, 3.62077653e-01, 2.49513417e-01, 3.95399004e-01,
          1.66487843e-01, 9.32773054e-02, 0., 0., 1.75469473e-01,
          3.95399004e-01, 3.95399004e-01, 5.54959513e-02, 1.54803488e-02,
          0., 2.78648380e-02, 3.95399004e-01, 1.04993679e-01, 0., 0., 0.,
          3.27602332e-03, 1.01759709e-01, 2.26688892e-01, 1.42797962e-01,
          4.99403197e-03, 1.66467740e-03, 0., 2.25852951e-02,
          1.33163825e-01, 3.92287761e-01, 3.81013066e-01, 6.29213452e-02,
          0., 0., 0., 3.06438804e-02, 4.32401240e-01, 4.32401240e-01, 0.,
          0., 0., 6.56483788e-03, 1.39023155e-01, 4.32401240e-01,
          9.73704308e-02, 9.75608174e-03, 3.25202732e-03, 7.38853263e-03,
          8.06746259e-02, 5.36556542e-02, 2.69635111e-01, 5.53332679e-02,
          9.90349986e-03, 3.30116646e-03, 1.19800709e-01, 1.64441645e-01,
          1.24500981e-02, 2.12055802e-01, 3.13805938e-01, 0., 0.,
          2.46284413e-03, 2.67565139e-02, 3.88068140e-01, 4.00764942e-01,
          2.79907465e-01, 0., 0., 3.99335735e-02, 5.48138842e-02,
          4.00764942e-01, 4.00764942e-01, 6.52768314e-02, 2.93990225e-01,
          1.75455004e-01, 3.75869609e-02, 0., 0., 1.60769504e-02,
          2.20736608e-01, 2.93990225e-01, 2.25603342e-01, 1.81820616e-01,
          0., 0., 2.34388858e-01, 1.28140211e-01, 2.93990225e-01,
          2.93990225e-01, 8.77961889e-02, 0., 0., 6.54773489e-02,
          2.93990225e-01, 2.29934216e-01, 2.93990225e-01, 2.93990225e-01,
          0., 0., 2.93990225e-01, 9.18443874e-02, 4.84488495e-02,
          3.59450951e-02, 1.79214031e-01, 2.89988914e-03, 0.,
          3.02827895e-01, 1.33374006e-01, 0., 4.10787342e-03,
          2.62906343e-01, 9.33815464e-02, 7.50941038e-02, 3.20966601e-01,
          2.24189714e-01, 1.61496177e-02, 1.07835278e-01, 3.20966601e-01,
          8.69966764e-03, 0., 3.20966601e-01, 3.20966601e-01, 0.,
          1.23236189e-02, 3.20966601e-01, 2.80144632e-01, 2.50313692e-02,
          3.20966601e-01, 2.64374111e-02, 0., 0., 6.77457377e-02,
          7.09457546e-02, 1.85023770e-01, 2.46784389e-01, 1.67649150e-01,
          0., 0., 1.65769309e-02, 2.58218069e-02, 3.15960646e-01,
          3.15960646e-01, 3.15960646e-01, 1.17324695e-01, 0.,
          2.03237221e-01, 2.12837234e-01, 1.28362373e-01, 1.95443124e-01,
          3.15960646e-01, 3.15960646e-01, 0., 4.97307964e-02,
          7.74654225e-02, 3.15960646e-01, 3.15960646e-01, 1.17076389e-01,
          1.97572589e-01, 1.18908435e-01, 2.39812806e-02, 0., 0.,
          3.37184481e-02, 3.67092580e-01, 2.08791211e-01, 7.74747804e-02,
          4.08781134e-02, 0., 0., 2.78495729e-01, 1.93145007e-01,
          3.67092580e-01, 3.20594251e-01, 2.77945548e-02, 0., 0.,
          1.10935839e-02, 3.67092580e-01, 3.67092580e-01, 2.17577174e-01,
          0., 0., 0., 2.67513514e-01, 3.03714335e-01, 2.63041425e-02,
          9.81662795e-03, 4.89434600e-02, 7.91961560e-04, 0.,
          3.51136565e-01, 3.53484541e-01, 0., 1.12186268e-03,
          7.17998818e-02, 2.55025569e-02, 0., 3.53484541e-01,
          3.53484541e-01, 1.46906421e-01, 2.26646643e-02, 0., 0., 0.,
          3.53484541e-01, 3.53484541e-01, 1.10052563e-02, 3.66841885e-03,
          0., 0., 0., 3.53484541e-01, 3.39543223e-01, 1.00949846e-01, 0.,
          2.36663073e-02, 2.47841999e-02, 8.73627141e-03, 2.72177249e-01,
          3.39543223e-01, 3.02849561e-01, 0., 5.79098845e-03,
          9.02059488e-03, 2.62088105e-02, 3.39543223e-01, 3.39543223e-01,
          3.49989124e-02, 4.49655257e-04, 0., 1.10750925e-03,
          3.32252798e-03, 3.39543223e-01, 3.39543223e-01, 1.00949846e-01,
          0., 0., 3.32252798e-03, 9.96758323e-03, 3.39543223e-01 ]
      - [ 2.56566107e-01, 3.30536991e-01, 1.26040559e-02, 0., 0., 0.,
          3.18077989e-02, 2.81929284e-01, 3.35694671e-01, 2.78048869e-02,
          0., 0., 0., 4.16985862e-02, 3.09635162e-01, 2.52279997e-01,
          3.30152996e-02, 2.34822586e-01, 0., 0., 6.94044679e-02,
          2.57421315e-01, 3.25229526e-01, 9.90459025e-02, 4.68106270e-01,
          0., 0., 5.33365235e-02, 4.95467298e-02, 3.67563181e-02,
          6.43447554e-03, 0., 1.22253888e-03, 1.00520328e-02,
          4.15464491e-02, 4.55574766e-02, 4.20244448e-02, 6.96205348e-03,
          0., 3.66761652e-03, 3.01561002e-02, 4.22465280e-02,
          5.35104647e-02, 2.72035357e-02, 9.93223209e-03, 6.84840262e-01,
          2.44209692e-02, 1.91532485e-02, 7.14680627e-02, 2.49263402e-02,
          5.63574396e-02, 1.64371170e-02, 6.84840262e-01, 1.17689356e-01,
          5.74597418e-02, 1.09015815e-01, 2.69987900e-02, 2.79338565e-02,
          1.12794135e-02, 1.05373131e-03, 2.45281466e-04, 2.01676809e-03,
          2.13656761e-03, 3.45340595e-02, 3.42859663e-02, 2.66181473e-02,
          2.48214751e-02, 0., 0., 0., 8.99959728e-03, 2.97633018e-02,
          3.02134436e-02, 6.99007690e-01, 3.89177576e-02, 3.84277105e-03,
          6.40970236e-03, 1.15113538e-02, 1.50239514e-02, 6.89800456e-02,
          6.99007690e-01, 4.35106531e-02, 0., 0., 2.00381428e-02,
          1.11023923e-02, 1.55619411e-02, 1.10684901e-01, 3.85846905e-02,
          1.49950042e-01, 8.17459729e-03, 1.17296055e-02, 1.73051171e-02,
          4.66858223e-02, 3.73010039e-01, 8.32236037e-02, 3.52258682e-01,
          2.83019198e-03, 1.19419381e-01, 0., 5.18731354e-03,
          3.68949659e-02, 1.15754083e-01, 3.73010039e-01, 8.83079991e-02,
          3.73010039e-01, 0., 1.55619411e-02, 2.12157235e-01,
          2.49670804e-01, 3.73010039e-01, 3.52982700e-01, 1.62842753e-03,
          9.41356877e-04, 2.87150755e-03, 2.84925073e-01, 4.63250689e-02,
          1.24853447e-01, 2.53626308e-03, 4.28754342e-04, 1.92939455e-03,
          6.43131556e-04, 3.35469097e-01, 1.31639004e-01, 2.95089722e-01,
          4.17875405e-03, 1.35065079e-01, 0., 9.57169163e-04,
          9.49750170e-02, 1.20147608e-01, 3.35469097e-01, 1.69159085e-01,
          3.35469097e-01, 0., 0., 2.60280013e-01, 3.04183185e-01,
          3.35469097e-01, 3.35469097e-01, 0., 1.14207563e-03,
          1.41604966e-03, 3.33973646e-01, 5.64424209e-02, 1.29074320e-01,
          3.00411193e-04, 0., 3.80691898e-04, 3.23297037e-03,
          3.33973646e-01, 7.32724443e-02, 1.74612597e-01, 0.,
          2.00356811e-01, 0., 0., 1.35282815e-01, 1.33386791e-01,
          3.33973646e-01, 2.27311760e-01, 3.33973646e-01, 0., 0.,
          3.33973646e-01, 1.79635346e-01, 3.33973646e-01, 3.33973646e-01,
          3.14247608e-01, 1.83192715e-02, 0., 0., 3.88338640e-02,
          1.50918394e-01, 2.06568539e-01, 4.71481055e-01, 6.10642368e-03,
          0., 0., 8.37610513e-02, 3.54533494e-01, 4.71481055e-01,
          1.85710847e-01, 5.49578145e-02, 0., 0., 0., 0., 6.83343634e-02,
          3.52598727e-01, 1.83192715e-02, 0., 0., 0., 0., 2.91672468e-01,
          3.16506058e-01, 0., 0., 0., 3.68817188e-02, 1.16572075e-01,
          3.95383775e-01, 4.00339931e-01, 0., 0., 0., 9.16895866e-02,
          2.75068730e-01, 4.00339931e-01, 1.16243616e-01, 0., 0., 0., 0.,
          0., 1.42536178e-01, 3.54727656e-01, 0., 0., 0., 0., 0.,
          4.00339931e-01, 3.87954682e-01, 0., 0., 0., 3.51706930e-02,
          1.05512090e-01, 3.87954682e-01, 3.87954682e-01, 0., 0., 0.,
          4.76456285e-02, 1.42936870e-01, 3.87954682e-01, 1.60995677e-01,
          0., 0., 0., 0., 0., 1.79111317e-01, 3.87954682e-01, 0., 0., 0.,
          0., 0., 3.87954682e-01 ]
      - [ 1.61217584e-04, 1.70676604e-01, 2.82797571e-02, 0.,
          1.64276119e-02, 3.27059031e-01, 1.99528351e-01, 0.,
          3.27059031e-01, 3.24892372e-01, 0., 5.47587033e-03,
          1.26410633e-01, 6.64557144e-02, 4.83652751e-04, 1.23181760e-01,
          1.25716962e-02, 1.17340090e-03, 0., 3.27059031e-01,
          3.27059031e-01, 0., 3.27059031e-01, 3.27059031e-01, 0., 0.,
          2.90335894e-01, 2.43526697e-01, 0., 3.88465971e-01,
          3.88465971e-01, 0., 0., 0., 0., 0., 2.14196116e-01,
          2.06955314e-01, 5.59872622e-03, 0., 0., 0., 0., 3.88465971e-01,
          3.88465971e-01, 0., 0., 1.99044924e-02, 3.55544016e-02, 0.,
          3.88465971e-01, 3.88465971e-01, 1.67961791e-02, 0., 0., 0., 0.,
          6.31554872e-02, 1.30981877e-01, 1.04315147e-01, 0., 0., 0., 0.,
          0., 0., 3.47717181e-02, 0., 0., 0., 0., 5.89104474e-01,
          5.89104474e-01, 3.12945455e-01, 0., 0., 0., 0., 3.77067327e-01,
          1.25689119e-01, 1.04315147e-01, 0., 0., 0., 8.91629679e-05,
          1.56207075e-02, 1.27642869e-03, 1.59840274e-03, 0.,
          3.31985056e-01, 1.65399924e-01, 0., 3.31985056e-01,
          2.77187377e-01, 0., 0., 3.08472693e-01, 2.23003581e-01, 0., 0.,
          0., 5.32800891e-03, 9.49169621e-02, 3.31985056e-01,
          1.20461278e-01, 0., 3.31985056e-01, 3.31985056e-01, 0.,
          3.16389874e-02, 3.31985056e-01, 2.48041645e-01, 1.24188908e-03,
          3.44276875e-01, 3.44276875e-01, 0., 0., 2.03483049e-02,
          3.02651525e-02, 8.85044970e-03, 3.44276875e-01, 2.26458415e-01,
          1.89240847e-03, 0., 0., 0., 3.72566748e-03, 3.44276875e-01,
          3.44276875e-01, 4.60072979e-02, 0., 6.96438178e-02,
          3.74732502e-02, 2.65513528e-02, 3.44276875e-01, 3.44276875e-01,
          3.24171871e-01, 0., 0., 0., 1.88936666e-02, 2.25682080e-01,
          7.62365907e-02, 6.35184813e-03, 0., 0., 0., 5.73375914e-03,
          5.66475615e-02, 1.88502930e-02, 2.11728271e-03, 0., 0., 0.,
          5.66810034e-02, 1.58196554e-01, 3.18080306e-01, 6.33530319e-01,
          0., 0., 0., 1.72012784e-02, 1.91403441e-02, 1.15685668e-02,
          6.33530319e-01, 0., 0., 0., 0., 0., 0., 2.71912456e-01,
          1.73735693e-01, 3.18377376e-01, 5.06113656e-02, 0.,
          1.43247336e-01, 2.59580702e-01, 1.19689837e-01, 3.18377376e-01,
          3.18377376e-01, 1.43332019e-01, 0., 7.09839165e-03,
          2.36613071e-03, 3.18377376e-01, 3.01299185e-01, 1.30643725e-01,
          1.56426616e-02, 0., 4.30618823e-02, 7.82533437e-02,
          3.18377376e-01, 3.18377376e-01, 2.02114910e-01, 4.69279885e-02,
          2.82059831e-04, 1.12863757e-01, 3.20152432e-01, 1.63757667e-01,
          1.02215506e-01, 3.09672542e-02, 1.44776283e-02, 2.01012869e-03,
          5.13803922e-02, 3.90503883e-01, 3.90503883e-01, 2.84471158e-02,
          0., 0., 0., 3.06002088e-02, 1.27602831e-01, 3.90503883e-01,
          3.19786668e-01, 5.10023199e-02, 4.77549341e-03, 0.,
          2.44333148e-02, 3.07309449e-01, 3.90503883e-01, 9.98422503e-02,
          4.35027108e-02, 0., 1.36528409e-03, 2.25488329e-03,
          8.34186301e-02, 4.76538092e-01, 2.05457080e-02, 0., 0.,
          4.14329814e-04, 6.98649819e-06, 9.74530540e-03, 4.76538092e-01,
          6.16371185e-02, 0., 0., 0., 5.27901091e-02, 1.27849966e-01,
          4.76538092e-01, 6.33328855e-02, 5.08729648e-03, 0., 0.,
          1.17837548e-01, 6.60066828e-02, 4.76538092e-01, 1.84911355e-01,
          0., 0. ]
      - [ 0., 2.41427999e-02, 4.87137586e-02, 8.89668241e-03,
          4.27510478e-02, 5.57819009e-02, 0., 2.03801453e-01,
          4.44747925e-01, 1.92004263e-01, 1.97287705e-02, 1.42503511e-02,
          1.85939670e-02, 0., 0., 2.55900115e-01, 1.51723281e-01,
          8.25343467e-03, 8.97291452e-02, 1.32406861e-01, 0.,
          4.44747925e-01, 4.44747925e-01, 4.44747925e-01, 6.57625683e-03,
          2.99097188e-02, 4.41356264e-02, 0., 1.57508448e-01,
          4.07183468e-01, 1.13007560e-01, 2.06351513e-03, 0., 0., 0.,
          5.74634857e-02, 4.07183468e-01, 1.99423864e-01, 0., 0., 0., 0.,
          4.07183468e-01, 4.07183468e-01, 1.06093213e-01, 6.87838299e-04,
          0., 4.41037910e-03, 3.00141377e-03, 2.19840840e-01,
          4.07183468e-01, 1.61782354e-01, 0., 2.33779103e-03,
          2.02445090e-02, 9.00424179e-03, 7.07162544e-02, 4.96648937e-01,
          3.72359306e-01, 0., 0., 4.02053595e-02, 1.37167973e-02,
          2.35720854e-02, 3.25871184e-02, 6.15168782e-03, 8.26259255e-02,
          0., 1.20616078e-01, 4.11503874e-02, 2.35720854e-02,
          4.96648937e-01, 3.18137974e-01, 0., 8.11336339e-02,
          2.30430946e-01, 2.39762422e-02, 7.45095015e-02, 1.56997666e-02,
          3.66302649e-03, 1.05686538e-01, 1.54531389e-01, 3.48105580e-01,
          8.64664540e-02, 7.64709606e-04, 2.07917213e-01, 6.88954368e-02,
          8.13579769e-04, 5.45010418e-02, 3.66032235e-02, 7.64709606e-04,
          2.05053300e-01, 4.60663050e-01, 2.66869962e-01, 0.,
          1.81670114e-02, 1.22010754e-02, 0., 2.29412876e-03,
          3.99943084e-01, 1.15253866e-01, 1.50741439e-03, 1.14378475e-01,
          4.63656224e-02, 2.29412876e-03, 5.05817570e-02, 4.60663050e-01,
          4.60663050e-01, 0., 3.81261632e-02, 1.54552087e-02, 0.,
          3.66445661e-01, 3.98779362e-01, 1.65584162e-01, 0., 0.,
          7.95016531e-03, 4.97282110e-03, 1.22148566e-01, 3.52910101e-01,
          6.01365902e-02, 0., 3.48261255e-03, 4.11091410e-02,
          1.63532142e-02, 9.03934091e-02, 3.98779362e-01, 3.98779362e-01,
          0., 0., 6.33008964e-03, 2.99522839e-03, 3.01311314e-02,
          3.98779362e-01, 2.02245921e-01, 0., 4.64348355e-03,
          5.33531532e-02, 1.32899331e-02, 1.35990018e-02, 2.97494084e-01,
          6.25317693e-02, 0., 1.54973701e-01, 3.73170942e-01,
          6.37196898e-02, 2.24083632e-01, 2.72995569e-02, 9.46908898e-04,
          2.27258131e-02, 2.95171082e-01, 2.09397018e-01, 1.93801507e-01,
          4.07970063e-02, 1.02702610e-01, 5.99919520e-02, 0.,
          1.15314163e-01, 3.73170942e-01, 1.62445456e-01, 3.32750857e-01,
          7.33764917e-02, 0., 5.09250127e-02, 1.19609103e-01,
          2.22069696e-01, 3.73170942e-01, 3.11341690e-04, 2.25681916e-01,
          7.44782090e-02, 6.57150894e-03, 3.77470069e-02, 4.61299382e-02,
          3.11341690e-04, 0., 4.49693680e-01, 4.22332138e-01, 0.,
          1.25823356e-02, 1.53766479e-02, 0., 0., 3.56196970e-01,
          1.26722753e-01, 1.59936305e-02, 2.20528487e-02, 7.51153678e-02,
          0., 0., 4.49693680e-01, 4.49693680e-01, 0., 7.35095004e-03,
          2.50384565e-02, 0., 0., 4.04753596e-01, 4.04753596e-01, 0., 0.,
          5.50076307e-04, 1.99942151e-04, 0., 2.74970382e-01,
          1.63562149e-01, 2.66133342e-04, 5.27887791e-03, 1.46223567e-02,
          1.17172080e-03, 0., 4.04753596e-01, 4.04753596e-01, 0., 0., 0.,
          0., 0., 4.04753596e-01, 2.72335887e-01, 7.98400084e-04,
          6.71901507e-03, 3.41910752e-03, 0., 2.14654710e-02,
          2.42196828e-01, 1.94715351e-01, 8.05022195e-03, 1.59679875e-01,
          4.00833309e-01, 1.32240415e-01, 1.01319633e-01, 1.61342248e-02,
          0., 8.54225978e-02, 5.32266274e-02, 1.35855392e-01,
          3.80146801e-01, 3.74847390e-02, 4.49267298e-01, 4.30378973e-01,
          2.41506677e-02, 2.03242332e-01, 1.03986025e-01, 7.08150193e-02,
          1.12454213e-01, 0., 0., 3.56299505e-02, 6.77474439e-02,
          3.61607224e-02, 2.12445050e-01 ]
      - [ 1.11474015e-01, 1.93336103e-02, 2.82786861e-02, 9.05767549e-03,
          6.94798902e-02, 4.93998975e-02, 2.63969719e-01, 3.05494983e-02,
          7.16153346e-03, 9.66522843e-03, 2.71730274e-02, 2.30738044e-01,
          3.03443462e-01, 3.03443462e-01, 5.43659218e-02, 5.71942106e-02,
          1.94182232e-01, 1.30568475e-01, 2.06971928e-01, 3.03443462e-01,
          1.24384522e-01, 1.73288092e-01, 1.90647375e-02, 3.03443462e-01,
          3.03443462e-01, 3.03443462e-01, 2.38858059e-01, 3.03443462e-01,
          1.43558785e-01, 6.60244673e-02, 3.64097323e-05, 3.67965666e-03,
          5.28101474e-02, 3.02394688e-01, 2.64031261e-01, 3.02394688e-01,
          2.65939891e-01, 1.11273266e-01, 0., 1.01207785e-01,
          2.42213726e-01, 1.29245639e-01, 2.11054847e-01, 2.19717454e-02,
          4.45308201e-02, 7.29905143e-02, 1.97791234e-01, 1.85491174e-01,
          3.02394688e-01, 2.06989214e-01, 8.86466429e-02, 3.70910950e-02,
          6.46123290e-02, 3.02394688e-01, 3.02394688e-01, 3.02394688e-01,
          5.87206073e-02, 9.56646800e-02, 1.47358984e-01, 2.61295605e-02,
          9.36052352e-02, 2.50819474e-01, 5.58200516e-02, 1.37864754e-01,
          2.29010116e-02, 1.43134192e-01, 7.83886835e-02, 3.80296223e-02,
          3.05215478e-01, 2.79692113e-01, 1.38277397e-01, 3.18882279e-02,
          1.43134192e-01, 8.71982500e-02, 3.01396221e-01, 2.18913972e-01,
          3.05215478e-01, 3.05215478e-01, 7.63366930e-03, 3.05215478e-01,
          2.35166043e-01, 8.54120851e-02, 2.14235947e-01, 3.05215478e-01,
          2.92379432e-03, 8.63809884e-03, 1.35100082e-01, 1.32293284e-01,
          7.60516003e-02, 2.86259621e-01, 7.34273195e-02, 1.82021260e-01,
          2.87936628e-03, 2.86259621e-01, 2.86259621e-01, 1.14701688e-01,
          1.61716759e-01, 2.86259621e-01, 3.24105099e-02, 0.,
          4.07759398e-02, 2.05335766e-01, 2.31287166e-01, 2.86259621e-01,
          2.14893535e-01, 1.43709794e-01, 0., 1.22327812e-01,
          2.86259621e-01, 2.04832792e-01, 2.86259621e-01, 2.86259621e-01,
          1.79084226e-01, 0., 4.88644168e-02, 2.07281649e-01,
          1.80890471e-01, 1.77508332e-02, 1.59276485e-01, 6.96032941e-02,
          1.05552562e-01, 1.30709425e-01, 1.70012385e-01, 2.71536380e-01,
          5.86961433e-02, 2.71536380e-01, 7.07511231e-02, 0.,
          1.62881408e-02, 2.71536380e-01, 2.71536380e-01, 1.69427380e-01,
          1.49377868e-01, 2.61468202e-01, 2.71536380e-01, 2.71536380e-01,
          2.71536380e-01, 2.71536380e-01, 8.82722735e-02, 2.71536380e-01,
          1.48421109e-01, 1.23583019e-01, 1.59568682e-01, 3.19070406e-02,
          1.13159172e-01, 2.59551983e-02, 2.95992225e-01, 2.95992225e-01,
          6.37472719e-02, 9.85350758e-02, 1.22468144e-01, 1.37321102e-02,
          6.72178110e-03, 2.95992225e-01, 2.95992225e-01, 2.95992225e-01,
          2.95992225e-01, 1.27459303e-01, 9.65255350e-02, 5.56670409e-03,
          2.12144002e-01, 2.95992225e-01, 1.91241786e-01, 1.42564133e-01,
          2.95992225e-01, 7.11019039e-02, 0., 2.39443049e-01,
          4.14529517e-02, 0., 3.63095775e-02, 2.08898515e-01,
          2.04334334e-01, 1.13462001e-01, 1.02847755e-01, 1.06202863e-01,
          0., 1.08928740e-01, 2.94093639e-01, 2.58300662e-01,
          2.40982309e-01, 2.90387273e-01, 1.38176512e-02, 0.,
          1.08928740e-01, 1.68596983e-01, 2.94093639e-01, 2.94093639e-01,
          2.57851481e-02, 3.54009531e-02, 0., 2.94093639e-01,
          2.94093639e-01, 2.94093639e-01, 2.94093639e-01, 7.13034347e-02,
          1.41652282e-02, 1.30846919e-02, 8.66523534e-02, 1.77406132e-01,
          2.08952427e-01, 2.11332336e-01, 1.08540028e-01, 3.04923952e-01,
          9.95081663e-02, 3.04923952e-01, 8.19652528e-02, 1.27017364e-01,
          1.13092810e-01, 2.63103902e-01, 4.72174212e-03, 5.62049076e-02,
          2.65607327e-01, 3.04923952e-01, 2.61345059e-01, 3.01623076e-01,
          3.27798687e-02, 1.01754479e-01, 3.04923952e-01, 3.04923952e-01,
          9.12309811e-02, 8.29857439e-02, 1.02469154e-01, 8.77013057e-02,
          2.93669373e-01, 8.16616565e-02, 2.25613222e-01, 1.39259636e-01,
          4.29123491e-02, 8.61252919e-02, 1.13857083e-01, 1.91742525e-01,
          3.77626233e-02, 6.37519881e-02, 2.93669373e-01, 9.79935899e-02,
          2.35359550e-01, 1.33783609e-01, 1.19388551e-01, 2.93669373e-01,
          2.93669373e-01, 4.47712988e-02, 1.08881770e-02, 2.37916932e-01,
          8.49434286e-02, 1.55235544e-01, 2.93669373e-01, 2.29996219e-01,
          1.34313896e-01, 3.26645300e-02, 2.93669373e-01, 2.81032115e-01 ]
      - [ 4.33492213e-02, 0., 0., 8.61225743e-03, 2.58709528e-02,
          2.92576015e-01, 7.22395033e-02, 4.20191914e-01, 0., 0., 0.,
          7.32598603e-02, 2.91433930e-01, 2.32933238e-01, 4.10301954e-01,
          4.26754802e-02, 0., 2.58367714e-02, 5.36075840e-03,
          2.81175226e-01, 1.21947229e-01, 4.20191914e-01, 2.60956109e-01,
          0., 0., 1.60822738e-02, 1.36611164e-01, 2.29922354e-01,
          2.62309134e-01, 0., 0., 0., 7.76093360e-03, 2.32828017e-02,
