%YAML:1.0
---
opencv_ml_svm:
   format: 3
   svmType: C_SVC
   kernel:
      type: LINEAR
   C: 1.2000000000000000e-01
   term_criteria: { epsilon:1.1920928955078125e-07, iterations:1000 }
   var_count: 144
   class_count: 2
   class_labels: !!opencv-matrix
      rows: 2
      cols: 1
      dt: i
      data: [ 0, 1 ]
   sv_total: 1
   support_vectors:
      - [ 0., -1.84646714e-02, 1.04361139e-01, 2.06023261e-01,
          1.45278454e-01, 4.04978484e-01, 5.78326762e-01, 4.14060831e-01,
          2.33886868e-01, 1.15478471e-01, -6.50587156e-02,
          1.54101387e-01, 2.91611165e-01, -4.96518224e-01,
          -1.04145184e-01, -1.54685015e-02, -1.20474979e-01,
          1.09185956e-01, 2.45923266e-01, 1.93233073e-01, 3.90857598e-03,
          4.73731697e-01, 5.83663881e-01, 1.90743245e-02, 2.61244327e-01,
          -1.85750460e-03, 3.95911112e-02, -1.93448037e-01,
          -1.31436763e-02, -1.36139154e-01, -4.69224840e-01,
          -2.86824912e-01, 7.83077404e-02, 3.23534191e-01,
          3.12558144e-01, 0., 1.28392115e-01, 1.35734528e-01,
          1.70016930e-01, 9.13099423e-02, -4.45906334e-02,
          2.42906705e-01, -1.04259305e-01, -5.39406873e-02,
          -3.12787332e-02, -7.13318363e-02, -2.32108742e-01,
          7.00195804e-02, 3.30443718e-02, -7.97712207e-02,
          7.37271085e-02, -5.48436679e-03, 1.84383050e-01,
          -5.37718534e-01, -1.67731836e-01, -9.63741075e-03,
          2.21338689e-01, 1.81325838e-01, -4.52363119e-02,
          2.41364744e-02, 1.13805488e-01, 3.34896773e-01, 3.90653223e-01,
          9.66408104e-02, 5.24534518e-03, -1.62669480e-01,
          -3.16625684e-02, 2.03373119e-01, 5.56646362e-02,
          9.66518298e-02, -3.30612361e-01, 1.61067210e-02,
          -4.74562161e-02, -6.68379143e-02, -1.85402870e-01,
          1.73059002e-01, -6.02210127e-02, 1.41060799e-01,
          1.04474775e-01, -2.84379069e-02, 3.61273289e-02,
          5.82936266e-03, -1.22186102e-01, -8.57490525e-02,
          -3.07209730e-01, -5.50470129e-02, -2.37320080e-01,
          -1.21467941e-01, 2.41589591e-01, 9.58419591e-03,
          -3.90904546e-02, 1.68515705e-02, -1.90654561e-01,
          1.42774984e-01, -4.74418141e-03, -9.93479192e-02,
          8.69988799e-02, -3.88823986e-01, -3.33876580e-01,
          -8.14614952e-01, 1.11788251e-01, 1.16705336e-01,
          1.52186722e-01, 1.63765490e-01, 7.17874542e-02, 2.91865855e-01,
          2.07044959e-01, 3.94828394e-02, 0., 2.46958390e-01,
          1.41763836e-01, -6.04354627e-02, 2.03561150e-02,
          -1.43032938e-01, -3.80717605e-01, 2.21887194e-02,
          1.49872005e-01, 1.50704876e-01, 6.87303692e-02,
          -5.67412190e-02, 7.07873926e-02, 2.61828333e-01,
          2.59617399e-02, 5.88637032e-02, -4.12293375e-02,
          2.22487226e-01, 3.46078873e-01, 2.02323005e-01,
          -4.88660522e-02, -1.31466851e-01, -1.53979570e-01,
          -1.24998339e-01, -3.47058147e-01, 4.21542190e-02,
          -1.71089053e-01, -8.31993371e-02, 2.64375776e-01,
          7.11287409e-02, 2.18077913e-01, -1.27678156e-01,
          1.83753744e-01, 1.82701021e-01, 2.23077878e-01, 0. ]
   uncompressed_sv_total: 344
   uncompressed_support_vectors:
      - [ 0., 1.07825249e-01, 1.40347719e-01, 6.81001544e-02,
          1.13500260e-01, 4.08262551e-01, 4.08262551e-01, 9.66873765e-02,
          4.67825718e-02, 4.08262551e-01, 3.05544496e-01, 4.19329889e-02,
          0., 4.08262551e-01, 8.38659778e-02, 4.08262551e-01,
          1.57986414e-02, 5.66436723e-02, 0., 7.08045904e-03,
          4.93679605e-02, 8.04216713e-02, 4.38495316e-02, 2.50059873e-01,
          3.43944840e-02, 3.48786078e-02, 5.27543604e-01, 1.04635820e-01,
          9.44061205e-03, 5.27543604e-01, 5.27543604e-01, 2.63669699e-01,
          0., 1.88050549e-02, 2.06695274e-02, 0., 1.57611948e-02,
          4.00305837e-01, 2.29499683e-01, 1.12371206e-01, 4.00305837e-01,
          2.77903169e-01, 4.00305837e-01, 9.26343948e-02, 4.00305837e-01,
          4.00305837e-01, 2.06492692e-01, 0., 5.36512630e-03,
          1.22634470e-01, 3.50404941e-02, 4.80896514e-03, 0.,
          5.01934767e-01, 7.10674301e-02, 5.01934767e-01, 0.,
          2.73957103e-01, 3.54331374e-01, 5.01934767e-01, 0.,
          6.85838014e-02, 9.11830813e-02, 6.46568611e-02, 3.75371822e-03,
          3.80655401e-03, 1.89189509e-01, 1.14196613e-02, 7.61310803e-03,
          4.74987715e-01, 4.74987715e-01, 2.12628767e-01, 3.79577987e-02,
          4.74987715e-01, 5.93357235e-02, 4.74987715e-01, 9.76799987e-03,
          5.11793792e-02, 3.58663201e-02, 5.11793792e-02, 7.43813366e-02,
          3.31748612e-02, 8.30040649e-02, 1.10582868e-02, 4.75506365e-01,
          4.88225788e-01, 1.82141647e-01, 0., 2.33283043e-02,
          4.88225788e-01, 4.04152542e-01, 0., 1.41011234e-02,
          1.48679435e-01, 2.22385332e-01, 9.91196111e-02, 0.,
          1.15790814e-01, 1.49761841e-01, 4.41777945e-01, 0.,
          2.14191437e-01, 2.84770370e-01, 2.01927349e-01, 0.,
          4.41777945e-01, 4.41777945e-01, 2.11413532e-01, 0.,
          2.01927349e-01, 3.32921922e-01, 1.00963674e-01, 2.18265299e-02,
          4.08684790e-01, 3.41192819e-02, 3.50761741e-01, 4.15028855e-02,
          2.17454106e-01, 1.52391031e-01, 2.17454106e-01, 1.61277443e-01,
          2.27669701e-01, 4.08684790e-01, 2.28563219e-01, 4.85205688e-02,
          1.08727053e-01, 4.08684790e-01, 3.26181144e-01, 5.66603430e-03,
          4.18502867e-01, 9.81615409e-02, 0., 2.53068861e-02,
          2.66830742e-01, 3.99108678e-01, 1.77887157e-01, 1.05234973e-01,
          2.80462354e-01, 3.41846943e-01, 0., 7.93839768e-02,
          4.00246114e-01, 4.18502867e-01, 0. ]
      - [ 0., 2.10429393e-02, 5.07065356e-02, 1.13308141e-02,
          1.19782895e-01, 3.47458929e-01, 3.46394181e-02, 7.18910173e-02,
          2.66876481e-02, 3.76594216e-01, 3.76594216e-01, 3.76594216e-01,
          0., 3.76594216e-01, 3.76594216e-01, 3.76594216e-01,
          2.39392580e-03, 3.95272672e-03, 1.95508316e-01, 4.06566188e-02,
          1.63537473e-03, 2.50790045e-02, 3.84400696e-01, 3.90943378e-01,
          2.98498161e-02, 1.85877338e-01, 3.90943378e-01, 3.90943378e-01,
          2.42810342e-02, 3.24937493e-01, 3.90943378e-01, 2.34176859e-01,
          2.52280980e-02, 3.87649722e-02, 4.34960984e-02, 0.,
          4.96024825e-02, 4.29828256e-01, 4.29828256e-01, 2.89554261e-02,
          1.03610173e-01, 4.29828256e-01, 4.29828256e-01, 1.59131419e-02,
          6.14161044e-02, 2.23281235e-01, 4.29828256e-01, 0.,
          2.14287895e-03, 7.69003481e-02, 5.07670864e-02, 4.27836776e-02,
          0., 2.70521790e-01, 3.05138320e-01, 3.99865389e-01, 0.,
          6.46049976e-02, 3.99865389e-01, 3.99865389e-01, 0.,
          3.99865389e-01, 2.43952423e-01, 3.40781420e-01, 3.29609634e-03,
          2.05250699e-02, 8.86627808e-02, 1.42248333e-01, 1.98113620e-02,
          2.65122771e-01, 3.88338268e-01, 1.91069409e-01, 4.27735783e-02,
          4.12305117e-01, 4.12305117e-01, 4.12305117e-01, 1.58388168e-02,
          1.63486704e-01, 4.12305117e-01, 2.37994660e-02, 2.02827528e-02,
          2.40448266e-01, 1.14535518e-01, 3.11515993e-03, 8.88373554e-02,
          3.22972536e-01, 4.48827565e-01, 0., 2.22733378e-01,
          4.48827565e-01, 2.26666763e-01, 0., 3.24058384e-01,
          4.02292237e-02, 4.48827565e-01, 0., 0., 1.05874473e-02,
          1.07965022e-01, 2.32183009e-01, 0., 3.74174595e-01,
          2.95405924e-01, 3.74174595e-01, 2.68428531e-02, 3.74174595e-01,
          4.81129959e-02, 3.74174595e-01, 0., 1.56356674e-02,
          3.74174595e-01, 3.74174595e-01, 6.83195097e-03, 1.08562805e-01,
          1.55513808e-01, 9.72270891e-02, 1.86930783e-02, 1.92948118e-01,
          4.88044500e-01, 2.80882902e-02, 3.04455636e-03, 3.08686614e-01,
          4.88044500e-01, 4.88044500e-01, 4.24129665e-02, 3.07055086e-01,
          5.22319637e-02, 5.11758476e-02, 3.78545485e-02, 1.74874038e-01,
          3.85230444e-02, 0., 4.06953663e-01, 5.05200028e-02,
          5.02670765e-01, 0., 2.55828440e-01, 5.02670765e-01,
          4.51269686e-01, 0., 1.27140945e-02, 9.20456126e-02,
          1.01171710e-01, 0. ]
      - [ 0., 7.60811055e-03, 2.50873063e-03, 0., 0., 3.91422622e-02,
          3.37300524e-02, 3.37555148e-02, 0., 5.57103083e-02,
          4.66099679e-02, 5.30707061e-01, 1.58248693e-01, 5.00977576e-01,
          3.82399619e-01, 5.30707061e-01, 1.06799635e-04, 0.,
          4.49814610e-02, 1.43592828e-03, 1.43592828e-03, 1.06181633e-02,
          3.94839257e-01, 3.94839257e-01, 1.98424142e-03, 3.94839257e-01,
          3.94839257e-01, 2.41175681e-01, 1.62792020e-02, 3.94839257e-01,
          3.94839257e-01, 9.61244199e-03, 1.19566042e-02, 2.82030436e-03,
          3.56491953e-02, 0., 1.71108514e-01, 3.62082273e-01,
          3.62082273e-01, 8.42648465e-03, 3.46702278e-01, 3.62082273e-01,
          3.62082273e-01, 3.62082273e-01, 2.34418273e-01, 1.88797805e-02,
          3.62082273e-01, 5.89853935e-02, 0., 4.28921496e-03,
          3.58856702e-03, 1.20455787e-01, 9.00267065e-02, 2.85003036e-01,
          2.17544779e-01, 4.01588023e-01, 0., 4.01588023e-01,
          4.01588023e-01, 4.01588023e-01, 0., 4.94103599e-03,
          1.95961326e-01, 4.01588023e-01, 2.17288296e-04, 5.38929366e-02,
          1.42831579e-01, 2.64104176e-02, 1.31723695e-02, 3.97619784e-01,
          3.97619784e-01, 7.77793815e-03, 6.38258830e-02, 3.97619784e-01,
          3.97619784e-01, 1.60370901e-01, 1.18654892e-02, 2.02156976e-01,
          3.97619784e-01, 3.32389504e-01, 6.93924278e-02, 9.48095471e-02,
          1.39524564e-01, 1.75182045e-01, 3.46685618e-01, 2.79216655e-02,
          3.80639523e-01, 8.72346088e-02, 3.80639523e-01, 3.80639523e-01,
          3.80639523e-01, 0., 2.80776083e-01, 3.80639523e-01,
          1.97333060e-02, 0., 0., 2.03812256e-01, 4.29473013e-01,
          4.29473013e-01, 0., 1.71981286e-02, 4.29473013e-01,
          4.29473013e-01, 0., 4.29473013e-01, 1.49775609e-01,
          8.51594657e-02, 0., 2.70067863e-02, 2.22633332e-02,
          2.70067863e-02, 1.65174268e-02, 1.11383393e-01, 3.98370683e-01,
          4.15022038e-02, 2.26892512e-02, 3.86565626e-01, 4.09678221e-01,
          4.09678221e-01, 4.98227449e-03, 2.09318902e-02, 2.97762081e-02,
          4.09678221e-01, 7.40588177e-04, 6.63817162e-03, 1.09444940e-02,
          4.09678221e-01, 8.87783095e-02, 6.83407336e-02, 5.64712659e-02,
          0., 2.46278405e-01, 5.36149561e-01, 1.73087642e-02, 0.,
          6.63573341e-03, 5.36149561e-01, 2.35481918e-01, 0.,
          2.43901927e-03, 5.36149561e-01, 9.01102461e-03, 0. ]
      - [ 0., 1.88055754e-01, 1.45564089e-03, 7.94601813e-03,
          1.76578183e-02, 4.66481537e-01, 4.47673053e-01, 7.10332990e-02,
          4.65805084e-02, 4.66481537e-01, 1.55751318e-01, 1.79002285e-01,
          2.64867265e-02, 4.66481537e-01, 6.98521882e-02, 1.93069458e-01,
          3.54153715e-04, 1.42848613e-02, 3.66360582e-02, 3.01569290e-02,
          1.08917683e-01, 1.27699271e-01, 4.46852408e-02, 1.25089198e-01,
          3.78938951e-02, 3.21799278e-01, 1.23119606e-02, 5.30307293e-01,
          1.69948563e-02, 3.47088367e-01, 5.30307293e-01, 3.97593826e-01,
          3.46220005e-03, 2.10581124e-02, 1.42530471e-01, 0.,
          4.22286801e-03, 8.73478428e-02, 5.28978527e-01, 0.,
          1.16351130e-03, 5.28978527e-01, 1.20024607e-01, 1.80167928e-01,
          5.38199879e-02, 2.77633578e-01, 5.28978527e-01, 0.,
          7.83633161e-03, 3.20837557e-01, 2.62023546e-02, 3.01139094e-02,
          3.29250023e-02, 4.39825147e-01, 8.68315473e-02, 2.39999905e-01,
          7.23788664e-02, 4.39825147e-01, 4.39825147e-01, 2.00253144e-01,
          7.02399984e-02, 4.39825147e-01, 2.63321251e-02, 6.28041523e-03,
          4.57748305e-03, 3.88725027e-02, 1.48725242e-03, 2.86702454e-01,
          1.51692443e-02, 3.09803575e-01, 3.58372182e-01, 3.54883671e-01,
          1.16480470e-01, 2.58496523e-01, 3.58372182e-01, 3.58372182e-01,
          4.60015330e-03, 8.10706615e-03, 3.58372182e-01, 3.10384810e-01,
          2.10189261e-04, 2.99396157e-01, 2.16825418e-02, 3.25474814e-02,
          7.18410239e-02, 3.70596111e-01, 5.34079969e-01, 0.,
          1.16377868e-01, 5.34079969e-01, 1.41243920e-01, 0.,
          7.85293207e-02, 3.24127048e-01, 2.78904587e-02, 2.12171197e-01,
          1.48745365e-02, 3.37128907e-01, 1.37024537e-01, 4.11538966e-02,
          1.06660865e-01, 4.75743294e-01, 3.99858654e-02, 9.53693781e-03,
          9.89179015e-02, 4.75743294e-01, 1.54585302e-01, 4.75743294e-01,
          0., 2.24072278e-01, 2.58602917e-01, 1.34443358e-01,
          1.73874963e-02, 3.85867879e-02, 1.22921668e-01, 1.56500846e-01,
          5.07393852e-03, 8.94204061e-03, 4.52271998e-01, 3.42352360e-01,
          1.96158402e-02, 4.52271998e-01, 4.52271998e-01, 4.52271998e-01,
          3.28149758e-02, 1.26057014e-01, 0., 3.50158364e-02,
          2.66714171e-02, 2.50913084e-01, 3.23702022e-02, 0.,
          1.32983118e-01, 3.82423013e-01, 4.72302549e-02, 3.59294951e-01,
          2.92826474e-01, 3.82423013e-01, 3.29493999e-01, 3.82423013e-01,
          0., 5.61398342e-02, 3.82423013e-01, 0. ]
      - [ 0., 1.97093710e-02, 2.59962082e-02, 3.94187402e-03,
          9.19770524e-02, 3.96137327e-01, 1.05233200e-01, 3.45180668e-02,
          6.93232119e-02, 3.24759096e-01, 3.96137327e-01, 3.96137327e-01,
          7.88374804e-03, 2.81562060e-01, 3.96137327e-01, 3.96137327e-01,
          4.83255694e-03, 5.41450409e-03, 0., 0., 1.95622910e-02,
          4.74135429e-02, 6.66801259e-02, 2.85966862e-02, 2.18748033e-01,
          4.21595633e-01, 4.21595633e-01, 1.18548103e-01, 1.92930728e-01,
          4.21595633e-01, 4.21595633e-01, 4.21595633e-01, 0., 0.,
          5.85983321e-03, 0., 1.77708454e-02, 5.63139953e-02,
          1.00061886e-01, 0., 1.58255592e-01, 2.33450726e-01,
          3.05168092e-01, 5.25239073e-02, 3.46615851e-01, 5.40373921e-01,
          5.40373921e-01, 3.18573594e-01, 6.81752525e-03, 3.19381207e-02,
          1.15724474e-01, 6.67335466e-02, 5.72887994e-03, 2.04602584e-01,
          4.42192793e-01, 3.30559611e-01, 0., 2.06032231e-01,
          4.42192793e-01, 4.42192793e-01, 0., 1.36870770e-02,
          2.70521343e-02, 4.42192793e-01, 1.18207214e-02, 5.03676720e-02,
          3.20883356e-02, 6.40611025e-03, 7.70353600e-02, 2.49492496e-01,
          3.73361796e-01, 2.70730406e-01, 1.48696035e-01, 3.73361796e-01,
          1.45459905e-01, 3.32828283e-01, 2.76325038e-03, 3.73361796e-01,
          3.73361796e-01, 3.73361796e-01, 5.17468853e-03, 7.63344113e-03,
          9.97847598e-03, 1.71744206e-03, 8.37456957e-02, 3.22598994e-01,
          3.65883142e-01, 7.69704133e-02, 2.34574210e-02, 3.65883142e-01,
          3.65883142e-01, 3.65883142e-01, 1.87954381e-01, 3.65883142e-01,
          3.65883142e-01, 2.00123087e-01, 0., 9.79150534e-02,
          5.93838990e-01, 5.05408108e-01, 0., 4.80633378e-02,
          9.49958786e-02, 5.93838990e-01, 0., 4.90589626e-02,
          5.26935421e-02, 1.63529869e-02, 0., 6.01067729e-02,
          4.95496616e-02, 3.00533865e-02, 3.75332721e-02, 2.02606171e-01,
          3.67164165e-02, 8.40111971e-02, 5.15378360e-03, 5.59119761e-01,
          5.59119761e-01, 5.59119761e-01, 2.85876752e-03, 6.55552605e-03,
          1.04346266e-02, 6.32192148e-03, 2.68820347e-03, 1.20476913e-02,
          5.95898554e-02, 4.21669222e-02, 3.30190291e-03, 5.58251850e-02,
          1.09982789e-01, 7.68110231e-02, 1.95490405e-01, 5.44517100e-01,
          5.44517100e-01, 2.08147019e-01, 9.38384735e-04, 4.20089718e-03,
          5.44517100e-01, 0., 5.35890879e-03, 2.80197915e-02,
          3.95972766e-02, 0. ]
      - [ 0., 9.03257281e-02, 2.94741362e-01, 1.88178588e-02,
          3.76357208e-03, 3.20396841e-01, 3.44080776e-01, 2.22260699e-01,
          0., 3.44080776e-01, 3.44080776e-01, 3.44080776e-01, 0.,
          3.44080776e-01, 3.44080776e-01, 1.96873456e-01, 8.80757123e-02,
          4.15503085e-02, 2.05514636e-02, 1.62046194e-01, 3.30719322e-01,
          3.67142767e-01, 8.47798958e-02, 2.10327581e-01, 1.91592038e-01,
          3.67142767e-01, 3.67142767e-01, 2.32590288e-01, 1.74452707e-01,
          3.67142767e-01, 2.11067453e-01, 3.07249337e-01, 2.09272141e-03,
          1.21926039e-01, 2.40539201e-02, 0., 8.63299519e-03,
          1.58253685e-01, 4.99462426e-01, 4.29675072e-01, 1.10559851e-01,
          1.75004497e-01, 4.99462426e-01, 0., 2.14926470e-02,
          2.31179103e-01, 4.17303383e-01, 0., 0., 7.26793632e-02,
          1.03173964e-01, 6.98740035e-02, 0., 3.61940145e-01,
          3.61940145e-01, 2.34090552e-01, 5.90247475e-02, 3.61940145e-01,
          3.61940145e-01, 3.61940145e-01, 1.64084788e-02, 3.61940145e-01,
          3.61940145e-01, 4.25697304e-03, 2.62496211e-02, 1.31358296e-01,
          1.48755953e-01, 3.18667032e-02, 1.76608771e-01, 4.06903654e-01,
          2.13676021e-01, 3.11046600e-01, 2.62929469e-01, 4.06903654e-01,
          3.92872453e-01, 3.29544157e-01, 9.24821272e-02, 8.00281484e-03,
          6.59658760e-03, 3.30707401e-01, 4.01000902e-02, 6.34741783e-02,
          3.25582683e-01, 0., 5.76005653e-02, 3.93140972e-01,
          3.93140972e-01, 0., 1.05906472e-01, 3.93140972e-01,
          3.93140972e-01, 0., 1.77823973e-03, 3.93140972e-01,
          2.95073837e-01, 1.00133449e-01, 9.90317855e-03, 6.27256259e-02,
          1.73391119e-01, 1.50613129e-01, 2.03421917e-02, 3.74660730e-01,
          3.74660730e-01, 5.27752517e-03, 0., 3.74660730e-01,
          2.79480100e-01, 3.74660730e-01, 0., 3.74660730e-01,
          3.74660730e-01, 1.36751086e-01, 4.79132310e-02, 3.07524979e-01,
          7.15925246e-02, 6.00523129e-02, 1.24526814e-01, 1.07757589e-02,
          8.88227858e-03, 3.92906547e-01, 7.72288293e-02, 3.92906547e-01,
          3.92906547e-01, 3.92906547e-01, 1.75580204e-01, 2.79221147e-01,
          3.76656383e-01, 2.53837407e-02, 1.80336367e-02, 1.11772329e-01,
          9.82090607e-02, 0., 2.23738141e-03, 4.26482439e-01,
          3.71261954e-01, 1.25987917e-01, 2.59677529e-01, 4.26482439e-01,
          1.15532883e-01, 4.26482439e-01, 9.48769972e-02, 4.72454689e-02,
          4.26482439e-01, 0. ]
      - [ 0., 2.96317283e-02, 3.52837779e-02, 4.44475971e-02, 0.,
          1.68521106e-01, 1.52141944e-01, 3.81895900e-02, 0.,
          4.67670001e-02, 5.57644665e-01, 5.57644665e-01, 0.,
          3.01043931e-02, 3.64917517e-02, 5.57644665e-01, 1.08960969e-03,
          1.01422220e-02, 2.02518329e-01, 0., 4.69834451e-03,
          8.71424656e-03, 4.54686940e-01, 1.44084617e-01, 3.43758613e-02,
          3.72363955e-01, 4.54686940e-01, 6.37207180e-02, 1.12691347e-03,
          4.02490556e-01, 4.54686940e-01, 8.58174637e-02, 7.04064742e-02,
          0., 1.81367144e-01, 0., 2.91879386e-01, 3.64470601e-01,
          3.64470601e-01, 8.64924584e-03, 3.64470601e-01, 1.63688377e-01,
          3.64470601e-01, 2.85203923e-02, 3.64470601e-01, 2.20451400e-01,
          3.64470601e-01, 0., 0., 7.15148868e-03, 1.70221567e-01,
          2.49539748e-01, 0., 3.40154134e-02, 4.12325859e-02,
          5.36653221e-01, 6.13348885e-03, 8.90443381e-03, 4.53206971e-02,
          5.36653221e-01, 2.97611952e-02, 3.40154134e-02, 1.79675117e-01,
          5.36653221e-01, 4.64111753e-03, 5.02732098e-02, 2.26953045e-01,
          8.60299449e-03, 1.12421287e-03, 4.01525944e-01, 4.75082636e-01,
          8.56118053e-02, 1.23567565e-03, 2.54521042e-01, 4.75082636e-01,
          1.46827912e-02, 4.89886990e-03, 1.73739970e-01, 4.75082636e-01,
          1.58809740e-02, 8.84456336e-02, 2.47730203e-02, 1.71450913e-01,
          4.31634998e-03, 3.92737567e-01, 2.46526137e-01, 3.92737567e-01,
          0., 3.92737567e-01, 4.22802903e-02, 3.92737567e-01, 0.,
          3.49797279e-01, 4.57305573e-02, 3.92737567e-01, 0.,
          9.92483459e-04, 1.44086068e-03, 7.33351614e-03, 2.04428986e-01,
          3.55840214e-02, 4.06705849e-02, 2.14828834e-01, 5.31615674e-01,
          2.20005494e-02, 2.20937446e-01, 0., 5.31615674e-01, 0.,
          7.97382593e-02, 1.64332706e-02, 5.31615674e-01, 1.96843670e-04,
          4.05453071e-02, 2.87443757e-01, 2.33897450e-03, 5.76636055e-03,
          2.04505786e-01, 4.72315073e-01, 1.86931714e-02, 0.,
          3.83536220e-01, 4.72315073e-01, 3.19764353e-02, 4.41096054e-04,
          2.19430923e-01, 4.72315073e-01, 5.73288016e-02, 1.07944183e-01,
          6.49024127e-03, 1.88415870e-01, 0., 3.96760345e-01,
          5.18702455e-02, 3.98076266e-01, 0., 3.98076266e-01,
          8.87289494e-02, 3.98076266e-01, 0., 3.48829597e-01,
          1.59077287e-01, 3.98076266e-01, 0. ]
      - [ 0., 1.01042036e-02, 2.33226195e-02, 8.08336213e-03,
          1.21250441e-02, 6.98257759e-02, 1.77316040e-01, 8.77893865e-02,
          0., 1.33141503e-01, 5.09942710e-01, 1.90309118e-02, 0.,
          5.09942710e-01, 5.09942710e-01, 3.89630198e-01, 4.95878235e-03,
          1.26992697e-02, 1.57031678e-02, 2.53985394e-02, 3.77003849e-02,
          1.37920469e-01, 7.03767091e-02, 1.04839742e-01, 4.22321856e-01,
          2.98982877e-02, 4.60920006e-01, 2.82632530e-01, 1.19943000e-01,
          4.60920006e-01, 4.60920006e-01, 2.16960877e-01, 3.95661918e-03,
          4.72862311e-02, 7.79618099e-02, 0., 1.77323353e-02,
          1.95187449e-01, 3.82935673e-01, 3.17883283e-01, 1.85747460e-01,
          3.82935673e-01, 3.82935673e-01, 2.62050450e-01, 3.82935673e-01,
          3.82935673e-01, 2.79864948e-02, 1.05961084e-01, 0.,
          1.85249187e-02, 2.76368588e-01, 2.64790561e-03, 0.,
          3.87736171e-01, 3.87736171e-01, 3.87736171e-01, 0.,
          3.19466233e-01, 0., 3.87736171e-01, 0., 3.87736171e-01,
          2.40563273e-01, 8.81514326e-02, 5.79271279e-02, 4.10095276e-03,
          1.01117037e-01, 3.87668535e-02, 1.21563256e-01, 5.28068662e-01,
          5.28068662e-01, 2.19891712e-01, 0., 5.28068662e-01,
          7.83993304e-02, 2.03761950e-01, 5.04222959e-02, 1.36524841e-01,
          8.27398226e-02, 6.50706217e-02, 3.14002745e-02, 8.89525861e-02,
          9.25513133e-02, 4.42991517e-02, 3.79566014e-01, 3.79566014e-01,
          3.49581130e-02, 1.32356688e-01, 2.43456513e-02, 3.79566014e-01,
          3.79566014e-01, 3.79566014e-01, 2.56935209e-02, 1.49307981e-01,
          3.79566014e-01, 2.64713377e-01, 0., 8.28190371e-02, 0.,
          2.44340613e-01, 0., 3.97826344e-01, 3.97826344e-01,
          1.68858752e-01, 1.18107602e-01, 3.97826344e-01, 3.97826344e-01,
          1.45709157e-01, 0., 5.35082966e-02, 3.97826344e-01,
          2.67541468e-01, 0., 3.63432467e-01, 2.41015479e-02,
          6.26405701e-02, 1.14536561e-01, 3.10122430e-01, 1.87947333e-01,
          1.47810936e-01, 2.41015464e-01, 2.67606378e-01, 3.63432467e-01,
          3.63432467e-01, 1.60801604e-01, 3.63432467e-01, 1.08015649e-01,
          3.60331386e-01, 3.47050233e-03, 6.66487515e-02, 8.24748054e-02,
          7.77685642e-02, 2.70634741e-02, 1.57268912e-01, 4.23814982e-01,
          2.78827637e-01, 9.77063850e-02, 4.23814982e-01, 4.23814982e-01,
          0., 1.55537119e-02, 3.83387953e-01, 4.23814982e-01, 0. ]
      - [ 0., 2.21266989e-02, 1.45923030e-02, 8.85067880e-03,
          8.85067880e-03, 1.18997991e-01, 5.15338331e-02, 6.90188557e-02,
          0., 2.52102733e-01, 1.03161097e-01, 2.08135638e-02, 0.,
          5.46951473e-01, 5.46951473e-01, 5.46951473e-01, 1.31927489e-03,
          5.91257913e-03, 2.43704878e-02, 1.18251583e-02, 4.65911953e-03,
          4.61071394e-02, 1.52909338e-01, 5.90678491e-02, 9.32668708e-03,
          1.39042260e-02, 1.80074900e-01, 1.46842346e-01, 1.67610660e-01,
          6.63521707e-01, 6.63521707e-01, 2.64983419e-02, 8.65047425e-03,
          3.10149845e-02, 2.55675334e-02, 0., 5.42762205e-02,
          1.54922947e-01, 1.80587381e-01, 0., 6.39188290e-02,
          3.85137588e-01, 4.58701462e-01, 3.43757212e-01, 4.58701462e-01,
          6.94997609e-02, 1.65927783e-01, 4.58701462e-01, 0.,
          1.46662919e-02, 6.00148551e-03, 1.21084682e-03, 0.,
          2.67521977e-01, 4.79821682e-01, 4.79821682e-01, 0.,
          2.21525747e-02, 4.79821682e-01, 4.79821682e-01, 0.,
          2.46909969e-02, 3.53429765e-02, 1.10468138e-02, 8.06220341e-04,
          1.20191323e-03, 1.55660883e-02, 1.26933893e-02, 1.07057460e-01,
          5.15292645e-01, 5.15292645e-01, 1.69252064e-02, 1.96396425e-01,
          5.15292645e-01, 3.53459150e-01, 8.37148502e-02, 4.74786200e-03,
          1.09653110e-02, 1.09342769e-01, 5.92382252e-02, 1.08648716e-02,
          6.54653683e-02, 1.83529735e-01, 5.84315695e-02, 4.76101220e-01,
          8.72907192e-02, 2.08402932e-01, 4.76101220e-01, 2.46708617e-01,
          4.31754172e-01, 2.37280756e-01, 0., 7.63194337e-02,
          3.05517495e-01, 2.15877086e-01, 0., 0., 1.90958288e-02,
          5.55974901e-01, 5.55974901e-01, 0., 1.57268569e-01,
          2.25116059e-01, 7.03623593e-02, 3.99538763e-02, 2.25116059e-01,
          3.33031237e-01, 0., 0., 2.71514744e-01, 1.79060861e-01,
          1.62908867e-01, 1.18153721e-01, 4.06608254e-01, 2.12643981e-01,
          5.03635481e-02, 2.11057551e-02, 4.87442948e-02, 4.06608254e-01,
          2.63332725e-01, 3.12233455e-02, 0., 4.06608254e-01,
          4.06608254e-01, 1.67878494e-02, 1.12856895e-01, 3.10115933e-01,
          3.00951689e-01, 4.30834070e-02, 7.53984153e-02, 4.14369889e-02,
          0., 9.84803960e-02, 3.94230962e-01, 2.78561562e-01, 0.,
          1.18920185e-01, 4.42556590e-01, 4.42556590e-01, 0.,
          6.28320128e-02, 4.42556590e-01, 3.71415406e-01, 0. ]
      - [ 0., 1.91620812e-02, 4.16452214e-02, 3.91951650e-02, 0.,
          3.34574312e-01, 1.64151527e-02, 1.01324931e-01, 0.,
          4.70836699e-01, 4.32512045e-01, 1.25620030e-02, 1.20198511e-01,
          4.70836699e-01, 4.70836699e-01, 4.94927317e-02, 1.11384830e-02,
          7.74608478e-02, 2.63936788e-01, 5.16405664e-02, 4.39041667e-03,
          2.00247020e-01, 2.65625864e-01, 2.56574333e-01, 1.15680188e-01,
          2.48261094e-02, 4.15404409e-01, 4.15404409e-01, 4.15404409e-01,
          9.78117883e-02, 3.84636462e-01, 2.27371961e-01, 4.31841537e-02,
          6.24315962e-02, 6.51904568e-02, 0., 4.34605144e-02,
          3.10189188e-01, 4.76982504e-01, 9.32663307e-02, 1.51383847e-01,
          4.76982504e-01, 2.78876603e-01, 0., 6.29324913e-02,
          2.74884582e-01, 1.25182033e-01, 4.76982504e-01, 0.,
          1.21457174e-01, 3.68517265e-02, 1.07033225e-03, 7.56741762e-02,
          3.63980949e-01, 4.60457653e-01, 3.11594680e-02, 0.,
          4.60457653e-01, 4.60457653e-01, 4.44253415e-01, 3.29018151e-03,
          3.27711478e-02, 6.21685497e-02, 4.16598283e-02, 1.38332061e-02,
          2.96874251e-03, 1.10641710e-01, 1.79740682e-01, 3.61341506e-01,
          8.64259154e-02, 3.39862496e-01, 2.00904533e-01, 2.77450860e-01,
          3.61341506e-01, 3.61341506e-01, 3.61341506e-01, 2.33364999e-02,
          1.15550391e-01, 2.11160675e-01, 3.61341506e-01, 1.66467130e-02,
          1.99822754e-01, 3.06662787e-02, 0., 5.11343703e-02,
          2.23351225e-01, 1.01713821e-01, 4.64646161e-01, 8.19163471e-02,
          4.64646161e-01, 4.64646161e-01, 4.99769896e-02, 3.17704007e-02,
          4.64646161e-01, 1.32530883e-01, 0., 0., 4.28540528e-01,
          1.91041782e-01, 1.14825420e-01, 6.28370931e-03, 6.25875443e-02,
          1.18731782e-01, 7.95634761e-02, 6.90672407e-03, 4.28540528e-01,
          4.28540528e-01, 4.28540528e-01, 0., 5.63232675e-02,
          4.28540528e-01, 1.40808169e-02, 4.17100899e-02, 1.85242131e-01,
          8.18494931e-02, 9.04272720e-02, 2.59226710e-02, 1.28355786e-01,
          2.34561667e-01, 3.82934809e-01, 2.97056377e-01, 3.82934809e-01,
          3.82934809e-01, 3.82934809e-01, 1.26714930e-01, 2.27158796e-02,
          1.87260762e-01, 3.82934809e-01, 1.63991023e-02, 1.33872837e-01,
          3.82931799e-01, 1.00050578e-02, 4.69960235e-02, 3.92846853e-01,
          1.96044907e-01, 0., 9.40631032e-02, 3.92846853e-01,
          3.92846853e-01, 1.10891901e-01, 3.75189632e-02, 3.92846853e-01,
          3.88121665e-01, 0. ]
      - [ 0., 7.55184470e-03, 5.60289957e-02, 0., 0., 3.38450223e-02,
          1.68746129e-01, 1.19634774e-02, 0., 5.91900907e-02,
          6.42634273e-01, 5.36349788e-02, 0., 6.42634273e-01,
          3.24175745e-01, 1.52302593e-01, 2.37882975e-03, 0.,
          5.85910212e-03, 2.36915005e-03, 7.16447458e-03, 3.75315873e-03,
          4.86730754e-01, 4.42694366e-01, 1.08241282e-01, 1.68262608e-02,
          5.02243817e-01, 1.75057828e-01, 1.37635693e-02, 4.77800705e-02,
          5.02243817e-01, 1.11234576e-01, 1.56420236e-03, 4.67351219e-03,
          9.24638286e-02, 0., 1.29942328e-01, 4.04780060e-01,
          2.41729900e-01, 0., 4.04780060e-01, 3.45328450e-01,
          4.04780060e-01, 0., 2.98791677e-01, 2.19427273e-01,
          4.04780060e-01, 0., 0., 3.64260492e-03, 1.56893700e-01,
          3.30073899e-03, 0., 5.99989414e-01, 1.47411913e-01,
          6.92563057e-02, 0., 5.07486016e-02, 5.99989414e-01,
          4.26595658e-01, 6.86807605e-03, 4.18867022e-02, 1.52261540e-01,
          1.15427189e-01, 1.51295122e-02, 2.35190359e-03, 2.83293307e-01,
          2.44688466e-02, 1.42151667e-02, 4.93477881e-02, 4.79958147e-01,
          1.14884302e-01, 2.65097320e-01, 3.03965837e-01, 4.79958147e-01,
          1.73433833e-02, 1.46828266e-02, 8.22463185e-02, 2.71202505e-01,
          4.40521687e-01, 8.56827646e-02, 5.46839163e-02, 2.08797321e-01,
          0., 3.49610686e-01, 2.56747842e-01, 4.09509718e-01, 0.,
          4.09509718e-01, 3.87596563e-02, 4.09509718e-01, 4.04062495e-02,
          8.20258632e-02, 4.09509718e-01, 2.69401401e-01, 2.45076288e-02,
          0., 1.83561463e-02, 3.82800817e-01, 1.54302821e-01,
          1.83561463e-02, 1.11949600e-01, 3.82800817e-01, 3.08499515e-01,
          0., 2.55780548e-01, 3.35435450e-01, 3.82800817e-01, 0.,
          8.22665393e-02, 3.05177838e-01, 3.82800817e-01, 9.70033854e-02,
          1.11225992e-01, 4.01127100e-01, 6.34622294e-03, 3.96990478e-02,
          2.22375497e-01, 4.01127100e-01, 4.01127100e-01, 3.27229500e-02,
          4.01127100e-01, 3.20455164e-01, 0., 2.97712069e-02,
          4.00275886e-01, 2.44423468e-02, 1.18600264e-01, 7.09136575e-02,
          4.90000704e-03, 1.49774179e-01, 5.10817021e-03, 7.66225457e-02,
          6.41380250e-01, 2.51655042e-01, 2.28932295e-02, 3.34857255e-02,
          0., 6.41380250e-01, 1.13233656e-01, 2.55408511e-03,
          9.15729180e-02, 2.26467311e-01, 0. ]
      - [ 0., 7.01807961e-02, 5.50993253e-03, 2.67355442e-02,
          8.02066326e-02, 2.32999265e-01, 3.40987116e-01, 1.55404925e-01,
          3.30595970e-02, 3.91402990e-01, 3.54675293e-01, 3.80200684e-01,
          2.00516582e-02, 1.04423657e-01, 9.45281163e-02, 5.85203409e-01,
          4.23214195e-04, 1.51737155e-02, 1.56357661e-02, 5.69014326e-02,
          2.61909869e-02, 8.81998241e-02, 4.56921309e-01, 2.53213316e-01,
          2.72423699e-02, 2.15782300e-01, 4.56921309e-01, 4.56921309e-01,
          7.26064108e-03, 4.56921309e-01, 1.00092903e-01, 1.63271397e-01,
          4.71926760e-03, 1.26901731e-01, 4.18451168e-02, 0.,
          1.58615410e-01, 3.77229899e-01, 1.40526801e-01, 3.77229899e-01,
          3.77229899e-01, 3.77229899e-01, 2.97377378e-01, 0.,
          3.02105527e-02, 3.64128262e-01, 3.77229899e-01, 0.,
          1.11598498e-03, 1.32124973e-02, 1.19726900e-02, 1.28343450e-02,
          5.00149745e-03, 2.60464586e-02, 2.35782079e-02, 5.36453187e-01,
          0., 2.81242222e-01, 5.36453187e-01, 4.24997985e-01, 0.,
          5.79567365e-02, 3.76460195e-01, 1.11953616e-01, 2.19324115e-03,
          1.73722971e-02, 1.08651914e-01, 3.85414921e-02, 4.31922078e-03,
          4.24978942e-01, 5.95434159e-02, 9.71271247e-02, 4.24978942e-01,
          4.24978942e-01, 4.24978942e-01, 1.40458554e-01, 6.89626038e-02,
          1.51538059e-01, 4.24978942e-01, 1.36660099e-01, 1.77659392e-02,
          4.65659350e-02, 1.29701439e-02, 0., 9.73608904e-03,
          1.17349245e-01, 1.95767000e-01, 0., 2.54372507e-01,
          1.69702396e-01, 5.27015388e-01, 5.03652692e-01, 9.91052613e-02,
          1.65113077e-01, 5.27015388e-01, 1.22192316e-02, 0.,
          8.21536779e-02, 4.06697363e-01, 1.24146171e-01, 0.,
          1.25094831e-01, 4.06697363e-01, 2.41642624e-01, 0.,
          3.94855529e-01, 2.79002845e-01, 4.06697363e-01, 0.,
          4.83812653e-02, 3.85541558e-01, 1.37080237e-01, 6.39905110e-02,
          8.18367526e-02, 2.21308097e-01, 1.99814104e-02, 7.24904090e-02,
          1.59290031e-01, 4.02363628e-01, 1.43650994e-01, 2.48905625e-02,
          4.02363628e-01, 4.02363628e-01, 4.02363628e-01, 3.43951546e-02,
          9.03628543e-02, 4.02363628e-01, 2.55142182e-01, 2.81124786e-02,
          1.87549945e-02, 2.20806181e-01, 5.56621626e-02, 8.09309483e-02,
          1.34834006e-01, 4.85430002e-01, 9.97842010e-03, 1.43464848e-01,
          4.85430002e-01, 4.85430002e-01, 3.12581033e-01, 7.01343268e-02,
          2.39482120e-01, 1.72742173e-01, 0. ]
      - [ 0., 5.21598533e-02, 8.19019601e-03, 2.48380266e-02,
          1.14254922e-01, 3.74049276e-01, 3.11482042e-01, 3.74049276e-01,
          1.63803920e-02, 3.74049276e-01, 3.74049276e-01, 2.44730085e-01,
          1.49028152e-02, 2.29027629e-01, 2.65295655e-01, 3.74049276e-01,
          8.15979671e-04, 1.82848368e-02, 1.80879589e-02, 5.48545085e-03,
          3.10325902e-02, 3.86324853e-01, 3.86324853e-01, 1.29880339e-01,
          7.66919479e-02, 1.80161238e-01, 3.86324853e-01, 2.07596868e-01,
          2.64310949e-02, 3.86324853e-01, 3.86324853e-01, 3.86324853e-01,
          3.54963122e-03, 7.95417093e-03, 1.96713179e-01, 0.,
          9.35988948e-02, 1.88332826e-01, 4.34310824e-01, 0.,
          1.76275969e-01, 3.01025599e-01, 4.34310824e-01, 0.,
          1.90961838e-01, 4.34310824e-01, 4.34310824e-01, 0.,
          7.66262412e-04, 2.61824448e-02, 3.60095724e-02, 1.14482883e-02,
          5.15122479e-03, 7.91644230e-02, 9.17006359e-02, 3.11504334e-01,
          0., 1.95261031e-01, 5.12714565e-01, 5.12714565e-01, 0.,
          4.76868674e-02, 2.28031680e-01, 5.12714565e-01, 3.59929330e-03,
          8.45529512e-03, 4.21567261e-02, 9.74290073e-03, 9.16582439e-03,
          2.30065927e-01, 3.37449938e-01, 2.30833039e-01, 2.03952834e-01,
          3.82515997e-01, 3.82515997e-01, 3.82515997e-01, 2.27926280e-02,
          3.82515997e-01, 3.82515997e-01, 1.85081530e-02, 8.08100775e-03,
          1.37998955e-02, 2.82508228e-02, 0., 6.46856502e-02,
          3.26953173e-01, 4.04979825e-01, 0., 7.47408867e-02,
          4.35956776e-01, 4.35956776e-01, 1.59270465e-01, 2.17051283e-01,
          2.62150485e-02, 4.35956776e-01, 2.65656650e-01, 0.,
          2.93679871e-02, 3.06894481e-01, 1.45402357e-01, 0.,
          5.29963970e-02, 2.53421038e-01, 3.86868089e-01, 0.,
          3.86868089e-01, 3.86868089e-01, 3.86868089e-01, 0.,
          3.86868089e-01, 2.53803879e-01, 1.28283203e-02, 4.70276810e-02,
          1.64636031e-01, 8.99049118e-02, 2.00502396e-01, 3.88335548e-02,
          5.20101964e-01, 5.20101964e-01, 3.15337665e-02, 8.96117613e-02,
          5.20101964e-01, 8.37634578e-02, 8.17402527e-02, 3.88922170e-02,
          1.45252366e-02, 2.63428718e-01, 1.01676658e-01, 1.74284708e-02,
          2.87199974e-01, 3.14815342e-01, 3.71395163e-02, 3.73983443e-01,
          4.51690182e-02, 3.93707007e-01, 3.93707007e-01, 1.62379220e-02,
          1.17084868e-01, 3.93707007e-01, 3.93707007e-01, 5.10668345e-02,
          1.45641804e-01, 1.14344157e-01, 0. ]
      - [ 0., 1.46085257e-03, 1.58963561e-01, 1.46085257e-03,
          1.46085257e-02, 4.98907194e-02, 4.37881380e-01, 8.68810788e-02,
          0., 3.18650045e-02, 4.37881380e-01, 4.37881380e-01, 0.,
          1.96412634e-02, 4.37881380e-01, 4.37881380e-01, 2.16782931e-02,
          1.47205091e-03, 6.31020442e-02, 5.88820362e-03, 9.12820324e-02,
          8.75470862e-02, 4.09050554e-01, 2.29585283e-02, 1.98267043e-01,
          4.09050554e-01, 4.09050554e-01, 2.37252235e-01, 7.17338920e-02,
          4.09050554e-01, 3.72380584e-01, 2.57293701e-01, 3.95174772e-02,
          2.72469278e-02, 2.24612951e-02, 0., 3.26918662e-01,
          1.06237717e-01, 2.88897604e-01, 0., 4.84158278e-01,
          4.84158278e-01, 1.30782798e-01, 0., 2.33202294e-01,
          4.84158278e-01, 1.26555890e-01, 0., 0., 5.23337489e-03,
          2.38776118e-01, 1.09252363e-01, 0., 2.38356087e-02,
          4.80651349e-01, 4.80651349e-01, 0., 8.42427555e-03,
          3.40373926e-02, 4.80651349e-01, 0., 1.79255307e-02, 0.,
          4.80651349e-01, 2.74022166e-02, 9.26434100e-02, 1.78776354e-01,
          3.27903032e-02, 7.32568875e-02, 4.14600223e-01, 3.80286694e-01,
          2.62756407e-01, 3.90616921e-03, 4.14600223e-01, 6.68974817e-02,
          3.91110301e-01, 0., 4.14600223e-01, 3.54813077e-02,
          2.45083898e-01, 1.00680515e-01, 1.36448815e-01, 1.62545647e-02,
          0., 2.14164019e-01, 5.44319510e-01, 1.16224065e-01, 0.,
          3.76742966e-02, 5.44319510e-01, 1.07753173e-01, 0.,
          1.99818164e-02, 5.44319510e-01, 6.23738393e-02, 0., 0.,
          4.03080694e-03, 1.62860490e-02, 6.50164306e-01, 0.,
          6.33753613e-02, 0., 6.50164306e-01, 8.26701745e-02,
          3.27410959e-02, 2.65721858e-01, 0., 0., 2.24720836e-01,
          4.63127531e-02, 1.12360418e-01, 9.43644671e-04, 3.33094954e-01,
          1.61609631e-02, 9.44836587e-02, 0., 4.73680079e-01,
          6.33353218e-02, 4.37482983e-01, 1.53964302e-02, 0.,
          4.16380763e-02, 4.73680079e-01, 2.68344907e-03, 4.81055379e-02,
          4.73680079e-01, 4.81055379e-02, 3.87024158e-03, 1.67192385e-01,
          1.10693723e-02, 0., 1.51676005e-02, 5.27019978e-01,
          4.73461188e-02, 0., 9.97152273e-03, 5.27019978e-01,
          8.17922205e-02, 0., 3.41889441e-01, 8.51245597e-02,
          5.27019978e-01, 0. ]
      - [ 0., 3.05669196e-02, 1.38589919e-01, 6.11338392e-03,
          6.72472194e-02, 5.78427091e-02, 4.07128632e-01, 2.06350058e-01,
          7.39146173e-02, 2.84798145e-01, 4.07128632e-01, 4.07128632e-01,
          0., 4.07128632e-01, 9.98187214e-02, 4.07128632e-01,
          2.68140566e-02, 8.73980112e-03, 1.80118717e-02, 2.18495028e-03,
          1.88992053e-01, 2.95001686e-01, 2.39449516e-01, 1.89064741e-02,
          2.12493628e-01, 4.26322788e-01, 4.26322788e-01, 6.06219135e-02,
          1.93126965e-02, 4.26322788e-01, 4.26322788e-01, 1.94867358e-01,
          1.59478337e-02, 1.42946448e-02, 0., 0., 2.12010220e-01,
          1.23692222e-01, 2.03933999e-01, 8.54188725e-02, 4.22908694e-01,
          3.96607995e-01, 1.16096281e-01, 0., 4.22908694e-01,
          4.22908694e-01, 4.22908694e-01, 0., 1.25523610e-02,
          4.83651161e-02, 1.86513409e-01, 1.70213193e-01, 0.,
          3.73256594e-01, 1.25255272e-01, 3.73256594e-01, 0.,
          3.73256594e-01, 3.73256594e-01, 3.73256594e-01, 6.39270199e-03,
          1.21852167e-01, 2.98614562e-01, 3.37140143e-01, 1.79720223e-02,
          1.21190637e-01, 7.34046176e-02, 5.12720505e-03, 1.20693240e-02,
          4.02131289e-01, 3.85949224e-01, 1.21780880e-01, 5.82652651e-02,
          4.02131289e-01, 4.02131289e-01, 2.93634474e-01, 2.87738424e-02,
          2.40041479e-01, 4.02131289e-01, 1.29316688e-01, 3.60590816e-02,
          1.86106227e-02, 5.44775696e-03, 0., 1.89592600e-01,
          3.62532735e-01, 1.70906082e-01, 0., 3.62532735e-01,
          3.62532735e-01, 3.62532735e-01, 9.76606160e-02, 3.62532735e-01,
          3.62532735e-01, 3.62532735e-01, 0., 0., 2.11690396e-01,
          1.83987513e-01, 3.22620153e-01, 1.43727185e-02, 2.73960352e-01,
          3.30030888e-01, 3.30030888e-01, 2.36966070e-02, 3.09116334e-01,
          1.18137397e-01, 3.30030888e-01, 0., 3.30030888e-01,
          3.30030888e-01, 2.89863259e-01, 8.60701688e-03, 1.11517936e-01,
          1.53228164e-01, 4.33760434e-02, 3.14072333e-02, 2.62010187e-01,
          4.51861948e-01, 1.41151831e-01, 5.52651891e-03, 2.15233058e-01,
          4.51861948e-01, 4.51861948e-01, 2.23565474e-02, 1.00195087e-01,
          2.42284209e-01, 3.74061674e-01, 3.93567681e-02, 8.23227242e-02,
          3.06736398e-02, 7.54313637e-03, 3.51845026e-01, 2.67889857e-01,
          3.65371764e-01, 0., 3.70713264e-01, 3.93672138e-01,
          3.93672138e-01, 1.53275818e-01, 6.22308739e-02, 3.93672138e-01,
          1.67209983e-01, 0. ]
      - [ 0., 7.58535489e-02, 0., 1.44482953e-02, 3.61207388e-02,
          2.28925884e-01, 2.66898163e-02, 1.31464541e-01, 0.,
          4.69841301e-01, 4.69841301e-01, 7.71985799e-02, 2.16724426e-02,
          4.69841301e-01, 4.69841301e-01, 1.67943314e-01, 0.,
          1.10048819e-02, 0., 2.75122048e-03, 2.75122048e-03,
          1.00133039e-01, 2.55576074e-02, 3.92369628e-02, 1.03930764e-01,
          5.88001087e-02, 2.34617099e-01, 5.42535186e-01, 1.16300993e-01,
          1.27917945e-01, 5.42535186e-01, 5.42535186e-01, 0.,
          2.04790826e-03, 3.37642967e-03, 0., 2.57463870e-03,
          2.92065609e-02, 4.14917380e-01, 1.83561761e-02, 2.36350074e-02,
          4.14917380e-01, 4.14917380e-01, 0., 2.16894433e-01,
          4.14917380e-01, 4.14917380e-01, 2.93698817e-01, 0.,
          1.45037219e-01, 1.10818431e-01, 8.48510023e-03, 1.76012926e-02,
          4.31671590e-01, 4.31671590e-01, 1.36395276e-01, 1.93464141e-02,
          4.15160097e-02, 4.31671590e-01, 4.31671590e-01, 0.,
          8.48016981e-03, 9.75427032e-02, 4.31671590e-01, 4.68974980e-03,
          2.65328377e-03, 1.05868131e-02, 4.63760011e-02, 3.87773365e-02,
          4.26506884e-02, 4.13322747e-01, 3.30882102e-01, 3.57150510e-02,
          4.02966589e-01, 4.13322747e-01, 2.37538680e-01, 4.12793178e-03,
          2.01998949e-01, 4.13322747e-01, 3.27663630e-01, 3.48405843e-03,
          1.12772293e-01, 2.10078940e-01, 0., 2.36247391e-01,
          3.37240100e-01, 3.37240100e-01, 3.19904834e-01, 3.37240100e-01,
          3.37240100e-01, 1.63048401e-01, 0., 2.69528538e-01,
          3.37240100e-01, 3.37240100e-01, 0., 8.82025994e-03,
          1.89276412e-02, 3.84764016e-01, 5.45273125e-01, 0.,
          2.85676382e-02, 3.28597754e-01, 5.45273125e-01, 0.,
          2.36542411e-02, 2.86907792e-01, 2.14015558e-01, 0., 0.,
          1.09532587e-01, 4.42899168e-02, 6.77103037e-03, 7.63963312e-02,
          2.97043562e-01, 4.50337119e-02, 5.78262331e-03, 2.82970756e-01,
          4.51813072e-01, 4.51813072e-01, 5.04896790e-03, 2.78288107e-02,
          4.51813072e-01, 4.51813072e-01, 1.92754110e-03, 5.75909298e-03,
          4.27281298e-02, 5.75909298e-03, 7.08822086e-02, 7.94042647e-02,
          2.24138759e-02, 0., 2.73775190e-01, 4.63537842e-01,
          3.77836674e-01, 0., 3.39617103e-01, 4.63537842e-01,
          4.63537842e-01, 0., 1.01960264e-02, 1.01545379e-02,
          7.53390118e-02, 0. ]
      - [ 0., 6.40123636e-02, 1.02134086e-02, 2.89088115e-02, 0.,
          1.46393090e-01, 3.99234504e-01, 3.99234504e-01, 0.,
          3.99234504e-01, 3.99234504e-01, 1.08421512e-01, 2.75322003e-03,
          3.99234504e-01, 3.99234504e-01, 3.80949788e-02, 2.70254863e-03,
          5.65225780e-02, 2.86226362e-01, 7.40176663e-02, 2.64898896e-01,
          3.84314269e-01, 1.82865456e-01, 6.96335286e-02, 2.69214600e-01,
          2.11986005e-01, 3.84314269e-01, 3.84314269e-01, 1.64773390e-01,
          7.44834021e-02, 3.84314269e-01, 2.37047940e-01, 1.59542263e-02,
          3.04852985e-02, 2.19324045e-02, 0., 1.01929000e-02,
          2.86796223e-02, 4.84749138e-01, 8.44594762e-02, 6.22038394e-02,
          1.73112273e-01, 4.84749138e-01, 4.84749138e-01, 4.62348051e-02,
          9.76317897e-02, 4.84749138e-01, 0., 0., 7.31798112e-02,
          1.13412932e-01, 1.20859891e-02, 2.26775766e-03, 3.76711369e-01,
          3.76711369e-01, 3.13778706e-02, 2.05639526e-02, 3.76711369e-01,
          3.76711369e-01, 3.76711369e-01, 2.83469725e-02, 3.14234406e-01,
          3.76711369e-01, 1.59512937e-01, 1.88560802e-02, 1.48477294e-02,
          7.81634971e-02, 2.94391736e-02, 8.52764025e-02, 3.85479517e-02,
          4.29284066e-01, 1.22681193e-01, 9.18198377e-02, 4.39074099e-01,
          6.52557462e-02, 3.60991210e-01, 1.42144203e-01, 1.95962846e-01,
          4.39074099e-01, 4.39074099e-01, 8.30570888e-03, 2.31146514e-02,
          2.05110222e-01, 1.17028050e-01, 4.56160344e-02, 9.63251516e-02,
          4.50938612e-01, 0., 6.93412218e-03, 2.83438176e-01,
          4.50938612e-01, 0., 1.84389710e-01, 4.50938612e-01,
          4.50938612e-01, 0., 3.02455272e-03, 1.52616829e-01,
          8.12273398e-02, 9.37884375e-02, 3.08070574e-02, 3.41505170e-01,
          4.67717737e-01, 1.73356235e-01, 9.14260522e-02, 1.93168428e-02,
          4.67717737e-01, 3.54017049e-01, 0., 1.32544950e-01,
          4.67717737e-01, 3.31362374e-02, 1.04204835e-02, 8.89045447e-02,
          7.40576768e-03, 4.09683026e-02, 1.19198136e-01, 1.64328948e-01,
          4.96267140e-01, 4.96267140e-01, 2.34809846e-01, 3.35582078e-01,
          1.82652418e-02, 4.96267140e-01, 1.06882326e-01, 3.14107165e-02,
          6.90500140e-02, 1.41348213e-01, 1.23839243e-03, 5.06203473e-02,
          2.28501692e-01, 0., 2.43328169e-01, 5.27614534e-01,
          5.27614534e-01, 0., 3.05431336e-03, 5.27614534e-01,
          1.07370414e-01, 0., 1.15465429e-02, 1.74649522e-01,
          5.86561561e-02, 0. ]
      - [ 0., 2.50205368e-01, 1.27912844e-02, 7.75830634e-03,
          7.75830597e-02, 4.16600794e-01, 5.46056442e-02, 2.60777380e-02,
          3.38969022e-01, 4.16600794e-01, 4.16600794e-01, 2.75506563e-02,
          1.04737140e-01, 2.86855102e-01, 2.57969499e-01, 3.56650025e-01,
          2.28325580e-03, 1.02328416e-02, 2.95244344e-02, 2.30238959e-02,
          9.74715687e-03, 3.43953148e-02, 9.36623514e-02, 2.83734858e-01,
          8.89130831e-02, 3.63380276e-02, 5.23706615e-01, 3.78055237e-02,
          4.60477918e-02, 4.70404714e-01, 5.23706615e-01, 3.46566677e-01,
          8.17547925e-03, 4.71085198e-02, 8.62986818e-02, 0.,
          2.59356257e-02, 3.81347090e-01, 3.81347090e-01, 3.81347090e-01,
          3.81347090e-01, 7.73527771e-02, 2.99914330e-01, 7.73527771e-02,
          3.81347090e-01, 3.81347090e-01, 1.06372364e-01, 0.,
          5.81794232e-02, 1.77107826e-01, 8.54937956e-02, 4.72869538e-03,
          1.32830873e-01, 3.63798559e-01, 3.27164948e-01, 4.52314615e-01,
          2.43334547e-02, 6.92525655e-02, 4.86262798e-01, 4.86262798e-01,
          0., 3.30725946e-02, 1.08874626e-01, 1.42215360e-02,
          1.03988331e-02, 4.24991595e-03, 2.04117164e-01, 4.42154706e-03,
          3.97939235e-02, 4.06517833e-01, 4.68592077e-01, 2.99498558e-01,
          1.58715844e-01, 4.68592077e-01, 1.03706539e-01, 4.68592077e-01,
          1.32427039e-02, 1.27816079e-02, 3.12255006e-02, 3.12300641e-02,
          7.82523602e-02, 1.25250975e-02, 4.85626534e-02, 1.25250975e-02,
          5.02314210e-01, 5.02314210e-01, 1.27269119e-01, 0.,
          3.97579595e-02, 5.02314210e-01, 4.37909842e-01, 0.,
          1.19709149e-02, 8.84666890e-02, 9.25486535e-02, 5.61335981e-02,
          7.58345658e-03, 2.15823781e-02, 4.06662077e-01, 4.14561898e-01,
          0., 7.61588961e-02, 2.50714272e-01, 3.27490643e-02, 0.,
          1.36298329e-01, 2.74865657e-01, 2.40239263e-01, 0.,
          3.04635584e-01, 4.14561898e-01, 4.14561898e-01, 6.84411228e-02,
          4.67094570e-01, 4.47201207e-02, 2.58197308e-01, 4.21951450e-02,
          4.07259576e-02, 9.94936153e-02, 9.95081589e-02, 4.62598130e-02,
          2.98755854e-01, 4.67094570e-01, 1.98417500e-01, 1.47927627e-01,
          4.67094570e-01, 1.04099594e-01, 2.84128159e-01, 1.20639838e-02,
          4.37846959e-01, 1.32877484e-01, 0., 2.68400293e-02,
          1.98351473e-01, 2.07503662e-01, 1.25857338e-01, 2.21251845e-01,
          3.95509332e-01, 3.42115700e-01, 0., 2.80825645e-02,
          4.37846959e-01, 4.15007323e-01, 0. ]
      - [ 0., 5.44052720e-02, 4.23579216e-02, 2.26688646e-02,
          4.83602434e-02, 2.77227283e-01, 0., 4.72177595e-01, 0.,
          4.01117474e-01, 4.25565839e-01, 4.72177595e-01, 2.72026360e-02,
          7.84618929e-02, 3.38678688e-01, 3.63030098e-02, 4.77861520e-03,
          1.88967064e-02, 5.60797192e-02, 7.55868247e-03, 0.,
          4.54192638e-01, 4.54192638e-01, 2.92508334e-01, 4.80102636e-02,
          4.54192638e-01, 1.19823232e-01, 4.54192638e-01, 3.82080823e-02,
          3.02620921e-02, 4.18069996e-02, 2.45703340e-01, 1.23697510e-02,
          1.23194167e-02, 9.14007723e-02, 0., 2.06875622e-01,
          4.33806628e-01, 4.33806628e-01, 0., 2.64299344e-02,
          4.33806628e-01, 1.74094304e-01, 0., 9.22155380e-03,
          4.00456280e-01, 4.33806628e-01, 0., 0., 6.69660494e-02,
          7.10476711e-02, 3.26950759e-01, 3.35569978e-02, 9.67900828e-02,
          4.17791873e-01, 4.47831564e-02, 0., 2.21012577e-01,
          4.61607754e-01, 4.61607754e-01, 0., 6.15627170e-02,
          4.61607754e-01, 5.35386195e-03, 8.86100251e-03, 3.01303566e-01,
          2.21151412e-02, 1.37674883e-01, 5.21066263e-02, 4.12702076e-02,
          5.70146814e-02, 3.35080177e-01, 6.46070540e-02, 4.99311596e-01,
          4.99311596e-01, 2.44560409e-02, 8.99886116e-02, 4.93388576e-03,
          4.99311596e-01, 6.26821816e-02, 3.92048387e-03, 1.80340618e-01,
          2.58242693e-02, 0., 1.01073328e-02, 4.38922256e-01,
          4.50420290e-01, 0., 2.50094175e-01, 3.20350192e-02,
          4.50420290e-01, 0., 1.04107916e-01, 8.21075290e-02,
          4.50420290e-01, 2.82404214e-01, 0., 2.50624139e-02,
          5.87425642e-02, 2.13119417e-01, 0., 5.15837222e-02,
          4.24349040e-01, 4.48602857e-03, 0., 4.24349040e-01,
          4.24349040e-01, 4.24349040e-01, 0., 4.24349040e-01,
          6.92541301e-02, 1.96022198e-01, 6.71742857e-03, 1.80078611e-01,
          1.46682009e-01, 2.54278281e-03, 6.91352636e-02, 3.79054085e-03,
          4.34211075e-01, 4.81566414e-02, 6.71110153e-02, 4.34211075e-01,
          4.34211075e-01, 4.34211075e-01, 7.91946519e-03, 1.65632054e-01,
          9.75289568e-02, 3.72672111e-01, 2.85019074e-02, 3.65086133e-03,
          1.46153852e-01, 0., 8.76683965e-02, 6.91420510e-02,
          4.16563094e-01, 2.37810180e-01, 2.96010107e-01, 4.16563094e-01,
          4.16563094e-01, 0., 1.89509355e-02, 4.16563094e-01,
          3.50073844e-01, 0. ]
      - [ 0., 3.18906337e-01, 6.95256367e-02, 5.97400293e-02, 0.,
          3.87711614e-01, 2.76496530e-01, 3.87711614e-01, 6.66287392e-02,
          3.87711614e-01, 1.82459205e-01, 1.17496587e-01, 1.03666514e-01,
          3.87711614e-01, 3.80695164e-01, 3.28529999e-02, 1.17138522e-02,
          7.43719414e-02, 3.60642932e-03, 1.96866896e-02, 4.65848185e-02,
          4.83354092e-01, 6.15829937e-02, 1.39695317e-01, 3.07411756e-02,
          1.46274611e-01, 4.83354092e-01, 4.83354092e-01, 6.41404614e-02,
          4.08995673e-02, 4.83354092e-01, 3.11960876e-02, 8.50117533e-04,
          3.42896618e-02, 9.42234881e-03, 0., 1.45165147e-02,
          2.43316919e-01, 3.87135148e-02, 5.12252040e-02, 2.44884104e-01,
          4.84459251e-01, 4.84459251e-01, 1.12608105e-01, 3.88144076e-01,
          5.43363728e-02, 4.84459251e-01, 0., 1.25394836e-02,
          2.54458338e-01, 3.43386978e-02, 2.21127793e-02, 1.44160241e-01,
          3.77052188e-01, 3.77052188e-01, 4.56858873e-02, 1.97395310e-01,
          3.77052188e-01, 3.77052188e-01, 3.77052188e-01, 8.55187923e-02,
          1.76244099e-02, 3.77052188e-01, 8.47954750e-02, 4.24723513e-03,
          2.02094615e-02, 1.43530726e-01, 1.51155412e-01, 6.54797330e-02,
          4.17535603e-02, 4.56141680e-01, 3.18474695e-02, 9.23671126e-02,
          4.56141680e-01, 4.32851970e-01, 3.29817593e-01, 4.84297872e-02,
          7.74968639e-02, 8.54641795e-02, 4.56141680e-01, 2.07333677e-02,
          1.61338359e-01, 4.87501323e-02, 9.53408238e-03, 2.42823794e-01,
          3.39929499e-02, 4.51939672e-01, 0., 6.25265390e-02,
          3.52036566e-01, 4.51939672e-01, 0., 1.23455115e-02,
          4.51939672e-01, 3.04200128e-02, 4.05923545e-01, 6.71138614e-02,
          1.73494339e-01, 2.53904402e-01, 3.72657120e-01, 2.14845300e-01,
          4.42770720e-02, 4.07638878e-01, 2.13028133e-01, 0.,
          3.61921221e-01, 4.07638878e-01, 1.58750415e-01, 0.,
          4.07638878e-01, 2.26786304e-02, 9.62869897e-02, 2.06875317e-02,
          2.24355549e-01, 9.69461724e-02, 7.38694817e-02, 8.01480189e-02,
          1.28252074e-01, 1.41437426e-01, 5.00511169e-01, 9.76783112e-02,
          9.55745429e-02, 5.00511169e-01, 5.00511169e-01, 1.84780103e-03,
          5.79688922e-02, 3.27684164e-01, 7.45314360e-02, 1.24952234e-02,
          7.03505278e-02, 3.60638022e-01, 0., 1.82296243e-02,
          4.04895544e-01, 4.49187793e-02, 4.04895544e-01, 2.31995478e-01,
          4.04895544e-01, 1.37022018e-01, 4.04895544e-01, 4.22346368e-02,
          7.09809437e-02, 3.51083338e-01, 0. ]
      - [ 0., 2.57094633e-02, 1.41292475e-02, 4.28491049e-02, 0.,
          1.49567574e-01, 1.48766220e-01, 1.53644994e-01, 0.,
          1.00603357e-01, 2.21485317e-01, 2.43287072e-01, 0.,
          5.18219352e-01, 5.18219352e-01, 5.18219352e-01, 4.29315638e-04,
          9.62029584e-03, 3.17223719e-03, 1.92405900e-03, 4.52024583e-03,
          3.44957076e-02, 1.04754537e-01, 4.26006496e-01, 6.72980677e-03,
          5.46217598e-02, 4.31210518e-01, 4.04647052e-01, 5.30148409e-02,
          2.72973180e-01, 4.31210518e-01, 4.31210518e-01, 6.41385326e-04,
          2.87448964e-03, 7.89871998e-03, 0., 2.11800132e-02,
          4.08396393e-01, 7.36875609e-02, 0., 3.67555618e-01,
          4.08396393e-01, 4.08396393e-01, 0., 1.35203764e-01,
          4.08396393e-01, 4.08396393e-01, 5.15302792e-02, 0.,
          4.39376943e-03, 9.67319030e-03, 1.06253633e-02, 0.,
          3.05729777e-01, 3.81677747e-01, 3.81677747e-01, 3.03977565e-03,
          3.81677747e-01, 3.81677747e-01, 4.49034162e-02, 5.53115131e-03,
          3.81677747e-01, 3.81677747e-01, 1.62378207e-01, 8.78107850e-04,
          7.12706801e-03, 2.37200141e-01, 5.27985096e-02, 5.11130355e-02,
          2.63180763e-01, 4.07395989e-01, 4.07395989e-01, 5.81023656e-02,
          3.01194098e-02, 4.07395989e-01, 2.07725108e-01, 1.03517920e-01,
          1.08916797e-01, 4.07395989e-01, 3.62012148e-01, 5.69219850e-02,
          9.36215147e-02, 2.24077657e-01, 0., 1.54715821e-01,
          3.48670661e-01, 3.48670661e-01, 5.89669161e-02, 3.00545245e-01,
          3.48670661e-01, 3.47711682e-01, 8.10166672e-02, 2.85018414e-01,
          3.48670661e-01, 3.48670661e-01, 0., 8.98460217e-04,
          2.40101382e-01, 1.89179048e-01, 1.32720107e-02, 1.20798592e-02,
          6.11174166e-01, 6.11174166e-01, 3.54628861e-01, 2.65550911e-02,
          1.13362968e-01, 1.56530868e-02, 2.10340135e-02, 0.,
          9.02302787e-02, 4.46293764e-02, 5.41381687e-02, 9.44234803e-03,
          4.89477348e-03, 2.03531176e-01, 3.37578841e-02, 1.24305598e-01,
          1.30788624e-01, 4.92218584e-01, 4.34708685e-01, 7.81280454e-04,
          7.75743416e-03, 4.92218584e-01, 4.92218584e-01, 2.22755154e-03,
          1.99663900e-02, 3.29190083e-02, 4.99159694e-02, 3.76684591e-02,
          4.61648069e-02, 4.35800068e-02, 1.01541225e-02, 2.63954997e-01,
          5.47982752e-01, 5.47982752e-01, 0., 9.26582888e-02,
          5.47982752e-01, 3.95316742e-02, 0., 6.09247340e-03,
          6.82614297e-02, 6.00235052e-02, 0. ]
      - [ 0., 2.68226136e-02, 4.42230105e-02, 0., 5.36452271e-02,
          1.20210625e-01, 3.12669635e-01, 7.63752311e-02, 0.,
          9.90968943e-02, 4.63532597e-01, 4.63532597e-01, 0.,
          4.37805384e-01, 4.63532597e-01, 1.60280809e-01, 7.02275056e-03,
          0., 1.55674502e-01, 2.09825244e-02, 4.96528968e-02,
          8.96190628e-02, 2.46686220e-01, 4.63471740e-01, 1.10745318e-01,
          4.63471740e-01, 2.22389042e-01, 2.98833072e-01, 2.24219516e-01,
          1.88074276e-01, 4.63471740e-01, 1.34938791e-01, 2.71114279e-02,
          2.70011071e-02, 3.99382085e-01, 0., 4.29615378e-02,
          3.99382085e-01, 3.49147230e-01, 0., 3.87300663e-02,
          3.84549767e-01, 3.99382085e-01, 9.97563526e-02, 2.00683981e-01,
          1.73644364e-01, 3.84549767e-01, 1.21010572e-01, 0.,
          9.60502774e-03, 6.75935149e-02, 9.91643444e-02, 0.,
          3.13551277e-01, 5.04326940e-01, 1.14791326e-01, 0.,
          1.95982471e-01, 5.04326940e-01, 5.04326940e-01, 0.,
          8.60934928e-02, 1.67247225e-02, 2.44620115e-01, 9.32697020e-03,
          1.01106733e-01, 1.87296029e-02, 2.51677204e-02, 1.39533207e-01,
          1.17039807e-01, 4.62387800e-01, 8.39732513e-02, 1.29182979e-01,
          4.62387800e-01, 4.54799831e-01, 4.50203806e-01, 2.30778055e-03,
          2.49411628e-01, 0., 1.66845247e-01, 5.51874982e-03,
          5.47954999e-02, 1.12248056e-01, 1.42145427e-02, 2.11297333e-01,
          1.82827711e-01, 3.87383550e-01, 1.27410337e-01, 1.34008512e-01,
          3.87383550e-01, 3.87383550e-01, 3.15096170e-01, 0.,
          3.63257706e-01, 3.87383550e-01, 1.91115499e-01, 0.,
          7.68872574e-02, 3.67288113e-01, 4.33553457e-01, 0.,
          2.49572366e-01, 4.84825075e-02, 4.33553457e-01, 0.,
          4.33553457e-01, 7.99341351e-02, 1.08080983e-01, 0.,
          4.33553457e-01, 6.85792044e-02, 1.24786183e-01, 6.59483299e-02,
          4.98696774e-01, 2.32176796e-01, 2.29830489e-01, 8.70526489e-03,
          4.98696774e-01, 0., 4.98696774e-01, 1.43525545e-02,
          1.43395394e-01, 9.57367644e-02, 6.43236861e-02, 1.23137226e-02,
          1.65558830e-01, 0., 2.75931358e-01, 3.31453159e-02,
          2.42437601e-01, 1.16570383e-01, 7.79350698e-02, 0.,
          4.62651700e-01, 4.62651700e-01, 3.49280775e-01, 1.36672808e-02,
          6.78520948e-02, 2.49387547e-01, 0., 0., 2.91067302e-01,
          4.62651700e-01, 0. ]
      - [ 0., 2.82388683e-02, 1.51313573e-01, 1.76492911e-02,
          8.00101236e-02, 3.55786979e-02, 4.54714775e-01, 3.67017873e-02,
          1.55193405e-02, 4.54714775e-01, 4.54714775e-01, 4.54714775e-01,
          0., 1.37766689e-01, 2.08313510e-01, 2.69743532e-01,
          1.74017921e-02, 1.49979647e-02, 3.11566055e-01, 2.99959304e-03,
          9.79163051e-02, 3.11883390e-02, 1.86163306e-01, 4.20517683e-01,
          1.96096793e-01, 4.20517683e-01, 1.50964603e-01, 4.20517683e-01,
          2.39570588e-02, 2.29221895e-01, 4.20517683e-01, 1.76835269e-01,
          3.10292989e-02, 2.20735953e-03, 9.09830183e-02, 0.,
          1.85402632e-02, 3.97060722e-01, 3.97060722e-01, 0.,
          1.50347743e-02, 3.97060722e-01, 1.99296370e-01, 3.97060722e-01,
          6.98284954e-02, 1.30130664e-01, 3.97060722e-01, 3.69327456e-01,
          1.21530774e-03, 5.15410900e-02, 1.33526474e-01, 5.68209179e-02,
          0., 7.97161236e-02, 1.20536715e-01, 1.56082064e-01, 0.,
          4.18907218e-02, 5.39208710e-01, 5.39208710e-01, 0.,
          4.21620011e-02, 5.39208710e-01, 2.23345771e-01, 2.92019639e-02,
          9.18209627e-02, 2.24810522e-02, 1.46363616e-01, 2.63611283e-02,
          2.52224118e-01, 3.94283295e-01, 1.94580525e-01, 3.94283295e-01,
          3.94283295e-01, 1.92442462e-01, 3.94283295e-01, 2.59410203e-01,
          3.60920310e-01, 3.11049465e-02, 7.26622343e-02, 3.32849170e-03,
          1.60122707e-01, 4.41214703e-02, 1.08326294e-01, 1.14227906e-01,
          2.12872326e-01, 4.71780777e-01, 4.71780777e-01, 2.84925792e-02,
          4.71780777e-01, 4.71780777e-01, 0., 4.60532494e-03,
          7.94929415e-02, 1.15238428e-02, 0., 0., 5.02053322e-03,
          2.59755969e-01, 1.04370818e-01, 0., 3.73372324e-02,
          4.29851294e-01, 1.97787449e-01, 0., 1.01867191e-01,
          4.29851294e-01, 4.29851294e-01, 0., 1.08083813e-02,
          4.29851294e-01, 3.56676608e-01, 8.56787637e-02, 2.54375756e-01,
          3.47853191e-02, 1.11581266e-01, 3.46474320e-01, 3.63878161e-01,
          4.15444933e-02, 9.70493853e-02, 3.63878161e-01, 3.63878161e-01,
          3.63878161e-01, 2.08928324e-02, 2.51276374e-01, 3.63878161e-01,
          1.95441619e-01, 1.25126973e-01, 1.87237728e-02, 3.95648211e-01,
          3.95648211e-01, 0., 2.23620106e-02, 3.85992736e-01,
          5.59561551e-02, 0., 2.05951363e-01, 8.30966830e-02,
          3.95648211e-01, 0., 1.05199687e-01, 3.95648211e-01,
          3.95648211e-01, 0. ]
      - [ 0., 3.25292833e-02, 6.70396583e-03, 0., 5.15047014e-02,
          1.73119053e-01, 5.12793243e-01, 7.73202479e-02, 2.77097225e-01,
          1.28350351e-02, 5.12793243e-01, 5.74980266e-02, 4.33723815e-02,
          3.82591277e-01, 4.46160376e-01, 4.11143452e-02, 1.27549365e-03,
          0., 1.57078236e-01, 5.71636576e-03, 4.37894642e-01,
          1.08699791e-01, 4.94172066e-01, 8.08327571e-02, 1.00139558e-01,
          8.08329508e-02, 4.94172066e-01, 2.21893508e-02, 8.48862827e-02,
          5.78001365e-02, 4.94172066e-01, 6.03716588e-03, 1.37349963e-02,
          3.69335874e-03, 2.80108720e-01, 0., 1.60045549e-01,
          5.22262566e-02, 5.39644897e-01, 0., 9.75443795e-02,
          1.43365972e-02, 5.39644897e-01, 0., 6.40182197e-02,
          3.90062900e-03, 5.39644897e-01, 1.10349907e-02, 7.77289718e-02,
          3.60037503e-03, 1.47641987e-01, 1.61288586e-02, 8.98985937e-02,
          4.47777838e-01, 4.47777838e-01, 8.52183327e-02, 0.,
          4.47777838e-01, 4.47777838e-01, 4.15166132e-02, 0.,
          3.84817630e-01, 1.32478401e-02, 8.15702230e-03, 2.02227216e-02,
          1.63238421e-02, 2.25280553e-01, 4.48103715e-03, 1.26666114e-01,
          8.62485468e-02, 4.89018977e-01, 9.00857430e-03, 1.85458288e-01,
          4.20185104e-02, 4.89018977e-01, 1.21691197e-01, 1.81457482e-03,
          8.25563353e-03, 4.89018977e-01, 3.89416814e-01, 1.09429108e-02,
          1.60833541e-03, 2.07203642e-01, 0., 5.30668236e-02,
          3.23336083e-03, 4.78948653e-01, 9.14727058e-03, 7.53276870e-02,
          4.36774530e-02, 4.78948653e-01, 4.52438965e-02, 5.01864664e-02,
          1.39769644e-01, 4.78948653e-01, 4.78948653e-01, 0.,
          6.66552633e-02, 1.19649917e-01, 3.66874761e-03, 0.,
          2.51269549e-01, 8.65027588e-03, 5.32618864e-03, 0.,
          5.15801132e-01, 3.19657117e-01, 5.15801132e-01, 0.,
          1.06874213e-01, 5.15801132e-01, 3.28843743e-02, 2.20948756e-02,
          5.00594359e-03, 1.84752718e-01, 1.44978799e-02, 1.59738329e-03,
          7.26749329e-03, 3.98625731e-01, 3.42806458e-01, 5.90287410e-02,
          3.98625731e-01, 3.98625731e-01, 3.98625731e-01, 2.22764477e-01,
          4.48701680e-02, 3.88386607e-01, 4.48701680e-02, 5.23042446e-03,
          3.03277024e-03, 1.07793845e-01, 3.14153754e-03, 2.57488471e-02,
          7.17107132e-02, 4.99068409e-01, 4.17688698e-01, 2.55987849e-02,
          1.52762204e-01, 4.99068409e-01, 1.77966297e-01, 1.09953806e-02,
          9.38626286e-03, 4.99068409e-01, 0. ]
      - [ 0., 6.28007622e-03, 7.24786669e-02, 3.14003825e-02, 0.,
          9.79458615e-02, 9.05740634e-02, 1.25478432e-01, 0.,
          2.33356401e-01, 4.88851786e-01, 4.88851786e-01, 2.51203049e-02,
          3.05062622e-01, 4.88851786e-01, 3.00365508e-01, 1.46420184e-03,
          4.68721241e-03, 0., 1.59365218e-02, 1.82976201e-03,
          1.87304746e-02, 5.73831648e-02, 2.38903090e-01, 1.08190682e-02,
          2.46481672e-01, 5.25138736e-01, 5.25138736e-01, 1.46930991e-02,
          4.48363014e-02, 5.25138736e-01, 2.08199948e-01, 0.,
          1.93288829e-02, 3.20553958e-01, 0., 9.41908453e-03,
          2.89757699e-01, 3.90739560e-01, 0., 1.84265688e-01,
          3.90739560e-01, 3.90739560e-01, 0., 3.17002177e-01,
          2.52518892e-01, 3.90739560e-01, 0., 0., 2.13956479e-02,
          4.91026454e-02, 1.51394695e-01, 1.70184355e-02, 2.06672981e-01,
          4.48362738e-01, 2.03490809e-01, 8.41759667e-02, 2.39684269e-01,
          4.48362738e-01, 3.92074734e-01, 8.50921776e-03, 5.03440090e-02,
          2.47728199e-01, 4.48362738e-01, 1.08016527e-03, 2.46084891e-02,
          1.12078048e-01, 1.16363578e-01, 1.08393366e-02, 3.30764614e-02,
          5.28571308e-01, 1.53592467e-01, 2.01430675e-02, 6.37298822e-02,
          5.28571308e-01, 5.28571308e-01, 5.44955162e-03, 2.39706725e-01,
          2.01023802e-01, 5.17747030e-02, 2.15036944e-02, 1.64967537e-01,
          4.79742624e-02, 0., 2.73350418e-01, 2.17746601e-01,
          5.04106820e-01, 0., 2.66989797e-01, 5.04106820e-01,
          5.03933191e-01, 0., 3.85691375e-02, 7.34004974e-02,
          4.24646512e-02, 2.63638198e-02, 7.52492948e-03, 2.14266293e-02,
          8.18567649e-02, 3.50496098e-02, 5.62073244e-03, 3.32545489e-02,
          1.63635939e-01, 4.82702643e-01, 0., 1.13042660e-01,
          4.82702643e-01, 4.82702643e-01, 0., 4.82702643e-01,
          6.22978583e-02, 1.00761496e-01, 9.39481612e-03, 2.97239032e-02,
          3.68390411e-01, 3.68390411e-01, 1.87807269e-02, 3.68390411e-01,
          3.68390411e-01, 1.78430572e-01, 1.97213456e-01, 3.68390411e-01,
          2.95812011e-01, 1.22569948e-01, 7.15001300e-03, 8.54510292e-02,
          3.68390411e-01, 1.06813787e-02, 1.97863981e-01, 4.64621037e-01,
          3.73460859e-01, 0., 2.11203441e-01, 4.01938945e-01,
          2.32535154e-01, 1.44367486e-01, 9.01815370e-02, 2.76105344e-01,
          4.56033111e-01, 0., 1.12744577e-01, 2.40612477e-02,
          1.19010858e-01, 0. ]
      - [ 0., 2.03560293e-01, 0., 6.88091218e-02, 0., 4.02564913e-01,
          7.35292435e-02, 3.43982756e-01, 0., 4.02564913e-01,
          9.30612460e-02, 4.02564913e-01, 1.22327313e-01, 4.02564913e-01,
          1.33730456e-01, 3.69234324e-01, 0., 7.77945742e-02,
          5.34423217e-02, 4.42996882e-02, 1.12505686e-02, 3.88901830e-01,
          4.01201695e-01, 1.43209904e-01, 1.42391231e-02, 4.01201695e-01,
          4.01201695e-01, 7.14916065e-02, 2.04618406e-02, 4.01201695e-01,
          4.01201695e-01, 5.19099869e-02, 1.40547110e-02, 8.60847533e-02,
          4.58713979e-01, 0., 2.13741258e-01, 2.78290659e-01,
          4.58713979e-01, 0., 3.31723303e-01, 1.38925076e-01,
          4.58713979e-01, 0., 2.03663543e-01, 1.00873366e-01,
          2.28973284e-01, 0., 0., 1.62538052e-01, 1.09595349e-02,
          7.18987957e-02, 1.06447548e-01, 4.10855532e-01, 1.16370402e-01,
          3.21302682e-01, 2.74222391e-03, 3.61154713e-02, 2.81595945e-01,
          2.83304989e-01, 0., 4.10855532e-01, 4.10855532e-01,
          4.10855532e-01, 1.93251658e-03, 9.36788693e-02, 1.71190381e-01,
          9.70275421e-03, 2.05198228e-02, 3.66629153e-01, 3.66629153e-01,
          5.20570874e-02, 4.96543646e-02, 3.66629153e-01, 3.66629153e-01,
          2.42825970e-01, 2.39068866e-01, 3.66629153e-01, 3.66629153e-01,
          1.73033729e-01, 5.64168729e-02, 2.36272756e-02, 8.18536282e-02,
          0., 2.55938292e-01, 1.26764745e-01, 2.87744343e-01, 0.,
          1.49989083e-01, 3.45932245e-01, 3.45932245e-01, 3.45932245e-01,
          2.84992218e-01, 3.45932245e-01, 3.45932245e-01, 3.45932245e-01,
          2.66081101e-04, 3.50432517e-03, 2.73235720e-02, 2.74894014e-02,
          0., 4.40796047e-01, 4.40796047e-01, 4.40796047e-01, 0.,
          4.40796047e-01, 9.88253057e-02, 4.40796047e-01, 0.,
          4.80994359e-02, 3.52455862e-02, 9.61988717e-02, 2.52816430e-03,
          1.87941249e-02, 2.31727678e-02, 1.23635447e-02, 8.99414420e-02,
          3.75910461e-01, 3.25342029e-01, 6.50979951e-02, 9.14399605e-03,
          4.84289169e-01, 4.84289169e-01, 4.84289169e-01, 3.26116360e-03,
          6.57698438e-02, 1.53617859e-01, 5.48082031e-02, 8.16977862e-03,
          3.22080441e-02, 3.54950465e-02, 2.33628936e-02, 1.14702426e-01,
          1.69585600e-01, 3.21308881e-01, 2.09410444e-01, 5.27610719e-01,
          5.27610719e-01, 3.29711288e-02, 0., 5.41594401e-02,
          1.42779857e-01, 4.70808327e-01, 0. ]
      - [ 0., 4.02657036e-03, 1.32773835e-02, 1.61062814e-02,
          3.22125629e-02, 1.37204453e-01, 1.79947600e-01, 1.03579648e-01,
          0., 1.19010210e-01, 2.45268330e-01, 6.49200737e-01, 0., 0.,
          1.13361582e-01, 6.49200737e-01, 5.97115839e-04, 5.35217486e-03,
          2.42666733e-02, 4.01413115e-03, 8.09267443e-03, 3.44198830e-02,
          4.23902184e-01, 8.02307054e-02, 1.10303052e-02, 4.23902184e-01,
          4.23902184e-01, 4.23902184e-01, 5.09814266e-03, 2.46757925e-01,
          4.23902184e-01, 1.67158142e-01, 6.89397193e-03, 8.42635613e-03,
          5.55708557e-02, 0., 1.87118039e-01, 1.68418154e-01,
          2.05463037e-01, 0., 1.66569158e-01, 5.48185289e-01,
          1.30375639e-01, 4.15085480e-02, 3.38357091e-01, 3.50893915e-01,
          5.48185289e-01, 2.51762066e-02, 0., 2.19608005e-02,
          4.52590473e-02, 5.18488646e-01, 0., 0., 1.54567704e-01,
          5.60234606e-01, 1.81036182e-02, 4.05673943e-02, 1.05409861e-01,
          5.60234606e-01, 0., 3.87781225e-02, 2.20819026e-01,
          8.98786411e-02, 2.72806012e-03, 2.30928048e-01, 1.45011231e-01,
          2.34079421e-01, 9.31681041e-03, 4.50947970e-01, 5.28613567e-01,
          3.05480063e-01, 6.35374431e-03, 5.28613567e-01, 7.63548538e-02,
          1.15013449e-02, 1.33102108e-02, 4.00307737e-02, 3.46105024e-02,
          3.09898872e-02, 1.59005355e-02, 1.89654112e-01, 1.24455355e-02,
          3.96236638e-03, 2.38660946e-01, 2.47503817e-01, 5.20497024e-01,
          1.77580956e-02, 8.37233756e-03, 9.31853615e-03, 1.62246823e-01,
          5.20497024e-01, 3.79505428e-03, 2.51083989e-02, 5.20497024e-01,
          0., 5.20901894e-03, 1.16726011e-02, 3.03299539e-02,
          4.23269242e-01, 0., 8.24453682e-02, 4.23269242e-01,
          1.91089138e-01, 0., 1.35929421e-01, 4.23269242e-01,
          3.84520084e-01, 0., 1.56938910e-01, 4.23269242e-01,
          2.09251881e-01, 4.42990940e-03, 4.26711231e-01, 5.32355458e-02,
          8.01888015e-03, 6.85707629e-02, 2.06228197e-01, 1.78304359e-01,
          1.59651875e-01, 8.47482160e-02, 4.14983720e-01, 4.26711231e-01,
          3.72330517e-01, 7.55841807e-02, 2.25829884e-01, 1.86165258e-01,
          3.38744819e-01, 2.35553575e-03, 2.62174616e-03, 4.56477255e-02,
          2.71831959e-01, 7.88950734e-03, 5.21976501e-02, 8.87388170e-01,
          0., 2.36310642e-02, 1.21732220e-01, 6.77072331e-02, 0.,
          8.23733211e-03, 1.10751495e-01, 3.04330558e-01, 0. ]
      - [ 0., 1.28560677e-01, 2.96745002e-02, 2.39122838e-01,
          2.05697063e-02, 2.92206258e-01, 4.05496210e-01, 1.38280556e-01,
          0., 4.05496210e-01, 4.05496210e-01, 1.01240672e-01, 0.,
          3.40078443e-01, 4.05496210e-01, 1.81163341e-01, 1.57588650e-03,
          9.38321352e-02, 1.49712618e-02, 9.08052921e-03, 6.61235452e-02,
          5.42614833e-02, 0., 4.33150716e-02, 4.11823541e-02,
          3.97269763e-02, 0., 6.37911737e-01, 2.83949655e-02,
          7.10887462e-02, 6.37911737e-01, 3.90292078e-01, 1.99501240e-03,
          8.94102547e-03, 1.63791759e-03, 0., 0., 4.26496267e-02,
          4.33229923e-01, 0., 0., 4.33229923e-01, 4.13306594e-01, 0.,
          3.34957451e-01, 3.84296030e-01, 4.33229923e-01, 0., 0.,
          6.70413375e-02, 6.93424419e-02, 9.05283354e-03, 0.,
          2.24697143e-01, 3.53279352e-01, 1.19698517e-01, 0.,
          1.56645969e-01, 4.50400084e-01, 4.50400084e-01, 0.,
          4.93270624e-03, 4.04166400e-01, 4.50400084e-01, 2.94520310e-03,
          2.84112012e-03, 0., 1.27521902e-01, 1.50049441e-02,
          3.75659056e-02, 4.57195580e-01, 2.06244692e-01, 4.53968644e-02,
          4.27254885e-01, 4.57195580e-01, 2.01155115e-02, 1.71662867e-02,
          3.30613494e-01, 4.57195580e-01, 1.15264498e-01, 0.,
          3.44325572e-01, 8.10559168e-02, 0., 3.48068804e-01,
          3.48068804e-01, 3.48068804e-01, 0., 3.48068804e-01,
          5.43144681e-02, 3.48068804e-01, 8.50991309e-02, 1.93025559e-01,
          3.11228991e-01, 3.48068804e-01, 1.29038077e-02, 0.,
          3.75356078e-02, 2.56114393e-01, 3.26216698e-01, 0.,
          8.73370469e-03, 5.00244617e-01, 5.00244617e-01, 0., 0.,
          1.27522096e-01, 5.00244617e-01, 0., 8.08840320e-02,
          1.11129351e-01, 1.88729405e-01, 9.86234751e-03, 9.28199813e-02,
          3.52022499e-01, 4.37004026e-03, 2.75562257e-02, 4.95048344e-01,
          4.95048344e-01, 1.85028628e-01, 4.91056824e-03, 2.70314753e-01,
          4.95048344e-01, 9.99375209e-02, 4.27932292e-03, 5.37000671e-02,
          3.79441902e-02, 6.90429434e-02, 1.35896444e-01, 1.24655673e-02,
          1.20840900e-01, 1.95308719e-02, 3.27340961e-01, 4.25009698e-01,
          4.25009698e-01, 2.18828265e-02, 4.25009698e-01, 2.85072416e-01,
          4.25009698e-01, 0., 1.46481534e-02, 1.96945414e-01,
          1.08236030e-01, 0. ]
      - [ 0., 2.04157066e-02, 2.52448581e-02, 2.21170150e-02, 0.,
          3.12306713e-02, 6.54485151e-02, 4.90450189e-02, 0.,
          2.13353172e-01, 3.15166861e-01, 5.81029296e-01, 2.38183234e-02,
          2.59875268e-01, 3.11204702e-01, 5.81029296e-01, 1.00495270e-03,
          6.50561182e-03, 8.25072359e-03, 2.00172700e-03, 2.60538841e-03,
          1.44263525e-02, 4.15920943e-01, 2.93158293e-01, 1.25462301e-02,
          4.15920943e-01, 4.15920943e-01, 2.92119741e-01, 1.23885041e-02,
          3.59605730e-01, 4.15920943e-01, 5.14883399e-02, 1.70303450e-03,
          3.05298832e-03, 1.51005797e-02, 0., 1.91584364e-01,
          3.70314717e-01, 3.70314717e-01, 0., 2.77336359e-01,
          3.70314717e-01, 3.70314717e-01, 3.70314717e-01, 1.70853540e-01,
          7.85288364e-02, 1.55833825e-01, 3.70314717e-01, 0.,
          2.86240615e-02, 4.22836728e-02, 3.25137228e-01, 2.36119740e-02,
          2.57623881e-01, 3.08508605e-01, 5.79195917e-01, 8.89818668e-02,
          9.00536627e-02, 1.52539402e-01, 5.79195917e-01, 0.,
          4.27243523e-02, 7.04405457e-02, 8.22877735e-02, 1.43868825e-03,
          8.17428231e-02, 1.54073849e-01, 3.34976502e-02, 1.04969051e-02,
          3.04697603e-01, 4.51607525e-01, 4.36265878e-02, 5.19010331e-03,
          4.51607525e-01, 4.51607525e-01, 2.29647890e-01, 2.39671674e-03,
          2.06879899e-02, 4.51607525e-01, 9.69804358e-03, 6.65864050e-02,
          1.06969491e-01, 3.06983709e-01, 1.73317656e-01, 3.03104013e-01,
          1.39314681e-01, 2.76458144e-01, 3.60961765e-01, 3.60961765e-01,
          3.60961765e-01, 1.26900241e-01, 0., 3.60961765e-01,
          3.09691783e-02, 3.60961765e-01, 0., 3.30285318e-02,
          3.34263593e-02, 5.66199832e-02, 5.55791318e-01, 0.,
          1.17179647e-01, 1.93196580e-01, 2.25689858e-01, 0.,
          5.55791318e-01, 2.85142720e-01, 2.61482537e-01, 0.,
          6.21933602e-02, 3.07618529e-01, 1.45117834e-01, 2.08369386e-03,
          2.44133696e-01, 6.67247951e-01, 9.21977386e-02, 7.10990047e-03,
          6.13712706e-02, 6.71849191e-01, 2.87694093e-02, 1.04936445e-02,
          7.11042881e-02, 8.34122002e-02, 2.36781221e-02, 1.13207856e-02,
          3.94615233e-02, 8.36499184e-02, 5.07362410e-02, 2.54401803e-01,
          2.59742022e-01, 4.49465774e-02, 0., 5.10989904e-01,
          8.10499713e-02, 5.10989904e-01, 0., 3.18025947e-02,
          6.67066574e-02, 5.10989904e-01, 0., 3.18932310e-02,
          1.42935529e-01, 2.09476322e-01, 0. ]
      - [ 0., 1.11704208e-02, 2.14863941e-02, 5.58521040e-03,
          4.84051518e-02, 1.09075859e-01, 2.40365937e-01, 4.19590659e-02,
          4.29727882e-02, 2.09183961e-01, 9.43423882e-02, 1.16590180e-01,
          0., 1.65371165e-01, 6.41775668e-01, 6.41775668e-01,
          7.90702878e-04, 1.51872193e-03, 1.58583447e-02, 1.46809798e-02,
          8.84550717e-03, 1.14094457e-02, 4.88062436e-03, 4.95770276e-01,
          3.47181596e-03, 3.17030251e-02, 4.95770276e-01, 1.22119188e-01,
          4.28417623e-02, 4.95770276e-01, 4.61948454e-01, 1.60685286e-01,
          4.23412817e-03, 2.89634373e-02, 3.11215460e-01, 0.,
          1.30311120e-03, 4.23064321e-01, 4.23064321e-01, 0.,
          4.23064321e-01, 2.40923405e-01, 4.23064321e-01, 0.,
          1.23338781e-01, 3.17008704e-01, 9.15181115e-02, 0.,
          1.78706320e-03, 8.69910978e-03, 3.92331555e-03, 4.84851049e-03,
          0., 5.08153737e-02, 3.57727945e-01, 4.34598297e-01,
          1.32047106e-02, 4.34598297e-01, 4.34598297e-01, 3.18556249e-01,
          8.00906122e-03, 4.06095296e-01, 1.43335000e-01, 1.05771706e-01,
          8.13239487e-04, 7.42612965e-03, 3.86704326e-01, 2.86052488e-02,
          7.41511807e-02, 3.86704326e-01, 3.86704326e-01, 2.78116584e-01,
          3.67725819e-01, 3.86704326e-01, 3.86704326e-01, 2.69307923e-02,
          2.97110137e-02, 1.62003249e-01, 2.28893403e-02, 3.33896019e-02,
          2.87856907e-01, 1.22643322e-01, 3.70724410e-01, 0.,
          3.70724410e-01, 3.70724410e-01, 3.44239682e-01, 0.,
          3.50948304e-01, 1.15464188e-01, 3.70724410e-01, 0.,
          1.32813593e-02, 1.43155947e-01, 2.70146579e-01, 0.,
          3.00921407e-03, 1.04824215e-01, 4.04280812e-01, 7.25955963e-02,
          1.34863611e-02, 4.12192076e-01, 2.41360053e-01, 1.78107694e-01,
          0., 4.12192076e-01, 2.99754646e-02, 3.52346987e-01, 0.,
          4.12192076e-01, 2.34892786e-01, 1.89959556e-01, 2.10909665e-01,
          2.79841840e-01, 3.46901596e-01, 1.54461944e-02, 1.25915378e-01,
          4.21988726e-01, 9.70051140e-02, 1.41505241e-01, 1.56379323e-02,
          4.21988726e-01, 2.75682628e-01, 2.39030749e-01, 1.22541450e-01,
          4.21988726e-01, 8.23150724e-02, 1.33137643e-01, 1.07108071e-01,
          3.52392234e-02, 1.21524297e-01, 0., 2.99509410e-02,
          3.22832555e-01, 4.36717004e-01, 0., 8.51187482e-02,
          4.36717004e-01, 4.36717004e-01, 0., 2.54152957e-02,
          3.03742558e-01, 4.36717004e-01, 0. ]
      - [ 0., 3.94647360e-01, 1.00102074e-01, 9.36022550e-02,
          1.16370372e-01, 2.14636311e-01, 1.18990652e-02, 9.07018855e-02,
          0., 4.32081431e-01, 4.15875204e-02, 4.82284203e-02,
          5.05958172e-03, 4.32971090e-01, 4.32971090e-01, 4.32971090e-01,
          2.08973978e-02, 1.44385785e-01, 3.86030115e-02, 1.95115916e-02,
          2.48405919e-03, 1.39911830e-01, 6.11540936e-02, 1.37057647e-01,
          8.68184865e-03, 7.43945539e-02, 9.09837335e-02, 1.16728030e-01,
          3.12134504e-01, 5.17888486e-01, 5.17888486e-01, 5.17888486e-01,
          3.75331403e-03, 1.40176555e-02, 1.38667235e-02, 0.,
          5.94592234e-03, 9.84659120e-02, 1.30590379e-01, 0.,
          8.84621404e-03, 8.38605762e-02, 3.07024449e-01, 5.30830622e-01,
          1.44197166e-01, 5.30830622e-01, 5.30830622e-01, 0., 0.,
          3.33275236e-02, 3.20774992e-03, 3.71997920e-03, 2.88363989e-03,
          3.51568311e-01, 3.81050676e-01, 3.81050676e-01, 0.,
          3.81050676e-01, 3.81050676e-01, 3.81050676e-01, 0.,
          3.81050676e-01, 1.35676200e-02, 8.22936371e-03, 4.05413011e-04,
          3.47397476e-03, 4.24863352e-03, 5.45080565e-03, 1.07700132e-01,
          3.55795652e-01, 3.55795652e-01, 3.22960824e-01, 7.75219873e-02,
          3.55795652e-01, 3.55795652e-01, 3.38920772e-01, 1.71475019e-03,
          7.68515095e-03, 3.55795652e-01, 3.55795652e-01, 4.31036984e-04,
          4.08615638e-03, 1.49599472e-02, 5.65248579e-02, 5.19161895e-02,
          2.42105186e-01, 4.27535534e-01, 0., 9.03616995e-02,
          2.54069477e-01, 4.27535534e-01, 0., 9.63411853e-02,
          3.43276352e-01, 4.27535534e-01, 4.27535534e-01, 0.,
          4.87561435e-01, 2.74621278e-01, 1.95237041e-01, 0.,
          4.87561435e-01, 4.48847786e-02, 2.72246115e-02, 2.20197171e-01,
          2.48404965e-01, 4.87561435e-01, 1.40979320e-01, 0.,
          6.41312152e-02, 1.76224142e-01, 2.13770717e-02, 8.80788267e-03,
          4.62688245e-02, 1.01196535e-01, 3.85074504e-02, 1.43958197e-03,
          6.45190477e-03, 4.68257338e-01, 3.84436995e-01, 2.38337964e-02,
          3.34104002e-02, 4.68257338e-01, 4.68257338e-01, 5.65200765e-03,
          5.06610796e-03, 1.33641601e-01, 3.95156443e-01, 1.30634401e-02,
          3.67304012e-02, 2.44750455e-01, 0., 1.02913924e-01,
          3.44996899e-01, 3.44996899e-01, 3.44996899e-01, 2.51175195e-01,
          3.44996899e-01, 3.44996899e-01, 3.44996899e-01, 1.72517672e-02,
          3.44996899e-01, 1.67309985e-01, 0. ]
      - [ 0., 3.92399490e-01, 1.50455208e-02, 3.34604196e-02,
          6.99626952e-02, 4.61027950e-01, 7.15778023e-03, 2.37208325e-02,
          0., 4.61027950e-01, 1.23955511e-01, 4.60313894e-02,
          9.73394066e-02, 4.61027950e-01, 2.93233812e-01, 2.89789170e-01,
          6.71486789e-03, 1.10344477e-01, 8.26942269e-03, 3.00939493e-02,
          3.19454214e-03, 7.82256424e-02, 7.41219595e-02, 1.79828972e-01,
          5.53217717e-02, 1.51800543e-01, 0., 2.89008856e-01,
          1.30871266e-01, 5.19901752e-01, 5.19901752e-01, 5.19901752e-01,
          6.03960129e-04, 1.62405688e-02, 2.67761722e-02, 0.,
          5.41352294e-03, 9.70469117e-02, 5.61840117e-01, 0., 0.,
          1.55967176e-01, 4.20310572e-02, 0., 1.04286216e-01,
          5.61840117e-01, 5.61840117e-01, 0., 0., 2.43944511e-01,
          1.94531959e-02, 7.22402520e-03, 1.12876303e-01, 3.81543994e-01,
          3.40038508e-01, 3.36044073e-01, 2.96599358e-01, 3.81543994e-01,
          3.50864619e-01, 2.95914710e-01, 4.58559953e-02, 3.76736373e-02,
          5.11745140e-02, 3.14675450e-01, 1.96436793e-03, 5.39014023e-03,
          0., 1.02621382e-02, 3.43368128e-02, 2.50736207e-01,
          3.74636024e-01, 3.46209258e-01, 3.54300216e-02, 2.20794067e-01,
          4.30414885e-01, 4.30414885e-01, 5.16756065e-03, 2.34792218e-01,
          4.30414885e-01, 1.01839997e-01, 0., 1.09583410e-02,
          2.95312586e-03, 0., 5.41411564e-02, 3.69696766e-01,
          4.06584650e-01, 0., 1.96791932e-01, 4.06584650e-01,
          4.06584650e-01, 4.06584650e-01, 1.29354909e-01, 1.08749017e-01,
          3.57312471e-01, 0., 4.85027693e-02, 1.63251698e-01,
          5.73767461e-02, 4.83908132e-02, 5.54091409e-02, 4.55221571e-02,
          6.18356653e-02, 3.80231589e-01, 0., 1.00347288e-02,
          1.55774206e-01, 1.41722754e-01, 0., 6.85571253e-01,
          2.83445507e-01, 4.58449066e-01, 6.18063239e-03, 3.85166816e-02,
          2.37547681e-01, 1.83370188e-01, 6.66094758e-03, 3.02645445e-01,
          4.46840733e-01, 1.31271020e-01, 1.67800244e-02, 1.12804271e-01,
          4.46840733e-01, 4.46840733e-01, 3.05327978e-02, 3.64902705e-01,
          1.25338092e-01, 1.82451352e-01, 3.67214121e-02, 2.09452838e-01,
          1.57326117e-01, 1.70503885e-01, 1.78354412e-01, 1.49943054e-01,
          4.92662102e-01, 0., 1.32953838e-01, 4.98653740e-01,
          4.98653740e-01, 0., 1.93754416e-02, 2.08403304e-01,
          2.00432703e-01, 0. ]
      - [ 0., 1.72624201e-01, 6.46839142e-02, 8.63121003e-02,
          1.20313846e-01, 4.25031424e-01, 4.25031424e-01, 1.16163403e-01,
          0., 4.25031424e-01, 1.21881202e-01, 7.05949068e-02, 0.,
          4.25031424e-01, 5.70512787e-02, 4.25031424e-01, 6.08232571e-03,
          5.99700026e-02, 8.98852944e-02, 4.36145477e-02, 4.98555861e-02,
          8.07108060e-02, 3.10592860e-01, 1.43413946e-01, 1.14606740e-02,
          4.90496308e-02, 4.64684933e-01, 3.62554133e-01, 5.36461780e-03,
          4.64684933e-01, 4.64684933e-01, 2.71846503e-01, 3.52422073e-02,
          1.26355693e-01, 0., 0., 1.21777184e-01, 4.13025439e-01,
          1.35379225e-01, 0., 4.13025439e-01, 4.13025439e-01,
          2.85944790e-01, 0., 1.83327019e-01, 4.13025439e-01,
          3.72650057e-01, 9.43811536e-02, 0., 1.08147338e-01,
          1.71570666e-02, 9.93755832e-03, 0., 4.91761059e-01,
          5.93417883e-02, 4.91761059e-01, 0., 4.91761059e-01,
          5.22331409e-02, 6.99554384e-02, 1.63231622e-02, 4.91761059e-01,
          6.33620024e-02, 1.60957500e-02, 9.16515419e-04, 3.92252207e-03,
          1.48233920e-01, 2.89936271e-02, 3.16998619e-03, 4.80285496e-01,
          2.76293486e-01, 1.60635799e-01, 2.79024825e-03, 2.76125912e-02,
          4.80285496e-01, 3.67062569e-01, 3.38474219e-03, 6.35326374e-03,
          2.06497967e-01, 4.80285496e-01, 2.11551860e-02, 3.05745993e-02,
          8.32351297e-03, 0., 3.94311920e-02, 1.69395000e-01,
          8.01520422e-02, 2.03001238e-02, 2.88017899e-01, 3.87077838e-01,
          4.22347516e-01, 1.00407742e-01, 2.94703301e-02, 4.22347516e-01,
          4.22347516e-01, 4.22347516e-01, 0., 2.83630818e-01,
          1.05733611e-02, 1.41608221e-02, 2.44151969e-02, 5.41560173e-01,
          9.47730392e-02, 2.40750462e-02, 1.34179508e-02, 5.41560173e-01,
          3.21167894e-02, 1.20270178e-01, 0., 5.41560173e-01,
          9.02026296e-02, 0., 5.35832834e-04, 5.30265877e-03,
          3.87557983e-01, 7.04898536e-02, 4.80287196e-03, 9.01513733e-03,
          2.93015927e-01, 5.40812433e-01, 1.62760261e-03, 4.50363494e-02,
          4.05639201e-01, 5.40812433e-01, 4.57125483e-03, 0.,
          3.37772630e-02, 2.73159258e-02, 1.83235072e-02, 2.46256366e-02,
          9.37338918e-02, 6.38787355e-03, 1.38536151e-02, 4.23848987e-01,
          3.78004462e-01, 2.00399265e-01, 1.91783756e-02, 4.31740344e-01,
          4.31740344e-01, 2.51735240e-01, 1.59696839e-03, 9.54282191e-03,
          4.31740344e-01, 0. ]
      - [ 0., 4.94550494e-03, 4.07687947e-03, 4.94550494e-03,
          9.89100989e-03, 1.46298138e-02, 4.74820942e-01, 2.78649461e-02,
          2.44612787e-02, 1.29170166e-02, 4.74820942e-01, 7.11634085e-02,
          4.94550494e-03, 2.93989658e-01, 4.74820942e-01, 4.74820942e-01,
          4.05064144e-04, 3.63074313e-03, 1.19721666e-02, 5.44611504e-03,
          7.44833425e-02, 2.04570536e-02, 2.06497297e-01, 8.13593157e-03,
          8.84793922e-02, 5.22446260e-02, 5.10701537e-01, 3.88483927e-02,
          1.32221520e-01, 5.10701537e-01, 5.10701537e-01, 3.66116881e-01,
          6.87198341e-03, 2.30985694e-02, 1.26943672e-02, 0.,
          1.18528739e-01, 3.45068686e-02, 0., 1.38027474e-01,
          5.27268946e-01, 1.64767414e-01, 2.81398147e-01, 0.,
          5.27268946e-01, 5.27268946e-01, 1.20695129e-01, 6.90137371e-02,
          2.51842197e-03, 1.32987718e-03, 9.16844234e-02, 7.32666021e-03,
          3.76226101e-03, 2.23650739e-01, 4.55427736e-01, 4.55427736e-01,
          0., 4.55427736e-01, 2.91622013e-01, 4.83712554e-02, 0.,
          1.36571676e-01, 3.54461372e-02, 4.55427736e-01, 7.07330741e-03,
          4.17659199e-03, 1.52566522e-01, 3.10565694e-03, 7.81036913e-02,
          4.18086618e-01, 4.18086618e-01, 2.16266468e-01, 2.24981792e-02,
          2.75742281e-02, 4.18086618e-01, 3.07249993e-01, 2.73461384e-03,
          3.38049412e-01, 4.18086618e-01, 1.02268972e-01, 7.39680827e-02,
          1.11257052e-02, 1.90010462e-02, 0., 3.04928809e-01,
          3.99606943e-01, 6.02191985e-02, 3.44334655e-02, 3.99606943e-01,
          3.99606943e-01, 2.83052504e-01, 0., 3.99606943e-01,
          3.66368353e-01, 1.97916403e-01, 0., 0., 4.35372561e-01,
          8.74876827e-02, 1.45115554e-02, 0., 3.02744418e-01,
          7.85750076e-02, 4.56819504e-01, 0., 2.34798387e-01,
          4.56819504e-01, 3.93602997e-02, 0., 9.34428796e-02,
          4.56819504e-01, 9.34428796e-02, 3.99822928e-03, 4.90031205e-03,
          2.19768986e-01, 5.46024628e-02, 3.59091628e-03, 4.43904459e-01,
          5.12530386e-01, 1.34292945e-01, 5.33026569e-02, 1.32913226e-02,
          5.12530386e-01, 7.66652748e-02, 2.81626992e-02, 3.15541141e-02,
          4.37001109e-01, 3.78649384e-02, 1.29667506e-01, 2.38048747e-01,
          6.12162836e-02, 0., 4.25903410e-01, 4.25903410e-01,
          3.16279262e-01, 0., 4.25903410e-01, 3.34235340e-01,
          2.24365160e-01, 0., 2.57838190e-01, 1.65078670e-01,
          1.36084348e-01, 0. ]
      - [ 0., 8.06268826e-02, 8.45926180e-02, 3.66485827e-02, 0.,
          3.65203649e-01, 3.89631182e-01, 1.09683134e-01, 0.,
          3.89631182e-01, 3.89631182e-01, 1.74151231e-02, 7.32971653e-02,
          3.89631182e-01, 2.66393811e-01, 3.89631182e-01, 8.63872748e-03,
          2.76543517e-02, 3.34358327e-02, 4.14815284e-02, 5.95121905e-02,
          8.27648863e-02, 3.49429935e-01, 1.57487076e-02, 8.66292045e-02,
          1.31411338e-02, 4.80938584e-01, 7.51425847e-02, 2.72045452e-02,
          4.80938584e-01, 4.80938584e-01, 3.88339728e-01, 1.52614731e-02,
          1.39903322e-01, 6.66355714e-02, 0., 1.59494027e-01,
          5.31151257e-02, 4.16761369e-01, 0., 4.16761369e-01,
          2.53430814e-01, 4.16761369e-01, 0., 3.00026238e-01,
          4.16761369e-01, 2.95531958e-01, 8.36004317e-02, 0.,
          8.25630650e-02, 1.02501765e-01, 2.10431567e-03, 6.54425919e-02,
          3.58215541e-01, 2.37846881e-01, 4.13893998e-01, 0.,
          8.10439140e-02, 4.13893998e-01, 4.13893998e-01, 0.,
          4.13893998e-01, 3.08021009e-01, 5.18409982e-02, 1.39216715e-02,
          2.11183447e-03, 3.15299273e-01, 1.20757231e-02, 3.23040895e-02,
          4.03677672e-01, 4.03677672e-01, 4.03677672e-01, 8.12115893e-02,
          4.03677672e-01, 2.14829132e-01, 4.03677672e-01, 4.18350622e-02,
          5.20262308e-02, 1.49482980e-01, 2.89633367e-02, 1.23184577e-01,
          3.48606482e-02, 8.54030475e-02, 0., 3.04946929e-01,
          4.79273945e-01, 3.00378948e-01, 8.49715546e-02, 8.39317888e-02,
          4.79273945e-01, 4.47285980e-01, 2.33490676e-01, 5.84016442e-02,
          8.36124346e-02, 1.01703346e-01, 1.98266953e-01, 0.,
          1.45567842e-02, 1.07399687e-01, 1.99637458e-01, 0.,
          4.38213408e-01, 4.08803254e-01, 6.88029975e-02, 2.43439272e-01,
          4.38213408e-01, 4.38213408e-01, 9.07767639e-02, 0.,
          2.14091256e-01, 2.56710380e-01, 1.29752278e-01, 4.57540378e-02,
          3.44387054e-01, 1.21033184e-01, 2.96906501e-01, 1.74156904e-01,
          2.16582179e-01, 3.44387054e-01, 1.20572686e-01, 2.07364172e-01,
          2.85752505e-01, 3.44387054e-01, 3.44387054e-01, 1.09362856e-01,
          3.44387054e-01, 1.01011030e-01, 2.45065168e-01, 2.92685963e-02,
          3.98378074e-01, 1.55977026e-01, 8.14225897e-02, 1.50483668e-01,
          2.15444401e-01, 2.62059301e-01, 3.98378074e-01, 1.28299519e-01,
          3.98378074e-01, 2.10435048e-01, 3.60981643e-01, 2.44267751e-02,
          3.98378074e-01, 0., 0. ]
      - [ 0., 2.78713237e-02, 1.37856141e-01, 9.05818045e-02,
          1.85808837e-01, 3.90148252e-01, 3.90148252e-01, 2.05297008e-01,
          0., 3.60399902e-01, 0., 2.18613017e-02, 0., 3.90148252e-01,
          3.90148252e-01, 3.90148252e-01, 2.01615561e-02, 9.78876352e-02,
          7.44874328e-02, 5.01987897e-02, 7.27597177e-02, 2.21855119e-01,
          2.22553000e-01, 1.31170303e-01, 0., 2.36245152e-02,
          3.71798515e-01, 2.94957429e-01, 1.81041911e-01, 4.46343422e-01,
          4.46343422e-01, 4.46343422e-01, 6.92028226e-03, 3.44606154e-02,
          3.97711657e-02, 0., 2.06763688e-02, 9.00461748e-02,
          4.64044392e-01, 0., 3.45420800e-02, 2.02483252e-01,
          4.64044392e-01, 0., 1.58055857e-01, 4.29789960e-01,
          4.64044392e-01, 2.93439329e-01, 0., 3.15123722e-02, 0.,
          1.91149197e-03, 0., 3.03956389e-01, 3.86659235e-01,
          3.86659235e-01, 0., 3.86659235e-01, 3.86659235e-01,
          3.86659235e-01, 0., 3.86659235e-01, 2.83099730e-02,
          7.01230317e-02, 0., 1.82500074e-03, 2.87215486e-02,
          2.27855500e-02, 1.03339940e-01, 3.59399170e-01, 3.59399170e-01,
          3.57367933e-01, 9.69824791e-02, 3.59399170e-01, 3.51985812e-01,
          2.70253152e-01, 3.65797733e-03, 6.69500977e-02, 3.59399170e-01,
          3.59399170e-01, 2.89241457e-03, 1.69551317e-02, 1.27684355e-01,
          0., 9.77938622e-02, 2.65923828e-01, 3.75389516e-01,
          1.81559652e-01, 3.54468673e-02, 2.01100186e-01, 3.75389516e-01,
          3.75389516e-01, 7.57719949e-02, 3.72801214e-01, 3.41054678e-01,
          3.75389516e-01, 0., 3.84539604e-01, 2.95823336e-01,
          3.14172685e-01, 0., 4.26668882e-01, 8.24459121e-02,
          2.04216287e-01, 1.15281262e-01, 2.09202785e-02, 4.26668882e-01,
          2.05773301e-02, 0., 5.87563105e-02, 4.19782013e-01,
          2.35025242e-01, 1.23184305e-02, 9.66674760e-02, 4.47082035e-02,
          3.43267620e-02, 3.43314465e-03, 6.28350973e-02, 5.89046061e-01,
          4.70204413e-01, 2.96506565e-02, 6.33141771e-03, 5.89046061e-01,
          2.62324456e-02, 1.74802132e-02, 7.23146722e-02, 2.08646789e-01,
          1.08471997e-01, 7.37584895e-03, 4.18452919e-02, 2.62843579e-01,
          1.21296659e-01, 1.16501592e-01, 3.65121216e-01, 3.65121216e-01,
          3.65121216e-01, 3.65121216e-01, 3.19780931e-02, 3.65121216e-01,
          3.65121216e-01, 3.44220288e-02, 1.32230416e-01, 2.78569728e-01,
          0. ]
      - [ 0., 1.27673998e-01, 3.50831375e-02, 4.25579958e-02,
          8.51159915e-02, 2.02315837e-01, 4.12717789e-01, 1.57350406e-01,
          0., 4.12717789e-01, 4.12717789e-01, 4.12717789e-01, 0.,
          4.12717789e-01, 1.04821146e-01, 2.02315837e-01, 4.47056344e-04,
          4.00713505e-03, 2.20221630e-03, 1.02181941e-01, 8.07857048e-03,
          1.48156481e-02, 2.33714685e-01, 4.29426759e-01, 7.00790435e-03,
          8.88268426e-02, 4.29426759e-01, 4.29426759e-01, 1.33571180e-03,
          1.90494601e-02, 4.29426759e-01, 4.29426759e-01, 3.66573309e-04,
          1.25679359e-01, 2.51902640e-01, 0., 3.89033370e-02,
          3.69643092e-01, 3.69643092e-01, 5.15397526e-02, 2.48735040e-01,
          3.69643092e-01, 3.69643092e-01, 4.85569611e-02, 1.63988531e-01,
          3.69643092e-01, 3.69643092e-01, 4.41769324e-02, 0.,
          7.77071789e-02, 7.94388428e-02, 1.36269912e-01, 0.,
          4.69824642e-01, 1.11878447e-01, 2.15937167e-01, 4.99269105e-02,
          4.69824642e-01, 4.69824642e-01, 1.65133446e-01, 1.81693211e-01,
          2.36566365e-01, 2.76893407e-01, 2.18242422e-01, 9.90465051e-04,
          1.25543773e-02, 2.11196676e-01, 1.06433071e-01, 1.39493076e-03,
          1.98940225e-02, 4.31876957e-01, 4.31876957e-01, 1.39098261e-02,
          1.52135389e-02, 4.31876957e-01, 4.31876957e-01, 3.45238228e-03,
          2.01064032e-02, 7.59463832e-02, 4.31876957e-01, 2.68748403e-02,
          1.00074701e-01, 5.88366315e-02, 5.24638779e-03, 1.30921617e-01,
          4.06749874e-01, 3.46485823e-01, 3.52690220e-02, 1.24807730e-01,
          4.06749874e-01, 4.06749874e-01, 1.93829276e-02, 9.66419932e-03,
          4.06749874e-01, 4.06749874e-01, 0., 9.33843292e-03,
          2.07162857e-01, 2.08667442e-01, 3.08868997e-02, 2.51111686e-01,
          3.26949894e-01, 3.82684499e-01, 3.01625043e-01, 0.,
          4.53696460e-01, 0., 4.43753749e-01, 0., 4.68918569e-02,
          3.09246421e-01, 0., 3.07157333e-03, 3.35946004e-03,
          2.16581762e-01, 2.96356767e-01, 5.63309435e-03, 3.28066982e-02,
          1.23918243e-01, 4.85127926e-01, 0., 4.82655428e-02,
          3.45872432e-01, 4.85127926e-01, 4.55208961e-03, 0.,
          1.26133665e-01, 4.85127926e-01, 1.36005934e-02, 1.37511760e-01,
          8.48809183e-02, 2.11220374e-03, 7.78164202e-03, 4.01888579e-01,
          4.01888579e-01, 0., 2.17196066e-02, 4.01888579e-01,
          4.01888579e-01, 0., 7.92076346e-03, 4.01888579e-01,
          4.01888579e-01, 0. ]
      - [ 0., 5.75944548e-03, 5.17948419e-02, 5.65472841e-02, 0.,
          9.57488082e-03, 5.28741241e-01, 2.14667439e-01, 3.45298904e-03,
          2.47908710e-03, 3.20131153e-01, 5.28741241e-01, 5.23585966e-03,
          2.34654942e-03, 3.73573899e-02, 5.28741241e-01, 6.16218057e-03,
          4.97105643e-02, 1.13831749e-02, 2.76169763e-03, 1.71278924e-01,
          1.88713565e-01, 3.37906659e-01, 3.70322280e-02, 3.80869210e-02,
          4.44742590e-01, 4.44742590e-01, 6.10558204e-02, 4.44451580e-03,
          4.44742590e-01, 4.44742590e-01, 1.26599997e-01, 1.29369413e-02,
          2.31917389e-02, 6.37278557e-02, 0., 3.84029865e-01,
          3.10983270e-01, 2.01296344e-01, 1.03938177e-01, 4.11886692e-01,
          4.11886692e-01, 9.32450891e-02, 0., 4.11886692e-01,
          4.11886692e-01, 8.43120515e-02, 3.46460566e-02, 8.53076112e-04,
          6.12469274e-04, 7.90897980e-02, 5.02093554e-01, 9.55805462e-03,
          4.28362284e-03, 6.81958571e-02, 5.94672620e-01, 1.57585666e-02,
          4.66170628e-03, 1.33097097e-01, 5.94672620e-01, 5.73483249e-03,
          8.41052644e-03, 1.77580081e-02, 7.26136640e-02, 3.46856331e-03,
          1.62705690e-01, 6.25227466e-02, 5.56033244e-03, 2.99079856e-03,
          3.81579667e-01, 4.29125786e-01, 8.51915181e-02, 5.83710708e-03,
          4.29125786e-01, 4.29125786e-01, 2.37912372e-01, 7.78795395e-04,
          2.35307869e-02, 4.29125786e-01, 1.36499137e-01, 4.20088619e-02,
          2.76053082e-02, 5.02035394e-03, 0., 3.49449098e-01,
          4.07301188e-01, 3.35418470e-02, 1.37832342e-02, 4.07301188e-01,
          4.07301188e-01, 1.79039359e-01, 6.81741312e-02, 4.07301188e-01,
          4.07301188e-01, 4.54494245e-02, 4.13497053e-02, 8.96281097e-03,
          2.65138247e-03, 7.57000297e-02, 4.61341292e-01, 2.41011176e-02,
          3.53459455e-02, 7.46295303e-02, 3.05165082e-01, 7.94720575e-02,
          1.04914986e-01, 4.61341292e-01, 3.97123724e-01, 0.,
          2.34029740e-01, 4.61341292e-01, 1.44018292e-01, 1.47929823e-03,
          2.13050097e-01, 3.41258943e-01, 6.02941327e-02, 1.45837886e-03,
          4.40639518e-02, 4.92816061e-01, 2.55609453e-01, 2.09994577e-02,
          5.73422164e-02, 4.56178159e-01, 4.92816061e-01, 1.04401587e-02,
          2.07953528e-02, 1.28571510e-01, 2.18351215e-01, 1.16399020e-01,
          1.51960000e-01, 2.30339766e-02, 8.77081696e-03, 3.93448323e-01,
          3.93448323e-01, 4.32053767e-02, 3.93080823e-02, 1.55596480e-01,
          3.93448323e-01, 3.93448323e-01, 2.16026884e-02, 4.38540839e-02,
          3.93448323e-01, 3.93448323e-01, 0. ]
      - [ 0., 1.44685134e-02, 1.43127277e-01, 2.41141897e-02, 0.,
          1.91049442e-01, 4.28123921e-01, 3.05609610e-02, 4.77090925e-02,
          4.28123921e-01, 4.28123921e-01, 1.41944394e-01, 3.85827012e-02,
          4.28123921e-01, 4.12828922e-01, 9.75307301e-02, 6.78670499e-03,
          8.44886154e-03, 1.11438539e-02, 1.31802246e-01, 3.78693789e-02,
          1.07076094e-02, 9.51936767e-02, 4.53129828e-01, 5.30443937e-02,
          4.97328974e-02, 4.53129828e-01, 4.53129828e-01, 1.95752215e-02,
          3.41717340e-02, 4.53129828e-01, 3.72968316e-01, 1.99385383e-03,
          1.74248740e-01, 4.41980958e-02, 0., 1.70320142e-02,
          4.64262813e-01, 3.12690824e-01, 0., 1.40768155e-01,
          4.64262813e-01, 2.52074182e-01, 6.60273731e-02, 2.16285408e-01,
          4.64262813e-01, 2.88894564e-01, 2.00238135e-02, 6.54618256e-03,
          1.05237104e-01, 1.53493449e-01, 1.94762424e-02, 3.91172692e-02,
          3.92260522e-01, 3.92260522e-01, 9.88820344e-02, 6.44934773e-02,
          3.92260522e-01, 3.92260522e-01, 2.05098450e-01, 9.77931730e-03,
          3.21176499e-01, 1.75783813e-01, 3.92260522e-01, 5.88835264e-03,
          5.52074891e-03, 8.73375013e-02, 1.43614650e-01, 1.60564650e-02,
          2.80291717e-02, 5.15135229e-01, 3.05925161e-01, 2.21506730e-02,
          5.81373461e-02, 5.15135229e-01, 2.76396573e-02, 6.74345950e-03,
          2.57600546e-01, 5.15135229e-01, 6.90837353e-02, 2.48009041e-02,
          3.01338375e-01, 4.44110893e-02, 1.16328755e-02, 2.81565398e-01,
          3.87694299e-01, 3.76089662e-01, 2.60674674e-02, 3.87694299e-01,
          5.79947010e-02, 3.87694299e-01, 0., 2.35784888e-01,
          1.44954428e-01, 3.87694299e-01, 0., 4.99925949e-03,
          5.75540103e-02, 4.47582304e-02, 1.58983562e-02, 5.60128130e-03,
          1.83959678e-01, 1.00683369e-01, 5.20514429e-01, 0.,
          2.70007476e-02, 2.06503227e-01, 5.45223892e-01, 0.,
          3.76548097e-02, 1.86246842e-01, 5.45223892e-01, 3.49538797e-03,
          9.17410385e-03, 3.24076891e-01, 4.36155219e-03, 7.86285382e-03,
          3.00361454e-01, 4.10276473e-01, 8.05514231e-02, 1.61268413e-02,
          4.10276473e-01, 4.10276473e-01, 2.28220314e-01, 1.45449210e-02,
          4.10276473e-01, 1.19414702e-02, 2.60743260e-01, 1.37489647e-01,
          1.36726266e-02, 3.00697267e-01, 0., 3.82036090e-01,
          2.52513200e-01, 3.82036090e-01, 0., 2.95841724e-01,
          3.82036090e-01, 3.82036090e-01, 0., 5.06616989e-03,
          3.82036090e-01, 7.48684183e-02, 0. ]
      - [ 0., 1.12109017e-02, 4.92897406e-02, 1.12109017e-02,
          7.47393444e-03, 1.61718830e-01, 3.22591931e-01, 6.69917017e-02,
          1.23224352e-02, 6.22981787e-02, 5.23477018e-01, 1.59939885e-01,
          7.47393444e-03, 7.46660978e-02, 5.23477018e-01, 5.23477018e-01,
          1.92677788e-03, 3.23820719e-03, 8.54224190e-02, 2.15880480e-03,
          1.26103936e-02, 1.93501841e-02, 2.39272956e-02, 2.84734219e-01,
          2.20697131e-02, 4.61977571e-02, 4.70230728e-01, 4.70230728e-01,
          5.11746295e-02, 4.70230728e-01, 4.70230728e-01, 1.26885608e-01,
          2.07130108e-02, 3.86788626e-03, 7.01477304e-02, 0.,
          5.80182904e-03, 4.17230368e-01, 9.00843889e-02, 0.,
          4.17230368e-01, 4.17230368e-01, 4.17230368e-01, 0.,
