%YAML:1.0
---
opencv_ml_svm:
   format: 3
   svmType: C_SVC
   kernel:
      type: LINEAR
   C: 1.0000000000000001e-01
   term_criteria: { epsilon:1.1920928955078125e-07, iterations:1000 }
   var_count: 200
   class_count: 2
   class_labels: !!opencv-matrix
      rows: 2
      cols: 1
      dt: i
      data: [ 0, 1 ]
   sv_total: 1
   support_vectors:
      - [ 2.53367107e-02, 4.32553403e-02, -1.60429534e-02,
          1.69247121e-01, 7.85398707e-02, -3.30451839e-02,
          5.98516017e-02, 1.09804757e-01, -7.92459100e-02,
          3.14421318e-02, -8.01193863e-02, 3.67595591e-02,
          -2.17106380e-02, -1.20569179e-02, 8.48873481e-02,
          6.53202161e-02, 1.28881987e-02, 3.11768316e-02, 4.85553518e-02,
          -3.86183187e-02, 1.43462583e-01, -1.79892674e-01,
          -4.75250892e-02, -9.25008878e-02, 3.63144875e-01,
          1.86738595e-01, 1.99441791e-01, 1.77202657e-01, 1.67351700e-02,
          -1.03222817e-01, -3.27620029e-01, -2.26781443e-01,
          5.77139378e-01, 3.04460555e-01, 1.85144052e-01, 3.26801091e-02,
          -1.57428190e-01, -1.85462907e-01, -2.62937248e-01,
          -2.71377504e-01, 2.96028674e-01, 4.16728258e-01,
          2.50697464e-01, 2.22516656e-01, -2.36664087e-01,
          -1.29769653e-01, -2.34952047e-01, -2.93842435e-01,
          6.01162374e-01, 5.86319864e-01, 2.40155339e-01, 2.99220264e-01,
          -4.59493518e-01, -5.19934833e-01, -3.13662559e-01,
          -2.18524083e-01, 6.14394248e-01, 6.54731631e-01,
          6.95706308e-02, 2.17207804e-01, -4.19650763e-01,
          -5.41745603e-01, -3.89125437e-01, -2.38472149e-01,
          1.30546600e-01, 2.53509134e-01, -6.78880066e-02,
          -6.45530224e-02, -2.86539495e-01, -2.33710229e-01,
          -1.09459870e-01, 1.29837394e-02, 7.75225367e-03,
          -4.38216850e-02, -3.55863534e-02, 1.42412335e-01,
          -7.77312964e-02, -9.95961428e-02, -1.83484837e-01,
          2.90250704e-02, -1.53176293e-01, 7.04085305e-02,
          -2.39943534e-01, -1.44880220e-01, 1.60441056e-01,
          3.85469496e-01, -1.02235086e-01, -2.92068031e-02,
          -2.22330987e-01, -3.41576755e-01, -1.64524272e-01,
          -1.02607310e-01, 1.99821129e-01, 7.06595108e-02,
          -1.01824246e-01, 1.56560130e-02, -2.44377285e-01,
          -2.87202209e-01, -1.24718860e-01, 7.92687684e-02,
          -7.20835775e-02, -1.96049884e-01, -6.98829666e-02,
          1.01052724e-01, -2.32330739e-01, -1.19364120e-01,
          -8.91401395e-02, -3.01900189e-02, 5.49258217e-02,
          -1.45208314e-01, -9.85854268e-02, -3.94064076e-02,
          -1.76636912e-02, -4.28914428e-02, -2.17615172e-01,
          1.92221567e-01, 1.68368191e-01, -6.23216592e-02,
          -1.32501692e-01, 3.27615477e-02, -9.64771360e-02,
          -1.89052776e-01, -1.56217188e-01, -5.98873533e-02,
          2.13744879e-01, 3.06281932e-02, 2.45412633e-01, 1.13797925e-01,
          -3.65226567e-01, -3.15893322e-01, -3.68347257e-01,
          -1.15616940e-01, 5.29552341e-01, 3.23757231e-01,
          2.54545689e-01, 2.06528053e-01, -4.60811645e-01,
          -4.38471198e-01, -3.90726537e-01, -2.36323982e-01,
          4.13908333e-01, 6.05072796e-01, 2.85749473e-02, 1.37676850e-01,
          -2.26000860e-01, -1.58269107e-01, -1.17741078e-01,
          -1.61986887e-01, 9.99588240e-03, 6.39725402e-02,
          1.01900369e-01, 1.64665412e-02, -9.14662890e-03,
          -3.84217128e-02, -1.78363100e-01, -8.49802718e-02,
          1.13470167e-01, -4.36379053e-02, 6.24533519e-02,
          -1.05299493e-02, -2.59050466e-02, 4.45485441e-03,
          2.13349223e-01, 1.41647711e-01, -7.46321678e-02,
          -7.74303675e-02, 1.36618733e-01, -8.66132136e-03,
          1.42973647e-01, 3.26291174e-02, -6.52687550e-02,
          5.71925864e-02, 1.24701194e-01, -9.71047021e-03,
          2.52660885e-02, 5.45523241e-02, 2.62287945e-01, 4.41452190e-02,
          -9.21282843e-02, -6.98341280e-02, 1.34200066e-01,
          3.80978733e-03, -6.95147142e-02, -1.52489766e-01,
          -2.92150639e-02, 2.32102792e-03, -5.21721952e-02,
          -1.15928784e-01, 1.91035882e-01, -7.92255998e-02,
          5.65851852e-02, 5.06221056e-02, -2.19600543e-01,
          3.58363166e-02, -7.26602376e-02, -4.06127945e-02,
          9.48056430e-02, -1.91352777e-02, 1.53040856e-01,
          3.92369516e-02 ]
   uncompressed_sv_total: 332
   uncompressed_support_vectors:
      - [ 3.60977232e-01, 3.61729056e-01, 3.70090425e-01, 3.70090425e-01,
          2.24311441e-01, 3.70090425e-01, 3.70090425e-01, 3.70090425e-01,
          3.70559305e-01, 3.70559305e-01, 3.70559305e-01, 3.70559305e-01,
          3.70559305e-01, 3.70559305e-01, 3.70559305e-01, 1.87346146e-01,
          4.11034822e-01, 4.11034822e-01, 3.14739645e-01, 4.11034822e-01,
          4.11034822e-01, 2.10390851e-01, 3.26660484e-01, 2.64693975e-01,
          3.88280779e-01, 2.46498063e-01, 3.88280779e-01, 3.88280779e-01,
          3.88280779e-01, 1.75464720e-01, 3.88280779e-01, 3.88280779e-01,
          3.83195251e-01, 2.69194335e-01, 3.83195251e-01, 3.83195251e-01,
          3.83195251e-01, 2.06578255e-01, 3.83195251e-01, 3.83195251e-01,
          1.98862180e-01, 3.44004780e-01, 2.71133602e-01, 3.95473838e-01,
          3.95473838e-01, 3.72896731e-01, 3.95473838e-01, 3.95473838e-01,
          3.73046964e-01, 3.73046964e-01, 3.73046964e-01, 1.48744017e-01,
          3.73046964e-01, 3.73046964e-01, 3.73046964e-01, 3.73046964e-01,
          4.09201920e-01, 1.76959008e-01, 2.98855960e-01, 1.95068747e-01,
          4.09201920e-01, 4.09201920e-01, 4.09201920e-01, 4.09201920e-01,
          3.72405678e-01, 1.07491307e-01, 3.85287493e-01, 3.21991235e-01,
          3.85287493e-01, 3.85287493e-01, 3.85287493e-01, 3.85287493e-01,
          3.86774957e-01, 1.84164435e-01, 3.86774957e-01, 3.86774957e-01,
          3.86774957e-01, 2.54263967e-01, 3.86774957e-01, 3.86774957e-01,
          3.74107957e-01, 1.53832182e-01, 3.74107957e-01, 3.74107957e-01,
          3.74107957e-01, 3.64496142e-01, 3.74107957e-01, 3.74107957e-01,
          2.93451905e-01, 3.74455184e-01, 3.74455184e-01, 3.74455184e-01,
          2.94363588e-01, 3.74455184e-01, 3.49873513e-01, 3.74455184e-01,
          3.52929503e-01, 3.52929503e-01, 3.52929503e-01, 3.52929503e-01,
          3.52929503e-01, 3.52929503e-01, 3.52929503e-01, 3.52929503e-01,
          3.67112547e-01, 2.99059898e-01, 3.67112547e-01, 3.13473344e-01,
          3.67112547e-01, 3.67112547e-01, 3.67112547e-01, 3.67112547e-01,
          3.70993108e-01, 1.93208426e-01, 3.70993108e-01, 3.70993108e-01,
          3.70993108e-01, 3.64895552e-01, 3.70993108e-01, 3.70993108e-01,
          3.57412070e-01, 3.57412070e-01, 3.54558855e-01, 3.57412070e-01,
          3.22887957e-01, 3.57412070e-01, 3.57412070e-01, 3.57412070e-01,
          3.61455679e-01, 3.61455679e-01, 2.86072493e-01, 3.61455679e-01,
          3.61455679e-01, 3.61455679e-01, 3.61455679e-01, 3.61455679e-01,
          3.60029787e-01, 3.60029787e-01, 3.60029787e-01, 3.60029787e-01,
          3.60029787e-01, 3.11601520e-01, 3.60029787e-01, 3.48681450e-01,
          3.69027197e-01, 3.60890269e-01, 3.69027197e-01, 3.69027197e-01,
          3.69027197e-01, 2.21325576e-01, 3.69027197e-01, 3.69027197e-01,
          3.66964906e-01, 3.66964906e-01, 3.66539836e-01, 3.66964906e-01,
          3.66964906e-01, 3.66964906e-01, 2.32384980e-01, 3.66964906e-01,
          2.32346371e-01, 3.71219277e-01, 3.39829355e-01, 3.71219277e-01,
          3.71219277e-01, 3.71219277e-01, 3.71219277e-01, 3.71219277e-01,
          3.65403265e-01, 3.65403265e-01, 3.21280807e-01, 3.03332835e-01,
          3.65403265e-01, 3.65403265e-01, 3.65403265e-01, 3.65403265e-01,
          4.20546591e-01, 1.66075245e-01, 4.20546591e-01, 1.96118340e-01,
          4.20546591e-01, 3.88046205e-01, 4.20546591e-01, 2.67839700e-01,
          3.91263396e-01, 1.53154910e-01, 3.95151049e-01, 3.95151049e-01,
          3.95151049e-01, 1.96944565e-01, 3.95151049e-01, 3.95151049e-01,
          3.91761869e-01, 3.91761869e-01, 1.74945548e-01, 3.91761869e-01,
          3.91761869e-01, 3.91761869e-01, 2.11225301e-01, 3.91761869e-01 ]
      - [ 4.55618143e-01, 1.58031970e-01, 3.46638739e-01, 2.26500615e-01,
          4.55618143e-01, 2.84130782e-01, 4.55618143e-01, 3.09063375e-01,
          3.67590934e-01, 2.94972748e-01, 3.81213427e-01, 3.81213427e-01,
          3.30596656e-01, 2.88913012e-01, 3.81213427e-01, 3.81213427e-01,
          3.69647235e-01, 3.72721910e-01, 3.72721910e-01, 3.72721910e-01,
          3.72721910e-01, 3.72721910e-01, 1.61578268e-01, 3.72721910e-01,
          3.42603683e-01, 3.38993013e-01, 3.83297086e-01, 3.83297086e-01,
          1.71154186e-01, 3.83297086e-01, 3.83297086e-01, 3.83297086e-01,
          3.83938044e-01, 2.91303247e-01, 1.84092224e-01, 3.74666005e-01,
          3.83938044e-01, 3.83938044e-01, 3.83938044e-01, 3.83938044e-01,
          4.14556980e-01, 2.04003155e-01, 2.90702581e-01, 2.40618527e-01,
          4.14556980e-01, 3.52712512e-01, 4.14556980e-01, 4.14556980e-01,
          2.39295095e-01, 2.02306494e-01, 3.86855960e-01, 3.86855960e-01,
          3.86855960e-01, 3.86855960e-01, 3.86855960e-01, 3.86855960e-01,
          3.70221853e-01, 3.70221853e-01, 1.91967383e-01, 3.70221853e-01,
          3.70221853e-01, 3.70221853e-01, 3.70221853e-01, 3.70221853e-01,
          1.58155844e-01, 3.25158268e-01, 3.79794806e-01, 3.79794806e-01,
          3.79794806e-01, 3.79794806e-01, 3.79794806e-01, 3.79794806e-01,
          4.04066473e-01, 4.04066473e-01, 3.41084659e-01, 1.71560913e-01,
          4.04066473e-01, 4.04066473e-01, 4.04066473e-01, 1.83964923e-01,
          3.73815686e-01, 2.50833988e-01, 3.73815686e-01, 3.73815686e-01,
          3.73815686e-01, 3.08088899e-01, 3.73815686e-01, 3.73815686e-01,
          3.52929503e-01, 3.52929503e-01, 3.52929503e-01, 3.52929503e-01,
          3.52929503e-01, 3.52929503e-01, 3.52929503e-01, 3.52929503e-01,
          3.59587282e-01, 3.59587282e-01, 3.02136123e-01, 3.59587282e-01,
          3.59587282e-01, 3.59587282e-01, 3.59587282e-01, 3.59587282e-01,
          2.72564411e-01, 3.50157082e-01, 3.65023285e-01, 3.65023285e-01,
          3.65023285e-01, 3.65023285e-01, 3.65023285e-01, 3.65023285e-01,
          4.00471747e-01, 4.00471747e-01, 4.00471747e-01, 8.73692483e-02,
          4.00471747e-01, 4.00471747e-01, 4.00471747e-01, 1.61555454e-01,
          4.25207227e-01, 2.51074851e-01, 2.68610477e-01, 4.25207227e-01,
          4.25207227e-01, 2.22049266e-01, 2.96735108e-01, 4.25207227e-01,
          3.52929503e-01, 3.52929503e-01, 3.52929503e-01, 3.52929503e-01,
          3.52929503e-01, 3.52929503e-01, 3.52929503e-01, 3.52929503e-01,
          3.39535832e-01, 3.44900817e-01, 3.73332560e-01, 3.73332560e-01,
          3.40152949e-01, 2.98020482e-01, 3.73332560e-01, 3.73332560e-01,
          3.57582778e-01, 3.57582778e-01, 3.57582778e-01, 3.57582778e-01,
          3.57582778e-01, 3.57582778e-01, 3.18385184e-01, 3.57582778e-01,
          3.54651898e-01, 3.54651898e-01, 3.54651898e-01, 3.54651898e-01,
          3.54651898e-01, 3.54651898e-01, 3.40603590e-01, 3.54651898e-01,
          4.06415850e-01, 1.94666311e-01, 3.48101079e-01, 3.92732352e-01,
          4.06415850e-01, 1.97356120e-01, 4.06415850e-01, 3.84916782e-01,
          2.57903486e-01, 3.87569577e-01, 3.87569577e-01, 3.87569577e-01,
          1.68382838e-01, 3.87569577e-01, 3.87569577e-01, 3.87569577e-01,
          3.31806600e-01, 2.70008236e-01, 3.86674792e-01, 3.86674792e-01,
          3.86674792e-01, 2.56027162e-01, 3.86674792e-01, 3.86674792e-01,
          3.66928190e-01, 3.66928190e-01, 2.32120320e-01, 3.66928190e-01,
          3.66928190e-01, 3.66928190e-01, 3.66928190e-01, 3.66928190e-01,
          2.42661327e-01, 4.36857909e-01, 2.12907761e-01, 4.36857909e-01,
          3.11328858e-01, 4.36857909e-01, 1.76400244e-01, 4.36857909e-01 ]
      - [ 1.72485262e-01, 4.18208927e-01, 3.26908916e-01, 4.18208927e-01,
          1.99537933e-01, 4.18208927e-01, 3.46109033e-01, 4.18208927e-01,
          1.28808364e-01, 4.15164918e-01, 2.38238364e-01, 4.28972483e-01,
          1.91357821e-01, 4.01664048e-01, 4.28972483e-01, 4.28972483e-01,
          1.31306157e-01, 1.60949409e-01, 2.03313634e-01, 3.68969768e-01,
          4.40165341e-01, 4.40165341e-01, 4.40165341e-01, 4.40165341e-01,
          1.48627087e-01, 1.93206146e-01, 3.43736917e-01, 3.23970675e-01,
          4.22270924e-01, 4.22270924e-01, 4.22270924e-01, 4.22270924e-01,
          2.96988726e-01, 2.52753615e-01, 3.75092417e-01, 3.75092417e-01,
          3.75092417e-01, 3.75092417e-01, 3.75092417e-01, 3.75092417e-01,
          1.68068752e-01, 3.82916451e-01, 2.96946526e-01, 3.82916451e-01,
          3.82916451e-01, 3.82916451e-01, 3.82916451e-01, 3.82916451e-01,
          1.56633869e-01, 1.29934400e-01, 4.50342029e-01, 4.50342029e-01,
          2.97740042e-01, 2.32816577e-01, 4.50342029e-01, 4.50342029e-01,
          3.52929503e-01, 3.52929503e-01, 3.52929503e-01, 3.52929503e-01,
          3.52929503e-01, 3.52929503e-01, 3.52929503e-01, 3.52929503e-01,
          3.52929503e-01, 3.52929503e-01, 3.52929503e-01, 3.52929503e-01,
          3.52929503e-01, 3.52929503e-01, 3.52929503e-01, 3.52929503e-01,
          3.52929503e-01, 3.52929503e-01, 3.52929503e-01, 3.52929503e-01,
          3.52929503e-01, 3.52929503e-01, 3.52929503e-01, 3.52929503e-01,
          3.39565217e-01, 3.89414161e-01, 3.84783596e-01, 3.89414161e-01,
          2.12246820e-01, 3.89414161e-01, 2.84823567e-01, 3.89414161e-01,
          3.18170696e-01, 3.76770943e-01, 3.76770943e-01, 3.76770943e-01,
          2.08002746e-01, 3.76770943e-01, 3.76770943e-01, 3.76770943e-01,
          3.66290778e-01, 3.66290778e-01, 3.66290778e-01, 3.66290778e-01,
          3.66290778e-01, 3.66290778e-01, 2.39077538e-01, 3.66290778e-01,
          3.82423729e-01, 3.82423729e-01, 3.82423729e-01, 3.82423729e-01,
          1.62719026e-01, 3.82423729e-01, 3.03668380e-01, 3.82423729e-01,
          3.53514940e-01, 3.53514940e-01, 3.53514940e-01, 3.53514940e-01,
          3.48795593e-01, 3.53514940e-01, 3.53514940e-01, 3.53514940e-01,
          1.65386587e-01, 3.99608046e-01, 3.02096993e-01, 3.99608046e-01,
          2.90443510e-01, 3.99608046e-01, 3.92796218e-01, 3.99608046e-01,
          2.46689469e-01, 3.84733468e-01, 3.84733468e-01, 3.84733468e-01,
          2.17213184e-01, 3.84733468e-01, 3.84733468e-01, 3.84733468e-01,
          3.64482462e-01, 3.64482462e-01, 3.30550313e-01, 3.64482462e-01,
          3.47577095e-01, 3.64482462e-01, 3.19449246e-01, 3.64482462e-01,
          1.65332824e-01, 4.08824503e-01, 2.67398298e-01, 4.08824503e-01,
          2.47773856e-01, 4.08824503e-01, 4.08824503e-01, 4.08824503e-01,
          3.52929503e-01, 3.52929503e-01, 3.52929503e-01, 3.52929503e-01,
          3.52929503e-01, 3.52929503e-01, 3.52929503e-01, 3.52929503e-01,
          2.11053073e-01, 3.85668337e-01, 2.32088655e-01, 3.87036175e-01,
          3.87036175e-01, 3.87036175e-01, 3.87036175e-01, 3.87036175e-01,
          1.65415391e-01, 3.91771495e-01, 2.18665168e-01, 3.91771495e-01,
          3.91771495e-01, 3.91771495e-01, 3.91771495e-01, 3.91771495e-01,
          2.17577398e-01, 3.74578267e-01, 3.27207118e-01, 3.74578267e-01,
          3.74578267e-01, 3.74578267e-01, 3.74578267e-01, 3.74578267e-01,
          1.80484116e-01, 3.79393876e-01, 3.79393876e-01, 3.79393876e-01,
          3.16222608e-01, 3.79393876e-01, 3.79393876e-01, 3.79393876e-01,
          3.58759701e-01, 3.58759701e-01, 3.20378274e-01, 3.58759701e-01,
          3.58759701e-01, 3.58759701e-01, 3.48600239e-01, 3.58759701e-01 ]
      - [ 3.82843345e-01, 2.07264751e-01, 3.82843345e-01, 3.82843345e-01,
          3.82843345e-01, 2.71665752e-01, 3.82843345e-01, 3.82843345e-01,
          1.88709334e-01, 4.78159100e-01, 9.24410820e-02, 4.78159100e-01,
          1.54055849e-01, 4.78159100e-01, 1.13092527e-01, 4.78159100e-01,
          4.55753654e-02, 4.87492412e-01, 9.98638123e-02, 4.87492412e-01,
          1.01594746e-01, 4.87492412e-01, 1.48876399e-01, 4.87492412e-01,
          2.43452892e-01, 3.74308556e-01, 3.74308556e-01, 3.74308556e-01,
          3.10402840e-01, 3.74308556e-01, 3.74308556e-01, 3.74308556e-01,
          1.73749477e-01, 1.46181703e-01, 3.31993908e-01, 3.11216176e-01,
          4.77038354e-01, 2.32174739e-01, 4.77038354e-01, 4.77038354e-01,
          2.29111776e-01, 8.90887156e-02, 2.43686303e-01, 3.34047496e-01,
          4.70873505e-01, 3.14215600e-01, 4.70873505e-01, 4.70873505e-01,
          1.32182434e-01, 4.35734332e-01, 8.91354829e-02, 4.35734332e-01,
          4.35734332e-01, 4.35734332e-01, 1.44595906e-01, 4.35734332e-01,
          1.20484307e-01, 4.29447174e-01, 1.57916814e-01, 4.29447174e-01,
          1.84746996e-01, 4.29447174e-01, 4.29447174e-01, 4.29447174e-01,
          1.03361748e-01, 2.00441256e-01, 4.29658979e-01, 2.78825164e-01,
          4.29658979e-01, 3.58715504e-01, 4.29658979e-01, 4.29658979e-01,
          3.70424479e-01, 1.89206257e-01, 3.70424479e-01, 3.70424479e-01,
          3.70424479e-01, 3.70424479e-01, 3.70424479e-01, 3.70424479e-01,
          4.01992053e-01, 1.02207251e-01, 4.01992053e-01, 4.01992053e-01,
          4.01992053e-01, 1.26301870e-01, 4.01992053e-01, 4.01992053e-01,
          2.80954450e-01, 4.37069744e-01, 6.21544421e-02, 4.07558948e-01,
          3.91305238e-01, 4.37069744e-01, 1.43253356e-01, 4.37069744e-01,
          1.23521462e-01, 3.80876005e-01, 3.80876005e-01, 3.80876005e-01,
          3.32473040e-01, 3.80876005e-01, 3.80876005e-01, 3.80876005e-01,
          3.60002130e-01, 2.98650950e-01, 3.60002130e-01, 3.60002130e-01,
          3.60002130e-01, 3.60002130e-01, 3.60002130e-01, 3.60002130e-01,
          3.67806435e-01, 3.67806435e-01, 3.67806435e-01, 3.67806435e-01,
          3.67806435e-01, 3.67806435e-01, 3.67806435e-01, 2.22158492e-01,
          3.71866256e-01, 1.68206364e-01, 3.71866256e-01, 3.71866256e-01,
          3.71866256e-01, 3.71866256e-01, 3.71866256e-01, 3.71866256e-01,
          4.09356892e-01, 4.09356892e-01, 2.07635939e-01, 4.09356892e-01,
          2.74221808e-01, 4.09356892e-01, 1.99336514e-01, 4.09356892e-01,
          3.23764294e-01, 4.02177721e-01, 4.02177721e-01, 4.02177721e-01,
          2.21783340e-01, 4.02177721e-01, 1.82308808e-01, 4.02177721e-01,
          3.75325024e-01, 3.75325024e-01, 3.75325024e-01, 3.75325024e-01,
          2.76550919e-01, 3.75325024e-01, 3.75325024e-01, 2.73050755e-01,
          4.53887433e-01, 3.09839398e-01, 4.53887433e-01, 1.31152079e-01,
          4.53887433e-01, 1.67533115e-01, 4.53887433e-01, 1.73615590e-01,
          3.84363562e-01, 3.84363562e-01, 1.68150291e-01, 3.84363562e-01,
          3.84363562e-01, 3.84363562e-01, 2.85435528e-01, 3.84363562e-01,
          1.46907657e-01, 4.40701157e-01, 1.51577935e-01, 4.40701157e-01,
          3.55430037e-01, 4.40701157e-01, 2.18722373e-01, 4.40701157e-01,
          1.11610331e-01, 4.67784494e-01, 1.76315531e-01, 4.67784494e-01,
          1.34084031e-01, 4.67784494e-01, 2.41900384e-01, 4.67784494e-01,
          3.43701005e-01, 3.86676073e-01, 3.86676073e-01, 2.61097312e-01,
          3.86676073e-01, 3.86676073e-01, 3.86676073e-01, 2.49485224e-01,
          4.57730025e-01, 1.19641282e-01, 4.57730025e-01, 1.90616295e-01,
          4.57730025e-01, 1.56297162e-01, 4.57730025e-01, 2.86851168e-01 ]
      - [ 3.09214711e-01, 3.92676830e-01, 2.15933576e-01, 2.87024438e-01,
          3.92828315e-01, 3.92828315e-01, 3.92828315e-01, 3.92828315e-01,
          2.12086871e-01, 2.38933548e-01, 2.01808199e-01, 1.99442878e-01,
          4.50811207e-01, 4.50811207e-01, 4.50811207e-01, 4.50811207e-01,
          2.34677151e-01, 2.46211693e-01, 1.55992717e-01, 2.78892934e-01,
          4.59146827e-01, 4.59146827e-01, 3.80995691e-01, 4.59146827e-01,
          2.62765110e-01, 3.64428252e-01, 3.61200452e-01, 3.64428252e-01,
          3.64428252e-01, 3.64428252e-01, 3.64428252e-01, 3.64428252e-01,
          3.54119271e-01, 3.54119271e-01, 3.44468921e-01, 3.54119271e-01,
          3.54119271e-01, 3.54119271e-01, 3.54119271e-01, 3.54119271e-01,
          3.52929503e-01, 3.52929503e-01, 3.52929503e-01, 3.52929503e-01,
          3.52929503e-01, 3.52929503e-01, 3.52929503e-01, 3.52929503e-01,
          3.88903975e-01, 2.30398118e-01, 3.88903975e-01, 3.88903975e-01,
          3.88903975e-01, 1.88556433e-01, 3.88903975e-01, 3.88903975e-01,
          2.61245906e-01, 4.93589640e-01, 1.06996521e-01, 3.40207845e-01,
          2.26863533e-01, 4.93589640e-01, 1.31423026e-01, 4.93589640e-01,
          1.36848941e-01, 1.07642174e-01, 2.09726810e-01, 2.33149648e-01,
          5.23314893e-01, 2.11044788e-01, 5.23314893e-01, 5.23314893e-01,
          1.23645075e-01, 1.51316285e-01, 1.17419034e-01, 9.86131951e-02,
          4.83083487e-01, 4.83083487e-01, 4.83083487e-01, 4.83083487e-01,
          3.99991959e-01, 3.99991959e-01, 3.99991959e-01, 3.99991959e-01,
          5.26443459e-02, 2.04904273e-01, 3.88946027e-01, 3.99991959e-01,
          3.87486100e-01, 2.79119432e-01, 3.87486100e-01, 3.87486100e-01,
          3.46001089e-01, 2.18579337e-01, 3.87486100e-01, 3.87486100e-01,
          3.47102284e-01, 4.10803884e-01, 9.78441834e-02, 4.10803884e-01,
          4.10803884e-01, 4.10803884e-01, 1.48470581e-01, 4.10803884e-01,
          3.08974087e-01, 7.44388923e-02, 5.13684928e-01, 2.99988568e-01,
          4.96574372e-01, 1.14580683e-01, 5.13684928e-01, 1.28106669e-01,
          3.67276937e-01, 3.67276937e-01, 3.67276937e-01, 3.67276937e-01,
          3.67276937e-01, 2.28219271e-01, 3.67276937e-01, 3.67276937e-01,
          1.46533161e-01, 4.19971704e-01, 3.28059733e-01, 4.19971704e-01,
          1.58837706e-01, 4.19971704e-01, 3.68748248e-01, 4.19971704e-01,
          3.85908723e-01, 3.85908723e-01, 3.85908723e-01, 3.85908723e-01,
          2.25295573e-01, 3.80687803e-01, 2.36295566e-01, 3.85908723e-01,
          3.70771676e-01, 3.70771676e-01, 3.70771676e-01, 3.70771676e-01,
          1.97511479e-01, 3.70771676e-01, 3.63943875e-01, 3.70771676e-01,
          3.96151751e-01, 7.91556984e-02, 5.08852422e-01, 1.68905020e-01,
          2.58065224e-01, 8.30241814e-02, 5.08852422e-01, 4.60255414e-01,
          4.23088789e-01, 1.50735870e-01, 2.10177660e-01, 1.84003100e-01,
          4.23088789e-01, 4.23088789e-01, 4.23088789e-01, 4.23088789e-01,
          1.46969959e-01, 3.98879528e-01, 2.94026762e-01, 3.98879528e-01,
          3.04037750e-01, 3.98879528e-01, 3.98879528e-01, 3.98879528e-01,
          2.42847741e-01, 4.05482143e-01, 2.62780070e-01, 4.05482143e-01,
          3.26993674e-01, 4.05482143e-01, 3.21454227e-01, 4.05482143e-01,
          2.04846382e-01, 3.93812627e-01, 3.51909518e-01, 3.93812627e-01,
          2.34140009e-01, 3.93812627e-01, 3.93812627e-01, 3.93812627e-01,
          2.15474591e-01, 1.95329860e-01, 4.00633007e-01, 4.00633007e-01,
          3.29970539e-01, 4.00633007e-01, 4.00633007e-01, 4.00633007e-01,
          3.81079733e-01, 3.81079733e-01, 3.81079733e-01, 3.81079733e-01,
          2.39303634e-01, 2.59992421e-01, 3.81079733e-01, 3.81079733e-01 ]
      - [ 1.86513484e-01, 3.77629548e-01, 3.77629548e-01, 3.77629548e-01,
          3.25293034e-01, 3.77629548e-01, 3.77629548e-01, 3.77629548e-01,
          2.09902719e-01, 3.84746641e-01, 3.84746641e-01, 3.84746641e-01,
          2.52818257e-01, 3.84746641e-01, 3.84746641e-01, 3.84746641e-01,
          3.53490323e-01, 3.48970413e-01, 3.53490323e-01, 3.53490323e-01,
          3.53490323e-01, 3.53490323e-01, 3.53490323e-01, 3.53490323e-01,
          1.78662956e-01, 2.17989653e-01, 3.38312447e-01, 4.25336987e-01,
          4.25336987e-01, 2.79659986e-01, 4.25336987e-01, 4.25336987e-01,
          3.84996057e-01, 1.80785954e-01, 3.84996057e-01, 2.72283643e-01,
          3.84996057e-01, 3.84996057e-01, 3.84996057e-01, 3.84996057e-01,
          2.53739625e-01, 3.76560509e-01, 2.84723282e-01, 3.76560509e-01,
          3.76560509e-01, 3.76560509e-01, 3.76560509e-01, 3.76560509e-01,
          1.44626498e-01, 3.89283597e-01, 3.89283597e-01, 3.89283597e-01,
          2.56794989e-01, 3.89283597e-01, 3.89283597e-01, 3.89283597e-01,
          2.85094321e-01, 1.42612621e-01, 4.30533499e-01, 2.88761735e-01,
          4.30533499e-01, 2.63177991e-01, 4.30533499e-01, 4.30533499e-01,
          3.77594471e-01, 1.06133744e-01, 3.98995876e-01, 3.98995876e-01,
          3.98995876e-01, 2.14903519e-01, 3.98995876e-01, 3.98995876e-01,
          3.10009837e-01, 4.06175464e-01, 3.55054617e-01, 4.06175464e-01,
          2.51782775e-01, 4.06175464e-01, 2.24641994e-01, 4.06175464e-01,
          3.52929503e-01, 3.52929503e-01, 3.52929503e-01, 3.52929503e-01,
          3.52929503e-01, 3.52929503e-01, 3.52929503e-01, 3.52929503e-01,
          1.10384762e-01, 4.26379263e-01, 2.53510565e-01, 4.26379263e-01,
          1.01449952e-01, 4.26379263e-01, 4.26379263e-01, 4.26379263e-01,
          1.51057869e-01, 1.53539032e-01, 4.23904330e-01, 2.25606471e-01,
          4.23904330e-01, 4.23904330e-01, 4.23904330e-01, 4.23904330e-01,
          3.77414852e-01, 1.63622499e-01, 3.77414852e-01, 3.77414852e-01,
          3.77414852e-01, 3.38829488e-01, 3.77414852e-01, 3.77414852e-01,
          2.64852256e-01, 4.38136578e-01, 2.50478655e-01, 4.38136578e-01,
          3.07970375e-01, 4.38136578e-01, 3.02458644e-01, 3.17047715e-01,
          3.57278794e-01, 3.50875676e-01, 3.41596752e-01, 3.57278794e-01,
          3.44075292e-01, 3.57278794e-01, 3.57278794e-01, 3.57278794e-01,
          5.11014089e-02, 2.88012981e-01, 4.20677096e-01, 4.20677096e-01,
          1.59338489e-01, 4.20677096e-01, 4.20677096e-01, 4.20677096e-01,
          3.66126865e-01, 2.40831763e-01, 3.66126865e-01, 3.66126865e-01,
          3.66126865e-01, 3.66126865e-01, 3.66126865e-01, 3.66126865e-01,
          3.97360057e-01, 3.97360057e-01, 3.97360057e-01, 3.97360057e-01,
          2.23418072e-01, 3.97360057e-01, 2.54414648e-01, 3.03171188e-01,
          3.52929503e-01, 3.52929503e-01, 3.52929503e-01, 3.52929503e-01,
          3.52929503e-01, 3.52929503e-01, 3.52929503e-01, 3.52929503e-01,
          1.11527570e-01, 3.85445803e-01, 3.03809196e-01, 3.85445803e-01,
          3.85445803e-01, 3.85445803e-01, 3.85445803e-01, 3.85445803e-01,
          2.18760267e-01, 2.18923241e-01, 4.07705069e-01, 4.03954625e-01,
          4.07705069e-01, 2.68459648e-01, 4.07705069e-01, 4.07705069e-01,
          3.57864976e-01, 3.57864976e-01, 3.57864976e-01, 3.57864976e-01,
          3.57864976e-01, 3.57864976e-01, 3.16153795e-01, 3.57864976e-01,
          3.13064665e-01, 3.63823622e-01, 3.57497156e-01, 3.29716921e-01,
          3.63823622e-01, 3.63823622e-01, 3.63823622e-01, 3.63823622e-01,
          3.60422581e-01, 3.60422581e-01, 3.60422581e-01, 3.60422581e-01,
          3.12884241e-01, 3.60422581e-01, 3.45073760e-01, 3.60422581e-01 ]
      - [ 3.07157338e-01, 3.22511703e-01, 3.64690989e-01, 3.64690989e-01,
          3.64690989e-01, 3.64690989e-01, 3.64690989e-01, 3.64690989e-01,
          3.51343840e-01, 3.77858877e-01, 1.26958489e-01, 3.77858877e-01,
          3.77858877e-01, 3.77858877e-01, 3.77858877e-01, 3.77858877e-01,
          3.78117025e-01, 2.97366351e-01, 3.78117025e-01, 2.23519251e-01,
          3.78117025e-01, 3.78117025e-01, 3.78117025e-01, 3.78117025e-01,
          9.94573981e-02, 5.65648861e-02, 4.94992495e-01, 3.53826523e-01,
          3.25675935e-01, 1.25116602e-01, 4.94992495e-01, 4.94992495e-01,
          3.70219499e-01, 2.70606756e-01, 3.17329913e-01, 3.70219499e-01,
          3.70219499e-01, 3.70219499e-01, 3.70219499e-01, 3.70219499e-01,
          2.85071760e-01, 3.49678934e-01, 3.63507658e-01, 3.63507658e-01,
          3.63507658e-01, 3.63507658e-01, 3.63507658e-01, 3.63507658e-01,
          2.60968447e-01, 3.80543530e-01, 3.70379329e-01, 2.58545727e-01,
          3.80543530e-01, 3.80543530e-01, 3.80543530e-01, 3.80543530e-01,
          2.30511799e-01, 2.40451917e-01, 3.92893642e-01, 3.36593270e-01,
          3.92893642e-01, 3.92893642e-01, 3.92893642e-01, 3.92893642e-01,
          2.87045240e-01, 1.54314503e-01, 3.89102668e-01, 3.89102668e-01,
          3.89102668e-01, 3.64555150e-01, 3.89102668e-01, 3.89102668e-01,
          3.07193816e-01, 3.70921761e-01, 3.70921761e-01, 3.70921761e-01,
          2.76456982e-01, 3.70921761e-01, 3.70921761e-01, 3.70921761e-01,
          3.52929503e-01, 3.52929503e-01, 3.52929503e-01, 3.52929503e-01,
          3.52929503e-01, 3.52929503e-01, 3.52929503e-01, 3.52929503e-01,
          3.52929503e-01, 3.52929503e-01, 3.52929503e-01, 3.52929503e-01,
          3.52929503e-01, 3.52929503e-01, 3.52929503e-01, 3.52929503e-01,
          3.52929503e-01, 3.52929503e-01, 3.52929503e-01, 3.52929503e-01,
          3.52929503e-01, 3.52929503e-01, 3.52929503e-01, 3.52929503e-01,
          3.13914031e-01, 2.62784779e-01, 3.71638119e-01, 3.71638119e-01,
          3.71638119e-01, 3.71638119e-01, 3.71638119e-01, 3.71638119e-01,
          2.10469157e-01, 3.68785352e-01, 3.68785352e-01, 3.68785352e-01,
          3.68785352e-01, 3.68785352e-01, 3.68785352e-01, 3.68785352e-01,
          3.45042527e-01, 3.54039639e-01, 3.54039639e-01, 3.54039639e-01,
          3.54039639e-01, 3.54039639e-01, 3.54039639e-01, 3.54039639e-01,
          3.87173861e-01, 3.87173861e-01, 3.87173861e-01, 3.87173861e-01,
          2.83719450e-01, 2.13495672e-01, 3.87173861e-01, 3.47184271e-01,
          3.47686350e-01, 2.78263748e-01, 3.80533993e-01, 3.80533993e-01,
          3.80533993e-01, 2.71755904e-01, 3.80533993e-01, 3.80533993e-01,
          3.72060955e-01, 3.72060955e-01, 3.72060955e-01, 3.72060955e-01,
          3.24678928e-01, 3.72060955e-01, 2.45540768e-01, 3.72060955e-01,
          3.60346019e-01, 3.60346019e-01, 3.60346019e-01, 3.60346019e-01,
          2.95727849e-01, 3.60346019e-01, 3.60346019e-01, 3.60346019e-01,
          3.62905681e-01, 3.62905681e-01, 3.41740221e-01, 3.62905681e-01,
          3.16114694e-01, 3.62905681e-01, 3.48075718e-01, 3.62905681e-01,
          1.03291810e-01, 5.09683788e-02, 4.94271189e-01, 2.52353638e-01,
          4.09781277e-01, 1.31458759e-01, 4.94271189e-01, 4.94271189e-01,
          3.63326728e-01, 3.63326728e-01, 3.63326728e-01, 3.63326728e-01,
          3.63326728e-01, 3.63326728e-01, 2.68934935e-01, 3.63326728e-01,
          2.98540980e-01, 4.07491922e-01, 1.95233524e-01, 4.07491922e-01,
          1.96056515e-01, 4.07491922e-01, 4.07491922e-01, 4.07491922e-01,
          1.63748622e-01, 2.38878861e-01, 4.04014587e-01, 4.04014587e-01,
          4.04014587e-01, 3.09755117e-01, 4.04014587e-01, 4.04014587e-01 ]
      - [ 3.65654230e-01, 3.65654230e-01, 2.99014926e-01, 3.65654230e-01,
          3.65654230e-01, 3.65654230e-01, 3.23602825e-01, 3.65654230e-01,
          3.47288936e-01, 4.00815696e-01, 4.00815696e-01, 1.92463383e-01,
          4.00815696e-01, 4.00815696e-01, 4.00815696e-01, 1.87291384e-01,
          3.94590765e-01, 1.90117374e-01, 3.94590765e-01, 3.94590765e-01,
          3.94590765e-01, 1.60318583e-01, 3.94590765e-01, 3.94590765e-01,
          2.63073027e-01, 3.48824650e-01, 3.92854303e-01, 2.14817286e-01,
          3.76437038e-01, 3.92854303e-01, 3.92854303e-01, 3.92854303e-01,
          3.70569229e-01, 2.74124086e-01, 3.11808109e-01, 3.70569229e-01,
          3.70569229e-01, 3.70569229e-01, 3.70569229e-01, 3.70569229e-01,
          3.69121760e-01, 3.69121760e-01, 3.69121760e-01, 3.69121760e-01,
          3.69121760e-01, 2.06291109e-01, 3.69121760e-01, 3.69121760e-01,
          3.66177022e-01, 3.66177022e-01, 3.66177022e-01, 2.40296200e-01,
          3.66177022e-01, 3.66177022e-01, 3.66177022e-01, 3.66177022e-01,
          3.75095606e-01, 1.09985933e-01, 3.75095606e-01, 3.74132842e-01,
          3.75095606e-01, 3.75095606e-01, 3.75095606e-01, 3.75095606e-01,
          2.22428218e-01, 3.67783159e-01, 3.67783159e-01, 3.67783159e-01,
          3.67783159e-01, 3.67783159e-01, 3.67783159e-01, 3.67783159e-01,
          3.82573724e-01, 3.37720960e-01, 3.82573724e-01, 3.07317436e-01,
          3.82573724e-01, 3.82573724e-01, 3.82573724e-01, 2.36358374e-01,
          4.11761016e-01, 9.14807394e-02, 4.11761016e-01, 3.37376356e-01,
          4.11761016e-01, 1.61119282e-01, 4.11761016e-01, 4.11761016e-01,
          2.49856487e-01, 3.68262619e-01, 3.68262619e-01, 3.46681803e-01,
          3.68262619e-01, 3.68262619e-01, 3.68262619e-01, 3.68262619e-01,
          3.20993692e-01, 2.97982395e-01, 3.66176456e-01, 3.66176456e-01,
          3.66176456e-01, 3.66176456e-01, 3.66176456e-01, 3.66176456e-01,
          3.54879349e-01, 3.54879349e-01, 3.54879349e-01, 3.54879349e-01,
          3.38937849e-01, 3.54879349e-01, 3.54879349e-01, 3.54879349e-01,
          3.86947155e-01, 3.47267568e-01, 3.86947155e-01, 1.87542647e-01,
          3.86947155e-01, 3.86947155e-01, 3.86947155e-01, 3.02864581e-01,
          3.84965867e-01, 1.64948478e-01, 3.84965867e-01, 3.84965867e-01,
          3.84965867e-01, 2.82407314e-01, 3.84965867e-01, 3.84965867e-01,
          2.05070570e-01, 3.91128749e-01, 3.91128749e-01, 3.91128749e-01,
          1.90127075e-01, 3.91128749e-01, 3.91128749e-01, 3.91128749e-01,
          3.97124052e-01, 1.68894038e-01, 3.72936904e-01, 3.97124052e-01,
          3.97124052e-01, 1.99720144e-01, 3.97124052e-01, 3.97124052e-01,
          1.64824590e-01, 4.37976092e-01, 3.13685805e-01, 4.37976092e-01,
          2.59571522e-01, 4.37976092e-01, 1.88121334e-01, 4.37976092e-01,
          3.71260643e-01, 3.71260643e-01, 3.71260643e-01, 1.77340552e-01,
          3.71260643e-01, 3.71260643e-01, 3.71260643e-01, 3.71260643e-01,
          3.79541546e-01, 2.46207997e-01, 3.79541546e-01, 3.79541546e-01,
          3.79541546e-01, 2.66981333e-01, 3.79541546e-01, 3.79541546e-01,
          2.20791563e-01, 3.78969461e-01, 3.78969461e-01, 3.78969461e-01,
          2.92844743e-01, 3.78969461e-01, 3.78969461e-01, 3.78969461e-01,
          4.18138802e-01, 1.43522665e-01, 4.18138802e-01, 3.80018473e-01,
          4.18138802e-01, 1.45849571e-01, 4.18138802e-01, 3.31930697e-01,
          2.14622840e-01, 4.15188551e-01, 9.95980129e-02, 4.15188551e-01,
          4.14467752e-01, 4.15188551e-01, 2.80285358e-01, 4.15188551e-01,
          1.68296263e-01, 3.80815595e-01, 3.80815595e-01, 3.75923634e-01,
          3.18513274e-01, 3.80815595e-01, 3.80815595e-01, 3.80815595e-01 ]
      - [ 2.10606024e-01, 3.95005733e-01, 3.95005733e-01, 3.95005733e-01,
          1.24586642e-01, 3.95005733e-01, 3.95005733e-01, 3.95005733e-01,
          3.91106337e-01, 1.96346983e-01, 3.91106337e-01, 3.91106337e-01,
          3.91106337e-01, 1.99388102e-01, 3.91106337e-01, 3.91106337e-01,
          3.59913498e-01, 3.71527553e-01, 2.77390003e-01, 3.71527553e-01,
          3.15660834e-01, 3.71527553e-01, 3.71527553e-01, 3.71527553e-01,
          2.53591388e-01, 3.41203034e-01, 3.88651699e-01, 2.45231077e-01,
          3.88651699e-01, 3.88651699e-01, 3.88651699e-01, 3.88651699e-01,
          3.66900235e-01, 2.32430369e-01, 3.66900235e-01, 3.66900235e-01,
          3.66900235e-01, 3.66900235e-01, 3.66900235e-01, 3.66900235e-01,
          8.35017115e-02, 3.94916862e-01, 3.94916862e-01, 3.94916862e-01,
          2.30924413e-01, 3.94916862e-01, 3.94916862e-01, 3.94916862e-01,
          3.75253260e-01, 1.67773768e-01, 3.75253260e-01, 3.75253260e-01,
          3.75253260e-01, 3.51017118e-01, 3.75253260e-01, 3.75253260e-01,
          3.04326087e-01, 3.59323859e-01, 3.59323859e-01, 3.59323859e-01,
          3.59323859e-01, 3.59323859e-01, 3.59323859e-01, 3.59323859e-01,
          3.31503659e-01, 2.72344410e-01, 3.68511558e-01, 3.68511558e-01,
          3.68511558e-01, 3.65032077e-01, 3.68511558e-01, 3.68511558e-01,
          3.03551227e-01, 2.31889650e-01, 4.56846058e-01, 3.20112705e-01,
          3.78111750e-01, 2.53468543e-01, 4.56846058e-01, 3.49881589e-01,
          2.84931511e-01, 3.61584097e-01, 3.61584097e-01, 3.61584097e-01,
          3.61584097e-01, 3.61584097e-01, 3.61584097e-01, 3.61584097e-01,
          3.63146603e-01, 3.63146603e-01, 2.70635903e-01, 3.63146603e-01,
          3.63146603e-01, 3.63146603e-01, 3.63146603e-01, 3.63146603e-01,
          3.51860970e-01, 3.53081614e-01, 3.53081614e-01, 3.53081614e-01,
          3.53081614e-01, 3.53081614e-01, 3.53081614e-01, 3.53081614e-01,
          3.66710037e-01, 3.20820123e-01, 3.66710037e-01, 3.25010240e-01,
          3.66710037e-01, 3.39702666e-01, 3.66710037e-01, 3.66710037e-01,
          2.59767711e-01, 1.22201860e-01, 4.93901968e-01, 2.02973425e-01,
          4.86296237e-01, 1.64555266e-01, 4.93901968e-01, 3.46432745e-01,
          3.18697840e-01, 3.79335612e-01, 3.79335612e-01, 3.79335612e-01,
          1.76829934e-01, 3.79335612e-01, 3.79335612e-01, 3.79335612e-01,
          3.52929503e-01, 3.52929503e-01, 3.52929503e-01, 3.52929503e-01,
          3.52929503e-01, 3.52929503e-01, 3.52929503e-01, 3.52929503e-01,
          3.52929503e-01, 3.52929503e-01, 3.52929503e-01, 3.52929503e-01,
          3.52929503e-01, 3.52929503e-01, 3.52929503e-01, 3.52929503e-01,
          3.74646515e-01, 3.00623298e-01, 3.74646515e-01, 3.25210810e-01,
          3.74646515e-01, 3.57334584e-01, 3.74646515e-01, 3.33155543e-01,
          3.86846751e-01, 7.00931847e-02, 4.33526039e-01, 2.89260626e-01,
          4.33526039e-01, 7.51995146e-02, 4.33526039e-01, 4.33526039e-01,
          1.71389475e-01, 3.94590586e-01, 3.94590586e-01, 3.94590586e-01,
          1.80203512e-01, 3.94590586e-01, 3.94590586e-01, 3.94590586e-01,
          3.60763729e-01, 3.60763729e-01, 2.92134225e-01, 3.60763729e-01,
          3.60763729e-01, 3.60763729e-01, 3.60763729e-01, 3.60763729e-01,
          3.00452918e-01, 3.59788299e-01, 3.59788299e-01, 3.59788299e-01,
          3.59788299e-01, 3.59788299e-01, 3.59788299e-01, 3.59788299e-01,
          4.17124838e-01, 2.07766160e-01, 4.17124838e-01, 2.15546414e-01,
          4.17124838e-01, 2.91972160e-01, 4.17124838e-01, 3.53533417e-01,
          3.98949236e-01, 8.61864612e-02, 3.98949236e-01, 3.98949236e-01,
          3.98949236e-01, 1.83366656e-01, 3.98949236e-01, 3.98949236e-01 ]
      - [ 1.92132547e-01, 4.58503246e-01, 2.36925930e-01, 4.58503246e-01,
          1.88839421e-01, 4.58503246e-01, 1.60655394e-01, 4.58503246e-01,
          5.84595241e-02, 4.20336306e-01, 4.20336306e-01, 4.20336306e-01,
          4.85020019e-02, 4.20336306e-01, 3.26524496e-01, 4.20336306e-01,
          8.88916254e-02, 7.95884654e-02, 5.55293620e-01, 2.25996509e-01,
          1.80687025e-01, 6.02370612e-02, 5.55293620e-01, 5.25515020e-01,
          3.89765769e-01, 1.39108747e-01, 3.89765769e-01, 3.89765769e-01,
          3.89765769e-01, 2.55442202e-01, 3.89765769e-01, 3.89765769e-01,
          3.03373605e-01, 3.99327040e-01, 1.17407024e-01, 3.99327040e-01,
          3.87599528e-01, 3.99327040e-01, 3.19544971e-01, 3.99327040e-01,
          6.35512173e-02, 1.21669360e-01, 6.43471181e-02, 2.92959362e-01,
          4.70767975e-01, 4.70767975e-01, 4.70767975e-01, 4.70767975e-01,
          3.22576612e-02, 1.46804556e-01, 1.79845825e-01, 1.41505480e-01,
          4.79647964e-01, 4.79647964e-01, 4.79647964e-01, 4.79647964e-01,
          1.98792785e-01, 7.81177357e-02, 4.23370510e-01, 2.32243150e-01,
          4.23370510e-01, 4.23370510e-01, 4.23370510e-01, 4.23370510e-01,
          3.61739844e-01, 2.83541620e-01, 3.61739844e-01, 3.61739844e-01,
          3.61739844e-01, 3.61739844e-01, 3.61739844e-01, 3.61739844e-01,
          2.54117370e-01, 3.79272312e-01, 3.79272312e-01, 3.79272312e-01,
          2.61821359e-01, 3.79272312e-01, 3.79272312e-01, 3.79272312e-01,
          3.61983687e-01, 2.81350672e-01, 3.61983687e-01, 3.61983687e-01,
          3.61983687e-01, 3.61983687e-01, 3.61983687e-01, 3.61983687e-01,
          2.36381620e-01, 3.82252425e-01, 3.82252425e-01, 3.82252425e-01,
          2.52197117e-01, 3.82252425e-01, 3.82252425e-01, 3.82252425e-01,
          3.88444126e-01, 3.28085780e-01, 3.88444126e-01, 2.55645066e-01,
          3.88444126e-01, 3.88444126e-01, 3.88444126e-01, 2.62069851e-01,
          3.58419508e-01, 3.58419508e-01, 3.58419508e-01, 3.58419508e-01,
          3.58419508e-01, 3.11716408e-01, 3.58419508e-01, 3.58419508e-01,
          3.03747267e-01, 3.59393716e-01, 3.59393716e-01, 3.59393716e-01,
          3.59393716e-01, 3.59393716e-01, 3.59393716e-01, 3.59393716e-01,
          3.77363652e-01, 3.77363652e-01, 3.77363652e-01, 3.77363652e-01,
          3.00348252e-01, 2.65429705e-01, 3.51498902e-01, 3.77363652e-01,
          3.35718602e-01, 3.81585807e-01, 3.81585807e-01, 3.81585807e-01,
          1.94231838e-01, 3.81585807e-01, 3.43097866e-01, 3.81585807e-01,
          3.74570787e-01, 3.74570787e-01, 3.74570787e-01, 3.74570787e-01,
          3.31878990e-01, 2.72927016e-01, 3.74570787e-01, 3.31826419e-01,
          4.00017738e-01, 1.90582976e-01, 4.00017738e-01, 2.59836435e-01,
          4.00017738e-01, 3.03473413e-01, 4.00017738e-01, 4.00017738e-01,
          2.77215451e-01, 3.61168653e-01, 3.62648964e-01, 3.62648964e-01,
          3.62648964e-01, 3.62648964e-01, 3.62648964e-01, 3.62648964e-01,
          2.58536667e-01, 2.86564738e-01, 3.75784725e-01, 3.75784725e-01,
          3.75784725e-01, 3.75784725e-01, 3.75784725e-01, 3.75784725e-01,
          3.08273077e-01, 3.58843893e-01, 3.58843893e-01, 3.58843893e-01,
          3.58843893e-01, 3.58843893e-01, 3.58843893e-01, 3.58843893e-01,
          3.52929503e-01, 3.52929503e-01, 3.52929503e-01, 3.52929503e-01,
          3.52929503e-01, 3.52929503e-01, 3.52929503e-01, 3.52929503e-01,
          3.93739641e-01, 1.90026477e-01, 4.40641493e-01, 4.40641493e-01,
          1.15715034e-01, 1.20032296e-01, 4.40641493e-01, 4.40641493e-01,
          3.62886637e-01, 3.62886637e-01, 2.80507535e-01, 3.62886637e-01,
          3.62886637e-01, 3.62886637e-01, 3.57169092e-01, 3.62886637e-01 ]
      - [ 2.86219656e-01, 3.63641411e-01, 3.63641411e-01, 3.63641411e-01,
          3.47900569e-01, 3.63641411e-01, 3.63641411e-01, 3.63641411e-01,
          1.47258878e-01, 1.55928358e-01, 3.38828117e-01, 4.27685916e-01,
          4.35440838e-01, 2.88280517e-01, 4.35440838e-01, 4.35440838e-01,
          2.14074478e-01, 2.21295267e-01, 4.38754886e-01, 1.35287210e-01,
          3.35397929e-01, 4.38754886e-01, 4.38754886e-01, 4.38754886e-01,
          3.80324185e-01, 3.62993449e-01, 1.79006413e-01, 3.80324185e-01,
          3.80324185e-01, 3.80324185e-01, 3.30394417e-01, 3.80324185e-01,
          1.73037201e-01, 4.40791041e-01, 1.97421744e-01, 4.40791041e-01,
          3.06254923e-01, 4.40791041e-01, 2.36009866e-01, 4.40791041e-01,
          1.76577196e-01, 1.26392543e-01, 4.05815184e-01, 4.05815184e-01,
          4.05815184e-01, 3.54064584e-01, 4.05815184e-01, 4.05815184e-01,
          3.65813971e-01, 2.44144022e-01, 3.65813971e-01, 3.65813971e-01,
          3.65813971e-01, 3.65813971e-01, 3.65813971e-01, 3.65813971e-01,
          2.66535163e-01, 3.87230456e-01, 3.87230456e-01, 3.87230456e-01,
          3.32401693e-01, 3.87230456e-01, 2.54681200e-01, 3.87230456e-01,
          3.77542496e-01, 3.77542496e-01, 3.77542496e-01, 3.77542496e-01,
          3.17559540e-01, 3.50441217e-01, 2.44710699e-01, 3.77542496e-01,
          3.51735860e-01, 3.58936340e-01, 3.15727443e-01, 3.58936340e-01,
          3.58936340e-01, 3.58936340e-01, 3.58936340e-01, 3.58936340e-01,
          3.54837626e-01, 3.54837626e-01, 3.54837626e-01, 3.54837626e-01,
          3.54837626e-01, 3.54837626e-01, 3.39244068e-01, 3.54837626e-01,
          3.99813950e-01, 3.99813950e-01, 3.99813950e-01, 3.99813950e-01,
          2.42843881e-01, 3.99813950e-01, 1.36422589e-01, 3.45203787e-01,
          3.58232588e-01, 3.58232588e-01, 3.58232588e-01, 3.58232588e-01,
          3.13219935e-01, 3.58232588e-01, 3.58232588e-01, 3.58232588e-01,
          3.47066730e-01, 3.70634556e-01, 3.16524029e-01, 3.70634556e-01,
          2.98000753e-01, 3.70634556e-01, 3.70634556e-01, 3.70634556e-01,
          2.76152015e-01, 3.89219850e-01, 3.57836872e-01, 3.89219850e-01,
          3.09905916e-01, 3.89219850e-01, 2.99657315e-01, 3.89219850e-01,
          4.01214749e-01, 4.01214749e-01, 3.08449388e-01, 4.01214749e-01,
          2.24449381e-01, 4.01214749e-01, 2.13557675e-01, 4.01214749e-01,
          3.25022101e-01, 3.70651305e-01, 3.11412692e-01, 3.70651305e-01,
          3.26753110e-01, 3.70651305e-01, 3.70651305e-01, 3.70651305e-01,
          3.00717413e-01, 3.59756827e-01, 3.59756827e-01, 3.59756827e-01,
          3.59756827e-01, 3.59756827e-01, 3.59756827e-01, 3.59756827e-01,
          2.24905938e-01, 3.76612812e-01, 3.50450456e-01, 3.76612812e-01,
          3.37124676e-01, 3.76612812e-01, 3.76612812e-01, 3.76612812e-01,
          2.99724907e-01, 3.70981157e-01, 2.84071505e-01, 3.70981157e-01,
          3.70981157e-01, 3.70981157e-01, 3.70981157e-01, 3.70981157e-01,
          1.89000130e-01, 3.78169566e-01, 3.20043147e-01, 3.78169566e-01,
          3.78169566e-01, 3.78169566e-01, 3.78169566e-01, 3.78169566e-01,
          2.46637315e-01, 3.76214296e-01, 2.93578297e-01, 3.76214296e-01,
          3.76214296e-01, 3.76214296e-01, 3.76214296e-01, 3.76214296e-01,
          2.81447530e-01, 3.61972958e-01, 3.61972958e-01, 3.61972958e-01,
          3.61972958e-01, 3.61972958e-01, 3.61972958e-01, 3.61972958e-01,
          3.03548723e-01, 3.59635472e-01, 3.58104795e-01, 3.59635472e-01,
          3.59635472e-01, 3.59635472e-01, 3.59635472e-01, 3.59635472e-01,
          3.55298787e-01, 3.55298787e-01, 3.35841447e-01, 3.55298787e-01,
          3.55298787e-01, 3.55298787e-01, 3.55298787e-01, 3.55298787e-01 ]
      - [ 2.28141800e-01, 3.67283821e-01, 3.67283821e-01, 3.67283821e-01,
          3.67283821e-01, 3.67283821e-01, 3.67283821e-01, 3.67283821e-01,
          3.68377775e-01, 3.68377775e-01, 3.68377775e-01, 3.68377775e-01,
          3.68377775e-01, 3.68377775e-01, 2.15416744e-01, 3.68377775e-01,
          2.76415646e-01, 3.85500491e-01, 3.85500491e-01, 3.72360140e-01,
          1.95032954e-01, 3.85500491e-01, 3.85500491e-01, 3.85500491e-01,
          3.93008083e-01, 2.11532399e-01, 3.93008083e-01, 3.93008083e-01,
          3.93008083e-01, 1.56830534e-01, 3.93008083e-01, 3.93008083e-01,
          3.79654557e-01, 3.79654557e-01, 2.41769344e-01, 3.79654557e-01,
          3.78712207e-01, 3.79654557e-01, 2.71374017e-01, 3.79654557e-01,
          3.59654486e-01, 3.59654486e-01, 3.59654486e-01, 3.02886397e-01,
          3.59654486e-01, 3.58550400e-01, 3.59654486e-01, 3.59654486e-01,
          1.04918286e-01, 2.33730942e-01, 6.04850352e-02, 4.30442542e-01,
          4.30442542e-01, 4.30442542e-01, 4.30442542e-01, 4.30442542e-01,
          8.36540833e-02, 2.76617676e-01, 3.64794046e-01, 2.93254554e-01,
          4.16309088e-01, 4.16309088e-01, 4.16309088e-01, 4.16309088e-01,
          3.70905638e-01, 2.41731167e-01, 3.70905638e-01, 3.70905638e-01,
          3.70905638e-01, 3.70905638e-01, 3.35312605e-01, 3.70905638e-01,
          3.16900074e-01, 3.64573419e-01, 3.64573419e-01, 3.64573419e-01,
          3.13766181e-01, 3.64573419e-01, 3.64573419e-01, 3.64573419e-01,
          2.79732227e-01, 1.78294241e-01, 4.40366566e-01, 4.40366566e-01,
          2.16327518e-01, 2.51144975e-01, 4.40366566e-01, 4.40366566e-01,
          2.60636449e-01, 3.58248711e-01, 3.65254015e-01, 3.65254015e-01,
          3.64725679e-01, 3.65254015e-01, 3.65254015e-01, 3.65254015e-01,
          3.61604124e-01, 2.97968894e-01, 3.61604124e-01, 3.61604124e-01,
          3.61604124e-01, 3.50794137e-01, 3.61604124e-01, 3.61604124e-01,
          3.44503939e-01, 4.35549587e-01, 1.41663447e-01, 4.01655972e-01,
          2.91265994e-01, 4.35549587e-01, 2.04019979e-01, 4.35549587e-01,
          3.54163110e-01, 3.54163110e-01, 3.54163110e-01, 3.54163110e-01,
          3.54163110e-01, 3.44152808e-01, 3.54163110e-01, 3.54163110e-01,
          1.81675136e-01, 3.64005029e-01, 4.12592858e-01, 4.12592858e-01,
          3.14566284e-01, 4.12592858e-01, 2.24698395e-01, 4.12592858e-01,
          3.94762933e-01, 4.40278620e-01, 4.40278620e-01, 4.40278620e-01,
          7.42765591e-02, 2.60543346e-01, 3.21803808e-01, 2.85080343e-01,
          3.68722528e-01, 3.58709574e-01, 3.68722528e-01, 3.68722528e-01,
          3.68722528e-01, 2.27828354e-01, 3.68722528e-01, 3.68722528e-01,
          3.51478696e-01, 4.15413827e-01, 2.81062573e-01, 2.66484022e-01,
          4.15413827e-01, 4.15413827e-01, 4.15413827e-01, 1.78965345e-01,
          3.85888636e-01, 1.69370234e-01, 3.24952722e-01, 3.59304219e-01,
          3.85888636e-01, 3.70303482e-01, 3.85888636e-01, 3.85888636e-01,
          3.49913418e-01, 3.76696199e-01, 1.80049673e-01, 3.76696199e-01,
          3.76696199e-01, 3.76696199e-01, 3.63151699e-01, 3.76696199e-01,
          1.03741877e-01, 4.39875275e-01, 2.53587067e-01, 4.39875275e-01,
          1.33325800e-01, 4.39875275e-01, 3.58887881e-01, 4.39875275e-01,
          2.44898438e-01, 3.71750146e-01, 4.14471686e-01, 4.14471686e-01,
          1.89970121e-01, 4.14471686e-01, 2.72856116e-01, 4.14471686e-01,
          3.91560286e-01, 3.91560286e-01, 3.91560286e-01, 2.07153767e-01,
          3.91560286e-01, 3.91560286e-01, 3.91560286e-01, 1.82369933e-01,
          3.52929503e-01, 3.52929503e-01, 3.52929503e-01, 3.52929503e-01,
          3.52929503e-01, 3.52929503e-01, 3.52929503e-01, 3.52929503e-01 ]
      - [ 3.35470617e-01, 3.62266153e-01, 3.62266153e-01, 3.62266153e-01,
          3.10514867e-01, 3.62266153e-01, 3.62266153e-01, 3.62266153e-01,
          2.29048997e-01, 3.70046705e-01, 3.69699538e-01, 3.70046705e-01,
          3.49984109e-01, 3.70046705e-01, 3.70046705e-01, 3.70046705e-01,
          3.55702937e-01, 3.55702937e-01, 3.32827479e-01, 3.55702937e-01,
          3.55702937e-01, 3.55702937e-01, 3.55702937e-01, 3.55702937e-01,
          2.57254094e-01, 3.64530653e-01, 3.64530653e-01, 3.64530653e-01,
          3.64530653e-01, 3.64530653e-01, 3.64530653e-01, 3.64530653e-01,
          2.28678808e-01, 3.63854080e-01, 1.80008322e-01, 4.01912361e-01,
          4.01912361e-01, 4.01912361e-01, 3.64367783e-01, 4.01912361e-01,
          1.87829077e-01, 3.97405773e-01, 2.87284285e-01, 3.97405773e-01,
          2.97592163e-01, 3.97405773e-01, 3.97405773e-01, 3.97405773e-01,
          1.69604450e-01, 3.91781092e-01, 3.91781092e-01, 3.91781092e-01,
          2.15327412e-01, 3.91781092e-01, 3.91781092e-01, 3.91781092e-01,
          3.54251474e-01, 3.43514055e-01, 3.54251474e-01, 3.54251474e-01,
          3.54251474e-01, 3.54251474e-01, 3.54251474e-01, 3.54251474e-01,
          2.76694804e-01, 3.15813959e-01, 3.80035251e-01, 3.80035251e-01,
          3.12683284e-01, 3.80035251e-01, 3.80035251e-01, 3.80035251e-01,
          3.31385970e-01, 3.64228517e-01, 3.00948292e-01, 3.64228517e-01,
          3.64228517e-01, 3.64228517e-01, 3.64228517e-01, 3.64228517e-01,
          1.85818359e-01, 4.08914685e-01, 3.50939155e-01, 4.09988642e-01,
          2.16169477e-01, 4.09988642e-01, 3.46417636e-01, 4.09988642e-01,
          1.19747333e-01, 4.01496023e-01, 4.01496023e-01, 4.01496023e-01,
          1.20229848e-01, 4.01496023e-01, 4.01496023e-01, 4.01496023e-01,
          4.25640076e-01, 2.70740360e-01, 4.25640076e-01, 2.38503918e-01,
          4.25640076e-01, 2.89466590e-01, 4.25640076e-01, 2.38945350e-01,
          2.72199333e-01, 3.72874469e-01, 3.33146751e-01, 3.72874469e-01,
          3.72874469e-01, 3.72874469e-01, 3.40614974e-01, 3.72874469e-01,
          3.46795768e-01, 3.67966354e-01, 3.67966354e-01, 3.67966354e-01,
          2.52311289e-01, 3.67966354e-01, 3.67966354e-01, 3.67966354e-01,
          2.50193357e-01, 3.77116144e-01, 2.83436507e-01, 3.77116144e-01,
          3.77116144e-01, 3.77116144e-01, 3.77116144e-01, 3.77116144e-01,
          7.71782771e-02, 4.04167175e-01, 4.04167175e-01, 4.04167175e-01,
          9.94957611e-02, 4.04167175e-01, 4.04167175e-01, 4.04167175e-01,
          4.47548389e-01, 1.76370308e-01, 4.47548389e-01, 1.86027437e-01,
          4.47548389e-01, 2.33019471e-01, 4.47548389e-01, 2.72617608e-01,
          3.18009585e-01, 3.64089996e-01, 3.25957537e-01, 3.64089996e-01,
          3.55212957e-01, 3.64089996e-01, 3.64089996e-01, 3.64089996e-01,
          1.93190202e-01, 3.86702925e-01, 2.48152062e-01, 3.86702925e-01,
          3.86702925e-01, 3.86702925e-01, 3.86702925e-01, 3.86702925e-01,
          3.58397305e-01, 3.66784334e-01, 3.53208572e-01, 3.66784334e-01,
          2.65474945e-01, 3.66784334e-01, 3.66784334e-01, 3.66784334e-01,
          7.76656196e-02, 4.04366583e-01, 4.04366583e-01, 4.04366583e-01,
          9.40972194e-02, 4.04366583e-01, 4.04366583e-01, 4.04366583e-01,
          4.42122996e-01, 2.10319325e-01, 4.42122996e-01, 2.23279119e-01,
          4.42122996e-01, 2.48276785e-01, 4.42122996e-01, 2.40756273e-01,
          3.52030545e-01, 3.64878267e-01, 3.48644495e-01, 3.64878267e-01,
          3.64878267e-01, 3.64878267e-01, 2.91882455e-01, 3.64878267e-01,
          3.52939218e-01, 3.52939218e-01, 3.52939218e-01, 3.52939218e-01,
          3.52861315e-01, 3.52939218e-01, 3.52939218e-01, 3.52939218e-01 ]
      - [ 1.25185236e-01, 4.80895191e-01, 1.91444904e-01, 4.80895191e-01,
          8.15146193e-02, 4.80895191e-01, 1.05778024e-01, 4.80895191e-01,
          4.16651636e-01, 2.27115422e-01, 4.16651636e-01, 2.89097697e-01,
          4.16651636e-01, 2.72550464e-01, 4.16651636e-01, 3.03316593e-01,
          3.52929503e-01, 3.52929503e-01, 3.52929503e-01, 3.52929503e-01,
          3.52929503e-01, 3.52929503e-01, 3.52929503e-01, 3.52929503e-01,
          3.54262054e-01, 3.54262054e-01, 3.43437612e-01, 3.54262054e-01,
          3.54262054e-01, 3.54262054e-01, 3.54262054e-01, 3.54262054e-01,
          2.78516561e-01, 3.70495260e-01, 3.70495260e-01, 3.70495260e-01,
          3.08425725e-01, 3.70495260e-01, 3.70495260e-01, 3.70495260e-01,
          5.37374690e-02, 4.41541195e-01, 7.49633312e-02, 4.41541195e-01,
          1.10856719e-01, 4.41541195e-01, 4.41541195e-01, 4.41541195e-01,
          2.93007374e-01, 1.75599054e-01, 4.11236852e-01, 1.83370441e-01,
          4.11236852e-01, 4.11236852e-01, 4.11236852e-01, 4.11236852e-01,
          3.71467173e-01, 3.35561037e-01, 2.36136526e-01, 3.71467173e-01,
          3.71467173e-01, 3.71467173e-01, 3.71467173e-01, 3.71467173e-01,
          2.99731016e-01, 3.64044219e-01, 3.33699048e-01, 3.64044219e-01,
          3.64044219e-01, 3.64044219e-01, 3.64044219e-01, 3.64044219e-01,
          3.09440672e-01, 3.80121171e-01, 2.99667329e-01, 3.80121171e-01,
          3.80121171e-01, 3.80121171e-01, 2.96964258e-01, 3.80121171e-01,
          1.18183523e-01, 3.34378898e-01, 4.14622992e-01, 4.14622992e-01,
          1.02568917e-01, 4.14622992e-01, 4.14622992e-01, 4.14622992e-01,
          3.52929503e-01, 3.52929503e-01, 3.52929503e-01, 3.52929503e-01,
          3.52929503e-01, 3.52929503e-01, 3.52929503e-01, 3.52929503e-01,
          3.68454814e-01, 3.68454814e-01, 2.65130252e-01, 3.68454814e-01,
          3.68454814e-01, 3.68454814e-01, 3.33872944e-01, 3.68454814e-01,
          2.49401972e-01, 3.82478714e-01, 2.49180242e-01, 3.82478714e-01,
          3.82478714e-01, 3.82478714e-01, 3.74749154e-01, 3.82478714e-01,
          3.66300046e-01, 3.66300046e-01, 2.38977537e-01, 3.66300046e-01,
          3.66300046e-01, 3.66300046e-01, 3.66300046e-01, 3.66300046e-01,
          7.40612075e-02, 4.85753924e-01, 1.58389106e-01, 4.85753924e-01,
          9.64810550e-02, 4.85753924e-01, 1.06957845e-01, 4.85753924e-01,
          2.41527647e-01, 3.69028300e-01, 4.85154122e-01, 1.92249000e-01,
          2.15599835e-01, 4.54399586e-01, 4.85154122e-01, 1.99914828e-01,
          4.68738556e-01, 2.22400293e-01, 4.02453333e-01, 2.79700190e-01,
          4.68738556e-01, 2.00310558e-01, 4.03305203e-01, 2.51881331e-01,
          3.50641698e-01, 3.85062307e-01, 2.49459058e-01, 3.85062307e-01,
          3.49024594e-01, 3.85062307e-01, 3.09941351e-01, 3.85062307e-01,
          3.55194360e-01, 3.55194360e-01, 3.36615533e-01, 3.55194360e-01,
          3.55194360e-01, 3.55194360e-01, 3.55194360e-01, 3.55194360e-01,
          6.27719015e-02, 4.93124157e-01, 5.44142015e-02, 4.93124157e-01,
          1.01652928e-01, 4.93124157e-01, 7.17946067e-02, 4.93124157e-01,
          1.59777611e-01, 4.31488216e-01, 4.82749313e-01, 1.57786936e-01,
          1.78679153e-01, 4.82749313e-01, 4.82749313e-01, 1.65842146e-01,
          4.71199840e-01, 1.20097570e-01, 3.33449155e-01, 2.05419034e-01,
          4.71199840e-01, 1.64905205e-01, 4.71199840e-01, 3.66337597e-01,
          2.75394559e-01, 3.29265833e-01, 2.83655256e-01, 3.82481456e-01,
          3.82481456e-01, 3.82481456e-01, 3.82481456e-01, 3.82481456e-01,
          2.47844607e-01, 3.87701809e-01, 3.44995230e-01, 2.53208339e-01,
          3.87701809e-01, 3.87701809e-01, 3.87701809e-01, 3.87701809e-01 ]
      - [ 3.52929503e-01, 3.52929503e-01, 3.52929503e-01, 3.52929503e-01,
          3.52929503e-01, 3.52929503e-01, 3.52929503e-01, 3.52929503e-01,
          1.63149565e-01, 4.18277800e-01, 2.46236175e-01, 4.18277800e-01,
          1.83820695e-01, 4.18277800e-01, 4.18277800e-01, 4.18277800e-01,
          7.95317218e-02, 1.22197717e-01, 2.29377061e-01, 3.50496143e-01,
          4.59789187e-01, 4.05549109e-01, 4.59789187e-01, 4.59789187e-01,
          1.93112925e-01, 4.57556009e-01, 1.09544523e-01, 2.98062652e-01,
          4.57556009e-01, 4.57556009e-01, 1.40945509e-01, 4.57556009e-01,
          3.56317967e-01, 3.56317967e-01, 3.34782660e-01, 3.56317967e-01,
          3.50122273e-01, 3.56317967e-01, 3.56317967e-01, 3.56317967e-01,
          2.74112552e-01, 3.63980561e-01, 3.63980561e-01, 3.63980561e-01,
          3.55435729e-01, 3.63980561e-01, 3.63980561e-01, 3.63980561e-01,
          7.09222257e-02, 1.14849046e-01, 4.60286379e-01, 3.21135223e-01,
          4.52107370e-01, 1.84560552e-01, 4.60286379e-01, 4.60286379e-01,
          3.74848485e-01, 2.47053772e-01, 3.74848485e-01, 3.74848485e-01,
          3.74848485e-01, 3.03563744e-01, 3.74848485e-01, 3.74848485e-01,
          1.62682146e-01, 4.08474535e-01, 2.04984203e-01, 3.05250943e-01,
          4.08474535e-01, 4.08474535e-01, 4.08474535e-01, 4.08474535e-01,
          2.40460470e-01, 2.70062447e-01, 3.57889950e-01, 3.50180030e-01,
          3.91987771e-01, 3.91987771e-01, 3.91987771e-01, 3.91987771e-01,
          2.37194553e-01, 3.43724489e-01, 3.87468427e-01, 3.65636379e-01,
          2.95811266e-01, 3.87468427e-01, 3.87468427e-01, 3.87468427e-01,
          4.16421235e-01, 1.15286179e-01, 4.16421235e-01, 3.09340864e-01,
          4.16421235e-01, 1.40798390e-01, 4.16421235e-01, 4.16421235e-01,
          3.81303400e-01, 1.92474082e-01, 3.81303400e-01, 3.81303400e-01,
          3.81303400e-01, 2.94602364e-01, 3.81303400e-01, 3.81303400e-01,
          3.52929503e-01, 3.52929503e-01, 3.52929503e-01, 3.52929503e-01,
          3.52929503e-01, 3.52929503e-01, 3.52929503e-01, 3.52929503e-01,
          3.52929503e-01, 3.52929503e-01, 3.52929503e-01, 3.52929503e-01,
          3.52929503e-01, 3.52929503e-01, 3.52929503e-01, 3.52929503e-01,
          2.59199411e-01, 3.72752845e-01, 3.72752845e-01, 3.72752845e-01,
          3.08906972e-01, 3.72752845e-01, 3.72752845e-01, 3.72752845e-01,
          4.26105708e-01, 1.62210524e-01, 4.26105708e-01, 4.26105708e-01,
          1.72914088e-01, 1.78049371e-01, 4.26105708e-01, 4.26105708e-01,
          3.83211553e-01, 2.26459473e-01, 3.83211553e-01, 3.83211553e-01,
          3.83211553e-01, 2.52549082e-01, 3.83211553e-01, 3.83211553e-01,
          3.29477280e-01, 4.08047646e-01, 3.95540476e-01, 4.08047646e-01,
          3.48378628e-01, 4.08047646e-01, 1.04262039e-01, 3.14911664e-01,
          3.76377791e-01, 3.76377791e-01, 3.76377791e-01, 3.76377791e-01,
          1.54538423e-01, 3.76377791e-01, 3.49851966e-01, 3.76377791e-01,
          1.84660688e-01, 3.84756714e-01, 2.71717161e-01, 3.84756714e-01,
          3.84756714e-01, 3.84756714e-01, 3.84756714e-01, 3.84756714e-01,
          2.69839227e-01, 3.66668314e-01, 3.66668314e-01, 3.66668314e-01,
          3.66668314e-01, 3.66668314e-01, 3.41832608e-01, 3.66668314e-01,
          4.18772042e-01, 4.18772042e-01, 4.18772042e-01, 4.18772042e-01,
          6.14840314e-02, 2.82200992e-01, 1.88543901e-01, 4.18772042e-01,
          3.90277267e-01, 3.90277267e-01, 2.66164422e-01, 3.90277267e-01,
          2.77398497e-01, 3.90277267e-01, 2.94492573e-01, 3.90277267e-01,
          2.05095008e-01, 3.88440013e-01, 3.88440013e-01, 3.88440013e-01,
          2.24447489e-01, 3.88440013e-01, 3.86329353e-01, 3.88440013e-01 ]
      - [ 3.52929503e-01, 3.52929503e-01, 3.52929503e-01, 3.52929503e-01,
          3.52929503e-01, 3.52929503e-01, 3.52929503e-01, 3.52929503e-01,
          3.52929503e-01, 3.52929503e-01, 3.52929503e-01, 3.52929503e-01,
          3.52929503e-01, 3.52929503e-01, 3.52929503e-01, 3.52929503e-01,
          3.63146722e-01, 4.14250135e-01, 2.04077736e-01, 4.14250135e-01,
          2.43310869e-01, 4.14250135e-01, 2.76994050e-01, 4.14250135e-01,
          7.62064978e-02, 4.05299038e-01, 6.73781857e-02, 4.05299038e-01,
          4.05299038e-01, 4.05299038e-01, 4.05299038e-01, 4.05299038e-01,
          7.23404959e-02, 2.55813271e-01, 2.54100949e-01, 3.03361386e-01,
          4.38278735e-01, 4.38278735e-01, 4.38278735e-01, 4.38278735e-01,
          1.95090756e-01, 1.95384532e-01, 3.00014615e-01, 3.01949769e-01,
          4.29619133e-01, 4.29619133e-01, 4.29619133e-01, 4.29619133e-01,
          1.71409085e-01, 1.32811829e-01, 1.75047547e-01, 1.67686701e-01,
          4.71569031e-01, 4.71569031e-01, 4.71569031e-01, 4.71569031e-01,
          9.30089876e-02, 1.39714956e-01, 1.65441200e-01, 1.64995775e-01,
          4.77614939e-01, 4.77614939e-01, 4.77614939e-01, 4.77614939e-01,
          2.48296931e-01, 2.35210553e-01, 2.51452506e-01, 4.03921098e-01,
          4.03921098e-01, 4.03921098e-01, 4.03921098e-01, 4.03921098e-01,
          3.32858890e-01, 2.68863440e-01, 3.68157446e-01, 3.68157446e-01,
          3.68157446e-01, 3.68157446e-01, 3.68157446e-01, 3.68157446e-01,
          2.40409702e-01, 3.87133092e-01, 3.87133092e-01, 3.87133092e-01,
          2.15169728e-01, 3.77726525e-01, 3.87133092e-01, 3.87133092e-01,
          3.72300714e-01, 2.08104953e-01, 3.72300714e-01, 3.72300714e-01,
          3.72300714e-01, 3.48318756e-01, 3.72300714e-01, 3.72300714e-01,
          3.07769299e-01, 3.87160480e-01, 2.79524207e-01, 3.87160480e-01,
          3.87160480e-01, 3.87160480e-01, 2.71680266e-01, 3.87160480e-01,
          3.79218251e-01, 3.79218251e-01, 3.79218251e-01, 3.79218251e-01,
          2.35911906e-01, 3.79218251e-01, 3.79218251e-01, 2.78779566e-01,
          3.77145261e-01, 2.96360016e-01, 3.77145261e-01, 3.77145261e-01,
          3.77145261e-01, 2.34460101e-01, 3.77145261e-01, 3.77145261e-01,
          2.33752742e-01, 2.83689886e-01, 5.11983097e-01, 5.11983097e-01,
          1.05322756e-01, 1.75875917e-01, 4.65719223e-01, 2.76755631e-01,
          4.03116852e-01, 3.56962651e-01, 4.03116852e-01, 4.03116852e-01,
          2.00768113e-01, 1.25406072e-01, 4.03116852e-01, 4.03116852e-01,
          3.79029691e-01, 3.79029691e-01, 2.73681462e-01, 3.79029691e-01,
          3.58531743e-01, 3.79029691e-01, 2.72853702e-01, 3.79029691e-01,
          2.74087399e-01, 3.62966031e-01, 3.62966031e-01, 3.61640066e-01,
          3.62966031e-01, 3.62966031e-01, 3.62966031e-01, 3.62966031e-01,
          3.69089425e-01, 2.06696764e-01, 3.69089425e-01, 3.69089425e-01,
          3.69089425e-01, 3.69089425e-01, 3.69089425e-01, 3.69089425e-01,
          2.15364665e-01, 3.68382126e-01, 3.68382126e-01, 3.68382126e-01,
          3.68382126e-01, 3.68382126e-01, 3.68382126e-01, 3.68382126e-01,
          2.40665302e-01, 2.15178728e-01, 3.85588616e-01, 3.85588616e-01,
          3.85400236e-01, 3.85588616e-01, 3.85588616e-01, 3.85588616e-01,
          1.37611896e-01, 1.60614312e-01, 4.33328062e-01, 3.36063206e-01,
          4.33328062e-01, 2.94798464e-01, 4.33328062e-01, 4.33328062e-01,
          3.06988865e-01, 3.45485270e-01, 3.61199200e-01, 3.61199200e-01,
          3.61199200e-01, 3.61199200e-01, 3.61199200e-01, 3.61199200e-01,
          3.52929503e-01, 3.52929503e-01, 3.52929503e-01, 3.52929503e-01,
          3.52929503e-01, 3.52929503e-01, 3.52929503e-01, 3.52929503e-01 ]
      - [ 3.91061038e-01, 2.08237186e-01, 3.91061038e-01, 3.91061038e-01,
          3.91061038e-01, 1.87505275e-01, 3.91061038e-01, 3.91061038e-01,
          2.63450086e-01, 4.25254405e-01, 1.66832045e-01, 4.25254405e-01,
          3.33550334e-01, 4.25254405e-01, 2.52768964e-01, 4.25254405e-01,
          1.66587591e-01, 1.58936813e-01, 5.09394765e-01, 3.60405087e-01,
          2.95458585e-01, 2.42515877e-01, 5.09394765e-01, 3.83318126e-01,
          3.55134726e-01, 3.55134726e-01, 3.37056518e-01, 3.55134726e-01,
          3.55134726e-01, 3.55134726e-01, 3.55134726e-01, 3.55134726e-01,
          3.84846389e-01, 1.58690542e-01, 3.84846389e-01, 3.84846389e-01,
          3.84846389e-01, 2.86935627e-01, 3.84846389e-01, 3.84846389e-01,
          3.95340055e-01, 1.61909819e-01, 3.95340055e-01, 3.92369479e-01,
          3.95340055e-01, 1.85507998e-01, 3.95340055e-01, 3.95340055e-01,
          1.43086851e-01, 3.94236952e-01, 2.24433213e-01, 3.94236952e-01,
          3.84842396e-01, 3.94236952e-01, 3.94236952e-01, 3.94236952e-01,
          2.35376596e-01, 2.29242057e-01, 4.04985517e-01, 2.60641307e-01,
          4.04985517e-01, 4.04985517e-01, 4.04985517e-01, 4.04985517e-01,
          3.82606953e-01, 3.82606953e-01, 3.82606953e-01, 3.82606953e-01,
          3.82606953e-01, 2.08368689e-01, 3.82606953e-01, 2.72821337e-01,
          3.66931528e-01, 2.76608050e-01, 3.66931528e-01, 3.66931528e-01,
          3.66931528e-01, 3.66931528e-01, 3.34648430e-01, 3.66931528e-01,
          3.65895718e-01, 2.43283182e-01, 3.65895718e-01, 3.65895718e-01,
          3.65895718e-01, 3.65895718e-01, 3.65895718e-01, 3.65895718e-01,
          3.65911275e-01, 2.43118778e-01, 3.65911275e-01, 3.65911275e-01,
          3.65911275e-01, 3.65911275e-01, 3.65911275e-01, 3.65911275e-01,
          3.63590181e-01, 3.63590181e-01, 2.66425639e-01, 3.63590181e-01,
          3.63590181e-01, 3.63590181e-01, 3.63590181e-01, 3.63590181e-01,
          3.74284565e-01, 1.07668892e-01, 4.40628827e-01, 2.35036239e-01,
          4.40628827e-01, 1.09817870e-01, 4.40628827e-01, 4.40628827e-01,
          3.98575991e-01, 3.98575991e-01, 1.75510794e-01, 3.98575991e-01,
          3.98575991e-01, 3.98575991e-01, 1.09714180e-01, 3.98575991e-01,
          3.52929503e-01, 3.52929503e-01, 3.52929503e-01, 3.52929503e-01,
          3.52929503e-01, 3.52929503e-01, 3.52929503e-01, 3.52929503e-01,
          3.73835772e-01, 3.73835772e-01, 3.73835772e-01, 3.73835772e-01,
          3.73835772e-01, 3.73835772e-01, 1.34137750e-01, 3.73835772e-01,
          4.08312172e-01, 4.08312172e-01, 4.08312172e-01, 3.39712411e-01,
          4.08312172e-01, 1.48414999e-01, 4.08312172e-01, 1.57782435e-01,
          4.02334362e-01, 6.60824031e-02, 4.02334362e-01, 4.02334362e-01,
          4.02334362e-01, 1.42745107e-01, 4.02334362e-01, 4.02334362e-01,
          4.03404713e-01, 4.03404713e-01, 8.42504874e-02, 4.03404713e-01,
          4.03404713e-01, 4.03404713e-01, 1.11622736e-01, 4.03404713e-01,
          3.73342574e-01, 2.09812954e-01, 3.73342574e-01, 3.73342574e-01,
          3.73342574e-01, 3.40500146e-01, 3.73342574e-01, 3.73342574e-01,
          3.00163805e-01, 4.11586255e-01, 1.25724122e-01, 4.11586255e-01,
          3.61532897e-01, 4.11586255e-01, 2.85769910e-01, 4.11586255e-01,
          3.65234613e-01, 7.15138838e-02, 5.19810379e-01, 1.27898842e-01,
          5.19810379e-01, 8.33710656e-02, 5.19810379e-01, 1.49602026e-01,
          3.90699446e-01, 1.82409003e-01, 3.90699446e-01, 3.90699446e-01,
          3.90699446e-01, 2.16673568e-01, 3.90699446e-01, 3.90699446e-01,
          3.79594386e-01, 4.35929507e-01, 1.56769007e-01, 4.35929507e-01,
          2.13318825e-01, 4.35929507e-01, 1.46061599e-01, 4.35929507e-01 ]
      - [ 3.83196503e-01, 3.83196503e-01, 3.83196503e-01, 2.80863136e-01,
          3.83196503e-01, 3.83196503e-01, 3.83196503e-01, 1.90395027e-01,
          3.52929503e-01, 3.52929503e-01, 3.52929503e-01, 3.52929503e-01,
          3.52929503e-01, 3.52929503e-01, 3.52929503e-01, 3.52929503e-01,
          3.54456574e-01, 3.54456574e-01, 3.54456574e-01, 3.54456574e-01,
          3.54456574e-01, 3.42027038e-01, 3.54456574e-01, 3.54456574e-01,
          3.95097315e-01, 2.03986853e-01, 3.95097315e-01, 3.95097315e-01,
          3.17866325e-01, 2.69988656e-01, 3.95097315e-01, 3.95097315e-01,
          2.32489616e-01, 3.79573733e-01, 2.78745323e-01, 3.79573733e-01,
          3.79573733e-01, 3.79573733e-01, 3.79573733e-01, 3.79573733e-01,
          3.18725854e-01, 3.80209744e-01, 3.80209744e-01, 1.65101975e-01,
          3.80209744e-01, 3.80209744e-01, 3.80209744e-01, 3.80209744e-01,
          3.84176940e-01, 2.21241236e-01, 2.48319715e-01, 3.84176940e-01,
          3.84176940e-01, 3.84176940e-01, 3.84176940e-01, 3.84176940e-01,
          2.26716176e-01, 2.35735476e-01, 3.18156272e-01, 3.96948308e-01,
          3.96948308e-01, 3.96948308e-01, 3.96948308e-01, 3.96948308e-01,
          2.27154210e-01, 3.60087872e-01, 3.68568271e-01, 3.68568271e-01,
          3.68568271e-01, 3.68568271e-01, 3.68568271e-01, 3.68568271e-01,
          3.52929503e-01, 3.52929503e-01, 3.52929503e-01, 3.52929503e-01,
          3.52929503e-01, 3.52929503e-01, 3.52929503e-01, 3.52929503e-01,
          3.52929503e-01, 3.52929503e-01, 3.52929503e-01, 3.52929503e-01,
          3.52929503e-01, 3.52929503e-01, 3.52929503e-01, 3.52929503e-01,
          3.52929503e-01, 3.52929503e-01, 3.52929503e-01, 3.52929503e-01,
          3.52929503e-01, 3.52929503e-01, 3.52929503e-01, 3.52929503e-01,
          3.52929503e-01, 3.52929503e-01, 3.52929503e-01, 3.52929503e-01,
          3.52929503e-01, 3.52929503e-01, 3.52929503e-01, 3.52929503e-01,
          3.57098520e-01, 3.57098520e-01, 3.57098520e-01, 3.57098520e-01,
          3.22175175e-01, 3.57098520e-01, 3.57098520e-01, 3.57098520e-01,
          3.73769373e-01, 3.73769373e-01, 3.73769373e-01, 3.73769373e-01,
          2.22326472e-01, 3.71117413e-01, 3.32551837e-01, 3.73769373e-01,
          2.76788473e-01, 4.21393394e-01, 4.21393394e-01, 3.31345946e-01,
          2.10723057e-01, 4.21393394e-01, 4.21393394e-01, 2.33868986e-01,
          4.06684697e-01, 3.14608693e-01, 4.06684697e-01, 4.06684697e-01,
          4.06684697e-01, 1.59382388e-01, 4.06684697e-01, 2.11172134e-01,
          3.74415994e-01, 3.74415994e-01, 3.74415994e-01, 3.74415994e-01,
          2.55482614e-01, 3.29785973e-01, 3.48270625e-01, 3.74415994e-01,
          3.52929503e-01, 3.52929503e-01, 3.52929503e-01, 3.52929503e-01,
          3.52929503e-01, 3.52929503e-01, 3.52929503e-01, 3.52929503e-01,
          1.13372162e-01, 2.20813423e-01, 4.31704015e-01, 4.31704015e-01,
          1.59678623e-01, 4.03862804e-01, 4.31704015e-01, 4.31704015e-01,
          1.49384186e-01, 4.58852500e-01, 4.58852500e-01, 2.06648052e-01,
          1.59357652e-01, 4.58852500e-01, 4.58852500e-01, 2.50640124e-01,
          4.66373652e-01, 1.32800236e-01, 4.07050371e-01, 1.86788753e-01,
          4.66373652e-01, 1.87673509e-01, 4.66373652e-01, 2.98983932e-01,
          3.52929503e-01, 3.52929503e-01, 3.52929503e-01, 3.52929503e-01,
          3.52929503e-01, 3.52929503e-01, 3.52929503e-01, 3.52929503e-01,
          3.69650692e-01, 1.92644686e-01, 2.98642218e-01, 3.82944793e-01,
          3.82944793e-01, 3.82944793e-01, 3.82944793e-01, 3.82944793e-01,
          7.32728615e-02, 3.46168876e-01, 4.02754366e-01, 4.02754366e-01,
          2.44375288e-01, 4.02754366e-01, 4.02754366e-01, 4.02754366e-01 ]
      - [ 2.74473727e-01, 3.08426112e-01, 2.73797840e-01, 3.87479335e-01,
          3.87479335e-01, 3.87479335e-01, 3.87479335e-01, 3.87479335e-01,
          4.13285702e-01, 1.79621175e-01, 4.13285702e-01, 2.97131687e-01,
          4.13285702e-01, 3.63884330e-01, 4.13285702e-01, 2.44311824e-01,
          4.21891659e-01, 2.89106965e-01, 4.21891659e-01, 4.21891659e-01,
          1.28699496e-01, 1.77454323e-01, 4.21891659e-01, 3.90100986e-01,
          3.88841420e-01, 2.04302132e-01, 3.88841420e-01, 3.88841420e-01,
          3.88841420e-01, 2.17232674e-01, 3.88841420e-01, 3.88841420e-01,
          4.25577968e-01, 4.25577968e-01, 3.35210353e-01, 4.25577968e-01,
          3.05553555e-01, 4.25577968e-01, 6.72696680e-02, 2.47039109e-01,
          3.52929503e-01, 3.52929503e-01, 3.52929503e-01, 3.52929503e-01,
          3.52929503e-01, 3.52929503e-01, 3.52929503e-01, 3.52929503e-01,
          2.32260495e-01, 2.75130838e-01, 2.52164513e-01, 2.19169691e-01,
          4.34280396e-01, 4.34280396e-01, 4.34280396e-01, 4.34280396e-01,
          5.75360395e-02, 1.78639039e-01, 4.53312546e-01, 2.87472010e-01,
          2.35882491e-01, 4.53312546e-01, 4.53312546e-01, 4.53312546e-01,
          3.69675726e-01, 1.99212641e-01, 3.69675726e-01, 3.69675726e-01,
          3.69675726e-01, 3.69675726e-01, 3.69675726e-01, 3.69675726e-01,
          4.06977147e-01, 5.37347257e-01, 7.83617422e-02, 2.72002161e-01,
          2.81128466e-01, 5.37347257e-01, 1.00685991e-01, 2.86745071e-01,
          3.14099461e-01, 2.32758999e-01, 4.04508829e-01, 3.99876058e-01,
          4.03624564e-01, 1.71545416e-01, 4.04508829e-01, 4.04508829e-01,
          3.94383222e-01, 2.10038245e-01, 3.94383222e-01, 3.94383222e-01,
          3.94383222e-01, 1.36804208e-01, 3.94383222e-01, 3.94383222e-01,
          1.87619448e-01, 3.89172435e-01, 3.89172435e-01, 3.72558475e-01,
          2.54627794e-01, 3.89172435e-01, 3.89172435e-01, 3.89172435e-01,
          3.63578409e-01, 3.63578409e-01, 3.63578409e-01, 3.63578409e-01,
          3.63578409e-01, 3.63578409e-01, 2.66538262e-01, 3.63578409e-01,
          2.84708470e-01, 4.40023482e-01, 1.92413017e-01, 4.40023482e-01,
          1.86679706e-01, 4.40023482e-01, 2.61134028e-01, 4.40023482e-01,
          2.57931322e-01, 1.40826121e-01, 4.97648001e-01, 2.71490186e-01,
          4.06606764e-01, 1.71702534e-01, 4.97648001e-01, 3.80584240e-01,
          3.87169003e-01, 1.24006197e-01, 3.87169003e-01, 3.87169003e-01,
          3.87169003e-01, 2.85228848e-01, 3.87169003e-01, 3.87169003e-01,
          2.35094830e-01, 3.70555729e-01, 3.70555729e-01, 3.70555729e-01,
          3.42285007e-01, 3.70555729e-01, 3.70555729e-01, 3.70555729e-01,
          3.76988143e-01, 3.76988143e-01, 3.50861579e-01, 3.59368801e-01,
          3.76988143e-01, 3.76988143e-01, 3.76988143e-01, 1.82711765e-01,
          1.76454827e-01, 4.07035202e-01, 2.66928762e-01, 4.07035202e-01,
          2.55261004e-01, 4.07035202e-01, 4.07035202e-01, 4.07035202e-01,
          1.81509256e-01, 7.56980777e-02, 4.33588088e-01, 1.30384296e-01,
          4.33588088e-01, 4.33588088e-01, 4.33588088e-01, 4.33588088e-01,
          3.74608546e-01, 2.48534203e-01, 3.04136306e-01, 3.74608546e-01,
          3.74608546e-01, 3.74608546e-01, 3.74608546e-01, 3.74608546e-01,
          2.45463863e-01, 3.73868316e-01, 3.12004864e-01, 3.73868316e-01,
          3.73868316e-01, 3.73868316e-01, 3.73868316e-01, 3.73868316e-01,
          3.97702098e-01, 3.97702098e-01, 3.40617299e-01, 1.62441656e-01,
          3.97702098e-01, 3.97702098e-01, 3.97702098e-01, 2.50568897e-01,
          1.90604091e-01, 3.89191329e-01, 3.88920158e-01, 3.89191329e-01,
          2.26216152e-01, 3.89191329e-01, 3.89191329e-01, 3.89191329e-01 ]
      - [ 2.14166597e-01, 9.50920433e-02, 4.67701823e-01, 4.03355598e-01,
          3.41146827e-01, 8.48577693e-02, 4.67701823e-01, 4.65457827e-01,
          3.60449433e-01, 3.60449433e-01, 3.60449433e-01, 3.60449433e-01,
          3.60449433e-01, 3.60449433e-01, 3.60449433e-01, 2.94842631e-01,
          3.66809577e-01, 3.66809577e-01, 3.66809577e-01, 3.66809577e-01,
          3.66809577e-01, 3.66809577e-01, 2.33431742e-01, 3.66809577e-01,
          3.17493916e-01, 3.76383692e-01, 3.76383692e-01, 3.76383692e-01,
          2.13188082e-01, 3.76383692e-01, 3.76383692e-01, 3.76383692e-01,
          3.60941142e-01, 3.60941142e-01, 3.60941142e-01, 3.60941142e-01,
          2.90593117e-01, 3.60941142e-01, 3.60941142e-01, 3.60941142e-01,
          2.26582035e-01, 1.27096951e-01, 5.01036286e-01, 5.01036286e-01,
          8.98533463e-02, 1.92488894e-01, 5.01036286e-01, 3.59534919e-01,
          4.06147093e-01, 2.64731348e-01, 4.06147093e-01, 2.19333097e-01,
          4.06147093e-01, 2.30164126e-01, 4.06147093e-01, 4.06147093e-01,
          3.69974881e-01, 2.92125046e-01, 2.61602253e-01, 3.75657529e-01,
          3.75657529e-01, 3.75657529e-01, 3.75657529e-01, 3.75657529e-01,
          2.37658635e-01, 3.66422385e-01, 3.66422385e-01, 3.66422385e-01,
          3.66422385e-01, 3.66422385e-01, 3.66422385e-01, 3.66422385e-01,
          3.06701422e-01, 3.59035850e-01, 3.59035850e-01, 3.59035850e-01,
          3.59035850e-01, 3.59035850e-01, 3.59035850e-01, 3.59035850e-01,
          2.53928363e-01, 3.70671242e-01, 3.70671242e-01, 3.70671242e-01,
          3.27771306e-01, 3.70671242e-01, 3.70671242e-01, 3.70671242e-01,
          4.46169049e-01, 1.62441343e-01, 4.61221755e-01, 4.61221755e-01,
          9.15640518e-02, 1.17353417e-01, 4.61221755e-01, 3.31069201e-01,
          3.76855224e-01, 3.04030031e-01, 3.28690976e-01, 3.56028974e-01,
          3.76855224e-01, 3.17689896e-01, 3.76855224e-01, 3.76855224e-01,
          3.52929503e-01, 3.52929503e-01, 3.52929503e-01, 3.52929503e-01,
          3.52929503e-01, 3.52929503e-01, 3.52929503e-01, 3.52929503e-01,
          3.52929503e-01, 3.52929503e-01, 3.52929503e-01, 3.52929503e-01,
          3.52929503e-01, 3.52929503e-01, 3.52929503e-01, 3.52929503e-01,
          2.91130930e-01, 3.69119614e-01, 3.06690902e-01, 3.69119614e-01,
          3.69119614e-01, 3.69119614e-01, 3.69119614e-01, 3.69119614e-01,
          2.20772490e-01, 3.82813185e-01, 3.82813185e-01, 3.82813185e-01,
          2.92158097e-01, 3.82813185e-01, 3.59651208e-01, 3.82813185e-01,
          4.41701800e-01, 1.80000901e-01, 4.41701800e-01, 3.83764207e-01,
          2.10069701e-01, 1.15513802e-01, 4.41701800e-01, 4.16098922e-01,
          3.97731274e-01, 2.39794329e-01, 1.80758461e-01, 3.38970214e-01,
          3.97731274e-01, 3.97731274e-01, 3.97731274e-01, 3.97731274e-01,
          1.08613417e-01, 2.68803775e-01, 3.24131787e-01, 4.12595659e-01,
          3.54716510e-01, 4.12595659e-01, 4.12595659e-01, 4.12595659e-01,
          1.17645092e-01, 2.87897199e-01, 1.00968651e-01, 2.17369661e-01,
          4.58598375e-01, 4.58598375e-01, 4.58598375e-01, 4.58598375e-01,
          1.16170861e-01, 3.17575097e-01, 1.17586814e-01, 3.94171298e-01,
          4.21970844e-01, 4.21970844e-01, 4.21970844e-01, 4.21970844e-01,
          1.60097510e-01, 2.72175550e-01, 3.86528969e-01, 3.86528969e-01,
          3.86528969e-01, 3.86528969e-01, 3.86528969e-01, 3.86528969e-01,
          3.81940931e-01, 3.20774674e-01, 3.81940931e-01, 3.81940931e-01,
          3.46286327e-01, 2.09712148e-01, 3.81940931e-01, 3.81940931e-01,
          3.90851080e-01, 3.90851080e-01, 3.62524122e-01, 3.90851080e-01,
          3.10363293e-01, 3.90851080e-01, 1.30231038e-01, 3.74603480e-01 ]
      - [ 3.52929503e-01, 3.52929503e-01, 3.52929503e-01, 3.52929503e-01,
          3.52929503e-01, 3.52929503e-01, 3.52929503e-01, 3.52929503e-01,
          3.61912400e-01, 4.28885221e-01, 1.51073650e-01, 3.06118876e-01,
          4.21920121e-01, 4.28885221e-01, 1.35495469e-01, 4.28885221e-01,
          3.52929503e-01, 3.52929503e-01, 3.52929503e-01, 3.52929503e-01,
          3.52929503e-01, 3.52929503e-01, 3.52929503e-01, 3.52929503e-01,
          3.01525921e-01, 3.67890805e-01, 3.67890805e-01, 3.05523574e-01,
          3.67890805e-01, 3.67890805e-01, 3.67890805e-01, 3.67890805e-01,
          3.79494995e-01, 2.65209258e-01, 2.96959788e-01, 3.79494995e-01,
          3.79494995e-01, 3.42936099e-01, 3.79494995e-01, 3.79494995e-01,
          3.97885084e-01, 1.62958831e-01, 3.97885084e-01, 3.97885084e-01,
          3.97885084e-01, 1.39979646e-01, 3.97885084e-01, 3.97885084e-01,
          2.35616446e-01, 3.83696377e-01, 2.39403769e-01, 3.83696377e-01,
          3.83696377e-01, 3.83696377e-01, 3.83696377e-01, 3.83696377e-01,
          3.35205913e-01, 2.54416734e-01, 2.55802929e-01, 3.62443626e-01,
          3.94388318e-01, 3.94388318e-01, 3.94388318e-01, 3.94388318e-01,
          1.89007625e-01, 3.42299670e-01, 2.27752075e-01, 1.53545216e-01,
          4.56561297e-01, 4.56561297e-01, 3.76503497e-01, 4.56561297e-01,
          3.59837145e-01, 3.00042301e-01, 3.59837145e-01, 3.59837145e-01,
          3.59837145e-01, 3.59837145e-01, 3.59837145e-01, 3.59837145e-01,
          3.37282717e-01, 3.15672189e-01, 4.44214076e-01, 4.44214076e-01,
          9.30324048e-02, 2.94146329e-01, 3.08218479e-01, 4.44214076e-01,
          3.91909003e-01, 4.25117254e-01, 4.25117254e-01, 4.16685313e-01,
          1.36519149e-01, 2.49432907e-01, 4.25117254e-01, 2.13320494e-01,
          4.00824219e-01, 1.44490540e-01, 4.00824219e-01, 4.00824219e-01,
          4.00824219e-01, 1.05630994e-01, 4.00824219e-01, 4.00824219e-01,
          2.87683159e-01, 4.55898583e-01, 1.59567505e-01, 4.55898583e-01,
          1.92585602e-01, 4.55898583e-01, 1.36965185e-01, 4.55898583e-01,
          3.78354669e-01, 3.78354669e-01, 2.87097514e-01, 3.78354669e-01,
          3.78354669e-01, 3.78354669e-01, 2.34267995e-01, 3.78354669e-01,
          2.15352505e-01, 3.81297171e-01, 3.51636648e-01, 3.81297171e-01,
          3.15004677e-01, 3.81297171e-01, 3.81297171e-01, 3.81297171e-01,
          1.23326175e-01, 3.14786136e-01, 4.18401301e-01, 3.90109688e-01,
          1.70576856e-01, 4.18401301e-01, 4.18401301e-01, 4.18401301e-01,
          3.92549247e-01, 1.58137605e-01, 3.92549247e-01, 3.92549247e-01,
          3.92549247e-01, 2.15641484e-01, 3.92549247e-01, 3.92549247e-01,
          1.65880769e-01, 4.28355187e-01, 1.12307429e-01, 4.28355187e-01,
          4.28355187e-01, 4.28355187e-01, 1.95322648e-01, 4.28355187e-01,
          2.27062762e-01, 3.35613728e-01, 2.53932983e-01, 3.91767830e-01,
          3.91767830e-01, 3.91767830e-01, 3.91767830e-01, 3.91767830e-01,
          3.38317364e-01, 3.54963750e-01, 3.54963750e-01, 3.54963750e-01,
          3.54963750e-01, 3.54963750e-01, 3.54963750e-01, 3.54963750e-01,
          2.46302247e-01, 3.76547545e-01, 3.76547545e-01, 3.76547545e-01,
          2.91281760e-01, 3.76547545e-01, 3.76547545e-01, 3.76547545e-01,
          3.53982776e-01, 2.82078147e-01, 4.23810005e-01, 4.23810005e-01,
          1.33183002e-01, 2.33873904e-01, 4.23810005e-01, 4.23810005e-01,
          3.60882878e-01, 3.60882878e-01, 2.91099906e-01, 3.60882878e-01,
          3.60882878e-01, 3.60882878e-01, 3.60882878e-01, 3.60882878e-01,
          1.56684563e-01, 1.47967085e-01, 4.54303265e-01, 2.03518018e-01,
          3.82079691e-01, 3.77410918e-01, 4.54303265e-01, 4.54303265e-01 ]
      - [ 2.68558472e-01, 3.74937087e-01, 3.74937087e-01, 3.74937087e-01,
          2.84013152e-01, 3.74937087e-01, 3.74937087e-01, 3.74937087e-01,
          3.81091982e-01, 1.89830154e-01, 3.81091982e-01, 3.81091982e-01,
          3.81091982e-01, 2.97943771e-01, 3.81091982e-01, 3.81091982e-01,
          3.01522195e-01, 3.21429282e-01, 3.15431446e-01, 3.74840170e-01,
          3.74840170e-01, 3.74840170e-01, 3.74840170e-01, 3.74840170e-01,
          3.07410389e-01, 3.59543622e-01, 3.59543622e-01, 3.59543622e-01,
          3.55354726e-01, 3.59543622e-01, 3.59543622e-01, 3.59543622e-01,
          3.52929503e-01, 3.52929503e-01, 3.52929503e-01, 3.52929503e-01,
          3.52929503e-01, 3.52929503e-01, 3.52929503e-01, 3.52929503e-01,
          2.64644742e-01, 3.86866421e-01, 3.86866421e-01, 3.86866421e-01,
          2.31200188e-01, 3.52585673e-01, 3.86866421e-01, 3.86866421e-01,
          3.77701491e-01, 2.96436787e-01, 3.77701491e-01, 3.77701491e-01,
          3.77701491e-01, 2.28913382e-01, 3.77701491e-01, 3.77701491e-01,
          3.62741023e-01, 3.62741023e-01, 3.17193538e-01, 3.62741023e-01,
          3.62741023e-01, 3.62741023e-01, 3.26002836e-01, 3.62741023e-01,
          3.19503963e-01, 4.25428540e-01, 3.75412017e-01, 4.25428540e-01,
          2.33640835e-01, 4.25428540e-01, 2.90682912e-01, 2.65857935e-01,
          3.61175478e-01, 3.28677386e-01, 3.61175478e-01, 3.61175478e-01,
          3.61175478e-01, 3.25078875e-01, 3.61175478e-01, 3.61175478e-01,
          3.39795351e-01, 3.58425081e-01, 3.31883937e-01, 3.58425081e-01,
          3.58425081e-01, 3.58425081e-01, 3.58425081e-01, 3.58425081e-01,
          3.46220434e-01, 2.92782247e-01, 3.63038749e-01, 3.63038749e-01,
          3.63038749e-01, 3.63038749e-01, 3.63038749e-01, 3.63038749e-01,
          3.81599456e-01, 3.81599456e-01, 3.81599456e-01, 3.81599456e-01,
          1.73121572e-01, 3.54276955e-01, 3.35579664e-01, 3.81599456e-01,
          2.87384480e-01, 3.61307234e-01, 3.61307234e-01, 3.61307234e-01,
          3.61307234e-01, 3.61307234e-01, 3.61307234e-01, 3.61307234e-01,
          2.71584213e-01, 2.44482502e-01, 3.79409373e-01, 3.78050923e-01,
          3.79409373e-01, 3.79409373e-01, 3.79409373e-01, 3.79409373e-01,
          3.52929503e-01, 3.52929503e-01, 3.52929503e-01, 3.52929503e-01,
          3.52929503e-01, 3.52929503e-01, 3.52929503e-01, 3.52929503e-01,
          3.52929503e-01, 3.52929503e-01, 3.52929503e-01, 3.52929503e-01,
          3.52929503e-01, 3.52929503e-01, 3.52929503e-01, 3.52929503e-01,
          2.61096656e-01, 3.00444812e-01, 3.60590339e-01, 3.82733554e-01,
          3.82520765e-01, 3.49192590e-01, 3.82733554e-01, 3.82733554e-01,
          2.44753674e-01, 3.65755826e-01, 3.65755826e-01, 3.65755826e-01,
          3.65755826e-01, 3.65755826e-01, 3.65755826e-01, 3.65755826e-01,
          3.58528942e-01, 3.58528942e-01, 3.58528942e-01, 3.10832769e-01,
          3.58528942e-01, 3.58528942e-01, 3.58528942e-01, 3.58528942e-01,
          3.52929503e-01, 3.52929503e-01, 3.52929503e-01, 3.52929503e-01,
          3.52929503e-01, 3.52929503e-01, 3.52929503e-01, 3.52929503e-01,
          3.52929503e-01, 3.52929503e-01, 3.52929503e-01, 3.52929503e-01,
          3.52929503e-01, 3.52929503e-01, 3.52929503e-01, 3.52929503e-01,
          3.63638222e-01, 2.65965641e-01, 3.63638222e-01, 3.63638222e-01,
          3.63638222e-01, 3.63638222e-01, 3.63638222e-01, 3.63638222e-01,
          3.52929503e-01, 3.52929503e-01, 3.52929503e-01, 3.52929503e-01,
          3.52929503e-01, 3.52929503e-01, 3.52929503e-01, 3.52929503e-01,
          3.19656640e-01, 3.58602017e-01, 3.58602017e-01, 3.58602017e-01,
          3.50234985e-01, 3.58602017e-01, 3.58602017e-01, 3.58602017e-01 ]
      - [ 4.89836305e-01, 1.12321123e-01, 4.89836305e-01, 4.77222428e-02,
          4.89836305e-01, 1.15857109e-01, 4.89836305e-01, 8.38618800e-02,
          4.23407167e-01, 1.16263144e-01, 2.89935440e-01, 4.23407167e-01,
          4.23407167e-01, 2.31660396e-01, 3.56972963e-01, 4.23407167e-01,
          3.00769676e-02, 4.97288555e-01, 2.82707475e-02, 4.97288555e-01,
          4.88688610e-02, 4.97288555e-01, 4.19238359e-02, 4.97288555e-01,
          1.18873678e-01, 4.85856205e-01, 8.94160792e-02, 4.59735811e-01,
          1.52644962e-01, 4.85856205e-01, 1.73766896e-01, 4.85856205e-01,
          1.75404727e-01, 3.83553267e-01, 3.10006022e-01, 3.83553267e-01,
          3.65693897e-01, 3.83553267e-01, 3.83553267e-01, 3.83553267e-01,
          4.92570877e-01, 5.82803972e-02, 4.92570877e-01, 6.55910224e-02,
          4.92570877e-01, 9.82676521e-02, 4.92570877e-01, 8.49755928e-02,
          4.01945680e-01, 2.09296405e-01, 2.33596176e-01, 4.01945680e-01,
          4.01945680e-01, 2.99684614e-01, 4.01945680e-01, 4.01945680e-01,
          3.72581966e-02, 4.80132073e-01, 3.11085414e-02, 4.80132073e-01,
          2.30419859e-01, 4.80132073e-01, 1.32845879e-01, 4.80132073e-01,
          1.34907380e-01, 4.76953030e-01, 1.74173310e-01, 2.75614142e-01,
          3.02652478e-01, 4.76953030e-01, 3.87028754e-01, 4.17586565e-01,
          3.13971460e-01, 3.58138800e-01, 3.58138800e-01, 3.58138800e-01,
          3.58138800e-01, 3.58138800e-01, 3.58138800e-01, 3.58138800e-01,
          4.90251690e-01, 9.60815176e-02, 4.90251690e-01, 7.13578910e-02,
          4.90251690e-01, 1.05828390e-01, 4.90251690e-01, 9.05172154e-02,
          3.95985931e-01, 1.47861212e-01, 3.95985931e-01, 3.95985931e-01,
          3.95985931e-01, 1.82625711e-01, 3.95985931e-01, 3.95985931e-01,
          2.81556278e-01, 4.04740334e-01, 1.50162056e-01, 4.04740334e-01,
          4.04740334e-01, 4.04740334e-01, 2.73971498e-01, 4.04740334e-01,
          2.25962684e-01, 5.45201838e-01, 1.73693344e-01, 2.47139156e-01,
          2.79855639e-01, 5.45201838e-01, 2.60023624e-01, 3.34406406e-01,
          3.52929503e-01, 3.52929503e-01, 3.52929503e-01, 3.52929503e-01,
          3.52929503e-01, 3.52929503e-01, 3.52929503e-01, 3.52929503e-01,
          4.91064131e-01, 6.90909997e-02, 4.91064131e-01, 5.21477200e-02,
          4.91064131e-01, 1.43327355e-01, 4.91064131e-01, 4.98398170e-02,
          3.98024887e-01, 1.68527544e-01, 3.98024887e-01, 3.91678929e-01,
          3.98024887e-01, 1.48630038e-01, 3.98024887e-01, 3.98024887e-01,
          3.87207687e-01, 4.12085205e-01, 2.41357401e-01, 4.12085205e-01,
          2.36873940e-01, 4.12085205e-01, 2.28766575e-01, 4.12085205e-01,
          1.50015756e-01, 5.22670746e-01, 1.62933901e-01, 2.19356343e-01,
          2.53820211e-01, 5.22670746e-01, 1.92251146e-01, 4.99856144e-01,
          3.52929503e-01, 3.52929503e-01, 3.52929503e-01, 3.52929503e-01,
          3.52929503e-01, 3.52929503e-01, 3.52929503e-01, 3.52929503e-01,
          4.81519461e-01, 1.45669028e-01, 4.81519461e-01, 2.76617035e-02,
          4.81519461e-01, 2.10251257e-01, 4.81519461e-01, 3.94522771e-02,
          4.27773058e-01, 1.02504663e-01, 3.07079732e-01, 4.27773058e-01,
          4.27773058e-01, 1.43901184e-01, 3.71826619e-01, 4.27773058e-01,
          1.28672317e-01, 4.64256257e-01, 1.97012082e-01, 4.64256257e-01,
          8.46449062e-02, 4.64256257e-01, 2.65880495e-01, 4.64256257e-01,
          2.05195665e-01, 4.22436148e-01, 1.44555703e-01, 4.22436148e-01,
          4.22436148e-01, 4.22436148e-01, 2.01288015e-01, 4.22436148e-01,
          3.05174947e-01, 3.59221190e-01, 3.59221190e-01, 3.59221190e-01,
          3.59221190e-01, 3.59221190e-01, 3.59221190e-01, 3.59221190e-01 ]
      - [ 8.86061415e-02, 4.31734532e-01, 1.59135565e-01, 4.31734532e-01,
          1.74752906e-01, 4.31734532e-01, 4.31734532e-01, 4.31734532e-01,
          1.59663245e-01, 3.98814112e-01, 1.27307519e-01, 3.98814112e-01,
          3.98814112e-01, 3.98814112e-01, 3.98814112e-01, 3.98814112e-01,
          1.23741813e-01, 3.90457124e-01, 2.56995559e-01, 3.90457124e-01,
          3.90457124e-01, 3.90457124e-01, 3.90457124e-01, 3.90457124e-01,
          2.60199249e-01, 3.64232540e-01, 3.64232540e-01, 3.64232540e-01,
          3.64232540e-01, 3.64232540e-01, 3.64232540e-01, 3.64232540e-01,
          3.52929503e-01, 3.52929503e-01, 3.52929503e-01, 3.52929503e-01,
          3.52929503e-01, 3.52929503e-01, 3.52929503e-01, 3.52929503e-01,
          1.44558191e-01, 3.96444082e-01, 3.96444082e-01, 3.96444082e-01,
          1.79262266e-01, 3.96444082e-01, 3.96444082e-01, 3.96444082e-01,
          3.52929503e-01, 3.52929503e-01, 3.52929503e-01, 3.52929503e-01,
          3.52929503e-01, 3.52929503e-01, 3.52929503e-01, 3.52929503e-01,
          2.70518273e-01, 3.77381146e-01, 2.61821538e-01, 3.77381146e-01,
          3.77381146e-01, 3.77381146e-01, 3.77381146e-01, 3.77381146e-01,
          2.82563478e-01, 3.85758936e-01, 2.81272054e-01, 2.80052572e-01,
          3.90890300e-01, 3.90890300e-01, 3.89247686e-01, 3.90890300e-01,
          3.52929503e-01, 3.52929503e-01, 3.52929503e-01, 3.52929503e-01,
          3.52929503e-01, 3.52929503e-01, 3.52929503e-01, 3.52929503e-01,
          1.36573479e-01, 4.23132092e-01, 4.23132092e-01, 4.23132092e-01,
          1.32440180e-01, 4.23132092e-01, 2.53725439e-01, 4.23132092e-01,
          3.70451570e-01, 3.70451570e-01, 3.70451570e-01, 3.70451570e-01,
          2.37928957e-01, 3.41002017e-01, 3.70451570e-01, 3.70451570e-01,
          3.52929503e-01, 3.52929503e-01, 3.52929503e-01, 3.52929503e-01,
          3.52929503e-01, 3.52929503e-01, 3.52929503e-01, 3.52929503e-01,
          2.60406762e-01, 4.16609377e-01, 1.70150459e-01, 4.16609377e-01,
          4.16609377e-01, 4.16609377e-01, 1.76800758e-01, 4.16609377e-01,
          2.58714408e-01, 3.75539750e-01, 3.75539750e-01, 3.75539750e-01,
          2.88330376e-01, 3.75539750e-01, 3.75539750e-01, 3.75539750e-01,
          9.54767540e-02, 4.82966721e-01, 1.29718110e-01, 4.82966721e-01,
          1.26967505e-01, 4.82966721e-01, 1.41723096e-01, 4.82966721e-01,
          1.51732966e-01, 3.92113775e-01, 3.92113775e-01, 3.92113775e-01,
          2.24812642e-01, 3.92113775e-01, 3.92113775e-01, 3.92113775e-01,
          3.72861654e-01, 3.72861654e-01, 3.72861654e-01, 3.72861654e-01,
          1.51967615e-01, 3.72861654e-01, 3.72861654e-01, 3.72861654e-01,
          3.70036334e-01, 3.70036334e-01, 2.78472990e-01, 3.70036334e-01,
          3.70036334e-01, 3.70036334e-01, 3.11760455e-01, 3.70036334e-01,
          2.27230176e-01, 3.70714188e-01, 3.70714188e-01, 3.70714188e-01,
          3.46538007e-01, 3.70714188e-01, 3.70714188e-01, 3.70714188e-01,
          7.04494566e-02, 4.81333792e-01, 7.61489794e-02, 4.81333792e-01,
          1.69462934e-01, 4.81333792e-01, 1.70247287e-01, 4.81333792e-01,
          1.76567733e-01, 4.22615349e-01, 3.37626457e-01, 4.22615349e-01,
          2.04947442e-01, 4.22615349e-01, 3.06907445e-01, 4.22615349e-01,
          2.38243788e-01, 3.77219766e-01, 3.77219766e-01, 3.77219766e-01,
          2.92750269e-01, 3.77219766e-01, 3.77219766e-01, 3.77219766e-01,
          3.52929503e-01, 3.52929503e-01, 3.52929503e-01, 3.52929503e-01,
          3.52929503e-01, 3.52929503e-01, 3.52929503e-01, 3.52929503e-01,
          3.55027437e-01, 3.55027437e-01, 3.37848127e-01, 3.55027437e-01,
          3.55027437e-01, 3.55027437e-01, 3.55027437e-01, 3.55027437e-01 ]
      - [ 1.41402170e-01, 4.88059759e-01, 7.33341724e-02, 4.65561390e-01,
          1.34338692e-01, 4.88059759e-01, 1.42658532e-01, 4.88059759e-01,
          3.05624336e-01, 3.59166741e-01, 3.59166741e-01, 3.59166741e-01,
          3.59166741e-01, 3.59166741e-01, 3.59166741e-01, 3.59166741e-01,
          2.29402751e-01, 3.70298266e-01, 4.09041882e-01, 2.70423621e-01,
          3.29955548e-01, 4.09041882e-01, 4.09041882e-01, 3.49602669e-01,
          4.29168195e-01, 7.89230689e-02, 4.36000586e-01, 2.67935574e-01,
          4.36000586e-01, 1.27377257e-01, 4.36000586e-01, 3.83309931e-01,
          3.52929503e-01, 3.52929503e-01, 3.52929503e-01, 3.52929503e-01,
          3.52929503e-01, 3.52929503e-01, 3.52929503e-01, 3.52929503e-01,
          2.07274526e-01, 3.91379207e-01, 1.84557304e-01, 3.91379207e-01,
          3.91379207e-01, 3.91379207e-01, 3.91379207e-01, 3.91379207e-01,
          3.65344733e-01, 3.66745085e-01, 2.36320257e-01, 3.66745085e-01,
          3.66745085e-01, 3.66745085e-01, 3.66745085e-01, 3.66745085e-01,
          2.33556762e-01, 2.14757606e-01, 4.13545579e-01, 2.00248584e-01,
          4.13545579e-01, 4.13545579e-01, 4.13545579e-01, 4.13545579e-01,
          3.81490737e-01, 1.11245036e-01, 4.19106394e-01, 2.82129019e-01,
          4.19106394e-01, 2.36019477e-01, 4.19106394e-01, 4.19106394e-01,
          3.80995572e-01, 3.80995572e-01, 3.02325100e-01, 3.80995572e-01,
          3.80995572e-01, 3.80995572e-01, 1.83976799e-01, 3.80995572e-01,
          3.81394118e-01, 3.81394118e-01, 3.81394118e-01, 3.81394118e-01,
          2.45960757e-01, 3.81394118e-01, 2.50847071e-01, 3.81394118e-01,
          3.52929503e-01, 3.52929503e-01, 3.52929503e-01, 3.52929503e-01,
          3.52929503e-01, 3.52929503e-01, 3.52929503e-01, 3.52929503e-01,
          3.71092767e-01, 2.81877428e-01, 3.71092767e-01, 3.71092767e-01,
          3.71092767e-01, 3.00962478e-01, 3.71092767e-01, 3.71092767e-01,
          3.68632317e-01, 2.36078084e-01, 3.68632317e-01, 3.68632317e-01,
          3.68632317e-01, 3.53900433e-01, 3.68632317e-01, 3.68632317e-01,
          3.95085633e-01, 3.95085633e-01, 1.42194420e-01, 3.85312825e-01,
          3.95085633e-01, 3.95085633e-01, 2.16574878e-01, 3.95085633e-01,
          1.23270042e-01, 4.72030491e-01, 1.00236595e-01, 4.72030491e-01,
          2.62400687e-01, 4.72030491e-01, 9.96846929e-02, 4.72030491e-01,
          1.60919979e-01, 4.32052612e-01, 3.18897337e-01, 4.32052612e-01,
          1.42858028e-01, 4.32052612e-01, 3.17816287e-01, 4.32052612e-01,
          4.00789499e-01, 2.34410435e-01, 4.00789499e-01, 4.00789499e-01,
          4.00789499e-01, 1.76440388e-01, 4.00789499e-01, 3.26734751e-01,
          3.76354277e-01, 2.67506421e-01, 3.76354277e-01, 3.76354277e-01,
          3.76354277e-01, 2.73541719e-01, 3.76354277e-01, 3.76354277e-01,
          3.57246786e-01, 3.57246786e-01, 3.21020156e-01, 3.57246786e-01,
          3.57246786e-01, 3.57246786e-01, 3.57246786e-01, 3.57246786e-01,
          1.31724074e-01, 4.80624437e-01, 5.16601428e-02, 4.80624437e-01,
          1.97536483e-01, 4.80624437e-01, 1.10269822e-01, 4.80624437e-01,
          1.16702162e-01, 4.43835974e-01, 2.54424274e-01, 4.00936842e-01,
          2.08446860e-01, 4.43835974e-01, 3.49347800e-01, 4.43835974e-01,
          3.56857449e-01, 9.61233452e-02, 5.05255401e-01, 1.73829913e-01,
          5.05255401e-01, 1.30456299e-01, 5.05255401e-01, 2.12796763e-01,
          3.63936633e-01, 2.63087094e-01, 3.63936633e-01, 3.63936633e-01,
          3.63936633e-01, 3.63936633e-01, 3.63936633e-01, 3.63936633e-01,
          2.67220706e-01, 3.63507003e-01, 3.63507003e-01, 3.63507003e-01,
          3.63507003e-01, 3.63507003e-01, 3.63507003e-01, 3.63507003e-01 ]
      - [ 3.78610253e-01, 1.97433501e-01, 3.78610253e-01, 3.78610253e-01,
          3.78610253e-01, 3.11709911e-01, 3.78610253e-01, 3.78610253e-01,
          3.10962051e-01, 3.58512968e-01, 3.58512968e-01, 3.58512968e-01,
          3.58512968e-01, 3.58512968e-01, 3.58512968e-01, 3.58512968e-01,
          3.52929503e-01, 3.52929503e-01, 3.52929503e-01, 3.52929503e-01,
          3.52929503e-01, 3.52929503e-01, 3.52929503e-01, 3.52929503e-01,
          3.04382533e-01, 3.59317094e-01, 3.59317094e-01, 3.59317094e-01,
          3.59317094e-01, 3.59317094e-01, 3.59317094e-01, 3.59317094e-01,
          3.50904584e-01, 3.53217274e-01, 3.53217274e-01, 3.53217274e-01,
          3.53217274e-01, 3.53217274e-01, 3.53217274e-01, 3.53217274e-01,
          3.82455647e-01, 1.76377818e-01, 2.95695752e-01, 3.82455647e-01,
          3.82455647e-01, 3.82455647e-01, 3.82455647e-01, 3.82455647e-01,
          1.68933406e-01, 1.55065402e-01, 3.10087413e-01, 3.76776904e-01,
          4.19853270e-01, 4.19853270e-01, 4.19853270e-01, 4.19853270e-01,
          1.91104189e-01, 3.38788390e-01, 2.54698426e-01, 3.98005456e-01,
          3.98005456e-01, 3.98005456e-01, 3.82388294e-01, 3.98005456e-01,
          3.70041072e-01, 3.70041072e-01, 3.70041072e-01, 3.28096002e-01,
          3.70041072e-01, 3.70041072e-01, 3.70041072e-01, 2.58985966e-01,
          3.66286606e-01, 3.01790923e-01, 3.66286606e-01, 3.66286606e-01,
          3.66286606e-01, 3.16650510e-01, 3.66286606e-01, 3.66286606e-01,
          3.17539513e-01, 3.81281435e-01, 3.81281435e-01, 3.81281435e-01,
          3.18385452e-01, 2.59060979e-01, 3.81281435e-01, 3.81281435e-01,
          3.75691384e-01, 2.93988436e-01, 3.75691384e-01, 3.75691384e-01,
          3.75691384e-01, 2.50904828e-01, 3.75691384e-01, 3.75691384e-01,
          3.78525466e-01, 3.78525466e-01, 2.05044433e-01, 3.78525466e-01,
          3.78525466e-01, 3.78525466e-01, 3.07385445e-01, 3.78525466e-01,
          3.49419653e-01, 3.74310046e-01, 3.74310046e-01, 1.83079615e-01,
          3.74310046e-01, 3.74310046e-01, 3.74310046e-01, 3.74310046e-01,
          3.66115719e-01, 2.40950659e-01, 3.66115719e-01, 3.66115719e-01,
          3.66115719e-01, 3.66115719e-01, 3.66115719e-01, 3.66115719e-01,
          3.52929503e-01, 3.52929503e-01, 3.52929503e-01, 3.52929503e-01,
          3.52929503e-01, 3.52929503e-01, 3.52929503e-01, 3.52929503e-01,
          3.52929503e-01, 3.52929503e-01, 3.52929503e-01, 3.52929503e-01,
          3.52929503e-01, 3.52929503e-01, 3.52929503e-01, 3.52929503e-01,
          3.54878396e-01, 3.54878396e-01, 3.54878396e-01, 3.54878396e-01,
          3.38944912e-01, 3.54878396e-01, 3.54878396e-01, 3.54878396e-01,
          3.52929503e-01, 3.52929503e-01, 3.52929503e-01, 3.52929503e-01,
          3.52929503e-01, 3.52929503e-01, 3.52929503e-01, 3.52929503e-01,
          3.52929503e-01, 3.52929503e-01, 3.52929503e-01, 3.52929503e-01,
          3.52929503e-01, 3.52929503e-01, 3.52929503e-01, 3.52929503e-01,
          3.65267724e-01, 3.65267724e-01, 2.49814317e-01, 3.65267724e-01,
