%YAML:1.0
---
opencv_ml_svm:
   format: 3
   svmType: C_SVC
   kernel:
      type: LINEAR
   C: 4.5000000000000001e-01
   term_criteria: { epsilon:1.1920928955078125e-07, iterations:1000 }
   var_count: 600
   class_count: 2
   class_labels: !!opencv-matrix
      rows: 2
      cols: 1
      dt: i
      data: [ 0, 1 ]
   sv_total: 1
   support_vectors:
      - [ -1.89321443e-01, -3.35356474e-01, 2.38041580e-02,
          3.89995761e-02, 2.17778027e-01, 4.13164616e-01, 1.65662289e-01,
          -3.23851854e-01, -9.45743769e-02, -4.95718196e-02,
          -1.50375947e-01, -6.47998694e-03, 2.38303319e-01,
          2.43181176e-02, -2.25027159e-01, -1.17505983e-01,
          5.40186279e-02, 9.58993062e-02, 6.19537495e-02,
          -2.62052536e-01, 1.26531973e-01, 1.25543684e-01,
          -4.58381474e-02, -1.69354722e-01, 1.45372987e-01,
          -6.21609390e-01, 4.88642246e-01, 4.54280853e-01,
          -1.40792757e-01, 2.98068643e-01, 4.53948885e-01,
          -3.77626449e-01, 7.23637879e-01, 1.25203967e-01,
          -2.60103136e-01, 2.32239306e-01, -6.00128025e-02,
          -3.45476419e-01, 1.50090754e-01, 3.49433839e-01,
          1.08764037e-01, -8.85628536e-02, 1.73133448e-01,
          -7.61071682e-01, 1.15666479e-01, -1.90709323e-01,
          -1.65735334e-01, -2.67929226e-01, 1.81576714e-01,
          -2.04266459e-01, 2.91108578e-01, 3.84076685e-01,
          -1.36631668e-01, -2.39011958e-01, 4.42590415e-01,
          2.06250057e-01, 5.35970330e-01, -7.01127201e-02,
          2.63397038e-01, -6.24652654e-02, -2.86105126e-01,
          -9.87926051e-02, -1.83086962e-01, -9.97780934e-02,
          -6.66247308e-02, -2.92455018e-01, -3.51514608e-01,
          7.63265267e-02, 4.29173708e-02, -1.28444165e-01,
          -4.74870615e-02, -3.81209522e-01, 4.31785405e-01,
          9.92014781e-02, 2.11605892e-01, 2.19199032e-01,
          -2.71351784e-01, 7.31159151e-02, 3.93957436e-01,
          -3.46082598e-02, 7.91706368e-02, 8.82182941e-02,
          1.97169911e-02, 2.34236851e-01, 2.39682123e-01,
          -3.69481772e-01, -1.38500050e-01, -5.54584153e-02,
          -1.13535717e-01, 1.07316397e-01, 4.29713987e-02,
          -2.82568008e-01, -2.49497041e-01, -4.37041707e-02,
          -1.98405653e-01, -1.53127596e-01, 1.65564671e-01,
          3.05005282e-01, 2.16242950e-02, -1.92686513e-01,
          -2.57641107e-01, -2.20178142e-01, 1.99516654e-01,
          2.65243173e-01, 3.67176920e-01, -3.81719679e-01,
          -2.82440744e-02, 2.79630363e-01, -2.87520200e-01,
          -2.47018069e-01, -1.86302125e-01, -2.52872348e-01,
          -3.95646036e-01, -2.41125762e-01, 2.91428268e-01,
          -2.96031654e-01, -8.56117979e-02, -1.45290405e-01,
          -1.05591603e-01, -1.04689553e-01, 1.37996987e-01,
          9.24768969e-02, 3.84054333e-01, 1.48127109e-01,
          -1.17934503e-01, 3.56716126e-01, -5.05847856e-02,
          2.16976717e-01, -4.28999811e-02, -3.76700282e-01,
          -2.39985622e-02, -3.16484720e-01, 6.13198467e-02,
          1.12962807e-02, 2.16664106e-01, -1.47059737e-02,
          -4.29919034e-01, 7.19134092e-01, -1.85264707e-01,
          -1.76664904e-01, -2.74841756e-01, 2.84685373e-01,
          -3.12186807e-01, -2.08332047e-01, 3.95676702e-01,
          -9.19686109e-02, 3.96756202e-01, 3.73439968e-01,
          3.69486898e-01, 8.63329992e-02, 1.72168881e-01,
          -8.62231199e-03, 2.65378267e-01, -1.92004308e-01,
          -1.40835688e-01, -2.31690288e-01, -2.05134690e-01,
          -2.60449643e-03, 1.29639998e-01, 2.50975460e-01,
          3.24254304e-01, -3.82359475e-02, 2.86340028e-01,
          3.56622785e-02, 1.51421517e-01, 1.01768486e-01, 8.26660097e-02,
          1.28442541e-01, -2.59416997e-01, 2.44620934e-01,
          2.47273102e-01, 1.12005644e-01, 4.16989714e-01, 1.77442819e-01,
          -6.57166541e-02, 4.20450598e-01, 1.78462118e-01,
          2.49068722e-01, 1.48776218e-01, 1.91797346e-01,
          -2.24377021e-01, 1.01105578e-01, -6.10913225e-02,
          -2.08039969e-01, 3.69054765e-01, 8.42805654e-02,
          1.72961414e-01, 1.17722154e-01, -1.15861513e-01,
          -1.94744676e-01, 5.37570715e-01, 1.14097275e-01,
          3.19489777e-01, 3.54513675e-01, -2.07783595e-01,
          -2.01392278e-01, -1.15226038e-01, 1.71408787e-01,
          -1.28434643e-01, 3.51107806e-01, 2.31131718e-01,
          4.04852241e-01, 2.88629144e-01, 1.38641253e-01,
          -1.08991317e-01, 1.03692561e-01, -2.62894303e-01,
          -2.91712344e-01, -3.31435412e-01, -7.29957074e-02,
          -2.86699265e-01, 5.10831885e-02, -1.88771144e-01,
          4.55561310e-01, -5.83092645e-02, -3.37382592e-02,
          -3.28752369e-01, 1.46411419e-01, 2.44891793e-02,
          -6.80124387e-02, 1.06919080e-01, 3.61459732e-01,
          3.62576634e-01, 3.37648511e-01, -4.35485803e-02,
          4.42789942e-01, -3.35634686e-02, 5.73701262e-01,
          -1.71166971e-01, -4.14959192e-01, 8.39351770e-03,
          -1.32407904e-01, -7.16641322e-02, -1.47190168e-01,
          -1.00068502e-01, -6.24918461e-01, -2.79880852e-01,
          2.41982222e-01, -1.62662476e-01, -2.02829808e-01,
          6.43250570e-02, -2.87779450e-01, -2.35135958e-05,
          -2.81313751e-02, -6.70632958e-01, 2.92584717e-01,
          -2.28762612e-01, -1.84298366e-01, -2.29763106e-01,
          -1.97944060e-01, -3.26780915e-01, -4.92326587e-01,
          5.27614415e-01, 1.31129339e-01, -1.81573838e-01,
          9.97963101e-02, -1.96093842e-01, 2.32256539e-02,
          2.87868857e-01, -2.79788852e-01, -4.31051195e-01,
          -4.33934808e-01, -2.48685092e-01, -1.39833111e-02,
          4.56603952e-02, 2.59467244e-01, 2.09512010e-01,
          -2.58099884e-01, 4.57310677e-01, -2.75878161e-01,
          -1.91496402e-01, 2.86687940e-01, -6.48270473e-02,
          -4.29373384e-01, 3.03283364e-01, 3.57262604e-02,
          5.23473144e-01, 4.40480024e-01, 6.74943328e-02,
          -4.02629375e-01, 1.60436422e-01, -3.42316061e-01,
          -4.63214576e-01, 3.99689585e-01, -2.99537897e-01,
          -5.32877147e-01, 3.53174955e-01, -3.63179386e-01,
          -5.38714290e-01, 3.19381326e-01, -7.06696957e-02,
          -1.71151787e-01, 4.08542544e-01, 5.75909354e-02,
          -6.52477980e-01, 2.29439482e-01, -6.89722970e-02,
          3.23256165e-01, 5.81964433e-01, -3.40860665e-01,
          -3.82641166e-01, 6.78912342e-01, -4.30280507e-01,
          -1.68218702e-01, 5.86395264e-01, -4.93802071e-01,
          -4.45727766e-01, 6.26922011e-01, -4.53665555e-01,
          1.21809609e-01, 5.21059394e-01, -3.99633139e-01,
          -5.17959654e-01, 2.99295455e-01, -2.15505555e-01,
          8.86454523e-01, -4.17078286e-01, -1.59030929e-01,
          6.92050681e-02, 3.72412473e-01, 3.99699323e-02, 4.51064318e-01,
          -4.07004356e-01, 4.84471112e-01, -8.12519342e-02,
          1.35573283e-01, -9.77859646e-02, -1.44893065e-01,
          -1.92278758e-01, -3.57620329e-01, 4.53521490e-01,
          -1.68464646e-01, 3.94295193e-02, -4.56832945e-02,
          2.53293160e-02, 6.72406316e-01, 3.69350463e-02,
          -3.43535364e-01, -1.66934028e-01, 3.30503553e-01,
          1.09802082e-01, 1.53902411e-01, 1.41961738e-01,
          -1.79793611e-02, -1.54707670e-01, 6.25601768e-01,
          -2.36189529e-01, 9.26395804e-02, -1.39602095e-01,
          1.85675845e-01, -4.89990741e-01, 4.84265899e-03,
          -2.01665342e-01, 4.00378078e-01, 1.76846147e-01,
          -4.98417795e-01, 4.50606570e-02, 3.25285643e-01,
          -2.94052511e-01, 4.49826479e-01, 8.75339285e-02,
          -8.68919492e-02, 3.38242576e-02, 4.91809368e-01,
          -1.96947873e-01, -2.50278682e-01, -4.35742224e-03,
          -2.13866562e-01, -3.47454399e-01, -3.82610410e-01,
          -2.14397326e-01, 4.68423450e-03, 6.02549493e-01,
          -1.23363882e-01, 1.02443574e-03, 1.89213395e-01,
          -4.67363335e-02, 4.87836339e-02, 1.27159029e-01,
          1.56145737e-01, 3.54059756e-01, -3.38195823e-02,
          2.17324451e-01, 1.47544086e-01, 3.08975399e-01,
          -7.34258592e-02, 3.36853534e-01, 4.70797658e-01,
          1.64527074e-01, -1.56467363e-01, 2.78685112e-02,
          1.81321546e-01, -2.63507795e-02, 1.83075666e-01,
          9.90049168e-03, -1.61165461e-01, 5.69927812e-01,
          3.45589668e-01, 4.36246812e-01, 3.74905348e-01, 6.11548662e-01,
          3.45878214e-01, -1.68324381e-01, 2.98770354e-03,
          7.67836859e-03, 4.50728461e-02, 1.00300319e-01, 4.07264307e-02,
          8.00506175e-02, 2.57921875e-01, -3.90628785e-01,
          -1.99437365e-02, 2.80929208e-01, -2.45370314e-01,
          1.16203032e-01, 2.41394296e-01, -1.68420389e-01,
          9.16518122e-02, 1.92306116e-01, -1.91760454e-02,
          3.92830908e-01, 5.84704220e-01, 6.68173581e-02, 3.70500177e-01,
          3.61691535e-01, 8.51228237e-02, 9.30577144e-03, 3.42439443e-01,
          4.31231797e-01, 1.34807006e-01, 4.40590918e-01, 3.82702231e-01,
          -3.61701578e-01, -9.58630070e-02, -2.55500078e-01,
          -5.50594449e-01, -1.63230319e-02, -3.07844102e-01,
          -9.42090973e-02, 6.24353476e-02, -1.40291780e-01,
          -3.01289231e-01, 1.41807690e-01, 2.27076173e-01,
          -2.33495250e-01, 1.55819237e-01, 7.29561150e-02,
          9.46028009e-02, 6.22747779e-01, -6.95948973e-02,
          4.49754111e-02, 4.10177419e-03, -2.22941130e-01,
          -4.54395711e-02, 1.94896564e-01, 2.30423272e-01,
          -1.04046315e-01, -3.81204873e-01, -4.84546423e-02,
          -1.70725331e-01, 9.22773108e-02, 1.84656367e-01,
          6.83497861e-02, -3.89462978e-01, 4.58129853e-01,
          6.03920519e-02, -3.66996288e-01, 1.58110395e-01,
          1.34691715e-01, 1.13175973e-01, -1.20170973e-01,
          -1.75378799e-01, -3.36613029e-01, -4.35703546e-01,
          -2.40777373e-01, 3.01428288e-01, 2.44445130e-01,
          -1.54977255e-02, -9.45734084e-02, -1.10821530e-01,
          2.17624500e-01, -4.14400190e-01, 2.49283249e-03,
          3.96420628e-01, -4.06972140e-01, -1.09454893e-01,
          1.93479881e-02, -2.29735270e-01, -3.34350675e-01,
          -3.86353374e-01, -5.90775684e-02, 1.09493937e-02,
          -7.53154457e-02, -2.17145890e-01, -4.13274877e-02,
          1.99206606e-01, -5.35711586e-01, 1.25204310e-01,
          -2.10121095e-01, -1.79245606e-01, -3.97223592e-01,
          -2.77540624e-01, -2.07359731e-01, -3.49171966e-01,
          2.08129012e-03, 2.39453375e-01, 1.27533704e-01, 2.15502858e-01,
          2.12875873e-01, -1.75438851e-01, -6.19165562e-02,
          -3.46050739e-01, -1.82505846e-01, -1.50405094e-01,
          -3.76702189e-01, 3.32239181e-01, -2.17293710e-01,
          1.21587157e-01, -1.67595029e-01, -7.38584399e-02,
          -3.73729050e-01, 6.96178824e-02, -3.36125493e-01,
          -1.71489760e-01, 7.40812197e-02, -4.43960011e-01,
          -4.93247241e-01, -1.02139033e-01, -8.25671405e-02,
          -1.86049491e-01, -2.45560169e-01, -1.03961110e-01,
          -5.95982909e-01, 4.71016243e-02, -5.83244395e-03,
          -3.04274559e-01, -2.75324106e-01, -2.59312183e-01,
          -1.17611237e-01, 3.12286317e-02, 2.55416334e-01,
          -2.84512192e-01, -1.55727267e-01, 1.09764449e-01,
          -2.96650261e-01, 6.40988722e-02, 1.97001174e-02,
          1.70841441e-01, -3.57782990e-02, -8.67761299e-02,
          1.38189755e-02, 1.31133556e-01, -2.46455688e-02,
          -5.65809548e-01, -1.22232087e-01, -2.30948076e-01,
          -3.62818211e-01, -1.66244090e-01, -2.76738107e-02,
          -3.63486819e-02, -2.36763820e-01, -5.34033239e-01,
          9.81346704e-03, 2.44835801e-02, 2.97580242e-01,
          -1.55396372e-01, 6.84946775e-02, -1.37173012e-01,
          3.85516435e-01, -1.96314249e-02, -3.02905977e-01,
          1.40962824e-01, 4.06704962e-01, 1.31065145e-01, 1.51261687e-01,
          -1.72192723e-01, 1.06977671e-02, 7.80043378e-02,
          -1.88978508e-01, -9.24348906e-02, -5.82356095e-01,
          -5.18471301e-01, -1.56897753e-01, -3.40568602e-01,
          -4.51841265e-01, 9.05745402e-02, -4.85111296e-01,
          3.92296202e-02, 7.44157508e-02, -2.43161440e-01,
          2.93476701e-01, -6.53402433e-02, -2.30069496e-02,
          2.04200208e-01, 5.69391139e-02, 2.14570358e-01,
          -3.73111218e-01, -2.97699004e-01, 1.81535795e-01,
          2.38999665e-01 ]
   uncompressed_sv_total: 318
   uncompressed_support_vectors:
      - [ 2.87496857e-02, 1.02117169e-03, 6.52598292e-02, 3.26897144e-01,
          2.03930646e-01, 2.68847402e-02, 1.84365436e-01, 5.70834614e-02,
          1.67861313e-01, 3.26897144e-01, 1.32247806e-01, 2.28257403e-02,
          2.19148427e-01, 1.14264674e-01, 2.69360185e-01, 3.26897144e-01,
          2.19928071e-01, 2.17079725e-02, 3.26897144e-01, 1.77018330e-01,
          3.26897144e-01, 2.82172769e-01, 1.52829260e-01, 1.21656463e-01,
          2.22992793e-01, 2.57644266e-01, 1.02886766e-01, 1.52289271e-01,
          1.44242467e-02, 1.07627921e-02, 3.07158768e-01, 3.07158768e-01,
          6.56676888e-02, 3.97496633e-02, 9.77955759e-03, 1.18987620e-01,
          3.07158768e-01, 2.72409290e-01, 1.92030862e-01, 1.90474659e-01,
          1.82909667e-02, 1.06432743e-01, 3.07158768e-01, 3.07158768e-01,
          3.07158768e-01, 3.07158768e-01, 2.44953725e-02, 8.07806104e-02,
          2.80451626e-01, 1.31335795e-01, 4.58793379e-02, 7.69835711e-02,
          2.24872623e-02, 2.85249382e-01, 2.34853104e-01, 1.17018141e-01,
          4.19871397e-02, 7.30508044e-02, 2.06450894e-01, 2.72206098e-01,
          9.72299650e-02, 1.59892574e-01, 3.05621147e-01, 3.05621147e-01,
          3.75840291e-02, 9.44648460e-02, 1.65596217e-01, 3.05621147e-01,
          3.05621147e-01, 3.05621147e-01, 1.83062732e-01, 2.12513894e-01,
          6.92474768e-02, 4.03103083e-02, 1.26903411e-02, 2.84531992e-02,
          3.33572775e-01, 1.63307175e-01, 7.92877451e-02, 4.14826535e-02,
          4.97766696e-02, 4.22928929e-02, 3.33572775e-01, 2.21091852e-01,
          2.21778050e-01, 1.29144996e-01, 2.24895284e-01, 4.11317125e-02,
          3.26813787e-01, 3.33572775e-01, 3.33572775e-01, 4.16576378e-02,
          6.70897365e-02, 5.14736176e-02, 3.33572775e-01, 3.33572775e-01,
          1.07696876e-01, 8.46773908e-02, 9.00589749e-02, 4.02078554e-02,
          1.75987050e-01, 2.30335310e-01, 1.37024805e-01, 7.93662667e-02,
          7.37587735e-02, 4.65422608e-02, 2.39619046e-01, 2.91153669e-01,
          3.35484087e-01, 1.67612672e-01, 8.78538787e-02, 1.16025500e-01,
          3.35484087e-01, 3.35484087e-01, 3.35484087e-01, 1.75811887e-01,
          3.67314555e-02, 6.44405857e-02, 2.46623710e-01, 3.35484087e-01,
          3.34411189e-02, 2.57109236e-02, 1.67207837e-01, 1.87331811e-01,
          9.16852988e-03, 1.25819305e-03, 1.27583489e-01, 2.63103005e-02,
          4.04892594e-01, 3.39433879e-01, 4.24524071e-03, 1.25102717e-02,
          3.53274355e-03, 3.91036831e-03, 2.23302856e-01, 4.13727343e-01,
          2.16055334e-01, 1.46722486e-02, 1.07500525e-02, 3.52011318e-03,
          4.13727343e-01, 4.13727343e-01, 1.55513778e-01, 6.48951717e-03,
          5.31655401e-02, 7.71810533e-03, 1.96040586e-01, 2.51259506e-01,
          1.90831732e-03, 1.17727108e-02, 1.54048428e-02, 9.68613289e-03,
          2.63289571e-01, 4.05241787e-01, 3.03871068e-03, 6.83898199e-03,
          3.82143026e-03, 3.05996102e-04, 4.05241787e-01, 4.05241787e-01,
          2.28825919e-02, 1.27939519e-03, 7.70151091e-04, 0.,
          4.05241787e-01, 4.05241787e-01, 2.39530671e-03, 8.58249492e-04,
          4.06005885e-04, 7.24478625e-03, 2.43739426e-01, 2.74011970e-01,
          9.68962326e-04, 2.63670372e-04, 1.17869563e-02, 4.01035883e-02,
          4.09000456e-01, 1.51139632e-01, 2.83016311e-03, 8.11022706e-03,
          0., 1.03186828e-03, 4.09000456e-01, 4.09000456e-01,
          4.74015760e-05, 3.76671996e-05, 1.55608321e-03, 1.71537455e-02,
          4.09000456e-01, 4.09000456e-01, 0., 6.40790153e-04,
          4.04288210e-02, 3.06899715e-02, 4.47686434e-01, 6.78773820e-02,
          1.01688728e-02, 6.99992478e-02, 5.29187135e-02, 2.50466680e-03,
          2.10139036e-01, 6.99424744e-02, 8.92906338e-02, 1.81271404e-01,
          5.10706007e-03, 5.88671900e-02, 5.23830891e-01, 2.17709064e-01,
          8.32040037e-04, 7.66178081e-03, 5.52707352e-03, 4.77006473e-02,
          5.23830891e-01, 2.87247211e-01, 6.24934174e-02, 3.16446498e-02,
          8.25453475e-02, 6.88465014e-02, 1.17333606e-01, 1.28881991e-01,
          2.61297315e-01, 2.19110176e-01, 1.84579268e-01, 1.10906571e-01,
          1.10884480e-01, 1.10661007e-01, 1.12495884e-01, 1.44760400e-01,
          1.69725753e-02, 7.61170238e-02, 4.08193827e-01, 4.08193827e-01,
          1.88762873e-01, 4.57500517e-02, 5.26292622e-02, 1.11248121e-01,
          4.08193827e-01, 4.08193827e-01, 8.16600770e-02, 3.27722616e-02,
          4.93694155e-04, 0., 2.84414515e-02, 2.55957305e-01,
          3.20622265e-01, 1.55367136e-01, 5.73896291e-03, 0.,
          1.73682138e-01, 3.42034549e-01, 3.35824043e-01, 2.77314186e-01,
          3.73566002e-02, 0., 6.49078109e-04, 2.25335527e-02,
          2.82069862e-01, 3.42034549e-01, 1.82512715e-01, 0.,
          8.45980551e-03, 9.25403237e-02, 3.30251694e-01, 3.42034549e-01,
          1.60183460e-02, 0., 1.88011765e-01, 3.66236597e-01,
          7.81094134e-02, 1.75224602e-01, 2.95241270e-02, 0.,
          3.44521105e-01, 3.66236597e-01, 2.11332403e-02, 2.02397183e-01,
          2.28377402e-01, 0., 1.63979344e-02, 9.48245823e-02,
          7.80922472e-02, 3.66236597e-01, 3.66236597e-01, 0.,
          4.91738617e-02, 1.46470636e-01, 3.03374175e-02, 3.66236597e-01,
          2.58799903e-02, 0., 3.35463524e-01, 3.45060855e-01,
          9.86015704e-03, 1.03639573e-01, 3.54444943e-02, 2.73796096e-02,
          3.45060855e-01, 2.71343440e-01, 5.92729030e-03, 7.53978491e-02,
          3.14013213e-01, 0., 6.13382533e-02, 9.79915708e-02,
          1.64335947e-02, 3.45060855e-01, 3.45060855e-01, 3.54010239e-02,
          2.80302495e-01, 6.05054386e-02, 9.87881795e-03, 3.45060855e-01,
          1.92101896e-02, 9.73514095e-02, 3.46663028e-01, 5.43694943e-02,
          1.77494437e-03, 1.88242029e-02, 7.63403950e-03, 1.59945294e-01,
          3.46663028e-01, 9.26208869e-02, 2.05385149e-03, 9.03197913e-04,
          3.24357569e-01, 1.79294795e-01, 3.46663028e-01, 9.05839540e-03,
          2.95824045e-03, 3.46663028e-01, 2.92170376e-01, 3.46663028e-01,
          3.46663028e-01, 2.01914571e-02, 0., 6.98867217e-02,
          6.76747819e-04, 1.74193263e-01, 3.31904709e-01, 2.44738534e-01,
          6.23174431e-03, 0., 0., 6.36404902e-02, 3.31904709e-01,
          3.31904709e-01, 5.79777779e-03, 0., 2.33915612e-01,
          3.31904709e-01, 3.31904709e-01, 6.46179765e-02, 3.58088920e-03,
          1.12517159e-02, 9.30927172e-02, 2.31812999e-01, 3.24909598e-01,
          3.31904709e-01, 6.95067570e-02, 9.75898802e-02, 2.13840157e-01,
          8.79926234e-03, 3.50114470e-03, 1.98461566e-04, 9.06837732e-02,
          4.21192318e-01, 4.21192318e-01, 6.91862870e-03, 4.33280459e-03,
          2.31711171e-03, 8.99985135e-02, 4.21192318e-01, 1.87545627e-01,
          6.29392192e-02, 8.15275162e-02, 1.57106277e-02, 7.12481374e-03,
          1.70222193e-01, 3.60187560e-01, 5.60742654e-02, 1.20652452e-01,
          3.31375115e-02, 1.94631275e-02, 4.21192318e-01, 3.49931538e-01,
          2.01508301e-04, 4.31702269e-04, 7.64639641e-04, 1.26337353e-02,
          3.84858578e-01, 3.84858578e-01, 2.24595467e-04, 0.,
          7.04376944e-05, 6.19363412e-03, 3.84858578e-01, 1.58933923e-01,
          6.21642219e-03, 1.83152873e-02, 1.00345640e-02, 1.36169316e-02,
          3.30242693e-01, 3.81954312e-01, 1.07185496e-02, 5.66140190e-03,
          1.41043938e-03, 4.61373804e-03, 3.84858578e-01, 3.77046555e-01,
          1.64135359e-04, 0., 0., 2.80996040e-03, 3.77046555e-01,
          3.77046555e-01, 6.95048319e-03, 9.00842994e-03, 0.,
          6.21292461e-03, 3.77046555e-01, 2.73492932e-01, 9.35354177e-03,
          8.31166748e-03, 2.01400672e-03, 2.61257193e-03, 3.73952687e-01,
          2.58632213e-01, 3.73202958e-03, 7.05688540e-03, 7.51861837e-03,
          5.84749542e-02, 3.77046555e-01, 3.49928468e-01, 6.34937212e-02,
          3.25678550e-02, 0., 7.08334381e-03, 3.49928468e-01,
          3.49928468e-01, 3.01862299e-01, 7.52878115e-02, 0.,
          2.33923504e-03, 3.00737917e-01, 2.52321452e-01, 9.07286420e-04,
          6.95625553e-04, 3.25778802e-03, 6.83705360e-02, 3.49928468e-01,
          3.49928468e-01, 2.65358221e-02, 0., 1.07003543e-04,
          1.91638060e-02, 3.49928468e-01, 3.54085922e-01, 3.54085922e-01,
          9.11669582e-02, 3.98751954e-03, 3.59165273e-03, 9.44349319e-02,
          3.54085922e-01, 1.62767872e-01, 4.27216999e-02, 6.51023760e-02,
          6.79556280e-02, 2.91931570e-01, 3.54085922e-01, 7.19302893e-02,
          0., 0., 4.49701765e-04, 3.12231511e-01, 3.54085922e-01,
          4.88132536e-02, 0., 0., 8.33115820e-03, 3.53279352e-01,
          1.52473956e-01, 2.55166233e-01, 3.82572949e-01, 1.25292554e-01,
          1.78218689e-02, 3.98867950e-02, 1.61106095e-01, 3.16440672e-01,
          3.82572949e-01, 1.49539843e-01, 4.01105732e-02, 1.56657666e-01,
          2.40580365e-01, 1.13640726e-01, 2.19617575e-01, 4.68492471e-02,
          2.78984345e-02, 2.00348213e-01, 7.62636811e-02, 2.81344116e-01,
          3.82572949e-01, 3.02269477e-02, 1.07892439e-01, 1.29852623e-01,
          1.42945454e-01, 1.42341554e-01, 3.20725709e-01, 6.37921765e-02,
          3.89434993e-02, 2.40426555e-01, 3.20725709e-01, 1.34157091e-01,
          2.91407734e-01, 1.85090423e-01, 4.81444784e-02, 3.20725709e-01,
          1.43151907e-02, 2.32115477e-01, 3.20725709e-01, 3.90206128e-02,
          2.41202898e-02, 1.80985443e-02, 5.35998903e-02, 1.74433187e-01,
          3.20725709e-01, 3.20725709e-01, 1.84799686e-01, 1.09825909e-01,
          2.40501568e-01, 5.25756478e-02, 1.96831018e-01, 1.65930435e-01,
          3.57227214e-02, 2.09607169e-01, 1.36901721e-01, 2.59663835e-02,
          2.50709116e-01, 3.01690191e-01, 2.92510688e-01, 3.01690191e-01,
          1.81814004e-02, 2.69445162e-02, 2.27469623e-01, 3.01690191e-01,
          1.59750015e-01, 1.31568611e-01, 6.56015649e-02, 3.11773792e-02,
          3.01690191e-01, 3.01690191e-01, 1.93909362e-01, 2.51930594e-01,
          1.96215943e-01, 1.13563286e-02, 6.78777024e-02, 1.86368629e-01,
          3.03172618e-01, 3.75818998e-01, 3.75818998e-01, 1.24518005e-02,
          1.67490393e-02, 2.88770627e-02, 8.78957883e-02, 3.75818998e-01,
          1.15720704e-01, 7.94943050e-02, 1.54326960e-01, 3.07635486e-01,
          1.48748487e-01, 2.13512585e-01, 2.16222465e-01, 9.13034752e-02,
          1.61348790e-01, 1.45864874e-01, 1.19714208e-01, 2.66525358e-01,
          3.65642160e-01, 1.01916343e-02, 1.22949537e-02, 2.76348903e-03,
          0., 3.65642160e-01, 3.65642160e-01, 1.27289549e-01,
          2.38968395e-02, 2.85678022e-02, 5.34293591e-04, 3.18256021e-01,
          2.82348394e-01, 5.71987107e-02, 2.38371715e-01, 1.33413628e-01,
          3.04775760e-02, 1.86324209e-01, 3.65642160e-01, 1.18788458e-01,
          2.40300834e-01, 2.63009429e-01, 4.37438115e-03, 9.01336521e-02 ]
      - [ 2.38489598e-01, 3.29827011e-01, 8.42868164e-02, 2.37554256e-02,
          1.43982172e-01, 5.86192384e-02, 3.31432313e-01, 3.31432313e-01,
          1.14778377e-01, 2.06133835e-02, 1.04398914e-01, 2.90141180e-02,
          3.31432313e-01, 3.31432313e-01, 1.29713520e-01, 1.91296469e-02,
          9.44300964e-02, 6.46550879e-02, 3.31432313e-01, 3.31432313e-01,
          1.62242413e-01, 1.92342594e-01, 1.44422814e-01, 1.73338391e-02,
          1.02084957e-01, 2.21992522e-01, 4.50354554e-02, 3.86081636e-02,
          2.58538544e-01, 1.08319849e-01, 2.38565207e-02, 2.92095169e-02,
          2.14763563e-02, 1.02012448e-01, 3.51020187e-01, 3.51020187e-01,
          9.25553069e-02, 1.17505975e-01, 1.15628675e-01, 2.87116557e-01,
          3.00995857e-01, 6.52991831e-02, 2.30366737e-02, 6.54090056e-03,
          1.17224216e-01, 3.49554777e-01, 3.51020187e-01, 3.51020187e-01,
          2.85314303e-02, 8.18172544e-02, 9.04831737e-02, 6.60755411e-02,
          3.00656021e-01, 2.72960812e-01, 3.81777361e-02, 3.00656021e-01,
          2.96577275e-01, 5.95950969e-02, 1.26014918e-01, 1.19877487e-01,
          1.82893556e-02, 3.30322087e-02, 5.79650886e-02, 1.31074727e-01,
          3.00656021e-01, 3.00656021e-01, 2.15272233e-01, 2.91236848e-01,
          2.15985894e-01, 1.92529842e-01, 3.00656021e-01, 3.00656021e-01,
          2.25670766e-02, 1.91361502e-01, 2.45903626e-01, 1.24661416e-01,
          9.93335024e-02, 6.56785667e-02, 1.30087230e-02, 5.07173613e-02,
          2.68404812e-01, 2.68404812e-01, 2.68404812e-01, 1.84044734e-01,
          2.31544092e-01, 1.64962620e-01, 2.49751210e-01, 2.68404812e-01,
          2.22080812e-01, 2.04262510e-01, 1.31192684e-01, 7.48385191e-02,
          2.68404812e-01, 2.68404812e-01, 2.68404812e-01, 2.68404812e-01,
          3.49975228e-02, 1.53075065e-02, 1.31804258e-01, 1.67446539e-01,
          2.78933227e-01, 1.98642358e-01, 1.07491441e-01, 3.13212350e-02,
          5.71525283e-02, 2.15101838e-01, 2.78933227e-01, 2.78933227e-01,
          4.39192168e-02, 1.00839891e-01, 2.78933227e-01, 2.76652277e-01,
          2.78933227e-01, 1.40252560e-01, 1.32072091e-01, 1.51101977e-01,
          2.78933227e-01, 2.78933227e-01, 2.78933227e-01, 2.78933227e-01,
          2.29147419e-01, 3.05593342e-01, 2.98460364e-01, 8.33391920e-02,
          6.28307760e-02, 3.77074629e-02, 1.17062815e-01, 3.05593342e-01,
          3.05593342e-01, 3.05593342e-01, 9.18807760e-02, 1.21189216e-02,
          1.38205022e-01, 2.03339934e-01, 2.33177781e-01, 2.19982311e-01,
          1.62929714e-01, 9.56488699e-02, 6.74360394e-02, 2.18270361e-01,
          3.05593342e-01, 3.05593342e-01, 8.14263225e-02, 5.19748703e-02,
          2.11378969e-02, 6.08591214e-02, 1.99817106e-01, 3.13109994e-01,
          2.55139530e-01, 1.61096696e-02, 7.97409564e-03, 4.28160839e-03,
          2.58771688e-01, 3.13109994e-01, 3.13109994e-01, 1.52690858e-01,
          1.94601808e-02, 1.15845010e-01, 3.05132210e-01, 3.13109994e-01,
          1.85090557e-01, 2.28966605e-02, 4.00794558e-02, 3.21421660e-02,
          2.05245554e-01, 3.13109994e-01, 3.13109994e-01, 1.49664372e-01,
          6.11687312e-03, 2.59178169e-02, 1.47474885e-01, 1.86021715e-01,
          2.74944007e-01, 2.38862872e-01, 1.84548974e-01, 1.46004796e-01,
          1.92096025e-01, 1.70835972e-01, 2.74572670e-01, 2.74944007e-01,
          1.54948428e-01, 1.76143020e-01, 1.73994035e-01, 1.71792865e-01,
          2.74944007e-01, 1.57327518e-01, 2.74944007e-01, 2.74944007e-01,
          2.25574270e-01, 9.54153687e-02, 1.82088509e-01, 2.74944007e-01,
          2.12631881e-01, 7.76071623e-02, 1.55097947e-01, 2.09612295e-01,
          1.17092088e-01, 2.75016457e-01, 9.52820927e-02, 2.76171230e-02,
          1.53011993e-01, 2.80080736e-01, 2.94523507e-01, 2.94523507e-01,
          2.81505257e-01, 5.09024411e-02, 1.06236622e-01, 9.97740924e-02,
          2.44616508e-01, 2.94523507e-01, 7.61307552e-02, 1.09561831e-02,
          6.19767457e-02, 2.65316844e-01, 2.94523507e-01, 2.94523507e-01,
          8.98181647e-02, 5.44068404e-02, 1.19873732e-01, 2.05464453e-01,
          2.70534039e-01, 1.04641326e-01, 2.70534039e-01, 8.73058811e-02,
          2.55289674e-01, 2.25750029e-01, 2.57390946e-01, 1.52969167e-01,
          2.29986757e-01, 1.13313437e-01, 3.45794931e-02, 2.13079795e-01,
          2.70534039e-01, 2.70502001e-01, 2.70534039e-01, 2.07406089e-01,
          1.20387420e-01, 1.52248517e-01, 2.70534039e-01, 2.70534039e-01,
          3.89897004e-02, 6.55492544e-02, 2.96799112e-02, 1.10198237e-01,
          1.70898557e-01, 6.98347092e-02, 2.20649671e-02, 1.01398118e-01,
          3.41021627e-01, 3.41021627e-01, 2.67050326e-01, 3.08621172e-02,
          1.04393288e-01, 7.05759749e-02, 9.74139012e-03, 2.12583110e-01,
          3.41021627e-01, 1.89316764e-01, 2.09775493e-02, 2.32048839e-01,
          3.41021627e-01, 3.41021627e-01, 3.41021627e-01, 1.07535526e-01,
          9.85322800e-03, 1.51112258e-01, 3.25192213e-01, 2.64203787e-01,
          8.29152092e-02, 1.12174451e-02, 1.66552350e-01, 1.42758474e-01,
          1.23663977e-01, 1.40014887e-01, 2.46297628e-01, 1.47932634e-01,
          2.88849473e-02, 3.25192213e-01, 3.25192213e-01, 1.83230951e-01,
          2.38052070e-01, 2.86885537e-02, 2.09567741e-01, 3.25192213e-01,
          3.25192213e-01, 2.30868652e-01, 5.46222962e-02, 1.02950297e-01,
          2.56850511e-01, 1.62696511e-01, 5.54743446e-02, 8.20466429e-02,
          1.61013857e-01, 1.34072095e-01, 2.73524135e-01, 2.10640058e-01,
          2.73524135e-01, 1.57599300e-01, 1.20517142e-01, 2.11602911e-01,
          1.89902440e-01, 1.53816774e-01, 1.89303458e-01, 2.73524135e-01,
          1.94312990e-01, 2.05642745e-01, 1.13603354e-01, 1.01926222e-01,
          2.73524135e-01, 2.73524135e-01, 2.73524135e-01, 2.73524135e-01,
          1.04533978e-01, 2.99467016e-02, 2.08212927e-01, 1.10350974e-01,
          2.49725312e-01, 2.92969704e-01, 3.82177047e-02, 7.70281954e-03,
          2.76793446e-02, 1.54496089e-01, 3.03796172e-01, 3.03796172e-01,
          3.46912444e-02, 6.60465956e-02, 3.03796172e-01, 2.18674406e-01,
          2.87326127e-01, 1.53989628e-01, 3.96216884e-02, 3.55770774e-02,
          2.73307145e-01, 3.03796172e-01, 3.03796172e-01, 2.37938926e-01,
          7.19658211e-02, 1.82660624e-01, 6.09275699e-02, 1.28656223e-01,
          3.00586939e-01, 1.68045983e-01, 1.89099461e-01, 3.00586939e-01,
          2.11521581e-01, 8.39549825e-02, 3.00586939e-01, 1.27771214e-01,
          1.36921406e-02, 1.63485557e-01, 2.05579460e-01, 2.01751962e-01,
          3.00586939e-01, 1.80754811e-01, 2.83744670e-02, 3.00586939e-01,
          3.00586939e-01, 7.91826397e-02, 3.00586939e-01, 1.54847518e-01,
          5.59161752e-02, 7.59621859e-02, 1.47358945e-03, 1.09902479e-01,
          4.20555353e-01, 1.76716983e-01, 1.43965092e-02, 1.06532730e-01,
          1.24968216e-01, 1.63936883e-01, 4.20555353e-01, 1.71570480e-01,
          1.95637532e-02, 8.16638991e-02, 1.03151267e-02, 1.57461226e-01,
          4.20555353e-01, 1.84283391e-01, 1.89212651e-03, 1.82113573e-02,
          5.46125285e-02, 1.17596611e-01, 4.20555353e-01, 2.63781309e-01,
          1.50848869e-02, 2.98932761e-01, 3.14189821e-01, 6.76400438e-02,
          1.78644985e-01, 3.72584537e-02, 6.73583224e-02, 3.14189821e-01,
          3.14189821e-01, 2.48765931e-01, 8.56507756e-03, 1.46771446e-02,
          5.86529309e-03, 2.14474797e-01, 3.00293356e-01, 9.41119865e-02,
          3.14189821e-01, 1.45361349e-01, 1.10224567e-01, 3.14189821e-01,
          3.14189821e-01, 1.44429639e-01, 2.39384938e-02, 1.03022039e-01,
          6.86526522e-02, 1.79324016e-01, 2.72165388e-01, 2.48838425e-01,
          1.03502810e-01, 1.31182626e-01, 4.75554466e-02, 9.89627913e-02,
          2.72165388e-01, 2.21389815e-01, 2.72165388e-01, 2.72165388e-01,
          1.13444529e-01, 2.72165388e-01, 2.72165388e-01, 1.40860260e-01,
          9.08660293e-02, 1.16275765e-01, 1.41136125e-01, 2.41726935e-01,
          2.47894734e-01, 2.72165388e-01, 2.72165388e-01, 1.50386214e-01,
          7.37347603e-02, 6.88895360e-02, 2.70916075e-01, 1.28604099e-01,
          2.43145585e-01, 1.70514762e-01, 6.18633926e-02, 4.79249582e-02,
          2.70916075e-01, 2.70916075e-01, 2.70916075e-01, 1.51530743e-01,
          1.95308432e-01, 2.16010243e-01, 9.71290693e-02, 2.60731399e-01,
          2.70916075e-01, 1.23408586e-01, 1.97375834e-01, 1.35461748e-01,
          1.77112684e-01, 2.70916075e-01, 2.70916075e-01, 2.70916075e-01,
          1.78623479e-02, 5.58479540e-02, 1.76708087e-01, 1.66142330e-01,
          2.81366557e-01, 1.67255014e-01, 4.17212471e-02, 2.81366557e-01,
          2.81366557e-01, 6.39528036e-02, 2.76925266e-01, 1.60039842e-01,
          1.11133173e-01, 8.19641799e-02, 1.23329774e-01, 1.27893969e-01,
          2.81366557e-01, 2.81366557e-01, 1.28289416e-01, 2.81366557e-01,
          2.81366557e-01, 1.38627782e-01, 2.81366557e-01, 2.81366557e-01,
          6.23649266e-03, 1.84478797e-02, 6.49929186e-03, 3.06806207e-01,
          3.80100459e-01, 5.10628112e-02, 0., 2.76638661e-03,
          5.90066146e-03, 1.91002220e-01, 3.80100459e-01, 1.84493378e-01,
          5.42747555e-04, 1.26291662e-02, 5.64923026e-02, 3.80100459e-01,
          3.80100459e-01, 5.64367324e-02, 0., 2.69422065e-02,
          3.02163847e-02, 2.75667548e-01, 3.80100459e-01, 1.48094162e-01,
          2.54190117e-02, 1.49975404e-01, 9.36186612e-02, 7.31438845e-02,
          3.11738163e-01, 2.91238546e-01, 7.12100789e-02, 3.11738163e-01,
          3.11738163e-01, 4.12252173e-02, 5.86190261e-02, 2.28299320e-01,
          2.75371689e-02, 9.08754468e-02, 5.17097861e-02, 2.27449939e-01,
          3.11738163e-01, 1.98612064e-01, 4.60275561e-02, 3.11738163e-01,
          3.11738163e-01, 2.16172263e-01, 2.03679249e-01, 1.90251723e-01,
          4.01559696e-02, 2.92859763e-01, 2.92859763e-01, 1.13104217e-01,
          1.10007942e-01, 8.94017965e-02, 1.29219130e-01, 2.51835853e-01,
          1.49176687e-01, 2.92859763e-01, 2.92859763e-01, 4.90675569e-02,
          3.92181166e-02, 2.92859763e-01, 2.92859763e-01, 1.14311524e-01,
          1.30291104e-01, 8.39289948e-02, 1.39828578e-01, 2.58901268e-01,
          1.88340887e-01, 2.92859763e-01, 2.92859763e-01, 1.04785264e-01,
          1.12278745e-01, 2.17420980e-01, 4.97421138e-02, 2.85294920e-01,
          2.27970675e-01, 2.61318982e-02, 1.59628436e-01, 1.84081554e-01,
          1.61874548e-01, 2.85294920e-01, 2.33900324e-01, 1.75233662e-01,
          5.62599599e-02, 2.49953017e-01, 5.88217825e-02, 2.85294920e-01,
          2.85294920e-01, 1.94193982e-02, 1.17054701e-01, 2.85294920e-01,
          2.85294920e-01, 2.85294920e-01, 2.26212382e-01, 8.39701444e-02,
          1.06536850e-01, 1.32616296e-01, 1.24371588e-01, 7.11587295e-02,
          2.89013088e-01, 2.12631971e-01, 6.71208799e-02, 8.34041685e-02,
          1.86320245e-01, 1.47920623e-01, 3.46565843e-01, 2.89104044e-01,
          7.21951276e-02, 2.75813013e-01, 2.35130727e-01, 1.14044882e-01,
          2.86612570e-01, 8.76295865e-02, 5.24994135e-02, 1.21068150e-01,
          1.01724163e-01, 1.97991237e-01, 3.46565843e-01, 3.46565843e-01 ]
      - [ 7.81904459e-02, 1.30927265e-01, 4.22630087e-02, 1.13658626e-02,
          2.47767344e-01, 2.66912341e-01, 8.63249153e-02, 4.17612463e-01,
          1.44039884e-01, 8.61026812e-03, 1.01270989e-01, 6.97917119e-02,
          6.27163425e-02, 1.39673099e-01, 5.91661930e-02, 5.85316531e-02,
          3.80665332e-01, 3.18812877e-01, 1.78992942e-01, 4.17612463e-01,
          2.40546897e-01, 1.26954941e-02, 1.56244710e-01, 2.33312011e-01,
          1.10283658e-01, 3.32755655e-01, 7.79672861e-02, 3.20681110e-02,
          6.43669218e-02, 3.08005176e-02, 5.81320934e-02, 3.32755655e-01,
          1.82329580e-01, 9.58971381e-02, 2.02717066e-01, 4.70318869e-02,
          1.42383188e-01, 3.32755655e-01, 3.16710532e-01, 1.05705291e-01,
          8.36984739e-02, 4.14855406e-02, 3.32755655e-01, 3.32755655e-01,
          2.14520738e-01, 2.10007027e-01, 2.88936615e-01, 1.24382965e-01,
          8.92238617e-02, 3.09429020e-01, 1.47263274e-01, 1.80131681e-02,
          5.77175021e-02, 4.18169834e-02, 1.37410119e-01, 3.09429020e-01,
          8.34315941e-02, 1.38467466e-02, 3.09429020e-01, 3.09429020e-01,
          2.95418382e-01, 3.09429020e-01, 1.37632474e-01, 2.94471625e-02,
          6.84317350e-02, 3.80218364e-02, 2.00544402e-01, 3.09429020e-01,
          1.26058146e-01, 2.30779126e-02, 3.09429020e-01, 3.09429020e-01,
          4.27791774e-02, 1.79996729e-01, 4.03338037e-02, 4.14894661e-03,
          2.96553642e-01, 2.22453296e-01, 1.47009045e-01, 3.40802640e-01,
          3.40802640e-01, 1.31270170e-01, 6.75780326e-02, 6.25156686e-02,
          1.24787591e-01, 1.36253193e-01, 1.53672462e-02, 6.91491086e-03,
          2.84625828e-01, 3.40802640e-01, 3.40802640e-01, 3.40802640e-01,
          1.11622997e-01, 1.47191826e-02, 6.72677457e-02, 2.50215262e-01,
          1.48135498e-01, 2.47385725e-01, 3.16011161e-01, 2.85610616e-01,
          8.93384144e-02, 6.14320347e-03, 3.16011161e-01, 2.15302631e-01,
          8.74918252e-02, 2.45026648e-01, 1.32643610e-01, 4.35781665e-02,
          3.16011161e-01, 3.16011161e-01, 7.60272592e-02, 2.95649413e-02,
          2.64514182e-02, 1.92432612e-01, 3.16011161e-01, 3.16011161e-01,
          2.36546174e-02, 2.22242270e-02, 4.29506414e-02, 2.10009322e-01,
          8.99716318e-02, 1.70605421e-01, 5.20581231e-02, 3.14840637e-02,
          1.55460566e-01, 1.85673997e-01, 1.36284977e-01, 3.27182472e-01,
          1.56075820e-01, 1.19830901e-02, 1.36113092e-01, 1.61658883e-01,
          2.57979006e-01, 3.27182472e-01, 2.04208065e-02, 1.49001935e-02,
          3.21046472e-01, 2.54673928e-01, 3.18111002e-01, 3.27182472e-01,
          6.59846142e-02, 1.52245946e-02, 3.27182472e-01, 2.00880080e-01,
          2.04667076e-01, 3.29546213e-01, 9.76566449e-02, 1.70717724e-02,
          1.29763167e-02, 2.22107694e-02, 3.81570369e-01, 1.80472255e-01,
          3.71734239e-02, 2.85263471e-02, 2.68052947e-02, 1.71201989e-01,
          3.81570369e-01, 3.81570369e-01, 2.20549703e-02, 1.07951497e-03,
          2.22938526e-02, 1.59449112e-02, 3.81570369e-01, 3.81570369e-01,
          3.80347408e-02, 2.63233893e-02, 0., 1.97626069e-01,
          3.56066734e-01, 1.93709925e-01, 1.21881943e-02, 4.43546241e-03,
          7.93462526e-03, 1.02787353e-01, 3.56066734e-01, 2.39293620e-01,
          1.54522117e-02, 2.14029080e-03, 4.93287705e-02, 2.61162639e-01,
          3.56066734e-01, 1.73268035e-01, 4.13542911e-02, 2.69599166e-02,
          0., 1.64604172e-01, 3.56066734e-01, 3.56066734e-01,
          2.42694113e-02, 8.24095123e-03, 3.36134760e-03, 3.54738325e-01,
          1.53060764e-01, 6.00171722e-02, 9.62702150e-04, 4.03970364e-04,
          3.19755562e-02, 2.36858815e-01, 3.47731322e-01, 3.47731322e-01,
          0., 0., 2.35792026e-02, 2.05793887e-01, 3.47731322e-01,
          1.27963334e-01, 7.16069131e-04, 0., 3.79342400e-03,
          3.47731322e-01, 3.47731322e-01, 3.47731322e-01, 0., 0.,
          8.15755278e-02, 3.47731322e-01, 2.78707832e-01, 1.84760392e-01,
          3.61164246e-04, 0., 6.40233830e-02, 1.80619746e-01,
          3.09911937e-01, 3.09911937e-01, 2.52814963e-03, 0.,
          7.98161030e-02, 1.86010435e-01, 3.09911937e-01, 2.95190573e-01,
          5.15948923e-05, 0., 2.23681033e-01, 2.57475078e-01,
          3.09911937e-01, 3.09911937e-01, 3.55010689e-03, 1.19658303e-03,
          2.00613186e-01, 2.88857162e-01, 2.75317639e-01, 2.09534258e-01,
          1.14457693e-03, 1.43019774e-03, 1.91191509e-01, 2.71257699e-01,
          2.47895151e-01, 2.76933402e-01, 5.93869761e-03, 1.25097262e-03,
          2.33619854e-01, 2.34586149e-01, 2.63468355e-01, 2.76933402e-01,
          6.50330335e-02, 7.29923993e-02, 2.76933402e-01, 2.28403941e-01,
          1.66421473e-01, 2.76933402e-01, 9.96965840e-02, 6.63445443e-02,
          2.76933402e-01, 1.99131683e-01, 2.22547993e-01, 3.43146056e-01,
          3.25889848e-02, 1.35747856e-02, 2.11913120e-02, 1.43775921e-02,
          2.61313200e-01, 3.43146056e-01, 1.49923548e-01, 2.40776747e-01,
          4.62247012e-03, 3.04904450e-02, 7.79839531e-02, 3.43146056e-01,
          2.63153702e-01, 6.74277842e-02, 4.46712635e-02, 1.28593408e-02,
          7.73910061e-02, 3.43146056e-01, 3.43146056e-01, 3.43146056e-01,
          3.05302646e-02, 0., 6.05487451e-02, 1.41451001e-01,
          7.47935325e-02, 6.34559095e-02, 1.10397115e-03, 1.28299631e-02,
          4.37856108e-01, 4.37856108e-01, 5.39341234e-02, 1.16925212e-02,
          1.27312873e-04, 6.57940730e-02, 9.81510431e-02, 3.73394400e-01,
          1.17935799e-01, 1.26915529e-01, 8.33388045e-03, 0.,
          4.37856108e-01, 4.37856108e-01, 8.89410824e-02, 1.44172432e-02,
          1.07645418e-03, 2.56183334e-02, 3.19141328e-01, 1.95370421e-01,
          2.54209945e-03, 0., 1.05992716e-03, 2.46204734e-01,
          3.19141328e-01, 8.77653807e-02, 0., 0., 8.67198408e-02,
          3.19141328e-01, 3.19141328e-01, 3.19141328e-01, 4.68529249e-03,
          0., 2.10103448e-02, 2.31353149e-01, 3.19141328e-01,
          1.18308797e-01, 0., 0., 3.19141328e-01, 3.19141328e-01,
          2.19063401e-01, 1.39412522e-01, 3.59255442e-04, 0.,
          2.41974697e-01, 2.55788028e-01, 2.78571457e-01, 3.69637936e-01,
          4.68335189e-02, 1.18848262e-02, 1.46905944e-01, 1.60916910e-01,
          7.73958787e-02, 9.33719650e-02, 5.95095893e-03, 9.19981673e-03,
          3.69637936e-01, 3.45986307e-01, 5.65122962e-02, 3.69637936e-01,
          1.63564071e-01, 4.36977036e-02, 3.03174645e-01, 9.63742286e-02,
          5.17242439e-02, 2.33878195e-01, 2.27281034e-01, 2.53437161e-01,
          2.77275085e-01, 3.16774920e-02, 2.69710049e-02, 2.77275085e-01,
          2.09933594e-01, 2.16434166e-01, 2.77275085e-01, 2.40214132e-02,
          2.66343988e-02, 1.13482051e-01, 2.47518331e-01, 2.77275085e-01,
          2.77275085e-01, 5.80769219e-02, 6.71077743e-02, 2.77275085e-01,
          1.81555405e-01, 2.77275085e-01, 2.77275085e-01, 7.06199615e-04,
          1.21602612e-02, 2.63905048e-01, 2.15047225e-01, 4.24289033e-02,
          2.89765224e-02, 1.04344857e-03, 2.93381363e-01, 3.61216754e-01,
          2.58813053e-01, 2.22416610e-01, 1.21709658e-02, 0.,
          6.52293339e-02, 4.12109375e-01, 1.18864685e-01, 1.32767363e-02,
          1.96282864e-02, 1.37468189e-04, 4.12109375e-01, 4.12109375e-01,
          1.23266667e-01, 2.02194769e-02, 5.30046353e-04, 0.,
          2.26271659e-01, 2.36628056e-01, 2.02205144e-02, 2.47025378e-02,
          2.45588692e-03, 0., 3.84635448e-01, 3.84635448e-01,
          1.13947522e-02, 1.73225487e-03, 3.28555558e-04, 9.76891373e-04,
          3.84635448e-01, 3.84635448e-01, 1.14416657e-02, 1.47428177e-03,
          1.18627591e-04, 0., 3.84635448e-01, 3.84635448e-01,
          2.61716498e-03, 5.08836165e-05, 1.69467985e-05, 0.,
          3.42048198e-01, 3.42048198e-01, 1.18613872e-03, 0.,
          4.43904176e-02, 8.79268125e-02, 1.02764823e-01, 1.44624934e-01,
          0., 0., 3.42048198e-01, 3.30296993e-01, 3.42048198e-01,
          3.42048198e-01, 0., 0., 7.96719491e-02, 4.41664718e-02,
          6.54778928e-02, 1.21416204e-01, 0., 0., 3.42048198e-01,
          3.42048198e-01, 4.52775508e-03, 5.32687865e-02, 5.03376778e-03,
          1.30809639e-02, 3.75250727e-01, 1.67004645e-01, 3.87139171e-02,
          3.75250727e-01, 7.06733093e-02, 2.91175786e-02, 2.89783120e-01,
          4.78895083e-02, 4.18356666e-03, 7.72845894e-02, 1.92396680e-03,
          6.29117899e-03, 3.75250727e-01, 3.53342265e-01, 7.42552057e-02,
          3.75250727e-01, 1.84633918e-02, 1.24826683e-02, 3.75250727e-01,
          1.75318122e-01, 7.36162364e-02, 3.79125401e-02, 5.08184247e-02,
          2.27648467e-01, 3.20225120e-01, 1.97113276e-01, 1.24974251e-01,
          2.72326052e-01, 1.03857666e-01, 1.11650780e-01, 1.06676564e-01,
          3.96857597e-02, 2.10854635e-01, 9.48389843e-02, 1.44530889e-02,
          6.68524131e-02, 3.58752608e-01, 3.58752608e-01, 2.30520889e-01,
          3.40895087e-01, 9.15660784e-02, 3.17343026e-02, 3.42282712e-01,
          2.37340197e-01, 4.34514023e-02, 3.18283588e-01, 5.65454327e-02,
          5.93459059e-04, 4.29606764e-03, 5.10364678e-03, 2.65592664e-01,
          4.68989134e-01, 1.88728496e-01, 0., 1.13042108e-04, 0.,
          2.38263365e-02, 3.74528468e-01, 1.01169221e-01, 0.,
          4.88013402e-02, 3.20209153e-02, 3.13738510e-02, 4.68989134e-01,
          4.32820141e-01, 0., 4.70508495e-03, 5.22738555e-04,
          1.65369660e-01, 4.00285453e-01, 7.69613460e-02, 0., 0., 0.,
          3.01521897e-01, 4.00285453e-01, 6.39321655e-02, 0., 0., 0.,
          1.94545388e-02, 4.00285453e-01, 2.52324313e-01, 0., 0., 0.,
          5.03973179e-02, 4.00285453e-01, 4.00285453e-01, 0., 0., 0.,
          2.67972350e-01, 3.66910547e-01, 3.39783616e-02, 1.33486872e-03,
          7.12869838e-02, 2.58816238e-02, 4.28773463e-02, 1.00390792e-01,
          2.03835289e-03, 2.22478132e-03, 3.66910547e-01, 3.66910547e-01,
          6.58212230e-02, 3.66910547e-01, 3.04795653e-01, 2.22478132e-03,
          1.76086612e-02, 8.39371327e-03, 7.32909590e-02, 2.05292761e-01,
          1.90591868e-02, 3.70796910e-03, 3.66910547e-01, 2.95063615e-01,
          7.07602408e-03, 4.56218570e-02, 8.29662822e-05, 2.87252769e-04,
          3.56178969e-01, 2.95148581e-01, 6.13561757e-02, 3.56178969e-01,
          3.33692180e-03, 1.73917483e-03, 3.56178969e-01, 1.60642058e-01,
          2.35665850e-02, 5.32132871e-02, 0., 2.43696981e-04,
          3.56178969e-01, 2.38816947e-01, 1.67277724e-01, 3.56178969e-01,
          3.93736787e-04, 2.14873900e-04, 3.56178969e-01, 1.67419046e-01 ]
      - [ 1.99072732e-04, 0., 0., 5.43396594e-03, 3.90685976e-01,
          1.80031247e-02, 0., 0., 0., 3.86304082e-03, 4.57461566e-01,
          2.47148246e-01, 1.14763156e-03, 0., 0., 1.13254404e-02,
          3.88887137e-01, 4.54148464e-02, 0., 0., 0., 1.02845160e-02,
          4.57461566e-01, 4.57461566e-01, 7.70356099e-04, 1.37154327e-03,
          1.98574198e-04, 9.55373223e-04, 3.84627789e-01, 2.97776908e-01,
          1.28392677e-03, 3.33774276e-02, 6.44467473e-02, 3.69289927e-02,
          3.38321954e-01, 1.86230868e-01, 0., 0., 0., 8.98740254e-04,
          3.84627789e-01, 3.84627789e-01, 0., 1.16849272e-02,
          5.52937686e-02, 9.39090326e-02, 3.84627789e-01, 3.84627789e-01,
          2.32468694e-04, 1.78235188e-01, 2.43197903e-01, 4.49325480e-02,
          6.57274500e-02, 1.99107546e-02, 8.34162906e-03, 3.89437765e-01,
          3.89437765e-01, 6.04700530e-03, 5.68903575e-04, 0., 0.,
          1.70430467e-01, 3.11225563e-01, 1.23961322e-01, 3.81206244e-01,
          6.77922145e-02, 2.34599435e-03, 3.89437765e-01, 3.89437765e-01,
          1.75693724e-02, 1.43170068e-02, 0., 5.50892726e-02,
          3.91600698e-01, 1.74040586e-01, 2.70448829e-04, 0., 0.,
          1.22763805e-01, 3.91600698e-01, 1.61028162e-01, 1.89314166e-03,
          0., 0., 1.65520981e-02, 3.91600698e-01, 3.91600698e-01,
          4.50748019e-04, 0., 0., 3.69778983e-02, 3.91600698e-01,
          3.91600698e-01, 3.15523637e-03, 0., 0., 1.34075716e-01,
          4.00408089e-01, 2.47320354e-01, 2.59185303e-03, 0., 0.,
          5.65820513e-03, 3.91235441e-01, 1.80482686e-01, 8.24647490e-03,
          0., 0., 3.95420231e-02, 4.00408089e-01, 4.00408089e-01,
          4.31975489e-03, 0., 0., 1.54514518e-03, 4.00408089e-01,
          2.96784520e-01, 1.17507149e-02, 0., 0., 1.73915632e-03, 0.,
          8.46752300e-05, 1.51539650e-02, 4.13687795e-01, 1.19308650e-01,
          0., 0., 0., 1.18434774e-02, 4.13687795e-01, 4.13687795e-01,
          5.26169839e-04, 0., 1.00010121e-03, 2.34077834e-02,
          3.11971813e-01, 1.65563777e-01, 0., 0., 0., 1.68759655e-02,
          4.13687795e-01, 4.13687795e-01, 0., 0., 0., 2.23040013e-04,
          4.19598728e-01, 3.41285318e-01, 1.92819891e-04, 1.02296267e-02,
          1.49472775e-02, 3.32494639e-02, 4.19598728e-01, 2.31267467e-01,
          0., 0., 0., 7.59539311e-04, 4.19598728e-01, 1.95065379e-01,
          1.84178427e-02, 1.49428919e-02, 2.77463323e-03, 6.66666310e-03,
          4.19598728e-01, 2.85475552e-01, 2.09509418e-03, 1.76888332e-01,
          1.52514353e-01, 7.07965419e-02, 3.50419819e-01, 5.30988425e-02,
          3.48931854e-03, 3.50419819e-01, 3.50419819e-01, 1.01137916e-02,
          3.32284123e-02, 1.52622451e-04, 1.91886500e-01, 2.20594406e-01,
          2.92671248e-02, 1.41950166e-02, 3.50419819e-01, 2.87493289e-01,
          3.24318409e-01, 3.50419819e-01, 1.81122392e-01, 2.02785968e-03,
          5.25956973e-02, 9.47254300e-02, 4.03743295e-04, 3.43992382e-01,
          3.72371942e-01, 4.94928790e-05, 0., 0., 5.98162471e-04,
          3.72371942e-01, 3.72371942e-01, 3.46450106e-04, 0., 0.,
          6.28613159e-02, 3.72371942e-01, 2.35716283e-01, 0., 0.,
          1.81893501e-02, 2.75150016e-02, 3.72371942e-01, 3.52175027e-01,
          0., 0., 3.89150227e-03, 6.32289192e-03, 4.74658340e-01,
          3.91772419e-01, 2.67120864e-04, 0., 0., 9.92995128e-03,
          3.39302331e-01, 6.99105710e-02, 2.71155871e-03, 0., 0.,
          4.32263203e-02, 4.74658340e-01, 2.03561768e-01, 0., 0., 0.,
          4.17472422e-02, 4.74658340e-01, 2.55931281e-02, 2.91239377e-03,
          0., 0., 1.45294308e-03, 0., 1.45064865e-03, 1.06853001e-01,
          3.69769484e-01, 1.06608070e-01, 0., 0., 0., 1.47310272e-01,
          4.52884406e-01, 3.34155500e-01, 1.49900734e-03, 0.,
          6.08319370e-03, 1.81909934e-01, 4.52884406e-01, 5.30481376e-02,
          0., 0., 0., 1.94902092e-01, 4.52884406e-01, 1.15565009e-01, 0.,
          0., 0., 4.63598548e-03, 3.96183729e-01, 1.49186969e-01,
          4.95298803e-02, 4.26588207e-03, 0., 0., 3.96183729e-01,
          3.96183729e-01, 1.22866157e-04, 0., 0., 6.16755895e-03,
          3.96183729e-01, 1.62223846e-01, 5.62886260e-02, 0., 0., 0.,
          3.96183729e-01, 3.96183729e-01, 2.31439710e-01, 3.43386270e-02,
          0., 0., 3.21558118e-01, 3.59950989e-01, 3.59950989e-01,
          8.48176107e-02, 1.11005278e-02, 0., 1.14530195e-02,
          3.39330405e-01, 2.24440411e-01, 7.70860875e-04, 0., 0.,
          1.32145271e-01, 3.59950989e-01, 3.59950989e-01, 2.49528443e-03,
          0., 0., 9.41792154e-04, 3.59950989e-01, 1.69176087e-01,
          2.44251415e-01, 4.08503003e-02, 0., 0., 1.37208715e-01,
          1.48293644e-01, 4.03738827e-01, 7.21807554e-02, 0., 0.,
          3.16953994e-02, 4.03738827e-01, 1.40811652e-01, 6.17307553e-04,
          0., 0., 4.03738827e-01, 4.03738827e-01, 4.03738827e-01,
          3.47935734e-03, 0., 0., 1.55309856e-01, 9.23250392e-02,
          4.84138787e-01, 3.86906452e-02, 0., 0., 0., 2.23967135e-02,
          4.10345554e-01, 6.81840535e-03, 2.20769458e-03, 0., 0.,
          3.90244573e-01, 4.84138787e-01, 1.67457256e-02, 0., 0.,
          7.29136961e-03, 2.67287418e-02, 4.40083236e-01, 2.02087779e-02,
          8.87855073e-04, 0., 2.28809123e-03, 1.98404799e-04, 0.,
          1.74110644e-02, 1.36557207e-01, 4.69753504e-01, 1.07109673e-01,
          0., 0., 0., 5.11827841e-02, 4.69753504e-01, 2.22423211e-01, 0.,
          0., 2.59867851e-02, 1.05610222e-01, 4.15083200e-01,
          8.22026432e-02, 0., 0., 2.28875456e-03, 1.66204944e-02,
          4.69753504e-01, 2.44184315e-01, 9.29837581e-03, 0., 0.,
          3.19283782e-03, 4.20081526e-01, 2.48439446e-01, 1.34774014e-01,
          0., 0., 0., 4.20081526e-01, 4.20081526e-01, 1.80878844e-02,
          4.22458193e-04, 0., 3.14796402e-04, 3.84084225e-01,
          1.48760334e-01, 1.26940519e-01, 2.95720738e-03, 0., 0.,
          1.54423028e-01, 4.20081526e-01, 1.66088343e-01, 0., 0., 0.,
          5.15320748e-02, 3.99049312e-01, 3.99049312e-01, 1.25076622e-03,
          0., 0., 2.02133972e-03, 3.99049312e-01, 9.33678746e-02,
          5.87864954e-04, 0., 0., 3.17556337e-02, 3.99049312e-01,
          3.99049312e-01, 1.22631369e-02, 0., 0., 2.11700816e-02,
          3.99049312e-01, 3.70147437e-01, 4.56944630e-02, 0., 0.,
          1.25783772e-04, 3.70147437e-01, 3.70147437e-01, 3.70147437e-01,
          1.42301212e-03, 0., 0., 2.48036847e-01, 3.70147437e-01,
          3.74096520e-02, 0., 0., 1.20129751e-03, 2.66619474e-01,
          3.70147437e-01, 1.44529372e-01, 1.32419082e-04, 0., 0.,
          1.31374761e-01, 4.05460745e-01, 4.05460745e-01, 2.99750194e-02,
          0., 0., 4.63574640e-02, 7.25538880e-02, 4.05460745e-01,
          4.65739891e-02, 2.16991059e-04, 0., 6.33745454e-03,
          4.05460745e-01, 4.05460745e-01, 6.35760697e-03, 0., 0.,
          4.16635685e-02, 9.02587995e-02, 3.91543835e-01, 1.43032558e-02,
          0., 0., 1.55218923e-03, 0., 1.78737903e-03, 1.53879255e-01,
          1.64434001e-01, 3.09144288e-01, 2.40192022e-02, 0.,
          1.07242749e-03, 2.93136425e-02, 7.94384181e-02, 5.24768114e-01,
          1.79439008e-01, 0., 1.36101842e-01, 3.53072017e-01,
          1.33713737e-01, 2.41791993e-01, 3.57414247e-03, 0.,
          5.46042174e-02, 6.72116876e-02, 1.20944902e-01, 5.24768114e-01,
          1.26859218e-01, 2.33981386e-02, 5.19880094e-03, 0.,
          9.13093332e-03, 4.28359330e-01, 2.57482052e-01, 1.07836239e-01,
          3.63916047e-02, 1.10037001e-02, 1.30326776e-02, 2.90055633e-01,
          4.28359330e-01, 1.92926498e-03, 3.11928079e-03, 0.,
          2.48119961e-02, 4.28359330e-01, 2.31415033e-01, 7.02672778e-03,
          2.18349639e-02, 3.62796187e-02, 7.60139972e-02, 4.28359330e-01,
          1.88734189e-01, 1.17818467e-01, 1.22639704e-02, 1.00800591e-02,
          1.51324393e-02, 1.84400007e-01, 4.40587342e-01, 4.40587342e-01,
          1.14146136e-01, 1.44000829e-03, 4.47143707e-03, 1.47090033e-01,
          4.40587342e-01, 2.37589795e-02, 1.36928018e-02, 4.04759496e-02,
          9.92310494e-02, 1.98681325e-01, 1.58669919e-01, 3.18360835e-01,
          2.63900369e-01, 1.10193333e-02, 3.55805308e-02, 1.21512055e-01,
          2.57211745e-01, 3.83245438e-01, 2.52134055e-01, 0., 0.,
          6.03763200e-03, 1.90061256e-01, 3.83245438e-01, 3.83245438e-01,
          0., 0., 0., 4.83821109e-02, 2.18501285e-01, 3.83245438e-01, 0.,
          0., 6.83434401e-03, 3.61526161e-02, 3.32591563e-01,
          3.83245438e-01, 0., 0., 0., 3.21983738e-04, 3.58347267e-01,
          3.58347267e-01, 0., 0., 0., 1.26254372e-02, 3.58347267e-01,
          3.58347267e-01, 0., 0., 0., 2.24007387e-02, 3.58347267e-01,
          3.58347267e-01, 0., 0., 0., 1.13401925e-02, 3.58347267e-01,
          2.93361306e-01, 0., 0., 0., 1.03341907e-01 ]
      - [ 1.57503426e-01, 2.99371183e-01, 3.19978967e-02, 5.64472843e-03,
          2.85630405e-01, 1.14676706e-01, 6.17802292e-02, 3.67423519e-02,
          2.97321938e-03, 4.98109423e-02, 4.02655452e-01, 1.80622891e-01,
          7.89248645e-02, 4.02655452e-01, 1.14316575e-01, 8.85765627e-03,
          4.02655452e-01, 9.48188379e-02, 2.63157263e-02, 9.48102474e-02,
          3.60980965e-02, 1.12734973e-01, 4.02655452e-01, 2.11869434e-01,
          2.78734230e-02, 2.81722873e-01, 9.41242371e-03, 3.90490405e-02,
          4.11930710e-01, 8.43456611e-02, 1.20977260e-01, 4.11930710e-01,
          4.15495336e-02, 7.47793214e-03, 3.17443758e-02, 1.50776356e-02,
          2.58646514e-02, 3.58179092e-01, 8.80149677e-02, 1.06421120e-01,
          4.11930710e-01, 7.47618005e-02, 1.74593240e-01, 4.11930710e-01,
          1.47397861e-01, 1.45456670e-02, 6.66234940e-02, 1.14129242e-02,
          1.64720029e-01, 3.63157362e-01, 1.37659654e-01, 1.53847504e-02,
          2.32266840e-02, 3.10494769e-02, 1.01441711e-01, 2.59524494e-01,
          2.09296346e-01, 1.42356470e-01, 1.15365803e-01, 1.81819469e-01,
          1.74887165e-01, 3.63157362e-01, 2.07857937e-01, 4.98985052e-02,
          2.03373641e-01, 3.76810320e-02, 9.27885324e-02, 2.55336493e-01,
          3.63157362e-01, 3.08181226e-01, 2.63662666e-01, 8.63510072e-02,
          5.05572557e-02, 2.65175980e-02, 6.34821877e-02, 1.65852681e-01,
          2.78448343e-01, 7.62143880e-02, 2.91546136e-02, 8.78381077e-03,
          8.63618851e-02, 3.69955063e-01, 3.69955063e-01, 2.33338866e-02,
          5.06190844e-02, 8.20952207e-02, 1.38036907e-01, 2.59665877e-01,
          3.69955063e-01, 8.69714543e-02, 1.39435604e-01, 1.82544850e-02,
          1.25488624e-01, 3.69955063e-01, 3.69955063e-01, 2.14551523e-01,
          9.30331275e-03, 8.78825039e-03, 7.30449334e-02, 3.22023958e-01,
          3.22023958e-01, 3.91016081e-02, 6.65109903e-02, 2.99518500e-02,
          4.97647598e-02, 3.22023958e-01, 3.22023958e-01, 1.07106850e-01,
          1.28809348e-01, 2.26145126e-02, 9.44732428e-02, 2.37547591e-01,
          3.22023958e-01, 1.42472357e-01, 3.22023958e-01, 5.55181615e-02,
          2.71722171e-02, 1.85237736e-01, 3.22023958e-01, 3.22023958e-01,
          3.97133045e-02, 3.95928293e-01, 7.84260482e-02, 2.05681622e-02,
          2.93798417e-01, 2.65985560e-02, 9.52697732e-03, 8.94641802e-02,
          2.41206195e-02, 1.44725189e-01, 3.95928293e-01, 1.07358724e-01,
          7.92827904e-02, 3.95928293e-01, 7.40986690e-02, 3.71794850e-02,
          3.95928293e-01, 1.27837826e-02, 2.91137993e-02, 1.22334436e-01,
          7.97689185e-02, 1.60162300e-01, 3.95928293e-01, 1.21550478e-01,
          1.39059993e-02, 2.84426928e-01, 6.65930957e-02, 9.67423841e-02,
          3.62811178e-01, 1.07072219e-01, 9.45294052e-02, 3.62811178e-01,
          1.22118130e-01, 9.01773199e-03, 4.64261733e-02, 3.43748443e-02,
          4.02978845e-02, 3.36964101e-01, 1.42489776e-01, 7.90502802e-02,
          3.62811178e-01, 2.11139411e-01, 8.62426311e-02, 3.62811178e-01,
          3.62811178e-01, 1.67332422e-02, 3.12971398e-02, 9.79799777e-02,
          1.28962517e-01, 3.41145605e-01, 1.20237619e-01, 2.99501512e-02,
          1.85896829e-01, 4.70569544e-02, 2.41986960e-01, 1.70577943e-01,
          1.48350507e-01, 1.21849500e-01, 2.03618541e-01, 1.34452716e-01,
          1.22160859e-01, 3.41145605e-01, 3.41145605e-01, 1.22640371e-01,
          4.50064875e-02, 7.27773160e-02, 2.71218568e-01, 1.79053709e-01,
          3.19652885e-01, 3.24519396e-01, 9.35666636e-02, 1.88398972e-01,
          1.02359965e-01, 8.99950564e-02, 4.98723648e-02, 1.20918006e-01,
          3.39122981e-01, 1.32197946e-01, 9.77613628e-02, 1.37381153e-02,
          7.24046305e-02, 1.61754042e-01, 3.51254076e-01, 2.56831706e-01,
          8.64945725e-02, 3.86119634e-02, 5.97074069e-02, 3.51254076e-01,
          3.51254076e-01, 1.18338510e-01, 1.53356753e-02, 1.99856218e-02,
          2.47154921e-01, 3.51254076e-01, 3.51254076e-01, 1.26692474e-01,
          1.30334109e-01, 1.36698429e-02, 8.95540714e-02, 7.37017915e-02,
          2.78370738e-01, 2.30475932e-01, 2.78370738e-01, 7.90790394e-02,
          4.61571254e-02, 9.14492011e-02, 2.78370738e-01, 2.78370738e-01,
          7.19175860e-02, 8.83596092e-02, 2.78370738e-01, 2.48820737e-01,
          2.78370738e-01, 1.59164548e-01, 2.78370738e-01, 1.40428871e-01,
          2.37657622e-01, 1.51287749e-01, 2.78370738e-01, 2.78370738e-01,
          2.28081141e-02, 3.87287617e-01, 5.98391443e-02, 4.44400199e-02,
          3.60313714e-01, 1.17027536e-02, 4.86376099e-02, 9.75589678e-02,
          6.57329410e-02, 8.83479118e-02, 3.87287617e-01, 7.96851292e-02,
          1.31047738e-03, 3.87287617e-01, 8.61459598e-02, 9.36843753e-02,
          3.87287617e-01, 1.53544685e-02, 5.83244413e-02, 1.63796380e-01,
          8.24947432e-02, 1.50925159e-01, 3.87287617e-01, 5.93655296e-02,
          1.91764042e-01, 1.90149859e-01, 1.41991660e-01, 3.98027375e-02,
          2.72604972e-01, 1.47077262e-01, 2.35063553e-01, 2.72604972e-01,
          2.72604972e-01, 2.65789852e-02, 9.16422717e-03, 1.54849052e-01,
          2.56180733e-01, 2.72604972e-01, 2.57896096e-01, 5.76658547e-02,
          2.72604972e-01, 1.15036316e-01, 2.72604972e-01, 2.69786000e-01,
          2.72604972e-01, 9.28838253e-02, 9.26085114e-02, 2.05095083e-01,
          1.00880206e-01, 3.10746193e-01, 3.15962464e-01, 9.36966315e-02,
          4.51669982e-03, 7.25162923e-02, 4.42606509e-02, 2.35793859e-01,
          3.15962464e-01, 2.33566731e-01, 9.38340500e-02, 7.03209192e-02,
          1.85649320e-01, 2.00008452e-01, 3.15962464e-01, 1.51362225e-01,
          7.37260804e-02, 1.28506139e-01, 1.13523431e-01, 2.99752325e-01,
          3.15962464e-01, 3.15962464e-01, 1.34799764e-01, 1.03843838e-01,
          6.23400137e-03, 4.36915159e-02, 1.05794288e-01, 3.14111918e-01,
          3.14111918e-01, 6.09611198e-02, 1.10197449e-02, 5.06819636e-02,
          1.19036630e-01, 3.14111918e-01, 3.14111918e-01, 1.15991533e-01,
          9.82627645e-03, 7.20313638e-02, 2.76843339e-01, 3.14111918e-01,
          3.14111918e-01, 6.85453266e-02, 7.36553073e-02, 8.57297108e-02,
          4.84105423e-02, 3.14111918e-01, 3.14111918e-01, 2.42108583e-01,
          8.06026533e-02, 2.75246590e-01, 2.75815576e-01, 1.93369031e-01,
          1.82010308e-01, 8.89810473e-02, 2.18849063e-01, 3.01606059e-01,
          1.71896562e-01, 7.44844452e-02, 1.03580192e-01, 2.01866761e-01,
          2.86071181e-01, 3.01606059e-01, 7.74661824e-02, 8.91382694e-02,
          1.72148556e-01, 1.68964311e-01, 3.01606059e-01, 3.01606059e-01,
          6.95464760e-02, 2.05137376e-02, 1.08125143e-01, 3.01606059e-01,
          1.06953653e-02, 3.50402206e-01, 6.18576184e-02, 1.32216692e-01,
          3.21128875e-01, 7.06210826e-03, 1.83513556e-02, 1.39581069e-01,
          6.71600252e-02, 1.73020989e-01, 3.50402206e-01, 3.24934460e-02,
          5.40987402e-02, 3.50402206e-01, 6.36629313e-02, 2.10152209e-01,
          3.50402206e-01, 9.29103605e-03, 4.54875678e-02, 2.20157251e-01,
          2.10926943e-02, 3.15690368e-01, 3.50402206e-01, 2.82690264e-02,
          1.15249619e-01, 2.80250758e-01, 2.50044316e-01, 6.27199262e-02,
          2.80250758e-01, 4.04196084e-02, 1.32222548e-01, 2.80250758e-01,
          2.25319088e-01, 1.10563844e-01, 1.76121712e-01, 3.80984284e-02,
          2.61489004e-01, 2.80250758e-01, 7.47420862e-02, 1.50857195e-01,
          2.80250758e-01, 2.42634416e-02, 2.40615800e-01, 2.80250758e-01,
          1.91111222e-01, 2.46969774e-01, 2.80250758e-01, 1.93544589e-02,
          1.49290934e-01, 1.70555264e-01, 1.44868404e-01, 1.31092086e-01,
          1.13044225e-01, 4.56730835e-02, 1.85540840e-01, 1.63035974e-01,
          2.45920375e-01, 2.88034230e-01, 2.29442969e-01, 1.17444836e-01,
          1.57105967e-01, 2.92734951e-01, 2.85502225e-01, 1.99092284e-01,
          2.43038997e-01, 2.05582269e-02, 1.64978847e-01, 2.92734951e-01,
          2.04691529e-01, 2.92734951e-01, 2.92734951e-01, 6.75501749e-02,
          2.83129327e-02, 4.70159911e-02, 1.85685366e-01, 3.24140012e-01,
          2.80531615e-01, 5.24414293e-02, 1.11966945e-01, 1.66232526e-01,
          9.03449580e-02, 3.24140012e-01, 1.85477063e-01, 6.68673739e-02,
          7.71488696e-02, 1.55023158e-01, 1.87185213e-01, 3.24140012e-01,
          3.24140012e-01, 3.35324109e-02, 1.39328361e-01, 3.24140012e-01,
          3.24140012e-01, 2.64223754e-01, 6.93189949e-02, 6.15571998e-03,
          2.84214199e-01, 3.33530515e-01, 4.78544049e-02, 5.53946756e-02,
          4.98959832e-02, 4.06041406e-02, 2.99250364e-01, 3.33530515e-01,
          1.39979586e-01, 2.92559862e-02, 1.23229489e-01, 1.52404547e-01,
          1.92922637e-01, 3.33530515e-01, 3.33530515e-01, 5.40375561e-02,
          7.68946833e-04, 1.45610946e-03, 1.79768324e-01, 3.33530515e-01,
          3.33530515e-01, 1.00506350e-01, 4.16959263e-02, 7.88979530e-02,
          1.02986798e-01, 2.87912399e-01, 6.17313795e-02, 2.15958521e-01,
          2.87912399e-01, 2.93725561e-02, 6.03829511e-02, 2.71857560e-01,
          1.25175687e-02, 2.30683923e-01, 2.87912399e-01, 4.43124548e-02,
          1.95912153e-01, 2.85692811e-01, 2.43938826e-02, 2.87912399e-01,
          2.87912399e-01, 1.01952188e-01, 1.79344773e-01, 2.87912399e-01,
          3.48133855e-02, 2.16795847e-01, 2.87912399e-01, 1.03411928e-01,
          1.74691588e-01, 2.88448662e-01, 1.99519824e-02, 1.22199513e-01,
          2.73384392e-01, 2.53539868e-02, 1.95758626e-01, 2.88448662e-01,
          6.03771582e-02, 1.90909028e-01, 2.88448662e-01, 6.20521680e-02,
          2.88448662e-01, 2.88448662e-01, 4.04208302e-02, 1.00097902e-01,
          2.28473336e-01, 1.15890868e-01, 2.88448662e-01, 2.88448662e-01,
          2.06640400e-02, 1.82314739e-01, 2.88448662e-01, 1.30588025e-01,
          1.72840729e-01, 2.77043819e-01, 1.19994611e-01, 1.66935906e-01,
          2.47594953e-01, 2.70296670e-02, 1.07010044e-01, 1.91231728e-01,
          1.29296109e-01, 3.43455076e-01, 3.43455076e-01, 6.64257072e-03,
          2.26825312e-01, 1.53993890e-01, 1.13527207e-02, 1.62061408e-01,
          3.43455076e-01, 4.79309708e-02, 8.02177861e-02, 1.01925716e-01,
          9.81000066e-02, 3.43455076e-01, 3.43455076e-01, 2.73915790e-02,
          1.19289234e-01, 1.24014422e-01, 1.41299456e-01, 2.97144115e-01,
          2.97144115e-01, 1.48360841e-02, 1.58376753e-01, 2.97144115e-01,
          2.97144115e-01, 7.16553405e-02, 3.71995755e-02, 2.55441181e-02,
          7.32233375e-02, 2.97144115e-01, 2.45930135e-01, 2.62684137e-01,
          2.97144115e-01, 2.02149451e-02, 1.48582667e-01, 2.97144115e-01,
          2.97144115e-01, 6.71928599e-02, 1.09811604e-01, 1.86332017e-01,
          6.18232973e-02, 3.43397796e-01, 3.43397796e-01, 3.46687436e-02,
          2.41551059e-03, 6.91016344e-03, 5.92949428e-02, 3.43397796e-01,
          3.43397796e-01, 6.38106018e-02, 1.54619920e-03, 3.01615018e-02,
          4.80658971e-02, 3.43397796e-01, 3.43397796e-01, 6.07933663e-02,
          5.88805340e-02, 1.39699593e-01, 1.17363734e-02, 3.43397796e-01,
          3.43397796e-01, 9.83698666e-02, 1.63650978e-02, 2.33222637e-02 ]
      - [ 8.10073782e-03, 1.00899689e-01, 6.13396391e-02, 1.06320865e-01,
          3.99418265e-01, 4.82151099e-02, 0., 3.99418265e-01,
          3.54720473e-01, 4.38922681e-02, 8.86382014e-02, 1.33394741e-03,
          1.38415815e-02, 9.61809754e-02, 5.69438525e-02, 1.11506037e-01,
          3.99418265e-01, 6.19698912e-02, 2.81482898e-02, 3.99418265e-01,
          3.64132911e-01, 2.33131237e-02, 1.77797571e-01, 1.10058524e-02,
          0., 3.72662753e-01, 3.37588072e-01, 0., 0., 0., 0.,
          3.72662753e-01, 2.21274287e-01, 5.12526371e-04, 0., 0.,
          6.82315277e-03, 3.72662753e-01, 3.72662753e-01, 0., 0.,
          1.00556179e-04, 0., 3.72662753e-01, 3.72662753e-01,
          6.05346216e-03, 0., 0., 0., 2.55299032e-01, 2.07747117e-01,
          3.74295078e-02, 2.53610536e-02, 0., 0., 2.83920183e-03,
          8.54175091e-02, 9.77062434e-02, 3.85513633e-01, 4.73927148e-02,
          0., 3.85513633e-01, 3.85513633e-01, 1.87982738e-01,
          3.52050774e-02, 0., 0., 3.91005874e-02, 2.92338282e-01,
          3.85513633e-01, 3.85513633e-01, 0., 1.09846599e-03,
          5.71291987e-03, 2.31646784e-02, 7.67812580e-02, 3.38186532e-01,
          1.46296620e-01, 2.05729902e-01, 1.23350434e-01, 4.56669927e-02,
          8.88577849e-02, 3.38186532e-01, 3.38186532e-01, 3.40711907e-03,
          4.98201884e-02, 7.37593696e-02, 3.36346895e-01, 3.38186532e-01,
          2.32717264e-02, 9.35382769e-02, 3.38186532e-01, 7.93825388e-02,
          2.64796197e-01, 3.38186532e-01, 9.07605365e-02, 1.40950382e-01,
          5.69768287e-02, 9.62921232e-03, 9.94680077e-03, 1.96803242e-01,
          2.57725239e-01, 4.81390879e-02, 6.91853929e-03, 9.49891284e-03,
          5.06198630e-02, 4.55290705e-01, 2.97073156e-01, 5.24181798e-02,
          2.67243385e-01, 1.60486866e-02, 3.90443243e-02, 3.68015170e-01,
          1.13435715e-01, 4.76680025e-02, 2.75296867e-02, 6.55384094e-04,
          4.39057313e-02, 4.55290705e-01, 3.60463738e-01, 7.17145428e-02,
          7.45670572e-02, 2.22922042e-02, 8.17949846e-02, 3.86082381e-01,
          1.57371193e-01, 1.93492696e-01, 3.86082381e-01, 1.08396389e-01,
          1.15483915e-02, 1.72612101e-01, 6.44500628e-02, 7.79668242e-02,
          6.35938793e-02, 8.01040307e-02, 2.06598416e-01, 3.86082381e-01,
          1.53286248e-01, 2.05161870e-01, 3.86082381e-01, 3.43454808e-01,
          7.25114644e-02, 1.45033181e-01, 7.00887591e-02, 3.35892253e-02,
          3.69555473e-01, 1.96784943e-01, 0., 0., 1.21106743e-03, 0.,
          3.69555473e-01, 3.69555473e-01, 3.95751791e-03, 0., 0.,
          3.52999195e-02, 3.69555473e-01, 3.60929400e-01, 3.52925807e-02,
          0., 1.71364320e-03, 0., 3.69555473e-01, 3.69555473e-01,
          6.51614070e-02, 0., 0., 0., 3.03480268e-01, 4.15284634e-01,
          3.86208184e-02, 8.56215786e-03, 0., 0., 5.12391105e-02,
          1.35159314e-01, 9.97216329e-02, 1.30875140e-01, 1.83562543e-02,
          0., 4.15284634e-01, 4.15284634e-01, 3.89602706e-02,
          3.17388494e-03, 0., 0., 3.72205883e-01, 4.15284634e-01,
          6.74394444e-02, 1.35972619e-01, 3.05937566e-02, 3.01280711e-02,
          5.93986101e-02, 3.03914528e-02, 1.88120157e-01, 3.69778395e-01,
          8.65081251e-02, 2.06408486e-01, 3.69778395e-01, 1.38274888e-02,
          1.05075806e-01, 2.92463094e-01, 1.04848720e-01, 3.91153321e-02,
          2.08850160e-01, 1.71693668e-01, 1.42858744e-01, 3.69778395e-01,
          1.03755370e-01, 3.09411615e-01, 3.69778395e-01, 4.35812585e-02,
          6.86013550e-02, 1.82211637e-01, 9.70641375e-02, 8.97251293e-02,
          2.96761841e-01, 2.87861563e-03, 1.60913244e-02, 2.65530378e-01,
          1.33137405e-01, 8.33215863e-02, 3.00220065e-02, 0.,
          1.94841940e-02, 3.84408832e-01, 3.84408832e-01, 1.47443801e-01,
          3.69317591e-01, 3.50373285e-03, 3.50373285e-03, 1.55677184e-01,
          1.49119347e-01, 8.01312774e-02, 3.44317630e-02, 0., 0.,
          3.84408832e-01, 3.84408832e-01, 1.19315898e-02, 2.75013037e-02,
          1.08526647e-01, 1.52410373e-01, 3.92543197e-01, 4.55266200e-02,
          1.95383336e-02, 2.79892176e-01, 3.92543197e-01, 9.74751860e-02,
          1.87555075e-01, 9.52968281e-03, 1.11552775e-02, 5.46010630e-03,
          4.06431928e-02, 2.36354321e-02, 3.92543197e-01, 1.85419574e-01,
          7.52362460e-02, 1.16809644e-01, 3.92543197e-01, 5.09315655e-02,
          3.92543197e-01, 7.42606521e-02, 4.82736295e-03, 2.40622163e-01,
          4.16161865e-01, 1.28124371e-01, 5.92411030e-03, 3.14571487e-04,
          0., 1.84231743e-01, 4.16161865e-01, 2.07440078e-01, 0., 0.,
          1.06285721e-01, 1.70720637e-01, 4.16161865e-01, 9.55571234e-02,
          2.60237418e-02, 8.06690380e-03, 6.13952614e-02, 2.68761963e-01,
          4.16161865e-01, 1.58277959e-01, 1.90761369e-02, 0., 0.,
          2.34511539e-01, 3.79090756e-01, 3.47707346e-02, 0., 0., 0.,
          2.93343157e-01, 3.79090756e-01, 5.18296994e-02, 2.14287266e-02,
          2.09047250e-03, 2.09047203e-03, 3.59257787e-01, 3.79090756e-01,
          3.28549594e-02, 7.25714816e-03, 0., 0., 3.79090756e-01,
          3.79090756e-01, 4.52464931e-02, 3.01609212e-03, 0.,
          1.88121069e-02, 1.56223193e-01, 3.61252517e-01, 1.33250147e-01,
          7.60442093e-02, 5.55087626e-03, 7.24053085e-02, 3.95663708e-01,
          7.85005242e-02, 5.98371141e-02, 3.69455703e-02, 3.65646672e-03,
          2.75997054e-02, 3.95663708e-01, 3.95663708e-01, 9.34001207e-02,
          1.05387866e-02, 0., 7.72448033e-02, 3.95663708e-01,
          3.95663708e-01, 4.49500568e-02, 2.27820259e-02, 0.,
          6.00915588e-02, 3.99281800e-01, 7.17619294e-03, 3.94704677e-02,
          1.53584570e-01, 3.48283462e-02, 2.38608848e-02, 4.14153002e-02,
          3.50927515e-03, 7.72155076e-02, 3.99281800e-01, 1.60257116e-01,
          3.58437970e-02, 3.99281800e-01, 1.41738757e-01, 1.98393077e-01,
          2.64462233e-01, 0., 5.26391296e-03, 4.15668376e-02,
          4.96009514e-02, 3.99281800e-01, 3.99281800e-01, 5.26391296e-03,
          8.13694578e-03, 1.48678641e-03, 1.36039697e-03, 8.25583193e-05,
          3.61634403e-01, 3.27655941e-01, 1.08764052e-01, 1.04957782e-01,
          4.81366962e-02, 4.89678513e-03, 3.35280418e-01, 2.39276826e-01,
          5.22627728e-03, 8.92071927e-04, 1.18697993e-03, 3.76434289e-02,
          3.61634403e-01, 3.61634403e-01, 4.27397415e-02, 7.68481717e-02,
          9.46972743e-02, 2.07243547e-01, 3.61634403e-01, 3.31498146e-01,
          3.16953778e-01, 3.20452988e-01, 1.84052527e-01, 2.23120488e-02,
          6.66510165e-02, 6.85189441e-02, 1.61186710e-01, 2.97774762e-01,
          3.20452988e-01, 5.51434606e-02, 1.30576238e-01, 3.40515748e-02,
          1.02696911e-01, 2.31554121e-01, 3.20452988e-01, 2.95726597e-01,
          2.06420124e-01, 1.13073386e-01, 5.60842417e-02, 1.82010040e-01,
          3.20452988e-01, 2.14709848e-01, 1.11793719e-01, 6.54363483e-02,
          3.58251296e-03, 3.02755237e-01, 3.98279756e-01, 1.35134654e-02,
          4.06526439e-02, 1.58828385e-02, 0., 3.98279756e-01,
          3.98279756e-01, 1.12248454e-02, 4.12372453e-03, 2.26897700e-03,
          1.34937502e-02, 2.80792326e-01, 1.54817671e-01, 5.76524585e-02,
          3.99928875e-02, 3.05217877e-02, 5.93757024e-03, 3.98279756e-01,
          3.98279756e-01, 7.22199399e-03, 4.70299181e-03, 4.36025579e-03,
          2.04220065e-03, 3.52878988e-01, 3.52878988e-01, 4.11999272e-03,
          0., 0., 5.71561791e-03, 3.52878988e-01, 3.52878988e-01,
          1.23902252e-02, 4.57454333e-03, 0., 0., 3.52878988e-01,
          3.52878988e-01, 6.58626959e-04, 0., 0., 0., 3.52878988e-01,
          3.52878988e-01, 7.54324766e-03, 2.59852415e-04, 0.,
          3.54639837e-03, 2.69796431e-01, 3.26598763e-01, 1.51262030e-01,
          1.58373252e-01, 0., 0., 1.21999718e-02, 6.40014261e-02,
          3.58907670e-01, 3.58907670e-01, 0., 2.56554619e-03,
          3.58907670e-01, 3.58907670e-01, 1.02386698e-01, 1.18523821e-01,
          9.68440622e-03, 2.50374116e-02, 9.67652202e-02, 2.23550156e-01,
          1.60793960e-01, 3.58907670e-01, 1.01058245e-01, 6.27271074e-04,
          0., 4.08197707e-03, 7.58475214e-02, 4.20762211e-01,
          1.06592052e-01, 0., 1.60862748e-02, 8.71721953e-02,
          3.21403414e-01, 4.20762211e-01, 6.42685294e-02, 0., 0.,
          8.56805872e-03, 1.41890645e-01, 4.20762211e-01, 5.40884882e-02,
          0., 7.20735863e-02, 8.12095329e-02, 3.46265912e-01,
          4.20762211e-01, 1.97890438e-02, 0., 1.54323027e-01,
          3.54275942e-01, 2.76253790e-01, 1.51777118e-01, 1.34023568e-02,
          4.57831100e-02, 3.00283045e-01, 3.16396505e-01, 8.33989456e-02,
          6.15422102e-03, 2.06564628e-02, 0., 3.54275942e-01,
          2.79101282e-01, 2.52102971e-01, 3.37715089e-01, 0.,
          5.11321016e-02, 3.54275942e-01, 1.94704086e-01, 2.39844285e-02,
          0., 1.34628527e-02, 1.43794358e-01, 4.12276566e-01,
          1.49326459e-01, 8.12729001e-02, 1.26845995e-02, 5.45707904e-02,
          5.62891439e-02, 4.12276566e-01, 4.12276566e-01, 4.80481572e-02,
          1.81208551e-03, 1.64707080e-02, 1.47842363e-01, 4.12276566e-01,
          5.62100708e-02, 1.21434964e-02, 0., 4.77407575e-02,
          5.18218018e-02, 2.27848306e-01, 4.12276566e-01, 7.10900426e-02,
          0., 2.12782398e-02, 0., 2.83635527e-01, 3.94759238e-01,
          1.02198990e-02, 0., 0., 0., 3.94759238e-01, 3.94759238e-01,
          5.77476854e-03, 0., 0., 0., 1.24706849e-01, 3.46406072e-01,
          2.38791797e-02, 0., 0., 0., 3.94759238e-01, 3.94759238e-01,
          1.32658528e-02, 0., 0., 1.84620731e-02, 4.19573605e-01,
          4.19573605e-01, 1.13862380e-02, 1.29467128e-02, 8.00553244e-03,
          1.25211567e-01, 2.50172168e-01, 1.06035888e-01, 1.52447252e-02,
          8.47117081e-02, 1.35949448e-01, 3.07299998e-02, 4.19573605e-01,
          3.36013228e-01, 1.73178175e-03, 1.84465185e-04, 3.38334241e-03,
          2.10698649e-01, 4.19573605e-01, 5.71720153e-02, 1.47898239e-03,
          1.15505299e-02, 1.17806129e-01 ]
      - [ 3.60970199e-01, 5.14952838e-02, 1.22565753e-03, 0., 0.,
          1.33015960e-01, 3.60970199e-01, 2.61055589e-01, 3.40245627e-02,
          5.75962011e-03, 3.19348881e-03, 2.50592679e-01, 3.60970199e-01,
          1.45597667e-01, 7.17063099e-02, 3.61272618e-02, 0.,
          7.13056475e-02, 3.60970199e-01, 3.60970199e-01, 3.60970199e-01,
          8.55351388e-02, 0., 1.48512378e-01, 3.05931449e-01,
          7.61449635e-02, 2.18297523e-02, 2.01886520e-02, 3.84967215e-02,
          3.05931449e-01, 1.94474772e-01, 6.36342913e-03, 6.92123920e-03,
          4.12225686e-02, 2.20343053e-01, 3.05931449e-01, 3.05931449e-01,
          1.52968720e-01, 2.22969055e-01, 2.08716199e-01, 6.91035241e-02,
          2.37442493e-01, 2.48856887e-01, 1.22673977e-02, 7.44967088e-02,
          3.05931449e-01, 3.05931449e-01, 3.05931449e-01, 1.91372093e-02,
          0., 0., 2.39543077e-02, 3.05758148e-01, 3.39337379e-01,
          6.85604811e-02, 1.08171189e-02, 0., 2.97933817e-02,
          2.81639606e-01, 3.39337379e-01, 1.27712429e-01, 0.,
          1.05357950e-03, 2.06710398e-01, 3.39337379e-01, 3.39337379e-01,
          1.50243893e-01, 0., 0., 2.11287037e-01, 3.39337379e-01,
          3.39337379e-01, 1.26331195e-01, 5.13738580e-02, 7.44434400e-03,
          7.14352503e-02, 1.72847152e-01, 3.18606585e-01, 4.14637811e-02,
          8.79268348e-02, 1.50163293e-01, 3.18606585e-01, 1.49593472e-01,
          3.78874615e-02, 1.98570848e-01, 0., 8.49837903e-04,
          3.18606585e-01, 3.18606585e-01, 3.18606585e-01, 1.87484473e-01,
          0., 2.65922248e-02, 3.18606585e-01, 3.18606585e-01,
          3.18606585e-01, 0., 3.01320814e-02, 1.85005486e-01,
          3.71693105e-01, 6.58579022e-02, 0., 4.37399402e-04,
          1.29162315e-02, 3.71693105e-01, 3.71693105e-01, 9.14594308e-02,
          4.37399402e-04, 5.49806841e-02, 0., 3.49823534e-02,
          3.71693105e-01, 2.40642637e-01, 1.68576226e-01, 3.95073108e-02,
          0., 1.09516807e-01, 3.71693105e-01, 3.71693105e-01,
          1.23366624e-01, 4.28889543e-02, 5.03252447e-02, 1.49286866e-01,
          5.49672730e-02, 0., 5.49335545e-03, 3.88530374e-01,
          1.72347575e-01, 1.24090113e-01, 2.59383805e-02, 0.,
          9.57732722e-02, 5.64384274e-02, 4.22460884e-01, 3.95156950e-01,
          8.66203830e-02, 0., 2.27439823e-03, 4.22460884e-01,
          4.22460884e-01, 2.18420431e-01, 1.44345434e-02, 0.,
          9.99418870e-02, 3.04907501e-01, 3.34349424e-02, 3.30444314e-02,
          2.95843016e-02, 3.62964021e-03, 1.66824713e-01, 3.58525962e-01,
          1.64920383e-03, 1.07937986e-02, 5.30138537e-02, 3.61194685e-02,
          3.58525962e-01, 3.58525962e-01, 3.58525962e-01, 4.39213626e-02,
          1.10011455e-02, 1.15772724e-04, 2.96546310e-01, 3.58525962e-01,
          5.95323518e-02, 3.65773216e-02, 4.64128740e-02, 3.87884350e-03,
          3.58525962e-01, 2.31953889e-01, 0., 2.40522611e-04,
          2.29926165e-02, 5.53659536e-02, 3.76225471e-01, 2.83903569e-01,
          0., 0., 1.97346397e-02, 7.73279816e-02, 3.76225471e-01,
          3.76225471e-01, 0., 9.85191017e-03, 3.97461802e-02,
          1.06441807e-02, 3.76225471e-01, 3.76225471e-01, 0.,
          5.93438186e-03, 2.34999079e-02, 1.49394237e-02, 3.76225471e-01,
          2.31325984e-01, 0., 0., 1.82760470e-02, 4.79535647e-02,
          3.71890783e-01, 1.79197982e-01, 0., 0., 4.02019806e-02,
          4.47851196e-02, 3.74861032e-01, 3.74861032e-01, 0.,
          7.25202216e-03, 1.49845649e-02, 3.55894454e-02, 3.74861032e-01,
          3.38280112e-01, 0., 2.69841426e-03, 2.45063771e-02,
          2.95643419e-01, 3.74861032e-01, 8.89365226e-02, 0., 0.,
          7.48543665e-02, 6.11337833e-02, 4.27576691e-01, 4.46740873e-02,
          0., 7.30271800e-04, 5.61517738e-02, 7.92026967e-02,
          3.53311837e-01, 1.01988219e-01, 0., 0., 1.46100670e-02,
          4.27576691e-01, 4.27576691e-01, 6.46994635e-02, 0., 0.,
          2.83678039e-03, 3.10049266e-01, 4.27576691e-01, 7.12240115e-02,
          3.74933004e-01, 9.42479149e-02, 1.15780737e-02, 0.,
          1.60120521e-03, 2.44468480e-01, 4.27810192e-01, 1.92624196e-01,
          8.82678374e-04, 0., 8.25605728e-03, 1.18025519e-01,
          4.20927644e-01, 3.02701406e-02, 1.46350532e-04, 0.,
          3.72324535e-03, 5.47099747e-02, 4.27810192e-01, 4.27810192e-01,
          4.85218596e-03, 0., 0., 2.86130577e-01, 3.20366889e-01,
          2.29369387e-01, 4.94886637e-02, 0., 8.08334053e-02,
          2.94599742e-01, 9.62180719e-02, 2.42766753e-01, 2.33824879e-01,
          1.27635163e-03, 3.20366889e-01, 1.54593764e-02, 3.20366889e-01,
          3.20366889e-01, 1.49220496e-01, 0., 2.86564999e-03,
          1.14158299e-02, 7.01361746e-02, 3.20366889e-01, 3.20366889e-01,
          1.82335934e-04, 1.74157582e-02, 1.82745293e-01, 0.,
          1.38682574e-01, 2.58739352e-01, 1.16907135e-02, 3.48661244e-01,
          3.04998159e-01, 0., 1.01771407e-01, 2.02999577e-01,
          1.97833069e-02, 3.48661244e-01, 3.73109686e-03, 0.,
          3.48661244e-01, 3.48661244e-01, 4.35998058e-03, 2.98801009e-02,
          1.37269236e-02, 0., 3.48661244e-01, 3.48661244e-01,
          9.69156623e-03, 3.50347944e-02, 2.37285867e-01, 0.,
          5.19032590e-02, 1.59987018e-01, 7.61573017e-02, 3.40969354e-01,
          1.09463237e-01, 0., 1.68438796e-02, 2.14622676e-01,
          3.40969354e-01, 3.40969354e-01, 1.29686156e-02, 0.,
          3.27835292e-01, 3.40969354e-01, 5.80007248e-02, 1.95826683e-02,
          4.95048752e-03, 2.04706322e-02, 1.92249656e-01, 3.40969354e-01,
          3.40969354e-01, 3.89144979e-02, 1.49594918e-02, 0.,
          5.11659091e-05, 5.35320975e-02, 3.53943914e-01, 3.53943914e-01,
          1.02123789e-01, 0., 0., 1.89313851e-03, 2.40906060e-01,
          3.53943914e-01, 1.66679963e-01, 1.10355347e-01, 4.59454432e-02,
          2.61988819e-01, 3.53943914e-01, 1.31441057e-01, 3.53943914e-01,
          1.49432108e-01, 6.92181289e-03, 1.44921551e-02, 1.50577322e-01,
          3.53943914e-01, 4.65487838e-02, 1.94048136e-01, 9.15401727e-02,
          2.14727763e-02, 0., 2.02125520e-03, 1.63937539e-01,
          3.83624047e-01, 3.53058159e-01, 1.15885837e-02, 0.,
          1.60255190e-02, 4.86330800e-02, 3.46875846e-01, 3.83624047e-01,
          8.42395872e-02, 0., 4.98784648e-04, 3.83624047e-01,
          3.83624047e-01, 2.68974185e-01, 1.18079921e-02, 0.,
          6.81455508e-02, 1.26411542e-01, 1.30606145e-01, 2.49063179e-01,
          7.45982230e-02, 0., 6.23100623e-02, 1.46445587e-01,
          1.11398604e-02, 2.86249995e-01, 2.82694250e-01, 0.,
          1.80437833e-01, 3.89608830e-01, 3.11439216e-01, 6.65182918e-02,
          2.37719417e-02, 0., 3.25185031e-01, 3.89608830e-01,
          2.90546715e-02, 6.82398900e-02, 8.36129114e-02, 0.,
          3.89608830e-01, 9.63312984e-02, 0., 2.08776101e-01,
          2.20430583e-01, 0., 1.33516774e-01, 1.26104757e-01, 0.,
          2.73439467e-01, 3.41557592e-01, 0., 1.76007077e-01,
          3.91806245e-01, 0., 5.32292537e-02, 6.69097975e-02, 0.,
          3.91806245e-01, 3.91806245e-01, 0., 7.68750161e-02,
          1.05934419e-01, 0., 3.91806245e-01, 1.05780974e-01, 0.,
          1.63482100e-01, 3.08162183e-01, 3.09427804e-03, 1.27226278e-01,
          2.19820559e-01, 2.89929807e-02, 1.35468036e-01, 3.19239199e-01,
          3.75855193e-02, 1.15964346e-01, 4.01020825e-01, 0.,
          5.21091409e-02, 8.71596187e-02, 0., 4.01020825e-01,
          4.01020825e-01, 2.34131273e-02, 5.52834943e-02, 7.37768859e-02,
          0., 4.01020825e-01, 2.86454916e-01, 1.63896561e-01,
          3.65912579e-02, 7.84868374e-02, 3.03901248e-02, 4.49801646e-02,
          3.79729927e-01, 3.06498855e-01, 4.36605187e-03, 4.55588289e-03,
          8.90430901e-03, 1.76081479e-01, 3.79729927e-01, 1.85980111e-01,
          1.68211125e-02, 1.47584379e-02, 0., 3.47676396e-01,
          3.79729927e-01, 3.79729927e-01, 1.53139210e-03, 6.65687665e-04,
          0., 1.37935907e-01, 1.24486340e-02, 2.82299519e-01,
          1.49761453e-01, 1.64636094e-02, 0., 0., 3.25499862e-01,
          5.06276667e-01, 6.31931573e-02, 8.79140222e-04, 0.,
          1.20612830e-02, 2.52202549e-03, 5.06276667e-01, 7.37282634e-02,
          2.63002212e-03, 0., 0., 7.54201114e-02, 5.06276667e-01,
          4.71212640e-02, 1.02822678e-05, 0., 6.54566626e-04,
          3.96716654e-01, 3.96716654e-01, 4.76861419e-03, 5.17923800e-05,
          6.51771406e-05, 1.56674564e-01, 3.96716654e-01, 1.07500389e-01,
          8.24343151e-05, 6.59830810e-04, 7.69808830e-04, 3.96716654e-01,
          1.48198679e-01, 3.96716654e-01, 9.30369087e-03, 6.07116788e-04,
          1.29616761e-03, 2.80795675e-02, 1.81288764e-01, 3.14391196e-01,
          7.42178119e-04, 7.61529943e-03, 1.21588698e-02, 1.35039538e-01,
          4.30450201e-01, 7.72155705e-04, 5.48537879e-04, 8.81502579e-04,
          8.26699077e-04, 4.30450201e-01, 4.30450201e-01, 2.00344552e-03,
          6.74684008e-04, 1.95872184e-04, 7.69249236e-05, 4.30450201e-01,
          2.05441996e-01, 7.46071385e-03, 5.39836287e-03, 9.45783686e-03,
          1.10307736e-02, 2.16348812e-01, 2.96685755e-01, 3.23306434e-02,
          7.32045015e-03, 1.68621773e-03, 7.56985217e-04, 2.75879979e-01,
          4.29223865e-01, 1.92858616e-03, 6.98245713e-05, 0.,
          1.71673033e-04, 4.29223865e-01, 4.29223865e-01, 3.22887301e-03,
          0., 1.67500490e-04, 2.08342075e-03, 4.29223865e-01,
          2.32552215e-01, 2.70770025e-02, 8.24699819e-04, 0.,
          2.88013928e-03, 2.07438543e-01, 2.84120321e-01, 7.81518780e-03,
          0., 1.17250346e-03, 3.00131403e-02, 2.81460911e-01,
          4.38862532e-01, 7.42725879e-02, 0., 6.75888266e-04,
          3.29997251e-03, 4.38862532e-01, 4.38862532e-01, 3.18754852e-01,
          0., 4.05533006e-04, 5.34621580e-03, 3.20371419e-01,
          2.77661175e-01, 7.87444820e-04, 0., 4.73121833e-03,
          4.03918922e-02, 2.57524848e-01, 1.96578950e-01, 1.05316136e-02,
          0., 2.83873081e-03, 3.36119719e-02, 1.51838616e-01 ]
      - [ 1.47112057e-01, 4.48337853e-01, 3.42987329e-02, 1.58181379e-03,
          1.09353717e-02, 1.65072940e-02, 8.18776041e-02, 4.48337853e-01,
          4.57961764e-03, 0., 1.35388508e-01, 1.56804889e-01,
          7.94685110e-02, 4.48337853e-01, 2.39567161e-01, 1.06134601e-02,
          1.35086877e-02, 9.24558286e-03, 6.11125715e-02, 4.48337853e-01,
          4.97334786e-02, 0., 1.85682714e-01, 1.17747009e-01,
          1.32924035e-01, 3.46176118e-01, 0., 0., 2.63218373e-01,
          3.46176118e-01, 9.30092037e-02, 3.46176118e-01, 9.66653079e-02,
          4.07438651e-02, 3.61088626e-02, 7.10340664e-02, 1.48292795e-01,
          2.78043538e-01, 0., 0., 3.46176118e-01, 3.46176118e-01,
          1.48982957e-01, 3.46176118e-01, 1.00290582e-01, 8.19939747e-02,
          9.79584754e-02, 1.29168764e-01, 8.05059262e-03, 3.58357698e-01,
          1.63051367e-01, 2.54618257e-01, 8.19918513e-02, 0., 0.,
          1.67152323e-02, 3.47400531e-02, 3.58357698e-01, 3.58357698e-01,
          0., 2.22120397e-02, 2.11871415e-01, 2.58027881e-01,
          3.16167563e-01, 7.44190514e-02, 5.43459319e-03, 0.,
          3.53828142e-03, 1.98306397e-01, 3.58357698e-01, 3.55274349e-01,
          0., 2.25939285e-02, 6.27155527e-02, 0., 8.43413100e-02,
          3.79757375e-01, 0., 3.38763714e-01, 3.43057156e-01, 0.,
          1.84876134e-03, 1.68799922e-01, 4.45905589e-02, 2.33102497e-02,
          2.31454670e-01, 6.45796210e-02, 2.41684407e-01, 3.79757375e-01,
          0., 3.79757375e-01, 3.79757375e-01, 6.89557567e-02,
          3.04343216e-02, 1.47963509e-01, 2.41069738e-02, 3.59759092e-01,
          2.62679994e-01, 0., 0., 0., 1.64751872e-01, 3.59759092e-01,
          1.53452173e-01, 0., 0., 2.49956734e-02, 3.48448902e-01,
          3.59759092e-01, 3.59759092e-01, 1.81926675e-02, 0.,
          6.49741804e-03, 1.35397628e-01, 3.53632063e-01, 6.80836141e-02,
          0., 0., 2.58264374e-02, 2.96483308e-01, 1.44483093e-02,
          4.80900764e-01, 1.29317626e-01, 6.40818244e-03, 9.85471252e-03,
          1.55009725e-03, 7.53733423e-03, 4.80900764e-01, 3.58815081e-02,
          1.81298181e-02, 1.13186300e-01, 1.71969887e-02, 5.95498011e-02,
          4.80900764e-01, 2.19827686e-02, 7.47020124e-03, 1.52025940e-02,
          5.14135696e-03, 7.67407520e-03, 4.80900764e-01, 1.46889286e-02,
          8.62693787e-02, 1.61933109e-01, 3.46314715e-04, 7.77874812e-02,
          2.01148748e-01, 4.95854877e-02, 1.00810736e-01, 3.23433042e-01,
          1.30526304e-01, 9.11624059e-02, 1.01916373e-01, 1.10408977e-01,
          1.03472047e-01, 2.39798039e-01, 1.33602783e-01, 7.02171912e-03,
          3.23433042e-01, 1.77485615e-01, 3.23433042e-01, 3.23433042e-01,
          7.02171912e-03, 7.24433688e-03, 3.23433042e-01, 2.48376608e-01,
          1.36647165e-01, 3.23433042e-01, 2.52946198e-01, 6.26804773e-03,
          2.02678069e-02, 1.27661049e-01, 1.76156163e-01, 1.63174525e-01,
          3.86638418e-02, 0., 0., 3.16313654e-01, 3.58874291e-01,
          1.28252819e-01, 5.10413572e-03, 6.27285242e-03, 8.86313468e-02,
          1.01328284e-01, 1.83447748e-01, 3.58874291e-01, 2.26963580e-01,
          8.54284838e-02, 6.49908558e-02, 3.58874291e-01, 3.58874291e-01,
          3.58874291e-01, 2.12562025e-01, 1.15304044e-03, 1.04550429e-01,
          2.24660218e-01, 2.18402639e-01, 5.52965105e-02, 0.,
          5.93285002e-02, 4.13050860e-01, 2.03697369e-01, 3.96051407e-02,
          1.75004825e-02, 1.27899311e-02, 1.13238312e-01, 3.18607807e-01,
          4.13050860e-01, 2.47027084e-01, 6.51655272e-02, 7.42485002e-02,
          1.66128114e-01, 4.13050860e-01, 3.31207216e-01, 4.61259708e-02,
          2.36573265e-04, 1.69704277e-02, 1.79742828e-01, 4.39027786e-01,
          6.42797500e-02, 0., 1.87349562e-02, 1.32256776e-01,
          1.60211220e-01, 5.84375560e-02, 0., 0., 5.83755188e-02,
          2.93419033e-01, 2.46068791e-01, 4.39027786e-01, 7.61874393e-02,
          0., 4.93372157e-02, 1.93479285e-01, 2.27503791e-01,
          2.36351609e-01, 0., 0., 1.75123602e-01, 4.39027786e-01,
          9.08530280e-02, 4.73701864e-01, 0., 4.33454616e-03,
          1.66046564e-02, 3.02469358e-03, 2.74012350e-02, 4.73701864e-01,
          4.54734219e-03, 4.44793105e-02, 1.73518807e-01, 1.12096285e-02,
          8.69513378e-02, 4.73701864e-01, 1.88492462e-02, 4.03332553e-04,
          1.59497187e-02, 6.65298058e-03, 6.98482916e-02, 4.73701864e-01,
          1.29449042e-02, 4.45868354e-03, 1.54475018e-01, 1.37873188e-01,
          2.04774085e-02, 2.47146517e-01, 6.57799020e-02, 1.03327088e-01,
          3.05067748e-01, 3.22067924e-02, 5.09898551e-02, 3.31488818e-01,
          1.70243844e-01, 5.24567291e-02, 1.95101440e-01, 1.20678261e-01,
          3.19167107e-01, 2.17614979e-01, 1.89235136e-02, 1.67222638e-02,
          2.55834699e-01, 3.31488818e-01, 3.31488818e-01, 2.83091068e-01,
          1.11018859e-01, 2.11759191e-02, 7.83197358e-02, 3.08386177e-01,
          6.07803874e-02, 8.73315632e-02, 5.81762120e-02, 3.65623273e-02,
          3.38426262e-01, 2.15314582e-01, 3.38426262e-01, 4.98557016e-02,
          1.00990497e-01, 8.56400877e-02, 3.38426262e-01, 3.38426262e-01,
          3.38426262e-01, 7.73555934e-02, 5.10841869e-02, 8.41993093e-03,
          1.33077338e-01, 2.64695555e-01, 3.38426262e-01, 4.72337864e-02,
          6.02281699e-03, 1.20284723e-03, 1.17320769e-01, 3.38426262e-01,
          3.69114399e-01, 1.82857916e-01, 9.61540565e-02, 3.44702527e-02,
          4.26645651e-02, 2.17571959e-01, 3.69114399e-01, 3.69114399e-01,
          5.03625385e-02, 5.14545757e-03, 0., 5.63183203e-02,
          3.69114399e-01, 4.93052565e-02, 0., 0., 8.35933071e-03,
          3.60747188e-01, 3.69114399e-01, 2.59979367e-01, 0., 0., 0.,
          1.26859039e-01, 3.53055000e-01, 3.84135425e-01, 9.65663791e-03,
          0., 3.65181565e-02, 8.77051130e-02, 6.67257607e-02,
          2.30252057e-01, 0., 0., 2.53928185e-01, 2.96942472e-01,
          3.84135425e-01, 3.84135425e-01, 0., 0., 4.68365885e-02,
          7.33455345e-02, 7.98979700e-02, 1.12550259e-01, 0., 0.,
          3.84135425e-01, 1.88170493e-01, 2.94011552e-02, 4.86120194e-01,
          3.12312264e-02, 0., 2.89015984e-03, 6.73996378e-03,
          6.92218244e-02, 4.86120194e-01, 2.50009950e-02, 0.,
          2.47277282e-02, 1.07945174e-01, 1.15071096e-01, 4.86120194e-01,
          3.87929901e-02, 0., 0., 6.33807061e-03, 9.47487503e-02,
          4.86120194e-01, 7.73310810e-02, 0., 0., 2.39937138e-02,
          3.51608187e-01, 1.50466651e-01, 5.33171417e-03, 0.,
          3.01088765e-02, 3.51608187e-01, 3.51608187e-01, 4.18322906e-02,
          6.01508748e-03, 0., 3.78772663e-03, 3.51608187e-01,
          3.51608187e-01, 3.51608187e-01, 4.27717865e-02, 0., 0.,
          1.25082120e-01, 3.51608187e-01, 1.73712581e-01, 0., 0., 0.,
          2.40960941e-01, 3.58794898e-01, 3.29801962e-02, 6.72199531e-03,
          0., 6.58509880e-03, 3.49073738e-01, 3.58794898e-01,
          6.25857785e-02, 9.60285135e-04, 0., 3.95105919e-03,
          3.58794898e-01, 3.58794898e-01, 4.87372205e-02, 0., 0., 0.,
          3.05758804e-01, 3.58794898e-01, 3.44493464e-02, 0., 0., 0.,
          3.58794898e-01, 3.72451752e-01, 5.72278835e-02, 0., 0., 0.,
          3.39642316e-01, 3.72451752e-01, 1.30067587e-01, 0., 0., 0.,
          1.76374421e-01, 3.72451752e-01, 3.20508629e-02, 0., 0., 0.,
          3.72451752e-01, 3.72451752e-01, 7.04524294e-02, 0., 0.,
          1.33515587e-02, 3.60348195e-01, 3.63102168e-01, 1.17469132e-01,
          0., 0., 8.11615810e-02, 1.89477324e-01, 1.39902130e-01,
          1.66364703e-02, 0., 0., 3.63102168e-01, 3.45362425e-01,
          3.41654837e-01, 6.39277101e-02, 0., 0., 2.44931862e-01,
          2.95111656e-01, 7.51458555e-02, 6.55878847e-03, 0., 0.,
          3.63102168e-01, 3.63102168e-01, 1.11783661e-01, 4.85884488e-01,
          1.76453199e-02, 2.48260447e-04, 0., 3.26535827e-03,
          9.91907567e-02, 4.85884488e-01, 4.96653393e-02, 0., 0.,
          1.16844349e-04, 7.67186731e-02, 4.85884488e-01, 1.75399799e-02,
          1.73782289e-03, 0., 9.15408018e-04, 1.37671903e-01,
          4.85884488e-01, 2.31988244e-02, 0., 0., 0., 2.51707464e-01,
          4.12803471e-01, 6.85366243e-02, 0., 0., 7.99682643e-03,
          3.53361100e-01, 3.51531059e-01, 5.69499424e-03, 0., 0.,
          3.39819640e-02, 3.67396235e-01, 4.12803471e-01, 6.76054358e-02,
          0., 0., 0., 1.65143222e-01, 4.12803471e-01, 9.49165784e-03, 0.,
          0., 0., 3.87420624e-01, 2.02817902e-01, 0., 0., 0.,
          1.00621186e-01, 4.08499569e-01, 1.81518748e-01, 0., 0., 0.,
          3.54789197e-01, 1.47897735e-01, 4.08499569e-01, 0., 0., 0.,
          1.28163781e-03, 3.32049876e-01, 4.08499569e-01, 0., 0., 0.,
          5.46994619e-02, 4.13486719e-01, 3.24578881e-02, 0., 0., 0.,
          4.13486719e-01, 4.13486719e-01, 1.32094128e-02, 0., 0.,
          1.93832621e-01, 4.13486719e-01, 1.74738348e-01, 6.41678348e-02,
          0., 0., 0., 1.11805268e-01, 1.31283551e-01, 0., 0., 0.,
          4.13486719e-01, 1.94492266e-01, 1.36177152e-01, 7.06474064e-03,
          0., 0., 3.98588449e-01, 2.51570076e-01, 3.05879526e-02,
          6.57379045e-04, 0., 0., 4.07321453e-01, 3.76235306e-01,
          2.75891013e-02, 0., 0., 0., 4.07321453e-01, 9.54571441e-02,
          1.01406612e-01, 0., 0., 0., 4.07321453e-01, 3.07894051e-01 ]
      - [ 1.29372366e-02, 4.06072378e-01, 9.84742213e-03, 1.48469757e-03,
          4.06072378e-01, 3.48352008e-02, 1.94074437e-02, 4.06072378e-01,
          8.53355229e-03, 1.90312843e-04, 3.48832123e-02, 1.12610101e-03,
          3.45025701e-03, 4.06072378e-01, 1.27446176e-02, 5.21792239e-03,
          4.06072378e-01, 1.10807614e-02, 8.35840870e-03, 4.06072378e-01,
          2.22071633e-02, 5.53423306e-04, 5.03563546e-02, 1.88787759e-03,
          7.02730268e-02, 6.35120332e-01, 1.90384313e-02, 0.,
          1.32379979e-01, 3.29052582e-02, 9.69051048e-02, 1.70347437e-01,
          2.80383900e-02, 0., 9.31623951e-02, 3.76595259e-02,
          6.67000189e-02, 6.35120332e-01, 6.31309971e-02, 3.80691094e-03,
          1.05849013e-01, 4.56169881e-02, 2.32894987e-01, 1.44067705e-01,
          9.51284617e-02, 8.61305930e-03, 8.12243149e-02, 3.53904516e-02,
          3.25643301e-01, 3.25643301e-01, 7.70239681e-02, 1.33020394e-02,
          1.38779497e-02, 7.18985945e-02, 2.20000952e-01, 2.14702159e-01,
          4.24933769e-02, 4.05848883e-02, 4.41556387e-02, 1.74282596e-01,
          3.25643301e-01, 3.09573531e-01, 3.25643301e-01, 5.73526211e-02,
          4.18267250e-02, 1.74909800e-01, 3.25643301e-01, 1.04005903e-01,
          1.10508166e-01, 1.84380025e-01, 1.73912585e-01, 3.25643301e-01,
          5.26283421e-02, 5.91718666e-02, 7.55529664e-03, 4.31236252e-02,
          2.89127290e-01, 1.25750959e-01, 1.08859595e-02, 1.81186989e-01,
          2.03481749e-01, 2.99872458e-01, 3.88117075e-01, 8.68358240e-02,
          8.37982520e-02, 3.48580256e-02, 5.26858447e-03, 1.52017757e-01,
          3.88117075e-01, 1.56803280e-01, 7.95352235e-02, 3.03477108e-01,
          7.21670464e-02, 1.66756898e-01, 3.88117075e-01, 2.78216839e-01,
          3.30283004e-03, 4.42125380e-01, 2.41228461e-01, 1.17082253e-01,
          1.26563936e-01, 8.44030362e-03, 1.51265701e-02, 4.42125380e-01,
          1.50432676e-01, 1.00441249e-02, 6.69831932e-02, 3.89896035e-02,
          7.00937137e-02, 4.42125380e-01, 8.85103643e-02, 3.86251397e-02,
          2.50465780e-01, 1.10941589e-01, 3.25887725e-02, 4.42125380e-01,
          7.51743615e-02, 2.36337259e-03, 1.48808686e-02, 2.22995058e-02,
          3.38296901e-04, 4.05661404e-01, 1.48569280e-02, 1.59244221e-02,
          4.05661404e-01, 9.70684574e-04, 2.55174190e-03, 4.05661404e-01,
          2.26811934e-02, 4.60085040e-03, 3.71584669e-02, 8.80856474e-04,
          3.89105896e-03, 4.05661404e-01, 1.91039238e-02, 4.44826037e-02,
          4.05661404e-01, 1.49666099e-03, 5.38006146e-03, 4.05661404e-01,
          3.78064625e-02, 1.26949353e-02, 4.68898416e-02, 1.52751652e-03,
          2.73241941e-02, 5.36539018e-01, 7.60419071e-02, 9.93284881e-02,
          4.79345396e-02, 1.77422408e-02, 5.78940287e-02, 7.84212872e-02,
          1.92586094e-01, 1.11892909e-01, 3.63950953e-02, 1.16359172e-02,
          2.63467375e-02, 5.36539018e-01, 2.00743154e-01, 2.57263303e-01,
          8.87755305e-02, 3.26716118e-02, 6.52620494e-02, 2.39011541e-01,
          3.14762324e-01, 2.42507890e-01, 5.71018644e-02, 2.56547369e-02,
          1.47544459e-01, 1.61112636e-01, 3.65380466e-01, 9.45120454e-02,
          2.49115210e-02, 3.80076990e-02, 5.77123873e-02, 6.26236647e-02,
          2.80038625e-01, 1.84242368e-01, 1.63780212e-01, 1.17265329e-01,
          2.02911884e-01, 3.65380466e-01, 3.65380466e-01, 1.04120001e-01,
          8.19180720e-03, 8.08572676e-03, 8.80224928e-02, 3.65380466e-01,
          3.65380466e-01, 1.05604343e-01, 1.45386040e-01, 1.33162960e-01,
          1.36473598e-02, 5.61431050e-03, 2.34300308e-02, 2.42224678e-01,
          3.27847689e-01, 8.18929970e-02, 1.17071159e-01, 1.86068773e-01,
          9.70316678e-03, 1.29734799e-01, 3.27847689e-01, 2.60884166e-01,
          6.24551959e-02, 1.18519440e-01, 5.92665896e-02, 1.63321778e-01,
          3.27847689e-01, 3.27847689e-01, 1.00612156e-01, 1.56574950e-01,
          1.37088522e-01, 2.25376785e-01, 3.27847689e-01, 3.27847689e-01,
          1.29881859e-01, 4.37661856e-01, 1.17006442e-02, 7.41317216e-03,
          1.48143634e-01, 1.25957146e-01, 5.21044508e-02, 4.37661856e-01,
          1.31458780e-02, 0., 0., 1.40713295e-02, 7.93948397e-02,
          4.37661856e-01, 2.34623224e-01, 7.43699297e-02, 1.38938278e-01,
          6.08728044e-02, 3.37214731e-02, 4.37661856e-01, 2.82311082e-01,
          2.68929899e-02, 5.90207928e-04, 5.09794895e-03, 1.02958558e-02,
          4.03880358e-01, 1.75643396e-02, 2.27853376e-02, 4.03880358e-01,
          2.03328077e-02, 1.84781626e-02, 4.03880358e-01, 3.71185504e-02,
          3.94912390e-03, 3.32043320e-02, 8.25553946e-03, 4.77801710e-02,
          4.03880358e-01, 1.45977596e-02, 1.34808291e-02, 4.03880358e-01,
          6.57240525e-02, 6.28431961e-02, 4.03880358e-01, 2.43994668e-02,
          1.47021294e-03, 3.46777700e-02, 1.58044230e-02, 1.25067487e-01,
          5.07092118e-01, 9.25390273e-02, 5.70449308e-02, 5.92478961e-02,
          1.30171418e-01, 2.71523446e-01, 1.91228777e-01, 6.67738169e-02,
          4.79656868e-02, 3.59310135e-02, 1.24545254e-01, 2.30716899e-01,
          5.07092118e-01, 5.98502308e-02, 3.86793427e-02, 2.61730086e-02,
          1.87555984e-01, 3.75706017e-01, 1.22382991e-01, 5.47812730e-02,
          3.87901179e-02, 1.89927798e-02, 2.09072456e-01, 3.27150762e-01,
          3.27150762e-01, 1.49328753e-01, 1.42983003e-02, 4.27902211e-03,
          1.20459609e-01, 2.94174761e-01, 3.27150762e-01, 8.63482207e-02,
          2.12617405e-02, 3.69518176e-02, 1.42825395e-01, 3.27150762e-01,
          2.01121494e-01, 8.07562247e-02, 1.79407615e-02, 4.75270301e-02,
          3.27150762e-01, 3.27150762e-01, 1.55802116e-01, 4.65528341e-03,
          1.05437450e-01, 2.36296490e-01, 2.46009395e-01, 1.02776565e-01,
          1.14661679e-01, 1.15978895e-02, 8.46728459e-02, 2.19079658e-01,
          1.72591478e-01, 4.06435691e-02, 6.79546669e-02, 9.22822952e-02,
          3.24339718e-01, 3.89547199e-01, 1.39878094e-01, 1.08223468e-01,
          6.53182045e-02, 2.45231786e-03, 2.89607346e-01, 3.89547199e-01,
          5.10839969e-02, 1.97266657e-02, 1.47732556e-01, 1.25229329e-01,
          3.89547199e-01, 3.89547199e-01, 2.02735122e-02, 3.68099101e-03,
          3.62036765e-01, 2.33860046e-01, 1.53382823e-01, 1.48956344e-01,
