%YAML:1.0
---
opencv_ml_svm:
   format: 3
   svmType: C_SVC
   kernel:
      type: LINEAR
   C: 2.
   term_criteria: { epsilon:1.1920928955078125e-07, iterations:1000 }
   var_count: 112
   class_count: 2
   class_labels: !!opencv-matrix
      rows: 2
      cols: 1
      dt: i
      data: [ 0, 1 ]
   sv_total: 1
   support_vectors:
      - [ 1.17634106e+00, -6.61575794e-01, -1.09466779e+00,
          9.62416530e-01, 1.41973734e+00, 4.04993743e-01, 1.75088477e+00,
          -6.83592319e-01, -4.06359076e-01, -6.30713999e-02,
          1.98905778e+00, -1.25519776e+00, -9.66117159e-03,
          2.76464075e-01, -4.14003491e-01, 9.22214016e-02,
          -2.79801518e-01, -7.31858015e-02, -1.62538850e+00,
          -2.01011872e+00, -1.74833548e+00, -1.19100833e+00,
          1.57559574e-01, 1.88263342e-01, -8.64893079e-01,
          4.66655135e-01, 1.59905565e+00, -1.74320900e+00,
          4.36723769e-01, 9.78215694e-01, 1.90248057e-01,
          -7.12574303e-01, 4.24110532e-01, 1.34503096e-01,
          8.01323712e-01, 8.45825896e-02, 1.40423286e+00, 7.98277795e-01,
          1.13142288e+00, 5.56260049e-01, 7.58276165e-01, 2.04711854e-01,
          -1.15612376e+00, 1.01403832e+00, 1.25911856e+00,
          -1.40475464e+00, -3.42686862e-01, -3.54209006e-01,
          -1.46565115e+00, -2.53748268e-01, -1.78009832e+00,
          -5.85945785e-01, -1.09280773e-01, -7.63730407e-01,
          1.47622868e-01, 1.18028963e+00, 5.39819121e-01, 6.14384115e-01,
          -1.25127721e+00, -7.64401078e-01, -1.01178873e+00,
          -9.19757783e-01, 7.98326135e-02, -1.74357378e+00,
          4.13557798e-01, -9.88296986e-01, -8.02573323e-01,
          -3.72353755e-02, -4.71198082e-01, -5.10561645e-01,
          2.56758237e+00, -1.46798223e-01, -8.76545012e-02,
          1.76630974e+00, 1.64352977e+00, 9.81086195e-02,
          -2.23697558e-01, 4.05807495e-01, 6.05218224e-02,
          -9.09804285e-01, 3.21039230e-01, -5.34422219e-01,
          8.19321215e-01, -4.16609973e-01, -1.37025642e+00,
          -2.43514888e-02, -7.85189152e-01, -2.13252878e+00,
          -8.07660744e-02, -4.07175511e-01, 6.87169671e-01,
          5.37156284e-01, -4.17097509e-01, -2.53779221e+00,
          4.28608537e-01, 4.42008555e-01, -5.55124342e-01,
          1.70925453e-01, 7.12170422e-01, -9.55088809e-02,
          2.05021247e-01, -2.51497537e-01, -4.63858843e-01,
          1.23364568e+00, -8.09298828e-02, -9.28188801e-01,
          1.64280936e-01, 2.91497082e-01, -8.88466656e-01,
          -8.34834754e-01, -1.11386478e-01, -8.93347561e-01 ]
   uncompressed_sv_total: 369
   uncompressed_support_vectors:
      - [ 2.96605974e-01, 2.24290639e-01, 3.68387550e-02, 2.68418784e-03,
          3.93857621e-02, 2.96605974e-01, 2.96605974e-01, 2.96605974e-01,
          2.96605974e-01, 8.01897049e-02, 3.34889889e-02, 5.35350153e-03,
          9.79903415e-02, 2.96605974e-01, 1.31634921e-01, 1.13418093e-02,
          2.23890413e-03, 1.79338660e-02, 1.17163077e-01, 1.82774350e-01,
          2.05901504e-01, 2.48160839e-01, 4.30415086e-02, 5.53904399e-02,
          2.72984564e-01, 2.96605974e-01, 8.19398537e-02, 2.36124143e-01,
          2.36201331e-01, 2.98580647e-01, 5.74193411e-02, 6.78239837e-02,
          1.81302838e-02, 8.37387666e-02, 1.41528577e-01, 6.06238134e-02,
          7.62317032e-02, 1.74601339e-02, 5.67698032e-02, 2.51481891e-01,
          2.98580647e-01, 1.23957336e-01, 2.38950804e-01, 7.23569021e-02,
          2.13426217e-01, 2.98580647e-01, 2.70947158e-01, 8.07884336e-02,
          1.20731696e-01, 9.03817117e-02, 3.98646481e-02, 1.88940436e-01,
          2.98580647e-01, 2.98580647e-01, 2.98580647e-01, 1.77697644e-01,
          1.04449242e-02, 0., 1.61439576e-03, 1.78448930e-02,
          3.57202947e-01, 2.23496601e-01, 2.33523417e-02, 1.18096732e-01,
          5.04488014e-02, 8.06969106e-02, 2.50538886e-01, 3.57202947e-01,
          2.53673136e-01, 6.39374256e-02, 1.02745648e-03, 0., 0.,
          3.16721797e-02, 3.57202947e-01, 3.57202947e-01, 6.82708481e-03,
          6.17533550e-02, 1.01010412e-01, 7.81149492e-02, 6.09371997e-02,
          3.57202947e-01, 3.57202947e-01, 2.91046519e-02, 1.83380529e-01,
          1.61185950e-01, 2.57691979e-01, 2.57691979e-01, 2.57691979e-01,
          6.42254874e-02, 5.36048748e-02, 1.11978240e-01, 1.42993107e-01,
          2.57691979e-01, 2.00614586e-01, 1.92909986e-01, 2.57691979e-01,
          1.57553241e-01, 1.05275348e-01, 2.57691979e-01, 2.57691979e-01,
          5.27239852e-02, 1.39600769e-01, 1.27209753e-01, 3.20545621e-02,
          7.04587996e-02, 2.57691979e-01, 2.57691979e-01, 2.04734430e-02,
          2.56179065e-01, 2.57691979e-01, 9.96169373e-02 ]
      - [ 3.09142470e-02, 3.74803632e-01, 3.59986693e-01, 3.00538093e-02,
          4.82320003e-02, 6.92109242e-02, 3.53478827e-02, 1.82253830e-02,
          1.05699845e-01, 8.41034576e-02, 1.27383873e-01, 1.54999554e-01,
          1.72394708e-01, 3.95469181e-02, 1.90772470e-02, 3.74803632e-01,
          3.74803632e-01, 2.62211580e-02, 4.53148447e-02, 1.20158359e-01,
          2.69248039e-02, 1.49176821e-01, 1.80294767e-01, 1.24406748e-01,
          1.47553340e-01, 1.64417997e-01, 3.74803632e-01, 2.59047598e-01,
          1.89677887e-02, 1.96697310e-01, 2.63714045e-01, 2.37167150e-01,
          9.96497646e-02, 1.01852790e-01, 3.75571549e-02, 2.33453270e-02,
          1.73349977e-01, 1.61665708e-01, 5.18738292e-02, 7.17748478e-02,
          2.65385151e-01, 7.74431452e-02, 2.65385151e-01, 2.65385151e-01,
          2.65385151e-01, 2.65385151e-01, 1.16289549e-01, 2.54664212e-01,
          2.65385151e-01, 1.62776172e-01, 2.65385151e-01, 2.24423409e-01,
          4.30799983e-02, 6.65776134e-02, 2.65385151e-01, 1.23521611e-01,
          1.52287483e-02, 4.40057576e-01, 4.40057576e-01, 2.95066889e-02,
          9.12554096e-03, 3.83147039e-02, 1.87525712e-02, 1.69649020e-01,
          1.57108992e-01, 1.04193144e-01, 3.25789638e-02, 2.74914671e-02,
          1.42449200e-01, 2.07755283e-01, 1.11187436e-02, 4.40057576e-01,
          4.40057576e-01, 2.96143945e-02, 1.33802528e-02, 1.00463154e-02,
          1.18563361e-02, 7.71302134e-02, 2.24925235e-01, 1.63130745e-01,
          2.60748938e-02, 2.32546926e-02, 1.96066741e-02, 4.71842587e-02,
          3.00019652e-01, 3.00019652e-01, 1.65384546e-01, 6.44439012e-02,
          6.50546700e-02, 2.05590740e-01, 3.00019652e-01, 2.75119752e-01,
          3.00019652e-01, 7.39615411e-02, 7.32039241e-03, 1.49829194e-01,
          3.00019652e-01, 1.31266087e-01, 1.89510256e-01, 1.82463095e-01,
          3.00019652e-01, 2.16320548e-02, 5.92096522e-02, 1.59439236e-01,
          9.54473242e-02, 5.84069267e-02, 2.93542519e-02, 6.72292635e-02,
          4.80575582e-05, 2.23441213e-01, 3.00019652e-01, 3.98743898e-02 ]
      - [ 5.02974205e-02, 1.68746561e-02, 8.37974623e-03, 2.62821652e-02,
          3.05460185e-01, 3.05460185e-01, 7.08028674e-02, 8.67475271e-02,
          2.45396583e-03, 2.64352071e-03, 2.69679856e-02, 3.05460185e-01,
          3.05460185e-01, 2.44738296e-01, 4.71775793e-02, 9.14075896e-02,
          6.95204735e-02, 1.15013786e-01, 3.05460185e-01, 3.05460185e-01,
          2.50539239e-02, 3.03361148e-01, 1.64087594e-01, 1.24241106e-01,
          1.39284462e-01, 3.05460185e-01, 2.49135152e-01, 1.48082092e-01,
          6.84294477e-02, 3.94347236e-02, 4.22751065e-03, 5.26297977e-03,
          5.02340980e-02, 2.93600440e-01, 2.93600440e-01, 1.51760608e-01,
          2.93600440e-01, 2.14959130e-01, 5.03975665e-03, 7.07920548e-03,
          1.97866842e-01, 2.93600440e-01, 1.87952280e-01, 7.87716806e-02,
          4.26651426e-02, 3.50543894e-02, 9.12911594e-02, 2.62516171e-01,
          2.93600440e-01, 9.04102251e-02, 2.59682059e-01, 2.75064886e-01,
          5.51017411e-02, 1.58331599e-02, 2.93600440e-01, 2.93600440e-01,
          2.09008474e-02, 1.27019942e-01, 1.54126987e-01, 9.63895321e-02,
          3.13740522e-01, 3.13740522e-01, 1.26551921e-02, 1.44107699e-01,
          2.35361710e-01, 3.13740522e-01, 1.84089810e-01, 1.65896520e-01,
          1.29368946e-01, 6.20660223e-02, 2.95458715e-02, 1.02689378e-01,
          2.04885840e-01, 6.86191693e-02, 3.13740522e-01, 3.13740522e-01,
          2.30722991e-03, 6.43398166e-02, 3.13740522e-01, 3.13740522e-01,
          1.59612983e-01, 7.84755424e-02, 7.69899413e-02, 9.10044834e-03,
          1.69407517e-01, 1.60678804e-01, 1.65900752e-01, 7.55436420e-02,
          9.64939743e-02, 2.01135635e-01, 1.67615891e-01, 1.34596691e-01,
          1.40006334e-01, 1.18072331e-01, 5.47893904e-02, 6.61599562e-02,
          3.03273171e-01, 3.03273171e-01, 1.06821619e-01, 3.03273171e-01,
          3.03273171e-01, 7.12163746e-02, 4.86154370e-02, 9.36297327e-02,
          5.12802005e-02, 3.03273171e-01, 3.03273171e-01, 1.30033612e-01,
          1.42622488e-02, 1.02174334e-01, 2.65907556e-01, 3.03273171e-01 ]
      - [ 0., 0., 0., 3.55960727e-01, 3.05320825e-02, 0., 0.,
          2.81085563e-03, 6.09924202e-04, 2.38141278e-03, 3.55960727e-01,
          6.29342645e-02, 0., 0., 3.55960727e-01, 0., 0., 3.55960727e-01,
          1.58024400e-01, 0., 2.21431419e-01, 3.55960727e-01,
          4.26946906e-03, 1.66698880e-02, 3.55960727e-01, 1.78412959e-01,
          0., 3.53776187e-01, 1.70248710e-02, 1.67995412e-03,
          2.19543302e-03, 3.40663403e-01, 8.69089216e-02, 0.,
          4.32583729e-05, 6.01389669e-02, 1.79547677e-03, 3.13633267e-04,
          3.40663403e-01, 1.47611812e-01, 0., 9.04407259e-03,
          3.40663403e-01, 1.17596798e-02, 1.53680313e-02, 3.40663403e-01,
          1.60755217e-01, 0., 2.52959311e-01, 3.40663403e-01,
          1.25683369e-02, 2.19543302e-03, 3.40663403e-01, 2.46019691e-01,
          0., 3.40663403e-01, 3.96317512e-01, 0., 0., 2.94331580e-01,
          1.06807671e-01, 0., 3.96317512e-01, 3.96317512e-01,
          3.10166832e-03, 1.21102808e-02, 2.96251148e-01, 9.19959098e-02,
          0., 3.96317512e-01, 2.38431767e-01, 0., 0., 0., 0., 0.,
          1.70992702e-01, 2.35365361e-01, 0., 0., 0., 0., 0.,
          1.78500086e-01, 4.48209435e-01, 1.17201926e-02, 1.53164295e-02,
          2.13349894e-01, 7.20930621e-02, 0., 4.48209435e-01,
          4.48209435e-01, 1.25261359e-02, 2.18806136e-03, 2.09065288e-01,
          9.02016982e-02, 0., 4.48209435e-01, 1.74309552e-01, 0., 0., 0.,
          0., 0., 1.32844716e-01, 1.50481671e-01, 0., 0., 0., 0., 0.,
          1.34855449e-01 ]
      - [ 1.10245068e-02, 2.29851971e-03, 9.11402109e-04, 3.60371917e-01,
          3.15584987e-02, 2.99694296e-03, 3.46838385e-02, 3.31924409e-02,
          3.38542042e-03, 2.03644726e-02, 3.60371917e-01, 1.39584951e-02,
          4.16307943e-03, 2.62002721e-02, 2.79350668e-01, 2.30891397e-04,
          9.79409553e-04, 3.60371917e-01, 5.24206012e-02, 1.53037440e-02,
          3.60371917e-01, 3.60371917e-01, 7.82257691e-03, 3.30744162e-02,
          3.60371917e-01, 1.95665043e-02, 2.02660100e-03, 3.60371917e-01,
          4.05554697e-02, 1.83337871e-02, 7.33359158e-02, 3.14199418e-01,
          3.01599707e-02, 6.09337389e-02, 2.64467839e-02, 8.02075118e-02,
          6.53240457e-02, 1.32659659e-01, 3.14199418e-01, 5.76978549e-02,
          9.16915908e-02, 1.16803624e-01, 3.14199418e-01, 1.22744136e-01,
          1.21841162e-01, 3.14199418e-01, 1.47135099e-02, 1.19449971e-02,
          3.14199418e-01, 3.14199418e-01, 2.60433048e-01, 2.09242523e-01,
          3.14199418e-01, 1.07102253e-01, 1.86774194e-01, 2.26314098e-01,
          4.34074223e-01, 0., 3.34213255e-04, 1.69247463e-01,
          1.85150020e-02, 1.46931168e-02, 4.34074223e-01, 4.34074223e-01,
          7.49243144e-03, 1.16819143e-02, 2.47040883e-01, 6.56019477e-03,
          1.74102117e-03, 4.34074223e-01, 1.56029135e-01, 0., 0., 0., 0.,
          0., 1.64593011e-01, 2.25789458e-01, 0., 0., 0., 0., 0.,
          2.21571922e-01, 3.62141699e-01, 5.75105511e-02, 2.10013073e-02,
          9.67477188e-02, 6.04431471e-03, 3.88978720e-02, 3.62141699e-01,
          3.30955625e-01, 1.22023314e-01, 3.55014019e-02, 1.58836752e-01,
          2.23358631e-01, 3.62141699e-01, 2.98658043e-01, 1.01916194e-01,
          0., 0., 0., 2.37270799e-02, 8.20917189e-02, 9.36777890e-02,
          5.38836904e-02, 0., 0., 5.49165644e-02, 3.62141699e-01,
          3.62141699e-01, 6.00856468e-02 ]
      - [ 2.21438054e-03, 3.86733949e-01, 3.86733949e-01, 8.76935106e-03,
          1.72210427e-03, 4.37088078e-04, 1.36867666e-03, 1.40950608e-03,
          3.40759873e-01, 1.66566327e-01, 5.54436930e-02, 2.04603951e-02,
          3.18861124e-03, 0., 1.25246868e-02, 3.86733949e-01,
          3.86733949e-01, 1.39892427e-02, 4.13085707e-03, 5.25247259e-03,
          4.12001275e-03, 1.63861960e-02, 3.86733949e-01, 2.81443805e-01,
          9.84096974e-02, 6.77446574e-02, 7.01950938e-02, 4.21065092e-02,
          2.12580198e-03, 9.89049375e-02, 1.90971181e-01, 2.87145615e-01,
          1.45732924e-01, 5.27560227e-02, 5.44427568e-03, 1.50842946e-02,
          1.08123636e-02, 1.14822507e-01, 1.76337257e-01, 2.54788369e-01,
          2.01851055e-01, 8.10769573e-02, 1.11383855e-01, 2.13591769e-01,
          2.87145615e-01, 2.87145615e-01, 2.50469238e-01, 2.17525512e-01,
          1.66723162e-01, 1.38565555e-01, 2.87145615e-01, 2.87145615e-01,
          2.87145615e-01, 8.92014578e-02, 1.16340205e-01, 1.96673691e-01,
          4.68314700e-02, 4.40973192e-01, 3.65214109e-01, 3.50728049e-03,
          9.39425023e-04, 3.30294017e-03, 8.00836273e-03, 7.72830099e-02,
          3.96201074e-01, 1.42233953e-01, 2.34518014e-02, 2.48591434e-02,
          5.91116101e-02, 1.08518340e-01, 4.41907793e-02, 4.40973192e-01,
          2.39654645e-01, 1.54698803e-03, 0., 3.11803247e-04,
          4.62635048e-03, 8.47332180e-02, 4.40973192e-01, 5.63195758e-02,
          0., 5.78583917e-03, 2.35941056e-02, 8.11824799e-02,
          2.59620070e-01, 2.11973429e-01, 1.65023997e-01, 1.54022932e-01,
          9.52697694e-02, 2.06186339e-01, 2.59620070e-01, 2.59620070e-01,
          2.59620070e-01, 2.59620070e-01, 1.35729119e-01, 3.53168622e-02,
          1.15075924e-01, 2.15787798e-01, 2.59620070e-01, 1.36852741e-01,
          1.83267314e-02, 0., 1.35535330e-01, 2.11684525e-01,
          2.59620070e-01, 2.20389426e-01, 6.11811727e-02, 5.72684444e-02,
          3.78685929e-02, 2.20071986e-01, 2.59620070e-01, 2.08628178e-01 ]
      - [ 4.48390245e-02, 2.86974367e-02, 5.01651168e-02, 1.06058754e-01,
          9.50776860e-02, 1.59663796e-01, 3.38545106e-02, 2.29166579e-02,
          2.99696214e-02, 1.88455805e-01, 3.20277959e-01, 1.44071892e-01,
          1.08804964e-01, 8.39054305e-03, 1.71018094e-01, 2.48310603e-02,
          1.63199790e-02, 1.01928301e-01, 1.93608597e-01, 3.20277959e-01,
          3.20277959e-01, 2.68231750e-01, 1.15233019e-03, 1.67112947e-01,
          3.20277959e-01, 2.85604447e-01, 3.20277959e-01, 3.20277959e-01,
          7.34738214e-03, 1.50950626e-02, 1.11392058e-01, 3.02742481e-01,
          2.60598779e-01, 1.19228616e-01, 5.28862840e-03, 4.35649930e-03,
          6.61889091e-02, 1.37509033e-01, 1.56942025e-01, 2.29777902e-01,
          9.63095129e-02, 5.11201750e-03, 3.02742481e-01, 5.23112202e-03,
          2.40367770e-01, 3.02742481e-01, 1.71431199e-01, 4.03874740e-02,
          3.02742481e-01, 3.02742481e-01, 9.81206521e-02, 3.02742481e-01,
          3.02742481e-01, 9.75340381e-02, 8.99256207e-03, 2.06092983e-01,
          2.08793536e-01, 8.69394094e-02, 1.17050465e-02, 2.14747861e-02,
          6.37320280e-02, 1.69607013e-01, 2.84677178e-01, 2.81028032e-01,
          1.92429114e-03, 1.84616055e-02, 1.11939326e-01, 8.67573693e-02,
          1.92182660e-01, 2.84677178e-01, 1.53296590e-01, 2.83810765e-01,
          7.47215375e-02, 5.62244430e-02, 2.84677178e-01, 2.33382478e-01,
          2.07330674e-01, 1.34943873e-01, 4.44301032e-03, 5.40687994e-04,
          2.53379166e-01, 2.84677178e-01, 2.79964715e-01, 2.84677178e-01,
          2.97917932e-01, 1.77032349e-03, 4.56330925e-02, 1.49739906e-01,
          3.41797397e-02, 7.38497004e-02, 2.97917932e-01, 2.97917932e-01,
          3.66407298e-02, 7.66600072e-02, 1.65546358e-01, 5.43516874e-02,
          2.17988882e-02, 2.97917932e-01, 2.06398636e-01, 2.52903352e-04,
          0., 2.97917932e-01, 2.44814023e-01, 1.32661507e-01,
          2.73977995e-01, 2.63063759e-01, 4.58717812e-03, 0.,
          2.97917932e-01, 2.97917932e-01, 9.56492573e-02, 1.81614429e-01 ]
      - [ 2.25575920e-03, 9.67495888e-02, 1.16546407e-01, 2.94698197e-02,
          2.93272614e-01, 3.52196813e-01, 1.52328471e-02, 0., 0., 0.,
          3.75072774e-03, 1.31934643e-01, 3.52196813e-01, 4.57340442e-02,
          1.57377183e-01, 4.75570112e-02, 2.06250012e-01, 1.81543559e-01,
          3.52196813e-01, 3.52196813e-01, 1.33390024e-01, 9.38881263e-02,
          3.15051246e-03, 0., 2.95115393e-02, 1.86618656e-01,
          3.52196813e-01, 2.86105037e-01, 1.03278877e-02, 2.38864427e-03,
          6.30650669e-03, 5.95864542e-02, 2.90220499e-01, 3.60549629e-01,
          1.03507183e-01, 3.01534701e-02, 4.38975506e-02, 6.58573285e-02,
          1.40960604e-01, 1.75475523e-01, 6.81202263e-02, 3.03793978e-02,
          1.70265749e-01, 1.67115014e-02, 1.05108442e-02, 7.36344159e-02,
          2.52831012e-01, 3.60549629e-01, 3.60549629e-01, 2.71688193e-01,
          1.81864828e-01, 8.52081850e-02, 1.08066238e-01, 1.33573979e-01,
          2.68281847e-01, 3.60549629e-01, 2.20759928e-01, 1.46896318e-01,
          4.75050062e-02, 5.91476820e-02, 1.80010900e-01, 3.35872978e-01,
          2.34685659e-01, 8.47277269e-02, 9.17381421e-03, 2.91783717e-02,
          5.44329174e-02, 1.58863038e-01, 3.35872978e-01, 2.40939796e-01,
          1.15026273e-01, 3.35872978e-01, 4.71972339e-02, 5.14404895e-03,
          1.94982439e-01, 3.35872978e-01, 1.48176104e-01, 1.93116013e-02,
          2.15315502e-02, 5.10376096e-02, 8.60957131e-02, 2.80271798e-01,
          3.35872978e-01, 9.90388319e-02, 7.79431388e-02, 4.58319904e-03,
          5.18263951e-02, 1.82562843e-01, 1.93073630e-01, 2.91703582e-01,
          2.91703582e-01, 9.46310535e-02, 3.71977761e-02, 8.69497936e-03,
          7.94325992e-02, 1.60684675e-01, 2.91703582e-01, 2.91703582e-01,
          8.75738077e-03, 1.88150138e-04, 8.48938674e-02, 2.91703582e-01,
          2.91703582e-01, 2.91703582e-01, 1.28772572e-01, 9.22989938e-03,
          2.64945644e-04, 3.75335384e-03, 2.91703582e-01, 2.91703582e-01,
          2.77148187e-01, 9.25076157e-02 ]
      - [ 1.51733503e-01, 4.11896676e-01, 2.55137354e-01, 1.85772181e-02,
          1.06446156e-02, 2.40054801e-02, 1.00640073e-01, 1.66392252e-01,
          1.43910915e-01, 7.11980760e-02, 6.88584372e-02, 3.00748311e-02,
          5.25787957e-02, 9.54608619e-02, 2.61490662e-02, 4.11896676e-01,
          3.90567809e-01, 3.53656076e-02, 1.05218299e-01, 1.16114296e-01,
          3.96035127e-02, 6.16986491e-02, 1.50314048e-01, 9.68653560e-02,
          3.61339092e-01, 2.66224772e-01, 2.35813186e-01, 1.13420337e-01,
          1.10093266e-01, 8.30431953e-02, 2.44416580e-01, 2.05835044e-01,
          4.46077585e-02, 5.63224889e-02, 4.92774285e-02, 1.23921826e-01,
          1.01055369e-01, 1.90596074e-01, 1.31780282e-01, 7.92550519e-02,
          1.79613709e-01, 6.73136562e-02, 2.73394734e-01, 2.82233447e-01,
          2.82233447e-01, 2.82233447e-01, 1.72788635e-01, 1.49751365e-01,
          1.47936463e-01, 2.82233447e-01, 2.82233447e-01, 2.82233447e-01,
          1.53998241e-01, 8.78574103e-02, 2.82233447e-01, 9.05216187e-02,
          4.74777594e-02, 3.53597730e-01, 2.77155131e-01, 1.01082940e-02,
          7.07098097e-02, 1.40594825e-01, 7.89828300e-02, 2.31846794e-01,
          1.27827495e-01, 7.12541118e-02, 1.59114927e-01, 1.81937441e-01,
          2.53657579e-01, 3.17985773e-01, 6.80295303e-02, 3.53597730e-01,
          3.53597730e-01, 4.63839993e-02, 1.19252792e-02, 5.56573719e-02,
          7.49817193e-02, 2.63878018e-01, 1.59095272e-01, 1.33889586e-01,
          5.96306771e-02, 2.69928090e-02, 9.26002488e-02, 2.66046405e-01,
          2.68479556e-01, 2.68479556e-01, 2.43617520e-01, 2.53734171e-01,
          1.16260260e-01, 1.17632881e-01, 2.68479556e-01, 2.03664646e-01,
          2.68479556e-01, 1.87462807e-01, 5.71727306e-02, 1.55573368e-01,
          2.11597279e-01, 7.73184150e-02, 2.68479556e-01, 1.84474364e-01,
          8.56204554e-02, 4.75728922e-02, 9.38858762e-02, 1.46276519e-01,
          2.68479556e-01, 1.41604275e-01, 1.48127645e-01, 3.39560434e-02,
          1.11053593e-01, 2.68479556e-01, 2.28395805e-01, 7.30653256e-02 ]
      - [ 1.35805815e-01, 2.85260290e-01, 1.75762579e-01, 3.04603949e-02,
          4.92612831e-02, 1.34234816e-01, 1.15976386e-01, 1.63172066e-01,
          2.43373483e-01, 2.85260290e-01, 1.40700057e-01, 2.85260290e-01,
          8.31026733e-02, 6.16559759e-02, 1.05113842e-01, 2.85260290e-01,
          1.56809002e-01, 1.44125551e-01, 1.70087099e-01, 2.85260290e-01,
          9.24142525e-02, 1.20539382e-01, 4.27234396e-02, 1.90624624e-01,
          2.85260290e-01, 2.85260290e-01, 2.64755845e-01, 1.01721257e-01,
          3.58733907e-02, 6.76816106e-02, 1.04810931e-01, 1.76356658e-01,
          3.02349418e-01, 1.28261343e-01, 1.07352976e-02, 6.63232282e-02,
          2.21830774e-02, 8.60513896e-02, 1.61843985e-01, 3.02349418e-01,
          3.02349418e-01, 1.29787996e-01, 4.35787737e-02, 4.52816039e-02,
          1.95573658e-01, 2.67256647e-01, 3.02349418e-01, 1.88616320e-01,
          1.20232217e-01, 1.04857422e-01, 1.86621338e-01, 3.02349418e-01,
          1.09764524e-01, 2.16939390e-01, 3.02349418e-01, 2.45036080e-01,
          1.28501887e-02, 1.90071300e-01, 1.26795992e-01, 5.61010838e-02,
          9.91927162e-02, 2.67523289e-01, 9.31090266e-02, 2.00718027e-02,
          1.41703850e-02, 8.58182982e-02, 1.99957624e-01, 3.13051075e-01,
          2.39760473e-01, 5.15872352e-02, 5.88255702e-03, 3.13051075e-01,
          1.44970611e-01, 2.51199976e-02, 2.78492540e-01, 3.13051075e-01,
          1.29709885e-01, 9.31029674e-04, 1.96726769e-01, 2.78863043e-01,
          1.36358842e-01, 3.13051075e-01, 3.13051075e-01, 4.52750921e-02,
          3.25751528e-02, 5.21911904e-02, 1.97613731e-01, 1.89077079e-01,
          2.09185734e-01, 1.74067810e-01, 1.47036716e-01, 7.44475573e-02,
          2.57757515e-01, 2.77141958e-01, 6.12620749e-02, 1.66810434e-02,
          1.56525865e-01, 2.18424201e-01, 5.71320206e-02, 2.77141958e-01,
          2.77141958e-01, 1.06225938e-01, 2.77141958e-01, 1.46166757e-01,
          1.89388767e-01, 2.32275486e-01, 2.77141958e-01, 2.77141958e-01,
          6.23170808e-02, 6.67822221e-03, 8.61944109e-02, 2.77141958e-01 ]
      - [ 6.73787529e-03, 1.06451637e-03, 1.20036695e-02, 2.69498289e-01,
          1.84288189e-01, 2.76988056e-02, 1.53391566e-02, 3.28368042e-03,
          8.46328912e-04, 2.00712532e-02, 3.25347245e-01, 2.87816018e-01,
          2.71200463e-02, 1.47650121e-02, 1.28817737e-01, 0.,
          1.39144184e-02, 3.25347245e-01, 3.25347245e-01, 1.04872957e-01,
          3.25347245e-01, 1.89139768e-01, 0., 1.31568816e-02,
          3.25347245e-01, 3.25347245e-01, 8.37617833e-03, 3.25347245e-01,
          2.21738918e-03, 4.02608849e-02, 9.99348611e-02, 3.28552753e-01,
          1.54458418e-01, 9.33244359e-03, 1.30838472e-02, 6.42602146e-02,
          9.72789750e-02, 3.28552753e-01, 3.28552753e-01, 1.50970906e-01,
          2.25604065e-02, 1.35486811e-01, 8.47641379e-02, 2.21078843e-02,
          7.02526718e-02, 3.28552753e-01, 1.81506589e-01, 5.99553483e-03,
          3.06522697e-01, 8.35361406e-02, 1.42244548e-01, 3.28552753e-01,
          3.28552753e-01, 7.59434476e-02, 2.16640532e-02, 2.91654438e-01,
          3.15157175e-01, 3.37788370e-03, 8.99820961e-03, 1.76970288e-01,
          2.02332959e-01, 1.04658552e-01, 3.82777929e-01, 3.82777929e-01,
          8.73562600e-03, 8.34171008e-03, 2.05498531e-01, 1.16720386e-01,
          2.13066470e-02, 3.82777929e-01, 1.61593854e-01, 2.60623358e-02,
          1.25935460e-02, 4.55100872e-02, 3.38825732e-02, 2.50501074e-02,
          2.40373299e-01, 2.68866956e-01, 8.27390775e-02, 3.23216878e-02,
          2.51784939e-02, 3.62333097e-02, 1.77965555e-02, 3.82777929e-01,
          2.22431198e-01, 1.00590270e-02, 1.19204940e-02, 6.84005991e-02,
          3.23094577e-02, 1.85549110e-02, 3.42476457e-01, 2.17612386e-01,
          4.81138378e-02, 1.19862936e-01, 2.94674516e-01, 1.77884195e-02,
          1.86266214e-01, 3.42476457e-01, 2.01305285e-01, 2.99790241e-02,
          2.42254101e-02, 1.16308313e-02, 4.85884771e-02, 6.28884509e-02,
          3.42476457e-01, 3.02661717e-01, 7.17430888e-03, 1.35953516e-01,
          7.04187900e-02, 7.00134486e-02, 3.42476457e-01, 3.42476457e-01 ]
      - [ 4.67980392e-02, 2.88038939e-01, 2.07293719e-01, 1.18892156e-01,
          5.55497855e-02, 8.47315639e-02, 6.85806572e-02, 1.24096982e-01,
          2.88038939e-01, 2.88038939e-01, 2.56594449e-01, 1.78959891e-02,
          1.92690920e-02, 2.07339879e-02, 1.61627963e-01, 2.86634266e-01,
          2.48401105e-01, 2.04261184e-01, 2.30033752e-02, 4.00592387e-02,
          2.88038939e-01, 1.53197005e-01, 2.67359018e-01, 2.88038939e-01,
          2.88038939e-01, 2.88222538e-04, 1.23728598e-02, 1.83713168e-01,
          1.85951248e-01, 1.15084387e-01, 2.85982728e-01, 1.84167147e-01,
          2.94812620e-02, 1.07948504e-01, 1.03466384e-01, 2.48964503e-01,
          6.71053082e-02, 1.03763640e-01, 5.49489893e-02, 2.68645659e-02,
          1.29833445e-01, 2.22690895e-01, 1.22345105e-01, 1.37701422e-01,
          3.60541612e-01, 3.60541612e-01, 1.06427465e-02, 5.36900610e-02,
          1.20439507e-01, 1.29202038e-01, 5.05911149e-02, 3.60541612e-01,
          3.60541612e-01, 1.03266396e-01, 1.52363867e-01, 1.94108739e-01,
          2.90233046e-01, 1.23769090e-01, 1.98450729e-01, 8.30510855e-02,
          3.01380064e-02, 6.31355913e-03, 2.90233046e-01, 2.90233046e-01,
          9.62114409e-02, 2.90233046e-01, 2.06106201e-01, 7.34109133e-02,
          1.87794510e-02, 2.90233046e-01, 1.73643738e-01, 2.57668823e-01,
          2.90233046e-01, 4.75341678e-02, 1.57978773e-01, 2.94378530e-02,
          1.15784317e-01, 1.28298968e-01, 9.51568335e-02, 2.05706686e-01,
          1.34551063e-01, 2.90233046e-01, 7.59143010e-02, 2.40198791e-01,
          1.00070775e-01, 7.37520158e-02, 3.01312447e-01, 2.47993588e-01,
          3.76015976e-02, 3.69040258e-02, 1.69423431e-01, 5.98059036e-02,
          2.89388355e-02, 3.01312447e-01, 3.01312447e-01, 4.25977372e-02,
          8.37204978e-02, 6.99362159e-02, 1.41672119e-01, 1.51390925e-01,
          2.83959538e-01, 2.27657169e-01, 1.86303407e-01, 8.18252712e-02,
          1.50652409e-01, 3.01312447e-01, 2.00437576e-01, 3.01312447e-01,
          3.01312447e-01, 5.00556193e-02, 1.80211991e-01, 1.04794830e-01 ]
      - [ 8.51707384e-02, 3.83443236e-01, 3.50867510e-01, 7.40703642e-02,
          0., 5.67063864e-04, 1.39503097e-02, 6.68616295e-02,
          2.99495399e-01, 1.79812625e-01, 8.94571245e-02, 1.17737912e-02,
          5.74990734e-03, 2.02684719e-02, 3.60123008e-01, 3.83443236e-01,
          2.23805577e-01, 1.31698042e-01, 4.17731702e-03, 1.65013969e-02,
          1.04040965e-01, 3.50930333e-01, 1.88395679e-01, 1.43632889e-01,
          1.29245251e-01, 3.55001446e-03, 9.07847099e-03, 1.63314745e-01,
          4.46683615e-02, 2.56514281e-01, 2.35604689e-01, 1.77220032e-01,
          1.07064962e-01, 1.94459483e-01, 4.58506383e-02, 1.52038768e-01,
          2.03040794e-01, 1.38390273e-01, 9.90094692e-02, 8.96940902e-02,
          2.65421361e-01, 1.41701043e-01, 2.65421361e-01, 2.32069433e-01,
          2.21854404e-01, 2.32603282e-01, 2.08695047e-02, 1.20853461e-01,
          2.65421361e-01, 2.34620169e-01, 2.65421361e-01, 1.80998445e-01,
          1.42498508e-01, 1.25217019e-02, 1.96958229e-01, 2.62219489e-01,
          1.99944124e-01, 3.88375640e-01, 2.59349912e-01, 8.45698491e-02,
          4.21362221e-02, 3.42836641e-02, 9.02585238e-02, 3.80698293e-01,
          7.94721469e-02, 1.38168201e-01, 2.05473192e-02, 1.54598812e-02,
          1.30309835e-02, 1.48291051e-01, 3.44775654e-02, 3.88375640e-01,
          3.88375640e-01, 1.02582812e-01, 1.19663395e-01, 4.34129313e-02,
          1.51350843e-02, 1.33086041e-01, 1.51130676e-01, 3.88375640e-01,
          3.27259302e-02, 5.50699569e-02, 1.72501057e-02, 3.21032368e-02,
          2.82715976e-01, 1.20921962e-01, 1.08789466e-01, 3.05735543e-02,
          8.95508602e-02, 2.18637630e-01, 2.82715976e-01, 1.31114647e-01,
          1.47467211e-01, 8.02324787e-02, 4.03694920e-02, 8.53820443e-02,
          2.82715976e-01, 2.82715976e-01, 1.85159996e-01, 1.60928696e-01,
          2.82715976e-01, 4.07516398e-02, 2.82715976e-01, 2.82715976e-01,
          1.24342330e-01, 6.59338683e-02, 7.34604299e-02, 8.53476152e-02,
          4.02448140e-02, 2.78881460e-01, 2.82715976e-01, 2.15669826e-01 ]
      - [ 1.83475196e-01, 1.53698683e-01, 5.33364788e-02, 7.61872232e-02,
          1.05701998e-01, 3.01167425e-02, 3.52681540e-02, 4.75328192e-02,
          6.10751249e-02, 8.58504474e-02, 3.23832482e-01, 1.96553156e-01,
          4.77802791e-02, 3.01714092e-02, 5.46785891e-02, 1.76441744e-02,
          2.41382252e-02, 1.36570215e-01, 3.23832482e-01, 2.84491211e-01,
          1.00664340e-01, 3.23832482e-01, 5.58807068e-02, 2.02478603e-01,
          3.23832482e-01, 3.23832482e-01, 2.96114355e-01, 3.04259092e-01,
          3.28976400e-02, 2.50152182e-02, 4.44869474e-02, 2.93278784e-01,
          1.92951083e-01, 1.20638438e-01, 2.28034109e-02, 2.20577512e-02,
          1.61558818e-02, 2.92237755e-02, 1.76093414e-01, 2.93278784e-01,
          2.93278784e-01, 2.17532367e-02, 2.93278784e-01, 1.48379102e-01,
          2.01835796e-01, 2.93278784e-01, 2.93278784e-01, 1.01401903e-01,
          1.61762744e-01, 1.11666188e-01, 1.38527647e-01, 1.70441285e-01,
          2.93278784e-01, 2.93278784e-01, 2.19060376e-01, 1.09521240e-01,
          4.70993221e-02, 2.23377943e-02, 9.28009227e-02, 8.53821337e-02,
          2.06906527e-01, 3.01389843e-01, 2.64340281e-01, 3.07756215e-01,
          5.96380718e-02, 1.11468583e-01, 1.52065054e-01, 3.07756215e-01,
          2.80930310e-01, 3.07756215e-01, 3.12732346e-02, 6.68671951e-02,
          1.48670703e-01, 1.60846978e-01, 2.65206508e-02, 1.36826381e-01,
          1.79421842e-01, 3.07756215e-01, 1.26558393e-01, 1.74848810e-01,
          1.65982231e-01, 2.33206246e-02, 5.88416979e-02, 3.07756215e-01,
          3.05931509e-01, 6.89655095e-02, 5.56051545e-02, 6.73945621e-02,
          1.01233505e-01, 1.93257391e-01, 2.34638780e-01, 1.28287733e-01,
          5.36146611e-02, 5.83716147e-02, 2.36067891e-01, 3.05931509e-01,
          3.05931509e-01, 2.51880795e-01, 1.37513906e-01, 2.99838856e-02,
          4.18789722e-02, 2.08066106e-02, 8.76369327e-02, 2.81732768e-01,
          1.85102597e-01, 1.78561106e-01, 4.42676153e-03, 6.89690933e-03,
          5.62238060e-02, 3.05931509e-01, 3.05931509e-01, 3.05931509e-01 ]
      - [ 1.23766996e-02, 1.89461454e-04, 9.14011383e-04, 3.60630393e-01,
          3.51614505e-02, 3.58418957e-03, 3.67750227e-02, 3.29184383e-02,
          5.45448333e-04, 1.15972627e-02, 3.60630393e-01, 1.75610464e-02,
          1.25728939e-02, 3.70359421e-02, 2.74669498e-01, 0.,
          1.41809590e-03, 3.60630393e-01, 5.83676808e-02, 2.21317578e-02,
          3.60630393e-01, 3.60630393e-01, 0., 1.90257430e-02,
          3.60630393e-01, 2.21196935e-02, 3.42060556e-03, 3.60630393e-01,
          2.92704385e-02, 4.67231777e-03, 2.08665486e-02, 2.95769095e-01,
          1.09248944e-01, 7.68235251e-02, 3.04360520e-02, 1.98720116e-02,
          9.21826512e-02, 1.58328861e-01, 2.95769095e-01, 2.72201598e-01,
          9.41286832e-02, 2.13897862e-02, 2.95769095e-01, 3.15051116e-02,
          5.25501482e-02, 2.95769095e-01, 6.04940057e-02, 7.69090801e-02,
          2.95769095e-01, 1.56351969e-01, 2.95769095e-01, 2.95769095e-01,
          2.95769095e-01, 1.39857516e-01, 1.57252461e-01, 2.78742045e-01,
          4.32914972e-01, 0., 5.00040071e-04, 1.66086659e-01,
          2.05812454e-02, 2.12133620e-02, 4.32914972e-01, 4.32914972e-01,
          0., 6.70873746e-03, 2.51450062e-01, 1.03007257e-02,
          1.94990598e-02, 4.32914972e-01, 1.53226614e-01, 0., 0., 0., 0.,
          0., 1.63976654e-01, 2.13599980e-01, 0., 0., 0., 1.60607304e-02,
          5.22837713e-02, 2.34123424e-01, 3.08315963e-01, 1.48182036e-02,
          1.60651989e-02, 1.02864213e-01, 2.58269887e-02, 2.44964615e-01,
          3.08315963e-01, 1.14774413e-01, 3.08315963e-01, 2.13548467e-01,
          6.47315755e-02, 5.56102246e-02, 3.08315963e-01, 3.08315963e-01,
          5.67432344e-02, 0., 0., 0., 1.06577352e-01, 3.08315963e-01,
          1.20609738e-01, 1.19937090e-02, 3.08315963e-01, 1.03170760e-01,
          2.86868736e-02, 1.93983972e-01, 3.08315963e-01, 1.42447010e-01 ]
      - [ 6.07801881e-03, 2.82840729e-01, 1.37069583e-01, 5.89300953e-02,
          2.48724252e-01, 1.45055145e-01, 4.92678434e-02, 5.70168309e-02,
          2.92383999e-01, 1.55533969e-01, 1.02701686e-01, 2.92383999e-01,
          2.20303386e-02, 1.44123212e-02, 7.14605860e-03, 2.21979380e-01,
          1.57794356e-01, 1.46697968e-01, 2.92383999e-01, 2.92383999e-01,
          3.17933038e-02, 9.17215347e-02, 2.92383999e-01, 2.92383999e-01,
          2.84599483e-01, 2.65983671e-01, 2.54568756e-02, 1.66045558e-02,
          1.67799205e-01, 1.84257060e-01, 5.84456585e-02, 5.19980043e-02,
          1.52271464e-01, 1.11049987e-01, 1.33088216e-01, 1.65746599e-01,
          1.56768356e-02, 1.95785984e-03, 9.15096048e-03, 1.43352851e-01,
          3.36029351e-01, 3.16084474e-01, 2.47181609e-01, 3.36029351e-01,
          2.09452182e-01, 2.37427279e-01, 2.46311184e-02, 1.06928490e-01,
          1.33517668e-01, 1.94542184e-01, 1.83997706e-01, 4.18106690e-02,
          5.18644676e-02, 8.89318064e-02, 3.36029351e-01, 3.36029351e-01,
          1.49619556e-03, 1.30817682e-01, 9.47186947e-02, 6.73291236e-02,
          2.80690312e-01, 3.21334094e-01, 1.41878305e-02, 1.77452751e-02,
          3.21334094e-01, 3.21334094e-01, 1.12515777e-01, 1.37799442e-01,
          2.82623265e-02, 1.83762389e-03, 5.90581622e-05, 2.11875424e-01,
          1.81006327e-01, 3.98025624e-02, 3.21334094e-01, 3.21334094e-01,
          2.76459623e-02, 1.18231308e-03, 3.21334094e-01, 3.21334094e-01,
          3.37056294e-02, 1.87474921e-01, 1.23848908e-01, 0.,
          7.49469995e-02, 3.05743247e-01, 3.05743247e-01, 1.65333882e-01,
          1.94513164e-02, 4.77852114e-02, 2.10629404e-02, 7.54970759e-02,
          2.06670940e-01, 9.49485973e-02, 1.27680153e-01, 1.22744858e-01,
          3.05743247e-01, 1.71629757e-01, 5.78676909e-03, 3.05743247e-01,
          3.05743247e-01, 8.54898468e-02, 1.16123818e-01, 5.74844554e-02,
          0., 1.53258368e-02, 3.01145464e-01, 1.56390071e-01,
          3.05743247e-01, 3.05743247e-01, 2.17381001e-01, 3.89137268e-02 ]
      - [ 3.20311934e-02, 1.69569567e-01, 5.56537136e-02, 1.08192213e-01,
          8.06112308e-03, 3.59459873e-03, 2.59735845e-02, 2.03088727e-02,
          9.06585902e-02, 4.70848605e-02, 3.16960275e-01, 2.25342456e-02,
          3.59178036e-02, 2.99885459e-02, 5.10555133e-02, 3.63607593e-02,
          5.83410449e-02, 4.30606037e-01, 3.34008813e-01, 1.49964914e-02,
          1.67593688e-01, 1.13555305e-01, 2.30917297e-02, 5.57622910e-02,
          4.30606037e-01, 4.30606037e-01, 4.67357738e-03, 3.41061622e-01,
          2.66033746e-02, 1.46109518e-02, 6.94613904e-03, 1.71837270e-01,
          1.01507865e-02, 1.24189472e-02, 1.26985824e-02, 4.36701402e-02,
          4.39045168e-02, 1.21217249e-02, 3.46093625e-01, 1.35039445e-02,
          1.44602207e-03, 3.24452855e-03, 6.87712356e-02, 3.62462620e-03,
          1.01976600e-02, 4.49290812e-01, 3.15777183e-01, 1.17111299e-03,
          1.68718562e-01, 1.47251278e-01, 8.93625617e-03, 1.45416977e-02,
          4.49290812e-01, 4.49290812e-01, 1.36818649e-04, 2.82928795e-01,
          1.87672049e-01, 2.13480438e-03, 5.05834818e-03, 1.87340528e-01,
          2.12715819e-01, 9.66310408e-03, 3.14473182e-01, 3.14473182e-01,
          2.74585816e-03, 5.03286300e-03, 3.14473182e-01, 3.14473182e-01,
          1.67706783e-03, 3.14473182e-01, 3.10658216e-01, 2.16655396e-02,
          1.44458376e-03, 2.86076986e-03, 2.84165833e-02, 1.95417879e-03,
          2.94418871e-01, 3.14473182e-01, 2.95093134e-02, 2.18189694e-03,
          6.16747141e-03, 5.88390790e-02, 4.69471049e-03, 3.14473182e-01,
          2.18396068e-01, 4.39140975e-04, 1.04597316e-03, 2.61331409e-01,
          2.12382436e-01, 3.11989104e-04, 3.12782764e-01, 3.12782764e-01,
          8.21358874e-04, 1.41064648e-03, 3.12782764e-01, 2.97522366e-01,
          4.45698715e-05, 3.12782764e-01, 2.44330794e-01, 4.44998499e-03,
          3.78924015e-04, 5.57150552e-03, 2.80217882e-02, 2.18392373e-03,
          3.12782764e-01, 3.12782764e-01, 5.74951200e-03, 0.,
          1.86354611e-02, 3.87740918e-02, 3.11989104e-04, 3.12782764e-01 ]
      - [ 9.31257324e-04, 8.41954350e-03, 2.54629645e-02, 3.25629085e-01,
          2.47327998e-01, 1.22095319e-02, 8.51151906e-03, 5.13971457e-03,
          9.62411519e-04, 5.05510122e-02, 3.25629085e-01, 2.32994020e-01,
          5.99076366e-03, 1.05949910e-02, 1.34691477e-01, 4.73096455e-03,
          9.44515970e-03, 3.25629085e-01, 3.25629085e-01, 1.07438909e-02,
          3.25629085e-01, 1.02085873e-01, 5.05327844e-05, 1.76474471e-02,
          3.25629085e-01, 3.25629085e-01, 1.55038210e-02, 3.25629085e-01,
          1.64116193e-02, 2.53032544e-03, 1.41049892e-01, 3.42438668e-01,
          1.50059119e-01, 6.00630380e-02, 2.48911455e-02, 6.65182620e-02,
          1.13864854e-01, 3.42438668e-01, 3.42438668e-01, 1.90879837e-01,
          9.93305370e-02, 8.95682052e-02, 7.32583851e-02, 5.16108144e-03,
          1.90408111e-01, 3.42438668e-01, 1.16348267e-01, 1.36880120e-02,
          2.31161326e-01, 7.99197778e-02, 7.29167312e-02, 3.42438668e-01,
          3.42438668e-01, 6.40411377e-02, 2.72221770e-02, 2.21378565e-01,
          2.69216895e-01, 3.65687232e-03, 8.43416620e-03, 1.86807200e-01,
          1.26658574e-01, 4.27326262e-02, 3.75607848e-01, 3.55625004e-01,
          1.04693987e-03, 1.63606461e-03, 1.37684897e-01, 7.32833818e-02,
          5.77084646e-02, 3.75607848e-01, 1.20511740e-01, 1.39917778e-02,
          1.41150756e-02, 4.82017398e-02, 3.68886739e-02, 4.71263155e-02,
          3.75607848e-01, 3.53414088e-01, 8.96880217e-03, 1.19991936e-02,
          1.13031156e-02, 4.79622036e-02, 6.39283508e-02, 3.75607848e-01,
          2.74048507e-01, 1.90133264e-03, 3.60047221e-02, 5.97252809e-02,
          2.07342617e-02, 3.59861292e-02, 3.10032278e-01, 2.41681427e-01,
          6.90896735e-02, 3.10032278e-01, 1.42204270e-01, 2.01754104e-02,
          2.05636576e-01, 3.10032278e-01, 3.07218760e-01, 9.84029844e-03,
          1.54494895e-02, 8.48124642e-03, 4.90605570e-02, 5.62812053e-02,
          3.10032278e-01, 3.10032278e-01, 4.65096235e-02, 7.64796585e-02,
          5.08227497e-02, 7.28566796e-02, 3.10032278e-01, 3.10032278e-01 ]
      - [ 0., 9.73021670e-04, 1.30189559e-03, 6.74772949e-04,
          9.74310283e-03, 2.62727123e-02, 0., 0., 1.94981194e-03,
          5.33932596e-02, 4.12207127e-01, 2.20868617e-01, 2.67353684e-01,
          1.25373818e-03, 0., 5.88438520e-03, 2.05242401e-03,
          3.33947683e-04, 3.38447653e-02, 1.13038525e-01, 1.57697918e-03,
          0., 1.21685872e-02, 9.10526142e-02, 4.12207127e-01,
          4.12207127e-01, 4.12207127e-01, 4.12207127e-01, 1.05213607e-03,
          5.77469962e-03, 1.41133845e-01, 3.14248770e-01, 7.98765942e-02,
          6.93989843e-02, 1.18225568e-03, 5.09471493e-03, 3.86393964e-02,
          1.86314762e-01, 1.91317558e-01, 1.14744063e-02, 6.63920771e-03,
          6.25686313e-04, 4.19207737e-02, 1.83837056e-01, 3.14248770e-01,
          3.14248770e-01, 1.49912834e-01, 3.14248770e-01, 3.14248770e-01,
          7.59667829e-02, 3.14248770e-01, 3.14248770e-01, 3.14248770e-01,
          1.75442658e-02, 1.24621555e-01, 1.51799753e-01, 0.,
          3.00692543e-02, 1.16676120e-02, 0., 2.29105428e-02,
          9.19218436e-02, 3.62961530e-03, 3.37041616e-02, 7.11003318e-02,
          7.12664202e-02, 1.80858910e-01, 2.32016221e-01, 5.40963054e-01,
          5.40963054e-01, 0., 4.14975546e-02, 1.85958929e-02, 0., 0.,
          2.05904292e-03, 5.18516405e-04, 5.61736040e-02, 1.05134532e-01,
          6.83884695e-02, 1.55647928e-02, 3.92219657e-03, 2.95086294e-01,
          4.39527571e-01, 1.96572810e-01, 2.27383092e-01, 1.87540293e-01,
          1.13085940e-01, 3.36589888e-02, 2.99798101e-01, 2.99798101e-01,
          2.99798101e-01, 2.99798101e-01, 2.99798101e-01, 8.21793377e-02,
          3.24160117e-03, 1.41721979e-01, 2.99798101e-01, 1.74293965e-01,
          4.57426123e-02, 1.16329407e-02, 4.40676883e-03, 2.62122066e-03,
          9.12503824e-02, 2.99798101e-01, 2.52826542e-01, 1.62136361e-01,
          4.51015048e-02, 4.56313323e-03, 1.57273212e-03, 2.79944278e-02,
          2.59916902e-01 ]
      - [ 1.29588842e-01, 2.82072663e-01, 1.85449749e-01, 3.32068875e-02,
          6.89338595e-02, 1.13667488e-01, 1.41824946e-01, 1.30111814e-01,
          2.69112617e-01, 2.82072663e-01, 1.54135451e-01, 2.82072663e-01,
          8.23075697e-02, 6.41810521e-02, 8.95012021e-02, 2.82072663e-01,
          1.58422887e-01, 1.14736542e-01, 2.17839986e-01, 2.70717293e-01,
          1.10239677e-01, 8.02248269e-02, 6.51859790e-02, 2.02379480e-01,
          2.82072663e-01, 2.82072663e-01, 2.60024637e-01, 8.53929371e-02,
          3.17920260e-02, 6.27364814e-02, 1.14070266e-01, 1.87027797e-01,
          3.06774080e-01, 1.20311774e-01, 4.80351690e-03, 7.74759501e-02,
          1.16763050e-02, 8.20775405e-02, 1.42207786e-01, 3.06774080e-01,
          3.06774080e-01, 9.88332033e-02, 1.98515076e-02, 3.10410801e-02,
          2.42656723e-01, 2.52962470e-01, 3.06774080e-01, 2.26253867e-01,
          1.14529632e-01, 1.23955622e-01, 1.35962769e-01, 3.06774080e-01,
          8.75320658e-02, 2.40265578e-01, 3.06774080e-01, 1.84910506e-01,
          1.11381393e-02, 2.13966638e-01, 1.16604373e-01, 2.87121739e-02,
          1.24852434e-01, 2.47499719e-01, 8.95071626e-02, 1.32212024e-02,
          3.50511037e-02, 8.32278430e-02, 1.50300145e-01, 3.21302384e-01,
          1.98048040e-01, 5.50326258e-02, 5.39454818e-03, 3.21302384e-01,
          1.43350497e-01, 1.85831927e-03, 2.90370196e-01, 3.21302384e-01,
          1.34493664e-01, 7.25114113e-03, 2.07733035e-01, 2.98422545e-01,
          6.12501428e-02, 3.21302384e-01, 3.21302384e-01, 5.70992827e-02,
          7.36297062e-03, 7.81068057e-02, 1.91376403e-01, 1.60779506e-01,
          2.60316372e-01, 1.39059171e-01, 1.81663126e-01, 4.51687910e-02,
          2.39494279e-01, 2.81144381e-01, 3.57381217e-02, 2.22750083e-02,
          1.39057398e-01, 2.26784617e-01, 4.38060462e-02, 2.81144381e-01,
          2.81144381e-01, 8.26402456e-02, 2.81144381e-01, 1.66821107e-01,
          2.24841535e-01, 1.32897317e-01, 2.81144381e-01, 2.81144381e-01,
          7.89513513e-02, 6.11188170e-03, 1.10267252e-01, 2.81144381e-01 ]
      - [ 1.20747775e-01, 3.41050595e-01, 1.77962840e-01, 3.74196284e-02,
          5.16879112e-02, 1.23977347e-03, 3.07897534e-02, 1.79669917e-01,
          1.41431466e-01, 6.53626323e-02, 3.13066602e-01, 1.37817651e-01,
          4.56435280e-03, 1.49678215e-01, 6.55705715e-03, 3.41050595e-01,
          3.41050595e-01, 2.74599999e-01, 2.29713097e-01, 8.67841486e-03,
          3.75736505e-03, 5.21055236e-02, 9.80916172e-02, 1.53464153e-01,
          3.41050595e-01, 3.41050595e-01, 3.19504701e-02, 5.04257083e-02,
          1.41269848e-01, 1.96117833e-02, 6.14816621e-02, 4.02613789e-01,
          4.11553793e-02, 2.18053837e-03, 1.42138511e-01, 1.71037376e-01,
          4.52840663e-02, 1.02205604e-01, 3.02449822e-01, 1.50700705e-03,
          2.68671252e-02, 1.87931672e-01, 6.86677173e-02, 4.94332016e-02,
          2.41042137e-01, 4.02613789e-01, 1.74121693e-01, 1.15508595e-02,
          6.86677173e-02, 5.28901853e-02, 1.62086129e-01, 4.02613789e-01,
          4.02613789e-01, 0., 0., 5.28901853e-02, 7.40432274e-03,
          3.44198614e-01, 3.77414435e-01, 3.77414435e-01, 1.68700114e-01,
          7.19018094e-03, 7.40432274e-03, 1.01072133e-01, 1.01184785e-01,
          1.52374133e-01, 3.77414435e-01, 3.77414435e-01, 2.64713857e-02,
          1.01072133e-01, 1.05776044e-03, 3.77414435e-01, 1.92230403e-01,
          4.68416959e-02, 0., 0., 1.05776044e-03, 1.44388760e-02,
          1.89961568e-01, 7.21955821e-02, 3.84177156e-02, 0., 0.,
          1.44388760e-02, 1.20625056e-01, 3.22136991e-02, 1.48676217e-01,
          4.06800985e-01, 1.08424917e-01, 8.26072320e-03, 1.20625056e-01,
          1.00686230e-01, 3.82428139e-01, 4.18523550e-01, 4.18523550e-01,
          0., 0., 1.00686230e-01, 1.72321498e-02, 0., 0., 9.89796873e-03,
          0., 0., 1.72321498e-02, 2.77394149e-02, 4.18523550e-01,
          1.97164506e-01, 1.82064652e-01, 0., 0., 2.77394149e-02 ]
      - [ 5.17937355e-02, 3.33856940e-01, 1.53099418e-01, 1.72667932e-02,
          8.75096321e-02, 4.68184426e-02, 1.66176967e-02, 1.43311992e-01,
          3.33856940e-01, 1.28844857e-01, 1.97644494e-02, 3.33856940e-01,
          1.57115668e-01, 1.24342948e-01, 1.43243641e-01, 3.33856940e-01,
          2.08665371e-01, 3.72788496e-02, 6.63546026e-02, 2.89151166e-02,
          6.64315671e-02, 2.61811882e-01, 3.33856940e-01, 1.47031218e-01,
          4.55778502e-02, 2.08606780e-01, 5.30975237e-02, 3.33856940e-01,
          1.07409425e-01, 2.97917843e-01, 2.48715207e-01, 7.65014160e-03,
          1.59866184e-01, 6.42174408e-02, 6.88664466e-02, 2.07141135e-02,
          2.97917843e-01, 1.97059870e-01, 2.15361398e-02, 2.87740856e-01,
          2.56669164e-01, 6.20401883e-03, 1.67496920e-01, 2.97917843e-01,
          2.26650089e-01, 5.84089831e-02, 7.94576332e-02, 3.50285955e-02,
          1.34902298e-01, 4.93947677e-02, 2.97917843e-01, 2.34706521e-01,
          9.77924243e-02, 2.62569755e-01, 2.97917843e-01, 1.11006483e-01,
          1.46082863e-01, 3.31477106e-01, 2.51662612e-01, 5.67230694e-02,
          2.07283944e-02, 5.30450884e-03, 1.10454500e-01, 1.84021547e-01,
          2.58518338e-01, 2.44481534e-01, 9.31934565e-02, 4.19445261e-02,
          1.71949714e-02, 2.36960739e-01, 8.70316550e-02, 3.31477106e-01,
          3.06691796e-01, 3.80141996e-02, 2.82806531e-02, 6.31263107e-02,
          1.69089168e-01, 4.03436460e-02, 2.35124245e-01, 3.22938204e-01,
          2.08234757e-01, 1.30508900e-01, 1.57733157e-01, 2.57093787e-01,
          1.07657313e-01, 2.45661065e-01, 2.60045975e-01, 1.14901863e-01,
          2.38397494e-02, 1.75106321e-02, 8.08757395e-02, 7.73214102e-02,
          2.70055175e-01, 2.70055175e-01, 1.98051304e-01, 1.10216849e-01,
          1.44465208e-01, 2.01642573e-01, 1.10941187e-01, 2.69948810e-01,
          2.70055175e-01, 2.58701563e-01, 8.53134692e-02, 7.70227686e-02,
          9.54068676e-02, 1.89506069e-01, 2.70055175e-01, 2.70055175e-01,
          2.70055175e-01, 2.15584233e-01, 7.72918090e-02, 1.33704588e-01 ]
      - [ 4.53820750e-02, 2.92069018e-01, 2.10882992e-01, 4.10565883e-02,
          7.68396035e-02, 8.99569988e-02, 5.59994988e-02, 7.08917975e-02,
          1.36810139e-01, 7.78984204e-02, 1.62259877e-01, 2.92069018e-01,
          2.00261652e-01, 1.84479892e-01, 7.36601204e-02, 2.92069018e-01,
          2.92069018e-01, 4.62051965e-02, 9.43913832e-02, 1.48393139e-01,
          1.58451349e-01, 2.92069018e-01, 2.92069018e-01, 1.95965707e-01,
          1.70480013e-01, 1.20710909e-01, 2.42260963e-01, 2.92069018e-01,
          4.91369814e-02, 0., 2.61434517e-03, 4.73396815e-02,
          2.42730603e-01, 2.76306361e-01, 1.63884819e-01, 7.99257234e-02,
          2.76306361e-01, 4.88776155e-02, 1.52600687e-02, 1.61214396e-01,
          2.76306361e-01, 2.74845809e-01, 2.31775850e-01, 2.96195317e-02,
          8.77141394e-03, 7.82272890e-02, 1.57937169e-01, 2.76306361e-01,
          2.76306361e-01, 1.73071966e-01, 2.76306361e-01, 7.09495172e-02,
          2.60759201e-02, 2.53165215e-01, 2.76306361e-01, 2.76306361e-01,
          1.54415257e-02, 2.92682469e-01, 2.92682469e-01, 8.08750615e-02,
          7.05975443e-02, 1.19741127e-01, 3.81298289e-02, 8.35422203e-02,
          1.95794865e-01, 2.92682469e-01, 2.92682469e-01, 1.57956392e-01,
          5.39010614e-02, 1.39251590e-01, 2.38710493e-02, 2.92682469e-01,
          2.92682469e-01, 1.10431544e-01, 1.10558741e-01, 2.22631469e-01,
          4.64633480e-03, 1.37730138e-02, 1.72487289e-01, 2.92682469e-01,
          2.92682469e-01, 2.92682469e-01, 3.82753909e-02, 3.23888799e-03,
          1.04048774e-01, 3.98257971e-02, 3.05542741e-02, 2.77475804e-01,
          2.77475804e-01, 2.39102900e-01, 1.25082389e-01, 5.67392819e-02,
          2.77475804e-01, 1.09393477e-01, 1.52075633e-01, 2.77475804e-01,
          2.77475804e-01, 1.57310322e-01, 3.40332203e-02, 2.87474450e-02,
          4.67814989e-02, 2.77475804e-01, 2.77475804e-01, 1.30268440e-01,
          3.22864354e-02, 7.76041895e-02, 2.77475804e-01, 1.22291483e-01,
          1.69158697e-01, 2.77475804e-01, 2.77475804e-01, 7.93714598e-02 ]
      - [ 2.37148646e-02, 2.99025346e-02, 3.11925411e-02, 3.30105782e-01,
          1.77045241e-01, 3.09472457e-02, 2.71473266e-02, 3.96210514e-02,
          2.59673186e-02, 1.21078797e-01, 3.31555843e-01, 1.78492978e-01,
          6.82834536e-02, 5.81311136e-02, 9.85462889e-02, 4.11771145e-03,
          1.95644684e-02, 3.31555843e-01, 3.31555843e-01, 3.42095457e-02,
          3.31555843e-01, 1.24218419e-01, 2.63106381e-03, 6.27460480e-02,
          3.31555843e-01, 3.23248595e-01, 2.68626790e-02, 3.31555843e-01,
          2.59489678e-02, 9.01305117e-03, 1.08224779e-01, 3.46286029e-01,
          8.75840187e-02, 1.23103924e-01, 1.04907006e-01, 9.00438875e-02,
          4.66347998e-03, 1.42613634e-01, 3.46286029e-01, 7.22193271e-02,
          1.03212692e-01, 2.34127462e-01, 1.03986286e-01, 2.21181717e-02,
          1.40637457e-01, 3.46286029e-01, 1.39150575e-01, 2.07723267e-02,
          3.46286029e-01, 1.61071509e-01, 1.38860777e-01, 3.46286029e-01,
          3.46286029e-01, 8.05230066e-02, 2.12909561e-02, 1.69015542e-01,
          2.60625869e-01, 1.91908877e-03, 9.95976757e-03, 8.51239562e-02,
          8.19703713e-02, 2.98290215e-02, 3.22835207e-01, 3.22835207e-01,
          1.15145335e-03, 2.06584577e-03, 1.80502519e-01, 1.13786809e-01,
          6.11142181e-02, 3.22835207e-01, 2.39608392e-01, 1.28470168e-01,
          9.40434933e-02, 7.21027926e-02, 3.25454399e-02, 3.75037529e-02,
          3.22835207e-01, 2.70512551e-01, 2.73274295e-02, 9.61170997e-03,
          1.44085167e-02, 3.02289575e-01, 2.95770675e-01, 3.22835207e-01,
          2.58900315e-01, 2.38822326e-02, 3.49698476e-02, 2.25939855e-01,
          6.88294470e-02, 7.65830204e-02, 3.12569678e-01, 3.12569678e-01,
          1.55789092e-01, 1.19145982e-01, 2.52430767e-01, 1.85388364e-02,
          3.45933847e-02, 3.12569678e-01, 1.50826201e-01, 1.22899469e-02,
          3.10683362e-02, 3.97943109e-02, 2.46639520e-01, 2.87543029e-01,
          3.12569678e-01, 2.45559633e-01, 4.52586710e-02, 6.41476959e-02,
          6.38355613e-02, 9.84839424e-02, 1.58047080e-01, 3.12569678e-01 ]
      - [ 4.77996608e-03, 2.31434964e-03, 6.17309241e-04, 3.55001777e-01,
          6.28286749e-02, 1.46940979e-03, 8.00879672e-03, 1.89938191e-02,
          1.10081176e-03, 2.74452846e-04, 3.55001777e-01, 6.65545166e-02,
          4.07487107e-03, 2.15388052e-02, 3.55001777e-01, 1.74624191e-04,
          5.82080611e-05, 3.55001777e-01, 1.18370377e-01, 1.02858683e-02,
          2.79915988e-01, 3.55001777e-01, 1.04774525e-04, 3.49248439e-05,
          3.55001777e-01, 1.10375457e-01, 1.73753798e-02, 3.55001777e-01,
          3.34445126e-02, 7.34049943e-04, 2.44683324e-04, 3.55200768e-01,
          4.38779630e-02, 2.41126074e-03, 1.21825160e-02, 5.80615290e-02,
          1.22341653e-03, 4.07805492e-04, 3.55200768e-01, 6.37414679e-02,
          1.35226408e-03, 2.52887961e-02, 3.55200768e-01, 3.03214882e-04,
          3.49547590e-05, 3.55200768e-01, 7.16983452e-02, 2.35185213e-03,
          2.95497686e-01, 3.55200768e-01, 5.05358155e-04, 5.82579305e-05,
          3.55200768e-01, 9.76564735e-02, 1.13743532e-04, 3.55200768e-01,
          4.18440789e-01, 1.08370441e-03, 0., 2.16725573e-01,
          4.75070961e-02, 1.16673838e-02, 4.18440789e-01, 4.18440789e-01,
          7.42683141e-03, 4.37765103e-03, 2.51878440e-01, 3.48769762e-02,
          1.54125337e-02, 4.18440789e-01, 2.23805249e-01, 2.94297677e-03,
          0., 6.78384793e-04, 1.63368450e-03, 4.94158454e-03,
          1.82952687e-01, 2.33368754e-01, 1.23780528e-02, 7.29608489e-03,
          0., 1.46671687e-03, 4.68386523e-03, 2.06944197e-01,
          4.49543059e-01, 5.74463140e-03, 4.97614872e-03, 2.09422231e-01,
          2.93583851e-02, 2.86787306e-03, 4.49543059e-01, 4.49543059e-01,
          4.22868831e-03, 1.01247826e-03, 2.38144413e-01, 4.76042219e-02,
          4.80946619e-03, 4.49543059e-01, 1.59205765e-01, 8.58734269e-03,
          8.52815807e-03, 1.76471818e-04, 2.71443906e-03, 4.56129480e-03,
          1.33826017e-01, 1.49306312e-01, 1.15488367e-02, 3.32950708e-03,
          3.62651888e-03, 1.19855460e-02, 8.49944539e-03, 1.31341830e-01 ]
      - [ 1.19017512e-02, 8.81614387e-02, 1.74236760e-01, 3.36825818e-01,
          4.23727557e-02, 1.78017430e-02, 3.00304946e-02, 2.46975245e-03,
          4.39825691e-02, 9.32035744e-02, 3.36825818e-01, 3.18164110e-01,
          8.83056149e-02, 3.23857926e-03, 3.37926671e-02, 6.02996349e-03,
          5.21313697e-02, 3.36825818e-01, 6.36639819e-02, 2.89427638e-01,
          3.36825818e-01, 5.13049513e-02, 3.89652851e-04, 3.77907157e-02,
          3.36825818e-01, 2.28436634e-01, 8.37421268e-02, 3.36825818e-01,
          1.37471752e-02, 9.99508146e-03, 4.17402387e-02, 3.02214235e-01,
          3.02214235e-01, 3.02214235e-01, 2.64732428e-02, 1.51652589e-01,
          1.97903961e-02, 9.02463719e-02, 1.50264397e-01, 1.92588776e-01,
          2.65232891e-01, 1.44941702e-01, 1.43902272e-01, 3.50741372e-02,
          1.33448049e-01, 3.02214235e-01, 2.39078522e-01, 3.65469567e-02,
          3.02214235e-01, 1.46322012e-01, 9.20919850e-02, 3.02214235e-01,
          3.02214235e-01, 1.16048999e-01, 3.75016816e-02, 1.71311736e-01,
          3.24140713e-02, 0., 0., 4.15336266e-02, 1.70620326e-02,
          3.64432365e-01, 3.64432365e-01, 1.16948992e-01, 0.,
          3.83716519e-03, 8.60809907e-02, 5.38057275e-02, 1.34647906e-01,
          3.64432365e-01, 2.14431826e-02, 0., 0., 0., 7.47809485e-02,
          3.64432365e-01, 3.15762579e-01, 8.69274437e-02, 0., 0.,
          2.19745678e-03, 2.02436268e-01, 3.64432365e-01, 3.64432365e-01,
          2.49576151e-01, 1.69512779e-02, 4.77901325e-02, 9.14096013e-02,
          5.93281090e-02, 4.79491316e-02, 3.29925388e-01, 1.86310351e-01,
          5.17050847e-02, 1.14254102e-01, 1.09707877e-01, 6.56811371e-02,
          9.64581072e-02, 3.29925388e-01, 1.08997330e-01, 6.60523307e-04,
          1.88494654e-04, 5.07834442e-02, 3.29925388e-01, 2.54799217e-01,
          3.29925388e-01, 6.93560094e-02, 4.11678664e-03, 1.31946255e-03,
          1.06904805e-01, 3.29925388e-01, 3.04682821e-01, 3.29925388e-01 ]
      - [ 7.35919103e-02, 8.62430260e-02, 6.84549287e-02, 1.52910635e-01,
          1.57879233e-01, 2.43532896e-01, 1.65805817e-01, 1.36198416e-01,
          2.60377854e-01, 1.96501106e-01, 1.74501821e-01, 1.12437487e-01,
          2.19795048e-01, 1.69177026e-01, 1.56743675e-01, 5.15677258e-02,
          5.93689010e-02, 2.60377854e-01, 1.57110438e-01, 2.60377854e-01,
          2.57827550e-01, 2.60377854e-01, 2.60377854e-01, 1.76432043e-01,
          2.60377854e-01, 1.71955571e-01, 1.30535945e-01, 2.47258842e-01,
          7.37916827e-02, 2.38260955e-01, 5.42275421e-02, 1.76582709e-02,
          9.99986380e-03, 1.70583054e-01, 1.71845272e-01, 2.25536332e-01,
          2.75438070e-01, 5.45323715e-02, 2.50906616e-01, 6.35749055e-03,
          1.98975116e-01, 2.39243254e-01, 9.35786813e-02, 2.56187707e-01,
          1.21577092e-01, 2.75438070e-01, 7.67204762e-02, 7.24727586e-02,
          1.11056134e-01, 2.20666379e-01, 2.60049403e-01, 2.75438070e-01,
          2.75438070e-01, 6.57176152e-02, 2.16282353e-01, 2.75438070e-01,
          1.81386992e-02, 4.64215036e-03, 1.34720374e-02, 3.47698778e-01,
          9.85926315e-02, 8.16332102e-02, 8.48016664e-02, 3.89644206e-02,
          2.10178066e-02, 2.06958428e-02, 3.47698778e-01, 1.19358033e-01,
          6.35191500e-02, 9.21878666e-02, 6.05221912e-02, 8.72792397e-03,
          4.30751685e-03, 2.70356327e-01, 1.01697780e-01, 2.28820607e-01,
          3.47698778e-01, 2.63720781e-01, 5.22811385e-03, 4.00836719e-03,
          3.47698778e-01, 9.34870690e-02, 3.47698778e-01, 3.47698778e-01,
          1.69890746e-02, 2.32819356e-02, 5.08253165e-02, 2.92961091e-01,
          4.48207185e-02, 1.43195372e-02, 3.23718451e-02, 3.55833806e-02,
          5.83427548e-02, 2.67902076e-01, 2.92961091e-01, 6.74608126e-02,
          2.19774246e-02, 5.62138669e-02, 2.57489085e-01, 4.22825925e-02,
          4.41786796e-02, 2.92961091e-01, 2.97347810e-02, 9.54542607e-02,
          2.92961091e-01, 2.54434317e-01, 2.72455543e-01, 2.88937926e-01,
          2.92961091e-01, 2.66986907e-01, 1.30507275e-01, 2.92961091e-01 ]
      - [ 4.28938903e-02, 1.25351101e-01, 9.80861485e-02, 4.50957604e-02,
          3.02608877e-01, 3.03749084e-01, 8.30194056e-02, 5.58111779e-02,
          8.80271569e-02, 4.17996086e-02, 3.60937640e-02, 3.03749084e-01,
          3.03749084e-01, 1.04588881e-01, 2.14165393e-02, 5.10112569e-02,
          1.39151111e-01, 1.21229969e-01, 3.03749084e-01, 3.03749084e-01,
          8.15567896e-02, 1.75648741e-02, 8.40036720e-02, 1.98254779e-01,
          1.26057684e-01, 3.03749084e-01, 3.03749084e-01, 3.03749084e-01,
          6.95903320e-03, 1.69986580e-02, 3.50462645e-02, 6.99516311e-02,
          2.86029428e-01, 2.86029428e-01, 6.37111813e-02, 1.08588219e-01,
          1.19991496e-01, 1.11365661e-01, 2.42101416e-01, 2.86029428e-01,
          1.40548840e-01, 2.58932952e-02, 3.15769427e-02, 5.70252500e-02,
          6.04925640e-02, 2.51096282e-02, 2.09927589e-01, 2.86029428e-01,
          2.86029428e-01, 2.86029428e-01, 2.86029428e-01, 1.46625265e-01,
          7.12148324e-02, 2.31301010e-01, 2.86029428e-01, 2.86029428e-01,
          5.24345925e-03, 1.22341989e-02, 7.02727288e-02, 8.29541385e-02,
          2.81075209e-01, 2.39850506e-01, 3.10178120e-02, 9.97539982e-03,
          1.59538418e-01, 2.81075209e-01, 1.47241279e-01, 2.26252109e-01,
          2.73797959e-01, 2.18386620e-01, 5.54013066e-04, 2.83181705e-02,
          5.23989275e-02, 8.05740133e-02, 2.81075209e-01, 2.81075209e-01,
          6.22810610e-02, 7.31810462e-03, 2.49235317e-01, 2.81075209e-01,
          2.72261053e-01, 2.81075209e-01, 2.81075209e-01, 4.88269590e-02,
          3.37857977e-02, 8.97863507e-02, 1.51067883e-01, 1.18854143e-01,
          7.76194111e-02, 2.71273047e-01, 2.71273047e-01, 2.52629071e-01,
          1.54678255e-01, 1.05659664e-01, 1.28644168e-01, 8.10653940e-02,
          2.71273047e-01, 2.71273047e-01, 2.74597611e-02, 1.35595933e-01,
          2.34456107e-01, 2.71273047e-01, 2.02114433e-01, 1.86353117e-01,
          1.23990208e-01, 1.08194135e-01, 8.17934126e-02, 1.73477545e-01,
          2.51948774e-01, 1.75864547e-01, 2.71273047e-01, 2.71273047e-01 ]
      - [ 6.18566712e-03, 0., 0., 9.77509618e-02, 2.12443963e-01,
          3.30864072e-01, 2.63210740e-02, 7.04495907e-02, 1.97147802e-01,
          1.14565328e-01, 1.33613385e-02, 3.29447627e-01, 3.30864072e-01,
          9.51791257e-02, 8.55161622e-02, 0., 0., 1.03462681e-01,
          1.30493388e-01, 2.53810048e-01, 2.60883570e-01, 3.30864072e-01,
          1.67044297e-01, 2.64592133e-02, 1.22583434e-02, 1.51364490e-01,
          3.30864072e-01, 3.30864072e-01, 9.68361869e-02, 3.08508962e-01,
          1.88552201e-01, 3.56234820e-03, 7.95656145e-02, 1.93823159e-01,
          1.22799359e-01, 9.75910723e-02, 2.73431808e-01, 7.65431598e-02,
          1.06645850e-02, 1.85454208e-02, 1.94611713e-01, 3.08508962e-01,
          3.08508962e-01, 3.08508962e-01, 6.32773861e-02, 0.,
          2.71091629e-02, 1.39251962e-01, 3.08508962e-01, 1.17325246e-01,
          2.66288102e-01, 4.31233644e-02, 2.24212427e-02, 5.04206307e-02,
          3.05683494e-01, 2.85443395e-01, 2.01507032e-01, 0., 0.,
          2.82251518e-02, 2.72798482e-02, 1.67864889e-01, 5.10290265e-01,
          5.10290265e-01, 6.37588575e-02, 0., 3.80495400e-03,
          2.48607807e-02, 2.32243642e-01, 5.10290265e-01, 4.24862988e-02,
          0., 0., 0., 0., 7.77155673e-03, 7.57853463e-02, 1.62470177e-01,
          0., 0., 0., 0., 1.69521570e-02, 2.24639818e-01, 3.74388337e-01,
          1.06406219e-01, 5.49224531e-03, 4.44292440e-04, 1.14953360e-02,
          1.05857834e-01, 3.74388337e-01, 1.15236789e-01, 7.69323260e-02,
          9.15374234e-03, 2.97299735e-02, 9.44318622e-02, 3.74388337e-01,
          3.65063369e-01, 8.25916082e-02, 0., 0., 3.11004720e-03,
          6.01590052e-02, 1.52836442e-01, 1.48066938e-01, 7.90521130e-02,
          0., 0., 4.59021628e-02, 3.66459876e-01, 3.74388337e-01,
          2.28398591e-01 ]
      - [ 3.89660336e-02, 2.76404116e-02, 8.42767581e-02, 7.53453895e-02,
          1.74364429e-02, 3.01290125e-01, 3.01290125e-01, 1.84268475e-01,
          4.95836586e-02, 1.66254148e-01, 3.01290125e-01, 1.30611584e-01,
          2.81660914e-01, 3.01290125e-01, 8.14885944e-02, 0.,
          4.43898374e-03, 1.64582152e-02, 2.21587904e-02, 2.98771024e-01,
          3.01290125e-01, 3.01290125e-01, 9.84995626e-03, 7.97640309e-02,
          1.29020765e-01, 9.75509584e-02, 2.37569496e-01, 3.01290125e-01,
          2.76038080e-01, 6.77730516e-02, 6.18736073e-02, 2.96486706e-01,
          1.58324793e-01, 7.06088170e-02, 2.87093163e-01, 2.96486706e-01,
          6.55330420e-02, 3.77267748e-02, 1.89276099e-01, 5.98666035e-02,
          1.35225337e-02, 2.53310114e-01, 2.96486706e-01, 3.78042497e-02,
          9.42498296e-02, 1.12553626e-01, 1.53607592e-01, 9.37075913e-02,
          2.96486706e-01, 2.96486706e-01, 4.43574600e-02, 6.71323091e-02,
          2.07725242e-01, 2.15928644e-01, 1.06936172e-01, 2.96486706e-01,
          6.52673990e-02, 0., 0., 1.19645931e-02, 6.51794970e-02,
          2.61453271e-01, 1.77983359e-01, 2.64348269e-01, 1.40826544e-02,
          2.79509634e-01, 2.16933668e-01, 2.06257910e-01, 3.50143075e-01,
          3.50143075e-01, 0., 0., 0., 1.70922745e-03, 3.76978330e-02,
          2.41008252e-01, 3.08644529e-02, 1.13548059e-02, 2.57612038e-02,
          2.77396709e-01, 9.98320505e-02, 1.06946357e-01, 3.50143075e-01,
          3.50143075e-01, 1.35313600e-01, 2.35588998e-02, 2.02684432e-01,
          1.12023965e-01, 1.71247140e-01, 2.86588907e-01, 2.67128617e-01,
          1.20472312e-01, 2.38197241e-02, 9.18734893e-02, 2.25884050e-01,
          2.68850237e-01, 2.86588907e-01, 2.18671277e-01, 6.98804483e-03,
          5.57968244e-02, 2.86588907e-01, 8.81769061e-02, 5.43197729e-02,
          2.86588907e-01, 2.86588907e-01, 1.77969709e-02, 5.15841953e-02,
          1.62491918e-01, 8.52683261e-02, 1.10599704e-01, 2.86588907e-01,
          2.71557301e-01 ]
      - [ 3.26996110e-02, 5.56376949e-02, 3.28736268e-02, 4.53100447e-03,
          3.10408801e-01, 2.57081330e-01, 3.94091271e-02, 1.40054017e-01,
          3.34022716e-02, 3.60487886e-02, 1.39210075e-01, 3.10408801e-01,
          3.10408801e-01, 9.99577418e-02, 5.69921322e-02, 2.29410324e-02,
          2.19916627e-02, 3.11429203e-02, 3.10408801e-01, 3.10408801e-01,
          1.22716889e-01, 1.98023170e-01, 6.29372075e-02, 1.94231719e-01,
          2.38817483e-02, 3.10408801e-01, 3.10408801e-01, 3.10408801e-01,
          2.31380224e-01, 6.27651364e-02, 3.85462940e-02, 1.54859960e-01,
          2.05477536e-01, 1.42715260e-01, 1.55578703e-01, 1.82865620e-01,
          3.68304104e-02, 1.73476450e-02, 3.93174514e-02, 9.93228555e-02,
          2.95778722e-01, 2.52193242e-01, 2.95778722e-01, 1.62627995e-01,
          2.81689525e-01, 3.97974364e-02, 4.97770049e-02, 1.70750633e-01,
          2.95778722e-01, 2.17653960e-01, 1.22034118e-01, 2.53366619e-01,
          9.74123254e-02, 6.93465769e-02, 2.95778722e-01, 2.95778722e-01,
          1.78939886e-02, 2.28051953e-02, 5.09381369e-02, 8.19677934e-02,
          3.07962805e-01, 3.07962805e-01, 1.50342911e-01, 9.13409591e-02,
          9.70523506e-02, 1.65273935e-01, 2.40954049e-02, 1.36671558e-01,
          3.07962805e-01, 3.07962805e-01, 1.41497306e-03, 9.17337835e-02,
          1.73907489e-01, 1.08766250e-01, 2.25163281e-01, 3.07962805e-01,
          1.54958934e-01, 3.63582596e-02, 1.54097050e-01, 2.32510015e-01,
          7.97395781e-02, 1.58908978e-01, 3.07962805e-01, 3.07962805e-01,
          8.01946148e-02, 1.32784665e-01, 2.23229721e-01, 7.30313584e-02,
          7.66685000e-03, 1.29481375e-01, 2.80291200e-01, 5.23574464e-02,
          9.90197137e-02, 2.80291200e-01, 2.80291200e-01, 5.79413138e-02,
          2.80291200e-01, 2.80291200e-01, 2.82893125e-02, 4.49773222e-02,
          1.50926411e-01, 9.69393328e-02, 6.35662600e-02, 2.54032820e-01,
          2.80291200e-01, 2.68677510e-02, 1.64103601e-02, 1.83110818e-01,
          2.80291200e-01, 2.00204268e-01, 2.80291200e-01, 2.80291200e-01 ]
      - [ 2.27844119e-02, 1.93270847e-01, 5.00864983e-02, 7.99864717e-03,
          3.93403508e-02, 5.54012023e-02, 1.29918018e-02, 3.40912670e-01,
          3.86636823e-01, 1.06813453e-01, 0., 2.54223403e-02,
          2.34923381e-02, 2.02915003e-03, 2.85650343e-02, 3.86636823e-01,
          1.79256946e-01, 1.70907043e-02, 3.75526287e-02, 5.35378531e-02,
          2.34551635e-02, 3.62277538e-01, 3.86636823e-01, 3.86636823e-01,
          1.81367487e-01, 1.40172645e-01, 4.75793965e-02, 1.46671105e-03,
          2.98181623e-01, 2.99900711e-01, 5.64034246e-02, 1.98639557e-02,
          5.60799278e-02, 5.91146089e-02, 7.17954477e-03, 2.99900711e-01,
          2.99900711e-01, 1.36067405e-01, 3.75224277e-02, 3.53735499e-02,
          5.51808849e-02, 1.59065910e-02, 2.53015399e-01, 2.99900711e-01,
          2.19430521e-01, 2.26137161e-01, 2.99900711e-01, 9.82792601e-02,
          2.89676432e-03, 1.14118323e-01, 2.99900711e-01, 2.99900711e-01,
          1.21730730e-01, 1.98655888e-01, 5.89675531e-02, 3.87939112e-03,
          2.40718555e-02, 2.88551927e-01, 2.30742246e-01, 4.27791327e-02,
          3.47268581e-02, 6.16500936e-02, 2.29971483e-02, 1.00960277e-01,
          3.29645544e-01, 3.29645544e-01, 3.29645544e-01, 1.27223879e-01,
          2.21050065e-02, 4.32016095e-03, 9.40442532e-02, 2.70141959e-01,
          1.17105395e-01, 4.72891666e-02, 2.62945667e-02, 2.47981120e-02,
          2.08743513e-02, 2.35380799e-01, 3.29645544e-01, 3.29645544e-01,
          3.29645544e-01, 4.52625193e-02, 3.84249389e-02, 1.22193798e-01,
          3.72928791e-02, 2.51425862e-01, 3.21426958e-01, 3.26365441e-01,
          1.85224712e-01, 2.09403299e-02, 8.26656935e-04, 2.41699275e-02,
          3.26365441e-01, 3.26365441e-01, 1.14930131e-01, 1.09990045e-01,
          1.25642000e-02, 1.95631920e-03, 3.21441330e-02, 2.46345237e-01,
          3.24745208e-01, 2.22044498e-01, 4.82569747e-02, 1.88420843e-02,
          2.51444001e-02, 4.12944984e-03, 3.26365441e-01, 3.26365441e-01,
          1.22511826e-01, 2.46221945e-02, 2.61204550e-03, 2.87547358e-03 ]
      - [ 4.89574224e-02, 4.06007826e-01, 4.06007826e-01, 5.15266927e-03,
          9.25483834e-03, 5.56384102e-02, 5.79886101e-02, 2.41663858e-01,
          1.01362243e-01, 3.49921249e-02, 2.47767661e-02, 1.57331936e-02,
          6.34211823e-02, 1.71205699e-01, 7.60783404e-02, 4.06007826e-01,
          4.06007826e-01, 5.76374196e-02, 1.10201593e-02, 8.74480512e-03,
          3.47670950e-02, 1.92391664e-01, 1.59234077e-01, 1.76271304e-01,
          3.27057004e-01, 4.21616845e-02, 1.45921446e-02, 1.02942102e-01,
          2.94002056e-01, 1.80378631e-01, 1.75301433e-02, 5.62601909e-02,
          1.68482829e-02, 7.78991282e-02, 2.49872178e-01, 2.82674342e-01,
          2.84195095e-01, 5.08506671e-02, 2.33788881e-02, 3.56927142e-02,
          1.34435251e-01, 1.18583374e-01, 2.94002056e-01, 5.22101745e-02,
          2.13452876e-01, 2.94002056e-01, 9.60897356e-02, 1.46752954e-01,
          1.81060240e-01, 1.20916106e-01, 1.58293858e-01, 2.84479469e-01,
          2.94002056e-01, 1.22826643e-01, 2.94002056e-01, 1.23826399e-01,
          7.89538994e-02, 3.90023887e-01, 3.90023887e-01, 4.38343808e-02,
          2.07753964e-02, 6.58200961e-03, 5.17693581e-03, 2.26124972e-02,
          1.94889963e-01, 1.90977976e-01, 2.40020767e-01, 8.60929862e-02,
          5.97765781e-02, 1.20601458e-02, 3.35983247e-01, 3.90023887e-01,
          3.70896429e-01, 7.59790046e-03, 1.76555663e-02, 1.71439573e-02,
          2.60687526e-02, 3.44120115e-02, 3.12679052e-01, 1.22735240e-01,
          3.37198414e-02, 7.64336139e-02, 1.17098659e-01, 2.97466852e-02,
          3.84771228e-02, 1.62924945e-01, 3.18516374e-01, 3.18516374e-01,
          1.39848262e-01, 1.34758502e-01, 3.28345895e-02, 5.65303229e-02,
          3.18516374e-01, 3.18516374e-01, 2.56949723e-01, 4.87550385e-02,
          1.55681610e-01, 4.59486470e-02, 8.98661539e-02, 3.18516374e-01,
          2.15256825e-01, 8.68108049e-02, 9.92365181e-02, 1.91264808e-01,
          6.32599294e-02, 7.68459216e-02, 3.18516374e-01, 3.18516374e-01,
          5.13867177e-02, 6.75016828e-03, 2.50868257e-02, 1.68504789e-02 ]
      - [ 5.90101443e-03, 6.58942852e-03, 1.74376310e-03, 2.44365916e-01,
          1.09934881e-01, 4.07151505e-02, 1.29722841e-02, 0.,
          6.65585976e-04, 2.21861992e-04, 3.32742572e-01, 2.00858817e-01,
          7.39805996e-02, 3.63514088e-02, 8.29377547e-02, 0., 0.,
          2.42485061e-01, 1.87204674e-01, 2.85183519e-01, 2.57271975e-01,
          2.76211947e-01, 0., 0., 3.32742572e-01, 3.29276681e-01,
          3.32742572e-01, 3.32742572e-01, 0., 0., 0., 2.88206309e-01,
          1.21777542e-01, 7.12896809e-02, 3.79594676e-02, 2.66931858e-03,
          1.68198869e-02, 4.20208648e-03, 3.05332899e-01, 3.05332899e-01,
          1.59085393e-01, 1.46994203e-01, 9.75265428e-02, 0., 0.,
          3.05332899e-01, 1.74264640e-01, 2.25527287e-01, 3.05332899e-01,
          7.30010048e-02, 5.69817275e-02, 1.28961997e-02, 3.05332899e-01,
          3.05332899e-01, 3.05332899e-01, 3.05332899e-01, 2.41930887e-01,
          0., 0., 4.84989323e-02, 6.35192171e-02, 2.51265556e-01,
          4.23947960e-01, 4.23947960e-01, 0., 0., 1.73158765e-01,
          1.06573604e-01, 3.93570691e-01, 4.23947960e-01, 6.77976981e-02,
          0., 0., 0., 0., 6.06628055e-05, 1.05043627e-01, 2.04183042e-01,
          0., 0., 0., 0., 0., 2.73781806e-01, 1.60533309e-01, 0., 0.,
          3.90568934e-02, 3.53993922e-02, 1.48183092e-01, 3.93393278e-01,
          1.28380075e-01, 2.89470796e-02, 6.55135093e-03, 1.30352333e-01,
          1.46281034e-01, 4.15563554e-01, 4.15563554e-01, 4.16339226e-02,
          0., 0., 0., 2.44718306e-02, 8.64272639e-02, 7.00886175e-02,
          4.27471399e-02, 0., 0., 3.96960638e-02, 4.15563554e-01,
          4.15563554e-01, 1.61061287e-01 ]
      - [ 1.78692669e-01, 9.27278586e-03, 4.06424236e-03, 2.45687850e-02,
          3.05582359e-02, 5.73735833e-02, 2.08940640e-01, 1.55947492e-01,
          5.78054343e-04, 9.05123365e-04, 2.00833939e-02, 6.38176426e-02,
          1.38451874e-01, 3.11577380e-01, 1.59322053e-01, 1.91473253e-02,
          6.54918104e-02, 3.48036855e-01, 1.27440616e-01, 3.19334269e-02,
          2.34247327e-01, 3.48036855e-01, 2.89865613e-01, 2.49081850e-01,
          3.48036855e-01, 1.60102487e-01, 1.12117507e-01, 3.48036855e-01,
          5.52121326e-02, 0., 7.67149977e-05, 4.68471646e-03,
          2.24346370e-02, 1.05406567e-01, 1.61692068e-01, 6.22611120e-02,
          0., 0., 6.07572263e-03, 4.51695286e-02, 3.91982615e-01,
          2.28998035e-01, 3.91982615e-01, 1.44529521e-01, 7.00837076e-02,
          1.36810213e-01, 5.96114211e-02, 1.14490412e-01, 3.91982615e-01,
          3.91982615e-01, 8.31971988e-02, 2.89012981e-03, 2.51911916e-02,
          3.50522622e-02, 2.42151737e-01, 3.91982615e-01, 9.34930332e-03,
          2.63193864e-02, 4.69830371e-02, 3.68279904e-01, 1.14019990e-01,
          3.88714261e-02, 1.43448850e-02, 1.75504118e-01, 3.68279904e-01,
          3.68279904e-01, 3.68279904e-01, 7.97876343e-02, 4.12978679e-02,
          9.84148309e-02, 1.71992928e-02, 4.15537357e-02, 3.97886820e-02,
          1.94936395e-01, 1.61392584e-01, 8.28539655e-02, 4.57071587e-02,
          5.42424321e-02, 3.68279904e-01, 3.68279904e-01, 1.19962327e-01,
          1.09226994e-01, 9.33788121e-02, 4.10566851e-02, 3.20974320e-01,
          2.98565209e-01, 2.71507859e-01, 5.33679128e-02, 1.25911692e-02,
          1.57804638e-02, 2.20565036e-01, 3.20974320e-01, 1.10734396e-01,
          4.66014519e-02, 4.04900545e-03, 4.07879194e-03, 1.31901922e-02,
          3.20974320e-01, 1.22680537e-01, 3.20974320e-01, 3.20974320e-01,
          1.05193807e-02, 7.91292731e-03, 6.67217607e-03, 6.97443113e-02,
          2.56036818e-01, 3.20974320e-01, 1.83950320e-01, 3.29866074e-03,
          0., 0., 1.72355577e-01 ]
      - [ 1.24248639e-02, 3.75175700e-02, 1.03401663e-02, 2.79157847e-01,
          4.58438918e-02, 1.25922041e-03, 1.66130345e-03, 1.55225629e-03,
          1.94307975e-02, 2.87945401e-02, 3.83422405e-01, 6.46403432e-02,
          5.12156123e-03, 0., 1.04180835e-01, 9.25015751e-03,
          4.50217724e-03, 3.83422405e-01, 2.86648273e-01, 3.39277014e-02,
          3.81446332e-01, 2.07305595e-01, 3.69363604e-03, 2.00883765e-02,
          3.83422405e-01, 1.94472149e-01, 3.07293655e-03, 3.83422405e-01,
          4.67467075e-03, 1.39025534e-02, 1.12672649e-01, 3.60349000e-01,
          3.48351374e-02, 6.76959660e-03, 2.67252279e-03, 8.25522002e-03,
          1.10151833e-02, 1.60951853e-01, 2.28808224e-01, 2.81756558e-02,
          3.71500589e-02, 1.99808795e-02, 1.58294663e-01, 7.42209777e-02,
          3.60349000e-01, 3.60349000e-01, 8.42025504e-02, 3.00189247e-03,
          3.60349000e-01, 6.55842870e-02, 2.34819427e-01, 3.60349000e-01,
          3.60349000e-01, 3.61092798e-02, 1.32416459e-02, 1.53321818e-01,
          2.83523202e-01, 9.52587370e-03, 6.64677611e-03, 2.38881320e-01,
          1.41168252e-01, 4.24955189e-02, 3.61704260e-01, 3.61704260e-01,
          1.42920604e-02, 6.71986025e-03, 3.61704260e-01, 7.99776912e-02,
          3.17838349e-05, 3.61704260e-01, 1.80079371e-01, 4.65846471e-02,
          1.24062020e-02, 1.29281888e-02, 0., 7.33306492e-03,
          2.23557353e-01, 2.95560896e-01, 6.18186258e-02, 8.73427093e-03,
          5.79936523e-03, 4.00395645e-03, 4.05623205e-03, 3.61704260e-01,
          2.60319889e-01, 6.83980808e-02, 1.49897516e-01, 2.56614178e-01,
          2.29847971e-02, 4.73937318e-02, 3.04975599e-01, 1.29044995e-01,
          3.04975599e-01, 3.04975599e-01, 1.06108747e-01, 8.58472660e-03,
          7.89895505e-02, 3.04975599e-01, 1.65394261e-01, 2.04886906e-02,
          1.99578442e-02, 3.82704486e-04, 3.14518176e-02, 1.18221045e-01,
          3.04975599e-01, 1.89877614e-01, 2.99687833e-01, 1.83273390e-01,
          1.35819064e-04, 4.77147512e-02, 1.90412357e-01, 3.04975599e-01 ]
      - [ 5.60805388e-03, 0., 0., 8.12071003e-03, 2.82605499e-01,
          2.82605499e-01, 3.34901661e-02, 2.66607016e-01, 2.74656147e-01,
          5.81624024e-02, 0., 2.82605499e-01, 2.82605499e-01,
          9.97676551e-02, 9.77526791e-03, 0., 0., 8.85078013e-02,
          2.63490707e-01, 2.82605499e-01, 1.18525930e-01, 2.31272310e-01,
          9.27784517e-02, 1.48031652e-01, 1.62341341e-01, 2.82605499e-01,
          2.82605499e-01, 2.74365485e-01, 2.81357229e-01, 2.93936700e-01,
          1.45563945e-01, 8.32980557e-04, 1.06203265e-01, 2.93936700e-01,
          5.17750531e-02, 4.76852618e-02, 2.93936700e-01, 1.80880100e-01,
          7.47510195e-02, 5.18979505e-02, 2.93936700e-01, 9.69995633e-02,
          2.16716275e-01, 2.06813425e-01, 2.93936700e-01, 1.29885361e-01,
          1.65081024e-01, 1.69139996e-01, 1.01552792e-01, 4.23791222e-02,
          1.21872030e-01, 2.13374093e-01, 1.74899042e-01, 1.61575049e-01,
          2.93936700e-01, 1.41502693e-01, 4.05565184e-03, 0.,
          5.02344593e-03, 1.41332984e-01, 3.25566888e-01, 3.00501347e-01,
          4.99690101e-02, 8.06288272e-02, 4.94110510e-02, 1.42062873e-01,
          2.86558777e-01, 3.25566888e-01, 1.36692047e-01, 1.09408721e-01,
          4.38142428e-03, 0., 1.80063304e-02, 9.16385949e-02,
          3.25566888e-01, 3.25566888e-01, 4.45217118e-02, 9.54685211e-02,
          2.00213641e-01, 2.78936774e-01, 1.66806474e-01, 3.25566888e-01,
          2.03360736e-01, 7.18288571e-02, 1.42681330e-01, 2.41271362e-01,
          2.86968082e-01, 2.20814228e-01, 2.26659492e-01, 4.73835580e-02,
          5.92636541e-02, 7.96946138e-02, 2.27727592e-01, 2.01723546e-01,
          1.29960194e-01, 1.48028314e-01, 2.86968082e-01, 2.06711054e-01,
          2.01083586e-01, 2.86968082e-01, 2.86968082e-01, 1.02570593e-01,
          7.27409124e-02, 8.34530126e-03, 2.81066746e-02, 1.69950053e-01,
          2.86968082e-01, 2.19653264e-01, 7.90261552e-02, 6.80772290e-02,
          2.04992607e-01, 1.82606220e-01 ]
      - [ 3.06241382e-02, 3.11649680e-01, 1.33293897e-01, 2.10344382e-02,
          9.54672042e-03, 0., 5.22162579e-03, 1.02271691e-01,
          1.52529359e-01, 8.68347287e-02, 2.98772901e-01, 5.30902632e-02,
          9.05537140e-03, 1.21035464e-02, 7.49702230e-02, 3.46470892e-01,
          1.04615867e-01, 8.66939202e-02, 1.58028051e-01, 1.80646107e-01,
          2.39656381e-02, 3.52387764e-02, 1.22135244e-01, 8.34014043e-02,
          4.04253006e-01, 4.04253006e-01, 4.04253006e-01, 1.74107999e-01,
          2.69575436e-02, 1.20085375e-02, 1.61719304e-02, 2.17335582e-01,
          5.89004792e-02, 8.46258551e-02, 1.73716173e-02, 4.78505297e-03,
          9.22046229e-02, 5.09328842e-02, 1.54439315e-01, 1.06483504e-01,
          1.69607267e-01, 1.64344199e-02, 1.20975962e-02, 8.10283646e-02,
          1.71293914e-01, 3.76523733e-01, 3.76523733e-01, 2.10989282e-01,
          8.02179500e-02, 1.80013347e-02, 3.76523733e-01, 3.76523733e-01,
          3.76523733e-01, 2.36912698e-01, 9.23308656e-02, 2.75809187e-02,
          5.23741320e-02, 1.55858964e-01, 2.29526851e-02, 2.26766411e-02,
          9.13108364e-02, 2.00252548e-01, 7.47672692e-02, 9.45984479e-03,
          2.72331499e-02, 9.58523341e-03, 3.39217067e-01, 3.87042552e-01,
          3.87042552e-01, 3.87042552e-01, 4.52306755e-02, 1.10665895e-01,
          8.68841782e-02, 2.21903995e-02, 1.30659649e-02, 7.93941021e-02,
          9.07966197e-02, 1.84800494e-02, 2.25256290e-02, 3.71532962e-02,
          1.62824411e-02, 9.73694474e-02, 3.87042552e-01, 3.87042552e-01,
          6.74727187e-02, 1.09309554e-01, 9.91382003e-02, 2.73765534e-01,
          2.05699310e-01, 2.73765534e-01, 2.73765534e-01, 1.13966413e-01,
          2.73765534e-01, 2.73765534e-01, 2.72659421e-01, 6.94550946e-02,
          8.79176259e-02, 1.25323489e-01, 1.26709551e-01, 8.10240358e-02,
          2.30670031e-02, 1.27928937e-02, 3.47591713e-02, 2.73765534e-01,
          2.73765534e-01, 2.73765534e-01, 2.73765534e-01, 1.48151830e-01,
          2.16821060e-02, 1.06791686e-02, 1.28446579e-01, 2.73765534e-01 ]
      - [ 7.87954554e-02, 1.60772786e-01, 1.48922488e-01, 7.72359688e-03,
          5.72420321e-02, 7.01402947e-02, 7.71656185e-02, 1.03467591e-01,
          7.01642483e-02, 2.18344003e-01, 1.02311514e-01, 3.03436726e-01,
          3.01754415e-01, 3.03436726e-01, 1.11925073e-01, 2.46165857e-01,
          2.88265854e-01, 5.96700907e-02, 7.30401799e-02, 6.28324375e-02,
          6.38264045e-02, 2.30218291e-01, 4.91358340e-02, 1.38856560e-01,
          2.47753933e-01, 3.03436726e-01, 3.03436726e-01, 2.93571889e-01,
          6.84046224e-02, 1.09651171e-01, 2.42162555e-01, 1.59063309e-01,
          9.47826207e-02, 1.26953453e-01, 1.70911029e-01, 5.01297452e-02,
          1.55337721e-01, 1.61534011e-01, 1.31578401e-01, 1.74368039e-01,
          2.54407674e-01, 5.91665804e-02, 7.00554475e-02, 2.35990033e-01,
          2.66926110e-01, 2.66926110e-01, 1.97466910e-01, 2.66926110e-01,
          1.46916553e-01, 3.27811316e-02, 2.66926110e-01, 2.66926110e-01,
          2.66926110e-01, 1.93873584e-01, 2.66926110e-01, 1.22932583e-01,
          3.60431261e-02, 1.69381052e-01, 3.06617230e-01, 1.17861591e-01,
          2.94599682e-02, 1.28963953e-02, 3.02597750e-02, 1.19731665e-01,
          6.04281761e-02, 2.35998943e-01, 1.06119499e-01, 2.78018713e-01,
          3.06617230e-01, 1.84788853e-01, 2.96587925e-02, 2.35071003e-01,
          3.06617230e-01, 1.67887926e-01, 7.30398158e-03, 8.18338096e-02,
          3.47643048e-02, 3.19618918e-02, 1.43013999e-01, 3.06617230e-01,
          2.44992033e-01, 3.06617230e-01, 3.06617230e-01, 1.29834637e-01,
          5.19542731e-02, 9.67921987e-02, 2.54203826e-01, 1.19633943e-01,
          1.58369109e-01, 2.82115638e-01, 1.85021490e-01, 9.71403196e-02,
          1.90891802e-01, 2.82115638e-01, 2.06437498e-01, 6.40582070e-02,
          1.34159818e-01, 1.40724495e-01, 2.40786690e-02, 1.32279247e-01,
          2.46027157e-01, 8.79887715e-02, 2.06235230e-01, 2.82115638e-01,
          1.92176878e-01, 1.37801886e-01, 2.82115638e-01, 2.82115638e-01,
          9.72834378e-02, 3.77117060e-02, 2.82115638e-01, 2.07952544e-01 ]
      - [ 1.09710485e-01, 2.11326644e-01, 1.59453243e-01, 5.04651703e-02,
          3.77792120e-02, 2.68487744e-02, 1.57055452e-01, 5.60667589e-02,
          2.36605123e-01, 3.16397280e-01, 2.69494921e-01, 2.58494496e-01,
          4.84077819e-02, 7.46184886e-02, 3.12258393e-01, 5.24948724e-02,
          3.27102207e-02, 9.69195366e-02, 5.03033735e-02, 1.46237701e-01,
          3.25064629e-01, 3.25064629e-01, 6.89080656e-02, 1.52969092e-01,
          2.30780587e-01, 1.77791938e-01, 1.18408285e-01, 3.25064629e-01,
          1.09053306e-01, 1.81424618e-01, 2.69066006e-01, 9.22261924e-02,
          5.54016456e-02, 1.44597944e-02, 1.77439433e-02, 3.40249330e-01,
          3.54886115e-01, 3.54886115e-01, 7.97573179e-02, 2.59766239e-03,
          2.82302219e-03, 2.72229370e-02, 2.12374285e-01, 1.08085029e-01,
          2.77144849e-01, 8.37646872e-02, 2.97450293e-02, 2.16702465e-02,
          1.75399542e-01, 1.99919134e-01, 3.54886115e-01, 3.54886115e-01,
          1.58720359e-01, 0., 2.72979494e-03, 5.08971699e-02,
          1.07807271e-01, 6.98615797e-04, 3.11119147e-02, 2.35390767e-01,
          7.19940886e-02, 5.90278208e-02, 2.95069188e-01, 2.95069188e-01,
          4.43801098e-02, 8.91131833e-02, 2.24998862e-01, 1.12268463e-01,
          9.04508457e-02, 2.95069188e-01, 1.02253230e-02, 4.67519322e-03,
          9.61490870e-02, 2.95069188e-01, 2.49379277e-01, 1.28181458e-01,
          2.75741667e-02, 2.06272379e-01, 2.95069188e-01, 2.95069188e-01,
          2.95069188e-01, 2.60328829e-01, 1.59652874e-01, 7.10105449e-02,
          2.53254235e-01, 6.10053428e-02, 4.48445454e-02, 3.06190178e-02,
          1.71684269e-02, 2.92379446e-02, 1.80888802e-01, 2.90700495e-01,
          2.90700495e-01, 2.87843704e-01, 6.35009781e-02, 0.,
          3.40582780e-03, 1.98026285e-01, 2.90700495e-01, 2.90700495e-01,
          2.90700495e-01, 4.90113720e-02, 2.14641131e-02, 2.09825225e-02,
          1.98139846e-01, 2.90700495e-01, 2.90700495e-01, 2.17072099e-01,
          2.37806551e-02, 0., 1.41947973e-03, 2.90700495e-01 ]
      - [ 3.48389670e-02, 1.18607115e-02, 2.47268053e-03, 1.33205801e-01,
          1.07495181e-01, 4.86866497e-02, 3.11245210e-02, 1.07959248e-02,
          1.30325155e-02, 3.45563772e-03, 3.56056601e-01, 2.81061381e-01,
          1.04312845e-01, 3.34611796e-02, 2.90536806e-02, 0., 0.,
          1.14355564e-01, 1.84055969e-01, 3.19738686e-01, 1.72195494e-01,
          2.39970073e-01, 0., 0., 3.56056601e-01, 3.56056601e-01,
          3.56056601e-01, 3.56056601e-01, 0., 3.33744683e-04,
          1.11248220e-04, 2.78743178e-01, 7.75608793e-02, 3.03419419e-02,
          1.40540078e-02, 2.83871684e-02, 0., 0., 3.17303717e-01,
          2.40305528e-01, 1.59221321e-01, 1.10705055e-01, 1.07108004e-01,
          0., 0., 2.94190794e-01, 1.24772102e-01, 1.67888016e-01,
          2.71522492e-01, 3.11336786e-01, 0., 0., 3.17303717e-01,
          3.17303717e-01, 3.17303717e-01, 3.17303717e-01, 8.66470113e-02,
          0., 0., 1.66733004e-02, 6.04640208e-02, 2.76826173e-01,
          3.76986593e-01, 4.45843518e-01, 0., 0., 1.40927464e-01,
          1.46785334e-01, 4.45843518e-01, 4.45843518e-01, 3.17978263e-02,
          0., 0., 0., 0., 2.80254753e-03, 7.01614171e-02, 1.93023399e-01,
          0., 0., 0., 0., 4.87192476e-04, 2.90547162e-01, 3.23112011e-01,
          0., 0., 6.84071928e-02, 4.28001769e-02, 1.57139540e-01,
          4.13081884e-01, 4.13081884e-01, 0., 0., 1.74923286e-01,
          1.20218791e-01, 4.13081884e-01, 4.13081884e-01, 8.24380592e-02,
          0., 0., 0., 0., 0., 1.06478438e-01, 2.04274848e-01, 0., 0., 0.,
          0., 0., 2.69830763e-01 ]
      - [ 2.38533672e-02, 4.45690542e-01, 4.23846692e-01, 2.33936887e-02,
          7.26188160e-03, 3.99749167e-03, 1.11558065e-02, 7.82726984e-03,
          1.66468278e-01, 1.34083837e-01, 1.47852689e-01, 6.09715357e-02,
          3.54025029e-02, 4.78247553e-03, 1.88138068e-01, 4.45690542e-01,
          3.84098887e-01, 2.31541432e-02, 1.14996098e-02, 2.48396043e-02,
          5.06205745e-02, 1.39698029e-01, 1.93621710e-01, 1.17322072e-01,
          1.30678892e-01, 1.03734560e-01, 1.99144363e-01, 1.40233710e-01,
          9.29430779e-03, 9.23394561e-02, 1.74867243e-01, 2.59626269e-01,
          1.51448935e-01, 2.08831221e-01, 2.20300332e-02, 7.74126723e-02,
          6.98675439e-02, 8.51247683e-02, 8.66655782e-02, 1.35025859e-01,
          2.59626269e-01, 8.61762166e-02, 2.59626269e-01, 2.59626269e-01,
          2.59626269e-01, 2.59626269e-01, 1.84175998e-01, 2.59626269e-01,
          2.59626269e-01, 1.76603943e-01, 2.59626269e-01, 1.95130631e-01,
          1.43428296e-01, 1.32255584e-01, 2.59310216e-01, 1.57317251e-01,
          1.28303275e-01, 4.42077547e-01, 4.42077547e-01, 5.57533763e-02,
          2.48436630e-03, 1.20607466e-02, 3.51593122e-02, 1.37737677e-01,
          1.45704553e-01, 5.73193394e-02, 2.12054607e-02, 2.77015939e-02,
          1.01797670e-01, 1.59219667e-01, 2.86513623e-02, 4.42077547e-01,
          4.42077547e-01, 4.84652407e-02, 5.39792527e-05, 7.40197662e-04,
          7.65158329e-03, 5.54884896e-02, 3.00259411e-01, 9.30611119e-02,
          4.79544606e-03, 3.73084582e-02, 5.39217815e-02, 5.50607927e-02,
          2.93501824e-01, 2.61223406e-01, 7.56857395e-02, 7.82130286e-02,
          2.24296361e-01, 2.58956432e-01, 2.93501824e-01, 1.62886724e-01,
          1.89633846e-01, 8.99055824e-02, 1.13115557e-01, 2.93501824e-01,
          1.78185821e-01, 1.20786712e-01, 1.10051244e-01, 6.07915185e-02,
          2.01955088e-03, 9.51101165e-03, 2.93501824e-01, 2.93501824e-01,
          1.83722496e-01, 2.55052485e-02, 4.31638882e-02, 5.80459461e-02,
          6.25049844e-02, 2.93501824e-01, 2.93501824e-01, 8.63565058e-02 ]
      - [ 4.22214083e-02, 3.79849263e-02, 9.88673512e-03, 1.63614694e-02,
          2.16702521e-02, 7.35882148e-02, 5.47409728e-02, 9.24556032e-02,
          1.56333018e-02, 2.43990682e-02, 5.76955974e-02, 8.18196684e-02,
          2.39860415e-01, 1.17043853e-01, 1.31910771e-01, 6.60778135e-02,
          1.42968947e-03, 4.17998403e-01, 1.65872887e-01, 2.21351534e-01,
          8.36555734e-02, 3.14832151e-01, 1.85772493e-01, 1.67778090e-01,
          4.17998403e-01, 2.39634335e-01, 4.17998403e-01, 2.09901199e-01,
          8.67532715e-02, 3.78085263e-02, 1.92424804e-02, 3.88681293e-02,
          1.58364370e-01, 2.64665991e-01, 1.10974468e-01, 2.64665991e-01,
          2.64665991e-01, 3.63969952e-02, 2.01451182e-02, 2.02711925e-01,
          1.96026653e-01, 1.04759939e-01, 1.86549291e-01, 1.70807794e-01,
          2.09486395e-01, 2.64665991e-01, 1.14081472e-01, 2.64665991e-01,
          2.35500127e-01, 2.32544377e-01, 2.64665991e-01, 2.53069788e-01,
          8.83598402e-02, 9.34658945e-02, 2.52114296e-01, 2.49098510e-01,
          8.35026056e-02, 1.71019956e-02, 0., 2.32201710e-01,
          1.87269241e-01, 2.21816957e-01, 1.07035898e-01, 2.57260740e-01,
          1.90443352e-01, 1.86996162e-01, 2.97522604e-01, 2.41399065e-01,
          2.89837420e-01, 2.97522604e-01, 1.01598069e-01, 3.63990315e-03,
          1.74666313e-03, 4.09906656e-02, 1.38462886e-01, 1.59538254e-01,
          1.61931843e-01, 2.97522604e-01, 1.39142454e-01, 1.20460384e-01,
          1.45853683e-01, 1.56201988e-01, 2.09592327e-01, 2.97522604e-01,
          1.81936592e-01, 2.71085203e-01, 2.71085203e-01, 2.71085203e-01,
          9.47555751e-02, 1.49784580e-01, 2.71085203e-01, 1.49316460e-01,
          2.33676091e-01, 2.44957909e-01, 6.39914796e-02, 3.49604078e-02,
          1.35685384e-01, 1.24017544e-01, 2.71085203e-01, 2.71085203e-01,
          2.46928468e-01, 8.79087001e-02, 4.55475152e-02, 6.18636683e-02,
          2.71085203e-01, 2.50789136e-01, 2.55257636e-01, 1.12153478e-01,
          1.08784623e-02, 2.83546057e-02, 9.89146754e-02, 1.28115922e-01 ]
      - [ 1.06637821e-01, 5.98011026e-03, 4.22857061e-04, 7.25130504e-03,
          4.94087823e-02, 3.42101038e-01, 2.13258192e-01, 3.42101038e-01,
          5.08910567e-02, 8.63468833e-03, 3.69270053e-03, 1.15928138e-02,
          1.20552622e-01, 2.95784503e-01, 3.42101038e-01, 2.44350079e-02,
          4.81874831e-02, 1.87344000e-01, 4.21396224e-03, 1.56781211e-01,
          3.42101038e-01, 3.42101038e-01, 1.79890599e-02, 3.47239412e-02,
          2.53585994e-01, 1.86954858e-03, 4.14150991e-02, 3.42101038e-01,
          3.23245049e-01, 9.39906016e-02, 7.43355788e-03, 3.09818052e-03,
          2.27414491e-03, 3.54946628e-02, 1.97539166e-01, 2.88477391e-01,
          1.19291529e-01, 2.20342400e-03, 5.79727767e-03, 3.79524641e-02,
          2.43160352e-01, 3.23245049e-01, 3.23245049e-01, 9.13760737e-02,
          2.07461026e-02, 8.85865614e-02, 1.45968683e-02, 7.27666691e-02,
          3.23245049e-01, 3.23245049e-01, 1.29397541e-01, 7.15806661e-03,
          3.67331542e-02, 1.33556589e-01, 3.23245049e-01, 3.23245049e-01,
          1.82003230e-01, 2.14899611e-02, 1.24318153e-01, 3.15348625e-01,
          1.36724487e-01, 2.55527366e-02, 1.07899994e-01, 2.99809068e-01,
          2.75119953e-02, 3.10983211e-01, 3.15348625e-01, 4.08019423e-02,
          4.74360865e-03, 1.25080362e-01, 4.72571217e-02, 3.33683230e-02,
          1.28366306e-01, 3.15348625e-01, 3.15348625e-01, 2.05538720e-01,
          1.01042576e-02, 6.45521879e-02, 2.00858265e-01, 3.15348625e-01,
          3.15348625e-01, 8.79960582e-02, 3.14999111e-02, 6.68299478e-03,
          2.17496887e-01, 3.78506072e-02, 2.70734429e-01, 3.00687164e-01,
          3.50864753e-02, 4.64171469e-02, 8.85703266e-02, 1.17947884e-01,
          2.78184451e-02, 9.72036868e-02, 2.79798329e-01, 2.94854045e-01,
          3.00687164e-01, 9.73997936e-02, 1.18607506e-02, 1.34005144e-01,
          3.00687164e-01, 3.00687164e-01, 3.65894362e-02, 9.27337259e-03,
          7.96652923e-04, 8.42023082e-03, 9.93040353e-02, 1.96119130e-01,
          3.00687164e-01, 2.75038421e-01, 2.52084523e-01, 7.55548179e-02 ]
      - [ 0., 0., 0., 1.65031329e-01, 1.33856889e-02, 0., 0., 0., 0., 0.,
          3.61802638e-01, 1.24923568e-02, 0., 0., 3.06642428e-02,
          2.00864603e-03, 6.69548695e-04, 4.49592590e-01, 4.30060625e-01,
          2.28650346e-02, 1.24549136e-01, 1.45262241e-01, 0.,
          1.85839448e-03, 4.49592590e-01, 3.86835575e-01, 8.58197361e-03,
          2.44986370e-01, 0., 0., 0., 2.85264581e-01, 1.69743772e-03, 0.,
          0., 0., 0., 0., 3.80902052e-01, 1.81658403e-03, 0., 0.,
          1.44935280e-01, 0., 1.07250717e-02, 5.61163962e-01,
          6.22121058e-02, 0., 1.60388380e-01, 1.94875300e-01, 0.,
          1.30301537e-02, 5.61163962e-01, 6.23271093e-02, 0.,
          2.13004231e-01, 2.18773529e-01, 2.40393169e-02, 1.41691323e-03,
          2.33065292e-01, 2.88697243e-01, 1.78007558e-02, 3.07973832e-01,
          3.07973832e-01, 2.21631886e-03, 1.44678669e-03, 3.07973832e-01,
          2.58123308e-01, 6.68118941e-03, 3.07973832e-01, 3.07973832e-01,
          3.87663841e-02, 8.50147917e-04, 9.07047279e-03, 3.74088101e-02,
          2.54296535e-03, 2.74064004e-01, 3.07973832e-01, 1.12977605e-02,
          2.06683806e-04, 2.33243927e-02, 3.32969539e-02, 9.54455696e-04,
          3.07973832e-01, 3.14933687e-01, 2.57354695e-04, 7.47867161e-03,
          3.14933687e-01, 3.81435603e-02, 0., 3.14933687e-01,
          3.14933687e-01, 0., 9.08602215e-03, 3.14933687e-01,
          3.78561281e-02, 0., 3.14933687e-01, 3.14933687e-01,
          1.80148275e-03, 1.06838159e-03, 2.58867927e-02, 5.01364470e-03,
          0., 3.14933687e-01, 3.14933687e-01, 0., 1.29800313e-03,
          3.56163085e-02, 4.94201854e-03, 0., 3.14933687e-01 ]
      - [ 2.70016678e-02, 1.11387022e-01, 1.05816409e-01, 4.28318828e-02,
          1.92511544e-01, 2.71735460e-01, 1.68244299e-02, 1.88391492e-01,
          1.40719503e-01, 2.71735460e-01, 2.23779276e-01, 2.71735460e-01,
          2.71735460e-01, 9.06974822e-02, 1.03693141e-03, 5.62386960e-02,
          1.83286726e-01, 2.71735460e-01, 1.96607515e-01, 2.14321733e-01,
          2.70579103e-02, 2.71735460e-01, 1.31817982e-01, 6.14929385e-02,
          2.57748276e-01, 2.40314662e-01, 2.71735460e-01, 1.89405382e-01,
          2.51912177e-01, 2.69611329e-01, 2.69611329e-01, 2.48919755e-01,
          1.66207999e-01, 2.39894718e-01, 4.34960201e-02, 5.40912226e-02,
          2.58391470e-01, 2.01679230e-01, 1.27494335e-01, 1.90351859e-01,
          1.92562401e-01, 3.23892459e-02, 2.69611329e-01, 2.69611329e-01,
          1.04309618e-01, 2.69611329e-01, 9.06141326e-02, 1.37855425e-01,
          9.21515301e-02, 9.10569131e-02, 2.00408041e-01, 4.89704348e-02,
          2.69611329e-01, 1.91679165e-01, 1.08935289e-01, 4.05503549e-02,
          3.07664592e-02, 9.45918486e-02, 3.15446943e-01, 3.45716000e-01,
          2.05671206e-01, 6.51034564e-02, 3.31207551e-02, 2.49189466e-01,
          1.47134423e-01, 8.89019892e-02, 3.45716000e-01, 2.73821801e-01,
          1.19133957e-01, 2.52300352e-01, 1.10950194e-01, 3.45716000e-01,
          1.16052836e-01, 1.85029790e-01, 5.77197922e-03, 1.24895351e-03,
          1.74725484e-02, 1.32237971e-01, 3.09973866e-01, 8.80686268e-02,
          1.46158189e-01, 6.47800490e-02, 9.03969333e-02, 1.45135611e-01,
          2.48546496e-01, 1.52475864e-01, 6.71573803e-02, 3.04733366e-01,
          6.78645894e-02, 2.44849660e-02, 1.22177824e-01, 2.21419856e-01,
          9.29585770e-02, 3.95925120e-02, 3.04733366e-01, 1.75916627e-01,
          4.37139161e-02, 3.04733366e-01, 1.28056496e-01, 2.48334154e-01,
          2.25119889e-01, 8.14043954e-02, 3.91339473e-02, 7.00828433e-02,
          9.64575782e-02, 2.68646300e-01, 2.83100098e-01, 3.04733366e-01,
          1.22659847e-01, 6.62598312e-02, 8.94959494e-02, 3.04733366e-01 ]
      - [ 1.61392819e-02, 1.02923416e-01, 5.62648512e-02, 1.06445223e-01,
          3.14102590e-01, 1.93587750e-01, 4.52920720e-02, 1.35637552e-01,
          1.34408459e-01, 2.19703410e-02, 6.05293848e-02, 3.14102590e-01,
          3.14102590e-01, 1.05266400e-01, 3.44538651e-02, 7.43589550e-02,
          5.97922057e-02, 2.27469489e-01, 3.14102590e-01, 1.70056179e-01,
          1.22305766e-01, 1.97713271e-01, 2.22666949e-01, 2.38152713e-01,
          1.75240934e-01, 3.14102590e-01, 1.72228500e-01, 2.74443924e-01,
          2.52747893e-01, 2.52747893e-01, 6.55157715e-02, 6.37366697e-02,
          2.08703414e-01, 1.80898696e-01, 5.70009872e-02, 2.52747893e-01,
          2.52747893e-01, 2.24826708e-01, 2.08757550e-01, 3.31490673e-02,
          6.39215037e-02, 6.33679256e-02, 2.52747893e-01, 2.48827711e-01,
          2.41041616e-01, 1.06304638e-01, 7.42314532e-02, 1.62975147e-01,
          1.56270966e-01, 2.52747893e-01, 1.49843827e-01, 2.23818973e-01,
          2.52747893e-01, 1.66115522e-01, 2.52747893e-01, 8.51969570e-02,
          3.33501175e-02, 2.46273689e-02, 4.90446724e-02, 1.63349465e-01,
          2.86171675e-01, 1.96934223e-01, 1.31756395e-01, 1.09100468e-01,
          8.07900354e-02, 2.86171675e-01, 1.92061707e-01, 1.96674332e-01,
          8.94779786e-02, 2.30938613e-01, 3.15343328e-02, 2.13676766e-01,
          9.28410068e-02, 2.38095671e-01, 2.86171675e-01, 2.86171675e-01,
          5.29925153e-02, 1.91749394e-01, 2.45282635e-01, 2.86171675e-01,
          2.29633719e-01, 1.91655025e-01, 1.10899061e-01, 1.78659096e-01,
          9.33816358e-02, 9.42676738e-02, 2.82541126e-01, 1.97553441e-01,
          5.34759872e-02, 2.19143510e-01, 1.09954096e-01, 8.50340724e-02,
          5.33569977e-02, 2.82541126e-01, 2.82541126e-01, 1.96240708e-01,
          2.82541126e-01, 3.58162932e-02, 1.46804884e-01, 5.46641797e-02,
          2.82541126e-01, 2.54862905e-01, 2.28608102e-01, 1.54818311e-01,
          8.66979361e-02, 1.38087392e-01, 9.61268321e-02, 2.10900411e-01,
          2.82541126e-01, 2.55933344e-01, 1.92017972e-01, 1.78691056e-02 ]
      - [ 4.76351194e-02, 2.67885953e-01, 8.49394426e-02, 6.10427335e-02,
          9.23196599e-02, 4.00491878e-02, 4.39611636e-02, 7.75466068e-03,
          1.10138938e-01, 5.30214496e-02, 3.37960899e-01, 3.37960899e-01,
          1.40283048e-01, 2.36901045e-02, 8.89956858e-03, 2.14285150e-01,
          8.63236263e-02, 7.25402683e-02, 1.58824205e-01, 2.35874876e-01,
          9.81260911e-02, 1.58552065e-01, 6.07752688e-02, 3.17603201e-02,
          3.37960899e-01, 3.37960899e-01, 3.37960899e-01, 3.37960899e-01,
          8.69242195e-03, 2.02654693e-02, 5.04671708e-02, 2.89465398e-01,
          2.09653988e-01, 4.98427078e-02, 2.21061539e-02, 1.14962980e-02,
          7.62323663e-02, 1.74227178e-01, 2.89465398e-01, 1.24719352e-01,
          4.15817127e-02, 1.12961968e-02, 2.44467631e-01, 1.21126294e-01,
          8.83658528e-02, 2.89465398e-01, 2.10723132e-01, 2.04763174e-01,
          2.89465398e-01, 2.70854324e-01, 2.89465398e-01, 2.89465398e-01,
          2.89465398e-01, 6.18366525e-02, 2.84750275e-02, 2.45624855e-01,
          1.66666359e-02, 3.28107685e-01, 1.69045329e-01, 2.46151462e-02,
          4.12818044e-02, 1.38792738e-01, 1.56331092e-01, 2.38879517e-01,
          1.08485699e-01, 3.13919634e-02, 8.74323621e-02, 1.74391195e-01,
          3.28107685e-01, 3.28107685e-01, 8.42410978e-03, 3.28107685e-01,
          3.28107685e-01, 1.04673887e-02, 9.35451034e-03, 2.99490858e-02,
          3.71936224e-02, 3.90943363e-02, 1.94433749e-01, 8.98325816e-02,
          8.32746737e-03, 2.43406326e-01, 3.28107685e-01, 2.42455691e-01,
          3.09168398e-01, 9.06370580e-02, 2.83899456e-02, 1.17272913e-01,
          1.36248007e-01, 2.58033454e-01, 3.09168398e-01, 3.09168398e-01,
          3.09168398e-01, 1.74257338e-01, 8.73904675e-02, 7.28503764e-02,
          1.15106761e-01, 3.09168398e-01, 5.68858795e-02, 3.23842163e-03,
          3.05076735e-03, 1.28644914e-03, 3.09168398e-01, 3.09168398e-01,
          1.98896766e-01, 6.56669512e-02, 1.52874589e-01, 7.32123330e-02,
          2.15774160e-02, 2.05198750e-01, 1.85662493e-01, 1.02146566e-01 ]
      - [ 4.79504392e-02, 3.66185993e-01, 2.85525531e-01, 2.24237083e-04,
          1.04202447e-03, 1.13854436e-02, 2.86712474e-03, 1.40222028e-01,
          3.66185993e-01, 1.75976038e-01, 1.21112366e-03, 8.24621879e-03,
          8.25542510e-02, 7.18075410e-02, 8.56790245e-02, 3.66185993e-01,
          3.66185993e-01, 2.09016446e-02, 4.91161924e-03, 4.02991753e-03,
          5.39712468e-03, 1.69132322e-01, 3.66185993e-01, 3.66185993e-01,
          8.23162496e-02, 2.43478175e-02, 1.36691667e-02, 3.38504277e-02,
          2.78708875e-01, 2.78708875e-01, 6.27182946e-02, 1.09460372e-02,
          1.67021994e-02, 1.46387219e-01, 2.40286797e-01, 2.78708875e-01,
          2.78708875e-01, 1.09600075e-01, 1.10784043e-02, 1.62427407e-02,
          8.10043961e-02, 7.02581033e-02, 2.78708875e-01, 2.26371869e-01,
          1.84741020e-01, 2.78708875e-01, 5.78130297e-02, 1.34610116e-01,
          1.05471186e-01, 2.60279059e-01, 2.29003817e-01, 1.58460051e-01,
          2.69963890e-01, 4.84846868e-02, 2.78708875e-01, 8.70619938e-02,
          1.83468051e-02, 3.48621100e-01, 3.48621100e-01, 2.00933293e-02,
          1.17229801e-02, 1.59921851e-02, 6.72805123e-03, 2.33860519e-02,
          3.48621100e-01, 3.48621100e-01, 8.67332444e-02, 4.62504476e-02,
          9.35179647e-03, 4.73798858e-03, 1.66487545e-02, 3.48621100e-01,
          3.48621100e-01, 3.39278905e-03, 2.84204874e-02, 9.27902535e-02,
